{
  "num_class": 10,
  "num_hidden": 100,
  "num_visible": 20,
  "params": {
    "bias_b": [
      0.0,
      0.0,
      0.0,
      0.0,
      0.0,
      0.0,
      0.0,
      0.0,
      0.0,
      0.0
    ],
    "bias_c": [
      0.0,
      0.0,
      0.0,
      0.0,
      0.0,
      0.0,
      0.0,
      0.0,
      0.0,
      0.0,
      0.0,
      0.0,
      0.0,
      0.0,
      0.0,
      0.0,
      0.0,
      0.0,
      0.0,
      0.0,
      0.0,
      0.0,
      0.0,
      0.0,
      0.0,
      0.0,
      0.0,
      0.0,
      0.0,
      0.0,
      0.0,
      0.0,
      0.0,
      0.0,
      0.0,
      0.0,
      0.0,
      0.0,
      0.0,
      0.0,
      0.0,
      0.0,
      0.0,
      0.0,
      0.0,
      0.0,
      0.0,
      0.0,
      0.0,
      0.0,
      0.0,
      0.0,
      0.0,
      0.0,
      0.0,
      0.0,
      0.0,
      0.0,
      0.0,
      0.0,
      0.0,
      0.0,
      0.0,
      0.0,
      0.0,
      0.0,
      0.0,
      0.0,
      0.0,
      0.0,
      0.0,
      0.0,
      0.0,
      0.0,
      0.0,
      0.0,
      0.0,
      0.0,
      0.0,
      0.0,
      0.0,
      0.0,
      0.0,
      0.0,
      0.0,
      0.0,
      0.0,
      0.0,
      0.0,
      0.0,
      0.0,
      0.0,
      0.0,
      0.0,
      0.0,
      0.0,
      0.0,
      0.0,
      0.0,
      0.0
    ],
    "weight_w": [
      [
        -0.06920276099320774,
        0.19526378019005286,
        0.2315471582091893,
        0.23306448461373036,
        0.23031733725301334,
        -0.11300501591745239,
        0.17274794710431046,
        -0.0899716708128622,
        0.18103529381979688,
        0.2029486944880497,
        -0.09317253075095952,
        -0.13247522666899114,
        0.07182295816491086,
        0.11527322920779676,
        0.0346132160863018,
        0.15929531908508965,
        0.14391633866836306,
        -0.042250678282998305,
        -0.20299147465728878,
        -0.19036732054253575,
        0.10380020926138356,
        0.08377483524264973,
        -0.1324569403445629,
        0.13744606909285306,
        0.162387667951657,
        -0.12924741974635712,
        -0.06369110942407061,
        0.007659938683807099,
        0.1668833635699864,
        -0.12801783150041152,
        -0.02801291463460867,
        -0.0042094382000285036,
        0.18242623013350662,
        0.1518647902085402,
        0.19930614804491592,
        0.17614595095844676,
        -0.10828708138924922,
        0.08023651397787218,
        -0.14822435834606457,
        0.15423135148875844,
        -0.18430554008785843,
        -0.1942703628170032,
        0.055813904087882005,
        0.06063609956640237,
        -0.19665791600581978,
        0.15480911297531125,
        -0.0423951010640288,
        -0.20948035938237583,
        0.20091232204205928,
        -0.13804451102658655,
        -0.2005580400318158,
        -0.04485250251296197,
        -0.21963637188260568,
        -0.22291328924953294,
        0.19921310435085732,
        -0.16666175931220917,
        0.1652812501297199,
        -0.044204873955663526,
        -0.15328704030818718,
        0.11368664462401634,
        -0.214607583151168,
        0.03416281909302343,
        0.18586435256737632,
        -0.14560954727918834,
        0.0752887997242267,
        0.1258456073922557,
        -0.11730302336217947,
        -0.1190088666265565,
        -0.16192847164318483,
        -0.040806127695024896,
        -0.02805228022994738,
        0.16572479940041557,
        -0.038609722551733394,
        -0.006761461930950757,
        0.2220544994715855,
        0.08546806042278432,
        0.22261044917744138,
        0.03936620457740725,
        0.05863087507571735,
        -0.2082193249875123,
        -0.05940318583360646,
        0.17382607037543824,
        -0.03709678099870009,
        0.13613882722039256,
        0.13858736043154207,
        -0.09901081890798907,
        -0.22250974793725875,
        -0.044705909498776425,
        0.042733757036881204,
        0.01018826429682651,
        -0.21741657679246237,
        -0.13189749817667118,
        -0.2218837903150958,
        0.12032196477359142,
        -0.22757332739215266,
        0.10230436268336701,
        -0.18739200598760758,
        -0.17935860471117307,
        0.08778822715218088,
        -0.15031895060533854
      ],
      [
        -0.0457510738702511,
        0.15065987511076873,
        -0.032805058093153205,
        -0.14879681001287837,
        -0.20709411849237375,
        -0.034045701372317716,
        0.11544353334911983,
        0.09508727980371373,
        0.03160825928351324,
        -0.11063501623697128,
        -0.23253195012589675,
        0.21997437814787124,
        -0.11238281044249715,
        -0.16723845921857414,
        -0.07011087706503216,
        0.12885816316140447,
        -0.2219878611690856,
        0.21464099051626606,
        0.1939923417041151,
        -0.19960994909705654,
        -0.06865860009972352,
        -0.11116384286655466,
        -0.07667888959672672,
        -0.05866706226312146,
        -0.18432335510676756,
        0.22542290019514694,
        0.2214050664512015,
        -0.17913101888538932,
        0.09158486484000805,
        0.1352351229820895,
        0.03455958450500668,
        0.054763933681533705,
        0.00496831220765534,
        0.20852939109855512,
        -0.0948163392815698,
        0.03912938740184008,
        0.18890694483700632,
        -0.0775929755505474,
        -0.12389460518112028,
        0.12026169187430763,
        -0.2225467933614239,
        0.036280181203242445,
        -0.09489783771424953,
        0.06256860779304774,
        -0.04261346986550432,
        0.00976305707811076,
        -0.14842926422237385,
        -0.0017726873708121815,
        0.1047497604967152,
        0.19329763693881608,
        -0.016661769107819524,
        0.009316228863898185,
        -0.1853125809514209,
        0.1925020829660234,
        -0.17783907625526363,
        0.08613423482789151,
        -0.03440430106944001,
        0.22737621088305793,
        0.10548057415292933,
        -0.17300722823246675,
        -0.0504104006350202,
        0.09274100999445933,
        0.2142497768113174,
        -0.05406624143399161,
        0.16420616076326894,
        0.10045398403003125,
        0.2143133860591958,
        0.10806365480050228,
        -0.15847919114825715,
        -0.006788513277631081,
        -0.07328907471615007,
        0.12684026449476926,
        -0.06122051752345689,
        -0.22872389744242594,
        0.14751386833047103,
        0.08239938179799339,
        0.10579065524463355,
        0.09285061271637818,
        -0.10338103708884816,
        -0.03479836856606017,
        0.05817314227273551,
        -0.16137441649727347,
        -0.22418337467169966,
        0.02641983105549678,
        0.11005128382386892,
        -0.046952070335490315,
        -0.06501225813286343,
        0.06549160997583875,
        -0.13901788665753112,
        0.1581502381692117,
        -0.19969744447507823,
        0.03158758026960884,
        -0.11547796607057695,
        -0.05225058550918629,
        -0.03649153022962648,
        0.04840005140352588,
        0.12987534598746547,
        0.08361788807145942,
        -0.10778384334048757,
        0.08951352721686717
      ],
      [
        -0.21968396092951079,
        -0.037772256111569674,
        0.06465005677607955,
        -0.06322234301597654,
        0.200679689423654,
        0.21618728931573006,
        -0.20385296012460058,
        -0.08674297697435357,
        0.10466025911775911,
        0.12324550046623584,
        0.027800383178189836,
        0.18616299269867204,
        0.22488904405606758,
        -0.2011090990645969,
        0.12977171576078705,
        -0.23245049893160658,
        0.1939507678270197,
        -0.12119209287872838,
        0.07275306976781182,
        -0.15825302833199723,
        0.14066969099290044,
        0.19983844957263847,
        -0.049214854092275384,
        -0.2164422587597902,
        -0.19627905036661875,
        -0.1644269255152041,
        0.021742674642625692,
        0.03679671946340757,
        0.045747974068717834,
        0.0405220440075833,
        -0.03047659476234288,
        0.09411467277181823,
        0.23323848919855306,
        0.21543456141073047,
        -0.18614853805390902,
        -0.12402471710776479,
        0.12473849157947525,
        0.2304265538995462,
        0.08127565618827765,
        -0.21728135368976642,
        -0.20201929708107175,
        -0.17996950209882573,
        0.13626265270212862,
        -0.12965082375450285,
        0.05155608451470256,
        -0.1656230398899797,
        0.09347947475075058,
        -0.231018902151334,
        0.12408455137013624,
        0.026274409221748396,
        0.022206763784274275,
        0.23275795698353818,
        -0.12301585016294056,
        -0.15676287505174205,
        0.17948851786623693,
        -0.21557663666133328,
        -0.0981775781098293,
        0.14690158712334483,
        0.08671979826944654,
        0.12007165033282463,
        -0.1724975664589648,
        0.14512838356693286,
        -0.18270804958898668,
        -0.12454790990192684,
        0.19773951062553513,
        -0.1289388496035596,
        -0.11062765205057745,
        0.0465868142320629,
        -0.15748893303911532,
        0.020299777109548667,
        -0.05121760629694724,
        0.05090964369014733,
        0.02478092414444788,
        -0.10412664651609413,
        0.21186822113665194,
        -0.1554901976609774,
        -0.09137045488357781,
        -0.03991765547423126,
        0.14477064645672627,
        -0.02818239533076891,
        0.048739701415277614,
        -0.11387091210767288,
        -0.1650449317227718,
        -0.03917721638074517,
        -0.21404179684125613,
        0.19546941800141115,
        -0.061911700605960074,
        -0.2187459460189379,
        -0.19524887592110265,
        0.1356159626513571,
        0.04762520760119099,
        0.03366334998369508,
        -0.10160017462481574,
        -0.024581571014620218,
        0.2233890332040418,
        0.11561529084145722,
        0.08827856306483256,
        -0.08359388514124952,
        0.11210864339265475,
        0.08742310686575916
      ],
      [
        -0.09198734652638144,
        0.15059505773926818,
        -0.20334574687899945,
        0.1830176436410309,
        0.19453569748008664,
        -0.11422222502519508,
        -0.1617234278014497,
        -0.20040371212163485,
        0.15876533523718084,
        0.032898657588388835,
        0.18465943154596764,
        0.1630911944765306,
        0.11938260317911709,
        -0.22820655435653248,
        -0.22199426585547863,
        -0.13940016958882523,
        -0.20247276251577725,
        -0.13547825592290225,
        -0.05831134967729443,
        0.17715244645820905,
        0.08413540724138052,
        0.07253119399963515,
        0.026177209298812065,
        -0.041868829233626725,
        0.19647481850995258,
        -0.14440902898427138,
        0.021349317056499673,
        0.08452244490274236,
        -0.11198459008868793,
        -0.13065977406494272,
        -0.20226132945997838,
        0.05213601282061758,
        -0.002021688211718109,
        0.22334540685914284,
        -0.0991386785809083,
        0.17298956656602582,
        0.01162424371589682,
        -0.05905516943531178,
        -0.07492140319560883,
        0.1568162777960933,
        0.06849067106471945,
        -0.021232688301471764,
        -0.18801084937564044,
        0.18853358433543005,
        0.08811291238470575,
        0.12007894846602601,
        0.1247762094908445,
        0.17563106375030602,
        -0.21337598775904026,
        -0.1381072247157038,
        -0.061170738857531465,
        0.04460254974780281,
        0.09299834405224683,
        -0.08363967835612857,
        0.1602051606357342,
        0.04399991085331195,
        -0.2190171032088025,
        0.07354965113021095,
        -0.14244712334885823,
        -0.13496096650233982,
        -0.044081248456905586,
        0.15238200756762404,
        -0.22863093005620705,
        0.10704723729267263,
        -0.1415444150531329,
        0.17406180463162774,
        0.10464416776955476,
        -0.1229572474702148,
        -0.20834374236855588,
        -0.12982007453803163,
        0.1612969911799061,
        0.0769060111946539,
        -0.21733287341332722,
        -0.17601974347132715,
        0.06690689588323251,
        -0.02665382157379409,
        -0.1147180557981652,
        -0.14960236279752626,
        0.11561727088521451,
        0.18160246172780464,
        -0.22927361396528403,
        0.11307322037464612,
        -0.12869843949960402,
        0.0851744939822377,
        -0.011209535109330954,
        0.16153352318529246,
        -0.1540057991374741,
        -0.22093224781375806,
        -0.10673111997519175,
        0.21690711285786257,
        0.049196230292994136,
        -0.151804836120915,
        0.10876390187297807,
        0.0844953418760841,
        0.1376959017731949,
        0.1910723424358855,
        0.1967637450734951,
        -0.05121755734725669,
        0.07523000562205878,
        -0.10580757890782036
      ],
      [
        0.01515279120723903,
        0.08723281712053049,
        -0.012222675763301355,
        0.12753416483707708,
        -0.05699391825963826,
        0.03209233520773619,
        0.11220203143804497,
        0.018437243479061283,
        0.09489316054304031,
        -0.006127108556956945,
        -0.06276069281611396,
        0.23082673661602393,
        0.13571920101804646,
        0.07320275481498473,
        -0.13309332039807073,
        0.11404848344094576,
        0.1769294231890184,
        -0.01673526703885725,
        0.16121917693874238,
        0.03174149741464355,
        -0.051647024802172564,
        0.12698152671351276,
        -0.09264222673109868,
        -0.1346598786202065,
        0.019287777248708393,
        0.11616762263349573,
        -0.17874367115213255,
        -0.14928127312234912,
        -0.22137202165964792,
        0.1036621377325066,
        0.032825356924640614,
        0.21539254270190578,
        0.11639974477223586,
        0.11518827124476755,
        0.08389098127040867,
        -0.22305819211796174,
        -0.039635592780108836,
        0.21246335659886129,
        0.11692841025898948,
        0.11796539430979397,
        0.09988631169382284,
        -0.061228097599332426,
        -0.17376293232542406,
        0.09661717188046864,
        -0.09122094201839073,
        0.21451421437845625,
        0.20705178147690534,
        -0.12490199431126385,
        0.003212286500907491,
        0.10272682660251015,
        0.10938705439698926,
        -0.18717863348313274,
        -0.083139666249568,
        0.09354950979932736,
        0.18503105536395437,
        -0.046378746112142266,
        0.21518504335211924,
        0.06586381268123287,
        -0.018469004000076755,
        0.11116912872082596,
        -0.07323800553807983,
        -0.14060196581131543,
        -0.16773779743819023,
        -0.03875312491719213,
        -0.11465679505927912,
        -0.0524558126597289,
        -0.08888497711014823,
        -0.08857996709867463,
        -0.23054833423023402,
        0.010088525606101878,
        -0.23227317601543787,
        -0.12235326364337738,
        -0.19616768370564172,
        0.02340571234497113,
        0.02667366114184233,
        -0.18108001884828642,
        -0.14563657981273723,
        0.07468770857475998,
        0.13156587796304703,
        0.08386570161511131,
        -0.09173543766003545,
        -0.03771299062878736,
        0.060547723570797296,
        0.14577866730699646,
        0.009207202111996937,
        -0.1475741083376223,
        -0.02694456436043871,
        -0.08123467453237831,
        0.22570819871012265,
        0.2105047921655604,
        0.03393731819450885,
        -0.0036484629410231117,
        -0.21348363540858004,
        0.01179832826576796,
        -0.1808542797252332,
        0.18252230050804952,
        -0.09833250872461696,
        -0.0507462829272779,
        -0.04317377688738844,
        0.14000660190048325
      ],
      [
        0.14336861615995067,
        0.08601376683708256,
        0.10099049939568222,
        -0.0488671946880371,
        0.20412772185419403,
        -0.1124613517752465,
        -0.04196937123886818,
        0.1263810133131455,
        0.1891147823108763,
        0.16147664461644368,
        -0.02646891558445036,
        -0.19862260550662642,
        -0.11291777092470756,
        0.030486234514984833,
        0.21527362413660844,
        0.04394524143504941,
        -0.08548617064516367,
        -0.1116265391409397,
        -0.1847999153804218,
        -0.03805905510543012,
        0.13291372035360677,
        -0.2280159083309336,
        0.15793035966867075,
        0.04565809869245929,
        -0.0276653616534559,
        0.17683797008965274,
        -0.1981141982779392,
        0.1101067684432791,
        0.19125861058607563,
        -0.23303264648358185,
        0.10633864359534467,
        0.15604395930256337,
        0.025495395158847745,
        -0.2264329556720261,
        -0.2092905915997963,
        0.2176649873595074,
        -0.035636504252051476,
        0.09946189568632535,
        -0.006869345158042578,
        -0.01434694608452311,
        0.10280261170932659,
        -0.10135498885211577,
        0.019439553408654053,
        -0.09014690125957389,
        0.05586973386345245,
        -0.027813888611687876,
        -0.017150854628849937,
        0.011199672301743235,
        -0.21853447527170755,
        0.17013523067635,
        -0.08982314124897409,
        -0.023446764137090348,
        0.02586173843871392,
        -0.0517706527010981,
        -0.14262374376937964,
        -0.18096036873172372,
        -0.08433925108900106,
        -0.18691586665263815,
        0.22687511501108099,
        -0.18694513604645857,
        -0.08916938264752561,
        -0.2330471751629916,
        -0.11208025277637601,
        -0.08142186780677754,
        0.042672153094070575,
        -0.21986875593892824,
        0.02863165883807084,
        0.10655149137111358,
        -0.15731713044743406,
        -0.0824968841775103,
        0.0578210894255603,
        0.02200647799422284,
        -0.02920066136656929,
        -0.09365393090162105,
        -0.19635447366751463,
        -0.1930821636080759,
        0.022107099649866846,
        -0.19611183209011696,
        -0.0013048863028897184,
        0.19698941293265032,
        0.1370466150179513,
        0.1735456745825153,
        0.05506165535249685,
        0.20966379088217324,
        0.1211963926842235,
        -0.012670043383992358,
        0.06066269662993867,
        0.06079544705361717,
        0.08738310933065874,
        -0.007757358803837128,
        -0.10003009951413522,
        0.09037360507542014,
        0.06616035275821347,
        -0.08412786237948741,
        -0.1255689062961643,
        -0.022514194511840252,
        0.06834970715675714,
        -0.11874701184302726,
        0.1461402059885208,
        -0.11975849307160287
      ],
      [
        0.16857711316055352,
        -0.08516358021266021,
        -0.03827358026562841,
        -0.13558870803623563,
        0.09994173179000182,
        -0.11803433806322079,
        0.1115719636267879,
        0.08878500774205972,
        0.13800152739434207,
        0.10930444115297966,
        -0.14964843379418674,
        0.18122987893629683,
        0.01643400031351505,
        0.032500989323681506,
        -0.1658733208754934,
        0.1140294171649947,
        0.10068044159879885,
        0.007814691774388705,
        0.050739789395342794,
        0.21129821564364726,
        -0.03624889552703506,
        -0.09140230959332049,
        0.21353623371792213,
        0.11886850060539622,
        -0.15182556595755264,
        -0.20562522441915057,
        -0.09099188141604184,
        0.004792201145200542,
        0.1731776434159895,
        0.07851445914142025,
        -0.167775874962166,
        0.06718196315870811,
        0.162303356531581,
        0.18551360257981558,
        0.2134153853003966,
        0.08306713274901101,
        0.23169085197335487,
        0.17493133635150765,
        0.003336298589506931,
        0.19621618291084897,
        0.2197114320432792,
        -0.12367816240529353,
        -0.1481533158450829,
        -0.15647301092864085,
        -0.22186352448281763,
        0.1446537446954126,
        -0.03568253012379441,
        0.1111151429461299,
        -0.14969868845127499,
        -0.2052888632644088,
        0.16244687277782327,
        -0.06463788353455238,
        0.1788979014946429,
        -0.23305865660780867,
        0.13683890771787893,
        0.15041754791523465,
        0.1795879456273045,
        0.1513106771214801,
        0.1624303682790027,
        -0.17740546505347382,
        -0.06799007221937728,
        0.025335296373855398,
        0.15422882574796837,
        -0.10079431083899418,
        0.09865625140733242,
        -0.08817205408583226,
        -0.08122017092282613,
        0.06992820033393887,
        -0.058095875944294134,
        0.07559145175724152,
        0.13253766381612508,
        0.2044455756199135,
        0.17732026890133562,
        -0.016705272734501397,
        0.22801426131641045,
        -0.10741042015409111,
        -0.010172565413329587,
        -0.17828921241616752,
        0.07077914864351476,
        -0.002743579527718004,
        0.09225699745763338,
        0.14217302076282295,
        0.1074077438730055,
        0.04871503597726512,
        -0.22013393978932683,
        0.19283450476185665,
        -0.17676703244286848,
        0.03426211348318309,
        0.08426431155876263,
        0.10505150658658852,
        0.1098401361401406,
        -0.2039154990999208,
        -0.15682490015030146,
        -0.18246550142881582,
        -0.06690677066318904,
        -0.031186235025281034,
        0.029635100764427824,
        0.18888563017387283,
        -0.21663318166926637,
        0.1150886955946776
      ],
      [
        -0.02774782558478739,
        0.012018059705295653,
        -0.20214389625260581,
        -0.21563306459016743,
        0.03578552892814807,
        0.18693940229614076,
        -0.12433413245778889,
        0.006178142528475511,
        -0.1000084966498759,
        0.11238597153898927,
        0.0728004186028745,
        0.04734660089896314,
        -0.04916883965864108,
        0.025651486663683276,
        0.036592254400346025,
        -0.0001067808917105395,
        -0.11202486143362242,
        0.04800083294867119,
        0.2186080089521556,
        0.16365467880109325,
        -0.10335477140482033,
        -0.2185883298983815,
        0.08840675491221106,
        0.08439560103865684,
        -0.032302401521628055,
        0.20080280773624043,
        0.06948560461877407,
        -0.04293360978795968,
        -0.12797400609334264,
        0.15972381649989958,
        -0.15107719457909172,
        -0.17731511707105846,
        -0.12582921699784344,
        0.0012193389982187441,
        0.1916092467120703,
        0.08255155269510067,
        0.0566642754129737,
        -0.03896128555926895,
        0.01379573385694885,
        0.1355344730148626,
        0.09579556071277667,
        0.17982297162650912,
        0.1707224822767091,
        -0.18547677156293882,
        -0.19759551840292627,
        -0.12623193387641293,
        -0.09939796431858572,
        0.043916348594342014,
        -0.00999950778846953,
        0.19779604045328814,
        -0.17064384331730414,
        -0.11746008194502468,
        -0.07077678137592808,
        0.12843151791834412,
        -0.13424830749120778,
        0.18870737580767555,
        0.1335034391624753,
        0.11429376373020989,
        -0.01959709724806566,
        0.058982626273772765,
        -0.006902086413727165,
        0.23330076682256495,
        -0.05102487235849812,
        0.11956561007543182,
        0.03720617072835719,
        0.15109009892037034,
        -0.07766240769122548,
        0.12694482601178736,
        0.10412160982154683,
        0.17954776433201525,
        -0.23039325592881488,
        -0.11874842497455892,
        -0.02696430214884374,
        -0.23095196533819112,
        -0.22525382771398714,
        0.1848387914362689,
        0.15231784176160756,
        0.21593477081977813,
        -0.06856380818761285,
        0.06937525773231235,
        -0.08379509861005024,
        -0.23348140349445087,
        -0.19593255192739642,
        0.0801610646762635,
        -0.1494339445025962,
        0.01389891874296742,
        -0.12453080222613193,
        -0.02542428949004885,
        -0.19186974033199589,
        -0.20338353495677156,
        -0.09570577436564573,
        0.09227799242961182,
        0.2247983961454152,
        -0.05240389718987129,
        0.16384959152591888,
        -0.040593673915260725,
        0.09219931428766898,
        -0.22346742791587706,
        -0.03766242912935949,
        0.0021993722244254277
      ],
      [
        0.07102971013546672,
        0.04874798757241516,
        0.1099968236955397,
        0.2203112789340676,
        -0.14845651239979993,
        -0.07573408273869145,
        -0.027973860509713344,
        0.19501640188806263,
        0.16933313232030117,
        -0.00856073272603397,
        0.20752074559903316,
        0.03277191796932566,
        0.05018842688185676,
        -0.1903175910092756,
        -0.14284318388223,
        -0.07572834565951089,
        -0.0479670689454276,
        0.11346879664716053,
        0.07382343181891143,
        -0.15061917227111904,
        -0.1321469347324289,
        -0.069262104501124,
        -0.04729741553476577,
        -0.177156466727375,
        -0.2004516444278998,
        0.06917255125816124,
        -0.06116824712242683,
        0.01935670260299388,
        0.08157575827546809,
        -0.006051327554675523,
        0.02426907418821289,
        0.21435843066326243,
        0.22814422408136437,
        -0.1871622983089784,
        0.1697238811422222,
        0.06664648307690169,
        0.12749215457239804,
        -0.20040337756237264,
        0.09616134994782505,
        -0.18111915560371444,
        0.1078428780079238,
        0.06254307983456836,
        -0.000624267776865306,
        -0.11006677934007504,
        -0.1677242790427118,
        0.09265541958971613,
        0.07010711169098333,
        -0.15181486403848402,
        -0.014733820702870548,
        -0.05977364314427716,
        -0.0696690292536235,
        0.06156789974890908,
        -0.1529359533551714,
        0.13010740334615795,
        0.1000889275050662,
        0.09626769702433419,
        0.10415203136023865,
        -0.022699544892038043,
        0.10043436235345732,
        0.06257530636968273,
        -0.16953092473125114,
        -0.09358110586913884,
        0.17316876103085843,
        0.22897602097825448,
        -0.03582393570766315,
        -0.12126881676282299,
        0.12751526134113494,
        -0.11878147225687169,
        0.19443296592715226,
        -0.1837078668665087,
        -0.11013447803046232,
        -0.18026725146198946,
        0.1353238276832553,
        0.024979862282563048,
        0.19610156615333263,
        -0.056445427827021694,
        -0.14034726545587717,
        0.15581582422202328,
        -0.20063204728471132,
        -0.22441410819624386,
        0.05375259280890543,
        0.11616545640736176,
        -0.0839927351327423,
        -0.0796187146377241,
        0.060460214173133464,
        -0.1612529743747902,
        0.04293812271969427,
        0.005226075441264327,
        0.17190799467796092,
        0.23307484932815165,
        -0.021274154908311055,
        0.16868911335242276,
        0.02285738998705894,
        -0.027809096968574504,
        -0.0483826054892568,
        0.09590209039585357,
        -0.0941341302814244,
        -0.03927833069311923,
        -0.22904224005153878,
        -0.1225608168243279
      ],
      [
        -0.0376865117359399,
        -0.156760752415452,
        -0.2201360501496385,
        0.12924599244700052,
        -0.09093453995166123,
        -0.08795696093896035,
        0.23037585494413976,
        0.1982605985510018,
        0.054468419567226645,
        0.19742566725047217,
        -0.15834122239160384,
        -0.0013136336842738128,
        -0.03304386722476921,
        -0.042434500603301006,
        -0.21060158031469528,
        -0.018560718351131517,
        0.18792878792733048,
        0.20865778181363503,
        0.10489992786605035,
        -0.17724770619740582,
        0.14015946909436722,
        -0.19478255659954444,
        0.14384772108395022,
        -0.21186683413567287,
        0.08568480680253587,
        0.21923716886834682,
        0.19183968889090447,
        -0.12153743012727929,
        -0.01741910204179073,
        0.23144078722686146,
        0.17957465327735994,
        0.14445822256427826,
        0.22171170441690785,
        0.08978410564199141,
        0.20313414664124263,
        -0.026605778291169696,
        0.008779356264779575,
        -0.19541802466479846,
        -0.17852700827366835,
        0.19952570088102323,
        0.18507977555887356,
        -0.07127512654092108,
        0.09549196587151848,
        0.15600883625451717,
        -0.02317026096649394,
        -0.09109467218992676,
        0.0667930322588765,
        -0.051291204228257115,
        0.052093149851524134,
        0.03297310207777149,
        0.06457711651904513,
        0.10658967525414226,
        0.09720886767530251,
        0.07201844737463414,
        -0.14250923732583842,
        0.07299534509011651,
        -0.021960682464690268,
        0.1859799669668583,
        -0.1891624718806265,
        0.06310023310050017,
        -0.1607564199985875,
        -0.015806927426798012,
        -0.08206621767765479,
        0.19285431070143688,
        0.15382311127272214,
        0.17468845127109417,
        0.19679469692726292,
        -0.16500713369376152,
        0.17639215034065564,
        0.22601758125679539,
        0.1826146347279718,
        -0.07036468758215264,
        0.049037834325232676,
        0.051113779218726896,
        -0.02364766627896961,
        0.158357085525081,
        -0.07222393367299387,
        0.05596992084855967,
        0.1460285038866777,
        -0.113739927993075,
        -0.19456980461002307,
        -0.10266867566035309,
        -0.10514992633163603,
        -0.1682968964827597,
        0.2317326168338052,
        -0.1834570369839968,
        0.06387795379947586,
        -0.07224906929125105,
        -0.19634653274001237,
        -0.052728454184209406,
        0.15823635356020588,
        -0.17613607179442056,
        -0.11433684454481742,
        0.21539061271321386,
        -0.06348143024888864,
        -0.041384365242696286,
        -0.023393326722294938,
        0.18777725184494692,
        -0.12669408254373377,
        -0.11618580191237675
      ]
    ],
    "weight_v": [
      [
        -0.1560779556118133,
        0.07525887672201689,
        -0.1945647120562991,
        0.10684852588747126,
        -0.005774442827092829,
        -0.08506340944486937,
        0.08158097267399042,
        -0.11620975740589082,
        -0.11990691625826065,
        -0.12369495527905419,
        -0.2121752474898797,
        -0.13630260915714507,
        0.10396260768550111,
        0.032534777921449126,
        -0.09401916133593033,
        -0.013661996096452772,
        0.2143401436848895,
        -0.007152258156665703,
        -0.21722368319705082,
        0.21891391841301902,
        -0.022156411714893687,
        0.18422687070144636,
        0.15459213508361327,
        -0.029264183423738516,
        -0.03292216657466643,
        0.028204336077111897,
        0.12651495277470834,
        -0.07740366581154001,
        0.11732351638423608,
        0.011477757123678295,
        0.11652197957831809,
        0.14737424400725316,
        0.04521316006514456,
        0.16067714654656942,
        -0.0407188740574142,
        -0.16897063428742568,
        -0.04101922215872569,
        -0.08883436657489638,
        -0.2016188249707019,
        0.010554506957663246,
        -0.06151105858976752,
        0.1864591534213534,
        0.05697708996334619,
        0.009992098577213254,
        0.08767568092272685,
        -0.11672077284407482,
        -0.1970158860320106,
        -0.06249854499310978,
        -0.15571947201063713,
        0.2214159660216576,
        -0.07290808964716367,
        0.22032289397364305,
        -0.11932728098217572,
        -0.1292026038598857,
        0.1957127828842061,
        -0.12134000687092686,
        -0.01939241739225392,
        -0.03043956892208524,
        0.03781992331013698,
        -0.207692098236866,
        0.11235962310420086,
        0.04455936616910447,
        -0.056358452163066064,
        -0.10121735465161623,
        0.1761220015545467,
        -0.07941142257753028,
        0.20825954245404435,
        -0.028650294747248145,
        0.07804462211902627,
        -0.08895474231527997,
        0.17850003459612204,
        -0.06669519421832129,
        -0.15223824403978672,
        -0.1955486636057164,
        0.033573468312108584,
        -0.22299236309337353,
        -0.04017651014545126,
        -0.17649257427034137,
        0.15992542627392406,
        0.020458112654162308,
        -0.09980324934744556,
        0.07225970947074498,
        -0.09071888797133512,
        -0.07079888131345621,
        0.03196880680746758,
        0.11358980603221261,
        -0.13044041493880743,
        -0.2172178177824969,
        -0.1740678157315771,
        0.03330678998487044,
        0.021354259191565084,
        -0.03137580732752318,
        -0.06654060307852314,
        0.08821680375433069,
        -0.10783815075872902,
        0.17621580023606595,
        -0.005103837865868571,
        -0.03621493998609754,
        0.16106812639734933,
        0.04839154806962845
      ],
      [
        -0.17983664183194803,
        -0.04448465614933064,
        0.18128151182710037,
        0.1148554157605983,
        -0.182949930291675,
        0.05748074584498916,
        -0.07385560775725405,
        0.20664813760340348,
        0.14766220745697886,
        0.2215673588016511,
        0.16149751621624833,
        0.2008490446889337,
        -0.13238392046742553,
        -0.011338201339748333,
        0.14714630268972453,
        0.05052585974046023,
        -0.1662424147157088,
        0.1351753317908053,
        0.07538806146290514,
        0.19366569721416263,
        -0.07468488505323068,
        0.16349202037590324,
        -0.19837226079543338,
        0.13788571529463725,
        -0.07930297680793422,
        0.1765343494996989,
        0.03542770103182527,
        -0.050665982598256054,
        0.09901711284970735,
        -0.1979122310338436,
        -0.16564713245780413,
        -0.05804219644705694,
        -0.15554773568183197,
        -0.06956178576974342,
        0.107403625217001,
        -0.14306970236636396,
        0.11770601357159219,
        0.1184262757249939,
        0.08111106127359394,
        0.08240889928235731,
        0.21509969395902137,
        -0.12729849668127102,
        0.1519437924462632,
        0.19931431321939844,
        0.07645343102128513,
        0.19671816507123555,
        -0.04690456966235229,
        -0.12595425335458113,
        0.031176025512218902,
        -0.11931430241082794,
        -0.024873212258321453,
        -0.2100383682208694,
        0.13897337417361613,
        0.10661885394845191,
        -0.10604888746065624,
        0.1597459582289135,
        -0.011912406589254215,
        0.18882185136972343,
        -0.04841694460391488,
        0.18176729271187167,
        -0.058709806434196765,
        -0.04846371483425102,
        -0.04922240977769357,
        -0.14510606134803553,
        -0.033860471910791445,
        0.12288710976187497,
        0.12296201646376673,
        0.005398198868594134,
        -0.0041821473600833214,
        0.15706691460341463,
        0.024281377034562263,
        0.214025400751256,
        0.20237194699065095,
        0.08169547617095116,
        -0.1554886466298692,
        -0.0768312921835426,
        0.039160633204851386,
        -0.09281280143008533,
        5.8525307467416354e-05,
        0.012180398796753422,
        -0.11342461144072927,
        -0.031207888827519653,
        0.09652889374659288,
        -0.19295279496012188,
        0.22242927952181138,
        0.0025397638226173913,
        0.04742593649596025,
        -0.019273770822699793,
        -0.1385285220604503,
        0.027244242224047116,
        0.08710328829536187,
        0.05280379901167806,
        0.028350049316592213,
        -0.21354165495333824,
        0.027733233753022696,
        -0.041180621421157776,
        -0.21770872745842026,
        -0.10215768767119913,
        -0.08805341754398804,
        0.11434822524036756
      ],
      [
        -0.1180726934145241,
        0.16232913187404488,
        0.07892304801105679,
        -0.2078057599994331,
        -0.2125469273135603,
        -0.06850568959237119,
        -0.1650627658509358,
        -0.057699874625374264,
        0.18873297401917047,
        -0.2138921321015036,
        0.18957845745213422,
        0.18575494756969488,
        -0.13830391311469592,
        -0.15735259927785042,
        0.046278137591078766,
        0.06788129847793559,
        -0.02735457447466269,
        -0.13197062771550364,
        0.14064621860066143,
        0.08486426510669184,
        0.2181617635499609,
        0.0934630109108677,
        0.1886377903859713,
        0.14339363243381834,
        -0.19684118940503065,
        -0.18092664061539082,
        0.0628079788646563,
        0.07155151948177232,
        0.11809917815957674,
        0.11533934280653216,
        -0.024149285128630404,
        -0.10865270166622408,
        -0.10965911802104229,
        0.07903999360933253,
        0.10407096636332944,
        -0.12951590406483662,
        0.03597276022007115,
        0.019691184244354898,
        0.006081318865390289,
        0.20316874902888052,
        -0.09594021635372035,
        -0.21380664124925167,
        -0.13920178520606408,
        -0.05302960443295157,
        0.0729182076217427,
        -0.007993986101410167,
        -0.02263505417129194,
        0.13287046130071176,
        0.10413362138895324,
        0.0638580009855679,
        -0.11887856373062199,
        0.06784832208407907,
        -0.11488169925231333,
        0.20669762829477964,
        -0.06969523320307214,
        -0.058340003890666514,
        -0.0982644116423256,
        0.19289978485166362,
        0.02146773775572003,
        -0.19449109348152935,
        -0.10087912850656071,
        0.006557760586033218,
        -0.007470561543361037,
        -0.07117019808938208,
        0.10703390421230977,
        -0.13416694486205372,
        0.01672586151007696,
        0.19411029107651515,
        -0.1738055839408571,
        0.03462935061789893,
        -0.18677728897526946,
        -0.19873787322863717,
        0.07137227970626567,
        -0.029477796994966582,
        -0.20456562193578579,
        -0.13515232959801343,
        -0.060246709589041686,
        0.10877674562329007,
        0.17870449381317619,
        0.0997883105980695,
        0.20844484806947142,
        -0.20438759723944122,
        0.2068738418688614,
        0.0905970007131903,
        0.16736457727251894,
        -0.03402715862262756,
        0.08054318549564773,
        -0.2125340053213916,
        -0.08591400580175598,
        -0.12435159743886824,
        0.18069827539193237,
        -0.22129070814899032,
        -0.03934422179073138,
        -0.19571967596466677,
        0.011705958502695096,
        -0.11626177547507556,
        0.09367660341010178,
        -0.061513067419229156,
        0.1749308436826382,
        -0.033637053295167973
      ],
      [
        0.08192669472583783,
        -0.15560587463755596,
        -0.12851492496850458,
        -0.0007334291096046663,
        0.09260847960963323,
        -0.11993535087956592,
        -0.08164019097194178,
        -0.007821707278264645,
        -0.13507803277516983,
        0.11628738931354052,
        0.11397197929151495,
        0.08565019351025963,
        -0.15636130020102995,
        -0.19362780189013384,
        -0.06426145321105384,
        -0.15003225825785965,
        0.07724370501384867,
        -0.039384629852935754,
        -0.0914654423752104,
        -0.2200724027113682,
        0.17431741118439956,
        0.025687490611456865,
        -0.19600391858228175,
        0.19656415200448954,
        -0.053375377848935396,
        0.21108212606026802,
        0.07913717910132931,
        0.005371635154093085,
        -0.08827082217218638,
        0.12316594898475317,
        0.01728056992745261,
        -0.028194306112269196,
        0.22267635679490275,
        -0.20403355233777237,
        0.1634649731492012,
        -0.013400711478628424,
        -0.062304288922524736,
        0.15676734833171227,
        -0.13920962578846968,
        0.22280945852458647,
        0.21122329982513252,
        0.22203752005651248,
        -0.11252892260388864,
        -0.024434238615648723,
        0.0587596695238676,
        -0.16275761965606794,
        0.21711855192699495,
        0.21954502423755376,
        -0.17719998642548385,
        -0.039017770394989715,
        -0.16848979220245008,
        0.10738931021204892,
        0.18062493368108964,
        0.062214537505302064,
        0.20989574882249692,
        0.1905267349343299,
        0.13283210372198198,
        0.07736083538934482,
        -0.04002631168393117,
        -0.05672665967159163,
        -0.124161997101599,
        -0.1778027586318255,
        -0.10284277291010269,
        0.06391936859305417,
        -0.18963762704968193,
        -0.09782447674914874,
        0.07485790888864977,
        0.05080882291496683,
        0.012243542376715488,
        0.12391316922653425,
        0.09809100578614047,
        -0.16880426591791597,
        -0.1530042460550286,
        -0.11798743867448264,
        0.08621860325141747,
        -0.06621084761522306,
        -0.17768828836466702,
        0.06384957986273007,
        0.0410727324524823,
        -0.21377084963286774,
        0.21853223885369458,
        0.16779849865101445,
        0.14634676471365501,
        0.2004446188235525,
        0.06121724448197993,
        -0.11834967946151384,
        -0.19164234026032562,
        0.18961659426015917,
        0.15585835421316788,
        0.04852753225189374,
        -0.20104927200280046,
        -0.14805559765519688,
        0.058663518818705546,
        -0.07841162422836695,
        -0.20977572723437635,
        0.13548997182045566,
        -0.07516754756235,
        -0.12368523456041637,
        0.15028613978154678,
        0.10346955392337323
      ],
      [
        -0.10759241952607679,
        -0.12106094307465583,
        -0.05043721846223001,
        -0.1949947231957252,
        -0.06378886041806234,
        0.14634246154165212,
        0.05367785344477424,
        -0.20424302801020713,
        0.1939077794321579,
        0.03516443287718077,
        -0.09891236443054724,
        -0.21314101376181155,
        0.12614568817928187,
        -0.10023687954760288,
        -0.13996221673855086,
        0.13695826435461425,
        0.060644340220495835,
        -0.11838090551366809,
        0.0810120025536745,
        -0.1250882029042797,
        0.03353736468089699,
        0.13700669095192938,
        -0.042280860883276344,
        -0.20357844922918353,
        0.0545779472774591,
        -0.1846395068827249,
        -0.14691050612567835,
        0.1455883669335972,
        0.024964981603559477,
        -0.20878503396576392,
        0.21194684258001142,
        0.19131254087955887,
        0.03303989059531945,
        0.21460941340252118,
        0.19454808001536042,
        -0.030110340012558356,
        -0.1518297069955955,
        -0.07236157280869604,
        -0.14968959355892072,
        0.09916769084980456,
        -0.13256229977690448,
        -0.21699630526014127,
        -0.21900320599119694,
        0.18483185913428116,
        0.18533311820450313,
        -0.01081452319915202,
        0.11987628652821944,
        0.06656359611059007,
        0.007049061129772771,
        0.029331410420675025,
        0.12025089159050126,
        -0.10855023158135152,
        -0.1092779882845679,
        -0.12555595962322563,
        -0.06918571631562892,
        0.040433087140557405,
        -0.1416403562814656,
        -0.09584149399221803,
        -0.14810381192118563,
        0.03334508222924207,
        0.11908156058437278,
        -0.16907363203692405,
        0.17975606147059262,
        -0.040549039058395464,
        -0.0035845975486871184,
        0.17544513262865738,
        -0.17113671477277048,
        -0.015776124343166137,
        0.10000093700831167,
        -0.10181953301041606,
        -0.023317285046793396,
        -0.17045507284927722,
        0.13415314006824539,
        0.21367972270606592,
        -0.2039285835799821,
        -0.1523268872525656,
        -0.010922456319358814,
        -0.026716634973957404,
        -0.11024619925901698,
        -0.12147945159859669,
        -0.14260860902527583,
        0.06263564145490066,
        -0.025648252212430528,
        -0.08535750026124522,
        0.05134466697930165,
        -0.11842740894667438,
        -0.13686331914502908,
        0.03513950840043026,
        0.1663495399930555,
        -0.20534575864701335,
        -0.15459057292735368,
        -0.17404031363129802,
        0.1650317963150361,
        -0.1914472932030179,
        -0.21744611361439237,
        0.20780388192843854,
        -0.0573902399045762,
        0.037280419400582715,
        0.13136108765465473,
        0.14365058364095498
      ],
      [
        -0.17663326634707222,
        0.03770985284306397,
        0.0057969690024370635,
        -0.02232043151429494,
        0.04322348488788627,
        0.18830735572675864,
        0.0562259155811676,
        -0.15899925830632805,
        0.11419708382078134,
        -0.08014608200411691,
        0.2110384917500723,
        0.0030038571866248254,
        -0.1432182599233519,
        0.20792076681441654,
        0.190890849517145,
        -0.018863569134845187,
        0.10321068284451543,
        0.00727185189935331,
        0.1705830172696617,
        0.2222599120214148,
        -0.14137907865054106,
        0.09386175519241277,
        0.21107844366089082,
        0.14076408025496837,
        0.04005330912172697,
        -0.054283684698374274,
        0.06686804115659764,
        0.09117244893169066,
        0.05468192058076107,
        0.21166876323823777,
        0.09038837008228293,
        -0.025952675789783913,
        0.20401116983027087,
        -0.10987019566200908,
        0.12308102344274699,
        -0.08816401900479331,
        0.04299433350617857,
        -0.06309502818857005,
        0.12240252941294891,
        -0.03292531932729342,
        -0.13531349092955008,
        0.10631307127999393,
        0.1383051987529517,
        0.21031192837125698,
        0.201297388571911,
        0.026858463087917922,
        -0.06388619377360544,
        0.036223742529659736,
        0.021782024768456948,
        -0.13792662045988957,
        -0.14553152805881012,
        -0.03071033314851529,
        -0.0048272321000815965,
        -0.06098691791214472,
        -0.1594958353037898,
        -0.024908625763597425,
        -0.18377167220980584,
        -0.02706896846418888,
        -0.05176527399092215,
        -0.12414432405468688,
        0.17675612504646768,
        -0.014399430369855387,
        0.2086011683521515,
        -0.0927506452238005,
        0.02236491599526977,
        -0.15066719444035523,
        -0.18110351407189218,
        0.0014155591457538086,
        0.05880121864452162,
        -0.19336924260024813,
        0.16853006916248206,
        -0.0876881971082964,
        -0.016006177828237184,
        0.214607494136396,
        -0.09090741246095588,
        -0.05852630981698989,
        0.08417974479500404,
        0.20713742876010946,
        0.19018108337339526,
        0.086425195403912,
        0.20616141308029454,
        -0.08285591848490764,
        0.02947719208422614,
        0.19621792023688459,
        -0.22288306195177904,
        0.16133547847878196,
        -0.12950873457940743,
        0.14901197576353062,
        0.14299718132079628,
        -0.13967040193290492,
        0.0375779574526153,
        -0.1885993059046699,
        0.17590493855446435,
        0.19484083644426994,
        0.15945684304718147,
        0.1259371101864394,
        -0.03128080297495495,
        0.09780265468727498,
        0.18658583361470224,
        -0.19257431567681552
      ],
      [
        0.19924227773584666,
        -0.21142990264756265,
        0.17617570290887144,
        -0.22237058412257735,
        -0.043782482712325294,
        0.029102747786038302,
        -0.1797805928235357,
        -0.14355690752955275,
        -0.16166040932426973,
        -0.19049769686825424,
        0.0919585511886388,
        -0.20386798784855098,
        0.025173021935141066,
        -0.09368545715492813,
        0.1746905541091235,
        0.11209589660461447,
        -0.0747970803711418,
        -0.15718034091430638,
        -0.03972923464816383,
        0.09385987991650416,
        -0.028170089560418526,
        0.10096031654239865,
        0.013354200853625625,
        0.16906769083599107,
        0.13525430034856586,
        0.023282680563241565,
        -0.01550622085279088,
        0.03228633919912713,
        -0.10978524172341454,
        0.05893442284856612,
        0.14931646792065814,
        0.21410185746479035,
        -0.22283364412962325,
        0.11909670911772949,
        0.18961725055601772,
        -0.11074698290807267,
        -0.06408471494709114,
        0.1670118345055627,
        -0.03777872848427946,
        0.09186070213359801,
        -0.02181268034438244,
        -0.059144724983487634,
        0.06795173965489368,
        -0.17934579529970462,
        0.18220209462310546,
        -0.012666684091279523,
        -0.09457580062146859,
        -0.07224805886905283,
        0.03243809068680539,
        -0.1959562885859122,
        0.06838874745823612,
        0.051500060615674886,
        -0.15336900862038017,
        0.06019359867269372,
        -0.18387821671041504,
        0.035563305292033304,
        -0.09553091516079909,
        -0.11871181530044203,
        -0.11300556542558021,
        0.014201484998278752,
        0.17190241386420776,
        -0.21178202457285378,
        0.06671846401464651,
        0.07457513950882635,
        0.023966237790869427,
        0.13084072210964134,
        -0.1610383911178972,
        0.2208865149975233,
        0.017764751348650715,
        -0.07156608589528257,
        0.0685165672133495,
        0.03354502997542588,
        -0.19228474771294368,
        -0.11984802640091359,
        0.1518500473779463,
        -0.1817208504007889,
        0.09601800757786225,
        0.10758742495752935,
        0.12921171238357007,
        0.12924623916484515,
        -0.19573343520246514,
        -0.013512916375912593,
        0.19365123061042508,
        -0.03164950149774731,
        0.08259876119818468,
        0.2148380996459596,
        -0.140118480914747,
        -0.09445232249458616,
        -0.14902571856732644,
        -0.2080332394411271,
        -0.14462042288086674,
        -0.11139561229624889,
        0.09331724932647559,
        -0.01699388001374308,
        0.000589448961839989,
        0.19334660358831798,
        -0.15465485817811586,
        -0.17085502525828505,
        0.09784632525807899,
        0.09718256483803636
      ],
      [
        0.12770348563733,
        0.1460288194495398,
        -0.0023576781482940457,
        0.1173680927879642,
        0.2110830749180335,
        0.05615178930740469,
        0.14655950864653852,
        -0.06750155027694674,
        0.09075955993911847,
        0.07246656831046686,
        0.00256991470635598,
        0.06200782741972191,
        -0.04976054304301303,
        -0.18405939930300522,
        0.007021624741460952,
        0.05080876486164146,
        -0.006522339045158837,
        -0.14569720180444684,
        0.2175449333792143,
        0.14734379203029416,
        -0.02836996788467644,
        0.04277031556657221,
        0.10115380776137459,
        0.07147196709217332,
        -0.06319944529484314,
        0.12687197890752863,
        -0.08342246790501817,
        0.05717366637891133,
        -0.09996757311242616,
        -0.024720658906910387,
        -0.041571829482892064,
        -0.021165612147181212,
        0.12707727448868542,
        -0.15821036014777962,
        0.17261581013161412,
        0.06102306622689799,
        -0.07969677381135573,
        0.09755657638935886,
        -0.15880296764048088,
        0.18530891507267325,
        0.18533948931738045,
        -0.0900033300202214,
        -0.08656196926820584,
        0.02467400062067049,
        0.10908109562428972,
        -0.06161359761637225,
        -0.08714592389248005,
        0.06380158695274088,
        -0.1737010989803122,
        0.13971960418753251,
        -0.16345332632192186,
        -0.047702901965275324,
        0.14107967068692193,
        0.023847552508090036,
        0.15241092621688404,
        0.20268964875818526,
        0.13409385262470294,
        0.140206954773367,
        0.0949413972453472,
        -0.10500530838666507,
        0.1664072869080407,
        -0.0961317144433805,
        -0.08565999694413537,
        -0.08420774870579112,
        -0.12212401488648679,
        0.05959973565579571,
        -0.15654947686915582,
        0.01155197625232865,
        0.19953603848373383,
        -0.20097625021803767,
        -0.04253804717571982,
        0.1724945787388962,
        -0.05439659229331481,
        -0.1812952459343658,
        0.023449519996778717,
        0.03329034147489554,
        0.07731108403179296,
        -0.21922983579128094,
        -0.06693442833866317,
        0.17441788715915676,
        0.021917178744369326,
        0.051022770781927435,
        -0.09393389755849849,
        -0.02117974739593051,
        -0.15399337480735495,
        0.056665681696041664,
        -0.12389713853332789,
        0.10374595418194307,
        -0.22133608312085143,
        0.21813103818840832,
        0.07369799048233192,
        -0.17430203568993638,
        -0.19692480636799786,
        0.19365272755885068,
        0.030764434668700963,
        -0.10491283336205598,
        -0.21641793425718245,
        -0.1932385485599112,
        -0.12247920246064634,
        -0.0034745226641652305
      ],
      [
        -0.07356239532635167,
        0.21724514752287813,
        -0.13010649312809153,
        0.00152782239517113,
        0.10190828725715076,
        0.1481836711439066,
        0.1532630045717637,
        -0.08531807698682486,
        -0.03505959371588649,
        -0.1832774005301446,
        0.10452361802584861,
        -0.16493828461739765,
        0.024184304126499107,
        -0.022674979743476292,
        0.1920589860752108,
        0.12957233473381333,
        0.20296962432161345,
        0.20856524917614147,
        -0.18481720356390013,
        -0.11349879698749228,
        0.17967392201277718,
        0.07607337359809604,
        -0.07309880127395399,
        -0.20148152602122446,
        -0.2221362427601653,
        -0.06274919460321973,
        -0.04888338548657967,
        -0.17957296204282477,
        -0.033972744749161815,
        0.14611999260236122,
        0.01020568865256194,
        -0.15876302774187767,
        0.06932406185958154,
        0.0751608450543376,
        0.13671087184091643,
        0.18859339858617316,
        -0.08632334546193907,
        0.11494306282455743,
        0.1080880022044349,
        0.20614181140314183,
        0.10963911703306198,
        -0.014236898803119513,
        -0.01579603606596111,
        -0.05512183729959533,
        0.19884725252350396,
        -0.03961973369833144,
        0.22084506882435026,
        0.172763120325283,
        0.13764810453601797,
        0.07324777828118476,
        -0.004506859297392085,
        -0.03178913783039011,
        0.012968070539745746,
        -0.05583014612435683,
        -0.20459798970907606,
        0.11136184621159448,
        0.011229071136119484,
        0.20253041721204154,
        0.14592341626304575,
        -0.09430725818227215,
        5.210685782799929e-05,
        -0.15596870360085885,
        0.012894473328944944,
        0.09335034125806843,
        -0.19854587722315492,
        -0.10942428632148604,
        0.06576360158457731,
        -0.16470439631884187,
        0.207956764244994,
        -0.012205631914289666,
        -0.038913836302797794,
        0.005707851108088163,
        0.021860487856236704,
        -0.21619226008404385,
        0.21841214191631622,
        -0.187934494410311,
        -0.040290709242034234,
        -0.2148076757922198,
        -0.00788757440936838,
        0.07330203303183788,
        -0.10388077314139936,
        -0.04484118178696159,
        -0.13439320829286655,
        -0.11188870946631488,
        0.059596924324704786,
        -0.011886641328497538,
        0.12529675470064308,
        0.024701503515453277,
        -0.13351441245991158,
        -0.1024775627583326,
        -0.061547966380533004,
        -0.14980427008194777,
        -0.07386360729450317,
        0.18142691288804894,
        -0.21639978921547348,
        -0.04085522129173727,
        0.0447839829134227,
        0.08988214243147899,
        0.13272637810260876,
        0.07590879614727178
      ],
      [
        -0.036122054769460926,
        0.19845883439211712,
        0.1677726852202285,
        0.16595665039164711,
        0.014841737588998899,
        -0.00017898723300968644,
        0.07697195452553204,
        -0.07090777235452939,
        0.11859887180860493,
        -0.18631560463630883,
        -0.12864075788228535,
        -0.025860319027895623,
        -0.08555853370690114,
        -0.07876295322247978,
        0.10700361116958099,
        0.212788526427776,
        -0.18477466261184655,
        -0.18665883869005404,
        -0.1665831716014496,
        0.05780100773501237,
        -0.06539636971432367,
        -0.11909870389772965,
        0.17981238039925643,
        -0.16548529441749552,
        0.15262814672293099,
        -0.19878101795970884,
        0.06743949926513712,
        -0.045253131165810395,
        0.11714452307390935,
        -0.1374142001319792,
        0.043470777191244286,
        0.09447681651149756,
        0.17389886341073293,
        -0.19451573872269007,
        -0.05999395479961339,
        -0.0017569680781973906,
        0.08672024301398171,
        -0.14017147329614146,
        0.12128477928529072,
        -0.1599079391866982,
        0.1584217013268144,
        -0.026805778300361377,
        -0.20027292031465377,
        -0.09070827144447963,
        -0.009880915228852677,
        -0.06962604540174516,
        -0.14394670865318904,
        0.20400491856952865,
        -0.06458859799318639,
        -0.1820166989149995,
        -0.08643505666128154,
        -0.18861085450344048,
        0.017523810172718673,
        0.04900610084972809,
        -0.09221632056922321,
        -0.07927143066042103,
        -0.0036178786052944445,
        -0.020282214155118466,
        -0.2179923861293008,
        0.18047552233139844,
        -0.17065031303524947,
        -0.08483775348230835,
        -0.19046470422387718,
        0.06610937656722368,
        -0.10414608915031161,
        0.09481399067290766,
        -0.04421315998377137,
        -0.08512695603698553,
        -0.1708768437823757,
        0.2118686201375358,
        -0.14627894662398924,
        -0.05042376289211786,
        -0.12136951545886075,
        -0.12190853067744702,
        -0.11411931592687503,
        0.07037013484401336,
        -0.05958648374059375,
        -0.15253072581450883,
        0.0867037837693301,
        0.0640723612591442,
        0.2133151498035787,
        0.11083357994599827,
        0.07203278812937089,
        0.22181848477508506,
        0.012481758585228542,
        -0.19333683858281211,
        0.027566873167985312,
        -0.04419832357419026,
        0.22220789745332029,
        0.17424058744800006,
        0.20985275520284638,
        0.05165526495132575,
        0.22231062958760497,
        -0.1148367452233992,
        -0.13691869526982842,
        0.20489776469539808,
        -0.19394850664799862,
        0.17206929531203755,
        -0.15927803980556976,
        0.020573842818675997
      ],
      [
        -0.13438494090109804,
        -0.16730854931367783,
        0.0354484922711826,
        -0.16352154648814685,
        0.07173115014345519,
        0.06700323864347588,
        0.2115169148946758,
        -0.0255019812237422,
        0.11939446552867186,
        -0.03626308481310864,
        -0.1083904159051269,
        0.03354218932055822,
        0.034145225201990176,
        -0.014964079685143572,
        -0.20902333783110075,
        -0.0732485131692176,
        -0.10735611912089593,
        0.02186975432096472,
        -0.19985774196834666,
        0.10557338664099855,
        -0.21559081678121503,
        -0.0005597283616058102,
        0.029098032640820254,
        -0.10816691774492664,
        -0.026529377635740814,
        0.11992119865035669,
        0.11328798064202597,
        0.07531114030996064,
        -0.1428158878089152,
        -0.1243252388965407,
        0.11329320971339898,
        -0.18072718324078418,
        0.05159241189191857,
        -0.2129654742534599,
        0.09037792125320807,
        -0.21103208242430685,
        -0.06588613916839206,
        0.05806032639270384,
        -0.13911191565015452,
        0.11284757267931769,
        -0.16234022689343758,
        0.14624122193801428,
        -0.16910150437437246,
        -0.1882224498521975,
        -0.16001655162626693,
        -0.014590781299052474,
        0.07537168730906338,
        0.13002447653746066,
        -0.20991314232258765,
        -0.06900065855576248,
        0.06758831345399399,
        0.12399095821544023,
        -0.03520747356202475,
        0.10095531425108786,
        0.06696846244305502,
        -0.1546460556813824,
        -0.1396287509394652,
        -0.2121971575079107,
        -0.10564811001520293,
        -0.055570166450424285,
        -0.005172440298406716,
        -0.10252498600756539,
        0.07100834979739049,
        0.11761728546694541,
        -0.07962840208389982,
        -0.034813348810303846,
        -0.11033666428238645,
        -0.17650986380706057,
        -0.16503245254841134,
        0.010251335105189802,
        0.2169818682255518,
        -0.11288745135617656,
        0.13295718723157365,
        -0.12915659847071786,
        0.14222992623247868,
        -0.06933820350204706,
        -0.17653726469970027,
        0.04484462017873983,
        0.16749184581135204,
        -0.026446370298775,
        0.17083602117036403,
        -0.08355739416112351,
        0.2172150664473683,
        0.041135754724013346,
        -0.054742831095562855,
        -0.15679126905237167,
        -0.14026576941803162,
        -0.12240847259573974,
        0.19011913520644522,
        0.19676151982192838,
        -0.15591712595688884,
        -0.035361375350901836,
        -0.008464009896055835,
        0.001961241780497197,
        -0.16060503707087634,
        -0.19096477526931135,
        0.013340485269798585,
        0.17691680819054775,
        -0.043729635585009946,
        -0.21609370780751955
      ],
      [
        0.21307458930109066,
        -0.13650515338615102,
        0.14187791066028435,
        -0.021544373370824765,
        0.09644267960607997,
        0.07669670840609757,
        -0.170997192881868,
        0.0794027833285674,
        0.06623644476667859,
        -0.07351785599836025,
        -0.03430291019962614,
        0.017959330000884455,
        0.20421297819050435,
        -0.15537553829829803,
        0.18097552900272182,
        -0.006527875519585613,
        -0.1271792865294858,
        0.08689345954356578,
        -0.18411051013646237,
        -0.11937463836235429,
        -0.08505584215630335,
        0.18616456744945767,
        0.1372494295267299,
        0.013683089913108765,
        0.05204124734302698,
        0.03910426121996116,
        0.1834338274024633,
        -0.0731367355126318,
        -0.210211108286882,
        -0.20586872079334248,
        0.024538448265911506,
        0.09552556797235737,
        -0.17023833876655747,
        0.09418828645985103,
        0.1742804651608614,
        -0.127843465238347,
        0.06640460945585144,
        0.031235347177817313,
        0.17077259900307276,
        0.10303383232450472,
        -0.12558121562940516,
        0.19569492523646467,
        -0.09302816646208689,
        0.12020418697733828,
        -0.06481357383474257,
        0.01661835268592382,
        0.19351787804019996,
        -0.0161283806737145,
        0.005198134727978476,
        -0.10860422290991427,
        -0.07413204936444298,
        -0.10861378251763659,
        -0.08880708885885674,
        0.018683414072974414,
        0.0011832999672595768,
        -0.18938587606369292,
        -0.11832918845229741,
        -0.08352462820703321,
        -0.036359502143581274,
        0.1814898426334102,
        0.10733099589546344,
        -0.19095854098620146,
        -0.11830633515720988,
        -0.05287028657080653,
        -0.1381295053617727,
        0.07087252136149078,
        0.19215767061757458,
        -0.14111485412553298,
        0.054941474869958845,
        0.14507953335669557,
        0.033192634036774055,
        -0.02911044152726161,
        -0.019388753530440173,
        -0.02078864241111833,
        0.13582773777940862,
        0.06735551769661982,
        -0.2109205564485737,
        0.10995340713241894,
        -0.213853226564034,
        0.13415524194524817,
        0.15157438448080077,
        0.08767836743374766,
        -0.20339624649904975,
        -0.2154414200995774,
        -0.1833170756370986,
        -0.1840462277191722,
        -0.1065536463997712,
        0.021756716541251414,
        0.11150980359643783,
        0.12995273775827768,
        -0.03046940897205111,
        -0.21169091614757146,
        0.21674585843354657,
        0.014115632836805364,
        0.013244553149021093,
        -0.16638821241666382,
        0.00700897320163249,
        -0.10295552685473482,
        -0.15799222171063915,
        -0.19610377433160686
      ],
      [
        -0.002587878478433725,
        0.009829015374749006,
        0.06223745028519592,
        0.021110053244958293,
        0.2096933700502179,
        -0.03429327531745249,
        0.021212974016470987,
        -0.17476472995400552,
        -0.10278469175041749,
        0.1424954914166137,
        0.11126163078513543,
        0.05251764661730632,
        0.11492633260222315,
        0.03209314020876344,
        -0.08256578450630142,
        0.059798087540186645,
        -0.025301861111698715,
        0.12267378091395789,
        -0.03350509255804865,
        0.08961196336027358,
        0.09373614002295397,
        -0.06230489406367665,
        -0.20227489888848357,
        0.176224115596363,
        0.16471683063220635,
        0.11296943135439638,
        0.08345944997439572,
        0.16656073492963416,
        -0.030333255087087396,
        -0.040933215369673454,
        -0.12270507993444622,
        -0.12897656509042174,
        0.013084842145567377,
        0.1466907421321619,
        0.07981965783023118,
        -0.008659801197214045,
        0.03283076304246593,
        -0.19881514460655564,
        -0.0604440328184466,
        0.14943503028477964,
        -0.10708215876688017,
        0.1994928904044392,
        -0.12166856113677811,
        0.057775995686584675,
        -0.06248892899943634,
        -0.15497225603260062,
        0.09136011788774859,
        0.1697858570129588,
        0.07405270758567115,
        0.06285009484189139,
        -0.04945656918234201,
        0.1702272847942701,
        0.09472346285327918,
        0.0060057811690097385,
        0.20719928324367784,
        -0.07263170199141919,
        -0.15930222966127724,
        -0.05615316341468593,
        -0.1664767633286852,
        0.06744547549957855,
        -0.2162424670132873,
        -0.20506957969853185,
        -0.17674941294476676,
        0.16932760576259934,
        0.04350418507010598,
        0.013618142756201546,
        0.21665903420436364,
        0.21021691952942798,
        0.11234229444190127,
        0.20812174188406043,
        0.11641167388747534,
        0.09995486629592928,
        -0.13966786948578802,
        0.14594947848994058,
        -0.09182531099171737,
        0.05598870107113654,
        -0.13070178949588612,
        -0.058934194049920896,
        0.16145752493916607,
        0.10125225187013806,
        0.11230595325858292,
        0.11424781699486777,
        -0.09445038977990544,
        0.19191992600991511,
        -0.022700467868741914,
        0.05205286208210955,
        0.12961484529475562,
        -0.18439301417289364,
        0.09913626190746674,
        -0.02221470162391803,
        0.09992087176187672,
        0.19365408494627365,
        -0.07174785773597625,
        -0.07510368155954952,
        -0.06640155549190316,
        0.08472663663543825,
        0.12638794122237537,
        -0.0581424846362843,
        0.2065237528222216,
        -0.042459364002804895
      ],
      [
        -0.16088781852442002,
        0.027046688666152646,
        0.037769337529258235,
        -0.06538825587066585,
        -0.13662226233850877,
        0.041076225117001125,
        0.10565664431461094,
        -0.008289639234725033,
        -0.2112293238382728,
        0.16535237879275025,
        0.027214562758694633,
        -0.05049516303771945,
        -0.06390368109690442,
        0.02368820591004192,
        -0.056273291391491675,
        0.09563180719625244,
        -0.2153357455617888,
        0.16143751760880812,
        0.10367338004942658,
        -0.0695343866401954,
        -0.14750894690933974,
        0.058608438613601405,
        0.17830784935069502,
        -0.20447410819440298,
        0.019982001622750434,
        0.015623502841835807,
        0.1900967413783328,
        -0.12153233563826855,
        -0.20881871566418947,
        0.10882742388410363,
        -0.08013174281060809,
        -0.14400491658782777,
        0.003815303803504616,
        -0.11001439958884968,
        0.0062838169122681475,
        -0.0022998308292569714,
        0.1155158816281169,
        -0.022605297775679545,
        0.0682920515782365,
        -0.14402726923236756,
        0.035076173676181904,
        -0.003593392290784092,
        0.12971827344326217,
        0.035379302753510505,
        0.19111434905187477,
        -0.07290391587753345,
        0.13100046714272898,
        -0.20538688046366887,
        0.027471811604484614,
        0.04518228355769496,
        -0.11131696388864472,
        -0.05308420608595357,
        -0.005819975890765827,
        -0.13114093574578567,
        -0.21491585777194866,
        0.08910110641427446,
        0.1366669404166738,
        -0.2110581930655569,
        0.008420178904012504,
        -0.18033656148605892,
        0.1889558780346213,
        -0.21015498045867168,
        -0.11641277591530774,
        0.15279917102553972,
        0.1619981286935779,
        0.025459577838320202,
        0.16195799464870195,
        -0.07233908747874176,
        -0.18600034005135258,
        0.016797811472451962,
        -0.06986477591157511,
        -0.16918177462775547,
        0.14513477205024736,
        -0.03173558639874996,
        -0.03515231352277759,
        0.2210701335038793,
        0.04792008176365328,
        -0.15987943137584015,
        -0.07750454228661507,
        -0.11760142318920401,
        -0.0994741241690054,
        -0.1391458014790083,
        0.20061691411420132,
        -0.11674381780133239,
        0.16141893520394576,
        -0.17156158610045724,
        -0.07026572470811332,
        0.07231929823178748,
        -0.1738488729374212,
        -0.0016293132902727436,
        0.22021173452086265,
        -0.028090834612850363,
        0.014142709422334726,
        0.034213595662794444,
        -0.15175934377222372,
        -0.0953506852752185,
        0.07504891399762761,
        -0.22337055699627717,
        -0.2072545044474647,
        -0.1382991598193851
      ],
      [
        -0.1364906214041829,
        0.11143551327864129,
        -0.0068858663577769375,
        -0.0594417613841029,
        0.007898422613859146,
        -0.15189256688401476,
        0.004208881972739498,
        -0.2019437396417193,
        -0.14093842010133406,
        -0.10706024235764036,
        0.2105865884302198,
        0.18961283495508321,
        -0.1135063407079381,
        -0.03920750558095534,
        -0.22133972388423284,
        -0.057895612264380975,
        -0.15670824634464653,
        -0.054888634279651294,
        0.18279448456913236,
        0.08340049565699484,
        -0.07810524004168146,
        0.030431351158836634,
        0.003679033901723583,
        0.16112623561402697,
        -0.012953702463401079,
        0.10289646118391901,
        -0.10231307959189483,
        0.07391925833716476,
        0.05171720824223461,
        0.11027010949058705,
        0.13976480811030387,
        -0.029502301940261794,
        -0.1506984350305131,
        0.007077085397450417,
        -0.0819130278475339,
        0.1266286644249495,
        -0.0639858077983643,
        -0.17986142483461953,
        0.18291666234227963,
        -0.07490986912128478,
        0.14764953628579255,
        -0.1146208891335401,
        0.13009178987313655,
        -0.009605757496292194,
        -0.08072318413518473,
        -0.09997963081889541,
        0.0563610048363197,
        0.1283400039422413,
        -0.08980088655928584,
        0.16055644035412084,
        0.05433114577909351,
        -0.2120192553782781,
        0.14877705919340858,
        -0.025405609679332697,
        0.044428001425943525,
        0.12477327991890605,
        0.12286471371601851,
        -0.05091200042672425,
        -0.056241785635980646,
        -0.018583877639438,
        -0.057327491691077925,
        -0.18701608462258038,
        0.16997665341826865,
        0.045889057096748315,
        0.19067805147689545,
        0.06575870705802636,
        -0.14752805008047648,
        -0.2063701436569865,
        0.06597731256581216,
        0.1286377642638902,
        -0.13999458335776482,
        -0.038235236922328886,
        0.1110147518480272,
        -0.04031980634433868,
        0.18597171272027288,
        0.024944188502056097,
        -0.10193401734998722,
        0.08308136570349087,
        -0.019610334852248057,
        0.047427614732374695,
        0.07048662908041678,
        0.11484379704381967,
        -0.05428173828043151,
        0.11864734389759549,
        0.21540426684996747,
        0.0027764427701102157,
        0.04559764026697735,
        0.12108825839495427,
        -0.10849305396205015,
        -0.10595486169851207,
        -0.2223640657542834,
        0.09969101380671883,
        0.05697984423165367,
        -0.20099402921610787,
        -0.06204890324650367,
        0.07069845549659895,
        -0.20571380287250093,
        0.07345450636065234,
        0.19468559991198034,
        0.1612337362677603
      ],
      [
        -0.033482481925143304,
        -0.02799534379951077,
        -0.07447020534261134,
        -0.027727161451239518,
        0.07415135979857437,
        0.17035839470265737,
        -0.09058146865896452,
        0.09561238933429536,
        -0.08152873013451689,
        -0.17219568152032572,
        -0.08047215566274502,
        0.08593967930275206,
        0.02017519291857936,
        -0.12018541409395944,
        -0.15433691678156558,
        0.13251777667865935,
        -0.11462225626347362,
        -0.10891262983145612,
        -0.0582887009006989,
        -0.1712592383087716,
        0.028796126240444336,
        0.1328766953253742,
        0.15347514069216536,
        -0.028978723326507444,
        0.22036470310195624,
        -0.16154473604741876,
        -0.15001340249711076,
        -0.09804499340683129,
        0.08192592814902175,
        -0.024214215442331433,
        0.11888341376784303,
        -0.008625253021688206,
        0.024595750611625528,
        0.16013631978201284,
        0.118880099560462,
        -0.05895740878755393,
        -0.029024637577718504,
        0.13149686787993028,
        0.0674907110428162,
        -0.05868127510637969,
        0.030104176797247056,
        -0.15069462185170884,
        0.08336394246988574,
        -0.15363837884496467,
        -0.1547886801583715,
        0.030560129344029047,
        0.15882621811558237,
        0.2125589866332198,
        -0.15249027774007035,
        0.06662991503554974,
        0.21358373629046304,
        -0.18125290369358632,
        -0.09729723301130555,
        -0.15115757010609815,
        0.15220340076273173,
        0.0886212571218973,
        0.005804975208825586,
        0.0748977642572852,
        0.13654408176683167,
        0.21934391981550275,
        -0.011467437597289826,
        0.072136125517448,
        -0.06165045724303908,
        -0.09002921736480213,
        0.10899618186159446,
        0.15898749875623505,
        0.18636956007439917,
        0.13076857624747554,
        0.02905063253314752,
        -0.1428161784679551,
        0.1742055028455897,
        -0.1436290738864964,
        -0.12542710501282284,
        -0.031040994879624445,
        0.08993558042527797,
        -0.03236413354171894,
        0.07741722786629787,
        -0.14553238465535656,
        0.06217129556648901,
        -0.03678499259606777,
        0.19953993968516778,
        0.09710204055672003,
        0.1678788657909472,
        0.04729414330748358,
        0.13680787850409007,
        0.18416657772381687,
        -0.12345497550250165,
        -0.17897651603257214,
        0.05921973348623852,
        0.09984617777426638,
        -0.1561905936714592,
        0.010151488716864054,
        0.14401283014115393,
        -0.12291924567224656,
        -0.22219078854939284,
        0.09444731463020131,
        0.07102086861923443,
        0.19794762907762095,
        -0.0801197524914698,
        -0.17197284192321713
      ],
      [
        -0.017952229693875305,
        0.21920460487720103,
        -0.03349735654546768,
        -0.20817228448258662,
        0.12407341968595167,
        0.08927465845765717,
        0.11422495040414668,
        -0.13206191103569448,
        -0.16687025426787433,
        0.18722378577787727,
        -0.19878585939477603,
        -0.22005684409581497,
        -0.18002431396818058,
        -0.11811363056082295,
        -0.07274348724869881,
        0.08988712934549384,
        -0.17529358182163682,
        -0.15178680311991327,
        0.17937478305605534,
        -0.002226638777212242,
        0.08713763173544961,
        0.08715313297432956,
        -0.0784263118234445,
        0.11100691096463741,
        0.06070538304260395,
        0.17652053906254236,
        -0.1578589429114731,
        0.09762742153647122,
        -0.19787321746378925,
        -0.05476101915396131,
        -0.20235011664465113,
        -0.06138574559232082,
        0.05413908568887696,
        -0.08852384606844108,
        -0.18324609872271666,
        0.057953345536992246,
        -0.05129147628688613,
        0.13702222214825419,
        0.20057989670200707,
        -0.06396919557394426,
        -0.06091348577955022,
        -0.09925636195445625,
        -0.16167748712596136,
        -0.12146971517340936,
        0.2146156525473348,
        -0.13824769305651669,
        -0.14330703607688655,
        0.10578340110172094,
        0.16614899102526529,
        0.0628709558187582,
        0.09518116716055117,
        -0.048100593159289884,
        0.17475768975882736,
        0.037436882800134214,
        0.1705829885951445,
        0.04728456291546426,
        0.14046773160303275,
        -0.15144275125491752,
        -0.059021433306133325,
        -0.20164328342207863,
        0.20994072654163629,
        -0.1082537395687209,
        0.0757083859996632,
        -0.1536879995517948,
        0.07386101802110193,
        -0.07743076680698815,
        -0.13649297069500543,
        -0.015758438578152678,
        0.023311203497661526,
        0.06396817720622319,
        0.13015805509228554,
        0.13484811369491392,
        0.017227060302986957,
        -0.15553111898036484,
        0.008994657960290975,
        -0.09602858369201925,
        0.07700936531400401,
        0.18481369112237636,
        0.036158443880068475,
        0.04743625980235175,
        -0.14083764973570656,
        -0.017304286862337065,
        -0.18093046585496647,
        -0.18575531438663662,
        -0.20966201987354524,
        0.2007529845855122,
        0.08513133826234295,
        -0.16099150341651636,
        0.20796272065361035,
        0.13355310956296976,
        0.14736312728284232,
        0.12082049308787482,
        0.10758047113878574,
        -0.010052587001912305,
        -0.019738827670099324,
        0.18681500489425182,
        0.07262291552470704,
        0.18929962229947803,
        -0.21109117346227094,
        -0.20276870125978103
      ],
      [
        0.14648877177546862,
        0.20534556839613158,
        0.05411162255825261,
        -0.06679812185398215,
        -0.20694071271826248,
        0.08304750402438041,
        0.14034563400308395,
        -0.10789956728729569,
        0.021334188446151897,
        0.10832845297013602,
        -0.20082849469765174,
        0.046215625682978795,
        0.1478721565873953,
        0.0533822279968755,
        -0.0367124476481793,
        0.13132021931693308,
        0.06831239910213618,
        -0.15032438974474197,
        -0.020925868159094974,
        -0.0038572962528449217,
        -0.08841601789200229,
        -0.10184021656959068,
        0.1628515308120662,
        0.21489612779152303,
        0.16018098356218105,
        -0.08941067203915196,
        0.17543892051181784,
        0.12394994343854357,
        0.162340008687297,
        0.1455571577169019,
        -0.17551189148713195,
        0.01487321593842153,
        -0.0033240561847481254,
        -0.15206138296414873,
        -0.16891925920856904,
        0.06903458999228959,
        -0.12835589591140623,
        -0.15325074787632154,
        -0.11932411742289624,
        0.13646509142102317,
        0.20870499549688323,
        -0.13492156463834143,
        0.09123292442178524,
        -0.08878046931847025,
        0.022492749583252952,
        -0.18806089284105765,
        -0.1981384638073504,
        0.18571587439682327,
        0.012554111650369487,
        -0.18294991504107722,
        -0.1755268205691815,
        0.21061338811857164,
        -0.028909426068616545,
        -0.066552962160283,
        0.11631231248593785,
        0.16894244655236582,
        -0.016821332340876932,
        0.14882631993311565,
        0.09850122989625368,
        0.14367190202253008,
        -0.17531938783339854,
        0.054896173686893285,
        -0.09263255327645589,
        -0.1784795960146612,
        0.10695741816435736,
        -0.12304422624428875,
        0.010224789616674612,
        -0.11608593193084751,
        -0.12965963677342635,
        0.16640394220788832,
        -0.18292602381483114,
        0.04619335451877479,
        0.10164531993805773,
        0.16879402229538346,
        0.18178333774017666,
        0.05393347309703109,
        -0.07467848203292224,
        0.06548849858601122,
        -0.09290399370900301,
        -0.11132474604351901,
        -0.06929623387317582,
        0.1145789943093646,
        0.16266758091892894,
        0.10327891926774649,
        -0.12020706976559721,
        0.0490699949831255,
        -0.04512172191114838,
        0.03365685763154955,
        0.1683686969065795,
        0.0885944151031958,
        -0.21491165025783396,
        0.12196974533297864,
        -0.15598460064700576,
        -0.15970734408768741,
        -0.12174048647523104,
        -0.0674140058691785,
        -0.028729080151737724,
        -0.22041577617242916,
        -0.07655345373892944,
        0.09610067892856702
      ],
      [
        -0.13803452227201207,
        0.0012911384670148685,
        -0.03300481261032143,
        0.09948393442746586,
        -0.09942147523535344,
        -0.1549268510260101,
        -0.223585624042058,
        -0.12031031019756158,
        0.040766863262074265,
        -0.18070125812307702,
        -0.03890178593737806,
        -0.13240725235085835,
        -0.08442899473060061,
        0.16935001484149773,
        0.16899990033833265,
        0.223399279668027,
        -0.02665083023727874,
        -0.016396509182031616,
        0.08968265971044151,
        0.05669020029581409,
        -0.19979488574396703,
        0.10992629774069215,
        -0.06175031352012053,
        0.03847083155234857,
        -0.052548240459309226,
        0.17750743883667916,
        -0.11939755300713337,
        0.07266497914086398,
        -0.13740728786135564,
        0.0447048402181596,
        -0.11290506035844122,
        0.05582805925457443,
        0.17206005544435996,
        0.20851170615639744,
        0.05123574150614188,
        0.19826792557611625,
        0.19001831452167642,
        0.030851271049479406,
        0.06068466048544788,
        0.11768302596202238,
        0.051150755656086205,
        0.08337018370269614,
        -0.05450867318386543,
        0.15741466527776746,
        0.03826301756250575,
        -0.07336113443862494,
        -0.006015848695453935,
        0.06907661048705596,
        0.06146681936940465,
        -0.19741896555061353,
        0.19422693722213832,
        0.15847246011541086,
        0.07365876625004694,
        -0.11738399916253427,
        -0.08324387624103871,
        0.16529218302321633,
        -0.20535805711787924,
        -0.21629942946339245,
        0.17374976192435368,
        0.15051021878453372,
        0.1812628454924963,
        0.16300109816722722,
        -0.05369819451830052,
        -0.014318487897999166,
        -0.07618507728016272,
        -0.1134107007332684,
        0.11017482110401997,
        -0.13587011502626312,
        0.10533015194563669,
        0.041745302008901,
        -0.07804535432186357,
        0.15145230086659442,
        -0.05430587043323237,
        0.10164521091162762,
        0.21245563406513276,
        -0.023674968197232388,
        0.15346579502386096,
        -0.20595198836010492,
        0.16051781082090885,
        0.04417317943341362,
        -0.10431142562389412,
        -0.18218649658114075,
        -0.16009855657406608,
        -0.08206511024827046,
        -0.09077956988772248,
        -0.04063513545884323,
        0.011351835497879215,
        0.03448866280852128,
        0.008357248674964263,
        -0.06038095493335541,
        -0.12209436899133196,
        0.07643318900787258,
        0.21688036078548503,
        -0.09620621124509135,
        -0.13749849698546474,
        -0.15383479055335958,
        -0.04916962468326494,
        0.030466273381646786,
        0.07842019423711813,
        -0.2080326858002946
      ],
      [
        -0.12713401097285332,
        -0.031080213291244996,
        -0.1985486918392126,
        -0.1487994730814265,
        0.1418522786439442,
        -0.08405833684949765,
        -0.08074955136032405,
        0.22176301534666917,
        0.0019226073360051055,
        0.00978092411124687,
        -0.04868072723521197,
        0.19660163719447551,
        -0.21977237311636139,
        -0.059896203426749006,
        0.186191171801901,
        0.180662632608056,
        -0.0300227037298951,
        -0.06521040071476253,
        0.07848860543042566,
        -0.07503389568206592,
        -0.10236622056839832,
        -0.1120572986552626,
        0.12263851292794423,
        0.13941259911991025,
        -0.18254022608817533,
        0.11754791155595226,
        0.03008461833494211,
        -0.09593639516406874,
        -0.15648483073826008,
        -0.1720211082553254,
        -0.2119282119406349,
        -0.13721763917522972,
        0.13286457514969005,
        -0.0490042238560188,
        -0.031025914285685685,
        0.013332637914924894,
        0.13696374925195934,
        0.13439162235016003,
        0.07628850863919404,
        -0.19213521228090705,
        -0.0445633167619201,
        -0.01580489041089883,
        -0.17855410693740334,
        0.19148838572016683,
        -0.1408157402184723,
        -0.1794199137954401,
        0.035064533529261005,
        -0.1122105216588693,
        -0.13173957202256417,
        -0.20062689478014833,
        0.21877233713882363,
        -0.22293054734453857,
        -0.11809084688410972,
        -0.060093739195067025,
        -0.07482914052788589,
        -0.0034400249437969987,
        -0.049176613535272085,
        -0.1680662840334774,
        -0.20686751962875688,
        -0.008620553046943452,
        -0.050497653203593534,
        0.10784055609575752,
        0.057158340927924794,
        0.06600559974153439,
        0.05391619068898493,
        -0.04171523373681274,
        0.2196099457126707,
        0.017013403624269008,
        -0.08565111045351159,
        -0.1529980856154186,
        0.14054522904054526,
        -0.010599465899295085,
        -0.10597333593019816,
        -0.04730234580097453,
        -0.09262744239887247,
        -0.06499937843223783,
        0.18978580902973144,
        -0.1911512524552273,
        -0.1580074301463396,
        0.19319462480122893,
        -0.05089122064460175,
        0.07386810809793284,
        -0.163421203373685,
        0.09172819613920771,
        0.0732614601108725,
        -0.02158122123327147,
        -0.11985005754175453,
        0.08467281850478067,
        0.10905012910944503,
        -0.22329030057259516,
        -0.1289670848946011,
        0.1998740036014748,
        0.1597449594101343,
        0.1267012688592886,
        -0.19136983243889544,
        -0.08452109521755152,
        -0.20003369048710862,
        0.043701895325846424,
        0.10685265378107608,
        -0.10242547801425154
      ]
    ]
  }
}