{
  "num_class": 10,
  "num_hidden": 100,
  "num_visible": 20,
  "params": {
    "bias_b": [
      0.0,
      0.0,
      0.0,
      0.0,
      0.0,
      0.0,
      0.0,
      0.0,
      0.0,
      0.0
    ],
    "bias_c": [
      0.0,
      0.0,
      0.0,
      0.0,
      0.0,
      0.0,
      0.0,
      0.0,
      0.0,
      0.0,
      0.0,
      0.0,
      0.0,
      0.0,
      0.0,
      0.0,
      0.0,
      0.0,
      0.0,
      0.0,
      0.0,
      0.0,
      0.0,
      0.0,
      0.0,
      0.0,
      0.0,
      0.0,
      0.0,
      0.0,
      0.0,
      0.0,
      0.0,
      0.0,
      0.0,
      0.0,
      0.0,
      0.0,
      0.0,
      0.0,
      0.0,
      0.0,
      0.0,
      0.0,
      0.0,
      0.0,
      0.0,
      0.0,
      0.0,
      0.0,
      0.0,
      0.0,
      0.0,
      0.0,
      0.0,
      0.0,
      0.0,
      0.0,
      0.0,
      0.0,
      0.0,
      0.0,
      0.0,
      0.0,
      0.0,
      0.0,
      0.0,
      0.0,
      0.0,
      0.0,
      0.0,
      0.0,
      0.0,
      0.0,
      0.0,
      0.0,
      0.0,
      0.0,
      0.0,
      0.0,
      0.0,
      0.0,
      0.0,
      0.0,
      0.0,
      0.0,
      0.0,
      0.0,
      0.0,
      0.0,
      0.0,
      0.0,
      0.0,
      0.0,
      0.0,
      0.0,
      0.0,
      0.0,
      0.0,
      0.0
    ],
    "weight_w": [
      [
        0.03758246387750941,
        0.04336988418179194,
        -0.02131069637789393,
        0.13769971456838848,
        -0.05788676664075279,
        -0.07302325331991694,
        -0.13977209762334797,
        0.08855133204336291,
        0.07762368221754451,
        -0.16564315705181656,
        -0.012732787847932636,
        -0.21256426432517028,
        -0.2189006933677431,
        0.14568760668483577,
        -0.21120418740840646,
        0.02429169450724722,
        -0.04977593938534183,
        0.209061385276697,
        -0.16932545763603501,
        -0.18754693871986827,
        -0.2176960056965445,
        -0.1134303580456533,
        0.22437874892539783,
        0.05587926754630945,
        0.05170612721060058,
        -0.16976473181617757,
        0.060165635212849455,
        -0.1902915411426608,
        0.1916034165973915,
        0.04812079358423482,
        -0.228494011008773,
        0.22688565049968945,
        -0.04168937575657877,
        -0.2034596189250135,
        -0.22580378298661954,
        -0.0868397729509309,
        0.17436361922549154,
        0.033737697377024756,
        -0.13013839133005733,
        -0.13002779210723964,
        -0.026153119097487854,
        0.046114516170583764,
        0.16625981570249088,
        0.012203677245543415,
        0.13716679390448566,
        0.19024311430077923,
        -0.14600973003406043,
        -0.1811069680046962,
        0.16424915502027654,
        -0.11451964738564518,
        0.1901114189821964,
        0.20171079941602832,
        0.11079304716115518,
        0.14283361444228593,
        0.023295995955990634,
        -0.14207874169054713,
        -0.038751138515239175,
        0.08478325842628948,
        -0.004590240387679134,
        -0.05316522665741849,
        -0.0883095173882229,
        -0.1723068446267169,
        -0.2051074573800758,
        -0.006844857289555056,
        -0.12956609982564166,
        0.1075396505209344,
        0.09490237849885752,
        0.18522012061319898,
        0.10270256354940066,
        0.08355983013084822,
        -0.0921768715575908,
        -0.23022049026619093,
        -0.1987802632538258,
        0.04882297036283756,
        -0.056325404164313475,
        0.1926100557190943,
        0.1512685941523968,
        0.22155248391329418,
        -0.03381510649043687,
        -0.06937616421133308,
        0.23340606487746185,
        -0.21589977039902006,
        -0.18783694470859474,
        0.15040531015738529,
        0.14579663603038095,
        0.039825540607955345,
        -0.028098251037861927,
        -0.09810184173282616,
        0.17618282573445843,
        -0.0607613738510496,
        0.144695385292665,
        -0.18322389221251706,
        0.22881027526385067,
        0.19181584111554162,
        -0.10137536164559358,
        0.18091118143280294,
        -0.09995340268171901,
        0.1353648633104385,
        0.026031352090156612,
        -0.06704086721389713
      ],
      [
        -0.024201613708669106,
        0.03681797063276104,
        0.02075480953974701,
        -0.06618972554412786,
        0.09791914251704836,
        -0.13509859039746058,
        -0.19235073825476146,
        0.08430839838717474,
        -0.14620133831074547,
        0.08850260496454748,
        -0.09619856380322112,
        0.03628144691412549,
        -0.14912232574657464,
        -0.13257100688427728,
        0.1876680561255759,
        -0.16553916442895072,
        -0.2212812077183223,
        0.11572534981685384,
        -0.20589589916318593,
        0.19971678841041512,
        -0.01534942152095059,
        0.06437989086448637,
        -0.1462555225161768,
        -0.05037936776565824,
        0.07267168244004835,
        0.0932591771666062,
        0.20283204107958586,
        0.2297351563086465,
        -0.19844488509296315,
        0.177662375056454,
        -0.14390781169064934,
        0.18732738562601808,
        -0.07964781573900453,
        0.19093624946292648,
        -0.18792119411851888,
        0.14834392757734333,
        0.16127133215829137,
        -0.050525545749117357,
        0.01521974004210977,
        -0.14252449380551563,
        -0.11329314684879277,
        0.1774915649940197,
        0.11055943809666369,
        -0.09886641832324611,
        0.051721084908396386,
        -0.030685370524897088,
        -0.12288777574962075,
        -0.09881046804242699,
        -0.1677652156257865,
        0.22253847369033436,
        -0.07635542316872654,
        0.09755059443577385,
        -0.1837258611725149,
        0.1152679808011271,
        -0.21048359626653068,
        0.21046427287120284,
        -0.12218470168897007,
        0.22994260086258056,
        -0.22919105378877208,
        -0.18644762265612752,
        -0.13895519653468202,
        -0.1175140386642141,
        0.030983540093419415,
        0.1323289014426084,
        0.06525900799853068,
        -0.19812222192212076,
        0.046007542928728995,
        0.14770441050689886,
        0.11040557478260654,
        0.17923684491844105,
        -0.18543023135078787,
        0.043672325970345593,
        0.2151975774880326,
        0.17350055560461358,
        0.1619265297868313,
        -0.014786752947617804,
        0.20891194208354358,
        0.1966982856239115,
        0.06876871679245666,
        0.21949717176384037,
        0.11883218741796181,
        -0.033159742062655845,
        -0.13240012358368394,
        -0.10830572374278877,
        -0.08619195457606449,
        0.18052659049632902,
        0.008349831294952731,
        0.1499564389134454,
        -0.07686246156833576,
        -0.05619637348227541,
        0.22626554324013487,
        0.19814654464148407,
        0.18640427260213804,
        -0.1512202381532893,
        -0.03845053357771758,
        0.1522903400608312,
        -0.00876555313103572,
        0.17207789058394568,
        0.01564286430079756,
        -0.0932276270297544
      ],
      [
        0.19321021779865083,
        -0.16615539917254113,
        -0.17206070965801507,
        -0.15950571168440328,
        0.027762848574838017,
        -0.1263086055636651,
        0.09077432935111929,
        0.1319605517394537,
        0.03234203668758956,
        -0.13917492127691888,
        0.06308591089670634,
        0.14270196750899605,
        0.005926601436764378,
        0.1583559241804316,
        0.2119548080191045,
        -0.1770468421150385,
        -0.06494321597231911,
        0.17245667461240116,
        0.048121730206900415,
        -0.0630183708170719,
        -0.21816661248030964,
        -0.17366896064874315,
        0.04041152509027729,
        0.22307940709857016,
        0.13329519411154628,
        -0.18228393481134375,
        0.2027543144232759,
        -0.054560229992320824,
        -0.15628266245138905,
        -0.17789696330999796,
        -0.04355506981170423,
        0.17003536683417725,
        -0.10315977469809265,
        -0.22698528926126219,
        0.06381666788968426,
        -0.22340151075264944,
        -0.21013453652644548,
        0.16641306581059495,
        -0.014858739919437952,
        0.08928323342378869,
        0.015372981374267042,
        -0.1525758002299875,
        -0.11592357365337828,
        -0.040396257306583166,
        0.2056114464484733,
        0.09754732006184041,
        -0.0052405374271519145,
        0.07257674419897342,
        0.1522427373778834,
        0.2090783574117896,
        -0.1001444955121181,
        0.11811265499739149,
        -0.18178147535078973,
        -0.08788631120490628,
        -0.06534482619007242,
        0.09145010857722558,
        0.08892001774238795,
        0.054452712744471,
        0.14908711723449425,
        0.02449807694711481,
        -0.02278812375047551,
        -0.0068314608750467964,
        0.18301239824388532,
        -0.018588221838867186,
        0.17763965554871491,
        -0.2022600264718169,
        0.19435390262204522,
        -0.11167284971555137,
        -0.013963975326907657,
        -0.13710275244376782,
        0.10056930648145945,
        -0.1184199994651586,
        0.14260677756892742,
        0.18468175470557557,
        0.13607875676192543,
        0.11201993299238089,
        0.21731939328775846,
        0.06019089187321697,
        -0.16026794407274603,
        0.05228147652766324,
        -0.20581161007651982,
        -0.18906782494442448,
        -0.22250276263865895,
        -0.1256310958193782,
        -0.014202132798378009,
        0.16476592200976914,
        -0.09114238278201117,
        0.030218320203500293,
        -0.14263058630657857,
        -0.0664395967563618,
        0.001760655655648119,
        -0.11280221103651503,
        0.21016631639082245,
        0.14538153079125266,
        0.12332811050151266,
        0.17237170529072376,
        0.07302543376208032,
        0.1902831322429157,
        -0.05879453755231595,
        -0.18449491993208636
      ],
      [
        0.19405549621964585,
        0.18148336036069096,
        -0.23048413886373906,
        0.09873177603582389,
        -0.12480477047757921,
        0.15954681475747534,
        -0.17771564628706268,
        -0.08476045852902181,
        0.0957524706069332,
        0.02084361831891124,
        -0.22138638191755275,
        0.2090327219032171,
        -0.2144584344448656,
        0.09804217130758547,
        0.08319136443448494,
        -0.13876857392093706,
        0.13176840851141997,
        -0.1546953516021154,
        0.21820111712478085,
        -0.12508030465994,
        -0.22632309382024782,
        0.15995932598331986,
        0.0048556266785547975,
        -0.06012903757720403,
        -0.11210442343830086,
        0.19019301025254493,
        -0.12997648765685416,
        0.2325439389239753,
        -0.17893133123043165,
        -0.1732318193865224,
        0.14020925410369467,
        -0.11742512378732078,
        0.10378010226791928,
        -0.009775418088040277,
        -0.18417830077795197,
        -0.09637328373314305,
        -0.11337855979831823,
        -0.027563447677373093,
        0.15572598240670316,
        0.17819150061405942,
        -0.09863235110900967,
        -0.20569503070324752,
        0.10584289539848207,
        0.09701670269897616,
        0.0879283070513952,
        -0.21687887532394942,
        -0.17305708752167118,
        -0.19089320591200287,
        -0.15094085079399494,
        -0.1906371287791422,
        0.11709542276881874,
        -0.20604124084657197,
        -0.11139184173515877,
        0.05784979258266426,
        -0.019361467176778724,
        0.05069020329641338,
        0.09623814216168414,
        -0.026662662412908267,
        -0.15793746718672708,
        0.046395960050893026,
        -0.11875223782338724,
        0.1889469739239812,
        -0.22470700777645392,
        0.0692372813344237,
        -0.03214211868913758,
        0.146958751760063,
        0.0085270249895118,
        -0.17455412118246477,
        0.08837919006953016,
        -0.19041300468054437,
        -0.19385344459280937,
        0.1702583326190804,
        -0.1468006706439161,
        0.17171147964728634,
        -0.08296821728154533,
        -0.033600830718998165,
        0.09499657151311613,
        0.12574742722539384,
        0.010252263608725665,
        -0.22204982327516218,
        -0.028514409425032278,
        -0.1604623955230396,
        -0.14305905909799385,
        0.22255468370796289,
        -0.20101273862777327,
        -0.042212356899098885,
        0.10906975718047612,
        -0.12352176084664487,
        0.1905621836793822,
        0.00900939701100259,
        -0.18633689332452102,
        0.1736279224822304,
        0.12845078567988105,
        0.04415834719957845,
        -0.12544671066303698,
        0.10304325727955232,
        -0.03848460660768535,
        -0.10752047332668346,
        -0.22228316335701834,
        -0.1500855142140194
      ],
      [
        -0.130587738208735,
        -0.00865574035811481,
        -0.10607836429703368,
        -0.20086939442374285,
        0.09762218385047172,
        -0.2145755780841518,
        -0.07238768513502059,
        0.043415739559297006,
        -0.21855771121757808,
        0.1042856033664682,
        -0.18133847463927993,
        0.06138743053988982,
        -0.15820132686259197,
        0.06066046519098117,
        0.09041178137196032,
        -0.17809685827217298,
        -0.1538635561630773,
        0.034146601653789965,
        0.2284184317345716,
        0.027533136844238026,
        0.026776057791216112,
        0.20356605184836668,
        0.2300714039435901,
        0.14682040534088636,
        0.1013359382334107,
        -0.14537765586954096,
        0.12707591405556617,
        0.1601530645670604,
        0.21342825118897324,
        -0.23001766632576354,
        -0.2087818459622336,
        -0.1627224060335185,
        0.22915753623143015,
        0.15369528177487518,
        -0.16123753017043602,
        0.04980743785340547,
        0.16498443257409656,
        0.15667911876082707,
        -0.1012501814594598,
        0.1548657700500804,
        -0.11249170300621457,
        -0.044236064238406564,
        -0.18558651571546775,
        -0.10232771198422644,
        0.1467005058686387,
        -0.022856658675474595,
        0.20333575794217545,
        0.1103856828664494,
        0.18642313295457297,
        0.0263218129741164,
        0.17456297207171656,
        -0.03590914542517035,
        -0.011252433546473067,
        0.0088755422807206,
        0.20325429310321214,
        -0.05234378049342034,
        0.11657566628390048,
        -0.05000067071203995,
        -0.09125221457318136,
        -0.1962703074556761,
        -0.09472674616030805,
        -0.046398558688568875,
        -0.11683749607040031,
        0.20215913948782643,
        -0.23121552580730653,
        -0.17473467384981378,
        -0.16220461021016758,
        -0.027364867155921596,
        -0.14050091586736868,
        -0.2048598693660798,
        -0.17706927568943945,
        0.169730394681815,
        -0.072542769275276,
        0.11012054247950348,
        0.19667608728217184,
        0.22937973828520897,
        0.21709871623110344,
        0.07606490283079337,
        -0.14638399338597796,
        0.22244222834452898,
        0.16866748958455519,
        -0.05983839190799556,
        -0.17985962265982333,
        -0.22989053198078616,
        -0.027067593761385594,
        0.10599991892417904,
        0.11876708339668923,
        0.044644231780141985,
        0.14926484403788043,
        -0.03191526025940494,
        -0.11367556907878595,
        0.020977202203328993,
        -0.1834153997791318,
        -0.061260405742386975,
        0.05951104461744683,
        -0.14293735449421527,
        -0.16802410200737022,
        0.050880520308501376,
        -0.1295212282413417,
        0.2306596884175458
      ],
      [
        0.1602769902399656,
        -0.07789693072572951,
        -0.02431004465827244,
        -0.12322491320546994,
        0.09800197017149731,
        -0.00986312675239484,
        -0.18032760964669464,
        0.040361906746090026,
        -0.17233718897061107,
        0.02266259571445639,
        -0.21233863406218934,
        0.1478894086393689,
        0.19488542305630785,
        0.14999476458269012,
        -0.07962531549817581,
        0.1969133187603913,
        0.026175876954227684,
        0.06300029526860695,
        -0.057037072027436714,
        -0.07250344557846078,
        0.00870421271343913,
        -0.18553273838030998,
        0.11673332835346223,
        -0.128780192589466,
        -0.10887801368495113,
        0.16419306332366074,
        -0.01202672972583993,
        -0.0009571405487175111,
        -0.1307291562338146,
        -0.15835174309624295,
        -0.07072898375598913,
        -0.09714780410561838,
        0.2126601330006776,
        -0.21751876174286805,
        -0.0559768443559189,
        -0.012738580223155493,
        -0.17932671945593062,
        0.2052297112575222,
        0.19493820139727613,
        0.15073090735534567,
        0.20406190989192408,
        0.09295191192766084,
        -0.07303164930368902,
        0.1463536957437268,
        -0.11598236585370338,
        0.06812314017803128,
        0.10216073108267826,
        0.14126000864958543,
        -0.21201847115179587,
        -0.06775755745901751,
        -0.07766959746292185,
        -0.11713653280834141,
        0.0070343333570840605,
        0.052776196026495914,
        -0.16353174126144315,
        -0.0037410138818532446,
        -0.130523363855043,
        -0.04343815338367993,
        0.1970764037234325,
        0.1472711154962163,
        -0.18185065113001203,
        -0.13711911721289777,
        -0.19413733909658054,
        -0.07406040302410777,
        0.057276949139980715,
        0.1658981377972784,
        -0.20525427298484628,
        0.19324465049307288,
        -0.06563827646674902,
        0.048458865800263595,
        0.042382964735101725,
        -0.19296255053203595,
        -0.15209651019517834,
        -0.11752442349452215,
        0.007058954457508926,
        0.046140922428961784,
        -0.1689466954533087,
        0.13796582075385544,
        -0.11915339976807605,
        0.024491242013076397,
        -0.02556703473086802,
        0.16385539171945462,
        -0.19574359047003528,
        -0.2080805315665236,
        -0.20537603415199437,
        0.10334144020311437,
        0.12077121903038712,
        -0.05038914743299108,
        -0.20380248512697674,
        -0.10282747621214511,
        0.22851165424557557,
        0.025612504767207,
        -0.10844167665973342,
        -0.21662764935787762,
        -0.017491176688722465,
        0.12252863587947393,
        -0.1949940896827418,
        0.2157184498912194,
        -0.009590244157804628,
        -0.05336164312412503
      ],
      [
        -0.0924016055358195,
        0.14487903724762413,
        0.22405803891522008,
        0.04889451381134502,
        -0.058726993144775336,
        -0.09305504804777406,
        0.23157939547855472,
        -0.09016429893427624,
        -0.09315272024967675,
        -0.183875521379309,
        -0.05311070326518705,
        -0.19334812651872388,
        0.2276942250460397,
        0.18074067732425425,
        0.12386941955201325,
        0.18987262257041304,
        -0.13009213029176647,
        0.13561723204219656,
        -0.03755010144419946,
        0.0772573941279956,
        0.029881686046846434,
        0.17103167903348954,
        0.14839674692064153,
        -0.18925832905415982,
        0.0278822504394457,
        0.20191902803500955,
        -0.17685687557711427,
        0.015674964560741023,
        0.10424217153298476,
        -0.1106126363389981,
        -0.0906673982081713,
        0.07923060900962653,
        -0.000685493426582584,
        -0.07067123475195333,
        -0.09742680597428516,
        -0.12934124987611184,
        0.10099507935764357,
        0.22529653769322744,
        0.04555615539014701,
        0.014723489084215002,
        -0.22646260718554004,
        -0.1662890076428924,
        0.022178005884351037,
        -0.010250286118339808,
        -0.09715783256076502,
        -0.021944276584021177,
        -0.0030548221719709223,
        -0.18223224274235053,
        0.15232706222424297,
        -0.20663054190130647,
        -0.11990959797766022,
        -0.15051508117313886,
        0.02405758796187102,
        0.1879957769360006,
        0.01712673540296905,
        0.22439341772424987,
        0.030154698812868697,
        -0.14541101483525687,
        0.06101715404012814,
        0.041837052643467765,
        0.05251609036845312,
        -0.10657792382083406,
        0.022548190633516596,
        0.05531309881542795,
        0.1468799847697747,
        -0.136449923875279,
        -0.16690594527391495,
        0.1825930474423214,
        -0.18289121257272428,
        0.12573467488034606,
        0.2248342923956793,
        -0.06162917583623334,
        -0.16241604884790753,
        -0.20096705038378265,
        -0.09345336080711084,
        -0.16002607258215548,
        -0.13620058380282052,
        0.19100502679331893,
        -0.12745248711221832,
        -0.20565858328850375,
        -0.18957586724313086,
        -0.10832956723026171,
        -0.16408076024512153,
        0.14392224170952322,
        -0.07031685161675014,
        -0.030668509377805353,
        -0.16931702449814673,
        -0.04279118688857886,
        -0.11172317456232814,
        -0.008880874667137273,
        0.1746619678828918,
        0.21249461891974825,
        0.014460958316789091,
        -0.12405829947009268,
        -0.09967544674230902,
        0.22108790286857155,
        0.21670192070891248,
        -0.15322494343195797,
        -0.17374117568654163,
        0.08324763005120162
      ],
      [
        -0.1131537341776537,
        -0.20361333834139614,
        -0.21721719037480688,
        -0.184163589207872,
        0.03083990877576559,
        -0.18741380012104025,
        -0.2258843022306115,
        -0.08826691701674175,
        0.13980818354667535,
        0.19697847065200552,
        -0.1433580845006506,
        -0.10333218223448631,
        -0.003448108059200067,
        -0.14682985083560277,
        -0.05696658711892974,
        0.10628817796880036,
        0.02917687554530829,
        -0.2231177231125616,
        -0.11089176924172521,
        -0.08832053721027533,
        0.18034037023743227,
        -0.17601191155312923,
        -0.04760597690752991,
        -0.08446459631905956,
        -0.2030192619290549,
        0.11871665237617163,
        -0.09760404211207313,
        0.0841018803175636,
        0.08823561891025544,
        0.22801560676587634,
        -0.053431183811567334,
        0.07975016198689083,
        0.1577543844867027,
        0.11689619829252468,
        -0.2281862874140105,
        -0.056668119329197436,
        0.017301924760747156,
        0.2286260219914068,
        0.20208288497323817,
        0.013368463017401827,
        0.06295309425502144,
        0.1380099680303849,
        -0.08902347986496653,
        -0.024182229705307423,
        -0.1525069816411917,
        0.14804033297775376,
        0.15996123308414867,
        -0.2035054446380268,
        -0.011571215209886021,
        -0.1203330692515831,
        0.16572576496820823,
        -0.152046707059911,
        0.13307391996746498,
        0.002305420036665645,
        -0.08486352376342612,
        -0.2053241043784736,
        -0.22088895629684435,
        0.20627427017908667,
        -0.022661243011810606,
        0.11910590248870012,
        0.1372380831394175,
        -0.12765660372542242,
        -0.05312635674559674,
        0.11539089883767428,
        0.016820114319241186,
        -0.14264407564234208,
        -0.20280944324769173,
        -0.10060009532315259,
        -0.09306728163180913,
        -0.11051258552129484,
        -0.07015507322157208,
        0.03319320009115739,
        -0.015020122456509799,
        0.005413354022988565,
        0.0922309341757625,
        -0.20231278470042258,
        0.037592069734457056,
        -0.18272636317545965,
        -0.07697679996534851,
        -0.05126739084576534,
        0.0508221059540071,
        -0.0490526861288208,
        0.15173834059342023,
        0.07898470273291147,
        -0.14529709267590918,
        0.008137573144391869,
        -0.17716893350685353,
        0.04189948917423003,
        0.13650187603544334,
        0.12514981272817077,
        -0.1599209978509873,
        -0.11861698000678961,
        0.005533120031880251,
        0.08558756220193281,
        -0.10469582258846086,
        0.18474406673291927,
        -0.03320350353163648,
        -0.09020736682816433,
        -0.05040248412207374,
        0.009643495157874798
      ],
      [
        -0.06900957638261918,
        -0.2204807079442999,
        0.0832163431946698,
        -0.1505997238089573,
        -0.18075250001269474,
        -0.014036051822977458,
        0.09660534128429832,
        -0.21611993707067692,
        -0.1004008998059168,
        -0.10546199626251951,
        0.18367148794212917,
        0.1128914652435224,
        0.008032406870017106,
        0.22025511761856797,
        -0.23134849722556203,
        -0.11406019550877716,
        -0.1421887544352483,
        0.002704137065116158,
        -0.1290869584745168,
        -0.1415591033946771,
        -0.021922741172833465,
        0.14161137780632987,
        -0.09058655905416257,
        0.022359939189512346,
        0.2178880319633491,
        -0.037132229911167575,
        -0.1554461193801195,
        -0.09493736796071767,
        0.06919552748627777,
        0.13119749620274024,
        0.2157522494615658,
        0.07544035851045006,
        0.21634963435633858,
        -0.15352950630952256,
        -0.1108346359489909,
        -0.23034131368061012,
        0.20506950853995892,
        0.02858064824204487,
        -0.11769771631264953,
        -0.07964300345761646,
        0.2162546926137811,
        0.16035230878327433,
        -0.059655370163052696,
        0.11286823607053059,
        -0.10052660836619617,
        0.22702156388947314,
        0.1299797612739061,
        -0.20604866808102132,
        0.07902868171095473,
        0.03581120597297743,
        0.19838356692727205,
        0.10304128901201448,
        -0.08467196750555878,
        -0.09161551787797545,
        -0.03246485650754177,
        0.054759631549146925,
        0.1592514601300526,
        0.1546399244851066,
        -0.024660919162219408,
        -0.032874579516762925,
        0.14440337298717476,
        -0.07510569806893524,
        -0.0018166886400269033,
        0.16652184562130645,
        -0.05796983268060854,
        0.05541348400650764,
        0.023276774359557828,
        0.20165586929216478,
        -0.03309984847306255,
        0.054654986770398706,
        0.04413286238863162,
        0.14030157149865308,
        -0.05980361702628875,
        -0.10559031316194772,
        -0.11381214801594843,
        -0.21546367206205866,
        0.02327796794866499,
        0.00241222764579313,
        0.21311631872457232,
        0.007639258025157469,
        0.004662784407741233,
        0.06841213919818312,
        0.04040398841402687,
        0.1455497615817759,
        0.221530277568538,
        0.11954117756480614,
        -0.22587185780130825,
        -0.198579651849721,
        -0.10359646734681413,
        0.15802941251388325,
        -0.046283412964093135,
        -0.09420995287557074,
        -0.09647865117981094,
        0.20349041638261212,
        -0.0002836993024862844,
        0.097343435938605,
        -0.003848321034450014,
        -0.2116981675146769,
        0.11319779884991699,
        -0.13742825650220092
      ],
      [
        0.09839040946866562,
        0.13992454536249022,
        -0.17448233262469554,
        -0.030224799870867486,
        -0.1486377184909871,
        -0.037307806896520884,
        0.09193854677062191,
        -0.1798560641964111,
        -0.21511312531010401,
        -0.18153518034544655,
        -0.041011719940745456,
        -0.1292993117310337,
        0.19655792130167665,
        -0.1998009511137979,
        -0.20393218004539193,
        -0.1867005962471806,
        0.11744425223234006,
        -0.11653154749445117,
        0.12693949921969644,
        -0.16289644124579988,
        -0.20155552101048307,
        0.16530058245725188,
        0.15303271633834187,
        0.08282419431658927,
        0.16238387360274015,
        0.10086894970468979,
        0.07784473383018364,
        -0.15396689827427193,
        0.023606083343140682,
        -0.09930290420307133,
        0.11013107341129663,
        0.2097351409161451,
        -0.16613650229993399,
        0.12679567672879832,
        0.009279139435583894,
        -0.1395737411355651,
        -0.08005693946296333,
        0.08580392904297668,
        0.17775456550045754,
        0.01960885299340931,
        0.0055017636492429856,
        -0.003852350810011229,
        0.1349178201224424,
        0.09058038375517113,
        -0.17574300768168186,
        -0.18696737806498806,
        -0.17927028343829862,
        -0.11588270410135325,
        0.23165467591209604,
        -0.14306399242552897,
        0.019825171846430123,
        -0.07696766611426306,
        0.19746950535275937,
        0.10546368970279546,
        0.01813120648710803,
        0.17618110755452188,
        -0.06995737603310084,
        -0.18924485112614525,
        -0.1799722371911962,
        0.014582540088900087,
        0.09194481507585445,
        -0.1594213349688794,
        0.21444877730299938,
        -0.16831333771155288,
        -0.024713807915859143,
        0.020241788998556887,
        0.08041892025355862,
        -0.17786304497011696,
        0.11431089308729436,
        -0.1520857536766484,
        -0.20392057886290008,
        -0.003743955125404652,
        0.21485337573386276,
        -0.11628921930477507,
        0.15641749023276413,
        0.004477429683800632,
        -0.18508903399441973,
        0.0011384612469446664,
        -0.05097157266046243,
        0.046739297306638894,
        -0.08260044002201097,
        -0.009414315420916669,
        -0.0894529937653975,
        0.011040799612213659,
        -0.07021279240542505,
        -0.21863463754790702,
        -0.0033197122537706736,
        0.07982704584162237,
        -0.09912852482035187,
        0.20082479244610846,
        0.03645547368846258,
        0.15484257249272226,
        -0.1174540087530713,
        0.2111658082839899,
        0.06320670112275117,
        0.0880348165529991,
        -0.14718201666592418,
        -0.09669407195774574,
        -0.071489599889859,
        -0.06676161963155522
      ]
    ],
    "weight_v": [
      [
        -0.05405350316739044,
        0.1968196156551957,
        0.028992934159253553,
        0.011158095490178987,
        -0.035848044048607114,
        0.06475665743394701,
        0.04694091976679718,
        0.15849053077328676,
        0.14429106781282983,
        0.1164309311892496,
        0.16810634062841143,
        0.021241882982327737,
        -0.11459273397887618,
        -0.19823741831962957,
        -0.20657398687154588,
        -0.013094447200540926,
        -0.15915652545990808,
        0.029812552297947797,
        -0.16541358796059485,
        -0.13956656144994584,
        -0.04368180428894475,
        -0.17843038538232653,
        -0.14446677798536184,
        -0.03098452427542084,
        -0.19495689895553595,
        0.02200609172333806,
        0.06076196763721667,
        -0.03275996692494185,
        -0.1713936203089917,
        0.0894329662548963,
        0.05916766825267358,
        0.1075108066997785,
        0.003565934541183119,
        0.16422617274465504,
        -0.13114753796668718,
        0.18043062738622936,
        0.015718698006656345,
        0.08577253440229174,
        -0.013834622623548232,
        0.036076361398882734,
        0.18306551780893446,
        0.11259463370890724,
        -0.22027304454230542,
        0.0404826366880012,
        0.17857899821629078,
        0.18386786240785305,
        0.19604761374973403,
        0.19120764218231182,
        -0.01900828382922673,
        0.058778011331226204,
        -0.14511617727661638,
        -0.16716998275768916,
        0.1439166663406147,
        -0.20333662114178241,
        0.08221036199701334,
        -0.2139665785236876,
        0.0006029967094086097,
        -0.02645832669492501,
        0.07346507124929172,
        0.2159131506245677,
        0.13515788777229124,
        -0.2209609720342088,
        -0.20497624068256123,
        -0.18788295167322405,
        -0.001360944752387544,
        -0.14641136583303466,
        -0.18414837073727494,
        0.09430507580329658,
        0.1215949103300121,
        -0.10251758498782539,
        -0.19411572044804085,
        -0.0495816932426974,
        -0.03940722934009075,
        -0.01247581717554222,
        0.20001540780806135,
        0.04105309333489085,
        -0.03839347492294659,
        -0.00333883809283278,
        -0.06593117477347823,
        0.18870325228601767,
        -0.2212479517184396,
        -0.03602420351313221,
        -0.18272965256243862,
        0.020155490724231895,
        -0.0700283409908837,
        -0.14385147077574123,
        -0.039949104772190325,
        -0.07136114769958818,
        0.0883632195014468,
        -0.009134866553218268,
        0.006647684559751732,
        0.19337526514345163,
        0.06942674199064638,
        0.06447169093485319,
        -0.18168507530190497,
        0.22299176373122473,
        0.1240014638751927,
        -0.21844429729399148,
        0.14456677518158725,
        0.20331243878777508
      ],
      [
        -0.045348946329932666,
        -0.20678003252185168,
        -0.21876512775455803,
        0.051599329410303346,
        -0.04896045297446763,
        0.1365557958961995,
        0.1276619633596283,
        0.13297818311104279,
        0.1410689124285355,
        -0.012158529890388403,
        0.16785668082783303,
        -0.21340335983554032,
        -0.1878948280065336,
        -0.12313096621769162,
        0.028414394911955992,
        0.017628782347035438,
        0.06325715098522347,
        0.029596405718828406,
        0.024084808036393096,
        -0.13001105737373148,
        0.21753705712199964,
        -0.030261607485046554,
        -0.019188610899362163,
        -0.17193308269821114,
        0.14233499575561734,
        -0.16900016637641377,
        -0.20007711404727369,
        0.18425108377233604,
        0.18272380085982845,
        0.06546015484294662,
        -0.13255787508434733,
        0.07221567019374389,
        0.11886948841448527,
        0.20667364795235446,
        0.19657075287530887,
        -0.025896491081432188,
        -0.009092445763552198,
        0.046016147640442456,
        -0.09829625758638408,
        -0.21478661217398362,
        -0.115873372751137,
        -0.12431617204007522,
        -0.010805735465421296,
        -0.13333362823692807,
        0.012965043451563407,
        0.056227856020551054,
        -0.13564183166230617,
        0.19471753746009315,
        0.11607881943246576,
        -0.08135057601992782,
        -0.11787551462532847,
        -0.10793947129142441,
        0.19632688778774102,
        -0.14419077330883512,
        -0.07507935738835611,
        0.20270466605738754,
        0.20892183406944778,
        0.11468282929011639,
        -0.04934474384189366,
        0.038056457088322365,
        -0.1456091831775477,
        0.183122252429991,
        -0.08133421734229321,
        0.1156817382895006,
        0.09143243495680478,
        0.11599082196984026,
        0.19161588036252733,
        -0.045737150814569,
        0.20224838637773931,
        0.009375510350715516,
        -0.1651817255956994,
        -0.11862315547010617,
        -0.18102468762021343,
        0.13725999030460287,
        0.17767912484525875,
        0.1471210528638647,
        0.1073063109495275,
        0.1549569064788164,
        -0.16343761246501115,
        -0.054081168225006,
        -0.1687524963488895,
        -0.009744931708032173,
        0.08294974111575162,
        -0.1840525646164241,
        -0.20010181082979928,
        0.015422476774465538,
        -0.024772673735605766,
        0.05779128310869899,
        0.06672326120045638,
        -0.1574168862808258,
        -0.1415277497888569,
        -0.19307780751386783,
        0.1255167043449237,
        -0.032868053955047355,
        -0.023556003856505525,
        0.1406484176867738,
        0.21881362355994607,
        -0.11033442721400277,
        -0.0008539067807485368,
        0.12379231125325149
      ],
      [
        0.12518480044610023,
        0.14873928044590048,
        -0.0580787609451576,
        -0.15020440365585325,
        -0.04997648850848696,
        -0.09314630439119784,
        0.013243659722089657,
        0.03209421149402816,
        -0.030592074442844674,
        0.04627202993939025,
        0.0036504541081804343,
        -0.14848069522306478,
        0.09667577436979932,
        -0.04365396097522123,
        0.0045333341137392125,
        0.056632777477000656,
        0.04050946884828002,
        -0.10106598253116177,
        -0.09100797663953075,
        0.004068306483400813,
        -0.07260234750884109,
        0.12827317059748036,
        0.09635513096084894,
        0.08246602020025248,
        -0.007411810258031837,
        -0.16770391519352107,
        -0.19941130138430135,
        0.15095720194183967,
        0.15541202971796383,
        0.15694014508863394,
        -0.19607227344867786,
        0.054462125740346284,
        0.13261423247731288,
        0.10838406364196743,
        0.017535874043257044,
        -0.07909095699605387,
        0.18518657893066545,
        -0.04261679768493459,
        -0.06395284424416722,
        -0.042946315367411864,
        -0.06671748266033492,
        -0.18339814657113152,
        -0.2178197539368426,
        0.010375041782594796,
        0.19093368713416006,
        -0.03168718226333278,
        -0.16898507278516126,
        0.002944671349356748,
        -0.19818127343483205,
        0.0012306297020334978,
        0.1795575113413326,
        -0.017792123644076285,
        -0.10553302224660799,
        -0.13561702749766374,
        0.005272210850344905,
        0.03816528226128055,
        0.04201797037325303,
        0.18513854001728633,
        0.04553128411223398,
        0.14761053005026806,
        0.1415732031864724,
        0.16267411509801957,
        -0.06250856200658611,
        0.16202649869736732,
        0.03025719197987123,
        0.07690700751279114,
        -0.08038266624067511,
        0.08124876156879726,
        0.14785466081907597,
        0.10778038854881641,
        0.20074746483546832,
        0.07455011104466572,
        -0.020315187131765028,
        -0.061435851361645394,
        0.17863547390428916,
        0.13047998008514364,
        0.11127165855174534,
        0.03652620150767952,
        -0.003995548297019341,
        -0.08890353939769338,
        0.18906843494071998,
        -0.06988312949474879,
        0.21198347108498053,
        0.08879264801868023,
        -0.1132237721800011,
        -0.1296332158857143,
        0.09115266780179312,
        -0.17100636359729804,
        0.1232599101040531,
        0.19512678994707125,
        0.14574016358726652,
        0.19292589272371466,
        -0.22335071543188967,
        -0.22076731627202403,
        -0.18072197535269574,
        0.05894409672003578,
        -0.16919990240177446,
        -0.21668701341478228,
        0.050222246512407115,
        -0.12207626118818476
      ],
      [
        -0.19082755511947075,
        -0.15520382188389265,
        0.05301816670093837,
        -0.026007761386637684,
        -0.02249784948529185,
        0.17628370516793598,
        -0.014189417967321705,
        -0.0627017103320382,
        -0.12324201617589657,
        0.21715348974027257,
        -0.13112768354812002,
        0.12296265755974103,
        -0.14323802942586533,
        -0.1931037096210514,
        -0.07617705024366356,
        0.1886413778752681,
        0.1812022223258221,
        0.04366927172922949,
        -0.19424880742226747,
        -0.22114603594015753,
        -0.05008299492331186,
        0.07728479151637899,
        -0.05458627043285616,
        0.005718797528364211,
        -0.19753392015603438,
        0.1618063956790501,
        -0.1884547105731539,
        0.07343106695917359,
        -0.21888689686353044,
        0.138228056199348,
        0.0836898059796288,
        -0.21564763548475735,
        0.15185532177186065,
        0.10547474057118514,
        -0.16386870637464762,
        -0.21895939220666227,
        -0.17377150381103917,
        0.023012558752210505,
        -0.22204418533021203,
        -0.14010345719876874,
        0.07942343738194382,
        -0.11562138720793252,
        0.08941176256803071,
        -0.15713354087688944,
        -0.10342238616130553,
        -0.12834684967572335,
        -0.17952037945097526,
        -0.13088338227490104,
        -0.02058520541287781,
        0.09440089069273036,
        -0.15207698482117848,
        0.0030381353648740173,
        0.10826012193404802,
        0.1748421137083108,
        0.1640038706467529,
        0.010591595151736466,
        -0.04346747878279478,
        -0.049508878838491976,
        -0.05412923275925305,
        0.05950175696816121,
        0.1233950579557426,
        -0.053829236330011715,
        -0.220292227398666,
        0.06648693918011797,
        -0.20805345049823123,
        0.0012850224540552901,
        -0.038405257419727556,
        0.18778863358220685,
        0.09107365006178139,
        -0.16599368023414135,
        -0.05798554826903249,
        0.10777235959065576,
        0.06640915413411455,
        -0.04782157172053553,
        0.015268499883956232,
        -0.035313306863172855,
        0.08462270376819223,
        -0.03497551628613779,
        0.2221934828495147,
        -0.0031785792771254207,
        -0.18183433098355245,
        -0.14093066137082982,
        -0.18005224759108113,
        0.1759564851939084,
        -0.17708929691670175,
        -0.016522498677502773,
        0.13792411807692537,
        0.008360648158284384,
        0.2224237016007161,
        -0.10943174654570446,
        -0.12765846561075755,
        0.17790348245172785,
        -0.04537075660910858,
        -0.12570393083705883,
        0.1139494229974338,
        -0.11808361984465747,
        0.17223359789298834,
        0.20800167300324543,
        0.17572617160770718,
        0.06440235253490947
      ],
      [
        0.08668405606659799,
        -0.2039310296387251,
        -0.02876127332079889,
        -0.12138012237435485,
        -0.06790665490515696,
        -0.01605995020570264,
        -0.12235566083055999,
        0.00029936573234687347,
        -0.21237322396216515,
        -0.06252576378928346,
        0.15014423020352577,
        -0.18858241339000303,
        -0.19485691384784776,
        0.14448792998593954,
        -0.11233232688449872,
        -0.030124366234620753,
        0.042171037537886175,
        0.12031707707733638,
        -0.13042843470460802,
        -0.1261369705501445,
        0.06490691645704819,
        0.21124536378269318,
        0.03409832583305558,
        0.009420448579587598,
        -0.0459108450518691,
        0.19330148738091554,
        0.13783940873030134,
        0.16975165068162115,
        -0.162100210972896,
        0.032156358482618136,
        0.061518493478388475,
        0.021282579412195274,
        -0.20639462110589768,
        -0.19547731314431313,
        -0.15580574062893,
        0.03534496220023389,
        0.2071162432594744,
        0.0603608828674099,
        0.136546631624293,
        0.06474746684049862,
        0.08637330808624219,
        -0.1552241316794886,
        -0.1728137356883182,
        0.04255813040108933,
        0.09424756753119842,
        0.10583861229566724,
        0.07577468386947259,
        -0.035101814328624,
        0.19749469558784274,
        0.17843347185748157,
        -0.02512607929252278,
        -0.05978893859885015,
        -0.1442434996495357,
        0.20729172659656134,
        -0.03286895194017361,
        -0.18377747721747478,
        -0.09241408530064074,
        0.047871672982393726,
        -0.1462959111668675,
        0.023905208383024984,
        -0.015874814602070464,
        0.13456992865348574,
        -0.15025700653953653,
        -0.08026988073287675,
        -0.19172610780991411,
        0.06398704108791006,
        -0.1554532234469951,
        0.17515941950300493,
        0.10941412854927926,
        -0.05501808276811593,
        -0.1730390203189911,
        -0.19431743688002628,
        0.12387905810082564,
        -0.1072660784660171,
        -0.12188436340686881,
        0.21182797824152635,
        0.06292827593790815,
        -0.19454342668143748,
        -0.1614232841781461,
        0.16011892601522995,
        -0.20736042940201482,
        -0.05230322874415744,
        0.21865378995949716,
        -0.20839786294701532,
        0.12834346226191615,
        -0.054176634292062154,
        -0.20040401490919826,
        0.22357320374932535,
        0.04607005978047948,
        0.2107733916776314,
        -0.15663896464029126,
        0.21579449591820418,
        0.08237719990375861,
        0.21641342741656008,
        0.06967035426932047,
        0.15933151978133267,
        -0.14896545517216947,
        -0.0691743722915682,
        -0.039498519395453985,
        0.10775012409749526
      ],
      [
        0.1422560452397528,
        0.13878632259747384,
        0.018146704727440843,
        0.21732110743131358,
        -0.07869241848949163,
        0.010267514608471834,
        -0.168251404215217,
        0.04087134462724054,
        0.1424287646758284,
        -0.08823333979472342,
        0.08224596948516069,
        0.05341043630234174,
        0.13402014226841216,
        -0.0005487152698260278,
        -0.1735964149714576,
        0.14869309812113066,
        -0.21932194257675025,
        -0.10749362983342393,
        0.1941123710566752,
        0.06768068752469694,
        -0.1071818608947622,
        -0.20856478396590405,
        0.2024418605054423,
        0.011959564269418826,
        0.11280911266082763,
        0.06877058136999561,
        -0.17444930852336815,
        -0.013180275216022469,
        0.19986673954414916,
        0.053552540741830884,
        0.0677417991782541,
        -0.021502859418593562,
        0.14741303212384935,
        -0.20597125917318382,
        -0.12925412078536347,
        -0.12091165346809879,
        -0.12177562180260298,
        0.1977807045140156,
        -0.20698414331489762,
        0.11753777235268778,
        0.09762323973463269,
        0.0683543269507835,
        -0.05394526722505197,
        0.06560880947425354,
        -0.1002602939724527,
        -0.14637077435159906,
        -0.04870328007850508,
        0.03543105379500003,
        0.22261131026285882,
        0.1246856890341991,
        -0.16834269201851043,
        -0.1601010747745546,
        -0.016359323494049643,
        -0.026390050842931834,
        -0.06828655784376297,
        -0.11773834741795994,
        0.1856913084174516,
        -0.10206194911969498,
        -0.06904727969944091,
        0.15436172507345827,
        -0.08507529074620424,
        -0.20606005378484607,
        -0.10073642346208891,
        0.021344861189199288,
        0.06726849220176959,
        0.014034816449735532,
        -0.12620150083797121,
        0.06366498154504771,
        0.06835839213986053,
        -0.20340491283507367,
        -0.1553027000386557,
        -0.15212389130702175,
        -0.16608037514350785,
        0.06992153276894611,
        0.0987325907182636,
        0.17877395421533668,
        0.13439889965380916,
        -0.03969150957705411,
        -0.2157705686416976,
        -0.15890767782570242,
        0.17217378506777706,
        -0.011499739039343343,
        -0.041485240550517666,
        0.1115601787833004,
        -0.08318447304775209,
        0.015570986561281086,
        0.1616459908057634,
        -0.15705821216840216,
        -0.021933536852990293,
        0.02645788156213988,
        -0.21859001230173147,
        -0.184525593344674,
        0.15740800856284556,
        -0.14168791106031425,
        -0.048220727277353326,
        -0.10105035244085075,
        0.0223081075214967,
        -0.19667891752385336,
        0.028751822070806482,
        -0.018450389181299903
      ],
      [
        -0.009839790461819292,
        -0.14504577358621867,
        -0.05996744190896891,
        0.1682990732853866,
        0.14082086479832115,
        -0.17726385853907128,
        0.21909355186506627,
        -0.06942957248303208,
        -0.07547903805867173,
        -0.020906012365065063,
        0.07485945489340148,
        -0.19114665196261457,
        -0.014828939843673672,
        -0.07959303368990284,
        0.027137291999064866,
        -0.20073013895697442,
        0.0011426104651343083,
        -0.1147633733819008,
        -0.07864813697708184,
        0.17379972529548707,
        0.10134396794193376,
        -0.0019297541784044914,
        0.17167339016320113,
        0.05861725410832716,
        0.1800180076732402,
        0.05425262981247117,
        0.14557776568753886,
        -0.0751162428853418,
        -0.006793271710834381,
        0.03573810557171023,
        0.16475286039426526,
        0.20498781380484246,
        -0.1800132355369651,
        0.16855296834263414,
        0.19944148802077769,
        -0.06760858977327983,
        0.17386222287636457,
        0.13480022063996946,
        0.1559333404965451,
        -0.16301552403656114,
        0.11614358209055761,
        0.14231140644285675,
        0.17098165246724048,
        -0.0679574010451646,
        0.19355103188301478,
        -0.034600899301082455,
        0.0006272981700478075,
        -0.11406185084459468,
        -0.023197622785685656,
        0.12419970304620845,
        -0.03639625273185537,
        -0.22279801766575744,
        0.13360957788467923,
        -0.16703691113682212,
        0.03791243898280203,
        0.16642605080632059,
        -0.005684978896819709,
        0.19836192357119345,
        0.026619976284713937,
        -0.09910742355266695,
        0.008817267420932695,
        0.08687899680252129,
        0.1999953237375133,
        -0.11485110647660657,
        0.06882818800467658,
        0.21580894797116976,
        0.2151315984673726,
        0.07131005485972516,
        0.22056616091313805,
        0.1849934039375805,
        0.15883058636664074,
        -0.10318834780195915,
        -0.2111960642064532,
        0.06948580545256353,
        -0.17842139491153386,
        0.04665235023958733,
        0.09822004173528401,
        0.13420671768786088,
        0.11366172974787916,
        0.19958361908176644,
        0.12262508633110544,
        -0.17827898283003196,
        -0.035554313212374955,
        -0.047077793758900005,
        0.15990810540525355,
        -0.12269085187377538,
        -0.024463206907490875,
        -0.12415753835288108,
        -0.14047124157676033,
        -0.0742196168015277,
        0.05825601591702659,
        -0.15701995355020623,
        -0.14269140000318575,
        -0.014326495736830896,
        -0.07249848948920781,
        -0.0241762669620067,
        0.2008164438437023,
        0.1746264251225991,
        0.01877110063419496,
        0.08947470361884377
      ],
      [
        0.13036202367267233,
        -0.01697799607846759,
        0.0811909692938382,
        0.16768993186354522,
        0.10243154863673262,
        -0.19587050763680897,
        0.04631689221698951,
        -0.013907835694900228,
        0.19625166314671358,
        0.19789794864789576,
        -0.21740425696785495,
        -0.011503466123928635,
        -0.0803103236254003,
        0.16750250384799012,
        0.04543351223494682,
        0.09234670554555133,
        -0.17870445615786004,
        0.08086048105199076,
        -0.14418810536362797,
        -0.19178673941293517,
        0.14665586307017356,
        -0.1701404962450337,
        -0.13062861917316337,
        0.1321205254905882,
        0.11457663516491415,
        0.1618933268753606,
        -0.012361098553685668,
        0.08839451354290437,
        0.2220404040157722,
        -0.07141014272399476,
        0.1116016696517396,
        -0.18218139125784755,
        0.09607744035492596,
        0.039328892030148305,
        0.05852337455092635,
        -0.19740744563729493,
        -0.18502381800403672,
        -0.19555116545963414,
        0.01872272647753548,
        0.047390825598458336,
        -0.03661706609183321,
        -0.013283207558698162,
        0.18223514085683493,
        0.08224199072335,
        0.20706992586350567,
        -0.07775882821254879,
        0.2091585503551119,
        0.01830795140718819,
        0.12558376079751124,
        0.015416774933263239,
        0.08627482233884601,
        0.0928825675011424,
        0.1947799700567673,
        -0.02636414468415335,
        -0.11350601561379939,
        0.20790161716158942,
        -0.13842420022454738,
        -0.10095416414784018,
        -0.11335819334978987,
        0.2185854916031024,
        0.07023808199400675,
        -0.04062669259868945,
        -0.1367819271432596,
        0.14351720149864913,
        -0.19380384348734261,
        0.11016969939916152,
        -0.16622941628742244,
        0.08437525606951382,
        -0.05999405149267484,
        0.19653927897208054,
        0.030088579397298337,
        -0.058708626410235526,
        0.15432475419831007,
        -0.10034675941392888,
        0.009841479458708335,
        -0.08098491848631564,
        -0.1674707750144705,
        0.19412917866911275,
        0.195645822224519,
        -0.10532812202745159,
        -0.0497662716284287,
        0.1088829103525911,
        -0.17281179038208117,
        -0.10190566973623078,
        0.1146484941937401,
        0.20702418183379442,
        0.12193220986218015,
        -0.1785006486450589,
        -0.2160635701710902,
        0.04755840836165673,
        -0.11566453406849793,
        0.15947328594728674,
        0.010823581639640673,
        -0.1088118773630412,
        0.048874772156537766,
        0.08395107652452458,
        -0.19294909272686703,
        -0.017598186591655185,
        -0.003891356208697211,
        0.0007787061210233481
      ],
      [
        -0.21495864018480684,
        -0.04598382429002276,
        0.16071504515906718,
        0.21707151892459056,
        -0.18725677950127959,
        0.049241612464031775,
        0.12121727879620856,
        -0.0288789341292017,
        -0.10135190779582882,
        0.07566643703720685,
        0.05182186151187787,
        -0.10161992794453531,
        0.21913189782310663,
        -0.05920620188023179,
        -0.1948846568640576,
        -0.1740351136483264,
        -0.02676656538081737,
        -0.1853655778632433,
        -0.11191736010927023,
        -0.03944693646326883,
        0.1124232278128878,
        -0.2147464959283696,
        -0.2191952370830083,
        0.1398985363416063,
        -0.08462715565400583,
        -0.1431886931017941,
        -0.155225603887095,
        -0.012804576579699911,
        -0.08076575695119173,
        -0.05247073427441026,
        0.12479795546179276,
        -0.20098202466306447,
        -0.013524726279210003,
        -0.1932940505161926,
        0.13838702394077038,
        0.0005812078142164723,
        -0.12510738866504467,
        -0.18638709024933345,
        -0.07072483467832491,
        -0.11356924672116188,
        -0.11161653326226809,
        0.08991290767944346,
        -0.08583851034037282,
        -0.20981571289358023,
        0.22125204173448146,
        0.11690313102946473,
        0.1719562416652413,
        -0.11820108571771809,
        -0.08875107237297525,
        0.09817058328779707,
        -0.17457004560920275,
        0.10651594063248879,
        -0.0004016431490565242,
        -0.16320867611654366,
        -0.13163288352254168,
        0.031062254498310654,
        0.1294012288876997,
        0.11169360248118645,
        0.05802182276788179,
        -0.06942020823577766,
        0.2094579621562416,
        -0.1397474025081275,
        0.2033986790008763,
        -0.0371821314585731,
        -0.16556456432976732,
        -0.19997515611198008,
        0.025489666617106055,
        -0.030843756997646854,
        -0.20996227460984726,
        -0.07550610678925992,
        -0.18421118256627833,
        0.08688343474925378,
        0.024812642101963683,
        0.17869879563327692,
        0.13146701717574996,
        0.043501179914200966,
        0.087225925475821,
        -0.05886767019859693,
        0.17655783594477428,
        -0.09066483008616566,
        -0.16980150664922766,
        -0.222989645119182,
        -0.14884778569329998,
        0.06189413157802473,
        0.07152165422650383,
        0.21111746828777425,
        0.034739563797727774,
        -0.00010866049054988891,
        -0.08523341026632425,
        -0.14687488706790897,
        0.09390471541416276,
        0.05793037805329773,
        -0.11428304606178943,
        0.07118627040403833,
        -0.22342270177302762,
        -0.07619522999999256,
        -0.1495294409603178,
        -0.20556046632553332,
        0.12184965858302102,
        -0.009835101489176018
      ],
      [
        0.007265802180261571,
        -0.07494361048225903,
        -0.19514206380387675,
        0.0175703810840232,
        0.015642410624980785,
        0.15357950338632606,
        0.05297370205738369,
        0.18229263853332087,
        -0.1715336947013853,
        -0.1205827359205852,
        -0.0787543460068269,
        0.06607163091015708,
        -0.009017321051651483,
        -0.10115235134772743,
        -0.04584915312327739,
        0.07719388295339649,
        -0.01871175319511148,
        -0.13059335242085857,
        -0.1307386508350748,
        0.11930316700436763,
        -0.17300688990707175,
        -0.04055129717634792,
        0.0010913348045172022,
        -0.06808833973389788,
        0.15141070878464133,
        -0.06602229175281316,
        -0.03648802148860092,
        -0.20170655718435698,
        0.21165679885595032,
        0.010835174655293794,
        -0.15272284737320074,
        -0.20579396314726756,
        -0.08963850106078206,
        -0.16763623847221096,
        -0.0650526228678256,
        -0.0472787000080192,
        -0.13984647878474382,
        0.2143994341130738,
        0.20461617225317116,
        0.21013684015232095,
        -0.1869555966315148,
        0.03551828244972763,
        0.05088390613289093,
        0.11327432975405491,
        -0.14305695987321432,
        -0.15659667446531095,
        0.11258589938770872,
        -0.051809678457347325,
        -0.06451697452432176,
        0.1616637525696408,
        -0.17300998549170332,
        0.22105704644479654,
        0.15945518381037485,
        0.003335019180508103,
        0.08367017386654055,
        -0.038750612245426974,
        0.025059573819739223,
        -0.21680661654482716,
        -0.2138465712408801,
        0.06856141330861446,
        0.1688574224456015,
        -0.12519255042596605,
        0.16553684036174307,
        0.02593789154491241,
        0.17486186655022437,
        0.06129281981375842,
        0.041295804984170265,
        0.09251327939864087,
        0.06425712919831825,
        -0.0007467960694028108,
        -0.20129473612582238,
        0.1783994841967745,
        0.11334870386209808,
        -0.018555441215790114,
        0.16544282551971776,
        -0.09388406256056608,
        0.06020269253735064,
        0.16066527783259502,
        0.1505027885587276,
        -0.09341090226502852,
        -0.033311684332394176,
        -0.022692230708090982,
        -0.013693123044548672,
        0.038513715218360695,
        0.019429311511720282,
        -0.07000476528405714,
        -0.06643366423224165,
        -0.13924348384585472,
        -0.18155954468658403,
        0.06495712061028305,
        0.07038011925868412,
        -0.19502349802505434,
        -0.047173586682656615,
        0.10750687079762403,
        -0.0649711768918998,
        -0.08916372187036373,
        -0.08255357347585404,
        0.1744632222389715,
        -0.1112954566596309,
        0.195046042325748
      ],
      [
        -0.011105923654963018,
        0.06391696617330803,
        0.13989664415805833,
        -0.21280396298630613,
        0.1415363134509918,
        -0.20179918304231595,
        0.1983500369085254,
        0.02991821211406595,
        0.08948716608838728,
        -0.2049209203311414,
        0.13275290575539003,
        -0.06241224230375694,
        -0.1372431774558799,
        -0.15348686219322144,
        0.21519247802496036,
        0.17545036511146603,
        -0.06199999758209193,
        0.13198357340234732,
        -0.21524299384614035,
        -0.10495685226825363,
        0.05726509948614547,
        -0.014858253767144558,
        0.11409707620328044,
        -0.1789676546680139,
        0.031664158068670706,
        0.011428817159038235,
        0.09500596683185367,
        0.12262848772175647,
        -0.15439489157207914,
        -0.12262660061150706,
        0.22127405797523161,
        0.13977582160713162,
        -0.10587707120061231,
        -0.14746186723259497,
        -0.20033683904870095,
        0.20827679281911762,
        0.02905350836952561,
        -0.1901537126916549,
        -0.13429108530820716,
        -0.14282723173854503,
        0.01145347311319353,
        0.09239834803763827,
        0.010137964232486973,
        0.029159261249095375,
        0.14060154373801811,
        0.0006212893511065298,
        0.002792831516162525,
        -0.016751879078447607,
        -0.17369969154104992,
        -0.10784930038163841,
        -0.06900912676439402,
        0.17229115108822643,
        -0.12803302525666427,
        -0.16848561917657756,
        0.11701016984432569,
        0.002415510794190723,
        0.12802042488361057,
        -0.048150833600869886,
        0.08296382078060324,
        0.11387065092912271,
        0.16885617155415597,
        -0.19836542958698464,
        -0.09682802833513146,
        -0.06451743679313154,
        0.21386402599163065,
        0.1465283819786641,
        -0.22008046468543505,
        -0.18929642730407312,
        -0.06560314670644335,
        0.1336526896981692,
        0.02963020283124093,
        -0.19655772684771228,
        0.14232414907724403,
        0.03377018886655206,
        -0.043576299662127393,
        -0.20990846141587247,
        -0.14577750122640706,
        0.21858792789721518,
        -0.1706077693731019,
        0.2184537203177991,
        0.15383405972525785,
        0.04593784328425535,
        0.09242812255084612,
        -0.16097604583266473,
        -0.04437543716121217,
        0.18691485687998957,
        0.011531257966849562,
        -0.0924128326310453,
        0.09278690415736832,
        -0.0839830851245714,
        0.045306671938521864,
        -0.15850120322753,
        -0.03386507968042421,
        -0.12036598665958465,
        0.03365045704603989,
        -0.0979799142349633,
        0.14390562130361315,
        -0.18561434673545002,
        -0.018982779968509444,
        0.04769072600462701
      ],
      [
        0.07766026970092407,
        -0.023479012074098943,
        -0.04872634604642326,
        -0.02845332296943931,
        0.059874496627139145,
        0.14400810550355234,
        -0.1739146459955821,
        -0.1434414546039377,
        0.19564501171526585,
        -0.0849160668368992,
        -0.04503721012982789,
        -0.07308067939539062,
        -0.06567572032531904,
        -0.10269299326213892,
        0.047709432550059355,
        0.20654630871590077,
        0.21280497630931913,
        0.11636170876030946,
        -0.15562970391063222,
        0.1841018145606392,
        0.16065695298124036,
        0.07333114240916541,
        0.09141359695651566,
        0.1382637097497705,
        -0.01806047389134735,
        -0.05436089540398656,
        -0.19051564176310454,
        0.1538886591503892,
        0.025634369645339383,
        -0.04865722661192459,
        0.05863546298426739,
        -0.10829929358908423,
        -0.2009461943855444,
        0.1930943243757793,
        0.13967249713162447,
        -0.12865649826648,
        -0.14717697985841177,
        0.19809380130599505,
        -0.05245998004168387,
        -0.14482167408498414,
        0.18218737488781442,
        0.1733737319660348,
        -0.09962600416231535,
        -0.18600432526626598,
        0.140082604554332,
        -0.022297304749908792,
        -0.17689160235243997,
        -0.08228630706634846,
        -0.004895888702914658,
        0.09250886375776177,
        -0.06931227314209232,
        -0.014717037555860735,
        0.08563792105710719,
        0.20655720281486847,
        0.06451737770525404,
        -0.11441414054938785,
        -0.17681928420420723,
        0.09666481670117075,
        -0.20213984554861264,
        0.20824681897458727,
        0.05934589315789093,
        0.0745137130964568,
        0.06733880494996677,
        0.006327459659757895,
        0.11030248343687163,
        -0.11551150153818275,
        -0.11132005993488354,
        -0.17246090570990213,
        0.04276367976571813,
        -0.19383974880981553,
        -0.11344186753889421,
        -0.12202328797302273,
        0.0003858031679014884,
        0.015123823127507041,
        -0.006590326535533708,
        0.16577840243415456,
        -0.06927385413297588,
        -0.09508129069925689,
        0.09047078880692658,
        0.09955048717193551,
        -0.004842052507964045,
        0.047925616739522864,
        0.20381444453432931,
        -0.017826842509010177,
        -0.016996036089154565,
        0.19776346893924648,
        0.15465662869443572,
        -0.05306459721921125,
        0.09346565698278861,
        -0.15627399818579746,
        -0.15486568301195133,
        0.011681074943585862,
        0.01366371609262168,
        -0.0038299631867807493,
        0.03824571305015553,
        0.22043494627625135,
        -0.11784306057414125,
        0.0856174611696289,
        0.18297291904008348,
        0.11976955324035607
      ],
      [
        0.0907480850681053,
        -0.12186286537391028,
        -0.1641516210525452,
        0.16455907307565268,
        0.1273805116429517,
        -0.10155666295357775,
        -0.11020993987403437,
        0.07322251810617345,
        0.022471354957942086,
        -0.16247273856291933,
        0.004731959021415988,
        -0.0830310272107708,
        0.09800682157513516,
        0.09954402090112999,
        0.04155727165212411,
        -0.20773656577417315,
        -0.12843468157197274,
        -0.008313507689739374,
        -0.20827607243079005,
        0.04218868729746142,
        -0.00975517014205951,
        0.07384905651876897,
        -0.01620229982266111,
        -0.18207628494298755,
        0.1264126933638097,
        -0.13164110296141235,
        -0.028265401258868117,
        -0.10316005075234388,
        0.19284644230700912,
        -0.16658917446517346,
        -0.07577212400326325,
        -0.14354484848273946,
        -0.20393263126901826,
        0.07037707150591085,
        0.05278588454182073,
        -0.1465465793673491,
        0.16637260561244024,
        -0.21348153332073722,
        -0.13257078184443366,
        -0.01958478265703195,
        -0.16654448828207102,
        -0.06786431326805567,
        -0.041974663800960654,
        0.0031606432723899347,
        0.0030884767299817206,
        -0.14388745538896502,
        0.18524320967795235,
        -0.18389550683486497,
        -0.013535928473273562,
        0.06697401712424314,
        -0.09962937866390664,
        -0.16783786368481093,
        0.19721408753442085,
        -0.10699346634943652,
        0.044288833615528905,
        0.11979699328532875,
        -0.1457122769857533,
        -0.09739811281807975,
        0.08416744755514036,
        -0.004299458381747695,
        -0.13887875944534853,
        0.12987003243038506,
        -0.15134597539940609,
        -0.17479422855556065,
        0.15786902054441085,
        -0.01925651502654724,
        -0.05414129534860024,
        -0.20865400834863895,
        -0.13568724937567686,
        -0.19745107100535353,
        -0.1420337137706838,
        -0.09681532051124464,
        0.025625439964880842,
        -0.05730259859845166,
        0.21245394508078372,
        0.19054897496501302,
        -0.11878250560837476,
        0.10020367912299347,
        0.11756089417067309,
        -0.05878767776253396,
        0.19704992513921402,
        -0.14870155733354856,
        0.12170362520783037,
        0.16685812824380866,
        0.17660374825944844,
        -0.105302878520183,
        0.030480451351126286,
        -0.20263453419711006,
        0.18693670470177284,
        0.06988166036686297,
        -0.10316385493333839,
        0.17238885825051456,
        0.04438417260904712,
        -0.012254712087949815,
        0.09613908500789639,
        0.012080284436086247,
        0.022856517134828697,
        0.21144140379330198,
        -0.08610105012661817,
        0.043651231583270916
      ],
      [
        -0.02454974664721199,
        0.1151557440099478,
        0.15290030423824472,
        0.0860063287777155,
        -0.1504202932505817,
        -0.1466628339012838,
        0.04339686802074996,
        0.08044476583969143,
        0.14332640599144333,
        -0.17642941795420053,
        0.09508362426187975,
        -0.014576291391288493,
        0.1688086392349444,
        0.05370982589418363,
        0.06261345634401219,
        -0.14940988593438564,
        -0.06508225943689327,
        0.11896296655111913,
        0.1711418858978664,
        0.12130519201972942,
        -0.07978108725377078,
        0.12237930979030706,
        -0.10885010987888494,
        0.10538148015804619,
        -0.17105945984177096,
        -0.08555335463415695,
        -0.14757492460690919,
        -0.0031865274996194515,
        0.024192924280790173,
        0.0016520559011327096,
        0.16096337250410622,
        -0.03660833219831794,
        0.11304969157011127,
        0.140440881960583,
        -0.06949194602730982,
        -0.21434128208986544,
        0.06546098031750694,
        -0.006498552463451601,
        -0.21336072619445004,
        -0.05732335577145317,
        0.04452002351126219,
        0.014743100255911662,
        -0.023417776177772798,
        0.04750157719085166,
        -0.07562776371789481,
        -0.17636904966692168,
        0.19488194634985848,
        0.00969169151788743,
        -0.027982566577349904,
        -0.1436912444283459,
        0.08293750239564177,
        0.04198568978221959,
        -0.10694277237916605,
        0.06923336370023023,
        0.006990775665661891,
        0.20639036526763851,
        0.1543663027491365,
        0.10035699375460214,
        -0.0382582649371582,
        0.02115216295979308,
        -0.17438480200604944,
        0.18642946281218806,
        -0.0020919301380464272,
        -0.07571664366345757,
        -0.18802879782433268,
        -0.037167901890472144,
        0.19481779336943314,
        0.21063957895606308,
        -0.0108727127163179,
        0.10842602224094025,
        0.07328670530523565,
        0.0028361181748181308,
        0.1957895870282492,
        -0.14445497875055607,
        -0.0036913740436107234,
        0.051603216462583784,
        -0.1476950891979254,
        0.03144289605906933,
        -0.21222637465222985,
        -0.1796610369736063,
        0.17065968045373145,
        -0.12628777854706846,
        -0.12742870668658368,
        0.18297862968918818,
        0.17216967758495708,
        -0.18709890266803889,
        0.11370593372994695,
        -0.21712151660337445,
        -0.14396315447481078,
        -0.19801759836176328,
        0.043820606146582036,
        0.05179732632073816,
        -0.08591949826177975,
        -0.08209176839562626,
        -0.1928209741056014,
        -0.2209722630578395,
        0.10931768070903794,
        -0.07560283692273775,
        -0.02986818512469816,
        0.1767640243725209
      ],
      [
        0.11889370342230529,
        0.026651860280112044,
        -0.17206048305631963,
        -0.07626504478656293,
        -0.19994241152858194,
        -0.15161181878175328,
        0.21916947121641403,
        0.19299236035220166,
        -0.031248721169313015,
        -0.09434858018724793,
        -0.09196113643612791,
        0.13384424207813858,
        -0.04033000114905494,
        -0.21898585783853874,
        -0.008473815956024588,
        0.061210141937392354,
        0.1994439097638663,
        -0.11244759305989109,
        -0.1401832563030787,
        0.21604926035532998,
        0.20682527187875807,
        0.13986572485948787,
        0.0526597627155099,
        0.02555431348147022,
        -0.0674572849549046,
        0.2109195689011604,
        0.0242599865118589,
        0.11790629760102786,
        -0.1806156284393448,
        0.012678080811244885,
        -0.14755131194836152,
        -0.22296763130020955,
        -0.1268240203646589,
        0.027012178059430986,
        0.16421409882737656,
        0.01510327331912567,
        -0.013962385421298518,
        -0.15770723349239726,
        -0.199534473045154,
        0.15988909799640208,
        0.0761999206885354,
        -0.14817313952350242,
        0.0023224763855497765,
        -0.08487281682424538,
        -0.1514318538269419,
        -0.07316282170964855,
        -0.06063006371864463,
        0.20241182855487047,
        -0.21505444774766386,
        -0.07026214917778784,
        0.20848876783596756,
        0.18974389849119086,
        0.07360405590059202,
        -0.17653049086459177,
        -0.2186101820135521,
        -0.1194654512782861,
        -0.06184652458289808,
        0.21333764977688877,
        -0.06910573837749134,
        -0.06536634184736659,
        -0.1594180268527794,
        -0.08031170104571161,
        -0.17026109277338422,
        0.19939812584661074,
        -0.2038768971933478,
        -0.04498810423713301,
        -0.22050787752054893,
        -0.14641663780552583,
        -0.04527386944758291,
        0.07131346523032064,
        0.16137514128894045,
        0.16132480632150512,
        -0.07065602642716823,
        0.07230079652170804,
        0.10062448459105192,
        -0.10568749099697534,
        0.08432803020375093,
        -0.06691306290035562,
        -0.07798256178211627,
        0.13113172025681588,
        0.024947084714115914,
        0.21946991824883857,
        0.2153825240538164,
        0.21649260353888658,
        0.15322524812118496,
        -0.20649459170949144,
        -0.018707946992577246,
        -0.13933481355112137,
        0.17540942605181117,
        0.014976733709558987,
        0.06388131009838163,
        0.0908974762820601,
        -0.052419541695836624,
        0.15072415792779972,
        -0.1959597999690065,
        -0.08211082146416263,
        -0.13634760847420324,
        -0.0481661784612529,
        0.02864171424309106,
        -0.12098277494316344
      ],
      [
        -0.1670132870149172,
        0.03884351321150417,
        0.15267651364688703,
        0.170312357685697,
        0.07833653087868872,
        -0.00039574756654134347,
        -0.0947229577592176,
        0.21094268539819686,
        -0.09586956387283363,
        0.18206530139389074,
        -0.16776091930618448,
        0.07935014398365928,
        0.042267838432205634,
        0.06120659024620659,
        -0.16113485511518058,
        -0.001770201381986608,
        0.20859112043144476,
        0.023191638371493406,
        -0.14108166550827766,
        -0.05856899077259148,
        0.13553011470009138,
        0.22291780911352924,
        -0.08553276139626517,
        -0.056563933722086096,
        -0.15683651855391506,
        0.0691065965836721,
        -0.027409707123264127,
        0.10446649493300161,
        -0.05343990740521104,
        -0.023362266754839905,
        -0.015652371183630664,
        0.03906185137541665,
        0.0005422074074433181,
        0.13319025280764454,
        -0.1698981178040312,
        -0.1680741408472686,
        0.013658200127519199,
        0.07761918732706855,
        -0.14078993181065996,
        0.00650853465427137,
        0.01600405508498648,
        0.1148727081194372,
        -0.05449759040054078,
        0.21768370900492914,
        0.17150705237404731,
        -0.09730644122389698,
        -0.07973364459174664,
        -0.1326322848496466,
        -0.13776601777606723,
        -0.04847126827260895,
        -0.08523032685018392,
        0.1529735363572858,
        -0.15616982587765138,
        0.08999198407867645,
        0.1441076495217067,
        -0.21262044068849828,
        -0.21937118474258685,
        0.16914635702193218,
        0.04064244182934132,
        -0.028037168182109412,
        -0.10787582260795675,
        -0.06280134305509946,
        -0.10380894527652514,
        -0.04527449133783737,
        0.08855706803409588,
        -0.1044368776223945,
        0.17394557958962312,
        0.06326850352319283,
        0.013528719374671122,
        -0.15877843228272887,
        0.07560369086736493,
        -0.019523207021378497,
        0.14910165997362654,
        0.16313262442354678,
        0.20784271544802338,
        0.21857886264116447,
        0.20444195971874277,
        -0.16879133513018918,
        -0.1468151131932178,
        -0.07442459813918367,
        0.019368130341099465,
        0.020498982411308736,
        -0.038348934670876106,
        0.1952919540765162,
        -0.20717771875772817,
        -0.002887714530975194,
        -0.018993634071099164,
        -0.22002869456646276,
        0.2058160280191286,
        -0.2215285748950275,
        0.17967398215956623,
        -0.03451905739406658,
        -0.18478075747003922,
        -0.17460827537527945,
        -0.09983895644728821,
        -0.031158589377001472,
        0.0061017920291862315,
        0.174339061392797,
        -0.05781044015611961,
        -0.21087221733090916
      ],
      [
        -0.2129502744973842,
        -0.11056945978422078,
        0.07708671187971536,
        0.17357331403266343,
        0.009058796789967849,
        0.14971629953810525,
        -0.18214246957639726,
        0.22121645513729735,
        0.12138143284662214,
        -0.1750182200644558,
        0.07846696561830815,
        -0.053023035887992176,
        0.07818203509829078,
        -0.1381260808302897,
        -0.15382412592707917,
        0.025414757486144385,
        0.05944019898042027,
        0.10824116304420586,
        0.17007563360897673,
        0.17275265417564614,
        0.07692238194153608,
        -0.06985565495790863,
        0.0401409442901324,
        0.09096373388950643,
        0.04531541278951054,
        -0.19417422476716928,
        -0.045357526098609185,
        -0.03609414085663851,
        0.08090366960253073,
        -0.031955653195571615,
        -0.12869492861305737,
        -0.08919417375180502,
        -0.21084371076682434,
        0.08436693805048598,
        0.11289534869233145,
        -0.12652750282114178,
        0.006458538700444022,
        -0.007399982156424123,
        0.12936948370321058,
        0.05425098276205523,
        -0.1558064279439222,
        -0.17310944436636977,
        0.06665882673961152,
        -0.13219150195273205,
        0.13295106660934744,
        -0.15900684719344407,
        0.09079085178723381,
        -0.18361889100692114,
        -0.12667022647792686,
        -0.17144781100859213,
        0.19647508164326524,
        -0.07533008884353057,
        -0.21798315460643125,
        0.14001520071700255,
        -0.12527470217788225,
        0.03429861601452258,
        -0.019477547229123926,
        0.07890732684347615,
        -0.20549278652735542,
        0.014362693674704774,
        0.0449285232314324,
        -0.10017747495772075,
        0.10607964497405051,
        -0.2175136599862842,
        0.04451232410870373,
        -0.2006264694018103,
        0.14082250311245112,
        -0.03718726353911517,
        0.16409489459911744,
        0.1537337044874286,
        0.07812915220483044,
        0.188355384616592,
        -0.11349914131498201,
        0.01468620837543988,
        0.09378368778565419,
        -0.20435832361681922,
        -0.04754659587214072,
        0.18982849718762582,
        0.2094701161458287,
        -0.023390126917593068,
        -0.14381619411727728,
        0.11018070531939786,
        0.19033936660680803,
        -0.09731501651310354,
        0.21766857621425115,
        0.11398728250632342,
        -0.2040166273729524,
        -0.21309456083887868,
        0.001598352751317006,
        -0.005629250984700629,
        0.14044929101946904,
        -0.06411763956855529,
        -0.04661633739828158,
        -0.08757291548651988,
        0.19505990783884522,
        -0.0174879843304519,
        -0.12126556769915452,
        0.021382757690088572,
        0.1475017342431084,
        -0.17699029002302463
      ],
      [
        -0.05078584431605984,
        -0.10675672534919109,
        0.21779218410844,
        0.1256623358829034,
        0.0878344068485741,
        -0.02024258474713128,
        -0.08472416306251948,
        -0.22179715520457538,
        0.08437291363212016,
        0.02962073769449161,
        -0.10529677481307924,
        -0.014351340387255329,
        0.10549807805696246,
        0.09591446698280989,
        -0.13750735825623528,
        0.22058293521291775,
        0.21341169698264142,
        -0.15065110347830912,
        0.034814360026649366,
        -0.004308958912530386,
        0.07811994502704026,
        0.023847047122857012,
        0.031604497754943034,
        0.11780091778909893,
        -0.02126980657707994,
        0.19396178765602076,
        -0.07273051466797786,
        0.16147504261297055,
        -0.03160644693239098,
        0.004675379861032253,
        -0.15163795877057692,
        0.08995098055183551,
        -0.18113767914014384,
        0.12168723776534848,
        -0.1904227380602993,
        0.15160204648081335,
        0.051233764456992986,
        0.12919213028570922,
        -0.12405977738415991,
        -0.11439492544386529,
        -0.1945086470666548,
        -0.11504168770020463,
        -0.19714250532079902,
        -0.2202979425672521,
        0.07792664372160338,
        -0.0736392976163627,
        0.11289814547147045,
        -0.05735003788106269,
        0.17112516307339218,
        0.03598866335404052,
        0.07372296180230617,
        -0.1993114695745413,
        0.1206793209567554,
        0.08110804551498166,
        -0.1841439243177939,
        0.12317100173320436,
        -0.1548736020185832,
        -0.09458285069556446,
        -0.19145509213054068,
        0.16622565489532434,
        -0.12261617452103038,
        -0.10688711044783135,
        0.0077350340005589435,
        -0.0432146875206266,
        0.013122243502787123,
        -0.05909978739101643,
        -0.07340858591978414,
        -0.17704607426888702,
        0.21605630403584372,
        -0.19967905804120772,
        -0.06687937695563848,
        -0.023194619005391298,
        -0.11539579088870333,
        -0.056900017627386446,
        -0.04488994706704075,
        -0.07782075285551657,
        0.06303721269456589,
        -0.018571813603428466,
        -0.1385647483756614,
        0.06568092534342232,
        0.06763592539170774,
        0.08663842308678851,
        0.15835822960686205,
        0.07826709263454992,
        -0.09175947277316282,
        -0.17510417147923207,
        -0.04510766005861988,
        0.16522585565726125,
        0.04410135954069336,
        -0.08996027297055456,
        -0.10265348935730331,
        -0.1759832003825439,
        0.023832467822269637,
        -0.07811363915347563,
        0.14020317903473303,
        0.11325989560382935,
        0.033323360231229365,
        0.16882527641543368,
        0.08860775972683052,
        -0.02783220545756604
      ],
      [
        -0.14911579099572278,
        -0.026538835031032743,
        -0.016909371971680076,
        -0.12248341213266037,
        0.08747754752955841,
        -0.11245392279209682,
        0.1975654615376705,
        0.11304420487119285,
        0.1796149167830778,
        -0.13827461825131035,
        -0.014820174942434872,
        0.134434053985473,
        -0.06829827762950194,
        -0.07905212803610115,
        -0.07440501137258634,
        0.07237914034191908,
        0.08633045778629636,
        -0.0436973225870225,
        0.03789888458634963,
        -0.03919281331382582,
        0.07071785814105461,
        0.19853042280327146,
        0.175684323281221,
        0.0007624442309497603,
        -0.15598861494812824,
        0.17173171360385495,
        -0.02354517412382831,
        0.1343251769206862,
        0.08426540920976908,
        0.006958596389177424,
        -0.14200393397794459,
        0.15780044143610636,
        0.1610532694383164,
        0.04246355564894835,
        -0.07580197775421885,
        -0.0673049314755177,
        0.22019243113879147,
        0.18653029939141466,
        -0.20143299333791606,
        0.0022223018937567174,
        -0.011556465558649365,
        0.041903631360640875,
        -0.20126739596388957,
        0.20300267838133898,
        0.06744412625418736,
        0.1306996395104397,
        -0.02661665187441767,
        0.15463126666624002,
        0.023040645913457086,
        -0.013163012569753357,
        -0.01844426449855785,
        -0.05076484715953952,
        -0.11884149855674277,
        0.005548523744073136,
        0.006668120298778085,
        0.1525409116586878,
        -0.14668834330596653,
        -0.19716967417846287,
        -0.12314588053804604,
        -0.06925298402808225,
        -0.005981943517073818,
        -0.20713179216628305,
        -0.05476251152904485,
        -0.16953690712410693,
        -0.09235909397856806,
        0.09617044847512382,
        -0.0014559637895492084,
        -0.12942563119028333,
        0.2206722054073029,
        0.027822649292465224,
        -0.20106372062188912,
        -0.04238184994980204,
        0.015417870363618108,
        -0.16626026101919128,
        -0.20600785487412682,
        0.08474078690573081,
        0.1191071281816252,
        -0.18286527007286732,
        0.11359010834634173,
        -0.12634395409382393,
        -0.148088458657623,
        -0.1019599196925242,
        -0.11265363601259695,
        -0.18710118452154662,
        -0.13670325853700502,
        0.20546783579452502,
        -0.1522650551745165,
        0.06512985055667445,
        0.1433931829659094,
        -0.09597936359353301,
        -0.20962865003220488,
        -0.1273655862261759,
        -0.16783531693406717,
        0.05056703194737747,
        -0.152694375134921,
        0.07036323439818368,
        0.07539043781032809,
        0.17240952746552332,
        -0.1410395877415648,
        0.1504568625934258
      ],
      [
        -0.10144732929288636,
        -0.1870780966114748,
        0.17163462215119843,
        -0.09340518962276315,
        -0.05839913661738111,
        0.10209090813800012,
        0.15820019662838972,
        -0.02594744322810602,
        -0.01636758372541977,
        0.19380048591495894,
        -0.11459288079003256,
        -0.12605355851592756,
        -0.10923402831380638,
        0.20439680063386426,
        -0.1258474651180761,
        -0.02021698306896824,
        0.0807100985332436,
        0.1109599964418028,
        -0.04486533593287234,
        0.027601467270870622,
        -0.1568700164344984,
        -0.10709788749448027,
        0.009939230490910056,
        -0.0036905718617354644,
        -0.09303501532980651,
        -0.12721409970655673,
        -0.08393449579191967,
        -0.14756712944111477,
        0.07013687554005574,
        -0.15810260271901466,
        0.030116378562936447,
        0.06425595427696887,
        0.05722251575788087,
        0.007453555448886817,
        0.04790901636940839,
        -0.06215686155949779,
        0.03528199961949888,
        -0.1478553166040689,
        -0.18396519665066596,
        -0.09206086684457432,
        0.05706217401565969,
        -0.15100925609101262,
        0.13371183728772743,
        0.188026914434661,
        -0.0014321745418608423,
        -0.18296473629691576,
        0.0022741031928067423,
        0.21498242020729233,
        -0.07300742720125886,
        0.04836828350255326,
        -0.20285273011092922,
        -0.1387524013773757,
        -0.1737812893900001,
        0.1425396105350805,
        0.050587979720033344,
        -0.07172476325539565,
        -0.2135246001366663,
        -0.009888793599890006,
        -0.011546923524930253,
        -0.06619230626242142,
        -0.0007834452774177492,
        -0.200801943825116,
        -0.05429343080885218,
        0.13684553106664224,
        -0.1385975670203295,
        -0.21606365631215113,
        -0.16146827447194007,
        0.07575659813883498,
        -0.095824190119284,
        0.18042237905817313,
        -0.04989700347105622,
        0.07538821063405013,
        0.120775649254074,
        0.12827894256146175,
        -0.11412070682276657,
        0.1751219613783175,
        -0.12969118535829116,
        0.015054452913068422,
        0.08569453408139235,
        0.1821727593186068,
        0.0006823022696366421,
        -0.062288038057476486,
        -0.04049603278146713,
        -0.013477195454965507,
        -0.1257641306605936,
        -0.12445620860061657,
        0.18611743722932558,
        -0.22196496136475466,
        -0.11705984213359787,
        -0.007842573040445666,
        0.06993994576103954,
        -0.027330192613345544,
        0.18514858895366063,
        0.073744341010929,
        -0.14096524116803397,
        0.05435417309546145,
        -0.06549128333194457,
        -0.18855696885861906,
        -0.1952232129045173,
        -0.11417750369853946
      ]
    ]
  }
}