{
  "num_class": 10,
  "num_hidden": 100,
  "num_visible": 20,
  "params": {
    "bias_b": [
      0.0,
      0.0,
      0.0,
      0.0,
      0.0,
      0.0,
      0.0,
      0.0,
      0.0,
      0.0
    ],
    "bias_c": [
      0.0,
      0.0,
      0.0,
      0.0,
      0.0,
      0.0,
      0.0,
      0.0,
      0.0,
      0.0,
      0.0,
      0.0,
      0.0,
      0.0,
      0.0,
      0.0,
      0.0,
      0.0,
      0.0,
      0.0,
      0.0,
      0.0,
      0.0,
      0.0,
      0.0,
      0.0,
      0.0,
      0.0,
      0.0,
      0.0,
      0.0,
      0.0,
      0.0,
      0.0,
      0.0,
      0.0,
      0.0,
      0.0,
      0.0,
      0.0,
      0.0,
      0.0,
      0.0,
      0.0,
      0.0,
      0.0,
      0.0,
      0.0,
      0.0,
      0.0,
      0.0,
      0.0,
      0.0,
      0.0,
      0.0,
      0.0,
      0.0,
      0.0,
      0.0,
      0.0,
      0.0,
      0.0,
      0.0,
      0.0,
      0.0,
      0.0,
      0.0,
      0.0,
      0.0,
      0.0,
      0.0,
      0.0,
      0.0,
      0.0,
      0.0,
      0.0,
      0.0,
      0.0,
      0.0,
      0.0,
      0.0,
      0.0,
      0.0,
      0.0,
      0.0,
      0.0,
      0.0,
      0.0,
      0.0,
      0.0,
      0.0,
      0.0,
      0.0,
      0.0,
      0.0,
      0.0,
      0.0,
      0.0,
      0.0,
      0.0
    ],
    "weight_w": [
      [
        0.19854301023502496,
        -0.2275627711263225,
        0.22137046675995226,
        0.08374530876231512,
        0.10781383135177414,
        -0.07770447866393015,
        -0.11655748222140751,
        -0.09749323016272943,
        0.13287056340241193,
        0.07636310612521985,
        -0.15742400149339067,
        -0.033464999326861894,
        0.08484421060047415,
        -0.0663289543580119,
        0.21366470154171535,
        -0.0620218130924165,
        0.10271520733173306,
        -0.1314745899370804,
        -0.09362309243798464,
        -0.22075941977365934,
        -0.07037663287091972,
        0.10834646278186205,
        -0.001804716212600893,
        -0.16403168388066758,
        -0.13126909420993305,
        -0.005048284452357388,
        0.2118391271087346,
        -0.058197650766753484,
        -0.21720805893988027,
        0.06753841723491472,
        -0.0047943990321081265,
        -0.041272762685052145,
        0.07274711667580275,
        0.18005427735687868,
        0.20428976726172576,
        0.11319014377199371,
        0.08436398101502102,
        -0.09604767610108061,
        -0.16210807215702705,
        -0.15469507461895926,
        -0.1477086455949271,
        -0.21227687515003696,
        0.08783726810953729,
        0.0556376615473444,
        0.08987635849690118,
        0.013696796548275159,
        0.13300335115383077,
        0.006654388353817126,
        -0.06746289501429892,
        -0.22193601079640216,
        -0.09138015575901923,
        -0.19711011438732573,
        -0.06240214311055284,
        -0.057587620882585844,
        -0.1029755357372697,
        0.08337271422845349,
        -0.0661522421487643,
        0.16933879659430573,
        0.22652274417973473,
        -0.20159768321164992,
        -0.17210104706833168,
        0.01889970376759731,
        -0.14703445711352378,
        0.1698489340437832,
        0.17147304666083507,
        0.1443455849723696,
        0.10355664101501927,
        -0.13065860303583904,
        0.021138817500718055,
        0.16665930189233813,
        -0.041082109443316944,
        0.03465924414891447,
        -0.11356610822184299,
        0.0012693284086846002,
        0.19537696869586846,
        -0.048647403087882235,
        -0.03486976045155313,
        0.08495346086168143,
        0.0767270130779617,
        0.055644867154878874,
        0.019703351127824342,
        -0.10563249151475759,
        -0.2049663507497722,
        0.09604010854403289,
        -0.126800618925155,
        0.13201876356991488,
        0.05262385591443358,
        0.15689245643567412,
        -0.205241876434872,
        -0.14448386464593288,
        0.016028164522683408,
        -0.023645260346668973,
        0.032093704464439266,
        0.19428895523810918,
        -0.012023925579007111,
        0.16326943791613435,
        -0.03251894910268782,
        -0.04159784546155035,
        0.14250309020446583,
        0.027934085152710952
      ],
      [
        0.04368452526362926,
        -0.10909822248357635,
        0.09580723576308264,
        0.1892016318599321,
        -0.11411588781000918,
        -0.22272000739065145,
        0.19043251564841734,
        0.09600276929373369,
        0.10267965635974513,
        -0.19891288177002783,
        0.05669580093363208,
        0.07982579251826438,
        -0.0218400728805751,
        -0.0965475915013696,
        -0.09341181190576828,
        -0.07517448644322278,
        -0.18642229095147994,
        0.02181096875952987,
        0.11112378710842236,
        0.21756437897773306,
        0.20909394804270437,
        -0.06001696220280045,
        -0.09184186641781816,
        0.017486790508378536,
        0.13578474006238517,
        -0.09955041354412128,
        0.16224000479067596,
        0.09088364428207935,
        -0.12394095001088008,
        0.04733418811446388,
        0.16041857218250555,
        -0.08949496577041496,
        0.05370990013627336,
        0.12981795346907132,
        -0.17529966917494413,
        -0.17721212475726353,
        -0.21123486745646142,
        0.03876617940561394,
        0.11411505532474747,
        0.2276877813766503,
        -0.10125936471340527,
        -0.08165044979022482,
        0.03672564173510867,
        0.08480006191040423,
        0.09800394350006947,
        -0.05596547116130579,
        -0.13394145027327703,
        -0.12462479774478062,
        -0.027276056079499567,
        0.18456702160392763,
        0.10694677740651404,
        -0.17888578456744342,
        -0.09039829648759976,
        -0.09212743884426422,
        0.20883534767473771,
        0.06617048275223958,
        -0.16105578337295695,
        0.011456359222364154,
        0.1459435840232634,
        -0.00813276609854463,
        -0.06511607602461839,
        -0.10616753150947283,
        0.030539097094649914,
        -0.14425445294772377,
        -0.0048322328933276815,
        -0.16241711999379982,
        -0.14041686899396472,
        0.1945734822662334,
        0.15790855915856394,
        0.06241604646538834,
        0.1403425500421202,
        0.13362903878641047,
        0.1617025521861496,
        0.008162064010182435,
        -0.08985988304923948,
        0.09684000636146523,
        -0.04374706666015735,
        -0.18427870887568232,
        0.2129649089138666,
        -0.025444713555857312,
        0.2284141471771693,
        -0.18692465244336917,
        -0.22021681335247012,
        0.02043391680155837,
        0.15212415455520606,
        -0.08516191949836402,
        -0.1600738352657876,
        -0.04747131991339776,
        0.026393091485973852,
        -0.11867894427524074,
        -0.1876093204575897,
        -0.09250093883400451,
        0.10824346456541806,
        -0.12141223436058524,
        -0.06325415276811075,
        -0.23052153325560265,
        -0.23173928125916232,
        0.2293315811591946,
        0.11488602234374773,
        -0.1843699560210062
      ],
      [
        -0.0876534431655884,
        0.13062497601861772,
        0.14306647785227905,
        -0.07659909624238179,
        0.0026608486599619396,
        0.1861336038583012,
        -0.0771413402123339,
        0.18172635519690072,
        -0.16066349221166737,
        -0.09042595031578404,
        -0.019043136030923502,
        0.20919532327819956,
        -0.013028638695771977,
        -0.1183842938661612,
        -0.1835329844817936,
        -0.0840818947891995,
        0.09063280974190724,
        -0.15904019644957798,
        0.17170170247278893,
        0.10878283262961808,
        0.1592875226194429,
        0.11094259026328579,
        0.09536754410466747,
        0.09924552279570198,
        0.09588877750766733,
        -0.15663617276908012,
        0.13496750568559512,
        0.17401755691746018,
        -0.04283679625654796,
        -0.01769686231720269,
        0.20704112506424394,
        -0.21274635935118028,
        -0.14483589777127848,
        -0.01685138824084509,
        0.13353139733470404,
        -0.06703660681212162,
        -0.06678755994292063,
        0.045140027813754424,
        0.1687744765336044,
        0.09036267053777314,
        0.018123859034276435,
        -0.010302559883828971,
        0.1124886406153765,
        0.02806983313687661,
        -0.12462747853750217,
        0.15266908705506577,
        0.2288200070594712,
        -0.017981418176465064,
        -0.14784321096135,
        -0.059431007917325585,
        -0.15695996213673769,
        -0.06766598311033456,
        -0.10945341424233347,
        0.09993981147246844,
        0.14629548865815395,
        -0.17550918749981928,
        0.16035084350493012,
        0.021753009382400768,
        0.0738052301898805,
        0.20331831128783784,
        0.013792041618809703,
        0.1798658720736332,
        -0.04819577087521007,
        -0.17462299623820987,
        0.14586829319018968,
        -0.13800961456291996,
        -0.07040084212910752,
        -0.20947101816621921,
        -0.2331804223821015,
        -0.2263418559431774,
        -0.07886287895412408,
        0.1261653873834993,
        -0.0036585100088448452,
        -0.026625983675277187,
        -0.15539455166310978,
        -0.13658786322832286,
        -0.03890606769559754,
        -0.004688348393678543,
        -0.14093934613602077,
        0.1684533452837162,
        -0.02712511256720948,
        0.06288556920669314,
        -0.1056755027745265,
        0.0598392884727893,
        -0.1042918629824599,
        -0.17519663192358567,
        0.20065094812412404,
        -0.19769228926619792,
        -0.13304436764699543,
        -0.05327426291131679,
        -0.01589568722303311,
        -0.1863152534793736,
        -0.10988636610575418,
        0.22998453603488173,
        -0.0626990753960188,
        -0.0042497131822814005,
        0.2114616860370942,
        0.18393244446485713,
        -0.20923985470942402,
        -0.11659718016272548
      ],
      [
        -0.2333158380162706,
        -0.029685688654366188,
        -0.09350417224015747,
        0.040666115580864914,
        -0.04876732319671656,
        0.09494822935979474,
        0.12156958761417447,
        -0.12122346171500308,
        -0.08435989277029848,
        0.18331003775985277,
        0.16517907476284505,
        -0.2047393518121862,
        -0.20809072930424413,
        -0.13614996847421101,
        -0.12141590190683756,
        -0.137030955348968,
        -0.1944399460700283,
        0.03004047425152001,
        -0.22140841856199447,
        0.009064076267907561,
        0.17010613361721616,
        0.17988618143506524,
        -0.21219661110365662,
        -0.07982847677028859,
        -0.14458469905194177,
        -0.2265086080587895,
        -0.19538405282175908,
        -0.15618176289929395,
        0.20171675876553058,
        0.2071774142502718,
        -0.13638085867273697,
        0.04506141141344394,
        0.12541542505178876,
        -0.04320552970862712,
        0.0916327717873413,
        0.22126291014524452,
        0.103043114063602,
        0.056914345407613365,
        0.22158414389488623,
        0.19689382441832382,
        -0.09922630229018528,
        0.15996930282263905,
        -0.08143433498589978,
        0.2078377751084911,
        0.2268136381575857,
        -0.0900637550920581,
        0.11515833273823217,
        0.019834102290219535,
        -0.05192862312135488,
        0.13130541511382993,
        0.017556273485702267,
        -0.10623489703612529,
        0.18880827537038725,
        0.1512391356911822,
        0.04333871487194074,
        0.1938966459873232,
        0.08969158741482175,
        -0.19258493937486804,
        -0.054889046441182615,
        0.03430343593679702,
        -0.14651773282689617,
        -0.033972084226657207,
        0.1695727449696069,
        -0.044831209525997034,
        -0.03580707319829124,
        -0.061931014062444084,
        -0.22013624937195345,
        0.17215695109862855,
        -0.2097274871990582,
        -0.1875138207083881,
        0.07597915915198983,
        0.17791894959126558,
        -0.0817605282039992,
        0.20709812701009606,
        -0.13330357631177403,
        0.16220341217697387,
        0.05354714726829418,
        0.22968120319349683,
        -0.06354797444376492,
        -0.08031919030350113,
        0.16678398054551863,
        0.1529207293825664,
        -0.04703770210687025,
        -0.21716153248139608,
        -0.2272636868420562,
        0.14925243413030748,
        0.011716207865706457,
        -0.11137380646737652,
        -0.08289301352812631,
        0.21814806338669873,
        -0.05223021907385117,
        -0.1428474106823201,
        0.03292576539974573,
        0.08872834719526373,
        -0.16618421767342395,
        -0.11096777091084442,
        -0.19487028240259816,
        0.1820149274842925,
        0.02100067379571746,
        -0.037843087617936755
      ],
      [
        0.023566717957909766,
        0.1676202550360703,
        -0.10873290082600728,
        -0.08689594593592356,
        -0.0459187108882107,
        -0.22866404292466438,
        -0.16881275916104188,
        0.16472576557553842,
        0.185326660547581,
        -0.1953368551856362,
        -0.010087654177599964,
        0.02882477514056231,
        -0.02037872501435095,
        0.097149982166022,
        -0.2077626618198624,
        0.03013820175923293,
        0.11223179594331345,
        0.1564666159249954,
        -0.06707820817319263,
        0.12341385263669569,
        0.06295391052968402,
        0.0886510475923547,
        -0.21024103351627213,
        0.017314485216096354,
        -0.01573296467076607,
        0.020297841047404064,
        0.14638719891619623,
        0.016090763857317725,
        -0.15254929301264641,
        0.0434525149457039,
        0.1515053564758116,
        0.019051751790462645,
        0.15202967331340467,
        -0.00191395154770449,
        0.10798629661770376,
        0.12710778834642178,
        -0.1599915982155523,
        0.08015296284621665,
        0.0737556529054898,
        0.028612756521072924,
        -0.21796368377079656,
        0.012554428465290784,
        -0.11732554341573723,
        -0.22800716354690903,
        0.1339195558259792,
        -0.22447302010831824,
        -0.055518613414989815,
        0.15193959676401497,
        -0.06173287736242977,
        -0.1938761192316471,
        0.1512649810677696,
        0.09538533377196329,
        0.22369222725759302,
        0.1757479784099622,
        0.08484508218331605,
        0.0661917832412302,
        0.21061601473571745,
        0.17415747817158367,
        -0.21204657289140041,
        -0.14647202426421074,
        0.20925656655375596,
        -0.047529372586990665,
        0.19553128105522888,
        0.20363993768195238,
        -0.20718576015189832,
        -0.0036133238196104644,
        -0.04901182663954182,
        -0.19664687790008223,
        -0.0922992230948009,
        -0.04946927721566893,
        -0.16144415280556562,
        0.0017355444178399904,
        0.09099501510541563,
        0.05074854759438363,
        -0.06201383214023323,
        -0.029378304032907754,
        -0.11231400914633448,
        -0.0861940315451063,
        -0.029576165741796973,
        -0.1365112799784749,
        0.16432787825713208,
        -0.20926798796458757,
        0.05069366103444295,
        -0.21206982228690344,
        -0.03794763924211264,
        -0.20051950457387807,
        -0.12728068553301808,
        0.2137806640664377,
        0.19811679148817085,
        0.1217406955582489,
        -0.19166269309290962,
        0.04520142188532017,
        0.08452313983652177,
        0.0884642785280556,
        0.18274081596208996,
        0.19658936865510845,
        -0.13783781168944348,
        0.1619173494904403,
        0.23039032045118113,
        -0.00439587686409848
      ],
      [
        -0.08711322265201862,
        0.2335154058859953,
        -0.23009533581978847,
        -0.033848910469236326,
        0.0365294420781937,
        0.11628182849959234,
        0.0045063323097900565,
        0.22850926806476118,
        -0.03168659533966309,
        -0.2308390331675891,
        0.2266556923163489,
        0.17875176874858845,
        0.014488319834836366,
        -0.09165252726850329,
        0.04953120595772659,
        -0.2152578326541809,
        -0.1255493096263,
        -0.20627786580536003,
        0.22995909259748537,
        0.13118147305484074,
        0.03530458927812752,
        -0.18745891490497796,
        -0.052986283086766534,
        0.11924953907374819,
        0.09861970097837236,
        0.10502146233618032,
        -0.01272727064637355,
        0.1879185571534105,
        0.13394731654600095,
        0.18958381300389932,
        0.23169256879989802,
        0.1709602858710249,
        -0.024772185008583136,
        -0.08558747215720655,
        -0.10939857056043838,
        -0.1988120699338514,
        0.10780152860380926,
        0.16460571544662728,
        0.21378493513935887,
        -0.05229467726649881,
        -0.08949746425466479,
        -0.16434550872765047,
        0.18467581429544616,
        -0.22237614446113987,
        -0.07720619524246852,
        -0.07729624758136161,
        0.1656653236207194,
        0.06718970662267493,
        0.155009029921521,
        -0.18724205385013457,
        -0.12249665778181426,
        -0.1582912562020934,
        0.0493318529265086,
        0.12491171711119153,
        0.13072409406243313,
        0.10608488633024693,
        -0.0072861490645845794,
        0.11414107587930017,
        0.2057697178463765,
        0.1548230848981203,
        0.19059425449058381,
        0.1217410781821584,
        0.018647185258529986,
        -0.12381327987202619,
        0.02709719043207015,
        -0.06907884902172268,
        0.22627031977230794,
        0.10652313302993938,
        0.13989246116965914,
        0.11387507824781717,
        -0.10078587144388379,
        0.14799596915059843,
        -0.2165304671920447,
        -0.045365290803752734,
        -0.02965734099964737,
        -0.050372783184988695,
        0.23266952887139042,
        -0.21907995380287454,
        0.20369778741208105,
        -0.0892184221506839,
        0.04429382500132523,
        -0.19671659032584418,
        0.025887426789916512,
        0.03470169909576204,
        -0.050638068160241745,
        -0.13362682068097645,
        0.0671922957549661,
        0.03927973183708444,
        -0.16669157523962147,
        -0.014234105533167118,
        0.22263174611173303,
        0.09933372228875947,
        0.09696641823735086,
        -0.039164517273515664,
        -0.09706557079093067,
        0.04502395226896033,
        0.09767257395383272,
        0.10659725011913246,
        0.12519902386791454,
        0.0845531816360297
      ],
      [
        0.2318817720102756,
        -0.12617167703811671,
        -0.15535138640736043,
        -0.07315684572652476,
        0.03331158587963723,
        -0.05775306142050074,
        0.20767345600707177,
        0.08008652689067014,
        -0.06876008633537528,
        0.2262092307595686,
        -0.15494160367669352,
        0.20616195546812238,
        0.2055664433286717,
        0.18216094381798442,
        0.21187992142630718,
        -0.07179870393760932,
        -0.08603887195869739,
        0.019014312893039675,
        -0.042878282188563516,
        -0.20017403448607687,
        -0.10853715965896221,
        -0.22906668072629227,
        -0.20496370597085267,
        -0.02346167723507611,
        0.12370630677331501,
        0.009913725732397849,
        0.09133481479152472,
        -0.000712383589568627,
        -0.16922326178247907,
        0.18727865036563596,
        -0.16352514209453836,
        -0.14635165898562502,
        0.1923660435333464,
        0.1289256063252749,
        -0.13722930275156997,
        -0.20534661302100637,
        -0.12671513427985504,
        0.21709839030943695,
        0.11787043577209955,
        0.2012911012753857,
        -0.1551800733351953,
        0.044554818050763445,
        0.20043401947280826,
        -0.2317937623556963,
        0.19252614483310854,
        -0.03387262258300347,
        -0.024736103321395392,
        -0.16949582144809358,
        0.19112741118272358,
        -0.10603458584879916,
        -0.07061362404130436,
        0.11537968904153839,
        0.05206540628386741,
        0.23232690658606936,
        -0.008330449723307903,
        0.13521288744579696,
        0.010338967374013658,
        -0.1755292003123375,
        0.21706814810287334,
        0.16552276433794705,
        -0.20988579271370295,
        -0.13977712256764302,
        -0.20930413737283465,
        -0.142177411463029,
        0.05666417385927386,
        0.157921873036039,
        -0.05773817536414785,
        -0.21446189449198208,
        0.11079175098388089,
        0.11263330154016399,
        -0.10901235477305937,
        0.0656256471528473,
        0.15935419020135944,
        0.1764866017408832,
        -0.0986278146478193,
        0.19943526531962003,
        0.07317621206016717,
        0.14589253317721218,
        -0.00956573458981988,
        -0.18827393233696557,
        -0.05642422585154089,
        0.09103642458672889,
        0.22188102491815387,
        -0.22407906075806655,
        -0.009808568571186616,
        -0.13069318727933626,
        0.10180971591886007,
        0.06601807510380964,
        -0.15893335361969446,
        -0.1619199013768974,
        -0.22306770255015845,
        -0.08138537504656965,
        0.12975244145347442,
        -0.03388746257740968,
        -0.21755092118833105,
        0.15251109921884032,
        -0.1429515004530123,
        0.11021783098849469,
        -0.1850566183601525,
        -0.15952485488759943
      ],
      [
        0.16471982811403446,
        0.09176712753094951,
        0.09642438618897287,
        0.14955154784857805,
        -0.22988613801487284,
        0.07605026315381741,
        0.07441077662543866,
        -0.07147291167568973,
        -0.15439884496440082,
        -0.05455889707042619,
        -0.08802614895387306,
        0.09491036277324189,
        0.18990484349033432,
        0.13176893662892586,
        -0.0914003440221848,
        -0.034307531329601126,
        0.09034199411241217,
        0.14621007772218453,
        0.08486733728498569,
        -0.08376262087754108,
        -0.009007370460069414,
        0.06003903567002494,
        -0.1465231575294715,
        0.06376991598430759,
        0.1866544205873139,
        -0.14046598740865204,
        -0.11723067364403948,
        0.10060828183325776,
        -0.22624035354196656,
        -0.12420524655286451,
        0.16265236255270066,
        -0.10844624264838826,
        0.06341714207339583,
        0.046145762308321014,
        0.13776485381841075,
        0.062096450972678074,
        0.15483163799338495,
        -0.017788988248323867,
        0.12449017565479475,
        0.06449822455918197,
        -0.1762696947541533,
        0.011232014216803421,
        0.20599582180994586,
        0.20096497997509066,
        0.1236518731514395,
        0.10427789749259392,
        -0.13158804636339128,
        0.07717334793644642,
        -0.04411224148958495,
        0.18428255551121325,
        -0.11997854791592746,
        0.15911137544817427,
        -0.15689582083220982,
        -0.02701442203927279,
        -0.12947128931799323,
        0.023322469009099567,
        -0.16211736908547736,
        0.17354864563394484,
        0.14249166785680456,
        0.23282665311403794,
        -0.19455421488941685,
        0.10030493403379259,
        -0.004513610966578513,
        -0.05648210541515469,
        0.056720014819518105,
        0.011479440843753269,
        -0.02368110658372305,
        0.14655015134764643,
        -0.15302459319475759,
        0.16487752805442346,
        -0.06416552132046133,
        -0.024920862274095817,
        0.009721795213674361,
        0.06419626101578013,
        -0.08311289885915435,
        -0.019908957879261197,
        0.14792029144119379,
        -0.058535365276797285,
        -0.12943747855133098,
        0.02642767014448616,
        -0.08884185629234906,
        0.052116781658141265,
        -0.10183073853649749,
        0.19916860082729554,
        -0.17558587169708845,
        0.13051587591504704,
        0.02005711195256893,
        0.2104300533646986,
        0.07320364051912559,
        0.08129821637389018,
        -0.16804405848705628,
        -0.09720884280521544,
        0.049184705127716166,
        0.14355612238363136,
        0.043498922299180676,
        0.2308379428642684,
        -0.18198987573134118,
        0.1825906082732156,
        -0.1254505051319325,
        -0.20958160176241472
      ],
      [
        -0.09656735174891748,
        0.19031804491115334,
        0.012283370749018252,
        -0.1547072811120394,
        0.17058598729356678,
        -0.03780407280475864,
        -0.11821662592772893,
        0.12563331923854404,
        0.18204703848760856,
        -0.22789196697980624,
        0.16445668696735355,
        -0.20974192349013196,
        0.18853925527412585,
        -0.21073623926737417,
        0.047411121277262935,
        0.12884878461280286,
        0.1143129681208992,
        0.04684937139508921,
        -0.000354856333044995,
        -0.08183863071523917,
        0.06782737001374839,
        -0.13741950872440484,
        -0.21944477300591914,
        0.17936176044493352,
        -0.13781727092481832,
        0.09099343080395156,
        0.22982035892519465,
        0.14273793433720328,
        -0.1539152847297502,
        -0.07030984607382446,
        -0.04912214234630169,
        0.15481628057427577,
        -0.15412102855937948,
        -0.00807352294443231,
        0.14762572091891385,
        -0.038228432842563304,
        0.091913492604007,
        0.09902662379933419,
        0.1026524459643105,
        0.15568693000736167,
        0.13004257555397175,
        -0.22722326823732256,
        -0.072578644682216,
        0.1373689400695527,
        0.1062545481198125,
        -0.19982738927707488,
        -0.12612168612205216,
        0.07691350812950898,
        0.22706794486635695,
        0.21520554818081988,
        -0.002129630611703459,
        0.19983821635431254,
        -0.20010621228447542,
        -0.1607972049361383,
        0.0071101282044145064,
        0.2324279725547343,
        0.15708371809092436,
        -0.024155287838214495,
        0.1645393588529196,
        0.043076102669442784,
        -0.15669582185561784,
        -0.0938138031229841,
        0.17712914379379574,
        0.20353858233814637,
        0.10507136075323864,
        0.02231427201595848,
        -0.08944942700257136,
        0.05369501798639703,
        -0.22017870928925973,
        0.07893132475961961,
        0.1123558035959269,
        -0.21307489135408386,
        -0.03419776421328591,
        -0.14742734699769167,
        -0.06537721938463481,
        0.19059624640994016,
        0.009084818551788526,
        -0.14378411154903886,
        0.21882142606859212,
        -0.0739663508955303,
        0.20343972199432575,
        0.19065431362683294,
        0.038950554494542766,
        -0.1725686202160843,
        -0.09492806395255199,
        -0.10419647670226734,
        0.1647578939282649,
        0.22364779220751857,
        0.14278566625803335,
        0.22196370991895126,
        -0.1210465220076769,
        -0.18129042592900352,
        0.16170268999911885,
        -0.18979077787913023,
        0.18385062665699392,
        -0.1233336792780361,
        -0.04659866344112243,
        -0.10974306115880456,
        0.009896366788902045,
        0.06464203758596249
      ],
      [
        0.16915759867479457,
        0.0008699389056835427,
        0.19236686706669087,
        -0.141449162043361,
        -0.18787245018242898,
        -0.2296885094597959,
        0.11317115566997005,
        0.14082847310369645,
        -0.19261190345147788,
        0.011526790195086817,
        -0.04706408161881992,
        -0.11267219606306798,
        -0.09367010753690516,
        0.12966995112126561,
        0.11745985126305969,
        0.10475829900246547,
        -0.2244854341803975,
        0.10724921664117809,
        -0.04259011642245719,
        -0.049222699634530576,
        0.005130506502731752,
        -0.19640706063397198,
        0.1139221431776003,
        0.07973097166246157,
        -0.19086138779268544,
        0.1815508113041729,
        0.14965674302823495,
        0.1069589550887558,
        0.23295076982553753,
        0.052734032241070095,
        0.16507882488427467,
        -0.10626919930722006,
        -0.17888753843315874,
        0.015986511984993235,
        -0.2279738944233183,
        0.22946898440369473,
        -0.14436075813106677,
        -0.11211434178407247,
        -0.20591117214897162,
        0.07052174078891321,
        0.08592662165014192,
        -0.0027003242330827792,
        0.02341902589170619,
        -0.1931015324474309,
        0.15117170464936336,
        0.13512506103198185,
        -0.19738055859526502,
        0.10838489022481884,
        0.0723464215458296,
        0.04179277803296927,
        -0.003741105647170062,
        0.19463454322356383,
        -0.08772747643436124,
        -0.016623974647976825,
        0.10375706143723912,
        -0.16350849249316138,
        -0.06912382974725817,
        0.05655779251867599,
        0.005991733277398548,
        0.1828170042436012,
        -0.05754966515674362,
        -0.03727389649074264,
        -0.10382894949865976,
        0.08586597860541262,
        -0.05601082686141923,
        0.025857541713814658,
        0.17351200495937485,
        -0.20603349710199972,
        0.052614830268106816,
        0.010844540560595167,
        0.1226411191208095,
        -0.05137157730078712,
        -0.20100976827804423,
        0.1609221975796949,
        -0.22786283258664392,
        0.2317152579088128,
        -0.18490077483190337,
        -0.14601192644709915,
        0.15175858254171581,
        -0.19836352543369692,
        0.20884806199587957,
        -0.13226355899227346,
        -0.022441239888706166,
        -0.05804368705127752,
        -0.06654251384830953,
        -0.05016150937951902,
        0.22062227287455305,
        0.15018314553334378,
        -0.20095300320612186,
        0.177857686561061,
        0.06250835874174426,
        0.11843771180284812,
        0.07260696069733419,
        0.018511735211134972,
        0.13225817404955142,
        0.17603050257449604,
        -0.18969053857079482,
        -0.1968992594686585,
        0.031195761590762372,
        -0.08491110175170868
      ]
    ],
    "weight_v": [
      [
        -0.11172094385391322,
        -0.05347393197435449,
        0.06473574407780122,
        -0.08223240564921819,
        -0.0634723415550186,
        0.07325219981568085,
        0.0624838013344797,
        0.1915192555732044,
        -0.01457308216156461,
        -0.0988699073208831,
        -0.11653316692132966,
        -0.17470814877944216,
        -0.17860227936187664,
        0.17536128325993602,
        0.13189368447456032,
        -0.0841848147503621,
        0.2234572774969619,
        -0.028755273587037472,
        -0.22158174934669014,
        0.15533798214330066,
        0.13565704044693241,
        -0.10367213955423484,
        0.019991790827899314,
        -0.02209606716152354,
        0.15238179234760332,
        -0.07589481861193109,
        0.0944395132222969,
        0.04845591537262098,
        -0.21529449173560966,
        0.15756812277070717,
        -0.09729052760919729,
        -0.11752776040804205,
        0.21239319306536927,
        0.014388376033045491,
        -0.027939706998788033,
        0.2206053135437331,
        -0.2205841161108733,
        0.08157560334898825,
        -0.19386126150276767,
        0.2040706100595077,
        -0.1639683261237313,
        -0.022960086660685552,
        -0.08661688184759347,
        0.146068343561667,
        -0.017298728651289896,
        -0.12205892923745064,
        0.14733585754449582,
        0.1209879984195604,
        0.06236371966080098,
        0.20432378978599833,
        -0.10855982619959756,
        -0.1922209811377822,
        0.1775694380914414,
        0.07568319164419665,
        -0.06956973447650758,
        -0.17487476577019165,
        0.07063433363269148,
        0.07248116303630545,
        0.13639317147813276,
        0.020690590127208003,
        0.027802614406505416,
        -0.14086734799308498,
        -0.001518428337431238,
        -0.017959181618029507,
        0.09078062826381375,
        0.18275314457831646,
        -0.21675944252653326,
        -0.17725846799013167,
        -0.02770862949970951,
        0.015357577183104626,
        -0.027840054032210487,
        0.0025261994244242247,
        0.12186436766779449,
        -0.11995072622468941,
        -0.1573155026706101,
        -0.03355936604596124,
        0.018047596760451284,
        -0.18769473146526583,
        -0.01960783695269075,
        0.007065421823750362,
        0.134755194003451,
        -0.18347365786425696,
        -0.013415196670915064,
        -0.16732572447016045,
        -0.13485880372337536,
        0.20697960473157404,
        0.15967967289832571,
        -0.0779166412693926,
        -0.09538970241343334,
        -0.16795063775532754,
        -0.10460103333095944,
        0.112994819498316,
        -0.14297931841060296,
        0.10809788653743543,
        0.10614908943789456,
        -0.16778695341484762,
        -0.07428897418552555,
        -0.14123143413413497,
        -0.13855502830667163,
        -0.001254069760002391
      ],
      [
        -0.042662288429191814,
        0.058224520147987874,
        -0.21424463999008472,
        -0.01726929564813043,
        0.10706841089261673,
        -0.013637430558778835,
        0.05861472110061336,
        0.0886373435181945,
        0.17417436294742764,
        0.19571452091355793,
        -0.20846934105541617,
        0.16733115550790598,
        -0.08112550909175587,
        -0.12535635233251793,
        -0.1061258758149338,
        0.07887923372301378,
        0.04501530283533381,
        -0.09496826904733055,
        0.17239332008832423,
        0.01913842996457024,
        0.13528489267855123,
        0.011939561619674771,
        -0.02919648001644415,
        0.21783023437540697,
        -0.1583033140970216,
        -0.16484283575374303,
        -0.09512791621637146,
        -0.13512661553181235,
        0.08197017628480971,
        0.05688797248730773,
        -0.15298468514348562,
        -0.07254416943201775,
        0.17836787424169678,
        0.1364692469631936,
        0.12033236638351116,
        -0.039272139455599486,
        0.031775538415961396,
        0.0545860177155503,
        0.08212334889133657,
        0.1691881539031945,
        0.16006955100334394,
        -0.14136279013919087,
        0.015053527277712225,
        -0.009430097823757644,
        -0.03322147059101843,
        0.06018044141819881,
        0.06811733756468488,
        -0.12996137665607574,
        0.10470756876663853,
        0.16737416898271754,
        -0.18165945502350034,
        -0.1549840311729821,
        0.1577398561419117,
        0.22356831988532147,
        -0.1742503657124434,
        -0.08160669908717788,
        0.1152463102032201,
        -0.1264933871433087,
        -0.2100532800488725,
        -0.16194945250938436,
        -0.0126578698637613,
        0.06542700200306215,
        0.13933773994559265,
        -0.15038548963851806,
        0.12060593268941719,
        0.01765952130103418,
        0.13663330914880997,
        -0.22148679394166607,
        0.12608710835880296,
        0.07480291290123384,
        0.19821158930535185,
        0.15621842925929622,
        -0.07144603331484622,
        -0.19168604576913945,
        -0.20578359449591493,
        -0.17611466027270858,
        -0.11160349219100327,
        0.09748419410895512,
        0.21058929666730372,
        0.04616124776610955,
        0.1624869867525269,
        0.18075502545297598,
        -0.06913246523474384,
        -0.22359400642420335,
        0.21857996062522403,
        0.17373436357366148,
        0.1538218716851453,
        -0.042383010830553736,
        0.022674784518509544,
        0.010982314837636065,
        0.035394973310631433,
        -0.1375295331282806,
        0.07846306088242658,
        -0.03958322725024355,
        -0.004581612266597451,
        -0.03655880182514071,
        0.16848212175770225,
        0.1299166063882264,
        -0.013885626755600927,
        0.0571484516527426
      ],
      [
        0.13803080805064924,
        0.04634014262589917,
        -0.1383415215215451,
        0.06784800564537999,
        0.1978929000969126,
        -0.06182089614093453,
        0.20382281940483396,
        0.10474024961920195,
        -0.05440901337746401,
        0.16493693898601577,
        0.08563068673735055,
        0.10407477627351966,
        0.22054301599586215,
        0.16800113664182023,
        0.15577540661576447,
        -0.054858888013542606,
        -0.07542354091176362,
        0.11180494425989604,
        -0.17839366976019277,
        -0.020697586494337505,
        -0.0035407449155638038,
        0.18632943101647467,
        -0.03426025576388084,
        0.17073232148484466,
        -0.1659565895732626,
        0.023580682017254523,
        -0.08552767928016464,
        0.12025819379923144,
        0.12981731924173892,
        0.14894176668320394,
        0.11848900125944464,
        -0.17027730126474408,
        -0.21487703611945602,
        0.18455209662591396,
        0.12166120435552677,
        0.20113892735145125,
        0.03082971335589077,
        0.1771756404296698,
        0.0056650184549647264,
        0.1299285447959919,
        0.17898559623158264,
        0.14669898790581484,
        -0.061269631618371206,
        -0.08799838296676557,
        0.18534326308232876,
        0.2028702419469854,
        0.003193152037565289,
        -0.017278782807313542,
        -0.1931842939690699,
        0.023888428733017414,
        0.125291124633603,
        -0.09391809431056666,
        0.20389961770931483,
        -0.20179722598232827,
        0.13489641699771418,
        -0.03170907962679126,
        -0.11329726620015447,
        0.04170291253810962,
        -0.18211660701669125,
        -0.16748240668827508,
        -0.09571760796340761,
        -0.015247863947483953,
        0.2057474614452278,
        -0.08793717727773115,
        -0.002161423153430153,
        0.10650145399604374,
        0.2047184663732651,
        -0.06578927118270439,
        -0.04669277596515306,
        -0.1732797044237405,
        0.009746459322411666,
        -0.045278309843270165,
        -0.01614787283642946,
        -0.21793934065097514,
        -0.05333136312739714,
        -0.13997298676992123,
        0.10725267526609636,
        0.2057684652588909,
        -0.14230377759636587,
        0.0546710423694485,
        -0.18335993117252172,
        -0.12995778896294138,
        0.16504020535879846,
        0.08662589179983768,
        -0.13666890113183072,
        -0.03571403816813301,
        0.17320565928725548,
        0.02283787016782604,
        0.09301150562536029,
        0.02467850771721722,
        -0.10421835512953581,
        -0.09333582446032532,
        -0.09709883625841365,
        -0.04809108735754741,
        -0.009675903706860584,
        -0.15164382132856402,
        0.024289198606246704,
        0.16014697783420587,
        -0.13253521744554858,
        -0.06393498570322831
      ],
      [
        -0.16980807654368185,
        0.047212738893766565,
        -0.09483557927124037,
        0.02192305475037387,
        -0.19007145520834678,
        -0.06547579964446357,
        -0.16753238793177874,
        0.07192293266550012,
        0.01141326845515847,
        0.18544891177420395,
        0.112702349196413,
        0.19461564715111948,
        -0.1359256523591494,
        -0.18431843710965973,
        -0.00042537926164443185,
        -0.037398000548416965,
        -0.15306308454710152,
        0.18040438542002904,
        -0.004420411850872025,
        -0.16318597220971887,
        0.14656295644607717,
        0.18207592016361937,
        -0.1717153350890334,
        0.15590345033418615,
        -0.17698619495644297,
        0.03690564778260888,
        -0.049629069066331494,
        -0.03715766948424101,
        0.16425550080565962,
        -0.21434315294175774,
        -0.0877988684772755,
        -0.020994180564575526,
        0.20284772989141867,
        0.09982201231541224,
        0.057492442470869015,
        -0.13480354106093326,
        -0.20474625932832435,
        -0.02986759946520784,
        0.18829181639908735,
        -0.12337455678806357,
        -0.21111124280646823,
        0.19330395649492696,
        -0.00479255375329013,
        -0.13418616677425005,
        -0.22073145361164415,
        -0.071669303303038,
        0.13492596065313708,
        0.11688377621960291,
        -0.1974008428847853,
        -0.14049828698476954,
        0.08120070924930442,
        0.053121242627411885,
        -0.017481939952251363,
        -0.03726645213664287,
        0.0550949583852722,
        -0.21028297564968207,
        0.19109867620359536,
        0.1322470921981119,
        -0.031748947537095895,
        0.15265074387061797,
        -0.11010798855681796,
        0.13537268128009636,
        0.023674020242862637,
        0.1068038947810461,
        0.19924674426648573,
        -0.09170529622275181,
        0.06531350535273897,
        -0.021523039397206012,
        0.07743539615001435,
        0.20507042787161653,
        -0.017428978770657216,
        -0.18195608547454536,
        0.02528799873651183,
        0.20647535377386547,
        0.06287390466976303,
        0.21096511831255646,
        -0.21679495444180322,
        0.03038898052955749,
        -0.1076230598379385,
        0.0075480340476592744,
        0.20578760719406983,
        0.1903138895613927,
        0.12258463953451867,
        0.04233334050077561,
        0.20089766142319102,
        -0.20989246706560605,
        0.07444987131472278,
        0.009685767134914258,
        0.0562961081728591,
        -0.027598973047458397,
        0.15531011282761856,
        0.016258503514151146,
        0.10293949564522623,
        0.217938513101502,
        -0.10879364949737463,
        -0.12482273699672872,
        -0.19323905242955122,
        0.16622903438422523,
        -0.0508554759204799,
        -0.11926586648733875
      ],
      [
        0.16595330631247104,
        -0.1628875446834839,
        -0.084492391265442,
        0.1110909111703334,
        0.09498702518599125,
        -0.18557301114178681,
        0.028917255333584663,
        -0.2010421863143173,
        0.08679992783444487,
        0.002119815787180984,
        0.18586178217662794,
        0.06041706552289408,
        -0.18570601792616212,
        -0.07491856725390669,
        -0.17091143096704559,
        0.0767145377186256,
        -0.07275117566891715,
        0.11065920014805972,
        0.102969283618324,
        -0.2072652041818447,
        -0.11193026750405889,
        0.13060263690990312,
        0.0059144819251906455,
        0.09919221084018612,
        -0.05360067552119088,
        0.01122186790992219,
        0.173690078109853,
        0.050072354776771494,
        -0.02697380627777962,
        0.09127743289900445,
        0.08455110372790939,
        0.12869143848223788,
        0.03242855224572447,
        -0.19121610705259498,
        -0.041307864664066135,
        0.006795517176445526,
        -0.217019899532167,
        -0.11730274456381856,
        0.050939643142494856,
        -0.058743918058659,
        0.1559017192613931,
        -0.07110493718252292,
        -0.09248228498264285,
        -0.20696937476436483,
        -0.044470734431700853,
        0.026767895183673757,
        -0.18569496907959185,
        0.18094779687803245,
        -0.14684913482138792,
        0.04744522702254597,
        0.19415483260110014,
        -0.022562170682480925,
        -0.1409197190263516,
        -0.1823538107708202,
        0.03419008979222851,
        -0.14170670986464268,
        -0.13991736939602017,
        0.08968010033413856,
        -0.19239128547557255,
        -0.09533378422037317,
        0.07278821657546627,
        0.14230689015213796,
        0.13672167799115084,
        -0.03100521255010913,
        0.08312349814697881,
        0.18696260289152875,
        -0.20287972016969463,
        0.17341628385352362,
        0.057223657225225405,
        0.1329763787972922,
        0.00020432887436167002,
        0.1981185367313857,
        -0.11520126068805435,
        0.03231190731555503,
        0.05401603315025019,
        0.20543534895770568,
        0.08445140435925999,
        0.06014532548660592,
        -0.08001561329182713,
        -0.10595091440025382,
        -0.07077417510368542,
        -0.06703564180628752,
        -0.1950925217870935,
        -0.02541431924260676,
        0.12935417932002288,
        0.03153915357501516,
        0.14654496478055687,
        -0.1126003551078524,
        -0.14016778866148294,
        0.14034401184214493,
        -0.09227572857980423,
        -0.0710626900308641,
        -0.16002294940432474,
        -0.10838804472443461,
        -0.058813760858985875,
        0.07514652706714278,
        0.20851481993546014,
        0.2033391350385869,
        -0.010234889876227393,
        -0.19651167937718964
      ],
      [
        -0.040823251004787314,
        -0.12065900263060039,
        -0.17683574530177776,
        -0.16290897509465274,
        -0.1638160739662074,
        -0.019076149800676956,
        0.2014753235127896,
        -0.07366907386360724,
        -0.01784651811642099,
        0.19517593157144772,
        0.19293434621063435,
        -0.12129499069663265,
        -0.058071958186980493,
        0.15068579112575062,
        -0.02891129861761091,
        0.027535791243701563,
        -0.1591839437095136,
        -0.1881141712004173,
        -0.016372049234550268,
        0.05805045009794482,
        -0.042487180407399544,
        -0.06575132224584748,
        0.07332983095929704,
        -0.05555003979467274,
        -0.049047762688255475,
        0.21764288795008965,
        -0.06514151275266336,
        -0.03887234807147255,
        0.15387963831074045,
        0.12779407629933723,
        0.059333033058745294,
        0.19457797798383467,
        0.05709793925810144,
        0.13005678544369423,
        -0.18693453072236244,
        0.05925137821364748,
        0.15374771068070384,
        0.0015555744951681327,
        -0.13488402264121052,
        -0.19342880396988923,
        -0.14847234036823992,
        -0.18980606785049142,
        -0.005815453042144314,
        0.017149449956598506,
        0.13194244725916346,
        0.08219467917013937,
        0.14013794134517035,
        -0.11469246384881586,
        -0.15611154763108415,
        -0.014930088016990223,
        -0.09432785131654403,
        0.15219461983525515,
        0.13194767869366883,
        0.2051510564438285,
        0.06535558601275751,
        -0.14402393424343868,
        0.2000291720009197,
        -0.07550056293977447,
        0.20908588453411606,
        0.22251103246040702,
        0.054009124518550194,
        -0.1915863694794482,
        0.07289289364700494,
        0.022405449301646174,
        0.08293200648738822,
        -0.06311629246950151,
        0.02972700017628585,
        0.1438374798958674,
        0.09700121962390898,
        0.022201223876805176,
        -0.22134644943443824,
        0.07223533262890144,
        -0.15097389102292608,
        0.1911489017382015,
        0.16928177822748405,
        -0.19376391553749275,
        0.06297058697276245,
        -0.07101910934714997,
        -0.04933393331350622,
        -0.068995259143251,
        -0.06742369057679226,
        0.06756268511834998,
        0.08421488037500227,
        0.09494603224462042,
        -0.11240605695261323,
        0.12713991994651333,
        -0.009875714398694002,
        0.0947821019126284,
        0.21372548067694322,
        -0.0541595985411252,
        -0.18660671575724136,
        -0.10934933311845207,
        -0.15471320447661535,
        -0.14205573528571605,
        0.15767855728390542,
        0.20840200871720946,
        -0.026699382520214365,
        -0.07945966624431822,
        -0.029770966306043645,
        -0.08037061530323725
      ],
      [
        0.13948073666213825,
        0.080684321549602,
        0.11255630301443834,
        0.05910500732145199,
        0.060749015380569676,
        -0.14309151344077242,
        -0.17209081123071662,
        -0.016143977910353408,
        -0.1651852906531367,
        0.08925747505897805,
        0.053977151303415544,
        0.12525321349686766,
        0.14355316335179166,
        0.13580467229967394,
        -0.16643629333842094,
        0.08520327440744777,
        -0.014067138294588138,
        -0.1597236515933773,
        -0.21178217777764322,
        0.1916812594996908,
        -0.10392101527113426,
        -0.20678745450448824,
        0.03330213022859088,
        -0.14959468410357613,
        -0.1782317993432009,
        -0.21579941894587754,
        -0.020690627795231897,
        0.1864500459121233,
        -0.100511474400925,
        0.16932005796735847,
        0.08044660936538447,
        0.02633355778965321,
        -0.15138676557601524,
        -0.16689223359004576,
        -0.04785723097268832,
        0.14766307725924363,
        0.18404885537389784,
        0.20740827121367242,
        -0.046542053643207876,
        0.06228003771550952,
        -0.013767904860350316,
        0.07254636647174642,
        -0.12690355410060752,
        -0.0019585005296333946,
        2.176226686911864e-05,
        -0.1288105789797857,
        -0.006018139950845908,
        -0.14928272109423607,
        0.17767955945113403,
        0.1420841224583884,
        -0.04853366378811569,
        -0.1433897995206057,
        0.07415226529307231,
        -0.19015366597015138,
        -0.09992517340623082,
        0.18610581592736788,
        -0.09973308260273567,
        0.15661580620127155,
        -0.07326407515170319,
        -0.18460190647917146,
        -0.19132177164694206,
        -0.0017899608419699453,
        0.1499870140866312,
        -0.17591278906481841,
        0.021279958907624602,
        0.1297107573508526,
        0.11976944531729519,
        0.1482578271282788,
        0.18475453189124005,
        -0.17022611382346337,
        -0.08264537445331646,
        -0.15059497592268375,
        0.04330223843794215,
        0.18411018559066825,
        0.07341057646833912,
        0.1967325494927761,
        0.19232746328787617,
        -0.10159519675724397,
        0.00414241008537522,
        -0.09183764963072086,
        0.020664788558587277,
        0.07537755522355952,
        -0.0740842299687885,
        0.17748491221857707,
        -0.10143151447597434,
        0.032543600486794916,
        -0.16351496888743258,
        0.046230817159968934,
        0.1340548407185814,
        -0.03440631108473982,
        0.10984234005846791,
        -0.170236600242618,
        0.13898130537974826,
        -0.03665528098829335,
        -0.13577734150642676,
        -0.19082115731920102,
        0.2038722315606928,
        0.1322291913737866,
        -0.18629117357645542,
        -0.18215654301455508
      ],
      [
        -0.03352881046755107,
        0.16796279877325201,
        -0.18780362628112718,
        0.12711366601761656,
        -0.13401442917912668,
        0.01942206144937786,
        -0.21914498018358755,
        0.21243406788336536,
        -0.11291094082186871,
        -0.20087500178993223,
        0.09775894332916232,
        -0.20039458880966587,
        0.21632260733902312,
        -0.21790533619462737,
        -0.018180596146257055,
        -0.11512522134717301,
        0.10339809487294668,
        0.17079888852655764,
        0.17877839444619256,
        0.058185528669195546,
        0.09611096594020666,
        0.06301407643993237,
        -0.011861110498654653,
        0.0007637189227818197,
        0.16687709693173222,
        -0.11433429493109855,
        0.021573374731637174,
        0.18427541793376315,
        -0.093486314513509,
        0.11269892658812417,
        0.021125136144442946,
        -0.06470999810557576,
        0.0950952727524201,
        0.012849966772678523,
        -0.1661827154606344,
        -0.20029436602826187,
        -0.04529790441982895,
        -0.10189622680470228,
        0.2157810338847703,
        -0.10813126810162674,
        -0.191852739587644,
        -0.05994766773552279,
        0.1484531309418816,
        -0.13623171082578883,
        -0.1410506375039112,
        -0.01088559456520144,
        -0.18019893166150724,
        0.002313794207696729,
        0.16709540551330807,
        -0.20076573602620953,
        0.08866843298877089,
        -0.05356627689668722,
        -0.021684132196411743,
        0.050306078721682884,
        -0.20814519301582993,
        0.14494762632957878,
        -0.16728192752463927,
        0.06992100866176118,
        -0.021512052927407294,
        0.12129074886062721,
        0.014385850843137815,
        0.18103306849379217,
        -0.2041283052353455,
        -0.2093731895181388,
        0.20803089374733055,
        -0.042106624881601246,
        0.09031632670514647,
        0.1731997042283935,
        -0.025471609525083705,
        -0.08269925134144343,
        -0.22107483635339503,
        0.02846261072904535,
        0.10621044416038963,
        0.14493805232393234,
        0.13651859076201198,
        -0.1002138309538434,
        -0.06275614556561623,
        -0.009780272072900192,
        0.1218142782988261,
        -0.00566833134865255,
        0.12375181609013994,
        0.10148321960639609,
        0.029344541002380625,
        -0.205255798780345,
        0.20436286226361208,
        -0.1811891124503183,
        0.10051303966615324,
        0.10267519742503409,
        -0.06222129468674026,
        -0.07244702192176258,
        -0.04541957466760957,
        -0.03932508177513469,
        -0.0003499523737827137,
        -0.00775464890693664,
        -0.21404109289627918,
        -0.0678017620312559,
        -0.14268588717946298,
        -0.20620530483819713,
        -0.15647960294135768,
        0.20286523098695705
      ],
      [
        0.0018009667514702343,
        -0.12529619077006976,
        0.13823943694426763,
        -0.20599363767992773,
        -0.05684544654470011,
        0.04691371908977224,
        0.18635272878075923,
        -0.14786954129069102,
        -0.02034332308598988,
        0.064359270509559,
        -0.17933300742859695,
        0.15505285038558567,
        -0.14624191302956585,
        -0.07921780745750648,
        0.07755871969482411,
        0.18241045679300108,
        -0.15783571708801195,
        0.024748904763268104,
        0.15190558567284232,
        0.10920236715153478,
        0.07736162794376808,
        0.15312042363630432,
        -0.05627014086776444,
        -0.08147844759121561,
        -0.21308185079015146,
        -0.0025412499419243118,
        -0.09440461865495392,
        -0.15724483356686642,
        -0.17724514267119376,
        -0.14361630994264823,
        -0.14051221166005046,
        0.08515405889245567,
        -0.05793707428916087,
        0.13589570451963137,
        -0.037304923371249105,
        0.17778506771049704,
        -0.12874059998096915,
        -0.11417484542380901,
        -0.022021176692144317,
        0.07790122407294894,
        0.10887759249420578,
        0.08733590815229911,
        0.023829270896832205,
        -0.08159642501420883,
        0.11224496019656419,
        -0.07277013511636987,
        0.022527045451440936,
        -0.12552949888858977,
        -0.13190001560905312,
        -0.12971861630870388,
        -0.04401368931116098,
        0.1684466569525591,
        0.19840008875587364,
        0.043607596550358146,
        0.006436618759762092,
        0.15731147819742022,
        0.0298071372550269,
        0.19175329107864733,
        -0.005595476335754135,
        -0.0661858623973833,
        0.06581764456526581,
        0.22059492823771346,
        0.08628119845553592,
        -0.05576235128576945,
        0.059559991025726705,
        0.0645553161324077,
        0.0028829423876260973,
        0.11396927970631957,
        -0.04838447624756398,
        -0.14381209730961958,
        -0.21377102884837076,
        0.18382318169850279,
        0.1688309327115359,
        -0.01797811738131938,
        0.20217727032136665,
        0.08414070558621392,
        0.1471085141623669,
        -0.05419626690669074,
        0.11732991432021248,
        -0.11241191047049591,
        0.12275353914299522,
        0.1631168122159232,
        -0.19210634639728238,
        -0.016544375386035898,
        -0.22197834423493656,
        0.11542815672184784,
        -0.19262860294696013,
        -0.2009074030760204,
        0.21054977988565063,
        0.05581530665546788,
        0.18219115236430258,
        0.13013793692702644,
        0.14515361944815572,
        0.12319098950353166,
        0.04928982665608009,
        -0.20773632213154322,
        0.03357285447730471,
        0.08870380408940973,
        0.19470932864623877,
        -0.08981438046036547
      ],
      [
        0.04386765022069136,
        0.14587098258440465,
        0.148163980428878,
        -0.20248527268563338,
        -0.11487047757468818,
        -0.0311992320987661,
        0.18885220860907728,
        -0.2019665378255109,
        -0.07200651015424439,
        0.17848038077109554,
        0.13612582783740115,
        -0.1594858746386597,
        0.14546653582721977,
        0.13230937912385302,
        -0.2137397387288956,
        0.1683926045678136,
        -0.08358736231815056,
        -0.02913174162372903,
        0.035846190385097704,
        -0.0923447737119229,
        -0.030750651454822142,
        0.0518247468925678,
        -0.05859069964687491,
        0.1944479605299432,
        -0.1357926198485941,
        -0.011904736136494593,
        -0.08427487369579464,
        -0.15527485334829744,
        0.04279258193828725,
        0.02891856027644238,
        0.13554675302395933,
        0.04212557436852146,
        -0.18936082724893183,
        0.07110791769377614,
        -0.09582256884948304,
        -0.0077795101576601244,
        0.14513154959593996,
        -0.054707638213492255,
        0.05236549150901379,
        0.005216607867290668,
        0.16163394892879637,
        -0.07348355027249509,
        -0.10208276900379507,
        0.011366429610854378,
        0.04199238445043271,
        -0.1132938432695807,
        -0.12939958788231704,
        -0.10233421111414849,
        -0.11011450880961915,
        0.15659382781067457,
        0.195241881526476,
        -0.19648159436716686,
        -0.036007143631595545,
        0.017856848417034804,
        -0.12621921237958575,
        -0.0140468605136288,
        0.18806550441390982,
        -0.026462846709502608,
        0.0112651077048056,
        0.21588187073147905,
        0.04180921231749904,
        -0.14378060792466946,
        -0.19283933646197418,
        -0.09560680765255963,
        -0.012785870165323593,
        -0.1798176208136019,
        -0.15829020246872005,
        0.030448116661210417,
        0.19378408991213683,
        0.17351084224204275,
        0.1822680880047958,
        0.1319195321210603,
        -0.17412499953917038,
        -0.11912154754350945,
        -0.016036064581673143,
        0.17867250748281374,
        -0.03071791419541925,
        0.1725688734751651,
        -0.015100768007579118,
        0.02177146629578472,
        -0.028077969810846454,
        -0.011083509771895483,
        0.16686048873687462,
        -0.22303278292132162,
        0.09624531657668353,
        0.05083278031546132,
        0.17921945402864034,
        0.03048685746903737,
        0.014129529512697164,
        0.15473307250136312,
        0.09553205036989201,
        0.10365420334406264,
        0.15363657455775717,
        -0.16655402799165675,
        0.08339557004337869,
        0.10473093798470914,
        0.05247862746842455,
        0.13275876595095923,
        -0.15548509718881487,
        0.08865479184184352
      ],
      [
        -0.05555970362603918,
        -0.16751331307929074,
        0.10123801723767659,
        0.18389709708892024,
        0.0118190057174134,
        -0.010837980594175928,
        -0.10093811809913661,
        -0.166969625634361,
        -0.10610448982878792,
        -0.2087387552153958,
        0.08881381097194649,
        -0.14089632093865678,
        0.04758851008790957,
        -0.06200405533671921,
        -0.12330438563565167,
        0.1491667342933152,
        0.1594229927311868,
        -0.12729862310241402,
        -0.07605311046430388,
        0.19239993594681956,
        0.03053555710244918,
        -0.050384405757924466,
        0.09314233320944601,
        0.06778975232230058,
        0.1915331236926762,
        0.1560474801519022,
        -0.02896320434731184,
        0.19116428404871957,
        0.1376454157242327,
        0.10644764110291169,
        -0.0018188730376218487,
        -0.1587772069607964,
        -0.10450984543008397,
        -0.1240992303799054,
        0.09097060109099112,
        0.14755354476038793,
        0.1787581395003128,
        -0.10079624436012685,
        -0.03628978391629531,
        0.11657904990135612,
        -0.1581590765831103,
        -0.2053577890774901,
        -0.11567790739422701,
        0.1792418697608736,
        -0.02252402958604685,
        -0.17794276722316849,
        -0.12683775776668882,
        -0.12859623035972617,
        -0.0666317973293325,
        0.15653178749544708,
        -0.12567288003517657,
        0.03468545587471536,
        -0.02718990750838629,
        -0.03876747591456253,
        0.10970493358906877,
        -0.20721405709896162,
        0.04182796862041979,
        -0.1999547790137713,
        -0.022810844485526477,
        -0.12099049580586638,
        0.20730294704388577,
        0.08923933472681297,
        -0.065386790486829,
        0.2174625175975128,
        -0.2015076653530368,
        0.06076448044218649,
        0.19081696516655258,
        0.013270205383217493,
        0.12068863012692163,
        -0.15903331549488242,
        0.13898686306708632,
        0.08903161022612541,
        0.16270368964992918,
        -0.13531813115147706,
        -0.2222062087760128,
        0.11749361681417861,
        0.15378096739452293,
        0.022462601591293235,
        -0.20471855343856737,
        -0.038749097581111086,
        -0.025187262401977162,
        0.10386538944291804,
        0.15145410848322252,
        0.2176232274331402,
        0.0892027516505304,
        -0.1705338982835359,
        -0.20852765899980819,
        0.17831123775519162,
        0.005779812362372599,
        -0.11488758338173852,
        0.0670723397478897,
        -0.03474230319894098,
        0.14736985940008532,
        -0.1078546853285922,
        0.10363346773923285,
        -0.011545545744971936,
        -0.007552360165506394,
        -0.01164037288361569,
        -0.20674818692282507,
        -0.1905233482532029
      ],
      [
        0.019997364715093308,
        0.16602100736654543,
        0.0913016047654602,
        0.07934948860841798,
        0.06939681864747102,
        0.20294193645001893,
        0.0644989318478085,
        0.09955178490603298,
        0.09202855981509836,
        -0.18813844201062982,
        -0.20477896081289018,
        -0.02018577927920573,
        0.18673190085431982,
        0.008715144364205812,
        -0.09529972753546248,
        0.055413175212226023,
        0.09975248022920527,
        -0.08749691568337564,
        0.20428216630327825,
        0.13224265121627007,
        0.11094312419223448,
        0.028580842101258636,
        0.004201458303913969,
        0.07488360760297044,
        0.13371675929100071,
        -0.07554037838397759,
        -0.10578032242995215,
        0.011480278972428898,
        0.021208297092517425,
        -0.180474599595169,
        -0.11601109725487006,
        0.06790343833242488,
        -0.18691555815770725,
        -0.02962191956915483,
        -0.20526635260440176,
        -0.21788096650914146,
        0.04778794043798826,
        -0.03196177740090225,
        0.07849445079115228,
        0.03951055466979633,
        -0.15221677972594902,
        -0.03968099689830237,
        -0.0027881412493904467,
        -0.20931415342820617,
        0.22115311767701354,
        0.1403420971614616,
        0.19918632894829605,
        -0.18516806285516238,
        -0.1543548625505325,
        -0.21788481747421112,
        -0.18948281691312951,
        -0.1483218139237863,
        0.0918863996131142,
        0.18208337745021067,
        0.1953299960807349,
        0.1521582154572527,
        -0.15252466611389437,
        0.16794200194463335,
        -0.2010846916151307,
        -0.21036524871850007,
        -0.19654948029859964,
        0.15332464829680495,
        0.006038288034572986,
        0.21829971571509357,
        -0.21941231511808246,
        0.10572997379565482,
        -0.010686160711364717,
        -0.03907768748651355,
        0.20671332711986537,
        0.09467768520679795,
        -0.006271820839387959,
        0.022858783957909107,
        0.021080017813354085,
        0.09264468746625024,
        0.02769846003048751,
        -0.16295258696201298,
        0.1406494758852959,
        -0.18266387957973082,
        0.20820602454691192,
        -0.08605254687801411,
        0.14769190507637867,
        -0.22175804900525567,
        0.16569498059141932,
        0.01215687912142388,
        0.18932979389991358,
        -0.12317300432787798,
        0.07200222977099272,
        0.024290574497776496,
        -0.0261896961758879,
        -0.19481317205656073,
        0.21535175397280884,
        0.20243107787930756,
        0.14028668156238125,
        0.17649819145117565,
        0.12027225384601017,
        0.15207516955581415,
        0.08410951829132982,
        0.16322242032552667,
        -0.09170846851122985,
        -0.1779678319535731
      ],
      [
        -0.18432905151115409,
        -0.18107096289119917,
        0.12941085720632808,
        -0.1339067984712316,
        -0.09406053118315916,
        -0.08476350410130853,
        -0.05802811697629279,
        0.18254436242566843,
        -0.09168239590681102,
        -0.16432562896709307,
        0.18515644795601863,
        -0.10297619274466774,
        -0.14489599298756833,
        -0.0927002390696636,
        -0.21034451257933265,
        0.20936639615984512,
        -0.14343025834894813,
        -0.1394485614016461,
        0.1542687137561569,
        -0.08417373168187114,
        0.20528226816212417,
        0.03855059206151132,
        -0.1802599887879422,
        0.1363405314465493,
        0.19482273449592144,
        -0.2039500099301839,
        0.05541677882972593,
        -0.20204651343330224,
        0.03935211889426529,
        0.21987725604085853,
        0.17346486858641166,
        -0.14468266445929076,
        -0.17340981870713196,
        0.17338029331389823,
        0.20882957458310178,
        -0.0753053288970015,
        0.15835599930331126,
        -0.03364350986202699,
        0.15019076912511756,
        -0.04770443900000901,
        -0.1771116779698817,
        -0.052861721420424945,
        -0.06372990419261682,
        -0.03856419896682248,
        -0.13531550126115563,
        0.19695468449539136,
        0.15272958543255163,
        -0.16668207203645602,
        -0.00029482560616031495,
        0.042040260906047816,
        0.04550011163500586,
        -0.0631003280103645,
        0.16184395661168996,
        0.0706618485568106,
        -0.07667529807971826,
        -0.18537396110444776,
        -0.015670677530303018,
        -0.07543637089897534,
        -0.004978319035910228,
        0.014074110602788903,
        -0.08061825621758767,
        -0.038707032412254594,
        -0.2134773074311697,
        -0.1413644148418559,
        0.03841823683579973,
        0.03418698716321636,
        -0.05797256636072068,
        0.11353330239242262,
        0.009752109694215166,
        -0.16820324859791994,
        -0.09222923873666636,
        0.21460990458288778,
        -0.09126032605355833,
        0.20428702326980466,
        -0.19686061519806897,
        0.1290723469478486,
        0.08078110148332088,
        0.05505074675018265,
        -0.01268568776252027,
        -0.2077313917166388,
        -0.019891605722200695,
        0.14057674106891618,
        -0.02777792819191144,
        -0.006923502681524474,
        0.11618960303903483,
        -0.0522063239545113,
        0.1489496221402888,
        0.04409458946591968,
        -0.12108542341056928,
        0.08649283709366459,
        -0.007207887815738362,
        -0.0648946787475509,
        0.05218052434501422,
        0.13924642236555404,
        0.03654169630328816,
        0.1752538626200745,
        0.21548741729389229,
        0.07073823132699461,
        -0.12058932339075759,
        -0.008835890875046687
      ],
      [
        -0.09085458673874286,
        0.067129535002565,
        -0.023555851423679164,
        -0.12439598986023233,
        -0.006091305391085905,
        0.2166245490143406,
        -0.01863778075485989,
        -0.09494610956966457,
        -0.14567899037579796,
        -0.18182906713428051,
        -0.1650426773948973,
        0.10200884144017028,
        -0.21939972899850613,
        0.16927963930247272,
        0.05243901924779246,
        -0.043376739561493766,
        -0.005627891612676406,
        -0.16361980046869232,
        0.1721207249542541,
        -0.03345994734445831,
        0.19960743345989604,
        0.1482711259260552,
        0.1891626472303757,
        -0.18602475421538567,
        0.0388036264969813,
        0.17488454652412264,
        0.008428915874123505,
        0.18869993244756086,
        0.17789786297202734,
        -0.09524294300255917,
        0.10144433040911441,
        0.06889405484491593,
        0.03327627024007826,
        0.21618384948420058,
        -0.025728848489700584,
        -0.019892440735530897,
        0.04606618018169825,
        -0.09307856424392255,
        -0.10057529783731534,
        0.00045837477952290206,
        0.1617421328666667,
        -0.21582913023467687,
        0.09603567633167884,
        0.20651498240597774,
        -0.2143710353941948,
        -0.211078986142484,
        0.17714984990891272,
        0.0723051333985589,
        0.1572220718780006,
        0.08632376031452646,
        0.036011370877768595,
        -0.09519351257684869,
        -0.07749769233751655,
        -0.03314488292314757,
        0.08535581431891201,
        -0.19142713135031927,
        0.025886917512110252,
        -0.13233031252924235,
        -0.12326761659198283,
        0.04078715646009742,
        0.014643131737704124,
        0.10185949628269167,
        0.05427410892582027,
        0.0055288520264941965,
        -0.17121302188129442,
        -0.07644275533325046,
        -0.14946219171328357,
        -0.14259178632636843,
        -0.07309633253845127,
        0.0012905508864129722,
        0.00844717411939408,
        -0.15821138117483435,
        0.11245123311274338,
        0.06982020609847236,
        -0.08264841233329936,
        0.15377629107764415,
        -0.20710937746793484,
        0.06341422506079183,
        0.14110242250858027,
        -0.0848031330957783,
        -0.04485453431928904,
        0.130462322949044,
        0.2174991171301597,
        0.10649034588506814,
        0.115485803599744,
        -0.009076176318911638,
        -0.14642759816076997,
        0.09692818932366484,
        0.06543168463710394,
        -0.05209937071033163,
        -0.1846257828195832,
        -0.1650847150556281,
        -0.21607293511614817,
        -0.11438738191239826,
        -0.18161909349293923,
        -0.030427880433031518,
        0.06345324063515925,
        -0.2173486129397981,
        0.21832756104975173,
        -0.13619458451963357
      ],
      [
        0.1380968186484491,
        -0.2180880935987408,
        0.10501547956677518,
        -0.15892502963845878,
        0.03600272091470777,
        0.13878316512388192,
        0.1909985089692566,
        0.13938253800851333,
        -0.009253491862867086,
        -0.16707202345405667,
        -0.15828835801626306,
        -0.14474996846123755,
        -0.12084966986495733,
        0.04570610646853293,
        -0.10454356036838766,
        -0.1248209051079593,
        0.061629281980681155,
        -0.11237073243250509,
        -0.0899807581162842,
        0.08464494949065429,
        0.03670643220336159,
        -0.06142622805667303,
        -0.16446433475061964,
        0.03765644660392928,
        -0.13579603353266845,
        0.0067381172929323885,
        -0.14760678978212216,
        -0.1345673168263399,
        -0.15959327478731544,
        -0.11159543012273461,
        -0.1738547360954026,
        0.2130625857041478,
        0.13221819513416408,
        0.06264904218558667,
        0.06378839727876853,
        0.1507045284656333,
        0.20008680598458858,
        -0.053325162240277224,
        0.14474502576385276,
        -0.044254388365449815,
        0.14276318233688853,
        -0.08444210110092129,
        0.003323746006042627,
        0.21327946326086292,
        0.15977816254103586,
        -0.18938771926120557,
        0.22117369355102942,
        -0.17953191344246044,
        0.057897001920388796,
        -0.19813439368664493,
        0.026758371262194464,
        0.13721139273087554,
        0.10323366368823453,
        -0.17657663993413208,
        0.21911873631561932,
        -0.11882332289639039,
        -0.16845478405900421,
        -0.0511986424627357,
        0.21127372790261809,
        0.15376435063545882,
        -0.030008190738587737,
        -0.043949416744067576,
        0.18436972240156116,
        -0.21978697088262403,
        -0.008034806842427383,
        0.2234611192084344,
        0.021461293404887227,
        0.1569494555321295,
        0.026066419219382103,
        0.13039457119573675,
        -0.003759968989678064,
        -0.09650693659713971,
        0.17168448366471437,
        0.09857689728142141,
        -0.16396995761442779,
        -0.13081130995993923,
        -0.07205667435115881,
        0.06476595121462361,
        0.05531056629830547,
        -0.19153288530355816,
        -0.09900131235666576,
        0.0015465393462517352,
        -0.05743898577889392,
        0.0707618038389444,
        -0.03933356264460128,
        -0.17629619012682138,
        -0.026097425999747986,
        -0.2230798541151854,
        0.13151712007818636,
        0.04137078018611792,
        0.08762765597483493,
        -0.19938890106460755,
        -0.11224917610330568,
        -0.07134545979359735,
        0.09094233810242916,
        0.16652736801853593,
        -0.13995061750306825,
        -0.08747408635721493,
        -0.1327802496262302,
        -0.20916665345364732
      ],
      [
        -0.20688283606891583,
        0.13477237637202713,
        0.044717718072485396,
        0.06577633946641773,
        0.09895484620815795,
        -0.04757954402868561,
        -0.13630226550341618,
        0.014654661622133941,
        0.06868204726297186,
        -0.12026700892713273,
        0.18193356424547782,
        0.12545725987642456,
        0.14711475462117476,
        -0.14454236828119066,
        0.16152382452954758,
        -0.08470827951981705,
        -0.08828015662852065,
        -0.09720567840418798,
        0.12237000348620483,
        -0.07829178020611327,
        0.017909164572301378,
        -0.04675188608708164,
        -0.021725305849527254,
        0.0215377551232247,
        0.14961631510123571,
        0.020267566404609222,
        0.021163136906042573,
        0.010851271097865961,
        -0.006494449791634299,
        -0.20737802492833202,
        -0.2099204157560565,
        0.21038562862769647,
        0.2059335316503421,
        0.038786579816436934,
        -0.049988628049729644,
        -0.05189561135777215,
        -0.06097909714861577,
        0.12491480813304393,
        -0.06949685452037596,
        0.17932664396197998,
        -0.2041623659589939,
        0.11746444204373549,
        0.03211961262196908,
        -0.1909971531272876,
        -0.003185071181606741,
        -0.08999384148529507,
        0.20656046540435222,
        -0.08492150038469451,
        -0.12754819816096566,
        -0.21340249975796388,
        -0.057636127990729535,
        -0.07128639727183658,
        -0.17883413019804803,
        -0.13374731957475727,
        -0.1579278551229527,
        0.17048992096662471,
        -0.2147286842616254,
        0.019644971960893265,
        -0.04081646677463327,
        -0.10544833912425258,
        -0.0974022640124304,
        0.060745120328895424,
        0.1464969531222088,
        0.21433231688633028,
        -0.08407874615006317,
        0.12119836268722387,
        0.11464559341081546,
        -0.09420138395614439,
        0.045589052186898266,
        -0.09913199131966743,
        -0.049819209372631484,
        0.10669265128409763,
        -0.1250097791403762,
        -0.010164825946366307,
        0.008656629712020414,
        -0.06018452780977965,
        0.18575336249989174,
        -0.009626412600800272,
        0.15501501924779507,
        0.039270078717715734,
        0.03756875944349211,
        0.034269123984755484,
        -0.1823866642500119,
        0.10213649658321602,
        -0.1183930881553811,
        -0.19712471497459436,
        0.17925465430624873,
        -0.15562008340959277,
        -0.06765352697087013,
        -0.05201263823890137,
        0.021821640511389823,
        -0.006688340773486512,
        -0.046007071550737216,
        0.22103916679001626,
        0.01328611929177792,
        -0.05449998821944155,
        0.08998704599438359,
        -0.09399184124976781,
        0.04096084160740179,
        0.061403765823659945
      ],
      [
        0.14438816040859423,
        0.1345051402295724,
        0.16986016894483483,
        0.15419192354334407,
        -0.16959929493722414,
        0.09156203927846088,
        0.16681812238486907,
        -0.1814832447796269,
        0.06086310909461426,
        0.06575857674988703,
        0.18085561904315864,
        0.2112253849113073,
        -0.13522191718280535,
        0.2124226953100989,
        -0.21766377612956653,
        -0.16278186109306889,
        0.12981667155570428,
        0.039755187245910456,
        -0.1127620571262218,
        0.026657425285737085,
        0.004321293849196606,
        -0.12766406528720659,
        0.015582658893215556,
        0.1082357701846979,
        0.10415144696276571,
        -0.1152657254638651,
        -0.180588355699669,
        -0.005214733744597688,
        0.16057041243526868,
        -0.10864734969719109,
        -0.11266299922693607,
        0.20935956254126734,
        -0.055818660404804155,
        -0.18564951654014258,
        -0.12726109300280447,
        0.196339233544895,
        -0.1072301394470112,
        0.05572598199754833,
        0.20282811672890635,
        0.15895148025581993,
        -0.22005819089770973,
        0.11751080770346392,
        0.21088695786492892,
        -0.12679476296493974,
        -0.026598015880299225,
        0.16451019552079457,
        -0.11627686772402687,
        -0.06541593821459729,
        -0.17449992137283635,
        0.010508613689779622,
        0.18175829434250249,
        -0.11070719799840761,
        0.18317617144129208,
        -0.22160381761406675,
        -0.07399824211928477,
        0.19039797060977368,
        0.09458495465570135,
        -0.12140404152258909,
        0.020032556964302978,
        -0.16373562214469806,
        -0.20635251281831987,
        -0.20648581928192844,
        -0.009886809247780681,
        -0.21671727757026474,
        0.018641072970599692,
        0.20750284882570483,
        -0.04244323467238398,
        0.15182337148241784,
        0.07256291321569877,
        0.12687190955132108,
        -0.08923208008271552,
        -0.09935582396701964,
        -0.017309365295639034,
        -0.21385397422907587,
        -0.09722456079788952,
        -0.033316706679788616,
        0.10662414304518239,
        0.22080567984489266,
        0.011080735636042671,
        0.031954900192872365,
        -0.03401783663141128,
        -0.04214312202982476,
        0.1112355384151725,
        -0.0923532126355367,
        -0.09220852923552908,
        0.21895915263998247,
        0.12282547830768112,
        -0.04801075501901825,
        -0.1028252744322372,
        -0.20112120996705507,
        -0.22026316187257508,
        0.07909903700624724,
        -0.14968844138140824,
        0.0654580045091688,
        -0.1821696448837156,
        0.017121507841147077,
        0.03326813529291525,
        -0.2051046160493403,
        0.04829338546442172,
        0.12085540198236147
      ],
      [
        -0.21451436621985584,
        0.046868641465279276,
        0.09990943586673787,
        0.08369949569685212,
        0.12012756528256599,
        -0.18592990220356148,
        -0.0851907448581943,
        0.20135562761537043,
        -0.025086126076875465,
        -0.1132135257052764,
        0.11206567289705024,
        -0.17650910542279397,
        0.12572929031799238,
        0.1954435052401244,
        -0.2045621523845374,
        0.1161104320880321,
        0.08562956303581978,
        0.11453314646790566,
        0.07017106554610827,
        -0.14558772018144495,
        -0.18387725210800662,
        0.10262071819574445,
        0.05172336287423476,
        -0.11239401005446086,
        0.0714073748784411,
        -0.06885612861176141,
        0.12457711776496758,
        -0.2041299678765094,
        0.1892285312238167,
        -0.012820144134920997,
        0.20934741825460715,
        0.16566599243936578,
        0.17144170461426675,
        0.0500869611307391,
        -0.15030210189580193,
        -0.20114456122155142,
        -0.16410107721876616,
        0.0014694027567889179,
        -0.06631637344290442,
        -0.1774013343532328,
        -0.22063218231453482,
        0.010690784201715431,
        0.12574389687599882,
        -0.18391138485126962,
        0.06949040432258494,
        -0.14916165185636218,
        0.05245511958135443,
        0.06394535445548757,
        -0.1531972787477217,
        -0.1897944405503481,
        -0.1421579663525457,
        0.1742870880464267,
        -0.020050052807736723,
        0.1577527601705838,
        0.07749007804090227,
        0.2131306648873074,
        -0.040244283683438076,
        -0.18562117792308885,
        0.188047514095687,
        0.11039713306633434,
        0.07489772950934812,
        0.1716342373436269,
        0.11645116559992832,
        -0.12424777560136954,
        0.03311486282075596,
        -0.17660036626608927,
        0.221609783936886,
        0.001551251838386336,
        -0.021872749744256237,
        0.10116818330873881,
        -0.0713936278707476,
        -0.15830956285104314,
        0.16376977129577666,
        -0.18876586852037405,
        0.19915263839144434,
        0.05703475222919582,
        0.07223972193248981,
        0.1676502661516637,
        -0.009104064950442026,
        0.18406797869732996,
        -0.13666503381808662,
        0.013712658420830998,
        0.18165574697077777,
        0.05626115931399653,
        0.16616393190010295,
        -0.10401039463493156,
        -0.11267635233976679,
        0.16613374908283332,
        -0.20867363601076633,
        0.05147159716578434,
        0.005235322031554551,
        0.11610514139307063,
        0.15747618463305948,
        0.17796068445774307,
        -0.04578481542947019,
        -0.0067954126657706615,
        0.029653815374259845,
        0.008662910384044348,
        0.19325578840924465,
        -0.12561391966969526
      ],
      [
        0.1980350823227547,
        0.04751011307513922,
        0.008664189943685674,
        0.0824762470277787,
        0.017024703871036606,
        -0.09549478671774878,
        0.13845903783174648,
        -0.0669515516780998,
        0.07923295644781561,
        -0.019116605107290074,
        -0.1331471085146733,
        -0.10535987238106373,
        0.1064215576220188,
        -0.09803112138325515,
        0.1518967165372858,
        0.057112579273519176,
        -0.024208780700570726,
        -0.04387983986285038,
        -0.03008579182286883,
        0.11724466548893633,
        0.14931209676306348,
        0.07825352699197533,
        -0.02326340645495542,
        0.09390454088902264,
        0.00023615196645002112,
        -0.09537653481940117,
        0.09466489011138643,
        -0.2038092657197674,
        0.12165631944018443,
        -0.16246784690741367,
        0.1879776828497198,
        0.1861500950281311,
        -0.14513707112331575,
        -0.08193044693656373,
        -0.11421506504962851,
        -0.21979360776809476,
        0.20382869694069186,
        -0.10849781974516637,
        -0.2074785603658056,
        -0.21308266675944582,
        -0.005220196443354974,
        -0.07813398389940335,
        -0.02695765471331285,
        -0.0796663213056987,
        0.005280085209085156,
        0.20640004922333674,
        -0.1475921506383744,
        -0.005750571800284182,
        -0.1643879887489477,
        -0.14977462828449445,
        0.1840366725173295,
        0.20361498819698567,
        0.07679598117667527,
        0.15458544364491086,
        -0.2222255884984653,
        -0.0916074919024816,
        0.14838251137974132,
        -0.12703849952371007,
        -0.14520851834072562,
        0.016068227690358428,
        -0.11403507668131323,
        0.19034485745762666,
        0.18765253599186246,
        -0.03620253549343519,
        0.012968616111813158,
        -0.012632126951106437,
        -0.09623160479926646,
        0.09254270565049402,
        -0.04117345278614759,
        0.11039047102081137,
        -0.08685022296997313,
        0.010419912534886555,
        -0.03553550208563577,
        0.15500832328413858,
        0.04122332449150248,
        0.10196263280365933,
        0.16645866181041577,
        0.1447006679066483,
        0.02544429448428931,
        -0.0909756046290677,
        -0.1331070377987541,
        -0.16709419355723543,
        0.15006495322816346,
        -0.14595816700041653,
        -0.07109091733678252,
        -0.10894233366080391,
        0.0546530586643357,
        0.02967389389772665,
        -0.19583288953983513,
        -0.025308195383294263,
        0.09492806966593556,
        -0.04126532902676433,
        -0.18470497512464445,
        -0.2067488592402665,
        -0.20803313687255814,
        -0.16890866803288695,
        0.010523304679751516,
        0.14516418484167884,
        -0.08679422377759666,
        -0.22240881147232813
      ],
      [
        -0.15490177269070196,
        0.04590149733658275,
        0.204315945239292,
        0.027654560356153962,
        0.07208805721672165,
        -0.14372963514153395,
        0.08326307313993911,
        0.14737082783972724,
        0.12576438390770692,
        0.15427179494439194,
        -0.12217795923940333,
        0.06549590203689273,
        -0.08425019928652563,
        0.11080607591496491,
        0.21651929956767216,
        -0.11641087751397373,
        -0.1441558208694081,
        0.0464487583173889,
        0.12745747081347072,
        -0.12508867562691214,
        0.05793990307313249,
        0.18710003883727974,
        -0.06692274075543278,
        -0.2042153027347382,
        0.18176877719040072,
        -0.21457956457176858,
        0.1999508933277778,
        -0.016506154646931948,
        0.03227673285578811,
        0.023431131275796435,
        0.21880995840534964,
        0.08813269307814878,
        0.008703140112452934,
        0.10335561066884744,
        0.2124743202652096,
        0.12208033378731678,
        0.1154475798923921,
        -0.1841956570556082,
        0.043318154339824305,
        0.07006415304181837,
        0.20811468337846042,
        -0.18729417205851845,
        0.22006425627871942,
        -0.08733412044507338,
        -0.1389086609076648,
        -0.032101594774076675,
        0.13567260386376198,
        -0.15012820686074604,
        0.0069406982490910485,
        -0.010148537281232106,
        0.03588984982156787,
        0.15316514461880673,
        0.053269649682400805,
        -0.19779437050127308,
        0.11625721454959084,
        0.19273550709673806,
        0.2002465308867434,
        0.07699352280109786,
        0.16759261894410662,
        0.10976471356217135,
        -0.10862038603618969,
        0.033474303377625275,
        -0.21090590735155165,
        0.10664987773937654,
        -0.17572994526399527,
        -0.14656074966586047,
        -0.1429745988814844,
        -0.052633641939732745,
        -0.1715440589483679,
        -0.04583780357454437,
        -0.09683179589402979,
        0.09175212987970835,
        -0.0567552227058557,
        -0.06193056200109584,
        -0.10272382353853937,
        0.17812509147990538,
        -0.13964639357113118,
        -0.19420886177974286,
        0.09503485153027316,
        0.10765164589021578,
        0.1175791249882813,
        -0.003865741397551664,
        0.020366439417135285,
        0.11618411290215983,
        -0.21965314206926917,
        0.05329225838689147,
        0.10408868657228362,
        0.014366787220063043,
        0.0269269730531079,
        -0.10066894518760647,
        -0.1593688733977527,
        0.03137734086861796,
        0.12443450964669286,
        0.05942556901710441,
        -0.17262195299406208,
        -0.15365927539843752,
        0.14202214016735812,
        0.008585682645893544,
        -0.02463351983740167,
        0.18297699248131125
      ]
    ]
  }
}