{
  "num_class": 10,
  "num_hidden": 100,
  "num_visible": 20,
  "params": {
    "bias_b": [
      0.0,
      0.0,
      0.0,
      0.0,
      0.0,
      0.0,
      0.0,
      0.0,
      0.0,
      0.0
    ],
    "bias_c": [
      0.0,
      0.0,
      0.0,
      0.0,
      0.0,
      0.0,
      0.0,
      0.0,
      0.0,
      0.0,
      0.0,
      0.0,
      0.0,
      0.0,
      0.0,
      0.0,
      0.0,
      0.0,
      0.0,
      0.0,
      0.0,
      0.0,
      0.0,
      0.0,
      0.0,
      0.0,
      0.0,
      0.0,
      0.0,
      0.0,
      0.0,
      0.0,
      0.0,
      0.0,
      0.0,
      0.0,
      0.0,
      0.0,
      0.0,
      0.0,
      0.0,
      0.0,
      0.0,
      0.0,
      0.0,
      0.0,
      0.0,
      0.0,
      0.0,
      0.0,
      0.0,
      0.0,
      0.0,
      0.0,
      0.0,
      0.0,
      0.0,
      0.0,
      0.0,
      0.0,
      0.0,
      0.0,
      0.0,
      0.0,
      0.0,
      0.0,
      0.0,
      0.0,
      0.0,
      0.0,
      0.0,
      0.0,
      0.0,
      0.0,
      0.0,
      0.0,
      0.0,
      0.0,
      0.0,
      0.0,
      0.0,
      0.0,
      0.0,
      0.0,
      0.0,
      0.0,
      0.0,
      0.0,
      0.0,
      0.0,
      0.0,
      0.0,
      0.0,
      0.0,
      0.0,
      0.0,
      0.0,
      0.0,
      0.0,
      0.0
    ],
    "weight_w": [
      [
        -0.23287544392450846,
        0.11517764677537512,
        0.20644523049523367,
        0.21971571180645433,
        -0.18030562216608315,
        0.11252928193100692,
        -0.14201828755803436,
        -0.10541191570009809,
        -0.048831604933490536,
        0.038848866722672626,
        0.1669153508110034,
        0.06270537628484496,
        -0.06374543217942372,
        0.1973387915949555,
        0.018873171566476887,
        0.17796542762299516,
        -0.10364795341710842,
        0.0533481188499309,
        -0.16803581999753742,
        0.1969108086143797,
        -0.01889020169621941,
        -0.0001942132641915284,
        -0.06615456317913021,
        -0.016628086445325707,
        -0.13931476410747876,
        -0.07129635988841379,
        -0.12234739500267491,
        -0.148213680580576,
        -0.14163337387165548,
        -0.10633810580945763,
        0.0003195226154738273,
        0.17665713428014695,
        -0.005682105260727821,
        -0.21361177691730227,
        -0.016918606495094968,
        0.21870964439093699,
        0.17229965454246288,
        0.15016518546719387,
        -0.14551613942980746,
        -0.012472669033919886,
        -0.1440058333829748,
        -0.1454033653845871,
        -0.0741024412277779,
        0.14448029914446164,
        -0.013339270580276397,
        -0.07581111168912813,
        -0.036399479924925315,
        -0.04617475808252017,
        0.0009522908520989692,
        0.0023545031912481917,
        0.013031113225457303,
        -0.15588385760833312,
        -0.03262971164423811,
        0.08793839817149396,
        0.21541884485556229,
        -0.21125619400623552,
        0.1313884913340792,
        -0.21728616425427372,
        -0.06302455384516992,
        0.1755735653540717,
        -0.0694381852173222,
        0.07177298460445602,
        -0.05322975503726374,
        -0.20737995277004392,
        -0.18825042728616997,
        -0.15791168921841764,
        -0.0010030744829891691,
        -0.11726259332209132,
        -0.021075020513871695,
        0.07812460437447727,
        0.04639497890002292,
        -0.15409909860748133,
        0.1204571486579144,
        -0.20648981054153617,
        -0.005449983677825204,
        0.11505219907436354,
        -0.013902440616990835,
        -0.007455685481341678,
        0.011902679950470368,
        -0.1915602693980785,
        -0.04814478736477226,
        0.005966266169608492,
        -0.15791940233041024,
        0.02580361243592505,
        0.11786807739659128,
        0.08664786586966439,
        0.09946316271188776,
        0.1849274492307751,
        0.22744944285511381,
        -0.18314975053750077,
        -0.18904317352051953,
        0.1576079499913467,
        -0.026511247323758702,
        0.15203783504759127,
        0.22042494052176814,
        -0.08618377031142763,
        -0.2012919815678151,
        -0.20236694744912131,
        -0.18489078721204555,
        -0.09603857164070947
      ],
      [
        -0.13425726287854384,
        -0.050756545894287464,
        -0.12285746762546662,
        0.10558414465845078,
        0.22996249923004164,
        -0.2107253488775329,
        -0.19093428624948466,
        -0.05368581001024458,
        -0.2179161823335975,
        0.19276992794691605,
        -0.19938386789921342,
        0.1392557554871,
        0.20637212896167384,
        -0.11229995619949781,
        -0.2053742523154484,
        -0.2266656931383768,
        0.22224240061139833,
        -0.15864148819776827,
        -0.13833036235886992,
        -0.08780436697875244,
        0.09328151022679121,
        -0.10389695974717597,
        0.028588336608200426,
        0.18953261784248754,
        -0.10264846334150493,
        -0.0009614229074234315,
        0.1318142449304271,
        -0.08124557225500667,
        -0.2049438019341809,
        0.08798313661425083,
        -0.2236949817602014,
        -0.18974487928169642,
        0.0433596581229958,
        -0.16186568371033866,
        -0.08455905754359239,
        -0.19372644181859147,
        -0.0005049353453486227,
        -0.06689212665160171,
        0.15593975156600737,
        0.20600055959379282,
        0.004409539511503302,
        0.1242749323380769,
        0.05780457293820007,
        -0.024829417289737893,
        0.19944572648061487,
        0.05712593639035363,
        -0.18124593327935598,
        0.06228852317969502,
        -0.1650561415703775,
        -0.09304870836807988,
        -0.09257379694896806,
        0.025436438094865343,
        0.22794539130901853,
        0.21894264822828985,
        0.13808302710631815,
        0.1814874442262877,
        0.11908755567243312,
        0.09941031501935066,
        0.2139886010614938,
        -0.15082433982966043,
        0.17948150155194453,
        -0.09153938383845661,
        -0.10105603368098848,
        0.1708903352649893,
        0.02920914197196489,
        0.016306671926515665,
        0.06743292513264787,
        0.042128087970772665,
        -0.1575683845076304,
        0.164495402567382,
        -0.050290530482212825,
        -0.172089255761007,
        -0.1254311840934197,
        0.11104997997362975,
        -0.047505169257279684,
        0.088879563167097,
        -0.1613143307039977,
        -0.043349023466101144,
        -0.0005376600358481531,
        -0.176439768057074,
        0.0673228060604597,
        -0.13088239034329027,
        0.011371339580355161,
        -0.109238126210798,
        -0.06726281018371277,
        -0.17636909359061437,
        -0.010972669482515462,
        0.2228882454503045,
        -0.03902436820001137,
        -0.06619798077662167,
        0.22741103200300078,
        -0.05798451678304839,
        0.22719468074680993,
        -0.1456615023834602,
        -0.09593057285143639,
        -0.034107482957790425,
        0.06833611211579121,
        -0.07994716922528808,
        0.060214216036272694,
        -0.09493313171181914
      ],
      [
        -0.13010954531943617,
        0.013784602980444538,
        0.2301576132821922,
        -0.20906627231199273,
        0.1371529864711683,
        -0.09990550874211304,
        0.08002746505834996,
        -0.09953289879937477,
        -0.16942179271926605,
        0.23312582398457066,
        -0.0658427949618865,
        0.08386203893929728,
        0.04536044113725446,
        -0.22410808445492908,
        0.21095902349529333,
        0.07785244568008082,
        0.004877218181113946,
        0.10432010170297956,
        -0.17471463967638048,
        0.21374923094697462,
        0.05742423026708976,
        0.12440215318123299,
        -0.08135536973301705,
        -0.16605077288967315,
        -0.05438506305159768,
        -0.2291752080623111,
        -0.07358976216120577,
        -0.17208276347405677,
        0.15231812131086947,
        0.09461946883957734,
        0.15316584758742208,
        0.2184727501408617,
        -0.04093994985710467,
        0.03670812618460495,
        -0.08628937719727642,
        0.20809641989877298,
        0.015590542168199828,
        0.002833713140583116,
        -0.06569697907472732,
        -0.19338650867349205,
        0.1405611579357937,
        -0.13630968641690955,
        -0.19557813348024364,
        -0.13715996975486616,
        0.1369119472735299,
        0.15014245193783882,
        0.15601680010124447,
        -0.12740126795331524,
        0.03504276870674672,
        -0.141226720626571,
        -0.00817050801197508,
        0.03130892202483365,
        0.17569037396895765,
        0.14460566546374776,
        0.09603403385566983,
        0.028293677768622516,
        -0.1654538312600454,
        -0.17949447199414037,
        -0.2240037092494044,
        -0.07128787783130247,
        -0.2029233968334764,
        0.014041914930139926,
        -0.15986399718976774,
        -0.008367268343242223,
        0.16717239326358357,
        0.1723055785263285,
        0.14339169751339165,
        0.12989533875210474,
        0.07731717171076585,
        0.05080248726701564,
        -0.22424495191539184,
        0.20266583521991338,
        -0.028173502097441294,
        -0.05985050571347106,
        -0.09414079506940229,
        0.032343750770341795,
        0.16418936443525206,
        -0.07828337170528393,
        0.10236007520812263,
        -0.17786339296015496,
        -0.1307272417817866,
        0.012794267324274772,
        -0.08062740072700245,
        -0.03639354872660394,
        -0.0634795240238551,
        -0.1859781499296469,
        0.13816670391772773,
        -0.1719033061736529,
        0.061125332007346156,
        0.0007942289791324775,
        0.20160678571711343,
        -0.08143632082853011,
        0.1601141237823432,
        0.09146143237270149,
        -0.04689153590921247,
        0.10559683970335576,
        -0.025981843702826968,
        0.19197293108481417,
        0.08865609446103928,
        -0.05362739235255534
      ],
      [
        -0.15632459977877827,
        -0.08002807516860772,
        0.17350466084871463,
        -0.2109532781267953,
        -0.11873299604810802,
        -0.2122280779904523,
        0.1918182317451278,
        -0.15054051350146677,
        0.21252579596804316,
        -0.04517131755006018,
        0.1956899942109715,
        0.006085319619481666,
        -0.0026340176070565047,
        -0.17994031174726288,
        0.044846452663037495,
        -0.04082772448416655,
        0.1854564044735622,
        0.14158791759713701,
        0.015274081774142911,
        -0.11458344809727851,
        0.1374290190721149,
        0.12550982205995137,
        0.15575559245224535,
        -0.12060171466933073,
        0.04782318119049228,
        -0.04315759665458799,
        -0.022043157742890396,
        -0.076612086038363,
        -0.18686821717260974,
        -0.21412979365291185,
        -0.015525970054209137,
        0.20434690091232244,
        0.1434972858515165,
        0.09253813305679792,
        0.058577765932933124,
        0.09457247955099074,
        0.17233423266507564,
        -0.11084243644100024,
        -0.20311172748942743,
        0.004419875693434133,
        -0.2185235199887319,
        -0.19493942635808426,
        0.10141845763002122,
        0.09664609984862615,
        0.18007324890691612,
        -0.1907171360070573,
        0.18110346272926386,
        0.08561883133776022,
        0.19560886538963718,
        -0.15080124253041519,
        0.21321624121326666,
        0.09832599221807681,
        -0.1912985714268128,
        0.146317371880886,
        0.008301536477918758,
        0.042728643270627475,
        -0.05195535550045838,
        -0.10592111203845975,
        0.12118793578659293,
        -0.0357816215454978,
        -0.20110556695329007,
        -0.12329786242414857,
        -0.0533771229497447,
        0.11181205867358801,
        0.1341871108812671,
        0.07689051036505606,
        -0.08013733350514082,
        0.03712917784336994,
        -0.10253808634084963,
        0.19743911307007822,
        0.20102220543900956,
        -0.024256812665234162,
        0.12159640163312058,
        0.1443276825272038,
        0.11881358999896602,
        0.08739952105802995,
        -0.05454104064253268,
        0.12966148260310711,
        -0.23031616202464633,
        0.20506763887465784,
        -0.030464463992325247,
        -0.12194924678785299,
        0.22442817837228712,
        0.15847483209764046,
        0.20920777416459158,
        0.08829608879968348,
        -0.11355785891685485,
        -0.2170592061345579,
        0.12941259225443824,
        0.2079713138048141,
        -0.09641761615800862,
        -0.036041636003243144,
        0.12475973915195848,
        -0.11942818670282195,
        -0.0018069545344175375,
        0.2015767809761439,
        0.05403512473147343,
        0.01848870559148935,
        -0.041676098532944766,
        0.019875101016875063
      ],
      [
        0.03959830102209899,
        0.04744995099006738,
        -0.06330634733361973,
        0.2004919319268062,
        0.02741547944555983,
        -0.02433691823136963,
        0.21275887503951824,
        0.009627695387560115,
        0.019168208090400263,
        -0.03622073967577932,
        0.14840365339555722,
        0.1615691435439407,
        0.16757629646540523,
        0.010948486034119631,
        -0.0540555454098233,
        -0.19860785247602925,
        0.1510122603091581,
        0.060187252119078216,
        -0.06430001385485037,
        -0.030573468942347776,
        0.14294219393218577,
        -0.07920713717661776,
        0.18951698681482587,
        0.059614060085275256,
        -0.030638653369328778,
        0.05786366234390633,
        0.13805016660545139,
        -0.015536567557965564,
        0.18914942574913812,
        0.1011962682071002,
        -0.051829180737142405,
        -0.028608944130275482,
        0.2319953806548361,
        0.018903622773410622,
        -0.09541949214408652,
        -0.20003459710235214,
        -0.18698598712342052,
        0.03958773952249289,
        0.18099007276152745,
        0.226950824601991,
        -0.1563237211611085,
        -0.12598207051726448,
        -0.11591883862555756,
        0.08819001493743922,
        -0.18248270303842712,
        0.07988378964509685,
        -0.1390456480544606,
        -0.08744397748240404,
        0.22898870768913376,
        -0.004786553028203078,
        0.08868098114885997,
        0.02822645687956471,
        0.16023193224258198,
        -0.025877350004447353,
        -0.1387758900686147,
        -0.044987186907504334,
        0.17274346356784598,
        0.006016790340885092,
        -0.2190619899167172,
        -0.22492257627742468,
        -0.1490246173914136,
        -0.03165829485288574,
        -0.1661840073088546,
        -0.0152909611211762,
        -0.17334435442430393,
        -0.20113943282445515,
        -0.21133385270804983,
        -0.11021006655979625,
        -0.2008483527585304,
        -0.15730753060625213,
        0.07246550723614248,
        -0.216417974979388,
        0.017805313463047756,
        0.15941931671462756,
        -0.04119972316737289,
        0.0523771831499536,
        0.0997194720360175,
        0.12352843098135491,
        -0.1935095747552588,
        -0.16402930669097843,
        0.19158983356140574,
        -0.06986480584554641,
        0.018650337694196384,
        -0.100962856845383,
        0.16512391030618806,
        0.07432672203907575,
        0.21091838531295942,
        -0.005301812825468294,
        -0.2163582812672072,
        -0.19527561444481867,
        0.12047106150856501,
        -0.018813419177881124,
        -0.0005413622857226297,
        0.15578015298987669,
        0.11234280214790215,
        0.0819152294505675,
        -0.054675337402109725,
        0.10883708432270406,
        0.03903773648870468,
        0.07579436241211324
      ],
      [
        0.20891361625831373,
        0.08439245744530771,
        -0.09269442315556856,
        0.07571965147999998,
        0.20543865411057882,
        -0.061807528313656934,
        0.21881802496495661,
        0.11059277140368645,
        0.10521143320195686,
        -0.10205996262591285,
        0.22731637724318898,
        0.12524837860308308,
        0.08597168685353479,
        0.012400179302208186,
        0.2157786600913279,
        -0.06757517698388393,
        -0.16949701547800525,
        -0.20063024822836262,
        -0.11542418030448472,
        -0.034116023702507825,
        -0.11055030012976982,
        -0.09764918211299209,
        0.16425691723241764,
        0.16950849998032486,
        -0.22188893589948622,
        -0.176921454848409,
        -0.025627380023150598,
        0.05818564110951119,
        -0.20029157766543443,
        0.21977476521511735,
        0.10007647384556201,
        -0.036008490758404094,
        -0.05106853930518612,
        0.01457596926465099,
        0.19128970232567738,
        -0.033399628216857186,
        0.11004539453641782,
        -0.17643410577224722,
        0.21324781628510903,
        -0.019669862457346976,
        0.07834773273883316,
        -0.013579822153750115,
        0.09410327260497858,
        0.18063698882523765,
        -0.1691969959528115,
        0.1284427206217409,
        0.07204521931826402,
        -0.06877809358355916,
        -0.022694605611371876,
        0.04213383422233569,
        0.15537088753947892,
        0.12310359551413391,
        0.042277311997126144,
        0.09252578550250506,
        -0.15180815241812573,
        0.010273023897233391,
        -0.11124164810926597,
        0.1354066710429782,
        0.14760806207198734,
        0.05482114944130623,
        -0.16842413944913975,
        -0.16047921576684232,
        -0.2311141595661331,
        0.16042469198222403,
        0.1671377013894506,
        0.14525067748330384,
        -0.03644213454914852,
        -0.09558555537715821,
        -0.13935349958960003,
        0.1401463044703627,
        -0.13438682736671037,
        -0.1554051461023031,
        -0.1507997676590474,
        0.000654006492714132,
        0.11723011170633563,
        -0.20464483285849214,
        -0.194134622897392,
        -0.050530819642070984,
        0.17603199690912202,
        0.04527052873033793,
        0.20662787170918684,
        0.04470591643231753,
        0.1623103479422402,
        0.20381761396028686,
        0.20292682381256205,
        0.12313169397335794,
        -0.04771816308201557,
        0.16457556483261582,
        -0.2061875901241179,
        0.09330870750657683,
        -0.06961980245911772,
        -0.10155619056069376,
        -0.12340522280436193,
        0.0758585209498841,
        -0.05823532375174184,
        -0.06625996712359628,
        0.09166577768807432,
        -0.07837688530915327,
        -0.185922979816134,
        -0.04633495193237824
      ],
      [
        -0.21130550336361903,
        -0.02291155907130571,
        -0.009755407050906106,
        -0.14272884414656983,
        -0.11748281847110126,
        0.04175640866647229,
        0.07460685402412187,
        -0.07620018976136386,
        0.22486218034662514,
        -0.13918574749951976,
        -0.12417958480522923,
        0.22151667042803508,
        -0.05608169429785331,
        -0.03457136910247244,
        0.1426937476672271,
        0.0019979944581746956,
        -0.020149157430059517,
        0.22965576277555627,
        0.22800818588335753,
        0.19977795854096952,
        0.19845655474036406,
        0.19845025616182754,
        0.0809231615267002,
        0.08136426349065434,
        0.01937132394053248,
        -0.024591985091619056,
        -0.1924058184069054,
        0.1392279115669739,
        0.07057839904982621,
        0.15768871419597164,
        -0.004059097261573191,
        0.17119163676629356,
        -0.041543536553441146,
        0.1452879067817266,
        0.1888446088225138,
        0.13258480979459802,
        0.22412465673923387,
        0.1733848516134297,
        0.19862991312728723,
        0.011918966918585877,
        0.1565220281481653,
        0.12824529911746368,
        -0.1742820673933687,
        -0.10676109254164665,
        0.20461399581066042,
        -0.011163666568861863,
        -0.035100700921674194,
        -0.04077579136829734,
        0.08910409856513735,
        -0.04965191132255975,
        0.07159798400128509,
        -0.16058071552973716,
        0.12980220256217007,
        -0.08214391555525319,
        -0.02455353108081204,
        -0.21752998614194827,
        0.1483850943510775,
        0.03611695213952576,
        0.027073351659099187,
        -0.2002926933164526,
        0.08898448660930153,
        -0.07197583831072493,
        -0.1400219542582748,
        -0.16600146343327749,
        -0.08684765277622516,
        0.11786321957861706,
        -0.16081081464689734,
        -0.22514369304864068,
        0.011967399471852491,
        -0.1546584342636959,
        0.20490238943959632,
        0.1087082077410611,
        -0.19577479684862883,
        -0.15976645876767986,
        -0.12592376639945546,
        -0.07410299332171946,
        0.02527807393384618,
        -0.18276250221906093,
        0.21954388295858662,
        0.03919690823379968,
        0.2034973371716131,
        0.05793497838680334,
        0.2200833096288191,
        -0.21990291148107038,
        0.13717789895283178,
        -0.06986007418946696,
        0.07664040025150498,
        -0.09086807706528305,
        0.09261361416164943,
        0.20072357999938245,
        0.097410560712339,
        0.18705717569729097,
        -0.14262502555695494,
        0.08585631257040743,
        -0.21332031126338324,
        0.08617872784116559,
        0.21085634545298954,
        -0.1530897685103738,
        -0.16554113030375917,
        0.11083392245704232
      ],
      [
        0.07972336713073602,
        -0.16354150371852536,
        -0.047792349550936086,
        0.20373807200112787,
        0.17382848630691672,
        -0.06556580154339484,
        0.15528743470328066,
        -0.12809359008024288,
        0.08817180904644362,
        -0.1662899852219452,
        0.12914854602796172,
        0.17851606182343077,
        0.19519399184635672,
        0.0918644692285901,
        -0.1634273055095135,
        -0.05745010889399807,
        -0.15436723807206248,
        0.11613618590431563,
        0.006136988948026695,
        0.05587727610608206,
        -0.08475726634542421,
        0.22135779532664668,
        -0.08846672098889882,
        0.215932561671141,
        -0.13840249458270154,
        -0.009950136695194983,
        0.02887260316569701,
        -0.11033019320822084,
        -0.13626140127475517,
        -0.1135149881593321,
        0.16879518229618162,
        0.06922963030929974,
        0.15268267443478545,
        0.07515633306824926,
        -0.07076858157660995,
        0.2093924855234136,
        0.20314471443545934,
        -0.13615209868970854,
        0.05768675857639832,
        0.11090441938913559,
        -0.15277254953404917,
        -0.0066054039044459445,
        -0.22459744096150505,
        -0.22438270582978798,
        0.025918036345324358,
        0.14553330584926727,
        -0.16255216447012366,
        -0.054279057952005355,
        -0.22558003043287542,
        0.06133252920843957,
        0.013402375718952114,
        -0.012386162592269212,
        -0.11626914924749392,
        0.17692681527710735,
        0.22064082344031272,
        0.08934550466404817,
        -0.2283447717276834,
        -0.09983968495332024,
        0.01386940169174311,
        -0.07488673709648958,
        0.07303398899144703,
        -0.1298780566973518,
        -0.07200928756598321,
        -0.11139823804574922,
        -0.19298337760642836,
        -0.03046838133436705,
        0.09881235896920432,
        0.14005316702674858,
        0.03207739469775234,
        0.06131008853188463,
        -0.1410288169022408,
        0.06078682284114123,
        0.03175949928418437,
        0.07155025853173097,
        -0.09008084417169365,
        -0.13343873048965357,
        0.2275851126431318,
        0.01127451810887134,
        0.15147202934695342,
        -0.2006987783211404,
        -0.08202673943439887,
        -0.1538146516064043,
        0.010263091354206694,
        -0.047938153445794496,
        -0.008684532773860082,
        -0.03888416977911496,
        0.041185794887147686,
        -0.10429564536883654,
        -0.15505314534130843,
        0.1415611368420177,
        -0.15109770102719983,
        -0.09236962708644275,
        0.05692302779023384,
        0.17264931109419335,
        0.08508840895653175,
        -0.1444771386264082,
        0.19015059595821077,
        -0.23002139572964844,
        -0.18972465021978382,
        -0.11970563057415269
      ],
      [
        -0.12048961185786428,
        0.18384210096524217,
        -0.23169607231562783,
        -0.16576506133195767,
        -0.16476241063192307,
        -0.16633196574518216,
        0.2061733145493833,
        -0.21774463085232051,
        0.15868275074983512,
        0.07349785197656722,
        -0.18287158701615158,
        -0.04472635468571021,
        0.17536311023170553,
        0.10531871490943095,
        0.17811873760745534,
        -0.016255093816140542,
        -0.01644129079086118,
        0.10982224104176952,
        -0.014486217417640668,
        0.014590914890869083,
        -0.08878247169402265,
        0.1749125308774363,
        0.2277039014564179,
        0.19014784329537482,
        0.11820973790704276,
        -0.180802221356624,
        0.06430464335059444,
        0.09627887151052528,
        0.23314797268970083,
        -0.22988715637621668,
        -0.028407861073868945,
        0.026543161890713873,
        -0.057968212709306466,
        0.1504873672788261,
        0.023218651963053838,
        0.08921591901659948,
        -0.08148143741301578,
        -0.1769261426318263,
        -0.03792224926619672,
        -0.21148327461718172,
        0.21603351272757165,
        -0.1343946775034121,
        -0.11952697465468738,
        -0.0893676114053148,
        0.20535707270195586,
        0.1610123431233324,
        0.00019941104061249604,
        0.14807973712003347,
        -0.009050733873515265,
        0.0896470618221692,
        -0.22169120476809626,
        0.22184197805675698,
        0.004760386620508872,
        0.12361837491580357,
        -0.16989678948348014,
        -0.12311310995635369,
        0.10389662536231159,
        -0.1465894357280601,
        0.20635922703992415,
        -0.0378744106142723,
        0.0457199813101265,
        -0.17986734513726457,
        -0.14008296807972287,
        0.007999725698262877,
        0.2092265676715374,
        0.22321799706673562,
        0.09984019303513153,
        -0.030205663077141065,
        -0.10603658582307146,
        0.11090182994358444,
        0.10178314232888064,
        -0.15967689664275742,
        -0.12205097781520216,
        0.041544785660999894,
        -0.060821240892823036,
        0.13993443498806696,
        -0.09423376374937587,
        0.11844353478410696,
        -0.07940977017468318,
        0.029336816756307726,
        -0.2019460333941074,
        -0.20251096118715345,
        0.08099014119266501,
        0.0341627587904606,
        0.16598475827155773,
        0.17017198777248543,
        0.1532949652082648,
        -3.4378231714149443e-07,
        -0.06378502195076502,
        0.22980048459580205,
        0.12574539370354737,
        0.134605662934474,
        0.2010261834578338,
        -0.07923803518210729,
        0.03539420748903033,
        -0.2088608849005073,
        0.16937033335690233,
        0.11083670575407278,
        -0.08995849957251639,
        0.09798783475231931
      ],
      [
        0.06256952649516112,
        -0.06424090463158902,
        -0.1394800772833041,
        -0.1232899081232718,
        0.19384710787490173,
        -0.12960810013534294,
        0.12703882681901352,
        0.061266100504537235,
        -0.132599784754425,
        0.08019976711237459,
        0.1843568955761682,
        -0.020908087427275318,
        0.12458445926085393,
        0.1926841104577675,
        0.14900108801920825,
        0.06851280775098645,
        -0.1465233852143637,
        -0.027935231538071065,
        0.048603992476561164,
        -0.19466286773635247,
        -0.2153422422419745,
        0.16567576917048837,
        -0.004911637302716876,
        0.2080274236874889,
        -0.17657930883538686,
        -0.13951719493156817,
        0.21331853220465863,
        0.018784721155318373,
        0.0006323431026926396,
        0.10685229158870518,
        -0.0698906451678154,
        0.03860949155947835,
        0.1848796230683324,
        -0.20756638022041707,
        -0.15794526495677086,
        0.05585775015183925,
        0.16223163962326093,
        0.1811946778898268,
        -0.09771794986771312,
        -0.07896089451705335,
        0.07788728156330538,
        0.05218674442689347,
        -0.07611634499271216,
        0.2023064284791184,
        -0.195338365340135,
        -0.14355961601754658,
        -0.03822658445085572,
        -0.16573750632781276,
        -0.1440037814670591,
        0.0981671608078547,
        0.03599844417805609,
        -0.04694480192763001,
        0.17454393912587973,
        -0.19504249259098663,
        0.144442810470855,
        -0.05882260730948846,
        -0.008817548453436658,
        -0.08925659783830533,
        0.020456188369527173,
        0.10253846844470055,
        0.08046211458412733,
        0.08762219215375017,
        -0.009145358428377964,
        0.20022982854912064,
        -0.18338465768089168,
        -0.08171626382466132,
        -0.038592671089691805,
        0.026853360204547205,
        0.17620084389024887,
        0.046855530941800116,
        0.1774055118546496,
        -0.053218875115566416,
        0.14321943498405115,
        0.03639775432366854,
        -0.1269484994648267,
        0.07178001413239771,
        -0.019399603734351345,
        0.019411771202213823,
        0.09909801189087797,
        -0.11693964891270346,
        0.06289508530364141,
        -0.11592206777401434,
        0.07259032977150232,
        0.05228406739504032,
        -0.01445869456728352,
        -0.23076321474206624,
        -0.1775167114305558,
        -0.21021956037568587,
        -0.10564101577509993,
        0.02979917463065712,
        0.09206958311993974,
        -0.06133223735848109,
        -0.0714054124565151,
        0.20283286997917144,
        -0.14161122865358905,
        0.1706136405940723,
        -0.022138751559423075,
        0.16202754074106862,
        0.022966657888733144,
        -0.13618655687476516
      ]
    ],
    "weight_v": [
      [
        0.080504857296927,
        0.036635883794439855,
        0.188912007846562,
        0.0015675265972507624,
        -0.14788697620040514,
        0.00857649775624647,
        0.14945607738904917,
        -0.05458945782776278,
        0.1716415465310092,
        0.14337241643726464,
        0.1208408493509184,
        0.16399894255950262,
        -0.14296058119551056,
        0.050029483365472444,
        0.0752040387999873,
        0.19752449382838258,
        -0.10562687711858952,
        0.11266532961211853,
        -0.041171389640311806,
        0.11778060770634827,
        -0.02076818899822605,
        -0.03733182570377658,
        -0.08357845639776038,
        -0.19107655832821377,
        -0.2020789334659261,
        -0.032964283743101175,
        0.010081098753241396,
        -0.18977333603008384,
        0.09533438305138667,
        0.12687795417349626,
        0.14616082649811166,
        -0.13655208532164942,
        -0.11694229705251111,
        -0.01659256060817285,
        0.07093568532713027,
        -0.10718553381856645,
        -0.05679810335578808,
        0.029259363923885257,
        -0.1799495623771506,
        -0.05305071564027683,
        0.006699436512157486,
        0.21254746227809365,
        0.15332835881359316,
        -0.18934186960475113,
        -0.05083873108452858,
        -0.09697688955604583,
        -0.1227294895805292,
        0.08042534230113926,
        -0.13774135916352787,
        -0.022044371351512576,
        0.04011610866992174,
        -0.09050174724905974,
        -0.16071799669252776,
        0.1262187873736024,
        -0.11620323614669863,
        0.042174891155698696,
        -0.06816041343660376,
        -0.15884350941513206,
        0.22149749857883602,
        0.2074765755151146,
        -0.1700931308031747,
        0.002125416171439465,
        -0.05997623029455523,
        -0.046570009751567165,
        -0.16015356253350413,
        -0.21891608907139581,
        0.03965208293851322,
        0.2207591747409232,
        0.08710794525763241,
        -0.13743791657581672,
        -0.160091655880294,
        0.01296340592383674,
        0.14804503244075476,
        0.16561449080969584,
        -0.17916328569341133,
        0.011121628511838844,
        0.1299945605935295,
        -0.05000539926127118,
        0.1432631352846335,
        -0.09290771451299612,
        -0.12137037740506959,
        -0.16920953430742253,
        0.152147589161757,
        0.027061375505282786,
        -0.21565619387735996,
        0.1100367973628926,
        -0.17149167443343846,
        -0.13078734355289856,
        -0.07705942694733162,
        -0.04505618208574702,
        0.11413576930315636,
        0.004426278893459951,
        0.0520204657214928,
        0.18207111529313172,
        0.02412217305002054,
        0.02262172260441811,
        0.10760784423306449,
        -0.05698433210977469,
        0.06941856796372367,
        -0.039305258198520265
      ],
      [
        -0.1242234934607794,
        -0.11975658274344216,
        -0.11881380551864157,
        -0.21409218953355014,
        0.05958367724855232,
        -0.1615989365811977,
        -0.17979811910895793,
        0.1477140875744922,
        -0.11402315773889464,
        -0.1303056723217047,
        -0.16697584645324764,
        0.020511003579771814,
        -0.1376660591432615,
        -0.07252001354755944,
        -0.17223043885272488,
        -0.06383037183160867,
        -0.2048097850334495,
        -0.005165931296588933,
        0.09028516197533096,
        0.04469034335736269,
        -0.05377487843738632,
        0.11937081051144574,
        -0.09741518644295019,
        -0.15570312107081904,
        0.04338158452696031,
        -0.20203268227283733,
        -0.17691447084805376,
        0.05032023397739413,
        -0.051667304652358914,
        -0.07431321995825096,
        -0.17915871637979755,
        0.09589830254747497,
        0.1817958216472398,
        -0.051415524961928555,
        0.2223197840334686,
        -0.15495126909005105,
        0.016762069962652365,
        0.054902346148016895,
        -0.004283327142898141,
        -0.17732388648346972,
        -0.14497033830861777,
        -0.07924532777690527,
        -0.2030006680596388,
        -0.09097712551266876,
        0.04839769852874812,
        -0.12010231915622553,
        -0.0865848162788051,
        0.17763155282907175,
        0.15671274265579407,
        -0.00088789621078042,
        0.20907233990754467,
        -0.021222601144122666,
        0.10001052301519939,
        -0.08102016710194668,
        -0.015691264494234497,
        0.14288776657943966,
        -0.024149256571498384,
        -0.09200527633392583,
        -0.12387730559286327,
        -0.07094945495996371,
        -0.055094622756827,
        -0.19452001483836825,
        0.09903997237930237,
        -0.0963683686514882,
        -0.040335224675923514,
        -0.03605194964025274,
        0.10161320576010088,
        0.16669813411164766,
        0.0303716338025716,
        -0.18288847309668255,
        -4.039856562529365e-05,
        -0.19294286023503376,
        0.03455114394285205,
        -0.05933142852625989,
        0.1705400937904655,
        0.18259190472794443,
        0.00023410700612438995,
        0.06948612565328496,
        0.021141338760417877,
        0.1288719170865932,
        -0.06269527260939306,
        -0.006577368337915723,
        -0.14964538267774868,
        -0.1294005339177197,
        0.16355863043327265,
        -0.06658303645410033,
        -0.1532537365498307,
        0.18279242043034014,
        -0.03799379099384689,
        -0.1718907717111585,
        0.1811138324382783,
        0.13433027767335573,
        0.05253122036298288,
        0.19671390161260802,
        -0.17395453948028844,
        0.13462703504496074,
        -0.12620429414998416,
        0.14106616605342612,
        -0.11575884321291403,
        0.13082929931862405
      ],
      [
        0.08203217504541241,
        -0.21671583010918674,
        -0.18210663054726633,
        0.1718357636288159,
        0.09367852531700585,
        0.061996507776632764,
        -0.05700959273415662,
        -0.21805044380951422,
        -0.12338441024711753,
        -0.18128723090197238,
        -0.039788859280366545,
        0.14555081199656475,
        0.09139985153178834,
        0.18248094675888257,
        0.0844197555569706,
        -0.20462482563108947,
        0.16237433932273979,
        0.08121587978765957,
        -0.12280878474648778,
        -0.10456707249874134,
        0.035675932870847,
        0.043476197738271244,
        0.21187585484472202,
        -0.09288645626368663,
        0.14803507027218668,
        0.14206477309524232,
        -0.02697019405283127,
        0.07653133214241606,
        -0.17313539280366824,
        0.10908035285604586,
        -0.1939296265051314,
        -0.16245740136273948,
        0.08986725753539046,
        -0.09867768308243739,
        0.16213072685592364,
        0.13317552079313025,
        0.0478075325694767,
        0.14088711508776594,
        0.04481131649282191,
        0.06482847366057923,
        -0.02226948738909973,
        0.16117562140881972,
        0.0835610421649439,
        0.06956409416626577,
        0.03514136328800435,
        -0.025132273020652518,
        -0.07355015381658114,
        0.02477340395039243,
        0.01831524744963209,
        -0.15662323650114085,
        0.1262186369625206,
        0.21721113768600223,
        -0.15346971622441435,
        -0.13828910154872653,
        0.02899249279205371,
        0.10553827297103427,
        -0.20167813319024683,
        -0.12115338918573743,
        -0.03933138000240857,
        0.20948456205841073,
        -0.048029204642100365,
        -0.0421480654527035,
        0.09543661698962988,
        0.021093230101735416,
        -0.15183542216191048,
        0.1729832839122825,
        0.10676333582240746,
        -0.06695214498138533,
        0.0705140012215558,
        0.10763368411521415,
        -0.13286953894530074,
        -0.14618462106299304,
        -0.045878399914332235,
        -0.09910161888383184,
        -0.034833512038376424,
        0.025873433059092232,
        0.13290766833913056,
        -0.17433323859976735,
        0.18776223876722645,
        0.08694598366563541,
        0.06234133381480508,
        -0.05130226025404355,
        -0.12135403808814645,
        0.13804129008486712,
        0.21356069916441792,
        -0.17872081175457083,
        0.04095199386250484,
        0.09239116721747662,
        -0.04921881323524574,
        -0.0216640177780619,
        0.06365676994061523,
        -0.09357860590945027,
        0.10002193290082054,
        0.11384044705182264,
        0.13606359768060886,
        0.10408118196221491,
        0.20185333283037846,
        -0.04217165236709622,
        0.21006561364899848,
        -0.0431447333533137
      ],
      [
        0.1592579073342367,
        -0.2132425486887216,
        -0.17112854807529265,
        0.043253668604491174,
        0.20308738003468682,
        -0.038894752100850166,
        -0.16371002639291932,
        -0.018474788195326913,
        -0.14800851175119667,
        -0.04817827238177119,
        0.05571995666644122,
        -0.190294800517413,
        -0.1586914971188701,
        -0.19868963693196964,
        -0.10504681261853979,
        0.16440181043015337,
        0.1320693379698414,
        -0.04530998049499993,
        -0.1828201374322553,
        -0.027952391799739545,
        0.11429752133543716,
        -0.01567256095480582,
        -0.12608293103388168,
        0.04299382002172855,
        -0.055947670771695296,
        0.20754583659583234,
        -0.1223184334818148,
        -0.09435944266420551,
        -0.09594865455846366,
        -0.03831964916930525,
        0.07282534108390357,
        -0.20334824885096422,
        -0.19120863103248317,
        -0.07943040531530485,
        -0.053946618805427116,
        -0.1936951352116962,
        -0.16877140658626746,
        -0.004785682911582545,
        0.09225837177734739,
        -0.014970514285380015,
        0.1739223555135134,
        -0.0720811524512992,
        0.03832647887780424,
        0.1623989841091358,
        0.18133463336074,
        0.20234944418740333,
        -0.15244193637911585,
        -0.1426767465260319,
        -0.0986923100726985,
        0.18577022555297681,
        0.13498452064789798,
        0.04036746330142457,
        0.17537512900165084,
        -0.2122389864834046,
        -0.19744308739262248,
        0.19184190369381823,
        0.17406773375723647,
        0.08375907351235393,
        -0.0329471926820423,
        -0.02596496857725128,
        0.1668189707962219,
        -0.13407168812011197,
        0.21592066057509043,
        0.06922798499341096,
        0.0270052920807696,
        0.0502809196586366,
        0.03888409954745073,
        -0.0418539096731137,
        -0.1528098264006382,
        0.09114581754017684,
        -0.007576220436596892,
        -0.03473805332388055,
        -0.10401921398314252,
        -0.03043321881352959,
        0.10327818953470022,
        -0.0013368373237731268,
        0.10945350271958684,
        0.13953606628289097,
        0.009640443084057704,
        -0.10059612779106629,
        -0.07602107037300346,
        -0.13105420161111178,
        0.16129125528792307,
        0.01406087653141394,
        -0.05014555712935917,
        0.19645712488944003,
        0.09973353942743526,
        0.023489960100725182,
        -0.0697426548309785,
        -0.06555307577933583,
        0.06405793774396165,
        -0.16938026259877145,
        -0.11862826265105376,
        -0.1494106848822263,
        0.17941037725710843,
        -0.12361609527942591,
        -0.03131112606900849,
        0.010383348392195763,
        0.07245868604969644,
        0.19046788455897998
      ],
      [
        0.0014644355199933123,
        0.05297372394626185,
        0.02785437713028291,
        0.1082063544201918,
        0.02199310428125556,
        0.022442139071815304,
        -0.1564163349222515,
        -0.04941833784467814,
        0.16137256378169298,
        0.14602406255886122,
        -0.19220703487273827,
        0.05354118523362886,
        -0.08879953087331563,
        -0.15073804366280164,
        -0.13461256915262715,
        -0.014470618504295235,
        0.18943720891304197,
        0.13423731690245563,
        -0.20556117421729586,
        0.10345675575323307,
        0.21866662821384522,
        -0.04847693428249589,
        0.020769122451296307,
        0.045822983069030515,
        -0.20143103898573636,
        0.11635040569381869,
        0.061970709473829405,
        -0.14167814671889103,
        -0.154535239893574,
        -0.11905156849343117,
        0.15467776327458668,
        -0.03487176575292489,
        0.04020631562762886,
        0.07059498320539401,
        -0.030510345626354768,
        -0.10793773949234335,
        0.15277466349203153,
        -0.20370097037640858,
        -0.1221513340302994,
        -0.044758236632305104,
        -0.10648575860795206,
        -0.052906708510319894,
        -0.18330624852992888,
        -0.05574084907600249,
        0.1175726038463881,
        -0.11499234582884615,
        0.09400094205985818,
        0.09972939755641955,
        -0.11308705118291255,
        0.20295309000447911,
        0.02261777626278813,
        -0.13090239003166515,
        -0.09637841359241037,
        0.03520666321532703,
        -0.06385776691254691,
        0.21535541376173864,
        -0.15425774463584296,
        0.18345348761847816,
        -0.14685051445330982,
        -0.0041724822095865755,
        0.10706934424748563,
        -0.15308121290795296,
        -0.167423163461129,
        -0.008447169813469824,
        0.09428975747570348,
        -0.08566431853320322,
        0.10643162507505563,
        -0.05200094165805666,
        -0.16494027852261603,
        -0.12743937331820399,
        -0.22135382100201564,
        0.18315566841329226,
        -0.14968329165109145,
        -0.12963399974227124,
        -0.017932281867223065,
        -0.014546175245487458,
        0.08974764558458695,
        -0.014493133185913998,
        0.022883585985372018,
        -0.20491191494506814,
        0.11166845223633906,
        -0.18088847722066523,
        0.00304524181436977,
        0.031839472995190715,
        0.15780258606519768,
        -0.05631102394950252,
        -0.21331206726796512,
        0.0607305486680553,
        0.02107625271037361,
        0.13447240585579076,
        0.21277772313421858,
        0.18861742361997322,
        -0.021500654542866954,
        -0.076757911211433,
        -0.0536327768718424,
        0.20133637800098195,
        0.16393486337976634,
        -0.11544022445658035,
        0.0690227336143597,
        -0.10563059143804761
      ],
      [
        0.023797760906681203,
        0.155646930359662,
        0.09478999147941145,
        -0.041098138674116796,
        0.013772932359134599,
        0.056016665251493375,
        -0.14262689838859816,
        -0.13973701021229568,
        -0.1759052490462094,
        -0.04496055531976845,
        -0.05587012795414989,
        -0.20016576318337315,
        0.028112789537346333,
        -0.2021002212591599,
        0.04392222797385306,
        0.01911648577470587,
        -0.03510828663907192,
        0.0070115997641869154,
        -0.1685608342526225,
        -0.18434853193127626,
        0.208932987424123,
        -0.05637592963745808,
        -0.15664628682877887,
        -0.08805126043040595,
        -0.22159876187633573,
        0.18559614524975562,
        -0.15436429896384002,
        -0.02656995402499865,
        0.14132028027594953,
        0.12054394068206195,
        -0.12615032497489195,
        0.08886998130321347,
        -0.15842925157696122,
        -0.07174779052145944,
        -0.14570188887438554,
        0.08154194329815348,
        0.029700454439872154,
        -0.12766757653515387,
        -0.2001827897034509,
        0.07441324863877216,
        -0.11557850137302007,
        -0.007685530071188884,
        0.20979219659703965,
        0.15038770274867244,
        -0.1258637507416014,
        0.04696983050409689,
        -0.19596626427950198,
        0.08000328058402209,
        0.05091463550214512,
        -0.07200405210390268,
        0.023920331243123205,
        -0.20709607916534034,
        -0.04391217651689533,
        0.12200243667287317,
        -0.1707220887040286,
        0.21308070276586985,
        0.019743774762386868,
        0.22025008612844818,
        0.09775569735216713,
        0.18046019805358424,
        0.16975231278092587,
        -0.14223821000459946,
        -0.012350831246266208,
        0.026432504120842887,
        -0.18775422467957212,
        0.215967304602148,
        -0.056372231574185305,
        -0.1371600030853345,
        -0.07251958011733964,
        0.19872706483162164,
        0.20974303030582933,
        -0.15543690441385746,
        -0.05194586482695382,
        -0.09278179497046757,
        -0.012506632082893543,
        -0.005275476622003672,
        -0.08158472883703088,
        0.17079683006674132,
        -0.10140949362070746,
        -0.05655524698660849,
        -0.07212374138994332,
        0.07068202181517722,
        -0.030392397426306145,
        -0.1343534517051665,
        0.06706147132358051,
        0.1508777814057423,
        0.13026996560350515,
        0.2142192046255069,
        0.01969785242999822,
        -0.20284092333451278,
        -0.025128846754254947,
        -0.2153022398265582,
        -0.10587030412796017,
        0.1622428847285863,
        -0.2044171025204816,
        -0.10574513094852264,
        -0.02321979681686745,
        -0.05203427101249397,
        0.055679386424048655,
        0.16053712012863366
      ],
      [
        0.21569970250871381,
        -0.07681380155193493,
        -0.10301335045407929,
        0.06887952995574179,
        -0.04184212083776048,
        -0.14207005076279516,
        -0.04063875130980499,
        0.22176484973599056,
        0.20214833362889126,
        0.006916911725530606,
        -0.16309304687525095,
        -0.21315140804091595,
        0.14707953343012278,
        0.11225422959220563,
        0.17900362671130085,
        -0.13197646396995463,
        0.19394969386775554,
        0.036711442920831366,
        0.14969688155963615,
        0.04036885322040909,
        -0.10991776767322094,
        -0.18499361121116464,
        0.12170497052254822,
        -0.1417190865593161,
        0.037986924237665115,
        0.05004287523216008,
        -0.21060755718014404,
        0.21502989107955026,
        -0.014182413065469301,
        0.09412939217388669,
        -0.09298217104679202,
        -0.010910189519831553,
        0.07573841638530979,
        -0.057416292223457954,
        0.13220889040850678,
        -0.12940917498363863,
        0.038991025376367366,
        0.09551614486810225,
        -0.18713056541469225,
        0.05807661965610375,
        -0.04489016030514473,
        0.20843028751779705,
        0.06324690138316955,
        0.10525265092243943,
        0.006925171169082978,
        0.14594227253446193,
        -0.10650490013641357,
        0.0791078587209588,
        -0.06332247697910534,
        -0.1233243424901895,
        -0.01250542703986357,
        -0.022281783723716253,
        0.15426029529576193,
        -0.14367583899661512,
        0.08852633827680081,
        0.2026327890102538,
        -0.18566036832942256,
        0.012016128386919206,
        0.10273102526473474,
        -0.15069476217075406,
        0.1229283690269786,
        0.07345263201464705,
        -0.0318996688761827,
        -0.048062628230144566,
        0.14309785988789317,
        -0.21178430341804946,
        0.13054413487360592,
        -0.1376733520091415,
        0.03425783621083153,
        -0.17916777716169674,
        -0.012304412162029321,
        -0.11613228730015224,
        0.20395699986447,
        -0.05854124364580171,
        0.10820046566493077,
        -0.0015471357943141473,
        -0.11443312931665994,
        0.04435520460568124,
        0.0637446570819449,
        -0.020449546315073924,
        0.04836098548032111,
        0.20192764800484406,
        0.024568226491853723,
        -0.10381343334872853,
        0.05029985007706547,
        0.07461822255380093,
        0.16597350042853973,
        0.1157645752361656,
        -0.021367260274410577,
        -0.04968915668279,
        0.021544511062467547,
        0.15654715704700808,
        0.11606383715659815,
        -0.04732221072939746,
        0.10054218085871733,
        0.20604285919608187,
        -0.10104876341606185,
        0.15602868280581603,
        -0.041718326913675746,
        0.17170516459592736
      ],
      [
        0.02543219509360095,
        -0.029164080867758096,
        0.18859762052423704,
        0.19148776913196205,
        0.015802431493567637,
        0.09861749594710675,
        0.009675006088371824,
        0.1524041088029449,
        -0.023438306175246254,
        -0.15984763051493678,
        0.04737868755522959,
        0.10785445063229185,
        0.11129481222921364,
        0.12237761437116165,
        -0.13471310938335312,
        -0.22047197987216224,
        -0.10163903674896864,
        -0.15043194895309908,
        -0.12141866954484039,
        0.004893605215070124,
        0.10627636711838614,
        0.10705559168590276,
        -0.09693905410753018,
        0.12221365076292015,
        0.16045368006359748,
        0.16094714877959929,
        -0.10671904291471809,
        -0.0747156923582068,
        0.08373503899031357,
        0.011240442368756681,
        0.18293403439201747,
        0.08286425608255779,
        -0.186426118551011,
        -0.16140734260011602,
        -0.217687782613636,
        0.13985916821496022,
        -0.07632471239192298,
        0.07719859139700067,
        -0.05851101258325592,
        0.01861401552622835,
        0.18274626996801677,
        0.13556990101303065,
        0.1606491079933434,
        0.013567548376473948,
        -0.08480545964107411,
        0.18322895444502155,
        -0.04049025698706599,
        0.08772777323572781,
        -0.008834152902481851,
        0.17744760512249727,
        0.07095052543710148,
        0.2110002210394847,
        -0.016346085703911134,
        0.2114967049555391,
        0.004271461793365072,
        0.2024036725598933,
        0.03792980112586494,
        -0.06328828810545062,
        0.16127837910649487,
        0.052325952369880774,
        -0.06321095215053565,
        0.05184333065592647,
        -0.04804561950134581,
        -0.16513325471127704,
        -0.18043695041049446,
        0.10731702866129442,
        0.12079813936147624,
        -0.20552467157730644,
        -0.1421059992147353,
        -0.00746827521379384,
        -0.023545671356275638,
        0.13088434706081895,
        0.14045976080653014,
        0.18079655368596295,
        0.08869818130827314,
        0.008586562662379948,
        -0.1790953066590399,
        -0.17264221272347602,
        -0.09794500041355489,
        -0.16793030363594827,
        -0.1375709930277142,
        0.2018583293579769,
        -0.19828733005514743,
        -0.01523331500787875,
        0.11685850492940167,
        -0.11292084699335678,
        -0.031096946637591966,
        0.17355035561789509,
        0.18983450829630164,
        0.1050001753425727,
        -0.14033196007084933,
        0.028480937008901613,
        0.21839367864814488,
        0.15514661279866346,
        0.21495173964272354,
        0.2124735003123436,
        -0.17885954631408613,
        0.1042118812924129,
        0.21119450932760417,
        -0.19494472158877385
      ],
      [
        -0.136626581983885,
        0.17142655082340788,
        0.003985442687571561,
        0.15888095271240396,
        -0.20759175867894847,
        0.2197867407486149,
        0.012904829057241995,
        -0.08281960150525561,
        0.07529883554068809,
        -0.13824044889001663,
        -0.21503895391324424,
        -0.07889418787663896,
        -0.004713324144412251,
        -0.1540355756028465,
        0.10571215773607565,
        -0.15211654031228128,
        0.19557188579634013,
        -0.13240479520525145,
        0.005934481278764198,
        0.0015181779814800733,
        -0.21114155300164542,
        -0.05379571156561741,
        0.022767719233865807,
        -0.03146507596308293,
        -0.19955385553700888,
        -0.06818868665536304,
        -0.21963892036058583,
        0.0925575411171595,
        -0.022594644331665026,
        -0.16722434166356,
        -0.1630928741914279,
        -0.18038624164215344,
        0.05351839671835093,
        0.2133953172649046,
        -0.13287915144189172,
        -0.09153280391674232,
        0.026842610130779238,
        -0.18935543736035823,
        0.1893658255766876,
        0.03557857834376263,
        -0.12533970456506838,
        0.09572940810054079,
        0.12289535380161384,
        0.09494274534930883,
        -0.15823549234380602,
        -0.07594173481901409,
        0.04197649817055074,
        -0.05243943178609842,
        0.08861163380305573,
        -0.19947839086250854,
        -0.01117002417155638,
        0.09533662510982702,
        -0.10589124155328805,
        0.21540716090237408,
        0.08685680548182359,
        0.16878681886074628,
        0.062105886493967616,
        -0.06390030818391951,
        -0.04520656041330692,
        0.18776134075429693,
        -0.02941762940239387,
        0.016600424050469048,
        -0.09686457156807249,
        0.22115628686373093,
        -0.1385869197079418,
        0.0998086218104686,
        -0.09825382378229272,
        -0.007920766456319228,
        0.08155544630039033,
        -0.023838302128896482,
        -0.1801065193597593,
        -0.15306758556965505,
        0.05627479903399554,
        -0.1758512063715874,
        -0.08698555928695936,
        0.017844383462282676,
        -0.04175045783138992,
        0.0378404016078229,
        -0.07964931769554354,
        -0.06067054026797397,
        0.1602728286034362,
        -0.07098417381358738,
        -0.09106170521009901,
        -0.036100855420177685,
        -0.1698559127933405,
        -0.13078862946053021,
        -0.10625384351476136,
        -0.021155902697562012,
        0.02461522300170227,
        0.038134740312632504,
        -0.06410997722619327,
        -0.14948293311313432,
        0.19400169944829995,
        -0.04980226457459963,
        -0.11581691157739062,
        0.050180382160718934,
        0.07090090873685342,
        -0.1099064238145222,
        -0.20021053087643279,
        0.0724652333669851
      ],
      [
        0.19270917434858056,
        0.10772957636703004,
        -0.14142236321029683,
        -0.0958487484833272,
        -0.05322457631589317,
        0.038008006684653345,
        0.02978491422908705,
        -0.023989821671394573,
        0.036651015676533366,
        -0.054082027607609634,
        -0.22159658160224618,
        0.1507738187585729,
        0.1841695847601876,
        0.1251706732773575,
        -0.13247357642029284,
        0.1100706493172541,
        0.009017186200246635,
        0.0984724076559669,
        -0.045218701359174496,
        -0.20397789120569182,
        -0.14630282556265078,
        -0.1562873694758262,
        -0.1604438076954653,
        0.1665910751075095,
        -0.014344544628626554,
        0.06775224125372456,
        0.01273884039753373,
        0.07570599545017329,
        0.2227299545934693,
        -0.14558448509007543,
        -0.18004626019202113,
        -0.1507161712072127,
        0.04036207200075573,
        -0.059016923133710486,
        -0.218369703424925,
        0.09347663737137299,
        -0.042250432748684896,
        -0.03450246251875086,
        -0.0843196812069179,
        0.08228208789312677,
        0.008003404430762362,
        -0.10470973593698339,
        0.12886999266352359,
        -0.0273910789430529,
        0.20422489554566445,
        0.04652789952140138,
        -0.1650289081677273,
        -0.005087881371758474,
        -0.1383479920413796,
        0.1379163288387433,
        0.1921646026830842,
        -0.12384801595707605,
        0.18749323799364695,
        -0.11310826629086655,
        -0.18435481960341443,
        0.07081196327143721,
        0.172146928252197,
        -0.030276350281278952,
        0.14708582815541152,
        0.2126139375321253,
        0.1084937326501976,
        -0.1288647334693227,
        -0.040381671864460456,
        -0.08102622048612648,
        -0.08165101291440496,
        0.20654497537484232,
        0.012614412101556588,
        -0.18240316080532587,
        0.08925801082659726,
        0.21166865168050628,
        0.10506363011946032,
        0.07285908973117558,
        0.10873738025833826,
        0.12084349602943281,
        0.021911763632682935,
        -0.047610084574054856,
        -0.15080954789044104,
        0.12493004297347157,
        -0.0722420891905853,
        0.09737347651254705,
        -0.10243952775100874,
        0.1543595254318216,
        0.1421617940941917,
        0.06259274050269689,
        0.04132966697430632,
        0.06308252230485092,
        -0.027083331871682076,
        -0.047292209829555176,
        0.18197276922797848,
        0.10702799929312415,
        0.21152142160372536,
        -0.07031883712302414,
        -0.06813300809117812,
        0.03902025274718954,
        0.09878789669439,
        -0.15191838304510463,
        0.1274147420336709,
        0.20502767360304494,
        -0.10579940575453355,
        -0.16535124687386496
      ],
      [
        0.006743281733760292,
        -0.20100566972734668,
        -0.017365524708617602,
        0.17800428543579497,
        0.2058085920827423,
        0.17955642033711353,
        0.14245132998613377,
        -0.1215138081157772,
        -0.002338625892031293,
        0.20910152023654846,
        -0.016785787643283923,
        0.03626504665729555,
        -0.20947905534438283,
        -0.18916005821201404,
        0.0949341386598139,
        -0.19609839905090554,
        -0.09626129917568793,
        -0.1993843824055823,
        -0.17049629690104057,
        0.04474746675254063,
        0.014214697822447026,
        -0.08677643636122168,
        -0.1760935150373144,
        0.1270457437445209,
        -0.20387193851220514,
        0.00873237624136633,
        0.02101236238881507,
        0.19749541611092733,
        0.19185807957774267,
        -0.16451530679759527,
        0.038613239386500825,
        0.14709903626642687,
        -0.2182829852552039,
        0.007965353610846382,
        0.19546309897825506,
        -0.12750044858151816,
        0.21611010261922473,
        0.17746945742764406,
        -0.0902850606381636,
        0.12616619330312842,
        0.18522154526045762,
        0.12711309487034808,
        -0.04623021489238699,
        0.006294827171727246,
        -0.09246573673961991,
        0.060800297235251516,
        0.013460186398513596,
        0.06773049366708864,
        -0.09943970969594502,
        -0.08288291791440688,
        -0.07535994867405577,
        -0.033678155042148855,
        -0.17399309044211772,
        -0.016286574526218955,
        -0.03371082152450178,
        0.1257152945829462,
        -0.15620897566839226,
        0.191946618930964,
        0.06077589985344464,
        -0.13212101812463664,
        -0.1993278426400195,
        -0.13522647808175148,
        -0.16899854729230304,
        0.11817371167540094,
        0.05058789794818161,
        0.13018947991277732,
        0.0556761027913992,
        0.20307457116185348,
        0.04222379957471503,
        0.031043257468487268,
        -0.1527130942647592,
        0.017325432822916847,
        -0.12289661729962569,
        -0.20195663836194888,
        0.024594646094220796,
        -0.10900654141258849,
        -0.1755421718305109,
        0.01461776752725602,
        -0.1826756185989043,
        0.10373385415560696,
        0.17823840046894082,
        0.08050241000422168,
        0.09861243674981165,
        -0.20823845410948047,
        0.08939009448552218,
        0.17456977353052702,
        -0.06722679508431448,
        -0.08543999604902014,
        0.02303049467977769,
        0.12368342097283233,
        0.08702061919703638,
        0.0742898538873861,
        -0.06801467642736458,
        -0.02970962039963565,
        -0.15929284957194564,
        0.20270245324029076,
        0.09976801484487893,
        -0.20592106395697046,
        0.051078725386682816,
        0.20879908279828588
      ],
      [
        0.03992190591862374,
        0.005081152114999182,
        0.124296365317377,
        0.01620820484014296,
        0.05875536619059871,
        0.04647815591555318,
        0.11288431838421722,
        0.07510020230687267,
        -0.10403013417756687,
        0.11044236042143049,
        -0.21248489076187668,
        0.1538105699307434,
        0.17803217176666494,
        -0.03051385411196525,
        -0.2011106978342549,
        0.011072922593123702,
        0.20561093325947047,
        0.05211695029274985,
        -0.05215506843201184,
        -0.07558948911826854,
        0.07005215968045167,
        0.19351323271340912,
        -0.021315601411651897,
        0.1591480653723866,
        -0.05228643641437414,
        -0.04887695026791733,
        -0.010173051639805447,
        -0.11496287092894877,
        0.036570405102240494,
        -0.05612639868518901,
        -0.04930683731909599,
        -0.15307732546119096,
        -0.14756833440732037,
        0.1163697176388874,
        0.1892659482007276,
        -0.021644057625092944,
        0.21389905599630124,
        -0.04929774123653738,
        0.02950743011471499,
        0.01960917717344124,
        -0.15517671443671183,
        -0.11317959857625173,
        0.019269531125914674,
        0.17402303314359022,
        -0.05702596651472039,
        0.006423669118750752,
        -0.22067677052179605,
        0.15657153782727565,
        0.03571963402027653,
        0.05313601130942605,
        0.06546986161849996,
        -0.17974985307907454,
        -0.2108985117783584,
        -0.20428286528537187,
        0.043251688286379736,
        -0.10273818127586822,
        0.09166618497635556,
        -0.13048588437095587,
        -0.07231457054705151,
        0.1286691288397074,
        0.10072727768785913,
        -0.020544846716309878,
        0.1065790839740017,
        -0.09905040782545123,
        0.03402718700839244,
        0.15304471241730253,
        -0.09890643064165294,
        -0.013616977760683463,
        -0.05519508514715085,
        0.06114104534898138,
        -0.18690330178694434,
        -0.006122377337497764,
        -0.07600242441488872,
        0.20355482143910966,
        -0.044965649824206255,
        0.031798488754057525,
        0.02137138878862002,
        -0.025354307397352588,
        0.1654109069252366,
        -0.14811932662876715,
        -0.12881662972914462,
        -0.19565396918263167,
        -0.16268227958833031,
        0.19369679437560564,
        -0.05586165086810754,
        0.1780733736594998,
        -0.03386406246562912,
        -0.15809392018683602,
        -0.09325881586615933,
        -0.09453479144952695,
        0.0035129004598061786,
        0.11707203111376127,
        0.0014070388953846547,
        -0.14377240314403478,
        0.06034989088051604,
        -0.027671353122619896,
        -0.0918356351051261,
        -0.00023044638260227845,
        0.001056499081759421,
        -0.20134193988334706
      ],
      [
        -0.21516124086456723,
        -0.1783101706796654,
        0.10834168794126056,
        -0.2118844863926625,
        -0.09298950895888458,
        0.07884949695727114,
        0.04952267246394906,
        -0.0820057861946811,
        -0.03497139024996476,
        -0.13509423326585307,
        -0.007485898309026906,
        0.03212306869816953,
        -0.028791024982137398,
        0.16844498019981727,
        -0.03846791157547633,
        0.21880650184487935,
        0.120045723314634,
        0.011426453724490193,
        -0.1346022320350644,
        0.027319150728540714,
        -0.10720775159903558,
        -0.0034486598541574043,
        0.19606131613942648,
        0.10390594551533269,
        -0.051328184804881355,
        -0.025307857255318256,
        0.16389344831494548,
        0.13619509513734826,
        -0.04102922363321848,
        0.17724632016338446,
        -0.014059738856880555,
        -0.13090774383353448,
        0.06814412145517204,
        0.056705851335488194,
        -0.20138551027557913,
        -0.00647241248924918,
        -0.0421945547801616,
        -0.12717058345200466,
        -0.07363251928312167,
        -0.06046260654172475,
        -0.03645807414816607,
        -0.06961947892789519,
        0.038065335871515255,
        -0.08401378941021617,
        -0.13703934205711293,
        0.22209733384909827,
        -0.10115619940569782,
        0.07600494408932182,
        0.015043354613561044,
        -0.043620097838751704,
        -0.18918852814569456,
        0.028896171235472418,
        -0.07961666091425898,
        0.13782747544937715,
        -0.07972622642133409,
        0.08490406279356852,
        -0.20390676589140141,
        -0.04739143284181124,
        0.035891513420037185,
        0.06619152881900228,
        0.05983070554963779,
        0.10985167867914883,
        0.15212596919376817,
        -0.052507277650466117,
        0.13559348812553754,
        -0.16103075285999152,
        -0.0410292807838013,
        0.028734385687726266,
        0.2069358102152188,
        -0.034776246778664394,
        0.2077452251960162,
        -0.21377942272969624,
        -0.07061342475038879,
        0.14986207155394207,
        -0.15080808151989178,
        0.03330108642121807,
        -0.0938153759093718,
        0.10975859882708025,
        -0.012375835559737952,
        -0.018810411507476726,
        0.08011480659172218,
        0.05393803115183418,
        -0.10736957477847331,
        0.19796262793796712,
        0.1938294840378497,
        0.003006181379754669,
        0.026753923808530894,
        0.14402353501611806,
        -0.09102350419653771,
        0.048534103928268374,
        -0.14758261416243174,
        -0.18710968554808194,
        -0.15835195572109384,
        0.03729285063419982,
        -0.09564972074736228,
        -0.08360085173180176,
        0.15163982550674746,
        -0.03092318742589331,
        0.06251837093864884,
        0.18320809717542255
      ],
      [
        0.011261064847605001,
        -0.19777637660888897,
        -0.08545599660745051,
        -0.20515681611385167,
        -0.18140920910609137,
        0.18060281651515345,
        -0.04565598068717136,
        -0.10279792252320927,
        -0.09357973384355242,
        0.06663371856629371,
        0.00908044730720714,
        -0.06305872760116521,
        0.00040370560821037516,
        -0.11436975997081465,
        -0.10699136711518496,
        -0.21409694418306016,
        0.18070237471033143,
        0.13707229701551835,
        -0.037804410512731146,
        -0.197229186557193,
        0.12702642772583797,
        -0.1529595399618393,
        -0.016239557032598884,
        0.08269058654314768,
        -0.15578072483175648,
        -0.09083376674476706,
        -0.180127159380492,
        0.21322561614794375,
        0.04657432922666535,
        0.07632154796166599,
        -0.0989421610928014,
        -0.12532109608737668,
        -0.11161144480548119,
        0.1618565634750951,
        0.09695434613608353,
        0.1751697196606515,
        -0.10474532267631544,
        0.19635247429341116,
        0.079771990074646,
        -0.07132147723148474,
        0.2200380373476288,
        -0.1027935631006131,
        0.20410543172203974,
        -0.04889370508025162,
        -0.030288698404021375,
        -0.0043700048013573245,
        0.014082355942846042,
        0.21983112240507455,
        0.1099039311043116,
        0.020239784610758177,
        -0.004853161178953208,
        -0.009187527087120506,
        -0.1127763489279233,
        0.03192021937732656,
        0.22210138925363856,
        0.12660333505544827,
        -0.050301320977250014,
        0.11494952830335922,
        -0.012285836272261097,
        0.20454270110077757,
        0.21156158283353546,
        -0.05254187072258121,
        0.20277619987201503,
        0.06237054459389493,
        -0.012312490069617432,
        0.13514738890573333,
        0.21259195095461939,
        0.0002515489284460881,
        0.1614449316552838,
        -0.19236699309045996,
        -0.003104831326598251,
        0.05419963399155989,
        -0.18962615585075737,
        -0.13654135388954536,
        -0.19720387327170727,
        0.15477960915780084,
        -0.16719460915878498,
        -0.07403714609788503,
        0.19347701087794186,
        -0.00855142174154161,
        0.11611835238466597,
        0.03242859370420556,
        0.05629574911779642,
        0.20524118524994853,
        -0.04001582536034132,
        -0.15386250912165822,
        -0.15137360255646015,
        0.11161653935092122,
        0.1959174923211133,
        -0.1198518895867098,
        -0.045614944149622194,
        -0.20531314526165423,
        0.21481726021924044,
        -0.09449601915862438,
        0.10608593897391991,
        0.2003501966178073,
        0.08562517836828445,
        -0.03664861180720208,
        -0.04428379492953266,
        0.1434663372440171
      ],
      [
        0.07089217125453798,
        0.11903048530569563,
        -0.1514616298290522,
        -0.10442279808361173,
        0.1660949183805894,
        -0.12624503640996382,
        0.1343473541405222,
        0.05193417986094198,
        0.21583564506284783,
        0.20057098166699036,
        -0.13399682732449114,
        -0.013073070931957365,
        -0.15150431066007483,
        -0.15964326222333797,
        0.1792833833557926,
        -0.10600965394421864,
        -0.191556487655601,
        0.05222326528139501,
        -0.08769102062630366,
        -0.16416463553544092,
        -0.025333786147219706,
        0.1388894983767184,
        0.16773148873192587,
        -0.06558029390389614,
        0.18828181728611612,
        -0.15511388031936893,
        -0.1714484440482909,
        0.03987562904658573,
        0.04605843539248758,
        0.2125104029418969,
        -0.14729458571769777,
        -0.07502981312825868,
        0.1866307356253222,
        -0.19018723908341387,
        -0.029509583751891194,
        0.0307237636047952,
        -0.05155851274357773,
        -0.1711889468364837,
        -0.20872493648618867,
        -0.10656034034638821,
        0.19030414654752567,
        -0.1610881792233193,
        0.15483185374041167,
        -0.12956732555165118,
        0.191531511982204,
        0.18216577221161592,
        0.011219637222220108,
        -0.17211120172220865,
        -0.02962530480205469,
        -0.10482865059435628,
        0.08285025041898245,
        0.11254197323801343,
        -0.18344540286077668,
        0.1669227718113844,
        -0.046449309757403245,
        0.13565795289519048,
        0.12478956640458957,
        0.009393394762894608,
        -0.09915648652678939,
        0.16150701641655582,
        0.10663992047527363,
        -0.1421064734550717,
        -0.1913570552770383,
        -0.011382429497675345,
        -0.16884785249247639,
        0.16789290645355928,
        0.20266754660828853,
        0.2059433578103992,
        -0.14539563421180687,
        0.12813953072437542,
        0.16041985786582494,
        -0.133905665310737,
        -0.028958854164282177,
        -0.11619405770931014,
        0.07071851601044396,
        -0.1938508111932385,
        -0.0755885177694143,
        -0.2230890869146616,
        -0.013017538442091386,
        -0.1079224493180855,
        -0.07913390000694157,
        -0.1853521320077226,
        -0.19537663110836162,
        -0.13032912277346656,
        0.141489354051782,
        0.1917081682643446,
        0.13671330393605233,
        -0.04815721622819319,
        -0.039563072654690695,
        -0.19067468763511305,
        -0.0057157224952311125,
        0.0865925304246841,
        -0.03170968709801422,
        -0.14972526492017513,
        -0.03236504249733646,
        -0.1773168899601417,
        -0.055949355169747556,
        -0.05658859340988304,
        -0.04728418178039401,
        0.011155472084648649
      ],
      [
        -0.1384125827827064,
        0.03447948505155937,
        -0.14235246335456037,
        -0.15035563462716744,
        0.16090456480022577,
        -0.1132720203772235,
        0.08569274324158191,
        0.05900582303875704,
        -0.0059187217634597,
        0.0499552731893497,
        0.18246305157268836,
        -0.018693067509011868,
        0.12441603952434235,
        0.004855888138095538,
        -0.22010747015636203,
        -0.20493108463043946,
        0.08564353396824906,
        -0.045111753347405,
        -0.19097456262365514,
        -0.12720754838483378,
        -0.11653057117240413,
        -0.1936134600502903,
        0.17420733890192816,
        -0.21690187475599426,
        0.12816612860235485,
        0.08018364163993955,
        0.022191666692754825,
        -0.029762336499864706,
        -0.07271625382520841,
        -0.08756532227360911,
        -0.20571665647946405,
        -0.019498494338904188,
        0.004967786501483801,
        -0.16891103211490785,
        -0.00306172821092604,
        -0.05195116616358991,
        -0.008832433836985676,
        -0.2007008575829636,
        0.0182906889039727,
        -0.014947602526265785,
        -0.1795283128637075,
        0.16342422147905308,
        -0.18454107508891507,
        0.13223408567171294,
        -0.14826995101360438,
        0.21038144648438475,
        -0.14200784671270697,
        0.05887129170238961,
        -0.16981931192419886,
        -0.08551863640010698,
        0.04237589041367415,
        -0.02995342148748581,
        -0.11182186917790188,
        0.15279195834057832,
        0.09412318766197378,
        0.12552531035272776,
        -0.17955991499434215,
        0.1328491743260177,
        -0.14590405389295868,
        -0.08356989469469411,
        0.1704336721605136,
        0.16231976578288607,
        0.05908889390742575,
        -0.07525349807066242,
        0.13577401396819264,
        -0.050768184125752736,
        0.18076057936080234,
        -0.04900577408500484,
        0.06967730036737033,
        0.11625875922057552,
        0.09541654029871496,
        -0.1006621638892974,
        0.2189360198957148,
        -0.038060265876326854,
        -0.05843204205760749,
        0.01965015431413744,
        -0.1555215248762527,
        0.07811475067192167,
        -0.026682885627002245,
        -0.0006444571998201198,
        0.0895281600640356,
        0.12576817340237137,
        -0.09034807225722158,
        -0.06489519394130511,
        0.09849442007143108,
        -0.06086552299928219,
        -0.19314003698712587,
        0.16311899515026282,
        -0.08490914697364227,
        -0.15470434971091837,
        -0.021058191367605145,
        0.11766088206943012,
        0.08080960580880833,
        -0.11894491075730237,
        0.032000684872574764,
        0.16178343164131828,
        0.13768659343462944,
        0.06401024076630704,
        0.11822664546782366,
        -0.16108143903763666
      ],
      [
        0.17528686344124114,
        0.0723885902387992,
        0.10490783770550274,
        -0.07199186858789483,
        -0.0632295011050428,
        0.1824233488407427,
        -0.1389787939039136,
        -0.16937480048628706,
        -0.1767171131343539,
        -0.16794827536067272,
        -0.12303404215452636,
        -0.17704312469958805,
        -0.11747896501855556,
        0.07670809352277,
        0.026951665314466272,
        0.1773689763350503,
        0.16453008212074474,
        -0.17534414184254632,
        0.12753016352636962,
        -0.087162620606555,
        -0.20440554329945376,
        -0.00904231933756755,
        0.14516947916599945,
        -0.1619935720645865,
        0.0788898991245631,
        0.1619147229326934,
        0.2217981343496707,
        -0.15129602068784948,
        0.1264933356655301,
        0.17552509312435213,
        0.09435613479080199,
        -0.12648224965796034,
        -0.13601721102657094,
        0.031021056695054644,
        -0.1204187861324443,
        -0.22018058842887755,
        -0.07188942572976123,
        0.10339419544374237,
        0.04766259000889886,
        0.13219855460193422,
        0.0027835774167571103,
        0.054717816960724336,
        -0.10486442682979934,
        -0.1416570126771603,
        -0.08907645969936137,
        -0.17873864087568647,
        0.1289647336516581,
        -0.18100092709434346,
        0.0029712952407142668,
        -0.0017646758269061757,
        0.08710040268754973,
        0.14522195298188526,
        -0.0027252849975806237,
        0.015639161703221632,
        0.07188124635569662,
        0.0033815327326897904,
        0.09812628773079027,
        0.09377800562673319,
        0.17729213952309072,
        0.1354004062826464,
        0.1646613745210356,
        -0.04931468284548629,
        -0.20276437613245857,
        -0.14240966737421523,
        0.035810123575842095,
        0.19018816105696432,
        -0.005687402209630071,
        -0.11103745207611233,
        0.06239248581747306,
        -0.10862020620830143,
        0.1357564786610941,
        -0.08664649101152039,
        0.08467363695307226,
        0.01893366577926217,
        -0.14773907874767556,
        -0.10994265417253335,
        0.060108309559914114,
        -0.20272337567009774,
        0.1956120209797564,
        0.07787316705531597,
        -0.05767839881460124,
        -0.16980247501278084,
        0.17978520398327777,
        -0.03002495445915415,
        0.2018945037289593,
        0.18525931119913538,
        -0.15979624568433204,
        -0.10792981757515885,
        -0.21882639084237865,
        0.07410199515532853,
        0.0749990818604642,
        -0.024791450263936227,
        -0.16031159383455806,
        -0.20472113228435598,
        0.18087965002429965,
        0.14196156634644588,
        0.16760116666715416,
        0.17163873569594004,
        -0.11301491480076378,
        0.10376510139614434
      ],
      [
        -0.15930776485823606,
        0.0924343544013164,
        -0.03141705948120238,
        -0.18506697494301405,
        -0.20124613643077294,
        0.15525717065600844,
        -0.20237973654499297,
        0.17713435319718177,
        -0.023385076402237276,
        -0.06689530509379726,
        0.020874562174756056,
        0.1647482306587216,
        -0.11927608963977505,
        -0.005961108892380135,
        0.2151136071405804,
        0.01914879067852479,
        -0.15133354990518977,
        0.057211369033512954,
        0.036571161503381105,
        -0.1508756837224468,
        0.02318157539544391,
        0.004239624542503206,
        -0.005161090135675422,
        0.09838404170077655,
        -0.20382471480024533,
        0.11952298173135825,
        0.11135487509772793,
        -0.1638490033616649,
        0.20153421013432146,
        -0.05867810717388022,
        0.0796883017704054,
        0.2029213459383594,
        0.18997056845325952,
        0.20877530235402045,
        0.07415471819596356,
        0.08863515999560431,
        0.06804402511593796,
        -0.21192836671231524,
        0.1093903066572933,
        0.006801300207048833,
        0.06530860176602046,
        -0.002568807157009967,
        -0.2159130289693011,
        0.1841081917027507,
        -0.011046412468148914,
        -0.140134607415139,
        -0.15645983157594406,
        0.08030071119462814,
        -0.09781420222767123,
        0.19744779441088836,
        0.08822246924883562,
        -0.13316812317551213,
        0.21952670567784952,
        -0.10310631137553086,
        0.02212053330938929,
        0.042554993446299344,
        -0.0406522440897549,
        -0.08106656399687631,
        -0.06184386615502685,
        -0.21440796898452646,
        -0.15224579345107458,
        0.18421345725640695,
        -0.11106905336167987,
        0.007538039354595155,
        0.16552153555854557,
        0.025453047053263206,
        -0.1309248986567011,
        -0.09739202275135503,
        0.052032524710049516,
        0.05671290392968678,
        -0.2138939343336726,
        -0.1841387741867943,
        0.20587312510772002,
        -0.05444961034716189,
        0.16666460727145885,
        0.057423597924969566,
        -0.05869864468491809,
        0.19733066927702,
        0.13205973912698007,
        0.1143981707875297,
        0.0290906117365117,
        0.09346894403206621,
        -0.07190475883474406,
        0.012584015170956975,
        0.04994128489136737,
        -0.1869502311020953,
        0.009174273036193059,
        -0.0018242362575508209,
        -0.19752367116690525,
        -0.18222269413954512,
        -0.2003571538378373,
        -0.05648030157246203,
        0.04040507937428825,
        0.14557888158840884,
        0.05081470942091246,
        -0.1003963470973536,
        0.09124295052775552,
        -0.1916975308050594,
        0.010747083219640297,
        0.008561608671244808
      ],
      [
        0.18052288217795834,
        -0.10446718806764235,
        0.14315505036659712,
        0.18037151348369343,
        -0.1353130591205631,
        0.1540820772661575,
        0.13836392596602656,
        -0.10363358867147576,
        -0.08228072667941583,
        -0.015432535363344019,
        -0.061109993539357976,
        -0.0606378392739067,
        0.16894576179750623,
        0.1513000507014998,
        -0.08829307685261903,
        0.1796409505537803,
        0.2168084994725725,
        0.13944717975976786,
        -0.0015706848951593244,
        -0.0844263938760226,
        -0.14244985994508302,
        0.10787334877082619,
        -0.07133129987328268,
        0.15981914945006678,
        -0.12276630089069986,
        -0.010681085268599982,
        0.21726044028881422,
        0.14075956950106897,
        -0.028108716116281768,
        -0.017270514842018525,
        0.21133255878426874,
        0.01412218571828816,
        -0.09443086489691274,
        0.016116000417443127,
        0.19995317606822635,
        -0.07630556428469595,
        -0.10679896366756662,
        0.1911196258907347,
        0.048675442650982864,
        -0.1895742963910738,
        -0.09519229397144943,
        0.10561324010807724,
        -0.20642018579511748,
        -0.13735359209155765,
        -0.1868687096446786,
        0.16171456925024794,
        0.10638791567272646,
        0.15527829565493514,
        -0.19445185931069014,
        0.20870896889129611,
        -0.1203561211364241,
        0.13250789157110085,
        -0.039146856444807115,
        -0.12290799117454344,
        -0.06493387703653533,
        -0.00483279617198068,
        0.18599184730654886,
        0.11618034788403439,
        0.025309741858333068,
        -0.1516666770222923,
        -0.17466369225156442,
        -0.1411598526679293,
        0.09961251179829819,
        0.11860785772346363,
        -0.06374107975061538,
        0.00997192014013723,
        -0.07125727905528972,
        0.07353371144062312,
        -0.14406161640656928,
        -0.02059455337742644,
        -0.10537157460434422,
        0.2080794791229799,
        0.18276927139964896,
        -0.07064435201349079,
        -0.21533293569706938,
        0.03553568413900823,
        -0.024209013893673303,
        -0.053126145857391366,
        -0.2053839484529177,
        -0.048393460066080196,
        0.021881642359167952,
        -0.0635275763623323,
        -0.010670182296837999,
        0.06816113780955271,
        -0.17529594836215653,
        0.19838769101027073,
        -0.07873797985144912,
        0.16879293298929546,
        0.044994667549715234,
        0.0391328665716327,
        0.025100303981455546,
        0.03212570659937988,
        0.05241203541228709,
        -0.05506658763453259,
        0.04367320683877288,
        -0.06485054410788571,
        -0.14757491717341803,
        -0.19783772206614045,
        0.1645126610808608,
        0.07562487070970372
      ],
      [
        0.20102815708395236,
        -0.1684359819502137,
        0.1122903159496699,
        0.028552521803651115,
        -0.158225846572416,
        0.0570463925243099,
        -0.09120408130161597,
        -0.06912531311013864,
        -0.08533808996406264,
        -0.1266505016043576,
        -0.07702902826980362,
        -0.18240175329656536,
        0.0759943958084924,
        -0.09292458073640439,
        -0.069642184484663,
        -0.195948184660361,
        -0.10378992249437013,
        0.18524664436133445,
        -0.1480736039341112,
        -0.13990940118832385,
        0.12897056852383895,
        -0.20543034518896158,
        0.14335966405675757,
        0.0004901557048099803,
        0.10410749983551235,
        0.008890136541121307,
        -0.21140646314050307,
        0.0733391514939142,
        0.10985019960317291,
        -0.17385831910775118,
        -0.16265701302820307,
        -0.006709791707817436,
        -0.17699416634463522,
        -0.12546798846424861,
        -0.006829614747767415,
        -0.10242836264317663,
        -0.06218304600111546,
        -0.05839932474180298,
        -0.18698785070605706,
        -0.2091757006611612,
        -0.11111550343121686,
        0.00988075630746052,
        0.13978501354612513,
        -0.0033277013533951905,
        0.021591429995861944,
        -0.07301870168749683,
        -0.09766680825282315,
        -0.20359635174134963,
        0.09674745791690684,
        -0.13410533984370826,
        0.17573766391303616,
        -0.09040696150568292,
        0.05112172860138989,
        -0.11845974125978016,
        0.06075689137209103,
        -0.14213392194709662,
        -0.045065003149524246,
        -0.17488489683964792,
        -0.14929818681408105,
        0.14130338120159727,
        -0.06758614836967314,
        0.17249760568892622,
        -0.1319238598192057,
        -0.07529887479259223,
        0.12171901426633455,
        0.09694888514198766,
        -0.015577961799829232,
        0.2043572390063146,
        0.10432690412687831,
        0.20531968715603185,
        0.07461460511064691,
        0.12899614721089,
        -0.024317288518505037,
        0.10073785150858652,
        0.17576071438608568,
        0.08026584815722762,
        -0.13600577411938242,
        -0.06856653043014482,
        0.16196754032523178,
        -0.058305005556732514,
        -0.04964632296853094,
        0.19427212109744416,
        -0.059386441300984416,
        -0.043253340777267085,
        0.13472465663585323,
        -0.016659271470894882,
        0.1376627456679335,
        0.1854977820779338,
        -0.04159544724911196,
        0.12288232580506012,
        0.0985840566527689,
        -0.05133604787118004,
        0.18903343243630463,
        -0.19866024208140573,
        -0.02199012926509525,
        0.04078911780690733,
        -0.10166557474507851,
        0.1593078508697788,
        -0.17857612332067707,
        -0.08027471935887179
      ]
    ]
  }
}