{
  "num_class": 10,
  "num_hidden": 100,
  "num_visible": 20,
  "params": {
    "bias_b": [
      0.0,
      0.0,
      0.0,
      0.0,
      0.0,
      0.0,
      0.0,
      0.0,
      0.0,
      0.0
    ],
    "bias_c": [
      0.0,
      0.0,
      0.0,
      0.0,
      0.0,
      0.0,
      0.0,
      0.0,
      0.0,
      0.0,
      0.0,
      0.0,
      0.0,
      0.0,
      0.0,
      0.0,
      0.0,
      0.0,
      0.0,
      0.0,
      0.0,
      0.0,
      0.0,
      0.0,
      0.0,
      0.0,
      0.0,
      0.0,
      0.0,
      0.0,
      0.0,
      0.0,
      0.0,
      0.0,
      0.0,
      0.0,
      0.0,
      0.0,
      0.0,
      0.0,
      0.0,
      0.0,
      0.0,
      0.0,
      0.0,
      0.0,
      0.0,
      0.0,
      0.0,
      0.0,
      0.0,
      0.0,
      0.0,
      0.0,
      0.0,
      0.0,
      0.0,
      0.0,
      0.0,
      0.0,
      0.0,
      0.0,
      0.0,
      0.0,
      0.0,
      0.0,
      0.0,
      0.0,
      0.0,
      0.0,
      0.0,
      0.0,
      0.0,
      0.0,
      0.0,
      0.0,
      0.0,
      0.0,
      0.0,
      0.0,
      0.0,
      0.0,
      0.0,
      0.0,
      0.0,
      0.0,
      0.0,
      0.0,
      0.0,
      0.0,
      0.0,
      0.0,
      0.0,
      0.0,
      0.0,
      0.0,
      0.0,
      0.0,
      0.0,
      0.0
    ],
    "weight_w": [
      [
        0.22525390348157792,
        0.006905449755484322,
        -0.11372959066758913,
        -0.14155328811635026,
        -0.0014573160755843584,
        0.07566323808047215,
        0.07021475356841544,
        -0.013230726934124637,
        0.019689234877295014,
        0.10965292554360945,
        0.01364539297714587,
        -0.15078822797678665,
        -0.2195203982738915,
        -0.04912969533191075,
        0.10562628131022717,
        0.00022656184929500944,
        0.13079203736427147,
        0.030859860850109166,
        0.13596998343467703,
        0.10877498550886822,
        -0.21351873922462858,
        0.21598972008750744,
        0.1659997036982755,
        0.21289576045645914,
        0.19679201631061594,
        0.23125467809088096,
        -0.206567448493378,
        -0.19786604329509255,
        -0.11025715833205135,
        -0.1942025080975798,
        0.09877849998355503,
        -0.18221229888068044,
        0.06547537833303935,
        0.01947586530081402,
        0.03560135757700672,
        -0.009483427258687283,
        0.12989377082793502,
        0.2188650441997162,
        0.20680022153295297,
        0.11238524069548333,
        -0.09785923556682949,
        -0.20000215696533846,
        0.034509297744234,
        0.17707266966366048,
        -0.021193694679521535,
        0.17299847729269624,
        -0.05807725888354984,
        -0.17754687311994272,
        0.15346065676104775,
        0.09628791929741898,
        0.011764985364175223,
        0.15180052214873813,
        0.12121092019890489,
        0.030733646014837968,
        -0.080448958765726,
        -0.14575930186929592,
        0.1648243048235613,
        -0.03260083897972996,
        -0.004226365893046341,
        0.01261028064731079,
        -0.009558613767832957,
        0.14137259458178225,
        -0.20230775570333215,
        0.11719974202710776,
        -0.22397981678649498,
        -0.2075471336311823,
        -0.2110928511743489,
        -0.1955868917712871,
        -0.15040477249458178,
        -0.06966383101035842,
        0.07645380960320808,
        0.222336778963502,
        -0.11322010500402922,
        0.20957942356398757,
        0.16518189643853115,
        -0.15926295594547157,
        -0.19754879275303713,
        -0.004083576526992594,
        0.017033168623634687,
        0.04476736314709123,
        0.14415093729068157,
        -0.13137373715207368,
        -0.08574301154926156,
        -0.0903002366657697,
        -0.04938171146484538,
        -0.04730124333082614,
        0.12667506369383352,
        0.2284585090763997,
        0.1379460173998081,
        -0.11655910004512937,
        0.11347168495146415,
        -0.02196074121419911,
        -0.17618271873723423,
        -0.12777600040797327,
        0.16418698719402552,
        0.13197183984827604,
        0.06296731153128199,
        0.15675283354699598,
        0.003784320059042917,
        0.0744779088510395
      ],
      [
        0.2250002369049105,
        -0.032107747020606314,
        -0.15150413653081607,
        0.09516177773710943,
        0.15131634245496273,
        0.11056729627736606,
        -0.21064582458568856,
        -0.0012319442405019365,
        -0.18753573374811136,
        0.10110176656305131,
        0.23273065676787702,
        0.09543352947433043,
        -0.06315108243499357,
        -0.08742818939913044,
        -0.11230449416672415,
        0.014662813816244902,
        -0.22793876107033023,
        -0.2089918939596917,
        -0.22827142942152712,
        0.07144783709504998,
        0.05020210034854361,
        0.14015567969436,
        -0.08773422412616316,
        0.16046034604613119,
        0.015457806481979336,
        0.161272279784627,
        -0.22373788861749777,
        -0.18098947655528522,
        0.024504637010083152,
        0.06867011389630562,
        -0.17738618921885813,
        0.1579029542663013,
        0.1882678835415813,
        -0.0033855016865636245,
        -0.05351236748073948,
        -0.09740795952395212,
        -0.2133065998984465,
        -0.1489268642765998,
        0.0082622841297669,
        -0.21166644733019982,
        0.15127514211151782,
        -0.15586564459932778,
        0.013193667667964343,
        0.19377702632761362,
        -0.04116928610073933,
        -0.0891704896612853,
        -0.01073398921529603,
        -0.004949595818192737,
        -0.13701222478358752,
        0.10257395369530653,
        -0.011184474108454967,
        -0.22166779031949196,
        0.016031313466739666,
        -0.2012262085160993,
        -0.2084210953659415,
        -0.06675210900198561,
        -0.11148982974880475,
        0.0616620322176295,
        0.09383809849403019,
        -0.20405406766672668,
        -0.03689036789631697,
        0.09935823539935185,
        -0.12918592110794458,
        0.16016798728421616,
        -0.22627590785532262,
        0.14268607148870255,
        0.05693966093367592,
        0.1655639157272129,
        -0.16264104654180406,
        0.1578102311104917,
        -0.09815738903853333,
        -0.17263472497175977,
        0.20353269597383122,
        -0.0851075892224262,
        0.12058851603349535,
        0.01637254460070134,
        0.13001829467924175,
        0.05227560335350023,
        0.048726993716749045,
        -0.13097585652952093,
        -0.12338833499842065,
        0.16394488492435666,
        0.19694704308158523,
        -0.16559181519306806,
        -0.07383865153296104,
        0.13704353916444195,
        -0.11096846216325229,
        -0.2250476586914379,
        0.027601361699790383,
        0.05630748763460236,
        -0.06422191925383383,
        0.15161191678141006,
        0.22416665799928842,
        -0.1774048063317073,
        0.16043013823850727,
        -0.17976083876974763,
        -0.07640033946878144,
        0.11215188619676769,
        0.1754018927452617,
        0.1544115613861135
      ],
      [
        0.1817269935763033,
        0.003953092940158914,
        -0.10068400893120874,
        0.21399065535709183,
        -0.09617911203499618,
        0.20966787411737364,
        0.030069801628346604,
        -0.02138725003802916,
        -0.22686074171782447,
        0.04067184368656179,
        -0.05494769757115642,
        -0.004710420466345927,
        -0.11161525190418063,
        -0.015397947024639397,
        0.01692798928326228,
        0.02895510655703737,
        -0.20277616369579424,
        0.07673435900642495,
        0.11914224301627563,
        0.06494494966235281,
        -0.12911691202964404,
        0.21254586865236985,
        -0.12203600305568461,
        -0.019294217642458256,
        -0.06970975522963507,
        0.018820861837120673,
        0.2185782827268341,
        -0.012291574844659703,
        0.142847261454647,
        -0.04733193762341531,
        -0.1394360494019074,
        0.12290163955923838,
        -0.02841103269039691,
        -0.19103091685405918,
        -0.11158994869219309,
        0.09376283897018545,
        0.06294072197154704,
        -0.057898781961454066,
        -0.08283735946701667,
        0.23278252891568346,
        0.15158114324116417,
        -0.09637051152330733,
        0.1990276232535747,
        0.21116569598236135,
        -0.004845067802524333,
        0.16512495318935116,
        0.007021148646480513,
        -0.034901814091662514,
        -0.08398804668401028,
        -0.19788879992780514,
        0.03452519452200181,
        -0.20647969110835548,
        -0.032846800654587005,
        -0.1515502548105212,
        -0.0193565935155747,
        -0.18860791397140025,
        -0.06240985621772738,
        0.07734261420183614,
        0.18609936858542375,
        0.11662764680302978,
        -0.2122310488492614,
        0.18044989017587554,
        -0.19301447071163336,
        0.20869471147969504,
        0.10921011697370503,
        -0.14956849107191328,
        0.1464151789120512,
        0.05013534395544994,
        0.03382863655428442,
        -0.12345760176184621,
        -0.22414891956634928,
        0.19964177008834655,
        -0.01497475446970753,
        -0.040918149393683545,
        0.13225933777353277,
        -0.03455118648049804,
        0.11558958762390165,
        0.1689997308014881,
        -0.2002578025026054,
        0.1174002321735465,
        0.03134888200870922,
        0.16722750225889432,
        -0.04596627582614635,
        0.14733284126065183,
        -0.09633697820747983,
        0.10282067397858574,
        0.12521915837919612,
        -0.1956338404593457,
        0.0153369874828026,
        -0.07912127815414852,
        -0.1706178622101984,
        0.06260161775293477,
        0.1881787942411336,
        -0.10345606710568284,
        -0.03838968405430282,
        -0.21633182679341822,
        0.2057740873670894,
        0.09372622458910601,
        0.22569908425965102,
        -0.21754494615177256
      ],
      [
        -0.20714849650129008,
        0.12536733257879562,
        -0.10115332645075323,
        -0.17022122076958585,
        0.005702072284146487,
        0.15736473271025808,
        0.045463832400544024,
        0.19556333041147334,
        0.022153757796739615,
        -0.0005202771911207993,
        0.08432568510542643,
        -0.0204831784897527,
        0.10608653976633048,
        0.02216068433612106,
        -0.04474076059087215,
        -0.09236231443244874,
        -0.061953074379832135,
        -0.1311809874593212,
        -0.13933217018301236,
        0.05719143658630438,
        -0.22001121936198734,
        -0.14390854758016014,
        -0.14980588248145466,
        0.12087880739202073,
        -0.013645880227206336,
        -0.03255733357056331,
        -0.20150246801117783,
        -0.20840401897159402,
        0.23274177023095155,
        -0.11220001604510219,
        -0.117195278602176,
        -0.05753871476519612,
        0.21469703756041664,
        -0.05312391605126063,
        -0.1417306473496226,
        0.18628513382986878,
        0.11896306613772478,
        0.1206051821368917,
        0.0965319026598696,
        -0.036378498612659516,
        0.16783576912035403,
        0.024807097034992565,
        -0.009647110042427465,
        -0.11631140838135251,
        0.22074857278729765,
        -0.12160065725332025,
        -0.15710120964408436,
        0.07287180809558519,
        0.19240974686389933,
        -0.10536403100038297,
        -0.09603704491532647,
        0.020441512880771007,
        -0.0640006320625765,
        -0.10935650450360795,
        0.056835281905942614,
        0.23073753603480818,
        0.2009046227275006,
        -0.2018009714269049,
        0.13303454495768502,
        -0.1025903436953493,
        0.03535265782729713,
        0.05481582372453414,
        -0.1932096251258385,
        -0.16779247080554477,
        0.0645630803898754,
        0.15979229528200362,
        -0.15676242552511588,
        0.18038180162689493,
        0.07531417753143171,
        -0.19488140011785482,
        0.06789024305522795,
        -0.16448824305230164,
        0.05131990014291099,
        -0.07691855015816829,
        -0.1435879397326738,
        -0.11342274696583492,
        -0.16132281719069366,
        -0.052787161814644434,
        -0.17266093958110942,
        -0.08211695874128722,
        -0.06112286396297903,
        -0.16173330580652295,
        -0.07580761983537596,
        -0.12129390219234437,
        0.05365872384294851,
        0.07556891973135171,
        -0.2074189000419508,
        -0.040683677683665154,
        0.20352179200635656,
        -0.21005397641240295,
        0.17762551699157997,
        0.06909760383589142,
        0.19684818629930712,
        -0.19775876204076162,
        -0.12959972960339594,
        0.03375319051098047,
        -0.04900855108691446,
        -0.045916917311844135,
        -0.03139933259960723,
        0.14869216429292204
      ],
      [
        -0.15337012549098583,
        -0.21799651319045885,
        0.170468695901291,
        0.05226975630059422,
        0.20641592993578822,
        -0.11178177109133315,
        0.04967761358182382,
        0.15755000610305608,
        -0.20422239762421507,
        -0.18400118143583374,
        -0.07224156169260537,
        -0.03049404367095282,
        -0.15331740398230448,
        0.14726964588268598,
        0.020164139527436897,
        -0.10201016407456323,
        0.09626244335955025,
        0.014860444888687319,
        0.07403823918661306,
        -0.22040894450854429,
        0.2259507641656388,
        0.14379304494541612,
        0.16139599048511877,
        0.22422871236686048,
        0.003565139480293522,
        -0.18458363987209708,
        0.06091990575294959,
        0.02242585951271131,
        0.185334215817894,
        0.1298948497364404,
        -0.06690332302049151,
        -0.16352490880015141,
        -0.19286977948280504,
        0.1265258097433089,
        0.21750063010133347,
        -0.19838880991517618,
        -0.22643936383955865,
        0.035576912314885134,
        0.17411240758836133,
        -0.22355247772575168,
        0.16478699880001874,
        0.051040704722310704,
        -0.20748818085534199,
        -0.11374241570858924,
        0.21101059646579,
        0.20609134137434165,
        0.042876294642076984,
        -0.03939664232989781,
        -0.16979147981359477,
        0.05917141396139103,
        0.043912056130506194,
        -0.014219869340021202,
        -0.20229740566105225,
        -0.03684178259840862,
        0.10268046265295572,
        -0.039323117631227616,
        0.07767994534595146,
        -0.06950908757653257,
        0.11728837025220096,
        0.0714932973255265,
        0.22616493709684293,
        -0.04818648909364259,
        -0.11130390594388505,
        -0.18681657733790574,
        0.14920678390637837,
        0.1344699549567766,
        -0.18019517182084854,
        -0.23001423609918278,
        -0.12743935265347933,
        0.03428338291129479,
        0.028796930070293603,
        0.22672910865484364,
        -0.18457497082040664,
        -0.13121194258286936,
        -0.1775259483493068,
        -0.18469636155003746,
        0.20973036852332172,
        0.03421582886507696,
        0.006083959315017096,
        0.1930482821540344,
        0.15797969782636206,
        -0.06945616939509858,
        -0.13371260535939247,
        0.2268747856077184,
        -0.0472476809469666,
        -0.06436664270526526,
        -0.16568643479785744,
        -0.04793212702090635,
        -0.0001322502597969344,
        0.10831041477179698,
        0.17849237487577935,
        -0.0011102537984787608,
        -0.13704500098346156,
        -0.1772150968923657,
        -0.008115261690017306,
        0.05625786353141571,
        -0.119319464551144,
        0.09578464979171003,
        0.14634697107873618,
        -0.16483118829409654
      ],
      [
        -0.0072992745456754715,
        -0.19010967967260553,
        -0.217532153315473,
        -0.00014876174402772557,
        0.22421337644660133,
        -0.07961402352567357,
        0.08221516529535766,
        0.1164664561474803,
        0.20242035420583132,
        -0.1842704452836175,
        0.22972589055603293,
        -0.12426307259866717,
        0.06387600061986398,
        0.003876061726893254,
        0.07856353172932384,
        0.11853603774523741,
        0.14260463925367511,
        -0.03723012512208518,
        -0.039766673086244764,
        0.08152998463897027,
        0.13090562110302278,
        -0.19212911965994675,
        0.16848574696227975,
        -0.0664859165355638,
        0.1267209478011388,
        0.09436095588991616,
        0.0978890138654045,
        -0.20880669465530172,
        0.06157995064594729,
        0.07043236076003179,
        -0.10698708854084793,
        0.16485428757201898,
        -0.16941587967997992,
        0.21982713365486267,
        -0.09198291422085947,
        -0.06203866858508841,
        -0.07766200313955848,
        0.02081009575508025,
        0.1120034227265288,
        -0.1218645278711278,
        0.059232958495682164,
        -0.07915498829291356,
        0.04031924610762411,
        -0.13686082287656937,
        -0.1875667357823539,
        -0.13920898620155825,
        0.16138862538017712,
        0.16330084079481227,
        0.16688611856459973,
        -0.19657649824963327,
        -0.03358491600371391,
        -0.16508345365800275,
        0.18545628717983298,
        -0.19659157320337214,
        0.1424237933996813,
        0.1519829790125372,
        0.08329805283487018,
        -0.048953424719534955,
        -0.014647070913706622,
        0.22151946400406541,
        -0.2219567535773722,
        -0.21596610411732498,
        0.04042349433497738,
        -0.07822556768650701,
        0.09622533091939955,
        0.22485474224508895,
        0.1218164166397121,
        0.12366695938410743,
        0.07795500000438305,
        0.0381087857711187,
        -0.204169183325765,
        0.06725825290482074,
        -0.23004523125335394,
        0.002200044167951859,
        -0.1316294421746791,
        -0.18452456599478073,
        0.20592273416945117,
        -0.11741078205562067,
        -0.1112775434836001,
        0.12850085842302045,
        0.05751529966346225,
        -0.11233587524816196,
        -0.20371816599401524,
        0.2261487085635716,
        0.16507116224532403,
        0.04402663507023746,
        0.22405435122619388,
        0.16140917730899557,
        0.1968658915878035,
        0.10828352595958296,
        -0.12235934611614808,
        0.002711543291650381,
        0.1537543513250062,
        -0.015753456096553153,
        0.08959344002547098,
        0.14244084671859547,
        0.0639928570815611,
        0.23092625056880728,
        0.11514203690030411,
        0.1233808783011785
      ],
      [
        0.10956693926906019,
        0.057664279983076216,
        -0.08227797298429865,
        0.03678947357531748,
        -0.11134960317842058,
        -0.201762672452112,
        -0.17125561613743495,
        0.026601722897222513,
        -0.20176569682322354,
        -0.1301602197479803,
        -0.10271170616092382,
        -0.1421330032742107,
        -0.055181792137449115,
        0.21926696996221656,
        0.10532444330752666,
        -0.09395826669066917,
        0.056121250504733045,
        0.004261522892562292,
        0.11057830440967209,
        -0.06804368945676262,
        0.21375527274198558,
        -0.14947547628520363,
        0.03855322477760048,
        0.15186154682933933,
        0.15756106756879174,
        0.013379169960592158,
        -0.14477927438393481,
        -0.10682550303872071,
        0.026363394947201246,
        0.027759325827595382,
        0.11351838695803668,
        -0.2096596115782081,
        0.20922823421468434,
        0.22616117235998606,
        0.07080577335697358,
        -0.17694297719170365,
        -0.12349628932887455,
        0.19447123912420128,
        -0.2333399423383121,
        0.049640287770962965,
        -0.09829336636447966,
        -0.13230916521473532,
        0.08354610999579665,
        -0.017678526442950815,
        0.0971902609125822,
        0.09175586621125853,
        -0.20135362901863424,
        -0.026041629447190073,
        0.11953928891483279,
        0.20438969574655558,
        0.04185805609371346,
        -0.17431891381661288,
        0.010052437318364804,
        -0.04349870829233218,
        0.09480877872178894,
        -0.05194372779063838,
        -0.07763830611501579,
        -0.04176175153432393,
        -0.18177070368387174,
        -0.08298251900610029,
        0.1714163435745294,
        -0.09512499109444528,
        0.1582441735731977,
        0.12867269147676624,
        -0.17410311332704387,
        -0.09436362715392246,
        0.06615091692978997,
        -0.22857481256167245,
        0.1650282448613642,
        -0.12161305081067182,
        0.08024888085834869,
        0.027316721868757277,
        0.15424001300258877,
        0.1828529049980357,
        -0.14217150482086896,
        0.05005337699256979,
        -0.20180215935884438,
        0.1601714462368271,
        0.14659283043811222,
        0.12122070710194949,
        0.1505507958033715,
        0.17730499815268985,
        0.13518661599798415,
        -0.22786892997806935,
        0.13041406224669655,
        -0.05604685413793045,
        0.18889294518880584,
        0.0999030536924016,
        0.09349232611857661,
        -0.08816741365708888,
        0.12819955815265527,
        -0.15803840115622736,
        -0.10805178043510527,
        -0.10707875008297785,
        0.021386429140608676,
        -0.04057241766918454,
        -0.0438417646431605,
        -0.04010317418911408,
        0.23099238441140862,
        0.21516748475315478
      ],
      [
        -0.04617303259243108,
        0.19882362567232814,
        0.1604933845869585,
        -0.17943856842270944,
        -0.060831514453526137,
        -0.0432503825877362,
        -0.14862322047444892,
        -0.1487075215437657,
        0.07122833212698215,
        -0.08193622710717194,
        0.1633971572575179,
        -0.19989503916570922,
        -0.10481429635039524,
        -0.11004769258047639,
        0.19832588828296766,
        -0.15347671064691232,
        0.20975639316097167,
        0.12171922018227871,
        -0.16652116044329807,
        -0.09340834725820124,
        -0.005716876372468871,
        0.1527161290720911,
        0.06198384925332984,
        0.21990654327797549,
        -0.06829213340992926,
        -0.034959908435390735,
        -0.17598317904506938,
        -0.21403918171621972,
        -0.06612195293207246,
        0.06376152232483012,
        0.16119315737431988,
        -0.057091235709731014,
        0.2183416479985552,
        0.0673232977807271,
        -0.02807025857867948,
        0.04765036767567471,
        -0.011127236231168652,
        0.10796078249509755,
        -0.15094270410286398,
        0.025452469659390187,
        -0.2106931567877647,
        -0.03349806106877212,
        -0.20757777771483324,
        -0.1337361860110767,
        0.027740412870078113,
        0.0710173646845712,
        0.17599257259225742,
        -0.06994056024898701,
        -0.11072081551977689,
        -0.12372349527414502,
        -0.053674499708987466,
        -0.0031798527199634885,
        0.020044556738975927,
        0.04041426218237171,
        0.09572899597665574,
        -0.036560319404771585,
        0.018241606187463788,
        0.1906024407063815,
        0.12304467206164538,
        0.16808478461848037,
        -0.019191222780283373,
        0.07971680049605101,
        0.1632953163502931,
        0.135417764134376,
        -0.07838840192956559,
        0.06956187182860718,
        0.03781573886129358,
        0.21266177106037815,
        -0.004683474271951121,
        -0.2026480637465861,
        -0.043213288707590725,
        0.073490549191216,
        0.07776967727925832,
        0.18052686193323841,
        -0.19359611173485458,
        0.21696670148906377,
        0.1804694224402827,
        -0.011189087272937437,
        -0.14967623654984774,
        0.1466643805875235,
        0.1481942309787267,
        0.00982912568050609,
        -0.03111891081451057,
        0.12042782798877005,
        0.1497789832462872,
        0.08567212404588037,
        -0.2033214881214243,
        0.15848828725524355,
        -0.22449348834860505,
        0.16985207910328065,
        -0.18320175675783743,
        0.008489596639869895,
        -0.22483309577866492,
        -0.07812011922081241,
        0.21229298580756878,
        -0.1743051632824377,
        0.07791293092043272,
        0.10906005159679416,
        0.018485570647904626,
        0.023245939328010612
      ],
      [
        -0.07696308306654528,
        -0.17557087098377155,
        -0.10633089157291031,
        0.0825406586689239,
        0.08609438033770184,
        0.21965587511805867,
        -0.13230205122039593,
        -0.021468713097612863,
        -0.012786846598403179,
        -0.15440505255595316,
        0.12120729205356767,
        0.20673505679795628,
        0.09874619423960862,
        0.2147781217661765,
        -0.1554125302856511,
        -0.038380656115262785,
        -0.21510516275673527,
        -0.12870635991813267,
        0.06694081271897712,
        -0.15903710302477547,
        -0.19817515450855772,
        -0.08092572251234728,
        0.22052436887472765,
        -0.14896318189227317,
        -0.027478563787487476,
        0.1868887676488845,
        0.0055766401158299506,
        -0.13982017994231555,
        -0.09342588234664348,
        0.17973106411205153,
        0.002236149612346472,
        0.20890874350034783,
        -0.11984613806222645,
        -0.20499769023899225,
        0.08402509872980246,
        0.09216206930607179,
        -0.1886948151584091,
        -0.0722762721775749,
        0.009956656524958418,
        -0.05015782834530591,
        -0.19492005935619033,
        0.007574513265898808,
        -0.12483732443010558,
        0.179371680957283,
        -0.18817240826003184,
        0.20214774613330955,
        0.2281767788701342,
        0.10369144483809656,
        -0.09557921274770667,
        0.2198864284595275,
        0.07500340397343408,
        0.1921502646211556,
        0.035126987808829224,
        0.030496244913074733,
        0.17808718200501095,
        -0.09732246689338997,
        -0.2162216400651335,
        -0.2221236126629773,
        -0.012302625997251598,
        0.009937185329075449,
        -0.21701925035178232,
        -0.12890304725801868,
        -0.0025947628698888836,
        0.12274952176251275,
        0.11846591279530905,
        0.10306390293861312,
        0.09761567909979135,
        -0.11679574477119917,
        -0.044949901010023996,
        0.024279749512201798,
        -0.10080801294563846,
        0.1707770969580531,
        -0.23005126408706242,
        -0.1791398102597883,
        0.18678106404509937,
        0.11069768769748978,
        -0.032066062951014745,
        -0.04151413894591985,
        0.08651431069744941,
        -0.005984283823285835,
        -0.22853030209081376,
        0.19013822171806244,
        -0.229500570798205,
        -0.019017435700625834,
        0.03092179418568991,
        0.1472780498565751,
        0.17455057466849416,
        0.049093644514994705,
        0.09114337736352046,
        -0.21641836600496844,
        -0.20434735004608134,
        0.029362697333605636,
        0.1496910846566511,
        0.202951062104124,
        -0.07383387761781837,
        0.2237572461224463,
        0.2331173518357048,
        0.045083896146948244,
        0.020530073043564134,
        0.10411287224782995
      ],
      [
        -0.11047798367794624,
        0.20589845776797205,
        0.05317221886993201,
        -0.18452730910461265,
        -0.022484009369647423,
        0.0745574787881822,
        -0.10807296760637053,
        0.09243723370099122,
        0.12105832086697066,
        -0.1898948542767618,
        -0.1272329669571155,
        0.17266455191165375,
        -0.11141861985624381,
        0.14055949373607318,
        -0.15324822853442033,
        -0.19947406391012015,
        -0.06694146219654948,
        -0.06906845869288827,
        -0.001957017408361794,
        0.2165701159767049,
        -0.18703473941858756,
        -0.08531575437668582,
        -0.10268253053269677,
        0.08375644451837433,
        0.08289674570102984,
        0.032188063200714156,
        0.008121436138093296,
        -0.09099354194149809,
        -0.11332271682924921,
        0.2286377565267282,
        0.12070675188662544,
        0.1353202377184466,
        0.15443322255276937,
        0.20645451788375585,
        0.0697203700196416,
        -0.018115491483967544,
        0.21864794997431242,
        -0.03379973383678256,
        0.13126869016706477,
        0.14160696078094615,
        0.22222300543854312,
        -0.15690516637181778,
        0.13918847966782733,
        0.11714037155088569,
        0.1114417198165863,
        0.04667996199439017,
        0.1835398990413739,
        -0.0552321773114853,
        0.03536563065228748,
        0.1470616061029652,
        0.009714802060503291,
        0.08304679793063852,
        -0.08941782625415162,
        0.21936913212938286,
        -0.18492706239396733,
        0.16822250137242717,
        0.03311797076973866,
        -0.08626897141726894,
        0.20668392090588839,
        0.18280048113525116,
        0.11125270436258639,
        -0.08383145539978851,
        -0.011597771137409063,
        -0.11384132065510255,
        -0.2047050969782211,
        -0.09196080390434597,
        -0.1333269515564455,
        -0.1995290347584934,
        0.17797435965304664,
        0.19502630193229215,
        0.012372404630653727,
        0.04385818193158891,
        0.1928554208285107,
        -0.0065021041292668835,
        -0.13461935865466243,
        -0.10069983009211936,
        0.22022763496994513,
        -0.12373347250434656,
        -0.02665549175208809,
        -0.15279797626701472,
        -0.1160000726448384,
        -0.06999590836984271,
        -0.14408773787453572,
        0.21583858245645338,
        0.11600997015789,
        0.22260033212918467,
        0.14771908271634004,
        -0.14712023032176047,
        -0.14648341580039936,
        -0.053907104335410794,
        0.017418579978048077,
        0.07534538739097313,
        -0.051554201448022474,
        0.11353535610266552,
        0.1036297284356602,
        0.09436114679786123,
        -0.11817920155574625,
        0.16769008892416493,
        -0.11140337027943828,
        0.07596256753986541
      ]
    ],
    "weight_v": [
      [
        0.12181400720313548,
        -0.09568068338816169,
        -0.1537905685299575,
        0.14701031637397036,
        -0.07263464710383741,
        0.17207898131775248,
        -0.0013033052995626293,
        0.07769746128871532,
        -0.0912925611687175,
        0.16045503454271778,
        0.18034077187449002,
        -0.03836274867649592,
        -0.08210098029004098,
        0.17624998561728275,
        -0.15974736497790293,
        0.09805368263894207,
        -0.13407690583643211,
        0.15629287932236716,
        0.07542066277393769,
        -0.07290388691243899,
        0.17577670805178344,
        -0.09342285562556077,
        -0.0021265231751933233,
        0.1635624754650097,
        -0.013795685845403749,
        -0.0709479794692218,
        -0.21364189773567963,
        -0.16656732560009252,
        -0.042718721463211595,
        -0.012847818366486019,
        -0.18184858273128507,
        0.04849939384086424,
        -0.0517650922471494,
        -0.029265090492369916,
        0.04869474285952488,
        -0.0959906998794352,
        -0.1306429207006548,
        0.14179632728384364,
        0.09596031628224735,
        -0.1286205659106161,
        0.11260414700214458,
        -0.04011230843910055,
        -0.1377884300183178,
        -0.1906630057220629,
        -0.17076236534458747,
        -0.01742555563833678,
        0.04116280430229194,
        -0.0460569598936551,
        0.10082343475338232,
        0.09570402852912266,
        -0.006553747570435614,
        0.013570211531523796,
        0.1876192049474755,
        0.10081546210088257,
        0.08858937526924285,
        -0.19089070776765787,
        -0.15910703775208207,
        0.1311837187352046,
        0.20211079365029147,
        0.06469922794864477,
        -0.08909177622668218,
        0.15139561108658398,
        0.12128962632670356,
        0.09539008437163635,
        0.03175247318133487,
        -0.021137306839864395,
        0.018791341773097242,
        0.13407000322758292,
        0.1194957063441123,
        0.013837041610394951,
        0.0015268421121289177,
        0.09469954857098731,
        0.027718599866197152,
        0.16128828673433712,
        0.05361057165835578,
        -0.08040012159089263,
        0.03217478614557265,
        0.008225285411953581,
        -0.19461457769745327,
        -0.029738544368033498,
        0.150549550398162,
        -0.15260103110980383,
        -0.17476762220066422,
        0.09671557226405739,
        0.17964907895398405,
        0.12999310718310317,
        0.030582109345603098,
        0.050871101999480334,
        -0.15965736558312318,
        -0.04372606064492304,
        0.04173250175254187,
        0.04724971472526221,
        0.1197723356438922,
        0.1869314888477189,
        -0.06076268192569134,
        0.07942944421774603,
        0.19871308400507967,
        -0.011721371973198363,
        0.14722022526263348,
        -0.15304793718838783
      ],
      [
        -0.1434001140329953,
        -0.17180991413738717,
        -0.2102797439672146,
        0.14324492958396126,
        0.10949726592086975,
        -0.1997635171173187,
        -0.137059439146582,
        -0.1726468677476758,
        -0.12663711006386502,
        0.006998283206978928,
        0.05511964674566025,
        -0.13435927333089392,
        0.19360295981011946,
        -0.13106626367529262,
        -0.026179827168449243,
        -0.026555283491665638,
        0.0924659483016523,
        -0.11899109175138373,
        0.10272722634923412,
        0.12256808927920473,
        -0.11617075279244615,
        0.06731296508558773,
        -0.1415777859519804,
        0.09417035360342726,
        0.1297566649123462,
        0.006322993823946577,
        0.12271291818471439,
        -0.1391313685369142,
        0.1735350127290283,
        0.05326264635051117,
        0.04491485952384508,
        -0.13356050286423038,
        0.09453830779176484,
        0.16486013865092872,
        0.04933214397870214,
        -0.109758559997916,
        0.04867514580046209,
        -0.15802815003087523,
        0.1710249133089005,
        -0.04820878690361549,
        0.0022074310903169303,
        -0.13469357675682048,
        0.17184510889794305,
        0.06916419886562877,
        -0.15921477946332144,
        0.19271618718078518,
        0.047630292828811566,
        0.0642345062798351,
        -0.1288862418808991,
        -0.2218530713759648,
        0.07353033592001948,
        -0.08314874222063404,
        -0.20499047592222128,
        0.022371831138248865,
        0.009221237575939789,
        0.15424822653689993,
        0.054865035915063115,
        -0.09297443525194118,
        -0.13248033048824787,
        -0.09168759563157153,
        -0.07300891797681233,
        0.014111941767961544,
        0.17838422939205087,
        -0.1963865137381215,
        0.07586197216201099,
        0.2068454804055365,
        -0.13717782860141764,
        0.22019761126044993,
        0.03559209595681148,
        -0.04900034380005783,
        -0.004845478321469449,
        0.21843506782342217,
        -0.12066236490145721,
        -0.06966783436652166,
        -0.06530584007475396,
        -0.1651081350849374,
        -0.0959883401374243,
        0.014746935485185436,
        0.03841274919253171,
        0.012693161752159787,
        -0.04679379725033961,
        0.03710312208838587,
        0.011488078320012474,
        0.03814003992634549,
        -0.029833321466901264,
        -0.11437372750956161,
        0.11034371170926408,
        0.1803022028176903,
        0.16546764939408473,
        0.05528748470281106,
        0.1730257066882002,
        -0.1802126706024135,
        0.10676812256929116,
        0.19113935935507367,
        -0.0015926675651423694,
        -0.18167424946223187,
        0.16278160920268783,
        -0.020247544724983496,
        -0.10461744907321027,
        -0.2142548350944406
      ],
      [
        0.036159074963925314,
        0.041393402976259014,
        -0.07798760510886082,
        0.008063630823909651,
        -0.06433869355824759,
        -0.08623300164601982,
        0.02872505826099156,
        0.13670525107265666,
        0.18732510431732866,
        0.14389820747092733,
        -0.1580841045370745,
        0.0793729722429268,
        0.1711037916831,
        0.1417782633919489,
        0.0869881671303834,
        0.1598954293172711,
        0.0748870539936882,
        -0.09998213723674955,
        0.10889999103914946,
        0.09864554605110251,
        0.1821163318215506,
        0.17291273192040837,
        0.015598257028016232,
        0.000786135565795848,
        -0.042683490646010985,
        0.10913700193851608,
        0.15022450939931117,
        0.09943282346644652,
        -0.1611594303279792,
        -0.06376444237745024,
        -0.1863519925569416,
        -0.03993955173654595,
        -0.07759106997678272,
        0.0780532237422242,
        -0.1287786331402727,
        -0.04648412105897268,
        -0.0892204018345733,
        -0.05487897515152934,
        -0.005750635907921076,
        0.14017447183075796,
        0.07568554302691113,
        -0.18221879826417808,
        0.16122612605092693,
        0.15999354596857648,
        0.13672028048726234,
        -0.02134234453659753,
        -0.16687203910778436,
        -0.031525150986037365,
        0.18508667358810046,
        0.07252072541463836,
        -0.15357223752906918,
        -0.08006991581207945,
        0.16554174643743239,
        -0.11387344712710348,
        -0.12348044584927867,
        -0.17719456315918725,
        -0.05017082788138352,
        -0.0805077204578194,
        0.20616603609588077,
        0.1337156631173916,
        0.1523774174630073,
        0.14679847483496675,
        -0.08160473583329647,
        0.21745179373330611,
        -0.07085234324877271,
        0.0235132261049541,
        -0.09928239555387997,
        0.18171465244353405,
        0.17334747636309897,
        -0.05137732678747631,
        0.17966747930823415,
        -0.06807874927222887,
        0.024498435455837547,
        -0.014808400341948413,
        0.05306994519489691,
        0.21359853828586242,
        -0.14035220119552605,
        -0.09408189468289721,
        -0.01836505368309299,
        -0.14894390078044717,
        -0.196897211497999,
        0.19894191590130314,
        -0.12276267089658228,
        0.19805469992635263,
        -0.12941495566047403,
        0.07787560119512618,
        0.18485625317614837,
        0.1952101620581688,
        -0.17884198548774735,
        -0.178283297190171,
        0.1935405342501745,
        0.20320826806157213,
        0.04669767687617074,
        -0.10000550763725079,
        0.00679529220422434,
        0.041729840797470524,
        -0.03244952089644934,
        -0.16269070472535574,
        0.015847555990934153,
        -0.009163699027773975
      ],
      [
        -0.13874917279512186,
        0.19749433752198195,
        -0.15563565712788333,
        0.14075950369941856,
        0.030556480798165225,
        -0.10498337304414612,
        -0.037921606211878955,
        -0.10285061977555487,
        -0.19094729028824212,
        0.2023736926689694,
        0.17418515480960553,
        -0.14078669874994906,
        -0.05007175350019594,
        -0.14853033050491793,
        -0.15372405123895438,
        -0.10189859726598262,
        -0.008392105987610421,
        0.1913204512911261,
        -0.05854286114819976,
        -0.20106052061417465,
        0.10533548319974037,
        0.1576725693663619,
        -0.16011731232641632,
        0.013257253830519566,
        0.19364115120965883,
        0.027387770118638882,
        0.07960184083685282,
        0.13108195807550957,
        -0.1451319638442198,
        -0.07934998638509125,
        -0.14542513355111425,
        -0.12416736904518492,
        -0.08122066509234888,
        -0.18558200567332014,
        -0.13868380913756434,
        -0.21850930120776166,
        -0.08950124747037516,
        0.05897759119574594,
        -0.006795125848699929,
        -0.16998093374758474,
        0.1680596964055692,
        -0.026387700739647357,
        -0.17276481686410325,
        -0.03870340396688329,
        0.2105492514760641,
        0.08155607306578036,
        0.08687978079871031,
        0.21483115148185158,
        0.008514812407104777,
        0.09379397648472168,
        -0.012347999428209327,
        -0.08706411435577768,
        -0.10571805684712386,
        0.12766138276173536,
        -0.12627220789402843,
        0.14937461968504342,
        -0.2215247111630626,
        0.19787512972901747,
        -0.1462830788799792,
        -0.19042373347705047,
        -0.20331310258901242,
        -0.010982573459574735,
        0.15368208421660376,
        -0.12965071629039643,
        -0.017232943316603105,
        0.14711872648803234,
        -0.07901597830826243,
        0.08319108024244179,
        -0.08339648161527213,
        0.0871686686177979,
        -0.108824147896211,
        -0.14606223956666498,
        0.174985082373427,
        -0.08462538076898332,
        0.21612265830201707,
        -0.019315731799247726,
        -0.07011213562441224,
        0.17828374081646972,
        -0.09220521981441626,
        -0.15681837110670183,
        -0.041549511668243055,
        -0.029504257350034396,
        -0.08785806369881141,
        -0.14871464627781095,
        -0.1973068505849766,
        -0.029100607033271608,
        0.0922894491557418,
        -0.12124136267169947,
        0.13309974637041713,
        0.11877685543762231,
        -0.19406169037666166,
        -0.09940163544466461,
        -0.19359346436388142,
        -0.15126598978828393,
        0.09792681581623405,
        0.024234648993223057,
        -0.21119785640818958,
        -0.10176076037045706,
        -0.1333354068587025,
        -0.16913810320807798
      ],
      [
        0.14912070412396924,
        0.06406028831371433,
        0.08474116581478161,
        -0.20583449910209903,
        -0.14909178319574415,
        0.03400658522789993,
        -0.1559935967779542,
        0.0447560534664139,
        -0.005613732591224385,
        -0.08939482537498628,
        -0.035964929798013495,
        0.04629521506932824,
        0.13978024400449904,
        0.057859802781571185,
        0.16489333790291724,
        0.17640384790639016,
        0.06793744137874688,
        0.11169328668574277,
        -0.029457516392909028,
        -0.11167098212307072,
        0.10841339360986221,
        -0.1265544090493883,
        0.21077811427595214,
        0.003739916293864831,
        -0.08616570408505897,
        -0.1566134530869891,
        0.21201638028144695,
        -0.07765206178491957,
        0.18692009603771684,
        -0.16083428447890988,
        -0.1735082253545654,
        -0.22018986928886775,
        0.12413043420692146,
        -0.04478767582846668,
        0.10716455893247814,
        0.16218953978466252,
        -0.05886253725052104,
        0.12150830451150793,
        -0.11605187588097293,
        0.0909054819482348,
        -0.18329169472891071,
        0.15871289875443825,
        0.2029136144329228,
        -0.09904023533437156,
        -0.03952673357306197,
        0.1693362693363358,
        0.03541342493191782,
        0.21659682125843052,
        0.054853509961224706,
        0.21721362485035092,
        -0.0927745564194114,
        0.12023013681000774,
        -0.018427698176981422,
        0.029356593839792028,
        0.011271379421820521,
        -0.16310155410654786,
        -0.04276295541485389,
        -0.08672887089496364,
        0.1444921187027646,
        0.19694434851393053,
        -0.17295517160780838,
        -0.0005002194535315418,
        0.0020245240373955864,
        0.13744312931483013,
        -0.1250575539370541,
        0.021679382416123827,
        0.025641048104092873,
        0.19417791185082836,
        -0.14577438986076469,
        -0.02254525216394196,
        0.06302733450605033,
        -0.11023536784988863,
        0.058850823306328875,
        -0.1485092729206843,
        -0.05155244858370109,
        -0.16701686748532085,
        -0.13687272659282812,
        0.14933401941911925,
        -0.1356509935964107,
        -0.15806497037766432,
        0.10455694479669933,
        0.03550868032015095,
        -0.16629647990864174,
        -0.07417462729531632,
        -0.05906257881591001,
        0.1283722648508094,
        0.1200514709929649,
        -0.06431378787602218,
        0.087178108320598,
        -0.19800252274683922,
        0.16650057837876778,
        0.10818520650352167,
        -0.058928542929365224,
        -0.09507260310385429,
        0.10568452420002636,
        0.06675131988877456,
        0.009001790613345106,
        0.13761946521102,
        -0.14344101218143196,
        0.019715227450081724
      ],
      [
        -0.19620223843696266,
        0.1960602373773809,
        0.06611688240758404,
        0.21387790851278535,
        -0.03816137658539659,
        -0.08517028242907818,
        0.19496013649326957,
        0.2160853279260785,
        -0.10187409444661973,
        0.2227892334736911,
        0.05354213470175581,
        0.008160915679819941,
        0.20081514189327246,
        0.036060042766159844,
        0.05346430206402733,
        0.0356474745783997,
        0.21073414687007483,
        -0.16508099151264286,
        -0.025156910106385683,
        0.07282655903812116,
        -0.004529219770078169,
        0.0561966237337225,
        -0.06776396255755346,
        0.19622234640231842,
        0.03542141380973754,
        0.08929524428734267,
        0.14828145312531285,
        -0.08581403363556228,
        0.04506419021710337,
        0.11443743974054052,
        -0.032076204944572556,
        0.1466558718258991,
        -0.03873738053904621,
        -0.11143694421821995,
        -0.07326823123403237,
        -0.027661860532531057,
        -0.032689134561333544,
        0.05039626260707422,
        0.10101068856047088,
        -0.2051695781344461,
        -0.14420624342102825,
        -0.0260790482428363,
        -0.15530894333960166,
        -0.18753621491108086,
        -0.18328291234598965,
        -0.17829414947373246,
        -0.009382007815916804,
        0.14464143575611813,
        0.1464132872367748,
        -0.07241364400514644,
        -0.2009961991371218,
        0.09258165864232401,
        -0.06114627694619024,
        -0.07490562156389532,
        0.09930416922271942,
        0.11366036619008865,
        -0.10905937177733521,
        -0.11513357250037065,
        -0.20424960198879788,
        -0.015773200279268623,
        -0.01881082425430483,
        0.14534494701876058,
        -0.01887520546094612,
        0.09292241345316285,
        0.08372199904528618,
        0.0005836260813886773,
        0.1685304255742919,
        -0.08483240942235276,
        -0.21038477155282698,
        -0.04789392052551478,
        -0.08515095345325138,
        -0.204109999552509,
        0.02839664188519045,
        -0.11168940487939362,
        0.1300036788399724,
        0.005397880409738459,
        -0.16023069500448406,
        -0.06915780827123497,
        -0.11329322059156041,
        0.20774912566267897,
        -0.020174682376909447,
        0.21510278378759187,
        0.05143016530055236,
        0.14596699409737804,
        -0.10613029581558588,
        -0.2126775276359928,
        0.07676678494849512,
        0.04762427474398853,
        -0.19914136500134258,
        0.1735598459735592,
        -0.06655029203437524,
        0.09188301748930047,
        -0.02633664050210452,
        -0.049172819927090994,
        0.06090747889622236,
        0.19422078655861338,
        -0.17449461317221587,
        0.22027435684587868,
        0.11579952107276345,
        0.1753349459084235
      ],
      [
        0.07669812252104788,
        -0.10897539856148068,
        -0.16321728653223716,
        -0.11005339731255537,
        0.10775510900348559,
        -0.18479897158880976,
        -0.07525856723675428,
        -0.13297079055527894,
        0.1763382502124405,
        0.06405518999793988,
        0.17920334272068753,
        0.05231818918011108,
        0.22334187187859864,
        0.049400895918071036,
        0.2168253103445916,
        0.06206098538019297,
        -0.1453721365812207,
        -0.10505950250927602,
        0.11732744481330945,
        -0.011024220313222699,
        -0.1220946415188165,
        0.2107911709284281,
        0.06606051289176848,
        -0.11831970316104548,
        -0.010682310405758233,
        0.21605784336151387,
        -0.18651303516612489,
        0.12488643243429501,
        -0.1488313631863207,
        0.031853617249200356,
        0.06167214233513843,
        0.025862062078397807,
        -0.12029789731933384,
        0.002672869539601719,
        -0.0716764015055717,
        -0.011778434431902463,
        0.021264262235517972,
        -0.06947097574046371,
        0.2165176989708628,
        0.09036560575901545,
        0.1572817853032261,
        -0.10887706911830616,
        -0.20454047765283187,
        0.09466785888398263,
        -0.04264383827467161,
        0.1103882802883446,
        0.16983537281962682,
        -0.19594567995447704,
        -0.0579007571405489,
        -0.14825884913115983,
        0.1343097257898341,
        0.008755351285645363,
        0.09682157115997894,
        -0.09633194843395684,
        -0.022410638638990205,
        -0.21859680052691344,
        0.11830472635604625,
        0.022372625643973854,
        -0.09789364111416382,
        -0.09687592319403049,
        0.06441668671616566,
        0.1169878714584108,
        0.06995623871150716,
        0.06526508029864211,
        0.04529468824988728,
        -0.18212953479851196,
        -0.20166020522489533,
        -0.03272200062225156,
        0.10987923230009441,
        0.16022633870116695,
        -0.06545924730149366,
        -0.015508278679218584,
        0.1561879025619953,
        -0.015960541612588364,
        0.137569717792441,
        0.10798674572411529,
        -0.016243141577758496,
        -0.106462910852305,
        0.2195445056086953,
        0.15978308164854624,
        -0.045797539390579844,
        -0.12874761897501488,
        0.030531850326944526,
        0.0636219317032454,
        -0.16479573752793059,
        -0.011758072385878199,
        0.14675849242920028,
        -0.12873753811220118,
        -0.04161318407564338,
        0.07859676405491581,
        0.21147296108062255,
        0.21275520804085826,
        -0.14315138577316533,
        -0.08285744004888801,
        -0.012305603924398806,
        -0.039517639636630575,
        -0.10921468125451467,
        0.039433540611898216,
        0.051957841687018086,
        0.2180169204259961
      ],
      [
        -0.14745633693981147,
        0.07587434927121886,
        0.037896333075905425,
        -0.1951987705617186,
        0.11406264763709387,
        -0.09008779987566609,
        -0.07453727127806398,
        -0.04873658182356,
        0.0007793020219079849,
        0.21958381498008292,
        0.002411793365497794,
        -0.0667629402442339,
        0.10613835317378204,
        0.004941262354984377,
        0.013933876419392005,
        0.05233598898502975,
        0.2222018047085759,
        0.08485474158074371,
        -0.08869329658529393,
        -0.1751810819397502,
        -0.041669876357383395,
        0.19807204902487677,
        -0.10195006269891457,
        0.05094141057731069,
        0.09429774121827003,
        0.091428712989398,
        -0.1165400070275076,
        -0.059701381036937895,
        -0.056476166917903525,
        -0.030892557592933634,
        0.11505134360858663,
        -0.0024348099622508723,
        0.06662690579316125,
        0.19236030908203985,
        0.2096005393432546,
        0.17944021303015192,
        -0.11447142962550036,
        0.1500420418252917,
        0.11760752016307877,
        0.19859887234091914,
        -0.013227539389807585,
        -0.22166297574129362,
        0.04172317241407378,
        0.03736608635642982,
        0.04285414013778063,
        -0.1522929509704875,
        0.18266132638182112,
        0.022057416691959847,
        0.12165788362965177,
        -0.19728270972133413,
        -0.10822258484499177,
        -0.04856297581963209,
        0.1694439020530135,
        -0.1734876256327325,
        -0.19541605094670683,
        -0.22066018286411687,
        0.029264582611907758,
        -0.09452008300723452,
        -0.09533621396923544,
        0.14116393175255662,
        -0.0005207826520558789,
        0.15841082024765166,
        -0.2091889099603171,
        0.12240803973833533,
        -0.15856789666464113,
        -0.12910281668607507,
        0.13642281755415328,
        -0.18766779949697976,
        -0.14871374846007304,
        0.02564853702860731,
        -0.17612945419969864,
        0.21594288076380516,
        -0.06773417134431539,
        -0.16482778699990192,
        0.06619180972779845,
        0.12255521746164602,
        -0.022209450508263395,
        0.11866190429126058,
        -0.011326068130779854,
        -0.03212204128106022,
        -0.03403376445785103,
        0.16465296950288263,
        0.001947082485202506,
        0.15599630691659574,
        -0.1303329269226226,
        -0.1707226725799804,
        -0.1233497416423633,
        -0.06190577766350239,
        -0.05537545129402399,
        0.21107922960181122,
        -0.13515358121639676,
        0.08573688877961386,
        0.08583203290024558,
        0.04801743617219709,
        -0.1918295842860298,
        -0.08542574147940166,
        0.10074270113424269,
        0.08322643098394797,
        -0.07007747847920318,
        0.03001844875911583
      ],
      [
        0.09809818518523858,
        -0.2161859266985054,
        0.13089687005176096,
        -0.034004416777910496,
        -0.056534898844370574,
        0.10176941488269822,
        0.08866656226151634,
        0.06602428806483082,
        -0.21174704053901283,
        0.14512290353429677,
        0.09384265779427922,
        -0.11348833173957745,
        0.1606207806614511,
        -0.04500612226173423,
        -0.06856093425781115,
        0.13163379903226294,
        0.11380250850113041,
        0.10823525292110184,
        -0.07255178404248833,
        0.062308841152469624,
        -0.17452105534587295,
        0.15196467804823235,
        -0.06739480312352902,
        0.07727977971765823,
        -0.13054258428900384,
        0.12119552069952713,
        0.21143396111274013,
        -0.22039037611072276,
        0.12978959719179492,
        0.07034302873714907,
        0.08315848032651194,
        0.18339872719988112,
        0.09052722520212278,
        0.01816173444112279,
        -0.0055686902565996454,
        -0.12054074951156377,
        -0.039356690444709685,
        -0.20441987485970686,
        0.15671488699604727,
        0.15281694071612653,
        0.21536193643024673,
        0.043707838704589635,
        -0.0069313796564130226,
        0.20315508323526363,
        0.13494999255546283,
        0.1578169962723723,
        -0.0362540050192838,
        -0.10048798992227909,
        -0.2211753197805489,
        -0.17269803215335464,
        -0.016117333073717016,
        -0.1067514214712637,
        0.0927845473642763,
        -0.20132585542994957,
        -0.2222446567301824,
        -0.21618932503196556,
        -0.15589423354959941,
        0.045922180862333045,
        0.13881395825113976,
        0.07561114661851051,
        0.1922559285971204,
        0.15525621059411457,
        0.13461573159006265,
        0.07856017145897168,
        0.16005127174041386,
        0.14944836258103003,
        -0.16641414802238078,
        -0.14055804055741133,
        -0.087980543861918,
        0.20205274976565943,
        -0.013628928789924194,
        -0.1606849397175647,
        -0.040514469461810504,
        0.07162159194214371,
        -0.1572010781531476,
        0.11155459218231054,
        0.13379129622401761,
        -0.1766703285948822,
        0.018261623217821682,
        0.050902560979720596,
        0.14923807256500263,
        -0.026252106146087723,
        0.13153549893145886,
        0.10730376443187431,
        -0.1834862207870007,
        0.20262169801190114,
        0.10764739373192109,
        0.03750134340605191,
        0.17336775146472358,
        -0.002142523360135179,
        0.12103426823085403,
        -0.15718398186393998,
        0.18379647143363823,
        -0.05647304954012386,
        0.07493386345717287,
        0.09470962304698202,
        0.07275950515840715,
        -0.21362721880353125,
        -0.014829806213982,
        0.005040498344031641
      ],
      [
        0.21933332054284757,
        0.03199870549840164,
        0.014870484542445411,
        0.04763129751151243,
        -0.09915053582920862,
        0.05167296151921255,
        0.15103546723474368,
        0.13543838882028195,
        0.09557794068350886,
        -0.007947436245636763,
        -0.1748956615536606,
        0.12565473815472253,
        -0.11541277863868456,
        -0.14120079194334934,
        -0.14056563631570665,
        -0.0025439382918345244,
        0.0919759373813768,
        0.2067613004941342,
        -0.15021376847214685,
        0.09909541676392705,
        0.0387178706974233,
        0.13178789664416243,
        0.00988621109962029,
        0.13202041602778583,
        0.008126748405249157,
        0.093214354178452,
        -0.22103078180113853,
        -0.07529230945033341,
        0.11093515218607394,
        -0.1885593038180278,
        0.20766938959054596,
        -0.0752409236437468,
        -0.15697728743584022,
        0.07903370431828646,
        0.13290248465553448,
        0.002899911601155908,
        -0.12092415935137768,
        0.18173547685677258,
        0.2228263221612655,
        0.02397799666483713,
        -0.018914169046294116,
        -0.11308124737659699,
        0.07702881116814078,
        -0.07730841940464159,
        -0.07412124065855771,
        -0.09757266056601416,
        -0.005903924856551196,
        0.1506918130623525,
        -0.11252528937126872,
        -0.1572311160202246,
        0.03440365952454236,
        -0.15200744544675537,
        -0.04098158167521593,
        0.04252261738909982,
        0.14535582894812346,
        0.22259383627160248,
        -0.22288544001792332,
        0.14435608732479463,
        0.0990328035167646,
        -0.20026156616402352,
        -0.07667320590971413,
        -0.1338218623826592,
        0.20541004711456182,
        -0.042395858704636,
        0.01690521639122572,
        0.08344437929050172,
        -0.15342338602781422,
        0.18102742211015796,
        -0.002234535950609323,
        0.2052472517699945,
        -0.14691132493340803,
        0.1993330743178723,
        0.11140980170823203,
        0.11730124105744819,
        -0.0428410443092683,
        0.16677983272838479,
        -0.1938569183420227,
        -0.04333334263699004,
        -0.0539581832185623,
        -0.14652065935770844,
        -0.21468716498709314,
        0.140135017174263,
        0.08380019592057955,
        -0.05591124232686473,
        -0.17121212528447624,
        -0.20064624068265605,
        -0.0685666958744007,
        0.01922127448314162,
        0.2177567205417318,
        -0.10185975591009087,
        0.09390310597625837,
        0.21929218639928413,
        -0.152910148806852,
        -0.19640780656438886,
        -0.08497718439910279,
        0.05484642779348478,
        -0.030706009752608204,
        -0.07261886307772508,
        -0.1897907356364186,
        -0.06944563647496418
      ],
      [
        -0.11808053694353252,
        0.19343342396872895,
        0.014224677463725383,
        -0.19630737868838732,
        0.15749666654821962,
        -0.04346731466517856,
        -0.13395646507289843,
        0.01467989665082553,
        -0.091069066970492,
        -0.11707542909920306,
        -0.08138772864916932,
        -0.11995083983093688,
        -0.2192757371519962,
        -0.04479898061807269,
        0.1889965292038158,
        -0.009425471940297442,
        0.19599463940397252,
        -0.1794101076913072,
        -0.13233785510206986,
        -0.04881030773814954,
        0.11470803500945695,
        0.17033218261939173,
        0.21791969919637852,
        0.08615638768386066,
        0.012930327278989212,
        0.0922871541341602,
        0.2097553157281201,
        0.15735285432579646,
        0.08449793728344121,
        0.16747670689753993,
        -0.04900924699675016,
        0.17781670736727365,
        0.14752979537995334,
        0.05554032149353169,
        -0.14373204041615553,
        0.08936117150446629,
        0.19985982408113948,
        0.20546931888679357,
        0.16952774881733437,
        -0.14031865410333202,
        0.18188818394374154,
        -0.036090148282950985,
        -0.010315058841791347,
        -0.024521365550770002,
        0.2203830938784426,
        -0.17567022170982916,
        0.09862426739637972,
        0.060982216755200075,
        -0.06010773902197858,
        0.17714272719608107,
        0.170992163061264,
        -0.11137791469556153,
        0.16037275567637152,
        0.20174176115183365,
        -0.09430344555432033,
        0.09213919747311869,
        0.0083639936532455,
        0.12571946986931723,
        0.10499584171775642,
        0.017716450123573507,
        0.19400049189219112,
        0.03062437561048989,
        0.009811563797024525,
        -0.09327713815110594,
        0.15178225780100288,
        0.1946688756953708,
        0.07193616760135682,
        -0.1441366625268918,
        0.07064698727638705,
        -0.13764460886002824,
        0.1194327336689465,
        0.14202921665637422,
        -0.16604687813743169,
        -0.14200945772195034,
        -0.011083287905211986,
        0.056516313910100396,
        -0.0027343604191902016,
        -0.09684074153453351,
        -0.06326181903723102,
        -0.17845375109716327,
        -0.04831327288109308,
        -0.06420430184209511,
        -0.11495729176388868,
        -0.1730039538786398,
        -0.1694706874999124,
        0.06419968312613358,
        -0.08532519301972968,
        -0.18128082078610344,
        -0.08518671931057659,
        -0.14119434274525483,
        -0.056080739370162475,
        -0.21362232655505722,
        0.14820236382715848,
        0.16458014471973956,
        0.04618409348744426,
        -0.03414299567548465,
        0.06585603164553308,
        0.0991514460304189,
        0.11572720540642703,
        -0.12947471418649484
      ],
      [
        0.1725247232510935,
        0.14800778326989236,
        -0.03485592166594795,
        0.05533188099390332,
        0.09639752780917801,
        -0.12043110044630691,
        0.005596775253815911,
        -0.08165850855736942,
        0.11264495343065442,
        0.12798967240311263,
        0.01943878441972305,
        -0.17281831657821412,
        -0.10048606059547142,
        -0.04553536131438379,
        0.10849825776424901,
        0.006671140191571195,
        -0.09051325661224208,
        -0.08364607039340766,
        -0.08194357424920104,
        -0.11644888080529797,
        -0.07669870348547075,
        0.13533882274499134,
        -0.17421395855782834,
        0.03574216610312034,
        -0.07070805111321596,
        -0.14388141243321573,
        0.18781476798896676,
        -0.2219724621946021,
        0.10353176051723503,
        0.09413242189059243,
        -0.08721642727252651,
        -0.020103946757740354,
        -0.05713410928872975,
        -0.13990600101997414,
        -0.1484270793349903,
        -0.1266478847402385,
        -0.048824882314035756,
        -0.0782368104422273,
        -0.04337779669864428,
        0.0276578052471185,
        -0.20661879434450173,
        -0.016340836538669246,
        -0.06709831858711848,
        -0.01604115706934439,
        0.11381962296211565,
        0.11119553331509593,
        -0.14079798524704384,
        0.11114761360082273,
        -0.14127562712771194,
        -0.016755472163239776,
        -0.05616963625180413,
        0.006415064609223253,
        0.08263743569119228,
        0.13228260285387458,
        0.19039553802196926,
        0.03633287437331775,
        -0.13122702165671393,
        0.2006867030303903,
        -0.11543432482503811,
        0.15728714617142983,
        -0.010752853283366781,
        -0.04853148397230847,
        0.188648485021127,
        0.018727542944352443,
        -0.1774071165781707,
        0.119547328481552,
        0.06467491122736316,
        0.18815421039483596,
        -0.0010015695001202862,
        -0.08511701875873645,
        -0.16016667696861428,
        0.11545676272677188,
        0.1982273645943641,
        -0.17187089699072033,
        0.21949276339692428,
        0.21609378192168358,
        -0.22086017302577507,
        -0.017388199992649372,
        -0.1093508254143047,
        0.1299984200276377,
        -0.1858773395166377,
        0.007163194324188549,
        0.07356853887020318,
        0.20278766788753985,
        0.004417478039810352,
        0.08619637476544403,
        0.07390092383022359,
        -0.0928930458018693,
        0.17582472912517486,
        -0.20745011800427332,
        -0.13044160897050175,
        -0.14491277128051888,
        0.20096644817788054,
        0.158560579314626,
        -0.19963644783156217,
        -0.07597725782638051,
        0.14673279449706836,
        0.13546551997518627,
        -0.09757963402863765,
        -0.02571344845465845
      ],
      [
        -0.18485815036168998,
        0.19408088980019952,
        0.10310263840781794,
        0.20520738167751382,
        0.10012678469855926,
        -0.20000680162076512,
        0.1387142190440934,
        0.001004175880770064,
        -0.09777468578310389,
        -0.2146704310713937,
        -0.16148779511833147,
        -0.07634957815516175,
        0.018507558105305383,
        -0.16410069590418716,
        -0.06667537928706674,
        -0.15542087973486984,
        0.022901732037804212,
        -0.011929309391057186,
        0.1920601344957579,
        -0.034757507764228396,
        -0.08322692527085007,
        0.21768683772626105,
        -0.06358937521460131,
        0.059921229315298724,
        -0.12991981513113066,
        -0.19770845129611583,
        0.17950095423826753,
        -0.06884294104794439,
        -0.1042977274869283,
        -0.0032195987164823914,
        0.06663678356097799,
        -0.05302053620169625,
        0.2226900912477682,
        -0.06952791635058089,
        0.011084168073745904,
        0.10073366442112733,
        -0.005983444363739432,
        -0.18584396983601814,
        -0.11871802047922957,
        -0.012545646276079014,
        0.0865831093495136,
        0.09021542132080893,
        -0.191163405858321,
        0.11204598128685214,
        0.1654563640504765,
        0.21569010910838224,
        0.15925197921507975,
        -0.21753551643806146,
        0.1072725056164239,
        -0.1195416159455642,
        0.03841709139342628,
        -0.18434791739146844,
        0.1304661368328743,
        -0.11349244767565453,
        -0.2167284474110734,
        0.04664733873561863,
        0.20885114842116073,
        -0.08259801328196656,
        0.21100113607183,
        -0.02806500470764564,
        0.016478067046854894,
        0.11008703212658069,
        -0.08239191416035169,
        0.20798311511988546,
        -0.030731238093891694,
        -0.11226621237540493,
        0.021794224827660386,
        0.2186822602013487,
        -0.15041800036547748,
        0.20456022243890123,
        -0.18330300193135707,
        0.10286413243118372,
        -0.035517639925840144,
        0.07508855160786979,
        0.059052777945501816,
        -0.11607489117749423,
        -0.09931271951952317,
        -0.1514743831242448,
        -0.14607987845349424,
        -0.07360470536566849,
        -0.10970802321473329,
        -0.2177320840758261,
        -0.10066949299921253,
        0.07390234617782873,
        -0.12174055375425517,
        -0.0015071597914829704,
        0.09631564749270052,
        0.11373974502256182,
        -0.1390566896764721,
        -0.04721850071041128,
        0.042234243586773496,
        -0.18737746154203083,
        0.06868650098701898,
        -0.03141374070871358,
        -0.04892569820951054,
        -0.1349216847002485,
        -0.18598831407241173,
        0.09873471529376002,
        -0.055130922882230954,
        0.19567851820082102
      ],
      [
        0.05967543960157576,
        -0.011813967407798942,
        0.15056871429718097,
        0.010511276022351246,
        -0.17177305740876456,
        -0.13760362156092018,
        0.1904509378966391,
        -0.029528070008867202,
        0.0019278985882255906,
        0.2222756599887156,
        0.09790192278220364,
        -0.12912096239386273,
        -0.06375560070918551,
        -0.14201791245903383,
        0.10574740505874922,
        0.010662889924959229,
        0.16623428798092585,
        -0.00022023836955328835,
        -0.10255116917493333,
        -0.0953289142809235,
        -0.13844014061352963,
        0.21447798227381323,
        -0.09581546193790755,
        0.029755751662765756,
        -0.048238909251433676,
        -0.20260513281187173,
        -0.12559729367635145,
        -0.16388773850409338,
        0.03252611908181166,
        -0.1427632283420293,
        -0.18644599394697886,
        0.05729129985332934,
        -0.16595176239731366,
        0.13757168272577944,
        0.03239829202768249,
        0.036355975562806314,
        -0.14950674373715486,
        -0.2017610333426743,
        0.0861101702864813,
        0.11224951237691386,
        -0.21452807924841777,
        -0.055229632501762466,
        -0.20960973584264364,
        0.08287786265897526,
        -0.04883369798671436,
        0.0340548500600136,
        -0.0668207444871648,
        0.2064280479899622,
        0.17442431904511077,
        0.22091785261355604,
        0.11397687592925457,
        0.08395432736815325,
        0.12744870338107897,
        -0.10680562098224987,
        -0.1297972995017851,
        -0.10232281680991191,
        -0.08405328337787121,
        0.17116610534256058,
        -0.06600040427831425,
        0.028054980058761142,
        0.017982801866387094,
        0.07434036591190477,
        0.1224580298494484,
        -0.19796785437708683,
        -0.06567142584336161,
        -0.020737150339939586,
        0.018521270684851376,
        0.17957660418668372,
        0.058007065550612386,
        0.0764752990003709,
        0.1280657236396935,
        0.10015817607885372,
        0.023210323229161722,
        0.045050136750095476,
        -0.07492838766048127,
        -0.0231371645819336,
        -0.02865790546236527,
        -0.050364834037943174,
        0.005052403838407521,
        0.07537055929185107,
        0.07157726364904207,
        0.07074416843814915,
        -0.12771833056950554,
        -0.1175973905960151,
        0.1229505817619139,
        -0.0930129665572906,
        0.008467041601732062,
        -0.19174516726795524,
        0.18089638528269378,
        -0.10564442962917286,
        -0.09506116491067232,
        0.1715572764946703,
        0.01698461303378579,
        0.19617551258322682,
        0.05732183338860261,
        0.1546959763123432,
        0.06730880921846363,
        -0.1149215984075626,
        -0.12117050795723794,
        -0.0022506469968414655
      ],
      [
        0.026360467106350677,
        0.11105805847130393,
        -0.1933118906445906,
        -0.05274874247632938,
        0.09260049300115572,
        -0.08249356011733816,
        0.21865311066106516,
        -0.10698358186897554,
        -0.11011182807676607,
        0.15190337923850286,
        -0.19840263192388077,
        0.07755594387942213,
        0.14137257059641814,
        -0.17584046016236354,
        0.03904860131456375,
        -0.07755438437168527,
        0.16774738457281044,
        0.02923190779130011,
        0.15488235811374876,
        0.08153552025187935,
        0.01742321275641745,
        -0.08715174880256626,
        0.01099933043370957,
        -0.1650627120144579,
        0.10659014392789704,
        0.0537829849699997,
        0.22230167825242123,
        -0.19588401205670877,
        0.046351886517779745,
        -0.11408594638230558,
        0.21310633818681232,
        0.10896078618089813,
        0.20016440708528407,
        0.10602796506805248,
        0.08474913805933851,
        0.16943574735298614,
        0.08272688745514847,
        -0.14898224810717006,
        0.019809579835564195,
        0.2117895923070581,
        -0.09022647126842556,
        0.12190023391024793,
        -0.16732749158868299,
        0.15178055349660866,
        0.18784865552692212,
        -0.04301293938588391,
        -0.1839701435050784,
        -0.1355534205905765,
        -0.0016081279786225033,
        -0.22194590208866904,
        0.10802875788598201,
        0.12643048979681712,
        0.18366288855566285,
        0.06278899054683676,
        -0.1817356208318465,
        -0.0021413491509856275,
        -0.034712424704035294,
        0.1261020474725232,
        0.032734227458532245,
        -0.21817528339771594,
        -0.03276793689116822,
        -0.06851072449380383,
        0.15060639226028347,
        -0.20080613040194897,
        0.18036375341106434,
        0.15627898552173217,
        -0.1521421485527725,
        -0.009605103188903341,
        -0.08570367849895691,
        0.14568580354843727,
        0.22312772735549577,
        0.16485424938879326,
        0.07263312952697001,
        0.12258031403952477,
        -0.18656699044384467,
        -0.19857821738010487,
        0.17496865734768716,
        0.14800578238743003,
        0.08040715461339934,
        -0.04577533102007869,
        0.02387170267925076,
        0.04179744342994349,
        0.1447155362989284,
        0.064796747906432,
        0.12913841490719033,
        0.044338653511354936,
        -0.18662717572442622,
        -0.1282690763963709,
        -0.07776256486142477,
        -0.08936777047574862,
        0.014077709471024852,
        0.21301052180396082,
        0.21972309054065145,
        0.19030355888747516,
        0.16546493976082885,
        0.1545406582025193,
        0.038942050361728625,
        -0.06972926358309642,
        0.15698574773224486,
        0.01258345408729089
      ],
      [
        0.019186976459337673,
        0.04156002101070391,
        -0.11327323855492645,
        0.17407628900309804,
        0.05521208921513063,
        0.14556679893679395,
        -0.09724386574329294,
        0.0797898770313564,
        0.15449515848384907,
        0.1953445247670524,
        -0.015576706176719635,
        0.051681497774269475,
        0.08139264859886305,
        -0.19300490890534452,
        -0.042304451587106634,
        0.1369428005039844,
        0.048967162029102534,
        0.06385631484419366,
        0.14421964587595207,
        0.02461446914346843,
        -0.024704008297681906,
        -0.1688336046852449,
        0.1507163940277497,
        -0.12861867486142986,
        -0.02497309626508723,
        -0.19201567611868536,
        0.1493896540675114,
        0.13291375897694854,
        0.036478188336238476,
        0.01066807988488605,
        0.021146884444846303,
        -0.15804056596172752,
        0.1987766274763276,
        0.22033583902421935,
        -0.2106634967396435,
        0.1719537071478978,
        0.11123663976811834,
        -0.07114845825845195,
        0.06466398941230925,
        -0.05364059496203308,
        -0.08537582227383078,
        0.09310967518047222,
        0.20354098774005344,
        0.0027744361312490584,
        0.10937844087140211,
        -0.2145449452239504,
        -0.1700261587704171,
        0.09616006936124741,
        -0.17238661241358458,
        -0.15060174889334782,
        0.17278334754436095,
        -0.08133730420501611,
        -0.05887109138529378,
        -0.17772547317748222,
        0.06619325287223846,
        0.1149662833140285,
        -0.07314457545893865,
        0.16063159826595655,
        0.0558457963821927,
        -0.0973032689915945,
        0.03260753646645734,
        0.019283218867155977,
        -0.21434368776174492,
        0.1267834001763056,
        -0.1102499146779588,
        -0.026280979342257677,
        0.1344687411665528,
        -0.08168635647252662,
        0.03452308244418098,
        -0.16925047312523248,
        0.13405813277378134,
        0.05647982710115959,
        0.027279261944816474,
        0.042121938484050686,
        -0.07185965476360354,
        0.0963044597109661,
        -0.01899224984041098,
        -0.054413943353898014,
        -0.0687122573054948,
        0.07878479862082263,
        0.0960562082307311,
        0.08809703980007325,
        -0.1060438876026727,
        -0.005172464568816759,
        -0.011391794319628945,
        0.2069216792115016,
        0.04810740479706563,
        0.03373979457190865,
        0.06907362224709737,
        0.00599974756199273,
        0.19013447777011364,
        -0.08674963567543192,
        -0.05802070696118178,
        -0.14736788313864857,
        0.2050305879658593,
        -0.07555182981989161,
        0.16618017376565483,
        -0.016360873829300404,
        -0.13731257640349825,
        -0.13237045471539483
      ],
      [
        -0.1276462250703257,
        -0.14019483062217591,
        -0.20828563175594364,
        -0.22202877134350543,
        0.09047508026451576,
        -0.034492685422948366,
        0.15044725205019135,
        -0.006388294929369542,
        0.10390571577649946,
        -0.1951814623267279,
        -0.1629825115342767,
        0.1997326756222518,
        0.21559519189217582,
        -0.05144332007008698,
        0.07175238509589324,
        0.21206135071540236,
        0.17494370662941197,
        -0.10057173684223229,
        -0.21431329613326505,
        0.06062379559562467,
        -0.1441743384295398,
        -0.21210788390680316,
        -0.12356501902216419,
        0.17730899257292446,
        0.1365226483974946,
        0.17554962413927308,
        0.04531215445285394,
        0.15408248840907976,
        0.16575597797093336,
        0.02203675051107759,
        0.19816539398109304,
        -0.09130592946499816,
        -0.18279293453183112,
        0.15378791713074605,
        0.06695452991947579,
        -0.08680872204289106,
        0.06010402389357963,
        0.003360803854248362,
        0.022004653116915768,
        0.1194312978943364,
        -0.14436594115912918,
        -0.16725416787550457,
        0.12343727789369266,
        -0.04625488542363421,
        0.04431855970621665,
        0.004896872401793012,
        0.1231999830856084,
        0.12477752698358965,
        -0.14620059221097242,
        -0.1737600602224463,
        0.14244406808449714,
        0.016515589721633778,
        -0.011061474443342573,
        -0.1936531140571536,
        0.10643170061194038,
        0.02123518364219093,
        -0.03787088007917569,
        -0.11437941795693077,
        -0.12460149391278053,
        -0.03651812863664952,
        -0.1396416144198282,
        -0.04702534969087496,
        -0.11579223425526215,
        0.14405405705678045,
        -0.12758105357734625,
        0.07798172658367306,
        0.05671307802545042,
        0.03404268617149439,
        0.20594971879725524,
        0.17324498899237126,
        0.10553889055394586,
        -0.20328377418897725,
        0.18546732462906082,
        -0.10699191677000704,
        0.0013715259813432967,
        0.031739236893659456,
        -0.06465314053011453,
        0.18705834265894558,
        -0.059323144779834885,
        0.0648541503117864,
        -0.22017616435167217,
        -0.04380299260203002,
        0.10751471722668446,
        0.1261341814982774,
        -0.1807485228484858,
        -0.20874850791145622,
        0.01733259603586801,
        0.16931467672230324,
        -0.20419157707046792,
        0.005108881222305267,
        -0.03523963128537422,
        -0.11753678975023525,
        -0.15425764392085967,
        -0.17965426945494867,
        0.014634517455285961,
        0.06263724988670819,
        0.15775587678791106,
        -0.2001681393548405,
        -0.208656580879996,
        0.10571205893905575
      ],
      [
        0.19921903776434455,
        0.10557544107894443,
        -0.20974426408035074,
        0.17768848783238603,
        0.1921987986353517,
        0.038880918645863655,
        -0.06795021425090775,
        0.19729853659099625,
        0.10944653846975375,
        0.007639974504304731,
        0.2168760814655832,
        -0.13611788101532474,
        -0.13403358668427867,
        -0.16285852035693762,
        0.008896449681205565,
        0.11868765120703409,
        0.13964618846262764,
        -0.11894530429402053,
        -0.024624519715971405,
        0.18838494858262214,
        0.08497725682130255,
        -0.10828143223802295,
        -0.2054576683269824,
        -0.11244414079251885,
        -0.0581134237588338,
        -0.1834934105322616,
        -0.0419355058903044,
        0.2002073344130911,
        -0.06896073185347884,
        0.0056084790370235504,
        -0.05388888638582981,
        0.14487681289830065,
        0.22146343195293125,
        0.14203088377174952,
        0.2047956664504876,
        -0.1562420734510148,
        0.03726094444129377,
        -0.030803808622695994,
        -0.16263114958037675,
        0.2163316857793268,
        0.1565108131960836,
        -0.13686980066166077,
        0.18972451552998418,
        0.05556907324915797,
        -0.03284926889826881,
        0.09640586627264855,
        0.142628750476503,
        0.09272144080948527,
        -0.10924178416529594,
        -0.22235000798255822,
        -0.00884560577233312,
        0.07181747189046353,
        0.06976153392319503,
        0.1006556376799976,
        -0.14344187786777884,
        0.19105534915044484,
        0.03146658110281084,
        -0.10664023983349234,
        -0.21335564062879367,
        0.025866939070659706,
        0.08727479481508102,
        0.06673647050604312,
        -0.15493661456059477,
        0.16312030058002938,
        0.16915241989501115,
        -0.1919341542911933,
        0.1761232997896585,
        0.1846076398685965,
        0.1585704619385889,
        0.19870931514422477,
        0.19725098486266127,
        -0.10025850458130625,
        0.01930082643196912,
        0.17484823178154676,
        -0.0026480777904265562,
        0.17964792539839744,
        0.1385403872523975,
        -0.028119634763711487,
        -0.06477098795271372,
        0.10647436578731437,
        -0.11290293670772374,
        0.07582500203948037,
        -0.01744495131843296,
        -0.05873026235012324,
        -0.09446168929830473,
        -0.1620348254982369,
        -0.033128556459318254,
        -0.1705586779202145,
        0.17337515738243733,
        -0.21924439062955706,
        -0.11809213520631674,
        -0.13631566329938288,
        0.0776290231191333,
        -0.07302997003121678,
        -0.07694725831559279,
        0.10635082915643815,
        -0.018689069541235226,
        0.09445576986472506,
        0.0932435901873945,
        -0.06626276550536953
      ],
      [
        -0.13989299870029825,
        0.08624135636776084,
        0.04820008341008605,
        0.010490383137274378,
        -0.18915283047307438,
        0.17231231170844238,
        0.06257258351986497,
        0.03403825542865016,
        0.17314951331656867,
        -0.19460731105576318,
        0.0006340198819969334,
        0.2018983946703197,
        -0.11055821930962437,
        -0.2148566374072428,
        -0.01569580592450659,
        -0.09789292455720308,
        -0.21347881073473132,
        -0.11086495071077604,
        0.062239664383169774,
        -0.12739237842792453,
        -0.14368375034123287,
        0.06064506244239551,
        -0.13674965853637477,
        0.1361345244928525,
        0.08320785909593051,
        -0.08749878202002381,
        -0.10910704127149967,
        -0.16915719209626612,
        -0.03831339632168079,
        -0.19731916463106586,
        -0.13636963555463338,
        -0.21637351817371459,
        -0.1528362957422903,
        -0.17911466325884323,
        -0.18133140926800845,
        0.08070823197866159,
        -0.10485107696205022,
        -0.1759617618867557,
        0.12232904146860299,
        0.19649333911634329,
        -0.015076573631232298,
        0.15144920460097808,
        -0.001389890757093254,
        -0.18703831627989914,
        -0.19927610907049503,
        -0.17508238869363432,
        -0.18113077716959483,
        0.03886186990838289,
        -0.01062268746377154,
        0.11515050979712535,
        -0.0005566098461036451,
        0.005791827792533316,
        -0.07459082038834886,
        0.1687945874965391,
        -0.09988681518366052,
        0.06579580069795546,
        -0.14217847428704478,
        0.20570210215113596,
        0.2091093740046789,
        0.047317823133294384,
        0.18571792248304733,
        -0.20184568449340157,
        0.175018925020022,
        0.03054583971505978,
        0.008867939141901177,
        0.07618920940449544,
        0.17507643695451783,
        -0.005287334208185196,
        -0.11724925506115137,
        -0.021604715611257652,
        -0.1285913552906859,
        -0.01617967167539136,
        -0.1708799427707164,
        -0.20732240240657296,
        -0.12369073815115264,
        -0.10200280866533867,
        0.009187555688360355,
        -0.1749952819756954,
        -0.199648712204118,
        0.21615052689087036,
        0.2149867262362624,
        0.1714957591099661,
        0.012102546268933562,
        -0.2185742579101434,
        -0.17495168967462887,
        -0.02490555151031193,
        0.18461981750887677,
        -0.191227679697198,
        -0.16279823911342872,
        -0.08311665982108163,
        0.1695481075039401,
        0.09200411289837371,
        -0.18638585607407565,
        -0.12602924831427187,
        -0.05232215295133247,
        0.0371213982850325,
        0.06943281551462718,
        0.19792857131342848,
        -0.034795623502772904,
        -0.16603942919492473
      ],
      [
        -0.02937982668787542,
        0.1332065718397776,
        -0.00024085996036110613,
        -0.15205746298402206,
        -0.1587324944957264,
        0.01577382563017385,
        0.12172781443173217,
        0.1609286763267058,
        0.1347446115663151,
        0.1741438043154581,
        0.20340061667890633,
        -0.029368156913460508,
        -0.11401144386307065,
        -0.16988514372270322,
        -0.13515402766750403,
        -0.12576626924198137,
        -0.12622261532466433,
        0.016447767441358202,
        -0.06223347292033615,
        0.11704371681377582,
        0.014828164657653908,
        -0.201843458328706,
        -0.024395628178390305,
        0.04273544668288673,
        -0.2035742350310534,
        0.04545833697722332,
        0.2203842855241777,
        0.09640236311365699,
        0.22178372211362593,
        0.094673945035008,
        0.17297894613902018,
        0.0325116923093611,
        -0.11828674950043934,
        0.21143210559970768,
        0.21564824270414887,
        0.162988818043143,
        0.08849124864579219,
        0.1842294902988155,
        -0.18095017407132488,
        -0.027049771585171106,
        0.09603277618506575,
        0.0231936479854718,
        -0.10011966482105424,
        -0.006984561857648092,
        0.11841954152314652,
        0.16194340062595355,
        -0.21740339110043572,
        0.17965355591782536,
        0.19728582070839015,
        -0.07334850092878456,
        0.0458120873090295,
        0.13117737774626267,
        -0.183560421073681,
        -0.009825971124539923,
        -0.0011704160628107918,
        -0.11063022704362116,
        0.17486842765589697,
        -0.20402020928081055,
        -0.03718028328939765,
        -0.14134478261999278,
        0.020487342358191774,
        -0.20072770065121595,
        0.16352970154980548,
        -0.04530128967170294,
        -0.20196703866556753,
        -0.17389073387228535,
        0.08041134226310317,
        0.046142761367440194,
        0.07548713814468341,
        0.17407851143707462,
        0.16992042089621526,
        -0.08173482763455131,
        0.19627666624454224,
        0.14245836593703734,
        0.015188602982799976,
        -0.053524761866870135,
        -0.2144923712520817,
        0.049500933839468825,
        -0.09890182723850881,
        0.09370930792440638,
        -0.006278128423068907,
        -0.10984997135510632,
        0.20011710788232032,
        0.17232928912606135,
        -0.13249820262504208,
        -0.03011753745570983,
        -0.1832638841570119,
        -0.07499751541855285,
        -0.08782269322389635,
        -0.03786466850832093,
        -0.1598105657419979,
        -0.08788658559657792,
        -0.17944848293862686,
        -0.08046427902186101,
        -0.09239262690647126,
        0.09141155999031089,
        0.10728991968028936,
        -0.15852919542309873,
        -0.11017516788427292,
        -0.1270321859667781
      ]
    ]
  }
}