{
  "num_class": 10,
  "num_hidden": 50,
  "num_visible": 20,
  "params": {
    "bias_b": [
      0.0,
      0.0,
      0.0,
      0.0,
      0.0,
      0.0,
      0.0,
      0.0,
      0.0,
      0.0
    ],
    "bias_c": [
      0.0,
      0.0,
      0.0,
      0.0,
      0.0,
      0.0,
      0.0,
      0.0,
      0.0,
      0.0,
      0.0,
      0.0,
      0.0,
      0.0,
      0.0,
      0.0,
      0.0,
      0.0,
      0.0,
      0.0,
      0.0,
      0.0,
      0.0,
      0.0,
      0.0,
      0.0,
      0.0,
      0.0,
      0.0,
      0.0,
      0.0,
      0.0,
      0.0,
      0.0,
      0.0,
      0.0,
      0.0,
      0.0,
      0.0,
      0.0,
      0.0,
      0.0,
      0.0,
      0.0,
      0.0,
      0.0,
      0.0,
      0.0,
      0.0,
      0.0
    ],
    "weight_w": [
      [
        -0.082618895499353,
        -0.26954152335801723,
        -0.1967300566052011,
        0.1727142142590643,
        0.1278846859906676,
        -0.013024589111988283,
        0.040201704722363674,
        -0.12781803024807986,
        0.08100010764628962,
        0.16716791793267155,
        -0.28621599852848023,
        -0.3027316085399622,
        -0.05170553410007517,
        -0.11026019001346674,
        -0.09975678171083285,
        0.08305006616549548,
        0.23490451939250961,
        0.24282518639771694,
        -0.13513174512336412,
        -0.2035925428219583,
        0.2818386941602646,
        0.17391771742234824,
        0.16166289287617003,
        -0.29004723624628453,
        -0.022478999020107304,
        0.1581643920951002,
        -0.04913003118969189,
        -0.270896127384063,
        -0.09663214226115543,
        0.0009221913251946101,
        -0.014200353721920633,
        0.14616862766698047,
        0.3155036204490002,
        -0.11765860143278922,
        -0.1968052374128777,
        -0.23029589297165343,
        -0.30729606747078186,
        -0.08784400126984726,
        0.050617447642027524,
        -0.030562547328235212,
        0.29590494907659787,
        -0.07833259190628797,
        0.2445337603614482,
        -0.09625711036559445,
        0.004424935300725463,
        0.25669311899977526,
        -0.020385112050051613,
        0.22165868374072234,
        0.07242489259960361,
        -0.1952520644936625
      ],
      [
        0.06782163286632426,
        -0.06452671915487734,
        -0.04569690391347059,
        0.14693393467338667,
        -0.17370017302850577,
        0.1817140637193856,
        0.26103909886103055,
        0.10202027055277357,
        0.2576825045174807,
        0.2172276140592106,
        -0.3095157691030639,
        0.16858756058840835,
        -0.2533137643875604,
        -0.3030926170256484,
        -0.2274967884877523,
        0.14888339562523256,
        0.010455986675848017,
        0.11474340450223258,
        -0.1696724738972918,
        -0.20904429263344323,
        0.3046580839900824,
        0.030579732649153257,
        0.26403377146050283,
        0.08666039639773143,
        0.15056439563274365,
        0.20364740531783593,
        -0.11524820346995743,
        0.060255046988159144,
        0.09360814227644221,
        -0.31236761888325726,
        -0.2518381412122782,
        0.05431004143585144,
        0.2215566414055053,
        0.2504141974723419,
        -0.2758299891652249,
        0.234429772107477,
        0.061252051131438945,
        0.26902300552751507,
        -0.13807024457251685,
        0.21619968575275178,
        -0.2523783959476755,
        0.120929567304627,
        0.11799378970536667,
        -0.18670547020588152,
        -0.009182084993758444,
        0.025293482714509097,
        -0.2816424207427194,
        0.14203089928508378,
        0.28155657438167075,
        -0.014508952827338273
      ],
      [
        -0.23278352339881428,
        0.22985251712240123,
        0.2411719230913995,
        -0.033471609130856284,
        -0.2361331390984321,
        0.11188485747187193,
        -0.2864889456361429,
        0.23632936437392232,
        -0.2944704728153226,
        -0.28291743527658064,
        0.30814057554278024,
        -0.011467069489454529,
        -0.1875673890248968,
        0.020975701864308083,
        0.2864999206852696,
        0.09510596006441674,
        -0.22205830003773946,
        -0.08214346139182013,
        0.10791882290011096,
        0.3017529532544759,
        -0.3005716457881801,
        0.2130127717193822,
        -0.04358867577957648,
        -0.2844758772288043,
        -0.055509497726420776,
        0.27154849785658214,
        -0.09817791371796089,
        -0.21719910995086203,
        -0.022710910479728508,
        -0.04339855570851203,
        0.17534695996602245,
        -0.16953492921076077,
        0.2688543917512614,
        0.06569656644807947,
        0.31544714079833563,
        0.23120887066120827,
        0.28867020042357067,
        -0.1422818465915788,
        0.00557220017958604,
        0.2930465118506019,
        0.08199490732046133,
        -0.28341711547597015,
        0.09018044325660368,
        0.06769440958640838,
        0.284348883447108,
        -0.006248874266515825,
        0.23362171689627503,
        -0.1945429780526301,
        0.30431538980254697,
        0.30890288362038926
      ],
      [
        -0.2921678237859457,
        -0.1488132687165606,
        0.21135755323398947,
        -0.16177237001451447,
        -0.28544619027702106,
        0.0483748411567656,
        -0.19861538939263523,
        -0.1470163605751431,
        0.0029261555148752394,
        0.2736907329679072,
        0.06342264120129693,
        0.19131880242951588,
        -0.2266029219550681,
        0.07689728231377396,
        0.217791294061131,
        0.15816977376552183,
        0.16346730269329557,
        0.03793745346808419,
        -0.2257657453668105,
        0.17647998257407854,
        0.04412858697111938,
        0.295415663218131,
        -0.14114559944196375,
        0.2986346594661656,
        0.2165691289788519,
        0.25010676201449294,
        -0.13869182971359223,
        0.237257348842197,
        -0.03708809914178507,
        0.16886986100936563,
        0.03875825985057241,
        0.04629150222619621,
        0.15847214367778178,
        -0.0049990915610509945,
        -0.3156632255500069,
        0.22285795350028076,
        -0.15271144651878388,
        -0.2795985223053233,
        -0.2877334589351411,
        0.0185229015170576,
        -0.1872130432288079,
        0.16097600243526106,
        0.21628790743351572,
        0.010272963912226651,
        0.24453946051463887,
        0.09185961050287156,
        0.0332965661415075,
        0.052572301974867786,
        -0.011137607683796513,
        0.31395369945212254
      ],
      [
        0.058626139031176416,
        -0.21006985042218185,
        -0.27727317828587966,
        0.11645271137065005,
        0.16123502254455985,
        -0.04617583355431426,
        -0.22983999809393707,
        0.09836897189456051,
        0.19640874756294519,
        -0.23860588632759283,
        -0.16453919118957927,
        0.006664681708472342,
        0.0016191076471519517,
        -0.02793276123057148,
        0.1774396254052894,
        0.12770336559105339,
        0.2290700467821462,
        0.19418755862863607,
        -0.05914225003208162,
        0.08441215711798145,
        0.018207241923400008,
        0.2179352272451825,
        0.17544329003876502,
        0.0321093431835916,
        0.05929603169855879,
        -0.120711283285562,
        0.04444094746838845,
        -0.27450126870613534,
        -0.22551941263637068,
        -0.17486088017352852,
        0.26947871401517703,
        0.13398959517990783,
        -0.08486505271363778,
        -0.15177127398442972,
        0.2606836345614653,
        0.07483922716158947,
        -0.29403245498094016,
        0.2933055542964928,
        -0.10932288412243615,
        0.07886854768820672,
        0.15456738244021567,
        0.22558707658791916,
        -0.1557107431598675,
        0.26501071136796744,
        -0.15844658846915582,
        -0.21652276031898482,
        -0.09686439632142244,
        0.2437279402066201,
        -0.2296947388682642,
        -0.14656139409271904
      ],
      [
        -0.1945537738466253,
        0.08665336131349183,
        0.013573007519637803,
        0.18610881185900502,
        0.019733914570980227,
        -0.19990129002918028,
        0.17677424584492274,
        0.17444021113665564,
        -0.19367095699819853,
        0.035252800253811334,
        -0.19528114009214914,
        -0.14807925421903234,
        -0.2650088421704179,
        0.02308139694917788,
        0.10241698541557265,
        0.011657009565734122,
        -0.06932187029121983,
        0.01515587643770383,
        -0.07223644393917505,
        0.23467859987216083,
        -0.07057861713809035,
        0.1264089574829994,
        -0.16147691226720953,
        -0.21992125066997065,
        -0.24823731861940784,
        -0.12492665670996411,
        0.23112560434031998,
        0.01084952110802373,
        -0.06283232501540054,
        0.11093059255288096,
        -0.024790713359463423,
        -0.023689300409383662,
        0.02924390120917314,
        0.05035484722395683,
        -0.23348315731151584,
        0.05961117563887186,
        -0.008592117057211024,
        0.13910438491066285,
        0.04866064293484057,
        -0.026005063401068784,
        -0.2732887848936177,
        -0.0770877535125763,
        0.03452827193060154,
        0.2148142150466324,
        -0.18323032433311523,
        0.13131659189495132,
        -0.15153391407277852,
        0.05941036199903876,
        -6.710334955634112e-05,
        -0.06695589143521821
      ],
      [
        0.13572946018772636,
        0.17960868969721377,
        0.03157734282842867,
        -0.29964691656723486,
        0.1381000454547346,
        0.21656022766610333,
        -0.1576476359134914,
        0.24947645708955174,
        -0.1833447310167863,
        -0.04476567448448954,
        0.1491642767427495,
        -0.305183917794877,
        0.17584067834918032,
        -0.00364427307572468,
        0.09086674908613118,
        -0.1015515539738722,
        -0.2858227927048749,
        0.2129337784020125,
        -0.26606464651033845,
        0.058037549820632806,
        0.15622590483612708,
        0.05690364955328936,
        -0.2687416830096318,
        0.14224419058201432,
        -0.1174017296459732,
        -0.03582112494930684,
        -0.2184513350003205,
        0.02307246908300603,
        -0.18341858208530015,
        0.08863956273853402,
        0.3052392564271535,
        0.23666541867106888,
        -0.1779473114126942,
        0.03199310341413897,
        -0.29012284142161127,
        -0.205188793621518,
        0.2861915401211304,
        0.19619886805669356,
        0.02389761819952607,
        0.25856959953343256,
        -0.17055206962720995,
        0.2234175575011575,
        -0.16040931141151635,
        -0.13750037995269518,
        -0.18832127179227828,
        0.17646632120115174,
        0.19692205608324082,
        0.17202025108556945,
        0.09889169223870198,
        -0.11008598767227892
      ],
      [
        -0.30115347330622994,
        -0.1692250640581059,
        -0.17013722970422418,
        0.14094114785139622,
        0.29888465600765607,
        0.2810679961449695,
        -0.08252822958395353,
        -0.02707535828837715,
        0.3039220837052841,
        -0.29656067573781403,
        0.07824066418891801,
        0.2417063218006183,
        -0.24960385452463996,
        -0.16418240205623238,
        0.27377805958156215,
        -0.30079634649202347,
        0.042825635138879825,
        0.20355695993006434,
        -0.2027388955977949,
        -0.08450832752121026,
        0.04824345752212095,
        0.1576695244006866,
        -0.15546671533877893,
        0.043259402428079075,
        0.10947811499186438,
        -0.061843651236363206,
        0.09667015393200346,
        0.2840009064899029,
        -0.25044130606435644,
        -0.21587970345781277,
        -0.2575087851435985,
        -0.1939676582899572,
        0.08780073113355064,
        -0.29187467325842775,
        0.2651547041974485,
        0.05871392948038534,
        0.08029402518392148,
        0.16346762489044775,
        -0.17235551451098413,
        0.13089154922502838,
        0.15690497453034863,
        -0.2855525437316867,
        0.11013155840418348,
        -0.1428122950426919,
        -0.15446202223024827,
        0.04944591358112993,
        -0.01585827672425394,
        -0.1074883119196611,
        0.033170482491457265,
        0.0514016483209227
      ],
      [
        0.21324398775826053,
        0.08582553101730034,
        -0.07449687924289924,
        0.20431042943505334,
        0.046287092967803145,
        0.18444011574059765,
        0.06515073479759054,
        -0.0967680058635938,
        -0.16766487114135314,
        -0.271563218635992,
        0.029150071149462387,
        0.15543050284631532,
        -0.2581729178505084,
        -0.13643178613502827,
        -0.31070777020172924,
        -0.24057275408934362,
        0.27663486774369167,
        0.047986859438378326,
        0.14607649566056724,
        0.07776575949722841,
        0.07186651251581239,
        0.13156601010028807,
        0.0735857058108152,
        0.07613944279139706,
        0.2944252074933615,
        0.17722773779023432,
        -0.11251724106184086,
        0.05333876676216365,
        0.07901459866608679,
        0.31598225418313336,
        -0.24500488543462035,
        0.3140457791366154,
        -0.13761941282049694,
        0.24614263313673262,
        0.001240144890877315,
        0.30992270215777223,
        0.035752658246519964,
        0.018153805416873225,
        -0.2083291013183194,
        0.125988738104869,
        0.015218351264114194,
        -0.056828819647022855,
        0.2541858857611992,
        -0.0509321492680449,
        0.2556918160797704,
        -0.09558539398792379,
        -0.2905205632141958,
        0.2065477063306867,
        0.1427152334288554,
        -0.20162467312585278
      ],
      [
        0.07670638545674774,
        -0.07992437358104057,
        0.20402251121507214,
        -0.2911832375291346,
        -0.08991681350835745,
        -0.13453987245168206,
        -0.20301398631477968,
        0.16952489734607862,
        -0.22439347919159466,
        0.1911532227334239,
        0.13648888017319827,
        0.14066602222471825,
        -0.045188585360608935,
        -0.2944504099201885,
        0.1514034143932742,
        0.12243340750902976,
        -0.2791075453123376,
        -0.055344436640722916,
        -0.19624330188107125,
        0.2362958238958191,
        0.228657911529139,
        -0.09382143293753345,
        0.16580157531166695,
        0.15151329297219007,
        -0.2925169397668863,
        0.19940989451965435,
        -0.14707606031984366,
        0.19502210038113116,
        0.011168872453723055,
        -0.12978827179938626,
        0.1280882733963873,
        -0.18392538284118085,
        0.1902370130732846,
        -0.06438282276584978,
        -0.2416696966628614,
        0.23343494664344805,
        -0.19853491358143466,
        -0.2837827252426929,
        0.1200115460936596,
        -0.25284810935985536,
        0.0046824957385490085,
        0.3143449395030777,
        -0.06790758781245271,
        0.22097077790813296,
        0.048130739591042526,
        -0.27441602221318906,
        -0.16960286408431363,
        -0.11070195378661174,
        0.06374104986863066,
        -0.044260690343555564
      ]
    ],
    "weight_v": [
      [
        -0.05056400441883546,
        -0.17530337513515534,
        0.022315068826870454,
        0.28134254337187664,
        -0.22692872794796054,
        -0.2045868390858473,
        -0.13706548556962614,
        -0.010309422937956225,
        -0.09952536877330306,
        0.2729811763458975,
        -0.15486211295749677,
        -0.17122169269418058,
        -0.24574178224772195,
        -0.08834385766023412,
        -0.13631801038304295,
        -0.09567384611954191,
        0.26626069343685105,
        -0.10835657389399997,
        0.2087765089083719,
        -0.12113963123570043,
        -0.08249334991447432,
        0.1969772556853796,
        0.06604384830690357,
        0.24580536405454662,
        -0.06302071490807806,
        -0.20304073443347845,
        -0.23976682650558662,
        -0.2185767336543379,
        0.23956899226439682,
        -0.02775682445414862,
        -0.21593976898308342,
        -0.25257056044412923,
        0.10227645342145403,
        0.08535918533620707,
        -0.10482179346784004,
        0.2824831705186783,
        -0.15114492850146363,
        0.06517597282139603,
        -0.022761572554500342,
        0.15125262770806874,
        -0.1950335338358284,
        -0.001303455499667372,
        0.2048494316195299,
        -0.09770294817960073,
        -0.02420701834983119,
        -0.21093157489287462,
        -0.09540327849958302,
        0.04392678646138426,
        0.0006681591602884507,
        0.10822844640516738
      ],
      [
        -0.14217489092762778,
        0.13332426652343982,
        0.10389209484380851,
        -0.16937337929719273,
        0.14584764402342998,
        -0.06775808864505309,
        -0.2159998139755192,
        0.05212575166077621,
        -0.1277213287010171,
        0.26765882956546566,
        0.23192578987205342,
        -0.14266126862143697,
        0.19434958851570255,
        0.054227249173820546,
        0.1376186076216223,
        -0.17362046406495402,
        -0.020944055617377333,
        0.24106668087466726,
        0.22282455561263054,
        -0.03457890245721695,
        0.007387363865466123,
        -0.15114346986303534,
        0.08979771402314324,
        0.1282545291003529,
        -0.14894011380947647,
        0.0033932552177271535,
        -0.11625197814181851,
        0.15217336774431078,
        -0.21300708620876668,
        -0.2473532308264998,
        -0.011973331840572976,
        0.2633535568336582,
        -0.07696278039176843,
        0.1982130581288143,
        -0.2271598440282267,
        -0.1503831251409779,
        0.09304663792817935,
        -0.11159330954397575,
        -0.13341420655533182,
        0.07416983486730883,
        -0.27451356499689383,
        0.2004601853475071,
        -0.2736040009348594,
        0.17557716226310938,
        -0.2386526259713771,
        0.06876017128568407,
        0.0008725245148750727,
        0.01792532185684176,
        0.04414116109733113,
        0.041887295434648086
      ],
      [
        0.14046190062502867,
        0.03651302122992567,
        -0.01866596052205538,
        0.16586227882703908,
        -0.24161119155468153,
        -0.07013707954926002,
        0.09943079151557321,
        0.031249489736126845,
        0.25202393989952937,
        0.12571120589987106,
        -0.26938954194889875,
        0.11291557073914749,
        -0.2923125813192145,
        0.23968586261362929,
        0.15843434404707896,
        0.16569114853316969,
        -0.028761173961812547,
        0.02701295305208634,
        0.13864187009946105,
        -0.18895047527161696,
        0.2707411657878542,
        0.023722523692145392,
        -0.234260757945391,
        -0.09310157463076923,
        -0.23322994611079473,
        0.06785896625574261,
        -0.2267059630099692,
        -0.029646903114807388,
        -0.22316629928872161,
        0.05876833424246175,
        -0.19522755058193703,
        0.20891686458790298,
        -0.0065811925121947445,
        -0.059693794929776334,
        0.15946370047554004,
        -0.06864668622868159,
        -0.042771440785812936,
        -0.14141237481522548,
        -0.017753786183801412,
        0.16231072971823052,
        0.09113365006774649,
        -0.060351862266045025,
        0.216427235657707,
        -0.21527261851656526,
        -0.11503050074653967,
        -0.1872588344783002,
        -0.2485257634811293,
        0.15711545996376253,
        -0.2277810318040946,
        0.28986010183243643
      ],
      [
        -0.10189258775933654,
        -0.16672904706731628,
        0.23434169410854938,
        -0.11739155905709586,
        0.2793514357312183,
        0.23167652270779854,
        0.210285183934859,
        0.0573060655407302,
        0.1757105716668183,
        -0.196843785120916,
        -0.10889723271504106,
        -0.1239423177658808,
        0.29205305550173416,
        -0.17731062350546778,
        -0.20963801411023822,
        -0.24419071476878637,
        0.28527916146398097,
        0.24633998498457693,
        0.17436433937417994,
        0.1069930919436966,
        -0.09084059043105705,
        -0.04712990236198297,
        0.11244518710737317,
        -0.05310982712222326,
        0.14546573327077505,
        0.058585392398673275,
        -0.19470558084061554,
        0.01887621652767535,
        -0.1975414207078455,
        -0.1594105643598114,
        -0.09250294073201695,
        -0.19655012130546953,
        -0.07935051613077798,
        0.08641571813709487,
        -0.21412246253707923,
        -0.0713797933353357,
        0.1884874307952185,
        0.2413799431569736,
        0.1598386788777419,
        -0.20715554879806308,
        0.24860316359017837,
        0.1133933082975172,
        0.06805795134871068,
        0.14118396772021108,
        -0.100840634427601,
        -0.03315103599736263,
        0.16318000225585366,
        -0.032330950567935224,
        0.1302340519892678,
        0.2130507880648102
      ],
      [
        0.18892274454184677,
        -0.28998361998746164,
        -0.09523794275681108,
        -0.2872557841377539,
        -0.23819231157889958,
        0.14875835892270184,
        0.017800948500904745,
        0.2607427861518869,
        0.06576334759351726,
        -0.18361724215063016,
        0.039283551571155595,
        -0.2917553716829717,
        -0.054503198539653824,
        -0.21548479120549177,
        0.14944222658585044,
        -0.03975660158091243,
        0.10182620592862734,
        0.24396765990581387,
        -0.09894538124695856,
        -0.26069812870068115,
        0.21359921447632596,
        -0.141123685708609,
        0.09782675847604366,
        0.27418792722391544,
        -0.21774580688585599,
        0.03180464381210657,
        0.26502570666530983,
        -0.11251215787029537,
        0.019873898289431646,
        0.18523631466729346,
        0.05727156349486695,
        0.2791789261437722,
        0.05303016627948981,
        -0.15727494926022637,
        -0.26806214002308976,
        0.11500320963683058,
        0.1669261583862715,
        0.19642934636205028,
        0.18813797048905911,
        -0.0957511523495044,
        -0.11256902688506137,
        0.20477120838097645,
        -0.21742673617406091,
        0.10378937147148731,
        -0.03150532300862974,
        0.19236509816469038,
        -0.04944894324337415,
        0.09621383948332218,
        0.2750610086453355,
        0.0013450953754120532
      ],
      [
        0.057152764663749356,
        -0.1420219781388849,
        -0.27145683133574855,
        -0.28128728003021386,
        0.15318388972954938,
        -0.10700244159615796,
        -0.2522447389589069,
        -0.2401935095505069,
        0.16662557172195952,
        0.2831713761653047,
        -0.24508372925701655,
        0.036433514851079596,
        -0.14463300116532501,
        -0.2525731471853182,
        0.23315000957582216,
        -0.20385304104169655,
        0.2807951429715511,
        -0.09528014256554984,
        -0.061653907149818166,
        -0.06487270658591798,
        -0.20059179638504882,
        0.11384139390191922,
        0.10899039265415794,
        0.04222125021650014,
        -0.13717224614704465,
        0.09694239930766341,
        -0.09350797216600071,
        -0.13162687502269177,
        0.06136790450276436,
        -0.1368021508242446,
        -0.2721370266047771,
        0.008003423045981284,
        0.009431145989586942,
        0.24605288324829017,
        -0.0543018920714447,
        -0.1116239046321709,
        0.02326210917343763,
        -0.20450961782393695,
        -0.08975850170854857,
        -0.19686748394790776,
        0.14181621959603774,
        0.21820304998865797,
        -0.2891052120583462,
        -0.000712856992798161,
        0.28619374482676924,
        -0.10577723979905926,
        -0.025988866239303854,
        0.05365366243840669,
        -0.2692810925394013,
        -0.22356636902478183
      ],
      [
        -0.011333699859879087,
        -0.13787205060674929,
        0.182020405797935,
        0.0944230862015003,
        0.16682954414313378,
        0.16343107879610302,
        -0.2648838367616631,
        -0.22334093092383667,
        0.10495770519516201,
        -0.16464449881488313,
        -0.18686717519664847,
        -0.22003208613980635,
        0.19795094084878412,
        -0.22676269227847995,
        0.1854627071977552,
        0.04190282542206919,
        -0.16627208359918225,
        0.16572990412835775,
        0.03489235629530746,
        0.023655641777678538,
        0.07510786512168166,
        0.08251855362453925,
        -0.1217314377913746,
        -0.17124229643878391,
        -0.2678089475577067,
        -0.07027231646894308,
        0.1595028183163561,
        0.06908772966655097,
        0.25352646823074715,
        0.1438625765203303,
        0.18039769126315042,
        0.20725939899384233,
        0.10150911862798556,
        -0.17891229405859793,
        0.07423827997001642,
        0.27785348237432633,
        -0.025283006884417314,
        -0.002444180913306393,
        -0.18455043929649198,
        -0.08928517019107951,
        0.030762218007921505,
        0.047041778544901935,
        0.096965941132721,
        0.05460203488276916,
        -0.09205313565309056,
        -0.2726649565542811,
        0.018805505014654944,
        0.07245281017435928,
        -0.04234578739336953,
        -0.1081565694510706
      ],
      [
        0.1914171958010923,
        0.03882062876555675,
        -0.15244239079464222,
        -0.2866832832074047,
        -0.28026656240801795,
        0.08277498532421551,
        -0.23361102707483655,
        0.05267187711596427,
        0.1837316817904418,
        0.05320801383268303,
        -0.25629634080683594,
        0.21485867238256912,
        -0.022329659096351595,
        0.014835654524265607,
        -0.12922805679866925,
        0.24624479407547545,
        -0.11879510716368133,
        0.08759104691713893,
        0.20794987498962653,
        0.23824964238059448,
        -0.23549754476139645,
        -0.19573100201513094,
        0.2149199050639981,
        -0.19107285152373815,
        0.010615233966857707,
        -0.05237370415437512,
        -0.17356085368372395,
        -0.04239468723934103,
        -0.18143189205454852,
        0.2546838102821887,
        -0.2515114744601822,
        -0.19173856630302577,
        0.06609036359368936,
        0.16401353974428334,
        0.1574292441373235,
        0.04008440390094814,
        0.047472224730220336,
        0.2896462281459055,
        -0.17830927393111012,
        0.28441730755606826,
        0.059127267160322905,
        0.19423750477577695,
        0.26707823906740785,
        -0.21823769020817288,
        -0.07629048543281072,
        -0.036409883661476294,
        0.27852777863870265,
        0.12492476672271896,
        0.029517691472221552,
        -0.14488585055687836
      ],
      [
        0.18139541152023503,
        -0.09994208526339662,
        0.18896471613804894,
        0.13329935041257074,
        -0.058209708286800554,
        -0.054772129435039785,
        0.1661019436938878,
        0.054329871455309875,
        -0.044768265532740104,
        -0.236822018242711,
        -0.18822501947886316,
        0.2757510067504974,
        0.14619535862448807,
        0.0019203398313490383,
        0.24455127267445537,
        0.08478529677090468,
        -0.19990041954106436,
        -0.04689809871029699,
        -0.021756857053103817,
        -0.060027858963668634,
        0.2525241824449553,
        0.0370360777893064,
        0.05788272366888264,
        0.19757374169014136,
        0.005575472724527186,
        0.19870081734250628,
        0.24472621274175171,
        -0.16523613521257935,
        0.004660005191092165,
        0.04812059538626273,
        0.11133638376482907,
        -0.141625412252728,
        -0.08242693906706058,
        0.2590553806252543,
        0.07897680883862601,
        -0.2648409842502248,
        -0.07346448458061719,
        -0.052475923984283857,
        -0.04168287669451426,
        -0.16300833565146366,
        0.27543105866343914,
        -0.009880678160362033,
        0.07846667414942521,
        0.1775741239830268,
        0.23031442819459863,
        -0.2273260084059947,
        -0.08416217830808798,
        0.17490650777281785,
        -0.2164036013689729,
        -0.18252674369239308
      ],
      [
        -0.029216475274163323,
        -0.03783423079882636,
        -0.22632612868039093,
        0.24997755078781486,
        0.09672387777037711,
        -0.10923987538850319,
        0.08872352189254856,
        -0.20103573515625084,
        0.24635621197050878,
        -0.09149536169705524,
        0.24212585598931818,
        0.12543581369530066,
        -0.13410153179063136,
        -0.036271740841791245,
        0.15782202651197036,
        -0.2031614289425987,
        0.24243065757712695,
        0.17609064330759117,
        0.11681485777566697,
        0.08566675927264561,
        -0.1928850113361351,
        -0.07190082640735693,
        -0.17434853218756705,
        0.06019375579891301,
        -0.048220520876089634,
        0.02520060211018721,
        0.008556007133506238,
        0.09894973819005559,
        -0.024588802169045187,
        -0.021697935542588864,
        -0.27252891722425826,
        -0.15395341702700963,
        -0.02675106010235695,
        0.2891852865620152,
        -0.2791709012108213,
        -0.17198835613493463,
        0.020921428920027296,
        -0.044189864096943476,
        0.01109203369704076,
        -0.021255503959472788,
        -0.17314682229696948,
        0.02875150639283619,
        -0.15752310162113972,
        -0.13763672567381055,
        -0.028956004639845878,
        0.002561736054442376,
        -0.15020152491850222,
        -0.23012227012684566,
        -0.14341216283893846,
        0.26926397390338336
      ],
      [
        -0.22499395443868292,
        -0.2505906526403509,
        -0.06639002857431042,
        0.16130477999344434,
        0.17214943294839086,
        -0.16314637618954367,
        -0.12260491928837414,
        0.11310477010870984,
        0.279475251482412,
        0.24754206096022185,
        0.10224937974271564,
        0.25808505495428985,
        0.1426787684922146,
        -0.14823903972932004,
        0.06096610832281796,
        0.019112079303124363,
        0.03605979699541839,
        -0.18878862514129696,
        0.16421951308294475,
        0.19145194777270114,
        0.1738168305257471,
        0.23594499648060835,
        -0.19369579932034453,
        0.19219115692305822,
        -0.2398532320998575,
        0.19531670705045523,
        -0.028678179770510348,
        -0.029876669712298354,
        -0.08096161237436356,
        0.2867898754949329,
        0.17055222459619362,
        0.020713810034201197,
        -0.009977872896196671,
        0.27306321862182087,
        -0.06084287237090391,
        0.2665831172443475,
        -0.20701724052259352,
        0.20950330722100224,
        -0.23657294605054854,
        -0.055724792458010736,
        -0.2239255236420668,
        -0.22699450336722368,
        0.13316021375537607,
        -0.28367107929155955,
        -0.07237090920096007,
        0.07132039904505943,
        -0.04382117638245242,
        -0.057691073396715864,
        -0.09934338633982728,
        -0.006362374927429748
      ],
      [
        0.09279408417432405,
        -0.21132143868362696,
        0.25646104410153897,
        0.15170339143627298,
        0.26196848477570506,
        -0.02288304802118213,
        0.0901625006819935,
        0.11103825747406804,
        0.05181530705821408,
        -0.19561522457968672,
        0.23802777022994576,
        0.06341204691703228,
        0.11277950029517836,
        0.22777427172636971,
        0.15074971636540246,
        0.16998043703649818,
        0.002336377931115574,
        0.19064024830266024,
        -0.2904907729848919,
        -0.22519236970412992,
        0.2182291523009941,
        0.24062112955416154,
        0.1844692168156954,
        0.22883331273395618,
        0.21024844662018854,
        -0.04325426515418257,
        -0.0776682846444679,
        0.17625541342673173,
        -0.14006508010522234,
        -0.2696965391344639,
        -0.04943682849081951,
        -0.05532868594697707,
        -0.10407114390072522,
        -0.17953115793074803,
        -0.004363439747251174,
        0.21007444074402576,
        -0.09091890555425519,
        -0.18058494330265096,
        0.24814076345129638,
        0.2407441293006401,
        -0.14675963837995323,
        -0.029567643998908044,
        -0.19212711788311618,
        0.15116073138085862,
        -0.043919120271262574,
        0.16896088995673314,
        0.2678507951847195,
        -0.13941880738643228,
        0.2908796132172748,
        -0.07347001825795987
      ],
      [
        0.1372097469463504,
        0.1932071097364682,
        -0.0594375182644607,
        0.19773007490460515,
        0.1361599119826009,
        0.24735475671161705,
        0.10432066784122918,
        -0.10078523305229853,
        0.22934213808418663,
        -0.17624662701680716,
        0.14244549405197532,
        0.06530635741829299,
        -0.1683122398370391,
        -0.2475823840456416,
        0.17235784741065518,
        -0.27289942823326896,
        0.1218381358893772,
        0.2918945613921437,
        -0.2919117958176952,
        0.18134228117430778,
        -0.06655557846627727,
        0.06971933253922596,
        0.09326421914219019,
        -0.03950248526125638,
        -0.05095481348117692,
        0.0005215588318686071,
        0.15030580916601605,
        0.023581138528939616,
        -0.032998558937288425,
        0.11176704256165054,
        0.18703218837755653,
        0.01809179372293973,
        -0.19168645660641015,
        -0.033822263384795936,
        -0.1035729769224473,
        -0.12369809199435741,
        0.09535285423949719,
        0.13626961340918664,
        -0.20849928025242118,
        0.10660973333992213,
        0.22751311848860728,
        0.14780062123889987,
        0.15405884134696163,
        0.28130158331530447,
        -0.11442604987407884,
        -0.08744949605892052,
        -0.2153528865780575,
        -0.19536570611549653,
        0.15735269804944302,
        0.10213563588201713
      ],
      [
        0.21451287221321708,
        0.11470855537597885,
        -0.15423799692194035,
        -0.22691893123525814,
        0.18505366458193084,
        0.0737403347143808,
        0.019823428766539364,
        0.28529405929165547,
        0.004413566030144089,
        0.08027582821010526,
        0.1429285090063765,
        0.18722896898936664,
        0.21289350619213937,
        -0.05120805760614949,
        -0.2521062879000673,
        -0.11880962674288317,
        0.25239334855428747,
        0.2844333894003553,
        0.19015442756592765,
        0.1102097280768834,
        -0.1387022999845686,
        -0.056163293445410906,
        0.049385299509526526,
        -0.20233252603107238,
        -0.006751477814994966,
        -0.17843897580171403,
        -0.14311219256800944,
        0.015824819011790114,
        0.04997653963882187,
        -0.06480134233983384,
        -0.24648362635130783,
        -0.16470833196836715,
        -0.2764085816540459,
        -0.21904429821510418,
        -0.1947147757958598,
        -0.045509921473635,
        -0.2511625132819401,
        -0.14075931786800255,
        0.19219274122609203,
        0.1354492277578379,
        0.16758426011602257,
        0.1274176046902391,
        0.1882865491309998,
        -0.06282604444127296,
        0.10610200748505211,
        0.23360953878605767,
        -0.09564401167222045,
        -0.22854316797809637,
        -0.18102081151526,
        0.22987224425252212
      ],
      [
        0.1680121883410467,
        -0.16579390107409647,
        -0.1960594341736066,
        0.01999325149419534,
        0.009798361485228835,
        0.1202945078600079,
        -0.20514993298500095,
        0.16016924044158204,
        0.10617178436684244,
        -0.2411238281150766,
        -0.005618755409158571,
        -0.17679867975334504,
        -0.15489892368050137,
        0.267261736453347,
        0.12401437562289663,
        0.22948553757863716,
        -0.25515093832107416,
        -0.2503201533575702,
        -0.08188182568756372,
        0.13935723184904125,
        -0.20968783112306322,
        -0.013027044739871763,
        0.2891549131708488,
        -0.04796083271920068,
        -0.011870126281105786,
        0.20569869333095075,
        0.1254666619159709,
        0.12711794895710665,
        0.1987843442429722,
        -0.13200961717924733,
        -0.11645238811578257,
        -0.2552475466270235,
        -0.13351216835229301,
        0.2652650760989957,
        -0.018576134439828196,
        0.17132110894271524,
        0.25980144292261903,
        0.258530998938243,
        -0.23725998573884705,
        0.2192274482020175,
        -0.11617974477032134,
        -0.2847227093891173,
        -0.2054221706804244,
        0.046999583296905845,
        -0.01117682267262532,
        -0.29185642589020283,
        0.2873503138081938,
        -0.002928260373684044,
        0.22192186200152403,
        0.2881036214598221
      ],
      [
        -0.22577974307495524,
        -0.2830449469190892,
        0.16387106348485447,
        -0.1995642008667361,
        0.13016260987673445,
        0.26643402451633785,
        -0.0806264084007455,
        0.11270827861716637,
        0.11077082615855677,
        -0.16218344267740611,
        0.05411631133385009,
        0.13473998624229327,
        -0.08065317974143513,
        -0.16868338937915467,
        0.25776113972210163,
        0.004400206332853318,
        -0.21055210474672564,
        -0.07953559627383971,
        -0.2841137778728191,
        -0.29190465105424773,
        -0.198097766014318,
        0.0970092143224901,
        -0.06304858436376348,
        -0.28988068893460106,
        -0.1425012074252796,
        0.02418107836660016,
        -0.17066288540813532,
        0.1843859129154955,
        -0.043488508792609654,
        -0.24673672676778885,
        -0.14076262023638492,
        0.10541548303996395,
        0.1844812807551866,
        0.25238991583353926,
        0.025315445415619198,
        -0.2212599861000037,
        0.12064642569493494,
        0.2896438801114966,
        0.00897541145491032,
        -0.21771062348239179,
        -0.025440413751815272,
        -0.01098244466673437,
        0.1120753587753539,
        0.07405989014322711,
        0.12723755987505625,
        -0.21262849110251514,
        0.1691200556545796,
        0.07090135097194067,
        0.25817746312077455,
        -0.05502167547129813
      ],
      [
        0.05627275168594187,
        0.20727764718621405,
        -0.04966734908707196,
        -0.0595702902964417,
        -0.11306918503393357,
        -0.10092423219473337,
        -0.27120310129984326,
        0.07898465924957526,
        -0.29258190951195423,
        0.14863002845505596,
        0.26748152306460143,
        0.11353799511725121,
        0.2805153074675802,
        0.22471611275817355,
        0.18859551773776045,
        0.010069051230805925,
        -0.21263964958221937,
        -0.01408821909006025,
        0.12022149984001768,
        0.2695186443641138,
        0.2355961116275968,
        0.29131177003078873,
        -0.24958635153106284,
        0.23549249577517378,
        -0.12474743552349551,
        0.10011312425352126,
        0.24193431429032514,
        -0.15927662297945377,
        0.17138338374746392,
        -0.11039359022080536,
        0.051831645738597054,
        -0.12565775900801643,
        -0.14375634624588704,
        -0.0849999261220358,
        0.2733990622173575,
        0.11059319943198037,
        -0.031384756688855764,
        -0.2572372908566381,
        -0.04636270871735412,
        0.14222696696009718,
        -0.2853454091464149,
        0.19700650261904468,
        0.2800068967276868,
        0.18230187141219056,
        -0.28270958424817355,
        0.2093552981623908,
        0.19418413250205796,
        -0.2340826321477033,
        -0.0034993445030310766,
        -0.06310062655232371
      ],
      [
        -0.20783165416504948,
        0.001514740267611503,
        -0.01594259994536673,
        -0.1514739889009993,
        -0.10143457654179477,
        0.09722493682219252,
        0.13635103583117225,
        -0.15930124134286783,
        -0.048311903460099254,
        -0.1463854924395122,
        -0.03380875867529182,
        -0.24250679554785642,
        -0.032160809972584914,
        -0.11067253086378484,
        -0.12299794258483968,
        -0.05359213660402676,
        -0.23852670156002817,
        0.15982309305740738,
        0.025873792833183973,
        -0.06965374276203862,
        0.10502544165308991,
        0.23989887373033486,
        -0.28335745536925344,
        -0.07715726094568764,
        -0.15155032661247123,
        0.08700866368517446,
        -0.20645613614249017,
        -0.062902406371246,
        -0.06394980225818131,
        -0.0293081113752518,
        -0.2916273149838175,
        0.01356194884548223,
        0.13624119225784698,
        0.15803933645565205,
        0.07444452560560816,
        -0.18200217139566868,
        0.19514940209690834,
        0.005068080277214393,
        -0.12306605152782549,
        0.1021344942490513,
        0.029337170184762895,
        -0.21081712452325677,
        -0.0907643770093273,
        0.029462200850375597,
        0.1315340755467188,
        -0.25029005263642823,
        0.1714441095069969,
        -0.11804230487366907,
        -0.20440746092043724,
        0.013418860256303511
      ],
      [
        -0.03277134114856356,
        0.04141757603671692,
        0.10411678621192255,
        0.21836231087977914,
        0.18728649405487108,
        -0.16539522902997245,
        0.1809957885982285,
        -0.09124928268735147,
        0.26613060560754603,
        0.17864758429620592,
        0.06391186668287291,
        0.2722468853620475,
        -0.03530535812440355,
        -0.1922218968782078,
        0.2811862902502527,
        -0.13888404156457218,
        0.15458290016951848,
        -0.007525617135082818,
        -0.17040572212160854,
        0.15305721041708686,
        -0.19107723353009992,
        0.2062510402319886,
        0.25350859093513683,
        -0.1752911422907375,
        0.1527073424964127,
        -0.2828976373862804,
        0.1387673554629001,
        0.28095850678367845,
        0.03454992331306894,
        -0.07103111314697752,
        -0.00012525333118118542,
        0.2774105057786553,
        -0.04062604078454268,
        0.2530371890979732,
        0.049842812794752445,
        0.21457347854635217,
        0.03715660645689739,
        -0.1612251910665217,
        -0.10273017297527504,
        -0.04125525736734825,
        -0.2326873033632775,
        -0.2655749260518929,
        -0.09763191288492029,
        -0.07254953116356574,
        0.10215401328701851,
        0.2755351601034847,
        -0.13712518825857847,
        0.08740038146489254,
        0.05264282200089648,
        0.232349541227805
      ],
      [
        -0.14742820316689026,
        0.2722353016395395,
        0.15766341300304498,
        -0.030626221983470148,
        -0.2704074252988523,
        0.18188194512438732,
        0.25051227200478515,
        0.03433629330647103,
        0.032084545962059674,
        0.20424340536200253,
        -0.19502794706056126,
        -0.15972539247987066,
        0.1755662378798034,
        -0.10380757127079929,
        0.13596764383234705,
        0.22052003986385932,
        -0.15642392988962592,
        -0.2599758866296804,
        -0.11701303639094429,
        0.1848933041163085,
        -0.2873278843460447,
        -0.033843296069221984,
        0.019341310808407508,
        -0.1433753559151029,
        0.10654399358548367,
        -0.28371430397414343,
        -0.2471851999970171,
        0.21042992300867985,
        0.173071645164302,
        0.15698257441458996,
        -0.02875927674272788,
        0.20455559623952757,
        -0.2590289541536335,
        0.2052554824579012,
        -0.2526778398978718,
        -0.009071148505408244,
        -0.20600707563929954,
        0.13178563132106552,
        0.09634485962416234,
        -0.28874493112941585,
        -0.189526851262028,
        0.13012944636212453,
        -0.04622338334639606,
        -0.19866707277448215,
        0.053110573555540885,
        -0.12761830728886248,
        -0.002732947819723719,
        -0.11402140726354401,
        0.19594071214222186,
        0.10249504693136796
      ]
    ]
  }
}