{
  "num_class": 10,
  "num_hidden": 50,
  "num_visible": 20,
  "params": {
    "bias_b": [
      0.0,
      0.0,
      0.0,
      0.0,
      0.0,
      0.0,
      0.0,
      0.0,
      0.0,
      0.0
    ],
    "bias_c": [
      0.0,
      0.0,
      0.0,
      0.0,
      0.0,
      0.0,
      0.0,
      0.0,
      0.0,
      0.0,
      0.0,
      0.0,
      0.0,
      0.0,
      0.0,
      0.0,
      0.0,
      0.0,
      0.0,
      0.0,
      0.0,
      0.0,
      0.0,
      0.0,
      0.0,
      0.0,
      0.0,
      0.0,
      0.0,
      0.0,
      0.0,
      0.0,
      0.0,
      0.0,
      0.0,
      0.0,
      0.0,
      0.0,
      0.0,
      0.0,
      0.0,
      0.0,
      0.0,
      0.0,
      0.0,
      0.0,
      0.0,
      0.0,
      0.0,
      0.0
    ],
    "weight_w": [
      [
        0.24798446159620818,
        -0.039923127153110805,
        0.083605384438107,
        -0.16712147491764873,
        -0.00142647046029043,
        -0.1674652251982046,
        0.22039440654640735,
        -0.3124272058193421,
        0.03333727789847085,
        -0.1394666296735609,
        0.1720133767187278,
        0.07192519505418021,
        0.01617313828840511,
        -0.03744182015373365,
        -0.04756220159473584,
        0.14173243171927918,
        -0.06212478140819966,
        0.30264268211119333,
        -0.2236706929204187,
        -0.20064985642769168,
        -0.03776839702053608,
        -0.17466369398244824,
        -0.16011205620491956,
        0.1480147097702761,
        0.24688624459535619,
        0.2569375065527056,
        0.29274235693201406,
        0.01678638348881395,
        -0.2706153613837,
        0.16288402996900392,
        0.12350004868550818,
        -0.14624473152241294,
        -0.24171700296998677,
        -0.18233714206167168,
        -0.1963232625884206,
        0.2795145935998294,
        0.25494480836635175,
        -0.003411641704829327,
        -0.2275080063481676,
        0.2259133848277491,
        -0.15225548728302235,
        -0.3077886195309002,
        -0.22765160472962748,
        -0.29891043549052115,
        0.10018579223132501,
        0.09650201922749341,
        0.29156835272135134,
        -0.307626069172533,
        0.2062390145896939,
        0.23657428503437022
      ],
      [
        -0.21635726918596043,
        0.22778215196686097,
        0.06362262891845932,
        0.23154667749929508,
        -0.1527138863103281,
        0.23252488382888453,
        -0.12416158317374579,
        0.102554203266144,
        0.23441058657291264,
        -0.010276669613884404,
        0.2488481979678659,
        -0.2127134977462476,
        -0.07704969139198103,
        0.10946416060398106,
        -0.11831203161840095,
        -0.285323627298266,
        -0.015952314538451806,
        0.21145198192595288,
        -0.2188966311955408,
        -0.2516624208536658,
        0.15914462661189122,
        0.2814846525545645,
        0.09001926526067955,
        0.018013804981107218,
        0.3034729865576113,
        0.09072232590282109,
        -0.10294706170552234,
        0.23174772492761758,
        -0.2287153253443333,
        -0.3038809523518424,
        0.22081184450638008,
        0.2876746746929631,
        0.2300092525654583,
        -0.1957788569345839,
        -0.020963237968950166,
        -0.20236103147452056,
        0.2567183355472757,
        -0.23882070507323575,
        -0.07726836668640535,
        -0.2725063209032076,
        -0.2830227396688276,
        -0.15381752474897972,
        0.05182845654775453,
        -0.22610980105613132,
        -0.13962706975973616,
        -0.030764603095688015,
        0.01344129236958147,
        0.0366536394954744,
        -0.1498229039728264,
        -0.3051612206536537
      ],
      [
        -0.1313433386378076,
        0.2022676088140914,
        -0.3029609460874138,
        0.2533673934731537,
        -0.01690488413102681,
        -0.2855778905978862,
        -0.2531130896883535,
        -0.028119099843025575,
        -0.024781254631183414,
        -0.04620127091000742,
        -0.20156083828038046,
        0.22072235440773386,
        0.01875626807156272,
        0.11534668888499333,
        -0.17671536325633547,
        -0.3013141130837048,
        -0.10802450752851747,
        -0.17117661611484933,
        0.18701991243752697,
        0.09416305250394152,
        0.2207369048632904,
        -0.16230792953755954,
        0.25291925669725096,
        -0.008886025627862004,
        -0.11276410948445054,
        -0.2964015507448624,
        0.2447320903564178,
        -0.04916286222925359,
        -0.04776604263621975,
        -0.3056460967036785,
        -0.022742211247703537,
        -0.19118281005919607,
        -0.31029973667263044,
        0.23866660784005628,
        0.2727437640264639,
        0.019737752505229855,
        -0.030518219849981043,
        0.14572564848772257,
        0.21424366810959655,
        -0.26127321404917114,
        -0.02289319596121081,
        -0.19022411564709554,
        0.1333812506927995,
        -0.2349727142150821,
        -0.2883035154955127,
        -0.1740772594838826,
        0.2540720670352555,
        -0.23572644228285394,
        0.17278823126274112,
        0.254753736226012
      ],
      [
        0.09022439467709986,
        0.14503322802953067,
        0.11337300981449278,
        -0.08171592432401753,
        -0.25896474073545817,
        -0.10363904349840011,
        -0.29520855189115514,
        -0.031758636505855586,
        0.3020251435812949,
        0.06591065250125433,
        0.31194447997869984,
        0.06910397274047314,
        0.06927334004085456,
        0.1625828649454431,
        -0.09125619295050796,
        -0.25364791639363626,
        -0.12191781246035699,
        -0.11820374501339301,
        0.05357371861764032,
        0.15116017596858272,
        -0.15446685112394923,
        0.2946800979936783,
        0.2969927317776819,
        0.052335479334319424,
        -0.3041205249953122,
        0.02812986026421027,
        0.12762129120164833,
        0.2866158851853891,
        -0.07877232339507559,
        0.31124902334855503,
        -0.20813938137318677,
        -0.2538753916773272,
        -0.15599376636988965,
        0.0030651601405662365,
        -0.06717181549958326,
        -0.003967039613116841,
        -0.31460787191492545,
        0.2586872842603835,
        0.15428259986896592,
        -0.1331681690561933,
        0.12297134407058308,
        0.3013846912911184,
        -0.30579203748472455,
        0.3097022553611653,
        -0.05395959263851652,
        0.14784450925228382,
        0.27108394442884604,
        -0.23436859497706755,
        -0.15533506031140257,
        0.060876815267566275
      ],
      [
        0.04369977732359198,
        -0.06472121960455202,
        0.12923370187330419,
        0.04406490940604507,
        0.2230446641906702,
        -0.053296231314432174,
        0.22343674380837292,
        -0.1889988419320654,
        0.24260066089511695,
        0.09008467308607399,
        0.18704404816700088,
        0.18999809699893883,
        0.12450873435441362,
        -0.22965480239306224,
        0.2205816595811752,
        -0.09978950286001892,
        -0.05012243025495228,
        0.103135142466933,
        -0.10311644063601316,
        0.08252861769844322,
        0.13856304277320913,
        0.3010399758981474,
        0.028402621778786163,
        0.26841950222119754,
        0.2633609823109699,
        0.30737473233565366,
        0.1903221470199103,
        0.0942611911849261,
        -0.02460530294838731,
        0.08548346315112082,
        -0.023763366139812114,
        0.07999140008441807,
        0.1284556150061586,
        -0.03812588519337207,
        -0.07119526703233167,
        -0.06834770378614907,
        0.06543353913806904,
        0.01206832246096845,
        -0.24927513204693344,
        -0.008471361879866357,
        0.3034893558113903,
        -0.11984488572827734,
        -0.13797001440123471,
        0.22632778927319203,
        -0.1168358241795231,
        -0.11550041749012946,
        0.20378707547408198,
        -0.1788895022749851,
        0.08518674838642304,
        0.06143973295952099
      ],
      [
        -0.11625381422249376,
        -0.039095895659888746,
        -0.09457339261081024,
        0.13738705391739064,
        -0.2910428532547353,
        -0.15472446672644102,
        0.10481125686864301,
        -0.11076169890898338,
        0.12520417268155037,
        -0.11651029938036972,
        -0.2380910393612471,
        0.3013593337627743,
        -0.03170233421480423,
        0.11995816240798218,
        0.18623694851350175,
        0.09209510911220276,
        0.14402554821123753,
        -0.27106520096934433,
        -0.22172911817613944,
        0.02677059479545635,
        0.270851310691302,
        -0.03383462809939697,
        0.3115854011110379,
        -0.008576632042330834,
        -0.14993370248927687,
        -0.24638060808768483,
        0.17296514420745424,
        0.06795626442786973,
        -0.04751069546831982,
        -0.09294038943895999,
        0.0775424855406649,
        0.057405142905228246,
        0.1740895369129699,
        -0.27633743410419365,
        0.18333650270033697,
        -0.2370765923609388,
        0.12826943870580243,
        0.24898383353982217,
        -0.19363525653838787,
        -0.12946173901543076,
        -0.21503934661100305,
        -0.07804236645899731,
        -0.008646621173191649,
        -0.035178352423746284,
        -0.24376240546864628,
        0.16446780496843322,
        -0.14838838885196942,
        0.2100106463342291,
        -0.19879412085187498,
        -0.09557175092712972
      ],
      [
        0.24691227865973836,
        -0.011591219747643544,
        0.30334641313850225,
        0.22230570807136368,
        0.22784031377535036,
        0.2011015436872669,
        0.07968546017301675,
        0.28096046274943737,
        -0.06727294094394096,
        0.12448118464414692,
        -0.2774878526098472,
        0.16887547890905097,
        -0.20926463297142492,
        0.2129955028347425,
        -0.005231305123211127,
        -0.23568972560396606,
        -0.09836333173717299,
        -0.17864629855862832,
        -0.17605963561984075,
        -0.10814492358825081,
        -0.2686036958840013,
        0.2172247144494181,
        0.1626273568616715,
        0.194528736761508,
        -0.06906226767799409,
        -0.08593833423278635,
        -0.2540458760446497,
        -0.25009824249895024,
        -0.07359660954185596,
        0.3121881273113332,
        0.2142082252225292,
        -0.2037801436474594,
        0.30557932344209265,
        0.03213601253949405,
        -0.10506744480809294,
        -0.31505642628774894,
        -0.1560435250758093,
        0.1020811577080824,
        0.2844011712613173,
        0.07741264231297407,
        0.22188042320054008,
        0.07716041319928285,
        -0.1266615524373809,
        0.18125799260784747,
        0.23746315150661007,
        -0.3021836424768856,
        0.23904433516742746,
        0.2222180471039787,
        -0.21409386623568083,
        -0.07629773320254402
      ],
      [
        -0.0046834289691972675,
        -0.15863652193925493,
        -0.10740789839806578,
        0.08444320371532982,
        -0.018852045986311072,
        -0.05872813810372124,
        0.018254344161586222,
        -0.03299557983145984,
        0.13502513826458085,
        0.2741397873917552,
        0.022036727961324998,
        0.2060945286405676,
        0.04464070072683618,
        0.09105701159126706,
        0.19684317132193158,
        0.19513159607734715,
        -0.22720075646354115,
        0.030411696393676912,
        -0.1646354204617332,
        0.08146859321495648,
        0.17776073997185193,
        0.23243507589140583,
        0.16244473489913536,
        -0.21629350983665327,
        -0.1728342780517882,
        0.22283612216486798,
        -0.2989569450152355,
        0.12792792271939274,
        0.06533335550132391,
        0.011687747857791975,
        -0.24091880371213242,
        0.2200086732952669,
        0.0943914369582517,
        0.1855748184929799,
        -0.009732582380226562,
        0.12479925730240649,
        -0.23148118098425102,
        -0.18319637127734545,
        -0.0030110831242446956,
        -0.26034237787249337,
        0.17571183374030613,
        -0.30869382267033674,
        -0.10712259935883506,
        -0.06061200894701868,
        -0.28566752573805815,
        0.25835788947899513,
        -0.19299164962492615,
        0.051865597117406015,
        0.08944451587990598,
        0.057642000318826714
      ],
      [
        -0.01879418330147714,
        0.02910168709024835,
        0.10569521095728124,
        0.07609397117365391,
        -0.1298257615927348,
        0.13960781255331856,
        0.24883202985493763,
        -0.059728888127852486,
        -0.12346609210536824,
        0.20824082762073265,
        -0.09261201907821368,
        0.20244164450277408,
        0.017742655448990452,
        0.010345010340898353,
        0.13150238949481596,
        0.22964302646686102,
        0.31025292325025705,
        -0.01928487970675491,
        -0.29040072981526344,
        -0.10756589186147608,
        -0.1556256853014581,
        -0.2064554044821129,
        -0.29263128085020157,
        0.11393220845001578,
        -0.16923978004446574,
        0.26578381799233936,
        0.13793114296099107,
        -0.030499396663577816,
        -0.12312532539892218,
        -0.14222670258272113,
        -0.29659411570351346,
        0.2333045080989225,
        0.048154645822878206,
        -0.03629805175508016,
        -0.05953699523767059,
        0.18382113076494438,
        0.13404522448728445,
        -0.23279374380525197,
        0.1908340391339612,
        0.02229725379325953,
        0.11764140416332491,
        -0.24019316924575185,
        -0.18604479274180036,
        0.2438706565533934,
        -0.22582102152489325,
        -0.25936708276521464,
        -0.02692834021296059,
        -0.28368102255333205,
        0.1983552401804229,
        0.29032408386057956
      ],
      [
        -0.2919695740233226,
        -0.18082953135357183,
        -0.1508122430857851,
        0.266617815924223,
        -0.02149754958195338,
        -0.04306971250888325,
        0.20868954483693164,
        -0.2500992944049143,
        -0.006226720267507702,
        0.27357341986853473,
        0.0012557143220232048,
        0.23813416171480722,
        0.03613101044636646,
        0.12023991904382525,
        0.1606454574657598,
        -0.14561432319160014,
        0.06274980258472146,
        0.10413982169657499,
        -0.1254004472544834,
        -0.3060064289750579,
        0.15775873408065766,
        0.0762554237854004,
        0.015396694725478166,
        0.18120782884241815,
        -0.016755097777916228,
        0.3016589797582539,
        0.21065531130089726,
        0.1166351715713515,
        0.22793435038986593,
        0.1307288461660015,
        -0.16579190091852547,
        -0.08267503763661793,
        0.07242939727422337,
        -0.28936883458812945,
        -0.26710807610952214,
        -0.023248010446100087,
        0.1753047718749458,
        -0.279553251250231,
        -0.10192011060700215,
        0.152660975406745,
        0.2878071769284723,
        -0.21975990980968615,
        0.23011992731002767,
        -0.02067819578933039,
        -0.0035577387130040217,
        -0.16329599648102594,
        0.2714510874186901,
        0.2791685090317125,
        -0.12629218627062372,
        0.07538483661570039
      ]
    ],
    "weight_v": [
      [
        -0.22006203665421803,
        0.27831586685276627,
        0.1930417440226146,
        0.2799025010473421,
        -0.06443127504758955,
        0.0834508669973546,
        0.28333454250020546,
        -0.02289618277166744,
        -0.06391483446335469,
        0.040361756636643153,
        -0.2008831121592956,
        -0.12960339785371097,
        -0.23318503532423937,
        0.030312104922166017,
        -0.06209217946126566,
        -0.03422679482245,
        -0.22912105630008603,
        0.017169669869585735,
        0.08126564691139682,
        0.08268319326108459,
        0.2025025173449117,
        0.004717707174307861,
        0.23110166595855203,
        -0.29215421599083374,
        0.22289602298274908,
        0.028421939877670666,
        0.23029861213226716,
        0.054048777148664795,
        0.10888448222186159,
        0.26212522873344307,
        -0.2485221214039317,
        0.008007933145258439,
        0.16957961994751236,
        0.050968250603476706,
        0.2807814357482539,
        -0.0023567031434823527,
        0.2765149767885143,
        -0.26225008656070853,
        -0.06884328383910632,
        0.12006683290980374,
        0.22682372299080306,
        -0.15316529950201216,
        0.05580356484312343,
        -0.18051687852502568,
        0.0693158473217757,
        -0.18538248583961767,
        -0.07033932029993464,
        0.28065460857096186,
        -0.07629935395684848,
        0.06595751053319676
      ],
      [
        -0.27985677414307397,
        0.18249329223499727,
        0.2297629625771173,
        -0.11365367872521356,
        -0.24530597119750877,
        0.09938331335884765,
        0.20339814945499884,
        -0.06766540242279895,
        -0.24131656004766028,
        -0.051106809913385814,
        -0.0424479136459841,
        -0.005504130023654852,
        -0.09866925137890095,
        -0.04571733961721905,
        -0.1027449658862589,
        -0.06927692889713802,
        0.2737054870359567,
        0.24314745691499423,
        -0.16905130312833833,
        0.2035059074853684,
        0.251413261134756,
        -0.02767862690679518,
        0.17263791292103747,
        -0.08084510008841611,
        -0.035749945018584695,
        0.21664103255131556,
        0.08335289852297834,
        0.24383923094795318,
        0.26298548715919673,
        -0.29220192769174336,
        0.24132558481163707,
        -0.28778578592242215,
        -0.009857865416885714,
        0.05225467682206991,
        0.2793438641083102,
        -0.28776492517962954,
        0.13404804775613754,
        -0.25943083450108084,
        -0.257378212317721,
        0.1735609415921645,
        0.15879494431713792,
        0.09602935920602651,
        -0.26389809440006,
        0.1799825855264101,
        -0.21008841769726197,
        0.005354504948232197,
        0.2031289722258946,
        -0.2546437883328094,
        0.23788994215490294,
        0.025398071106711106
      ],
      [
        0.136667468637729,
        0.13044332453405666,
        0.27272750942612584,
        0.26512914178167807,
        -0.06683732471110071,
        0.13712205215258277,
        0.01910311923156638,
        -0.16788611659275532,
        -0.18257162709148197,
        0.16752469921445717,
        0.24223193162023998,
        0.2276988231094857,
        -0.03240065210239257,
        0.20895337791523588,
        -0.08276962164225207,
        -0.24044226369847937,
        0.16842670457742615,
        0.26080308665115287,
        -0.10161253166095358,
        -0.27115251913452626,
        -0.14752609728310243,
        0.09570217222183941,
        0.10381768904873595,
        -0.0029390657259099062,
        0.010453641014514958,
        -0.09554651448103205,
        0.1340336530487129,
        0.08771467093607921,
        -0.21721241546307202,
        -0.17738944662110434,
        -0.061400798583724575,
        -0.2093119849707165,
        -0.28203683479263036,
        -0.07246410020536301,
        0.052420868563016254,
        0.18101158868242717,
        -0.158264406852934,
        0.25335382798640677,
        0.17855012215051125,
        0.1890146224017738,
        0.0448769820063985,
        0.18688106287406703,
        -0.0778820934100381,
        -0.25905174221991845,
        -0.060927062564868406,
        0.1902487928872436,
        0.24654779695860657,
        0.04265343021759149,
        -0.03144419574672652,
        -0.26258200948627874
      ],
      [
        0.235220764779611,
        -0.016566726521186237,
        -0.07883451266135086,
        -0.01624116668192571,
        -0.2799965263054551,
        0.09643911301511615,
        0.04048650473141224,
        -0.20323352667217826,
        0.18622387386012906,
        -0.14231552613880563,
        0.15580189342796447,
        -0.19714713270833187,
        -0.2276358871746928,
        -0.05704887171723785,
        -0.17399733457470598,
        -0.0897461601323298,
        0.23675461651751778,
        0.0640794684362751,
        0.0901199541525306,
        0.16406702956758018,
        -0.17685953327283835,
        -0.057783120467928994,
        0.05940731182616038,
        -0.20904460828988664,
        0.07036208891487583,
        -0.237011170366058,
        0.24523089809710868,
        0.04806736702619735,
        0.1128586029121027,
        0.15422807180681397,
        -0.0008953507149913054,
        -0.12838757303683332,
        -0.27258901393826207,
        0.037586414646307964,
        -0.1854590615159853,
        -0.16110048010400882,
        -0.20326876534553429,
        0.22571318943630997,
        -0.12571558455258217,
        -0.11805755117159908,
        -0.19039967707739386,
        -0.28990036761313803,
        -0.20175302191613936,
        0.2894627517458744,
        0.01238683896600229,
        0.23045344291809527,
        0.2515554977147682,
        0.1434806763237803,
        0.06325860987953363,
        0.15431183392344605
      ],
      [
        0.2616533663646445,
        0.19682774722999324,
        0.20218791554533722,
        0.1733956054910788,
        0.0953116285029379,
        0.020401721260187244,
        -0.012020637719657945,
        0.059615126369569116,
        -0.09296527494524714,
        -0.15326136056679604,
        0.18407580461021722,
        -0.12402650992898301,
        0.13321445012290695,
        -0.2714717737248601,
        0.010029675984179476,
        0.0706523000815037,
        -0.2708154154998985,
        -0.11976322259347633,
        -0.01861366436989026,
        -0.2846982562551792,
        -0.27774423804180925,
        -0.18426230267793467,
        0.20615345561318787,
        -0.20484586592104612,
        -0.22494806635075748,
        0.0954938161027391,
        -0.1648515887697023,
        -0.263662443581455,
        -0.1950575159657914,
        0.09756699751660047,
        0.12929898347301144,
        0.26355232410611323,
        -0.22532610748900234,
        -0.13201720156006205,
        0.16819295584381233,
        -0.04508204376538763,
        0.23980610452019163,
        -0.14444711052830686,
        0.07881704933628325,
        -0.28697150595865756,
        0.06360123157376024,
        -0.2918838495306813,
        0.28486151816122024,
        -0.2542161395294822,
        -0.003680388292267578,
        0.1871047464970974,
        -0.21928951031715718,
        0.18933464978778697,
        0.2390260435288723,
        0.20371330144945748
      ],
      [
        0.12108870382416775,
        0.143830967037965,
        -0.2309678472747925,
        0.2281520006710332,
        0.01798177828012143,
        0.2710210560166458,
        0.056938791129762745,
        0.05035707529054195,
        -0.163377343593867,
        0.1065896784165325,
        -0.04457091864690024,
        0.24041812121298928,
        0.15169971653487668,
        0.21037620066550294,
        -0.147993106352674,
        0.06566931997082631,
        0.01826258320309737,
        0.28427185510066094,
        0.06417074001418471,
        0.26160289854667956,
        0.14679201582884022,
        0.2040607353823668,
        -0.2638531810440588,
        0.1440219450782793,
        -0.131707308514524,
        -0.2810393284235626,
        -0.24168417663726866,
        0.01069104275699001,
        0.13820275579857588,
        -0.13060037050071047,
        0.19840382404932966,
        -0.2188394241349444,
        0.1871580437153379,
        -0.2746863272921828,
        -0.02127619509087403,
        0.06935401290764648,
        0.009462962763562621,
        0.044619987291695196,
        -0.27531986063298786,
        -0.06670095056600525,
        0.22466261889038525,
        -0.05676571751862508,
        -0.25083880859877156,
        0.18497009456448632,
        0.11176130401602741,
        -0.16252440923500866,
        0.2625730219555125,
        -0.1118460526310289,
        -0.28423103133931465,
        0.27667157899067435
      ],
      [
        0.06338598613124363,
        -0.1305400015349403,
        0.2780515382672674,
        0.2363084501449168,
        0.03181654337893114,
        0.01797568081534595,
        0.16962925838964754,
        -0.09244708948057143,
        0.17551699007260807,
        0.04586351666717575,
        -0.06618965903245058,
        0.26520504931939687,
        -0.2460150305026142,
        0.24330752750882495,
        0.2704977975418024,
        -0.19761141345428324,
        0.1774234140452478,
        -0.04319038676374379,
        0.20717006271972932,
        0.03204622881175129,
        -0.24425201830068213,
        0.03190945189970895,
        0.21674394612172126,
        0.13355701887797516,
        0.175863336949864,
        0.22240278425429044,
        0.2784672952918122,
        0.15163464519670766,
        -0.2870320586366621,
        -0.0629767405381792,
        0.18839848840933981,
        -0.06602685310695944,
        0.06717183590012199,
        0.01723947414742777,
        0.036852683082633286,
        -0.20067058918053743,
        -0.029954003745669033,
        -0.11210228566519387,
        -0.038730235579496786,
        0.014847532647272899,
        0.0733580072020622,
        0.1990068411461396,
        0.2641170206838453,
        -0.25972353519522,
        0.18484984357236645,
        -0.012763460696082918,
        0.21493489259125137,
        -0.01627381474406453,
        -0.26701348552109816,
        0.10916219259369164
      ],
      [
        0.26607933646524945,
        0.09100801469489328,
        -0.07033978651419984,
        0.13874709886202136,
        -0.004184934437554966,
        -0.23676959772202166,
        0.21352456698153427,
        0.26072651294684884,
        -0.17220875645153785,
        0.053698416878757205,
        -0.04344842752312361,
        0.04986831050272311,
        -0.2710016681345947,
        -0.23357335896143816,
        0.21208726115262294,
        0.10897361608079686,
        0.17573643760177482,
        0.09776628489627504,
        -0.27447125434909386,
        -0.08791948181730883,
        -0.27990486299838807,
        0.04154461736105075,
        -0.16925217876006338,
        0.26853864423624824,
        0.05738274827404233,
        -0.20726598854080305,
        0.16079108414999493,
        0.08167070434113943,
        0.1279593718861763,
        0.2077174836351237,
        0.11816852063291539,
        -0.2824054625420193,
        0.2687674169274083,
        -0.1269905997006387,
        0.06272992807827904,
        0.259494215363321,
        -0.24385107811178497,
        0.08819069214724401,
        -0.12557146082016202,
        -0.12140745583421964,
        0.0774454462676154,
        -0.22603494730218932,
        0.10463861410407527,
        0.2828905005933691,
        -0.18607744962088202,
        0.13680416434523163,
        -0.17280287123445526,
        0.23742839383797504,
        -0.08167784035790857,
        -0.07794539776111159
      ],
      [
        -0.23089167679363962,
        -0.005731420061680537,
        -0.00486428978828346,
        -0.0819571970384543,
        0.15931141074117727,
        0.2916741225950679,
        0.22715698890885233,
        -0.26850644119763195,
        0.122484908470745,
        0.13748772616479127,
        0.09532677851648558,
        -0.1613130380600336,
        -0.14814749213418305,
        0.071319217380451,
        -0.07680891178461158,
        0.1300406759482179,
        0.22807024721636932,
        -0.02432159071505402,
        0.280681373791767,
        0.10983717712674318,
        0.09014105284181911,
        0.21210001600404654,
        0.2836480534530172,
        -0.22391500834510852,
        0.04345202173901458,
        0.2779196200205079,
        -0.17010571754967585,
        0.23771705484933164,
        0.20151210811384063,
        0.040267738462803015,
        0.10420707197266232,
        0.021421353085120887,
        0.1271956989280585,
        0.014392295187074244,
        0.12537565326293676,
        -0.0751323006847503,
        -0.27912824007910414,
        0.27012719102746624,
        -0.17914705826685698,
        0.05925632740909903,
        -0.07905222385584718,
        -0.23162597343295538,
        -0.1016378896180784,
        0.12187331703987186,
        -0.09708543327622801,
        0.18643572591076313,
        0.15863741173031548,
        -0.15684968474044214,
        0.2866655829077854,
        0.06757009758776972
      ],
      [
        0.04598723456544318,
        0.08545567784279023,
        0.27318194087008524,
        -0.02007265146939785,
        0.0009202914435141873,
        0.008083244748916585,
        0.07694115081822983,
        -0.2835440798019416,
        -0.2749785464649117,
        -0.16098676212507854,
        -0.19351561228235048,
        -0.2455716824629539,
        0.0008454005372192652,
        -0.23749924870849146,
        0.011697093834825423,
        0.17482626063379736,
        -0.16605820052477502,
        -0.10054750713988214,
        0.2553025870373223,
        0.07940792113667866,
        0.1051673642842294,
        0.28628908359335997,
        -0.11065301178339174,
        0.22506932903289395,
        -0.18688695106193984,
        -0.16886845111492896,
        0.020598613564354995,
        0.2306220471041795,
        0.08828038565102125,
        -0.16765713039691096,
        -0.06086920444595467,
        -0.03153169092202257,
        0.2096901815707048,
        0.08987994184184389,
        -0.1514646134941458,
        -0.07758416266469356,
        0.17100994225343075,
        -0.16728896626559625,
        -0.2075963930505113,
        0.022888313979983754,
        -0.14182731089783362,
        0.24855757066695278,
        -0.11182486104226291,
        0.01941108248426543,
        -0.15584581478238171,
        0.0012485938252578266,
        0.04280623445461207,
        0.1573803856972949,
        -0.040795512238027354,
        0.0013179602505741794
      ],
      [
        0.012834115575372174,
        0.04944736988485471,
        -0.182515955048875,
        -0.24038520402917432,
        0.10908229744190062,
        0.1348654079937005,
        0.08445454371497746,
        -0.2087521866356004,
        0.26141896052824615,
        0.18915119073033299,
        -0.06803369335205334,
        -0.23857083918929273,
        0.10712566196224621,
        -0.2057785109699031,
        -0.04632539996937554,
        -0.23059270253658842,
        -0.09686210255040104,
        0.23971264039183765,
        -0.2648267828349397,
        -0.2773889861465949,
        -0.27151958680046767,
        -0.2740691382907517,
        -0.10214980538240268,
        -0.04324171710986849,
        0.17519307922443428,
        0.055023729437127133,
        -0.09571345455531022,
        -0.015088429806415171,
        -0.06322439001046534,
        0.11308292453600438,
        0.25543435587406976,
        0.1290308750292844,
        0.18419460858040965,
        0.11093328823440524,
        0.029018025094865896,
        -0.14154375787863005,
        0.10805094735103887,
        0.23255898602758712,
        0.21250040334883297,
        0.05708416662907545,
        0.09225885300709957,
        0.16174907280439554,
        0.07044151740057897,
        0.11556325973113968,
        0.2122849163920692,
        -0.13340613972461157,
        -0.2906487086890467,
        0.16663278892233446,
        0.035738996835124215,
        -0.022515596881972633
      ],
      [
        0.09220486386566362,
        -0.2653506387868345,
        0.2532895522542132,
        0.1174122754881568,
        -0.22584445028705674,
        0.19301842133538444,
        -0.0712948331350581,
        -0.017684570448272374,
        0.09880810920191102,
        0.26014489057138707,
        -0.10217487486981036,
        -0.05611540428274042,
        -0.1938178298895947,
        0.12300625584053315,
        -0.03319039514896854,
        0.2262776902686225,
        0.23967368344831935,
        -0.09314682144384279,
        -0.10920378776996853,
        0.2742673674335498,
        0.1465888814770891,
        0.20779290754500473,
        0.2866651041291321,
        0.10966542527465534,
        0.01768070019940754,
        -0.020319422019369704,
        0.11134355505165228,
        0.16236486170428815,
        -0.13520231620773296,
        0.16485668334804965,
        -0.08359427821890567,
        0.28581142920795094,
        -0.21964236323866992,
        0.029294079054955235,
        -0.21341327559079246,
        -0.2586857546326811,
        -0.23148049936149734,
        0.27544748900817423,
        0.045139109781328346,
        -0.21149851650257753,
        -0.05956637217681973,
        -0.24151542750199317,
        -0.21025138589417047,
        -0.06135731621533516,
        -0.15732676458588732,
        -0.27088129808721345,
        -0.1920076819623972,
        0.15415818595775216,
        0.2335194797590096,
        -0.25948148627648354
      ],
      [
        -0.2826195915501441,
        -0.07821209825805892,
        -0.23298876405226368,
        0.2664954381885704,
        -0.264118631044281,
        0.019862636197381378,
        0.0579370471362467,
        0.1550091378664467,
        -0.001364306870743237,
        0.26066037327226493,
        0.12117609400975526,
        -0.11856509791402609,
        0.0954011524118501,
        -0.23586721251880932,
        -0.08800564761962712,
        -0.25137065231918704,
        0.048600201595977444,
        0.07548912341930275,
        -0.2890191568208182,
        -0.16481237165174523,
        -0.06924847474014556,
        0.16147512291572746,
        0.15224850879786578,
        0.16653668893907858,
        -0.12201061434990482,
        0.17042082326678315,
        -0.12862625019663265,
        0.01609119857321467,
        0.03549268607428774,
        -0.047682331183797416,
        0.19935592314806327,
        -0.14278679224069227,
        -0.29144594457229617,
        0.2483339032254513,
        -0.1885438716216819,
        -0.24202727803526783,
        0.2046799934333009,
        -0.24119534194289147,
        -0.2566251377533066,
        0.049566427055541096,
        -0.16933960018707417,
        -0.0012790199537635605,
        0.07008295948547283,
        -0.05193461286255255,
        -0.15858002265262633,
        0.2050641357004488,
        0.27087166660207856,
        0.1240525480810869,
        -0.03169639254698753,
        0.05652385300124746
      ],
      [
        0.2262783697573451,
        0.23628247639596062,
        0.06366966459997314,
        -0.16424529726360468,
        -0.13060691947996264,
        0.09659234517929083,
        0.03915921652014881,
        0.2838967489570939,
        0.1203257045121337,
        -0.17318416779705603,
        -0.12157250677025291,
        -0.05504577278352077,
        -0.059457880306744926,
        0.18480777301074414,
        -0.06461229975610139,
        0.03545197623287072,
        -0.12334745663659907,
        0.2631413270102881,
        -0.20901087350133246,
        0.20240002290317882,
        0.1239765076275624,
        -0.005817566684352848,
        -0.034808901568022854,
        0.24562426066001658,
        0.028368609976553882,
        -0.060753066580909926,
        -0.2308816473453337,
        0.27546159822413957,
        0.22644033415593695,
        0.06199593530581737,
        -0.16447964071166346,
        -0.04778680922128142,
        0.14719596451463202,
        -0.16525582951834966,
        0.0015993724820836386,
        -0.17656654929497195,
        0.04820560420413972,
        0.09090380360560518,
        0.2425221539240075,
        -0.03645439171693876,
        -0.03275768799943618,
        0.14371258486374744,
        0.19612074362394005,
        -0.2669635468273945,
        0.11143194485978763,
        0.12561350423503242,
        -0.2741070905071458,
        0.080216907471993,
        0.07487188298749975,
        0.2712967925774787
      ],
      [
        -0.058905088587791726,
        -0.24432538982732616,
        0.09909279992743686,
        -0.28328085280079796,
        -0.1750056579764287,
        0.2129711841877177,
        -0.20219209896501805,
        0.23910130039981353,
        0.034049878882005113,
        -0.05910744382197686,
        -0.2755677933225757,
        0.040548597406322884,
        0.03363176304102178,
        -0.11569364671076304,
        -0.029366782102612843,
        -0.07239545053127322,
        -0.04561595193935308,
        -0.046955108025686115,
        -0.11998646382475317,
        0.17264516183477524,
        0.14783317180057837,
        -0.054321271727267306,
        -0.1343437597861403,
        0.09686551242261421,
        -0.07719298834248209,
        0.2600045395663804,
        0.050434368461377055,
        0.24037273808915166,
        -0.2903585097858176,
        -0.01946616255307454,
        -0.2833798644396949,
        -0.09089284280081969,
        0.09603753123963138,
        -0.14324770735121434,
        0.037786837223044045,
        0.1157300092390911,
        -0.2862315002777154,
        -0.25033521444409207,
        -0.14968789219135265,
        -0.10861852811797862,
        0.24341308279276458,
        -0.21178153364057742,
        0.10040933242480238,
        0.0734509323892637,
        -0.27198899372442387,
        0.04134968845105902,
        -0.27162805349057245,
        -0.15861057595283845,
        -0.03800947872518845,
        -0.16632217661738408
      ],
      [
        0.28391208085319247,
        -0.11281473360353678,
        -0.14963364090166106,
        0.19430023089244475,
        -0.140338042957528,
        -0.12690846460863608,
        -0.2824354476347466,
        0.12487222566132866,
        0.14324741865148916,
        -0.15721223343980517,
        -0.14768343764270425,
        0.07485261125991172,
        -0.1474235871888997,
        -0.14790434906059333,
        0.18848210859565495,
        -0.03408034746636768,
        -0.11839503190679329,
        0.1438925501161536,
        -0.03327957565628187,
        -0.256235384257399,
        -0.228281923351251,
        0.17808484783837708,
        -0.1319881887764054,
        0.14127405991775327,
        -0.2553363861043679,
        0.12742744602071465,
        -0.009292736364899523,
        0.2686264287343679,
        0.1208292968527519,
        0.06311618260054008,
        -0.03107574962827614,
        0.20791575050582095,
        0.041845129379541435,
        0.2654790743285477,
        0.020774014122011797,
        -0.203484094784396,
        0.14637253816532458,
        0.21551416769028703,
        -0.1725139523760656,
        0.1258304316835095,
        0.014618072598821807,
        -0.033339316418061204,
        -0.11152203885462852,
        -0.2705960495176082,
        -0.2428265963722859,
        0.014124200721858438,
        -0.07509459737674137,
        0.04168772210420346,
        -0.24673406033423023,
        0.2797341768462755
      ],
      [
        -0.14118834117519422,
        0.014608308102375622,
        0.1114730143902089,
        0.16673295310005393,
        -0.014283047713224473,
        0.27781006364042843,
        -0.22483783177100558,
        0.028727614944856872,
        -0.24399867923411878,
        -0.292004088356155,
        -0.25620611922467534,
        0.09386753462983938,
        -0.12746397689982078,
        -0.18450506981433573,
        0.06845467657519011,
        0.2921968893511688,
        0.28976475760515846,
        -0.09893031623446835,
        -0.09159281846513154,
        0.1544143268319883,
        -0.15600908470474897,
        0.26142721053912416,
        -0.23455117435868703,
        0.25969885102608486,
        0.25525983540234326,
        -0.2539963734536005,
        0.05134198614859109,
        0.07504473555528635,
        -0.24851510270262667,
        -0.26657332922910654,
        -0.26339497341918305,
        0.05491942516415055,
        -0.22713447673938125,
        0.2126724230767722,
        -0.16631513227038014,
        -0.2503484073734771,
        0.1441966218187553,
        -0.2150785464812928,
        -0.12428637166405451,
        -0.19138193313716756,
        0.2052873855019684,
        0.01441209239497443,
        0.06809512689624425,
        -0.1585493886982827,
        -0.07178505016072764,
        0.05014821515303647,
        0.27137920762754425,
        -0.10415684901598374,
        0.23246268233976292,
        0.21630556350891844
      ],
      [
        0.0913816794915785,
        0.09280080643478661,
        -0.019097707338493364,
        -0.25371404229831285,
        0.1461984014554199,
        0.2748031940092816,
        0.033576974713926455,
        -0.25852192980960376,
        0.0815601115302097,
        -0.16914174410060312,
        -0.17857863981701672,
        -0.12169999837534176,
        0.07691408633173275,
        0.15332653192228052,
        -0.04844445005479514,
        0.2593588987971109,
        0.1331950677973922,
        0.254913003796346,
        -0.015278465334127023,
        -0.17458425267138733,
        -0.0044461909192924365,
        0.07986086267102616,
        -0.03518328255824987,
        0.07479175560445933,
        -0.1400144231421695,
        0.28242890637374746,
        0.23551118380115604,
        0.20046692957041146,
        -0.09619337178638823,
        -0.26373324671081105,
        -0.045025351389534896,
        0.07735908635156513,
        0.010285523012842968,
        -0.08670435448308392,
        -0.12059689945966034,
        -0.03473722016044162,
        0.06599510199749897,
        -0.2513680916545694,
        0.0962310907299096,
        0.06705731540434862,
        0.0747852446054586,
        -0.21858260207000768,
        0.2093521932902936,
        -0.05153172871441386,
        0.12095977957924214,
        -0.10335188886617136,
        -0.07772959123255807,
        -0.00994681738195241,
        -0.008092734533319212,
        0.11009273648930185
      ],
      [
        -0.2753512407992895,
        -0.08038610059681592,
        -0.08398625740097648,
        0.20393286543264977,
        -0.18153804933224715,
        -0.2861527468757577,
        -0.1769048225247596,
        0.09178773960742875,
        0.03672553029603731,
        0.12322307168135649,
        0.1849402606908196,
        -0.19267862745455636,
        -0.11974637678361888,
        -0.19934825981754298,
        -0.008905046354573065,
        0.05109813589450923,
        -0.07329878691246527,
        -0.2473194554974475,
        0.18243203774342903,
        0.02619201450544245,
        0.12873096888925706,
        0.00820462409051076,
        -0.2831381923717618,
        -0.25566360894209544,
        0.03881587925263125,
        -0.22964734360293812,
        -0.24267651752970942,
        -0.1406953552570336,
        -0.0934115861003871,
        0.18936189710052742,
        -0.20747372735372188,
        0.0499646638186344,
        0.2180811945214723,
        -0.19873318608919754,
        0.2105919309886381,
        0.17704835168561578,
        0.2883337659067155,
        -0.2514358831149986,
        0.025943369554232765,
        0.0719150679250436,
        -0.2813230021333518,
        0.1258471266690498,
        0.17957614554133727,
        0.053724501909388156,
        0.10336854573001464,
        0.2891401197596473,
        0.11174084797368661,
        -0.10538858302692394,
        -0.06479929467905593,
        0.24763535985180124
      ],
      [
        0.07328115773470495,
        -0.09466298111887039,
        0.18742038935695687,
        0.02485400091206652,
        0.05845618183263929,
        0.20574510638032462,
        0.22694034348254227,
        -0.2756926954846663,
        0.20288619476647157,
        -0.25929574543140316,
        -0.1989676286130874,
        0.26492615546038784,
        0.16708244566634584,
        -0.28697205021820177,
        0.2723074048484157,
        0.22051055933863467,
        0.03503199422112385,
        -0.20221850011344233,
        -0.01829585770043962,
        0.13582111241964884,
        0.1953969671684248,
        -0.06341493456041741,
        0.27115380495845637,
        -0.15407804860064442,
        0.012925215390669598,
        -0.1887522089318761,
        -0.014846868294346505,
        -0.055177396699475134,
        -0.2848566884205599,
        -0.14576172801893653,
        0.14732063826849973,
        0.2224168921252539,
        -0.09178562256219816,
        -0.030076916921213392,
        0.2817532473634497,
        -0.011302977482879617,
        -0.2099076697282488,
        0.0335620421037629,
        -0.2491779304747835,
        -0.12687125058537002,
        -0.01170735993356703,
        0.03620483226743332,
        -0.04594297769794156,
        0.20574038032367137,
        -0.16711253807134818,
        -0.07321209669046941,
        0.03712806788986078,
        -0.05035824174378098,
        0.08258828746924668,
        0.10890139935687887
      ]
    ]
  }
}