{
  "num_class": 10,
  "num_hidden": 50,
  "num_visible": 20,
  "params": {
    "bias_b": [
      0.0,
      0.0,
      0.0,
      0.0,
      0.0,
      0.0,
      0.0,
      0.0,
      0.0,
      0.0
    ],
    "bias_c": [
      0.0,
      0.0,
      0.0,
      0.0,
      0.0,
      0.0,
      0.0,
      0.0,
      0.0,
      0.0,
      0.0,
      0.0,
      0.0,
      0.0,
      0.0,
      0.0,
      0.0,
      0.0,
      0.0,
      0.0,
      0.0,
      0.0,
      0.0,
      0.0,
      0.0,
      0.0,
      0.0,
      0.0,
      0.0,
      0.0,
      0.0,
      0.0,
      0.0,
      0.0,
      0.0,
      0.0,
      0.0,
      0.0,
      0.0,
      0.0,
      0.0,
      0.0,
      0.0,
      0.0,
      0.0,
      0.0,
      0.0,
      0.0,
      0.0,
      0.0
    ],
    "weight_w": [
      [
        0.2834752178439713,
        0.31391697546987435,
        0.2359807219480869,
        -0.28640215654588264,
        0.24850336872723217,
        -0.11097253480955227,
        0.22193533097110613,
        0.25160454050775155,
        0.3028351513363509,
        0.15095697008508474,
        0.3009210887716705,
        0.06459655199495012,
        0.23487624955612735,
        -0.2035463832790996,
        0.19629579481207,
        0.3095008793176653,
        -0.027395764195153716,
        0.02607923068318163,
        0.11107915973562649,
        0.19159351892338922,
        0.10841665133920425,
        0.00728152623806172,
        0.06594425551831312,
        0.08985417211643515,
        0.03904297271995294,
        -0.018464490300179548,
        -0.0027989303887820394,
        -0.03091646880947846,
        -0.014542495273530964,
        0.07520951918598051,
        -0.1253141830328946,
        0.3110254452846673,
        0.2176107224115697,
        0.19871038059253426,
        0.22402579575689502,
        0.1058853400618574,
        -0.11572609758107555,
        0.17121458582073934,
        0.025385489929550864,
        -0.2568631154088902,
        0.08713982465653741,
        -0.027693777023996002,
        0.17509542475381018,
        0.06583468283059124,
        -0.11125153993612899,
        -0.22504493553682797,
        0.13231566148049778,
        0.26333285563919157,
        -0.017524259434701206,
        0.15478488373767613
      ],
      [
        0.3132387572449005,
        0.24218708568764152,
        0.20366387926828183,
        0.10285980676921402,
        -0.06092571865310259,
        0.2562865581198364,
        -0.05900421866037514,
        -0.23550566871073542,
        -0.1905204615354837,
        -0.045285087225551635,
        0.11656591177372527,
        0.27850483038122914,
        0.019786663962163664,
        -0.16959577648649585,
        -0.1893395256946237,
        0.01820294858217608,
        -0.039469209894098745,
        0.1558028452602604,
        0.18201359947701445,
        0.1832154109475323,
        0.03680271701801269,
        -0.291912006005619,
        -0.17810188228385607,
        -0.11907096247712262,
        0.2375648241415233,
        -0.1399956246588173,
        -0.2602111744356263,
        0.1548405900145483,
        0.10455186591682364,
        -0.013350273417096492,
        -0.2062343571882707,
        -0.20505372304208502,
        0.05150269052161893,
        -0.301213735087305,
        -0.013746615415371921,
        -0.15054321235600723,
        0.09034649390013139,
        -0.13085553689888516,
        0.0207979134257964,
        -0.18399122254192285,
        0.046561020661596675,
        -0.2966120203109906,
        -0.16436719848361006,
        -0.31068338319299543,
        0.18704459539480162,
        -0.24778811388036093,
        -0.14520425602556725,
        -0.09263958248431645,
        0.14445327769762256,
        0.2667603745755667
      ],
      [
        0.007467318957070368,
        0.2494132245470871,
        -0.1599051036145165,
        0.175865903015075,
        0.00327454121752474,
        0.236914984305806,
        0.03475758112905264,
        0.1927913054803168,
        -0.25382663537363115,
        0.10918411821723484,
        0.13686291799787903,
        0.2056157619776478,
        0.13694333264893366,
        0.2822458769056119,
        -0.13186410274229227,
        -0.19231396016740232,
        -0.2858273545448126,
        0.2095535135481716,
        0.1823222989766558,
        0.12609377694976603,
        0.11483299558169957,
        -0.2633748711086977,
        0.2305340929190614,
        0.29952782115894966,
        0.132637913815064,
        -0.053359096421390084,
        -0.23244559544840282,
        -0.2899871887663923,
        0.28847893138788855,
        0.08805623895721687,
        0.09258230742487783,
        -0.2587708438843806,
        0.25782005625325993,
        -0.0791553043740425,
        -0.004101188633873487,
        0.21479149071973375,
        0.2527124893333175,
        0.2911697962919559,
        -0.12114397324163878,
        -0.013038847266208131,
        -0.24256086582512726,
        0.10989685060588156,
        0.16319552774854035,
        -0.2840791497393468,
        0.1871988766106047,
        -0.04531960633841292,
        -0.18345298343983432,
        0.21834449589517452,
        0.08875332584720025,
        -0.11342837772016626
      ],
      [
        0.15970936115198675,
        0.04759973125301009,
        0.24330425043438136,
        -0.30993932517030676,
        -0.037793913197549434,
        0.2487704978229211,
        0.1741172816128288,
        0.1218639370541294,
        -0.2647594208486556,
        -0.31504579170654345,
        0.16526904580860247,
        0.00035616712209129986,
        -0.18058072120810584,
        0.02196381971808875,
        -0.12854913925617534,
        -0.08988115390111942,
        0.22749395297291292,
        0.06205307349862382,
        0.16283962803546997,
        0.07079548616663311,
        0.033274553180953736,
        0.2432208520082096,
        -0.30325663740793296,
        -0.022898251946637693,
        0.2066707860067118,
        0.04495001500431822,
        -0.23283168202915405,
        0.0965860969859143,
        -0.21700271270138513,
        0.2300543701395063,
        0.12208589371875883,
        0.25680574909159665,
        -0.2922487680744419,
        -0.1318667698402365,
        0.040815706093196125,
        -0.20337151810311693,
        -0.14826297655515377,
        -0.2994307008222181,
        -0.14909857392356787,
        -0.2895318436038634,
        0.24456829993086399,
        0.011447094326038576,
        0.13343534644695176,
        0.09718902863164969,
        0.040225695391680194,
        -0.2050273921871967,
        -0.2374070949928423,
        -0.28473924181728294,
        0.05950959955648011,
        0.08579494534655974
      ],
      [
        -0.002502901062413132,
        0.27925740707314656,
        -0.019301596946079247,
        -0.1578272692093089,
        -0.07680949063786613,
        0.13447942485507408,
        0.3104171841387762,
        0.11236727576104855,
        -8.052996455920614e-05,
        -0.0991786170727664,
        0.297582711127745,
        -0.17452917006507862,
        0.07620395598761948,
        0.2925905429766447,
        -0.09026724813696305,
        0.005832535957916274,
        0.16889892965749165,
        -0.1005078808834611,
        0.19962022234434634,
        0.08225712395500412,
        0.247184936711707,
        -0.14197821452795797,
        0.26709733676471165,
        -0.2888993376060753,
        -0.10603255410509976,
        0.028186002110045072,
        -0.06507563604847583,
        -0.23466268331724333,
        -0.18191869599564928,
        0.10156524754599133,
        0.10131511055411047,
        -0.24973536637984534,
        0.08948553054751829,
        0.2695331187979008,
        0.2587834236266732,
        0.12133645236195989,
        0.14202145988627124,
        0.05309766463130372,
        -0.07500105796454948,
        0.1194422578433379,
        0.2446767480350553,
        -0.04662502673733987,
        -0.1778732611167878,
        0.046689407866722654,
        -0.23117887613121108,
        0.042966761803274856,
        -0.20000612898364775,
        0.23767408720598132,
        0.003679499767173966,
        0.29820575682088574
      ],
      [
        -0.1562020044222618,
        0.1620521350810849,
        0.2697992555517757,
        -0.01430693497491825,
        -0.05856114123954287,
        0.12571694860517657,
        0.06514856921716033,
        -0.2851494985889444,
        -0.036717458990417395,
        0.13557633946412095,
        -0.12442822376568036,
        0.0419625756079236,
        0.2239239998354699,
        -0.21436628578883943,
        0.03352672548558033,
        -0.10765138683914721,
        -0.02260771190102079,
        0.08783044440547677,
        -0.009098244613446271,
        0.18886361934526869,
        -0.27257666967955696,
        0.20764158733788346,
        -0.1681211094469216,
        0.16997931298768604,
        0.00715169196965193,
        0.16999271731198534,
        -0.009748155373661027,
        0.06033325611296442,
        -0.1825012904007795,
        0.23463234659839588,
        -0.2543768118839154,
        -0.21653804524576314,
        -0.2806690805258261,
        0.043602306555868275,
        -0.16148741492707647,
        -0.2934830038788048,
        0.12502610396651437,
        -0.15070820581455938,
        -0.3047772405181456,
        0.01933353909563812,
        0.16823495091597318,
        0.31328555833079136,
        0.2498685072882944,
        0.2112068179037106,
        -0.10255768658455022,
        0.127354129183106,
        -0.07900499811467848,
        0.1477911520332228,
        -0.10553954325269238,
        -0.22700811212276706
      ],
      [
        0.1167108483040683,
        0.3044187496163256,
        0.18119077980963333,
        -0.1735293402951467,
        0.004825859251988973,
        -0.20022616572518265,
        -0.06586021277995757,
        -0.09393566801243924,
        0.10400673840399088,
        0.05963165829190392,
        0.1845282676856666,
        -0.007111857104948105,
        0.07842084702118929,
        0.2520326014727246,
        -0.2366052989539373,
        0.2921141260751439,
        0.2684577073568542,
        -0.1272409557685684,
        0.24279917362731157,
        -0.033574404634519606,
        0.1529044785758415,
        -0.055782698592148516,
        -0.0194600310391716,
        -0.1410000845345487,
        0.16090717974336627,
        -0.14901832770283757,
        -0.24048442300313433,
        0.19391630525384146,
        0.20213312026742386,
        0.0757939148920192,
        -0.23230875610093693,
        0.30743417910684107,
        0.29588551772997945,
        -0.13975810516888076,
        -0.015144935463002551,
        0.22329811030593277,
        0.19528470394420155,
        -0.044216792381640724,
        0.2632683246835185,
        0.29689393953353543,
        -0.07600764182224617,
        -0.2022499901645594,
        0.09427571258813572,
        -0.10998541634381506,
        0.18373740967876745,
        -0.3023374030064688,
        0.009548268897662249,
        -0.1763377485037806,
        -0.14292784826589952,
        -0.14184255868085419
      ],
      [
        0.02980405112764084,
        0.28045715180826963,
        0.06517072472917823,
        -0.2002969779503259,
        -0.17051655878072006,
        0.27527234685040475,
        -0.051207618893081286,
        -0.0258886188073863,
        -0.3006847928714806,
        0.23237454563715204,
        0.2436648058064173,
        -0.18486719324262008,
        -0.2546936057264298,
        0.20873785305175935,
        -0.28851588188062144,
        -0.10220157730632445,
        0.22308978875145108,
        -0.23474765150676502,
        -0.20259773702713613,
        0.12771900775058959,
        -0.1235021197348363,
        0.025168483536375574,
        0.25538805131732106,
        -0.20187295200736072,
        -0.290520258314862,
        0.13602945795367438,
        0.1645193634636135,
        0.07590686318005146,
        0.20232490536803022,
        0.20204840607976488,
        0.2796314610246364,
        -0.016904193546137702,
        0.05533374774940952,
        -0.21606735986255138,
        -0.1683015423125715,
        -0.17032175538652075,
        0.0036722813952434485,
        -0.24762125582447733,
        -0.3095860828116662,
        -0.23602571581648502,
        -0.29928273899524427,
        0.10107542432709371,
        0.21828123879546452,
        -0.015745967547729,
        0.12481329426284199,
        -0.09067693613709041,
        -0.10205444942534814,
        0.15120538721774224,
        -0.08567079784885623,
        -0.22509961761563263
      ],
      [
        0.3104528970049741,
        0.1373576619924864,
        -0.27504389528855877,
        -0.12615118672032058,
        -0.13445463142101505,
        0.1436864901571423,
        0.310925858453536,
        0.13276730817296117,
        0.2017501873362954,
        -0.306052801086736,
        -0.15974622895058102,
        -0.09234962638713937,
        -0.07414681317304253,
        -0.2888414665623987,
        0.27255708328847766,
        0.20578317740759383,
        -0.23412984332811665,
        0.21859022763708807,
        0.24212785796250275,
        -0.005437335379514685,
        -0.2670701644232722,
        -0.23251555522826367,
        -0.2009841192697175,
        -0.16582579829019883,
        0.22571322852060322,
        0.27235740189574614,
        -0.19930658302190216,
        0.10152885054708005,
        0.04636020942639746,
        0.24533239068686802,
        0.10763941063966048,
        0.1423486384921792,
        -0.0777565147236427,
        0.16547573867654009,
        0.1300361915704149,
        -0.032645815640001685,
        0.24626196906110714,
        -0.10805002693184745,
        -0.1829751545463855,
        0.17897195502377616,
        -0.22163434628340428,
        -0.2205572090443697,
        0.2014666073003087,
        0.11840037961217792,
        0.1967234623315675,
        0.190586610253955,
        0.14606345679787713,
        -0.1751898310091769,
        -0.1840828603426677,
        0.14033847667382027
      ],
      [
        -0.07892932216057821,
        0.053481491367475376,
        -0.16924661328732002,
        -0.2507029658165288,
        0.13866311396802056,
        -0.1965773655164449,
        0.1705849063641547,
        -0.22207332154154982,
        0.27939610391574404,
        0.17741759123602724,
        -0.018836208251704067,
        0.1989391913971476,
        0.31081037476617973,
        -0.29427492642058445,
        0.141638592760846,
        0.2909991829809581,
        0.2769001637537299,
        -0.08483172344215936,
        0.26453065643412915,
        0.14217041690237914,
        -0.2800508101326037,
        -0.0022225611499108178,
        -0.02500902384123388,
        -0.1992494563151356,
        0.1523578295164955,
        0.24819899554154806,
        -0.18838143020654946,
        -0.05214638400931548,
        -0.24435634712798446,
        -0.2807186240039461,
        0.034184945319653826,
        -0.272957118744345,
        0.13253526802712245,
        0.04142443513071925,
        -0.21739460720769047,
        -0.062325491090041596,
        -0.01986647192915758,
        -0.19352811816542714,
        -0.13033650234508612,
        -0.2771503023370771,
        0.007854136920009525,
        0.11777002044804136,
        -0.2378811958069509,
        0.23764991173612898,
        0.024677713230416343,
        -0.283163956589077,
        -0.30564753000112976,
        -0.2915307050633273,
        -0.18652224378381327,
        -0.019914229544577666
      ]
    ],
    "weight_v": [
      [
        0.2621366093731348,
        -0.147079676018402,
        0.039999619527921415,
        -0.1433302566778666,
        0.09014287555179651,
        0.09589675119775865,
        -0.15265829858654598,
        -0.08994337992957421,
        0.04015374896417562,
        0.2542591163671534,
        0.16444105307511125,
        0.2811569962979354,
        0.04204094302338579,
        0.0280474467984429,
        0.26350306099988,
        -0.2604309937893296,
        0.24227197735930067,
        0.16706827684378162,
        0.17267323284338493,
        -0.1469319811909317,
        0.15494004772592412,
        0.04047671708809991,
        0.24148216465900846,
        0.11075388474579673,
        -0.11471112980941375,
        -0.05586270553954828,
        -0.19021115124133514,
        -0.10175979035376548,
        -0.16263426502654477,
        0.04553490613304889,
        0.22204035783274928,
        -0.23361535683035808,
        0.16595702234999898,
        -0.19365487988067068,
        -0.15508275165929644,
        -0.1902076835662513,
        -0.15656717134846987,
        -0.06276958477430244,
        -0.18188649964338172,
        0.2621564732022032,
        0.27153880578900097,
        -0.032628848590241455,
        0.12314098954698904,
        0.1011988804785165,
        -0.210714741439542,
        0.24459902803908723,
        -0.06726179816312963,
        0.04872791419069905,
        -0.07957475559879926,
        0.12281421006577264
      ],
      [
        -0.15138098017164134,
        0.07642443015940092,
        -0.16582551985681235,
        -0.07953148198274199,
        -0.15807904367628728,
        0.0016581278250158427,
        -0.2615010447543966,
        0.1898168351392991,
        0.06324355118223407,
        -0.011946055176944081,
        0.24450662209757906,
        0.28399434727340184,
        -0.17937622461800792,
        0.09838300223099372,
        -0.17590297999567267,
        -0.02668324570046171,
        0.16629682196814782,
        -0.12449843639867489,
        0.011417242005894446,
        0.13478629486315669,
        0.2160412091661617,
        -0.09278872051428019,
        -0.10558842326790169,
        0.05721596829190634,
        -0.09223849666236986,
        0.19052965540312616,
        -0.1274851687347512,
        0.1110438415638616,
        -0.1516797658568314,
        -0.21980646118646946,
        0.23763397544263115,
        -0.1630979082570332,
        0.28467132809293855,
        -0.0042788868653665935,
        0.12568791100181476,
        0.03479779139771222,
        0.03815922373956954,
        -0.21894362819153568,
        -0.016492139962174024,
        -0.1992046159227918,
        -0.11842205934744451,
        -0.00035404552665163624,
        -0.08540592759183568,
        -0.060550011316701624,
        0.2702376822674423,
        0.07851697030644961,
        -0.05118735850942496,
        -0.26469931330579055,
        -0.10359061177972823,
        0.22173820618812773
      ],
      [
        -0.13963011832797748,
        -0.15493731768127947,
        0.012637262031230723,
        -0.10040869390944401,
        0.021272473909743184,
        0.23252872892784965,
        0.017569317770464332,
        -0.18774324093203532,
        -0.09234698743010089,
        0.20637556872964702,
        0.004058935246334494,
        -0.058055405182404346,
        0.1472550337026795,
        0.2868961281608637,
        0.1523736699899214,
        -0.0631288532740456,
        -0.26118490381257403,
        -0.28751876378331126,
        -0.0348603311462683,
        0.1463770455761973,
        -0.032808743512795224,
        0.021194727131370605,
        -0.1805088605008875,
        0.17623988741021485,
        -0.14264999511376178,
        -0.06828884681085526,
        0.219976170219292,
        -0.1861997213349233,
        0.14567377511369084,
        -0.1801236235427398,
        0.005352520446929465,
        0.2671562770598728,
        0.007663962793012513,
        0.2150419967865193,
        -0.11801095498616962,
        -0.1477437662557488,
        0.2179730138931289,
        0.2515477144331591,
        -0.09654972574048681,
        0.05779945644334805,
        0.04334356920835586,
        -0.006102489873279882,
        -0.17993405597290268,
        0.18525942464853407,
        0.19640138941061397,
        0.11137587098605817,
        0.0012156592922318299,
        -0.22230741342917398,
        -0.2187081119854033,
        0.0679902368004543
      ],
      [
        0.2437795765794279,
        -0.19070512854132657,
        0.14002318760462212,
        0.17182337918378282,
        -0.08381187732329617,
        0.0368623144805757,
        -0.09298300032953519,
        0.19195310701779011,
        0.12237685164206302,
        -0.13321499738960013,
        -0.03759984263974214,
        -0.24885068604038196,
        -0.0445816648018251,
        -0.0688008388819035,
        -0.22283609895154544,
        -0.15483345549242628,
        -0.22666937796631764,
        -0.22298277825363633,
        -0.1850907503742145,
        0.17926053539040204,
        0.06064272811318683,
        0.26064836722125667,
        0.0676888461880088,
        -0.2001846047007073,
        0.2655456793248267,
        0.21870099361220646,
        -0.0657197761308603,
        0.08265558586700378,
        0.2871991744759376,
        -0.19007876575018284,
        -0.06918269735594518,
        0.23592915423670363,
        -0.23185754223931296,
        0.06590328694437197,
        -0.093378070144193,
        -0.15634955603172626,
        0.11429848941856824,
        -0.17862599096917176,
        -0.23836719062329362,
        -0.22949601453658441,
        0.0815162117102276,
        0.06837793419050392,
        -0.25099275457011905,
        -0.009044925699329465,
        0.2772261164956004,
        0.28111568584225927,
        -0.20890416796203232,
        0.002532212864024941,
        0.02002739952380006,
        0.06865957031326786
      ],
      [
        -0.01092265325001368,
        0.12709181492730048,
        0.14262584545730578,
        0.28381593806294086,
        -0.16067755097700054,
        -0.27017889985068244,
        -0.25161355327279156,
        -0.20714423819046102,
        -0.22937859720609804,
        -0.08114896332170177,
        0.11927579062709204,
        -0.23039402897962782,
        0.2698830368000135,
        -0.20596990621987876,
        0.03508080235186195,
        0.07911737059681379,
        -0.007001598480222859,
        0.06989756218866389,
        0.06468263048879991,
        0.221753943291438,
        -0.14151277646134416,
        -0.10962014942813536,
        0.21337344885398807,
        0.01767406482327971,
        0.11773451692335624,
        -0.20187785920924214,
        0.03656705321858733,
        0.04290172166425671,
        -0.13890286887356068,
        0.1477895012055478,
        0.2242860927284031,
        0.15454902056944797,
        -0.1374438278287491,
        0.0372151868031943,
        -0.2502759607618338,
        0.09543307256874078,
        0.04754076994389922,
        -0.2603257760582457,
        0.07848336445935972,
        0.13545709143108037,
        -0.1996820710868677,
        0.11407546115616934,
        0.11562436034165352,
        -0.2649700476496058,
        0.04213920562648338,
        -0.11428221108868927,
        -0.1042580878385021,
        0.049344838973273575,
        0.2743340746532939,
        0.013063432042000334
      ],
      [
        -0.057868967101806,
        0.1404068521580718,
        -0.1874166622611542,
        -0.1511776766336396,
        -0.2559259705723699,
        -0.05220897508277736,
        0.004219595633172257,
        0.15815555172323126,
        -0.1723307655967442,
        -0.011765970328596054,
        0.0970055091354805,
        -0.11209164338097408,
        0.16395767118956528,
        -0.14257727466436257,
        0.2436701245397625,
        0.2806987187264805,
        -0.10597958892074205,
        0.016276920065223632,
        -0.07932251776826948,
        0.004413426193945691,
        0.23848080992032922,
        -0.093781921321825,
        0.15027951623248909,
        0.2597043040693669,
        0.26577319019622286,
        -0.1111043361145794,
        0.11406649800850788,
        0.025120800206805294,
        0.07552743417057273,
        -0.18850961129500332,
        0.06499692474543695,
        0.07844183417816358,
        -0.007674612876584441,
        0.19225625800335727,
        -0.01192242680697203,
        -0.09022119452884342,
        -0.016513732916667467,
        -0.11035885018958796,
        0.1338648568107179,
        -0.1724755021465653,
        0.21129756573424135,
        0.09728516061511322,
        -0.17144373839522253,
        -0.24088584645096472,
        0.26122639326958413,
        0.2486641143066864,
        0.20227841267521562,
        -0.153959595439657,
        0.00900333845480944,
        -0.1623978945449096
      ],
      [
        0.05970484405122545,
        -0.11457949947141036,
        -0.21282105062343293,
        -0.09194112713682318,
        -0.10796518085399529,
        -0.11292183925877661,
        -0.17310293228582196,
        -0.07823670742397915,
        -0.14332700803009124,
        -0.029611160813185544,
        -0.19042701487389357,
        0.1732499569097321,
        0.002377634867744949,
        0.06951554066729965,
        0.18019309894934427,
        0.05144831951523038,
        0.1742627375723016,
        0.2686280287925736,
        0.22835900664350056,
        -0.25378491346710197,
        -0.2788879742813562,
        -0.04101567940974149,
        -0.1767289800026649,
        0.11618193084029604,
        0.11445631836895398,
        0.12940139094517106,
        -0.18869726814936705,
        0.02974991068841909,
        0.23985222432081504,
        -0.1170022328332797,
        -0.22255067337658102,
        0.10084316774496899,
        0.08316992908544435,
        0.1323535202863394,
        0.0038959281076713093,
        -0.01388354523411306,
        0.25281214290992643,
        0.1859768212642346,
        -0.01599423758414642,
        -0.16507394456532723,
        0.03362354680829033,
        -0.13812631925815086,
        0.25083397621586384,
        -0.05045894920304131,
        0.1503810904521249,
        -0.2901431569712033,
        0.19634802575603377,
        0.19234459827386552,
        -0.03143917772211818,
        0.04305165355755086
      ],
      [
        -0.04845855884372691,
        -0.08490512104997794,
        -0.25168746028839895,
        0.17330481160100908,
        -0.29115732213951834,
        0.2703829994697419,
        0.10110614914326316,
        0.23955491255554934,
        -0.27216521837521357,
        -0.18104972357921167,
        0.29252874116504696,
        -0.031275070393639914,
        0.19928703284092708,
        -0.0026349030487803904,
        0.1091252964227139,
        -0.03815522593079107,
        0.021235037667244883,
        -0.05311615261910238,
        -0.08837639832503469,
        0.1713221953609631,
        0.1596765651719636,
        0.21915825816332396,
        0.05055358573279761,
        0.2611629341049045,
        0.14990662725093773,
        -0.2697318510302916,
        0.03412117068232212,
        -0.06031483012200328,
        0.08184945346720113,
        -0.19209344265464978,
        -0.22766358578950713,
        0.16537897273562235,
        -0.19097351664273354,
        -0.08113747242675376,
        -0.13184109827718574,
        0.16397516799743211,
        0.1762349736617026,
        0.1418959877787347,
        0.18389531764648576,
        -0.19905036996091344,
        0.2682765824585886,
        -0.06293220131943039,
        0.12750690481506882,
        0.07579179792963397,
        -0.020169872730210092,
        -0.037654836585631235,
        0.2862239075503516,
        -0.18888962937865028,
        0.11117138195361997,
        0.11042979354223714
      ],
      [
        -0.127528623662283,
        -0.14224854109559856,
        -0.26459605813143106,
        0.167479851262463,
        0.1433978931395946,
        0.23568187623731635,
        0.13186985857771677,
        -0.1320315610399516,
        -0.014291015250254668,
        -0.10199953132321862,
        0.07740229678214688,
        -0.29085346580706756,
        0.11342263041273776,
        -0.1567460772527286,
        0.12928867679789485,
        -0.12457417809053431,
        -0.2449866345022592,
        -0.0380899897240608,
        -0.06750078277057642,
        -0.26192974137177116,
        0.20387392838005547,
        0.22558127988146232,
        -0.033787528867353145,
        0.22838387122598586,
        0.18643967288363283,
        0.18231357594712316,
        -0.16796042560202118,
        0.11443541026729065,
        -0.11261610306213476,
        0.028023519558394883,
        -0.05490545593058038,
        0.23646320007094596,
        0.11793012607310915,
        0.2848146201368014,
        -0.02629876655803859,
        0.18857053188024436,
        0.257468499800589,
        -0.20711124209099058,
        0.1083381220340286,
        -0.10497691597321501,
        0.058275271774481385,
        -0.07975935072819507,
        -0.0436289027243173,
        -0.0031567380363144437,
        -0.13502421441134813,
        0.09236355527407453,
        0.19437138414155192,
        0.1602816780303158,
        -0.05189508785777747,
        -0.1287951599622496
      ],
      [
        0.276771624248159,
        -0.23484413898696113,
        0.17350777873321538,
        0.2387139351914626,
        0.10208302510262524,
        0.03847610895250658,
        -0.01925468633965194,
        0.1728355428237457,
        -0.2632402859582795,
        0.1823978336337862,
        -0.23576019318690053,
        0.1357409791050157,
        -0.22484135328098107,
        -0.27367702306741126,
        -0.22143953698008692,
        0.1284658252082559,
        0.05793327826010941,
        0.20742555682393077,
        0.05333776555580888,
        0.21027636194627514,
        -0.03745162260151497,
        0.061865083072030314,
        0.09014019383791577,
        -0.15482249996275174,
        0.12730272372385187,
        0.11521685285877481,
        -0.22591994837740625,
        0.011726801550780985,
        0.11210600140143545,
        0.06437940924401458,
        0.28241766088063475,
        -0.1356835290569831,
        0.23685728064952322,
        -0.23965428596130203,
        0.1400486437863952,
        -0.28580651679372066,
        0.16675800439485866,
        -0.172692935565208,
        -0.05791731169072248,
        -0.04631372919451457,
        -0.1453920407470444,
        0.002613675478861266,
        -0.08998998729969787,
        -0.03190642829579693,
        -0.04911700572592603,
        0.2608510115862949,
        0.11517841305673543,
        0.08668649660135874,
        -0.056172521496441336,
        0.14834724108839764
      ],
      [
        0.1070181867929218,
        -0.0929610134338934,
        -0.2709841402664921,
        0.13213988447094527,
        -0.2676766005168888,
        0.0733886548382226,
        0.26711330285931695,
        -0.07637304061432465,
        -0.16469367073275532,
        0.27789846477572605,
        -0.2753869892783314,
        -0.008701100428244568,
        0.20850130586146437,
        0.24314917246639517,
        0.09921808370065477,
        0.19513936885398558,
        0.11555545952290197,
        0.08994384964462243,
        -0.002108889780461476,
        -0.12711106427341642,
        -0.013843156341745877,
        0.052991449029031745,
        0.26249355070301567,
        0.1247114570954223,
        -0.2873174543862665,
        -0.21448872550419323,
        -0.008687019518876238,
        -0.036934839856638924,
        0.088411867426884,
        0.13950788082840132,
        -0.25018321070575145,
        -0.20298522961216559,
        -0.12208238576675484,
        -0.16596213640552562,
        0.06503823265914488,
        -0.13869908771826883,
        0.2339624734576758,
        -0.16668930722392467,
        -0.19855173050411068,
        -0.2802073558294404,
        -0.18529345120037322,
        -0.07879829098774402,
        0.12626546836455865,
        0.2305075671617502,
        0.06792610538054245,
        -0.017941646355215946,
        -0.16876638793550924,
        0.17915566916961412,
        -0.20195054114536007,
        0.1654671958438902
      ],
      [
        -0.25075615094336146,
        -0.150971446969738,
        0.12295673311352495,
        -0.24848592860860588,
        0.1770388626324469,
        0.11274633069115958,
        -0.02690424470706737,
        0.09672834748946474,
        -0.15468895803767782,
        -0.019931965117279293,
        0.17728923535691127,
        -0.2306536108800034,
        -0.13899294394036185,
        -0.03783843901574857,
        0.1464853563926482,
        -0.288970574141292,
        0.22244965536858302,
        -0.2542021878403951,
        0.27969925203842977,
        0.06418856922662003,
        0.22654142107098102,
        -0.21762526136824767,
        0.12395105152825597,
        0.23288957095548496,
        0.144088748195001,
        0.18234863066672907,
        -0.28205975610550454,
        0.05811434708315316,
        -0.0763861497944967,
        -0.1107931218116173,
        0.043316940017398387,
        -0.07256446035780376,
        0.07221234514970198,
        -0.2256009617402623,
        -0.0018661294643485538,
        -0.15887784083156703,
        -0.12999713972074314,
        -0.1560604012969512,
        -0.12987750768899142,
        0.09879293825545404,
        0.01627122198994324,
        0.24952475610109143,
        -0.16522928046741495,
        -0.26366489319838793,
        -0.08341839898261053,
        0.07170010073122057,
        -0.18254599839451807,
        -0.046529652848648184,
        -0.11968196503325773,
        0.14658511513684347
      ],
      [
        -0.04946086417891085,
        0.2583008652464493,
        0.19468095884217235,
        0.11581716041966927,
        0.2893183638142273,
        -0.2174711543436126,
        0.08690306179001606,
        -0.050379874263568575,
        0.06534696338945362,
        0.04143294716495183,
        -0.25860567955439373,
        0.12519758944909115,
        0.25403783831949817,
        -0.23959055686907685,
        0.012682835199384068,
        -0.20104786968762178,
        -0.043719508748007146,
        0.030389025282109905,
        -0.2066951631565887,
        -0.0749750143314871,
        0.05605633829412471,
        0.11071289914888255,
        -0.28513206314384804,
        0.19017392788644372,
        -0.1030727744398631,
        0.012287897140502047,
        -0.11693697724172611,
        -0.14894107876362506,
        -0.13648832581564846,
        0.25310255887472605,
        -0.08157875664292971,
        0.14680167105054326,
        0.17301976477065356,
        0.15740183914429656,
        0.22719655905525443,
        -0.2030825753356505,
        0.003461053492919308,
        0.13545940568386022,
        0.18897683617912236,
        -0.04414058587096173,
        0.15183738878897451,
        -0.29001671553515973,
        -0.033048278557942845,
        0.01851047396143718,
        0.04119217276299175,
        0.21718752962260407,
        0.1412823542411431,
        -0.17933801429611096,
        -0.05178576355452469,
        -0.26801749622529897
      ],
      [
        0.07005272550919223,
        -0.11662681185827825,
        0.11238967943523653,
        -0.1077131533073542,
        8.180290489712139e-05,
        -0.2757282614848887,
        -0.2777653430729208,
        0.042630371892406704,
        0.24422500086412008,
        -0.1143092776768587,
        0.15926615123964544,
        0.14525711437863753,
        -0.0907079927980455,
        -0.12885530083725832,
        -0.2549622655013428,
        -0.06640591774328153,
        0.07048786158246068,
        0.08829501916274807,
        -0.0864190283754242,
        0.14115539715480213,
        -0.06746491493207063,
        0.1111447264132519,
        0.27250185231768115,
        0.26453209263092486,
        0.08606249099837482,
        -0.10824346682870364,
        -0.1767082331256007,
        0.13254921142868092,
        -0.08076770767295982,
        0.29072640688486157,
        0.1286565577653982,
        0.21226942362153073,
        0.2086288514626981,
        0.2282697158048314,
        0.1398742123685825,
        -0.03663614316411146,
        -0.24448684952627195,
        -0.17488786195601178,
        -0.011619806471257876,
        -0.02276992155871166,
        -0.2106082822305511,
        0.023293365099760766,
        -0.28670893209693615,
        0.28951043959440154,
        -0.19324537683425969,
        0.13792686370772633,
        0.16433067301430837,
        0.03264870352148258,
        -0.018437395732126827,
        0.04008315591381345
      ],
      [
        0.26968159133334496,
        0.29198505457279583,
        0.03821126805594366,
        -0.05193430380123526,
        -0.2691918755741545,
        -0.23751726059821354,
        0.02940008873190625,
        0.2297272597010374,
        0.08183508971951586,
        0.10081790072811597,
        -0.2597467976477938,
        0.13471731619581306,
        0.027751716655665726,
        0.08250939486344305,
        0.17026630266733406,
        0.11530855216120817,
        -0.06914438123400574,
        0.05222997958864439,
        0.015674822083990847,
        0.15353926440233995,
        0.19016617042477407,
        0.13758129980805023,
        0.04995822408506079,
        -0.15542217782040382,
        -0.2678396682613197,
        -0.14188289997698506,
        0.0859388750298028,
        0.055763701701019186,
        -0.18700829514465567,
        0.06525588738572902,
        -0.047200928961416394,
        0.05656878903040674,
        -0.17130790762610876,
        -0.14810399775450217,
        0.13697890972666288,
        -0.10643760008100006,
        0.09243464657955386,
        -0.12740779751682837,
        0.18979219607343845,
        -0.10957750574417277,
        -0.21054031309317517,
        0.23587862325473347,
        0.06198852227062035,
        -0.04389661696954575,
        -0.2105462546861041,
        -0.09180318387625397,
        0.09700886004745274,
        0.20718962894509568,
        0.02754546416848286,
        -0.13278098359093268
      ],
      [
        0.032307982881045416,
        0.17671088920297057,
        0.1734576877667796,
        -0.25675547429101736,
        -0.10067243938042592,
        -0.10719137556036293,
        -0.1832722669315111,
        0.05587687310436218,
        0.18895415544833843,
        0.13581236140735842,
        0.004142448084491546,
        0.19489478109918768,
        -0.11177492735052716,
        -0.1235889080639149,
        -0.1641819083431081,
        -0.16929559272707465,
        -0.19497647596670417,
        -0.0887530652227986,
        0.14552312787628446,
        -0.22320943025743534,
        0.2380724068520788,
        0.03766031918591756,
        -0.04907309747483282,
        -0.11157104617725358,
        0.03466167334502457,
        -0.18956153119506153,
        0.035890443954219586,
        -0.230637671500877,
        -0.00927848725261221,
        -0.14705674872475805,
        0.19862221142208986,
        -0.16366308603277727,
        0.19712113631034917,
        -0.07531549893234168,
        0.28934644644741797,
        0.137037147070656,
        0.2848445789282272,
        -0.2542770709436798,
        0.06970255696578137,
        0.020675897316550396,
        0.2873305490828723,
        0.06643621689276663,
        -0.09431340640382263,
        -0.09434048463438391,
        -0.17095670783034905,
        0.004164234036225456,
        0.09437490324183573,
        0.27353867822511607,
        0.16454691426343443,
        0.01727568386375028
      ],
      [
        -0.240131592125355,
        -0.12490728065807058,
        -0.22698764751918699,
        -0.1480532414331147,
        0.21207618093653374,
        0.16742215448041003,
        0.09440007020843039,
        0.2424780159125975,
        -0.12961508774313166,
        -0.27039733588476844,
        -0.10696675197714348,
        0.1891545210042916,
        -0.12688528107553676,
        -0.16585262003137716,
        -0.2583910328900222,
        -0.27685307745471094,
        -0.2744335277106121,
        -0.24607952013044462,
        -0.047127053891158815,
        -0.20244404447323788,
        -0.2671691700817616,
        0.17356611874078293,
        -0.04243334060072784,
        -0.0743765463324701,
        0.16950281739198375,
        -0.021984697678549325,
        -0.17118327393477273,
        0.23454098324970823,
        0.084425998277114,
        0.2491478868184191,
        -0.16292822322040595,
        -0.005793176079683604,
        0.08925818650663825,
        0.034275013997477344,
        0.0037966962063099574,
        0.07205927970465759,
        0.008966105419597192,
        0.07430919033451122,
        -0.26166267373026725,
        0.003063900903269079,
        0.12583717331664845,
        -0.19370057405157404,
        0.07211083712196453,
        0.19744028986957396,
        0.2791801649070242,
        -0.21463289991505907,
        0.07031565452706162,
        0.2708179531409493,
        -0.09559781222204483,
        -0.09085057142400019
      ],
      [
        0.24667520288115058,
        -0.28446978216817015,
        -0.2363285928026221,
        -0.04971692357648369,
        -0.005948129876305663,
        0.26435999282141803,
        -0.08084081787913977,
        0.02000798348751104,
        -0.040499609687630445,
        -0.23940764484714605,
        0.003107977539956508,
        0.22999542835737824,
        0.05818900270705196,
        0.07792607263693363,
        -0.18071907998888298,
        0.25716591414398676,
        0.07638113419342807,
        -0.08531070665756549,
        0.08537344752569842,
        -0.13254063250615067,
        0.21462225494456993,
        0.04538355522520149,
        -0.038892804151506755,
        0.037837291210041035,
        -0.07521873685281952,
        0.16254005281099032,
        0.282894474371084,
        0.05202821094436988,
        0.14322366055154617,
        0.1933838495714464,
        -0.12070874017884337,
        0.11293332129348749,
        0.22763432530503264,
        0.2876670526496545,
        0.15391487167820317,
        0.013362204560789903,
        -0.22974001344957323,
        0.08281560731832005,
        0.18727854844159364,
        -0.16310557526990085,
        -0.2746563830424066,
        -0.04660556081809991,
        0.19858385205155354,
        -0.1479879996745854,
        -0.17446196009302528,
        0.18479461020650867,
        -0.20451813007968028,
        -0.03556406662476097,
        -0.199534691682762,
        0.09696200599355287
      ],
      [
        -0.1322490741584221,
        0.2686934129623146,
        0.1940745469381821,
        0.009354876722953986,
        0.12432370208315763,
        -0.2519709214238343,
        -0.15851607292287342,
        -0.05639266939797857,
        -0.11739001118409467,
        -0.22861443131070858,
        0.21008745640408993,
        -0.23506504981713144,
        0.0646465908558394,
        -0.2917327417308865,
        0.26986391410694216,
        -0.2926278807576774,
        0.08069368628564683,
        -0.09533936651821773,
        -0.08697506884650977,
        0.21552690437685879,
        -0.22206348447699586,
        0.0068564347113863056,
        -0.23682951278858297,
        -0.18251732072874538,
        -0.03497691116301632,
        0.12296785031092322,
        0.17114059156315847,
        0.16126565841817864,
        -0.1063680288219605,
        -0.07806404779051113,
        -0.21767398307522523,
        -0.2514258016447909,
        -0.18305347519272158,
        -0.022936318055419624,
        0.20095308856851657,
        -0.25065272372459296,
        -0.08069686249693248,
        0.12069201044654054,
        -0.2553679184080637,
        -0.18723482800881852,
        -0.10141388762206077,
        0.19373649082310856,
        0.23187830038332086,
        0.18256423154416196,
        -0.18989234266100727,
        -0.056270332641135595,
        0.06666413307796998,
        -0.1053206879022981,
        0.006322983739526888,
        -0.08808711407981928
      ],
      [
        0.0950360164017281,
        0.24380544042656632,
        0.192853359464093,
        0.2869011855192006,
        -0.032485893324074644,
        0.0030716748120060977,
        -0.07022620965098247,
        -0.08806129192743906,
        -0.0482261610916338,
        0.2909275350631327,
        0.15154013137438554,
        -0.03806000348347399,
        -0.22932239767522145,
        -0.08516405764030471,
        0.03876017100969187,
        -0.23417318512391572,
        -0.19216214282963828,
        -0.08020721299866349,
        0.1312131259041736,
        0.2747024782769663,
        -0.11206672440823795,
        0.04947006896845141,
        -0.128016224153975,
        0.25737602613693095,
        0.15824335834443226,
        -0.0223787239628222,
        0.14472380544515123,
        -0.13365099697636593,
        0.05800989582792193,
        0.20418765152274165,
        -0.004775289933568738,
        0.19583953183681502,
        0.2802039298029418,
        -0.09562912695426523,
        -0.007532144382773609,
        -0.07999504338625851,
        0.1763761822414046,
        0.09734507400134002,
        -0.16242783979881015,
        -0.04048219531756814,
        -0.28460478660085803,
        -0.22564922852747882,
        0.19542037119241895,
        -0.10526457514700463,
        0.20542801232764202,
        -0.2576484876920755,
        0.040957499446512446,
        0.2034356013334977,
        -0.2649062835461229,
        0.19408757895711476
      ]
    ]
  }
}