{
  "num_class": 10,
  "num_hidden": 50,
  "num_visible": 20,
  "params": {
    "bias_b": [
      0.0,
      0.0,
      0.0,
      0.0,
      0.0,
      0.0,
      0.0,
      0.0,
      0.0,
      0.0
    ],
    "bias_c": [
      0.0,
      0.0,
      0.0,
      0.0,
      0.0,
      0.0,
      0.0,
      0.0,
      0.0,
      0.0,
      0.0,
      0.0,
      0.0,
      0.0,
      0.0,
      0.0,
      0.0,
      0.0,
      0.0,
      0.0,
      0.0,
      0.0,
      0.0,
      0.0,
      0.0,
      0.0,
      0.0,
      0.0,
      0.0,
      0.0,
      0.0,
      0.0,
      0.0,
      0.0,
      0.0,
      0.0,
      0.0,
      0.0,
      0.0,
      0.0,
      0.0,
      0.0,
      0.0,
      0.0,
      0.0,
      0.0,
      0.0,
      0.0,
      0.0,
      0.0
    ],
    "weight_w": [
      [
        0.2478398700131293,
        0.14609007396571705,
        -0.12092585363129787,
        -0.013122181960864066,
        -0.027888728306444677,
        0.27200813719921507,
        0.28167756059672405,
        0.1334819665845654,
        -0.12170897181937418,
        0.07734612087856824,
        0.0647212082575434,
        -0.3036854948150174,
        -0.2115281259968918,
        -0.3142123146972249,
        0.05215757088886519,
        0.17200098056484425,
        -0.11965972822750348,
        0.10234652782483372,
        0.03261424038053112,
        0.2348335401010742,
        -0.15367755091446117,
        0.3130509261623265,
        0.307710706447007,
        -0.1717223934324549,
        0.2856189751052521,
        0.00903506253971853,
        -0.3069050524753049,
        -0.04899306427390432,
        -0.03794724110750014,
        0.158447828392755,
        -0.31300646250860703,
        0.1477293234337413,
        0.25036027471649785,
        -0.28668921840550554,
        0.2560650240810373,
        0.15776570174896581,
        0.19429549419315922,
        0.1976025896225841,
        -0.17115973437306325,
        0.3057945670544803,
        -0.11382915720689293,
        -0.04348111162975987,
        0.029469394921170233,
        0.28534495540986565,
        0.13568690349580553,
        -0.1153073546294579,
        0.26571389027577014,
        -0.01008920958707532,
        0.2329679438047642,
        0.23430891044532115
      ],
      [
        0.3056636784040561,
        -0.18162932827845016,
        -0.03605871294681462,
        0.13839961468656453,
        -0.24903868110617175,
        -0.2775100487924988,
        0.27242897754017853,
        0.1469080956766729,
        0.12687110076505254,
        -0.17950083050382268,
        0.2199511160071927,
        -0.029100666162925004,
        0.13400446471828809,
        -0.205387714865018,
        0.21644206672698024,
        0.2719926675907653,
        -0.16241718811679978,
        0.08230097460052521,
        0.16379240108406767,
        -0.14206477238150078,
        0.14797533228835796,
        0.24621203382753748,
        0.17203978931571284,
        0.03153612565888175,
        0.028957853874549466,
        0.30994218347920205,
        -0.30509919108571576,
        -0.21863263014540413,
        -0.19583710965699347,
        -0.3109656427836114,
        0.009260670162231366,
        -0.18822223690878648,
        -0.012410889523399693,
        0.03996695013999341,
        0.11451223791893139,
        -0.08651098612983957,
        0.15958006533676394,
        -0.00741137211355708,
        -0.25729341477231216,
        0.13158625094448373,
        0.2703391942685049,
        -0.22917158716853653,
        0.16124552952287574,
        0.17742718148595565,
        -0.2750567287485477,
        0.03719391051528986,
        0.13355363614880383,
        0.3149807917156801,
        -0.23051648351131712,
        -0.1363957016568048
      ],
      [
        0.20809745367714,
        -0.24477570041070143,
        0.21125976339282054,
        0.2737851944757114,
        -0.1667522623607905,
        -0.14455252567335716,
        -0.22316278645966006,
        -0.05230456429980351,
        -0.06737658515269745,
        0.23689429417207603,
        -0.05315613502802369,
        -0.17158608001157405,
        0.23395426295207572,
        -0.055547263818081616,
        -0.011631484851654827,
        -0.31123540925603765,
        -0.2754092827138454,
        0.11854791392951464,
        -0.15544456477554738,
        -0.17465105887474822,
        -0.0122675549275727,
        -0.10715153171745076,
        0.023518554426046,
        -0.2107435486123716,
        -0.19506449376390383,
        0.2029743291947022,
        0.1731504742682013,
        0.27591356840046705,
        -0.1469337332636481,
        -0.2191116073053998,
        -0.08835482810852432,
        0.062322448104567885,
        -0.27837800689530445,
        0.22796995309118412,
        -0.0446318231131681,
        -0.13493905552025603,
        -0.0029929710951082655,
        -0.06795883682953352,
        -0.17434797341790473,
        0.3029462834486885,
        0.2941726511986767,
        -0.02917638704891168,
        -0.26224468649237137,
        0.2632789984609188,
        0.2375647715402766,
        -0.2786926629196792,
        0.30467392230590934,
        0.28103793361612944,
        0.2891812233694027,
        -0.23603886009844577
      ],
      [
        0.1598590053546287,
        -0.1158084303101958,
        -0.1990869551178016,
        0.23871992567557104,
        0.0018233816994581153,
        -0.02857600349592282,
        -0.2519273403861846,
        0.07886209104306768,
        0.12959807282835334,
        0.03600958751555666,
        0.09641385705252992,
        0.017379546549745717,
        0.12165016332535855,
        0.18147420432259437,
        0.27026614652805053,
        -0.08406647399669281,
        0.056213943567959335,
        0.3132867059372582,
        0.058957531925775575,
        -0.09017851879724831,
        -0.14491411649123112,
        -0.23062710052771818,
        0.2707843161535885,
        0.1405531582754364,
        0.26638188738599916,
        -0.19703716876389143,
        -0.03982964685421142,
        0.14131661281803531,
        -0.18108780198769509,
        0.03526617602726456,
        -0.20832717252636865,
        -0.2572244784313322,
        -0.19485694845503937,
        -0.12249543609150149,
        0.04196091342323405,
        0.0969179358574726,
        0.2325123148062896,
        -0.15313478792031124,
        -0.30950521925816876,
        -0.28071131301444874,
        -0.16070950323912134,
        -0.219019790603874,
        0.21104572342539257,
        -0.14552550381720583,
        -0.07246258496306901,
        -0.1564739495986128,
        0.02692620530578682,
        -0.03296531588674745,
        -0.1910647532597052,
        -0.007193030110089094
      ],
      [
        0.14763070850094112,
        -0.05509056557877562,
        0.07181854490159029,
        -0.1815479625628963,
        0.015189470015246953,
        0.07205625147160494,
        0.012760696953449002,
        0.22283320068222395,
        0.07271538152908869,
        0.01703676815670835,
        0.1636152946327784,
        -0.23694316459601197,
        0.18610213909194545,
        0.09063908847374275,
        0.13096710017572732,
        -0.2871770129077014,
        -0.18976089916155678,
        -0.1001543451554647,
        -0.29431205161208723,
        -0.09675907180464488,
        0.03711704545506617,
        0.1842273843992181,
        0.04486847389696619,
        0.2735837334369841,
        -0.17293583318115718,
        0.16792581665763978,
        0.15013482363080416,
        -0.03682843136766978,
        -0.0825888854284528,
        0.15349811618982784,
        0.08448569964839814,
        0.2339325831265014,
        -0.14425144862346112,
        0.12024946885450793,
        0.11853756287607992,
        -0.3112643076124629,
        -0.20790724498348945,
        0.28508790740256534,
        -0.2661646201373328,
        -0.003987511224813278,
        -0.07279082740049278,
        0.29547011321646083,
        -0.26906171223383946,
        -0.15802986206486822,
        -0.21736275166591962,
        0.12181047657840482,
        -0.07736759751957573,
        0.03062294978347435,
        0.07410359613546941,
        -0.23878362681143933
      ],
      [
        -0.19549280842995365,
        -0.24346146368822585,
        -0.021270233774639102,
        0.022729111723961526,
        0.0756729674328967,
        0.305960471822239,
        0.1962715552391871,
        0.11953251948635163,
        0.02025444550418687,
        0.21654220089090132,
        -0.24167810835632103,
        0.009114689345916305,
        0.2025693655216853,
        -0.10013901283358068,
        0.14410216554690658,
        -0.04533989323530313,
        0.0961264902476417,
        -0.14823615093880213,
        0.09894896185429797,
        0.15328754088130447,
        -0.07035892407187203,
        0.21172244875919338,
        -0.19910442088867486,
        0.07160521018302196,
        0.1608034076157806,
        0.15478584125067962,
        -0.006471337272774269,
        -0.19992381554116667,
        0.039399609243452705,
        0.03953740540082262,
        0.2212778593362001,
        0.2942359146663229,
        0.18315056354864329,
        0.024322407134955426,
        0.07486995114564826,
        0.1738418475872474,
        -0.13646708785378805,
        0.013177178205350637,
        -0.22630264949797785,
        0.18719873014105065,
        0.2412759602571513,
        -0.24408915768702558,
        0.1106372625510163,
        0.019385056383456,
        -0.07654132001027497,
        -0.11258836694343222,
        -0.2979244188218225,
        -0.2941735572923459,
        0.237417687370372,
        -0.24858223732571616
      ],
      [
        -0.24015032275192247,
        0.0971366860011676,
        0.06517655260201805,
        -0.03033529547282615,
        0.05912443564417247,
        0.1574715569579555,
        0.16563997884383702,
        0.16763114923932965,
        -0.10745100728351503,
        0.2527120144599106,
        0.2345034394119367,
        -0.14812402221001633,
        -0.31258887190496176,
        -0.15222313469155324,
        0.29243332007344097,
        0.13947990374243047,
        -0.030119779033873362,
        0.06203045903651261,
        0.30966833985507775,
        0.20468768507007457,
        -0.22104977932304498,
        0.05853756806177468,
        -0.07194254505760975,
        -0.3035059755737845,
        -0.18236857501393083,
        -0.307802534315352,
        -0.059516656083533126,
        -0.11933268052618362,
        0.2979080622245274,
        0.04336233673630818,
        0.10450046743327374,
        0.05740572906286723,
        -0.24246332209768579,
        -0.10020864745355368,
        0.024931479403159096,
        0.01344206338655829,
        -0.23358078795178921,
        -0.1459936413603944,
        -0.16860352457785865,
        -0.0754406571011689,
        -0.2710411753094465,
        -0.20177282046433626,
        -0.05045616022839783,
        -0.13100449533446748,
        0.2327350188357808,
        0.16260042513602724,
        -0.15175441463991704,
        0.23751217847051315,
        -0.16227329914748229,
        -0.11711477855657532
      ],
      [
        0.12246344184610003,
        0.1182893988749174,
        -0.06468962429047032,
        -0.10978545793391167,
        -0.1534057208727769,
        -0.10286826217061656,
        -0.10496117951237985,
        0.18876700514916683,
        0.22920544802824622,
        0.26778079353393675,
        -0.026842031299022906,
        0.12064485731630642,
        -0.19737515590252758,
        0.16058576707513872,
        0.22281440794572344,
        0.31481762039736566,
        -0.1539669118958242,
        0.16486692725054308,
        -0.29069989892882764,
        0.3042103607748223,
        -0.04843286183575507,
        0.2167928734727707,
        -0.06201449454014274,
        0.16360323744406846,
        0.09512526176019848,
        -0.10400821142024855,
        0.04636417487839378,
        0.23848085355486331,
        -0.06565827467385998,
        0.07407724049387943,
        -0.09767541278766692,
        0.09991636974069057,
        0.062056950748030304,
        0.18414184618514823,
        -0.05241193696443974,
        0.23505233966429323,
        0.2104941745546603,
        0.031177650806886503,
        0.253252573765072,
        0.1795667982733566,
        0.046370375055499735,
        0.048949846250604556,
        -0.10356824070195883,
        0.03803049889810772,
        -0.24431502068428657,
        -0.03750443341707366,
        0.08011552932692978,
        0.15807280054481848,
        0.20308372084913023,
        0.15782465182054672
      ],
      [
        0.07428003761475815,
        0.08951238952825263,
        -0.2936676380448344,
        0.2915035979606621,
        -0.09480337903886274,
        0.27581162437284507,
        -0.024194150008926607,
        0.2981273265608044,
        -0.04611497283761978,
        0.19729595548509565,
        -0.24973111317298705,
        0.051388951570630004,
        0.2287725513143733,
        -0.057613966505416336,
        0.22553464775244841,
        0.1528146310413065,
        0.09358236631438871,
        0.13739124599992758,
        -0.07498853439607969,
        -0.29256201113652036,
        0.10173241742070843,
        0.07412796024459173,
        0.06533429848708888,
        0.19533118501090624,
        0.22080148445774223,
        -0.1566307541920061,
        0.16279976489632197,
        -0.099353668842177,
        -0.2701700350319956,
        -0.04129774610178061,
        -0.27469025218166926,
        -0.27687880415390725,
        0.06331543218372165,
        -0.28490076413800397,
        0.2662215796145539,
        -0.053897493113995665,
        0.045880320149582876,
        0.29942134461049236,
        -0.23796226788663066,
        -0.3094785107643128,
        0.1526781320278187,
        0.19721060221667347,
        0.22211816789153155,
        -0.23556380251902378,
        -0.1856418114868503,
        0.21719564348388837,
        -0.31167603809127314,
        -0.29399779406634136,
        0.22538923320295806,
        -0.22239646417194012
      ],
      [
        0.05076046996352829,
        -0.03911160108622558,
        0.19569933271839052,
        0.24032640869761862,
        0.27942051342612634,
        -0.22064677325680593,
        0.13814847204085862,
        0.10945468294431204,
        0.2109171466666308,
        0.029721157073816784,
        0.03664627999886849,
        -0.07300310754462502,
        0.23822031832906448,
        -0.18922491230310115,
        0.16574453587171356,
        0.08569804747654547,
        -0.27957228167000714,
        -0.1335700543066019,
        0.22499112799590665,
        0.17262898892808248,
        -0.003846093321579813,
        -0.15236649987082018,
        0.010444918666209835,
        -0.12027201504909424,
        -0.060915370252773715,
        0.2213071559493916,
        0.31093031833368073,
        0.282895174435603,
        0.22246486238002855,
        -0.11079651235117138,
        -0.03594453524938046,
        0.2894930593267023,
        0.02059495048890192,
        -0.0833117456428012,
        -0.011459610875833082,
        0.11805354397325063,
        0.24221600646593783,
        0.31118298424820195,
        -0.03409782926799604,
        -0.13749137076554635,
        -0.2998553602355881,
        0.027171803328343125,
        0.10533748914710972,
        -0.20241252576324273,
        0.09966517342093145,
        0.2604608175579915,
        -0.19865700012915044,
        -0.0943240627132208,
        -0.17139700124764373,
        -0.00300469190099123
      ]
    ],
    "weight_v": [
      [
        0.1852064282871042,
        0.2831394616996547,
        0.21600309823973501,
        -0.0022370715121915463,
        -0.044572803660414856,
        0.14731552036157025,
        0.0436593231458009,
        -0.2801428341456288,
        0.17069411344816032,
        0.10391948256170125,
        -0.08615287060063839,
        0.2546493406293215,
        -0.18371166538317302,
        -0.21201896751838772,
        0.06737176384781274,
        -0.07329429579794783,
        0.19121167814357837,
        -0.20622420475403602,
        -0.262961222420016,
        0.2832368231496381,
        -0.1113833017856358,
        -0.03607119022635363,
        0.00831572372172601,
        0.2172103161310655,
        0.10569047246833668,
        0.07400541968248053,
        0.2751158468020896,
        0.28566841591011477,
        -0.0653503085472355,
        -0.03556212637957157,
        0.08634628937205513,
        0.06552310216081886,
        -0.2348506011889356,
        0.02615814710666048,
        -0.06756102200962971,
        -0.05719166236849721,
        0.011177015823175096,
        0.0818885962548489,
        -0.2825065102952925,
        -0.1080871174236761,
        0.13852669036423954,
        0.2520290711288125,
        0.20241685141520344,
        -0.038405979725280925,
        0.10960094662997655,
        0.06006774811551835,
        -0.17316390913677016,
        0.1719690732164077,
        -0.007840058280284168,
        0.23907831093308002
      ],
      [
        0.14601368315347957,
        -0.2799164724250987,
        -0.1690784126934066,
        0.08226526205721812,
        0.08311072871696906,
        -0.21665278312946723,
        0.05557946993365487,
        -0.17188283427949244,
        -0.18901643128944262,
        0.02618622091544126,
        0.1825029980066722,
        -0.22714468822978634,
        -0.17676337596331093,
        0.16645868351445076,
        -0.12323317977314982,
        -0.25249096049864717,
        -0.08274097262673274,
        0.22165538955867709,
        -0.023898569449401386,
        0.20715085112296772,
        -0.027813906136933242,
        -0.24076390703422854,
        0.14455173733750726,
        0.007930089048669597,
        0.1384855509268082,
        -0.14600318807356297,
        0.1538917708109413,
        0.2301411252513989,
        -0.2394030443523738,
        0.17852335016791654,
        -0.090321890640464,
        -0.049584624619477796,
        -0.2849318170671436,
        0.20841647265014124,
        0.15723386888988206,
        -0.22194975726194974,
        -0.0608762584166595,
        -0.17250980232898294,
        -0.1634707465412387,
        0.0328788202421742,
        -0.03309891074060595,
        -0.020679983463080254,
        0.0006789050481591508,
        -0.2205351217416232,
        0.016170943676276472,
        0.15226209786989936,
        0.2245745244706126,
        -0.1566789477293346,
        -0.2025357975318383,
        0.16437303820991073
      ],
      [
        0.07441323875767009,
        -0.2238794492234269,
        -0.24404305189054304,
        0.26487848130161357,
        -0.2420694615517505,
        0.19946672207756838,
        -0.025411073916371874,
        0.20414334424072972,
        0.20771737885977465,
        -0.14210077551023592,
        0.08131904380156224,
        0.08807096246549312,
        -0.1682568047256514,
        0.06965845486422112,
        0.06481454005677506,
        0.17399203116893558,
        -0.08068770960248206,
        0.06111659789781887,
        0.209254815729983,
        -0.04142094841080268,
        0.06864594438246668,
        0.08108605898901972,
        0.08390715186128334,
        0.26170810546747764,
        -0.22119666087824708,
        0.2401889723940786,
        -0.24536307478639813,
        0.21868992900667877,
        -0.14329375090009686,
        -0.16411221575580157,
        0.026350416378614905,
        -0.2582456466878912,
        0.14449227212461413,
        -0.17917758942681566,
        -0.004352582776146252,
        0.20529214916812638,
        0.2679822562214578,
        0.08117071653398789,
        -0.21751511955324715,
        0.18476317860226993,
        -0.18062055500932822,
        -0.07609294025880128,
        0.027598179049449834,
        -0.15223850420421509,
        0.06425140273358015,
        -0.10991902525398542,
        0.06174967906824469,
        0.1985629580569816,
        0.277966619969682,
        0.13852319015758752
      ],
      [
        0.2808894121941164,
        -0.22189081984621,
        0.06223577928325236,
        -0.28236484370873605,
        -0.020240032335532954,
        -0.1287511540996678,
        0.11607253998576206,
        -0.11797135180723972,
        0.21066838208177735,
        0.14413744512198662,
        -0.1382090905560886,
        -0.23618401244116963,
        0.2489985726254676,
        -0.06836628070791093,
        0.23744814655692342,
        -0.03724998433693116,
        0.13103301811629542,
        -0.09679251730003341,
        0.14565858558544637,
        0.24121680541619112,
        0.1173100267364997,
        -0.2574630906907998,
        -0.15802137783040232,
        0.1308148981692267,
        0.20474654073926873,
        -0.12019042283178791,
        0.11412847751616761,
        -0.2882072149950612,
        0.1489910097819423,
        -0.25035825752722396,
        -0.10296109336938716,
        -0.09430528910257865,
        0.21669349438361257,
        0.012327931349777999,
        0.24651176158674876,
        -0.1837550004869839,
        -0.0101882964246513,
        0.2904907788217615,
        -0.2787543743502035,
        0.2902812271899025,
        0.037911213164260216,
        0.01162078795462701,
        0.18132853586274988,
        0.017149376555717744,
        -0.07246790551590729,
        -0.06913071591846187,
        0.083591136909765,
        0.05601517572002601,
        -0.05183908788292593,
        0.21791585001004615
      ],
      [
        0.022809983675196266,
        0.23762614488963013,
        -0.21895525003492547,
        -0.1658683349971126,
        -0.12684437238827503,
        -0.049788238542794044,
        -0.23871830534531435,
        0.13985544931083504,
        -0.046405177015179766,
        0.2849904029831318,
        -0.1403833803287184,
        0.27152056878643166,
        -0.17420158627777627,
        -0.06549459604503827,
        -0.2527941275958941,
        0.12499990183967058,
        0.2064655096422327,
        0.05549404154984533,
        0.23421278952329588,
        0.022338037525273302,
        -0.1330235330447375,
        0.19090061314156836,
        -0.27673375378726334,
        0.11305190286325595,
        -0.23007000479354306,
        0.11513933607764193,
        -0.25521846772373274,
        0.19316479342706216,
        0.010755297284721022,
        0.2873723962559937,
        0.268976446283179,
        -0.02006219404759102,
        0.10339272764317992,
        0.12438973606099629,
        0.005617647151882343,
        0.06631296082527438,
        -0.048665047715154675,
        0.2375879066754893,
        -0.024046073168054516,
        0.05860108152792076,
        -0.13784546784987076,
        -0.12204564123035141,
        0.10623385860948664,
        -0.2738569795053417,
        0.070171949810383,
        -0.2522244146552003,
        0.2143316772101878,
        -0.27320891309457285,
        -0.20803757738087214,
        0.033605385435431845
      ],
      [
        -0.08274735517393061,
        -0.27881213944916844,
        -0.19485525351197253,
        -0.2358790967655086,
        -0.12223023063693494,
        0.16249720347247276,
        0.17390374384701324,
        0.10327469722887306,
        0.2742905118589252,
        -0.06418304124193835,
        -0.27615213674195627,
        -0.1786579604906629,
        0.28675961789479726,
        0.29183477739581304,
        0.17145790388209092,
        0.09911614793407847,
        -0.21875145861463133,
        0.019111149291939744,
        -0.045046177242983265,
        0.28704789185548657,
        -0.0349234184019937,
        0.09146533376492294,
        -0.16846936483300368,
        0.028670904699011457,
        0.03970402184430971,
        -0.24010054843875706,
        0.10007208801530271,
        -0.22013523894597972,
        -0.11259387941434165,
        0.23714735811669135,
        -0.04415820144232352,
        -0.1161305535410676,
        0.007840645610057873,
        -0.0816483635145035,
        0.1960263677856776,
        -0.05433070065104165,
        -0.09454993787121246,
        -0.1135196708121507,
        -0.16017821824792552,
        0.12009502957943241,
        -0.2156089891005309,
        0.2754833873447447,
        -0.19909713476244997,
        0.1199320294557325,
        -0.0932509674849332,
        -0.25344529182637304,
        -0.13302327400063094,
        -0.27985108210579857,
        0.0023806998385433875,
        -0.27307195816763424
      ],
      [
        0.13056570221112607,
        -0.08442375117742423,
        -0.12393744223257608,
        -0.08762549953733623,
        -0.01082584302067563,
        0.030619912139159322,
        -0.2860833724833691,
        0.28616233251283213,
        0.2033336801684304,
        -0.17969417359831638,
        -0.2415657981832156,
        -0.24080156703483016,
        0.1388353847962604,
        0.27703613124878307,
        0.12811630880666064,
        -0.17424791579732746,
        0.1673154757171274,
        -0.016675440627319404,
        -0.15571921013801795,
        -0.2770577189978895,
        0.12487821487635081,
        -0.1187117358008225,
        0.23393379848283596,
        -0.12975987266279965,
        -0.2524075066588235,
        -0.22599940896194437,
        0.24622280399916846,
        -0.1305739659872416,
        -0.09650547903397433,
        -0.0037705342037297473,
        0.28706794201120506,
        0.07172511386493113,
        -0.04435812566657896,
        0.01709834363667756,
        0.24318932697144552,
        -0.12068418006125017,
        0.19450825486178608,
        0.2283135377137106,
        -0.20309507539892901,
        0.07700807105476376,
        -0.09374719783192753,
        0.13545643659652268,
        0.12313889530719524,
        0.05711169591327703,
        -0.2779934265494855,
        -0.026435936832578222,
        0.28198536745649977,
        -0.01171547364630382,
        0.20264706606894706,
        0.02296284924226666
      ],
      [
        0.1525780768717277,
        0.01970822229964997,
        -0.12738943984161533,
        -0.12894593321444564,
        0.10683809577896919,
        -0.13059792369742054,
        0.2555696091901057,
        0.0852094134973656,
        0.25180496060277974,
        -0.050298412074610305,
        0.016247918434166397,
        0.15116061825567034,
        -0.23128210128913995,
        -0.1316466583644351,
        0.15556739024929328,
        0.18572264829417567,
        -0.0007511781885733981,
        0.16687352081745116,
        0.2487520601074114,
        0.035150148917822976,
        0.22727191424556697,
        -0.06929604661482203,
        0.26931067351122245,
        0.031154854060941595,
        0.09276233365981867,
        -0.08338385087774464,
        -0.13903980565199012,
        0.2208626669595996,
        -0.2142768368279968,
        0.054436522367469764,
        -0.13194494961088135,
        -0.061909649178033904,
        -0.27906240868830207,
        -0.11682202607510644,
        0.24392091801080523,
        -0.22706552385579093,
        0.047179745825797204,
        0.0429817368341503,
        0.08059888064703924,
        -0.001699822223038605,
        -0.15302668976341458,
        0.14831113148002845,
        -0.04148828772820656,
        0.2583592459466692,
        0.1904781819402805,
        -0.0631192884654273,
        -0.24462012104046865,
        -0.2300817598668603,
        0.1491551097295682,
        -0.008520954933213643
      ],
      [
        -0.08150571160336903,
        0.041661935763363744,
        0.1351710518803525,
        0.04382328414889797,
        -0.1734639996279269,
        0.15875676103966074,
        0.04539775377898958,
        0.19529083609033887,
        -0.24384397001388985,
        -0.13551192784942206,
        -0.13118912337025362,
        0.28952160452951875,
        -0.05278293379789137,
        0.16679842667338463,
        -0.26493815687795186,
        0.16957196135067748,
        0.038004329994349495,
        0.13147552662791112,
        -0.25746224414723967,
        0.09362341850325528,
        -0.04546653198729328,
        -0.16347026142469306,
        -0.1926730697023773,
        -0.02254515554573039,
        0.25558483866926657,
        -0.1886084081309875,
        0.23908095035752158,
        -0.1855225552593628,
        0.03519431951085167,
        0.09334968256722664,
        -0.20038521221838296,
        0.2629827240473988,
        0.017965177307919244,
        0.020562596335743755,
        0.20835584206049557,
        -0.002255832108082445,
        0.17682016173689863,
        -0.12355421052810028,
        -0.06411925471775995,
        -0.12410289927648688,
        0.22049682686497868,
        -0.09697897124738514,
        -0.05622150978532334,
        0.021511506845225903,
        0.17266824590941166,
        -0.10348630514317561,
        -0.12983348842114364,
        -0.08441773007432252,
        0.16910734959211604,
        -0.13037694956746831
      ],
      [
        0.048492110057850424,
        -0.1520622234069182,
        0.00041066504705034035,
        0.1095016531134414,
        -0.09536923834626831,
        0.27541569747613964,
        -0.28821381756604625,
        0.061575079352997164,
        -0.06060110050435519,
        -0.2921656392566629,
        -0.17424674611288865,
        0.012979117077077607,
        0.007464560612045867,
        -0.164280939587895,
        0.07839533432521628,
        -0.06871162254121649,
        0.1072420217956695,
        -0.23614671643434032,
        -0.16446463850333257,
        0.07980644024784855,
        -0.27874783848338064,
        -0.23117051800554292,
        -0.12769657459329595,
        0.21203971619862488,
        0.2560356482212624,
        -0.020694695749678305,
        -0.1403894475639554,
        0.0025924142460071464,
        0.17526389140506704,
        0.26315750432893653,
        0.03886191079117368,
        -0.2411036486766336,
        -0.22765818490206846,
        0.025420560690059213,
        -0.1993788175021525,
        -0.017394223296083977,
        0.10642711908871821,
        0.165866414025665,
        0.19865273496275038,
        -0.194452905763207,
        -0.05774871930935785,
        -0.2448747327585885,
        0.07521246250484953,
        0.031107272918513063,
        -0.2791942578342862,
        0.2278721664575573,
        0.09010633126900536,
        0.08987825222839957,
        0.1878045905108287,
        0.1439305607857247
      ],
      [
        0.2650229499318257,
        0.24960572858286917,
        -0.06858288225101827,
        0.10600608732643868,
        0.09157511452884903,
        0.04698768029906769,
        0.22091893907465837,
        -0.06346716475996056,
        0.04230774292541495,
        -0.07661719985650511,
        -0.03368682893297187,
        -0.2214064331995187,
        -0.0005758499045386278,
        0.054028850169684894,
        -0.26003700254006906,
        -0.06390913050979508,
        -0.22474487728483145,
        -0.28684893920453436,
        -0.053483604393060324,
        0.1617727633298887,
        0.26991335906546327,
        -0.2256089663966592,
        0.13245810679895187,
        0.09733921072439072,
        -0.22851364290335116,
        -0.16062158797583045,
        -0.14636120001997704,
        0.02203955265569635,
        0.06917774016288258,
        -0.24840022357407543,
        0.22773471171315046,
        0.11720062003359166,
        -0.08514489495522495,
        0.1818528943782079,
        -0.16234864652056372,
        0.21546520456248514,
        0.2041031788456638,
        -0.14134829901011148,
        0.11617863941640855,
        0.2330632518044043,
        -0.126783938210624,
        0.2386008688453552,
        -0.23614589522664742,
        0.1364470574350493,
        0.016056100380081373,
        -0.08515722877363474,
        -0.06128626166822057,
        -0.1094984450643913,
        -0.11138823859877622,
        0.17661401029063428
      ],
      [
        -0.09110672559586927,
        -0.06804173163389171,
        0.06550987730802987,
        0.004170152133327276,
        0.2616921530497425,
        0.2906617426678672,
        -0.16074001843462948,
        0.21491809376055188,
        -0.02976666914136039,
        0.03963903627148396,
        -0.08414695451476856,
        -0.252836517385669,
        0.0022950623850888086,
        -0.09791685184706064,
        0.2691546760280434,
        -0.04324086744699179,
        0.048576734844368696,
        0.11706067674393056,
        -0.23407413070844138,
        0.1251542855499635,
        -0.17968575538323406,
        -0.15802868048827454,
        0.030066807266220574,
        0.2766749749478575,
        0.07408071940727312,
        0.2077182639272646,
        0.10308117255068927,
        -0.026330911732575513,
        -0.12821696904774016,
        -0.19443253786545653,
        -0.16885005091038008,
        -0.28068501338063334,
        -0.021694707669684454,
        0.09783472307761237,
        -0.16135188935657885,
        0.2565450861973119,
        -0.2911951792678142,
        -0.07915434719714204,
        0.2341789744591582,
        0.08524044338383946,
        0.11985770458524875,
        -0.07855495423346007,
        0.26898980247155163,
        -0.13088920424829095,
        0.18570453758420136,
        -0.09057579785931716,
        0.18519783171882692,
        -0.05713392851317306,
        -0.14651509378017075,
        0.1112173997530545
      ],
      [
        0.07562989156167005,
        -0.04012270164886511,
        -0.2802389180941165,
        -0.16591418810589062,
        -0.1404092982652687,
        -0.19050590854386434,
        -0.13156308538277428,
        0.13895925299150536,
        0.2861663046612289,
        -0.15388407650454652,
        0.150348883887373,
        0.16080605735760917,
        -0.12402638262279178,
        0.09761154876805894,
        0.21342995391666048,
        0.10528175974829546,
        0.07047301172328618,
        -0.19218916108200904,
        -0.11415876374975728,
        0.16356712789913302,
        0.065555021456216,
        -0.2851777303917923,
        0.14895616726198752,
        -0.19158591744599335,
        -0.02017587903249113,
        0.04030405807715376,
        -0.19365841483010418,
        0.2471117911543817,
        0.23238277830047588,
        -0.11789536746913507,
        0.05566490574565841,
        -0.27081062446003,
        -0.24107587009757586,
        0.15464546656854328,
        0.029175912436552653,
        0.10438256252782663,
        0.1432443276508623,
        -0.05619043688042516,
        -0.19300696495482977,
        -0.06641477067871793,
        0.15964118820105944,
        -0.2826061743137051,
        0.2205124616094319,
        -0.15197355868560264,
        -0.04563552306904933,
        -0.2531360793074713,
        0.010537649052059617,
        0.2922541600903809,
        0.10601996234523448,
        0.03363151730587993
      ],
      [
        0.11885628466857173,
        0.03643981836563909,
        0.03946555898184778,
        0.27865995409109195,
        0.20214465523242725,
        0.23356392170929746,
        -0.08699628230284498,
        0.1153496858348082,
        0.2524470156729381,
        -0.23173572115700852,
        -0.1556833832053755,
        0.24100857340175003,
        0.20447984486126852,
        0.024160640459468197,
        -0.12002705537215652,
        0.26813435998991103,
        -0.1353158856674728,
        -0.11680532361536183,
        0.10128078367150778,
        -0.015103501227714533,
        -0.2914208548595201,
        0.23758579706613353,
        0.18550023436373275,
        0.2356522552465969,
        -0.22083639874486188,
        0.13567424163479802,
        0.1449515853251772,
        -0.14003620250605792,
        0.24720753067640405,
        -0.21067728106785613,
        -0.1877194796433631,
        0.21077838771922747,
        0.23858376850109536,
        0.029536435308115727,
        0.19468475043026245,
        -0.06789438229198541,
        0.007737280657104717,
        -0.1503380185220974,
        0.04015143494755785,
        0.13227034351242456,
        -0.16660723597710642,
        0.18754065418638238,
        -0.04287862711968496,
        0.20299298307563857,
        -0.061808463946705444,
        -0.16292243473797646,
        -0.07203078868920343,
        -0.21393693493673105,
        -0.06033286101246926,
        -0.21816407954541392
      ],
      [
        -0.22842575874640808,
        -0.13797569418349948,
        0.2494297092503403,
        -0.0019478982959902358,
        -0.014252253264785575,
        0.13331051913243974,
        -0.08958312845849373,
        -0.18864874146158195,
        0.016232772988467925,
        0.28077065846787225,
        0.23096844527935084,
        -0.2785012730182594,
        -0.22545649809074889,
        0.15821059021750244,
        -0.25796645512007754,
        0.17270337127370639,
        0.2705905508222726,
        -0.15878218101697086,
        -0.02952869079527004,
        0.15691480436064975,
        -0.098406898730488,
        -0.25145453143490964,
        -0.2347977833202185,
        -0.2911881546602197,
        -0.21429205510037524,
        -0.07963648087985689,
        -0.11819403706884268,
        0.08517419938700516,
        -0.15175666543246324,
        0.2828518928100843,
        0.27808821211002127,
        -0.03734694761256152,
        -0.1729047790675327,
        -0.13407783037733445,
        -0.0064978683153372185,
        0.286120487226261,
        0.11395740910921653,
        0.2590471955259907,
        0.1984274169736034,
        -0.28332594494653235,
        0.09723918830488715,
        0.25542868748185504,
        0.02785131258267365,
        0.1774956496310201,
        -0.12756699668129376,
        0.08710396025437478,
        0.01908722236514737,
        0.08304454093443653,
        0.0008100700079559098,
        0.029779204890938993
      ],
      [
        -0.1546376291332052,
        0.053867665161646594,
        -0.14511482429862177,
        -0.04212734379175248,
        -0.21540757213250034,
        -0.029193328916836292,
        -0.05174561107420059,
        -0.07979325565746082,
        0.29231535358651545,
        0.05215772860719409,
        -0.10716880848750462,
        -0.10030774284657157,
        0.029032356320778663,
        0.11229499353709588,
        0.046759754842147394,
        0.045540639536053584,
        -0.08314604066687234,
        0.03476861670229209,
        0.06232708022772071,
        0.26604331384158836,
        0.10750686910129487,
        0.13445332467193039,
        0.011198840661211573,
        0.1738005160955884,
        0.1263898544400635,
        -0.026680986378797622,
        -0.18561445506140728,
        0.08755409807266701,
        -0.06134226014569913,
        0.1697528508798236,
        0.05457904607694103,
        -0.03958582039121905,
        -0.24251946272958644,
        0.14752995809860203,
        0.18483443705717356,
        0.16916761053333884,
        -0.2304944900953198,
        0.04656375120530298,
        0.2334264202652349,
        -0.17790340456319026,
        0.2822563677377851,
        0.1316594445383703,
        -0.2153137861270923,
        -0.04606313586467736,
        0.09177027212118838,
        -0.031886633613974036,
        0.1657846111838201,
        -0.28288114278789717,
        -0.21138555960633423,
        0.022813177896162107
      ],
      [
        0.27113021694706524,
        0.20050981639247062,
        0.1320852772218058,
        0.03569711445523305,
        0.27677203834044145,
        -0.2427725823975888,
        0.11901377257406515,
        -0.0024889968367507453,
        0.08023922342374828,
        0.18583200202723332,
        0.08240834957137633,
        0.1120857091447065,
        -0.11883740579909868,
        0.2295325416635448,
        -0.19518122704519686,
        0.040916447179682514,
        -0.16160017668627816,
        -0.14338270767611086,
        0.0616673629433202,
        0.06767120362682044,
        -0.1748367576747192,
        -0.12441218511656188,
        -0.266994551908069,
        0.23774286521250926,
        0.2516050736570841,
        0.028603975437141216,
        0.2920743023858268,
        -0.1021928981146096,
        -0.1634764294416831,
        -0.01226358438013092,
        -0.06461116673304443,
        -0.11669231097585642,
        0.2548686753393235,
        0.22835249957922726,
        0.1890958248644975,
        -0.05362672800067317,
        -0.23185932074634413,
        -0.22888873924184328,
        -0.05690514968107996,
        0.21138969115231904,
        -0.28455934317297615,
        0.12551524309573248,
        0.26177880835424855,
        0.0842094833009216,
        -0.06277358207017864,
        0.08588858663920579,
        0.1279447599306971,
        -0.22239863939742732,
        0.2171840922851312,
        0.22089702418927976
      ],
      [
        0.020468667066768753,
        0.0190247478114573,
        0.010117137651102559,
        -0.1212040082252698,
        0.1050835505050397,
        0.27054639435170674,
        0.1498028274051898,
        0.10349208662996295,
        0.11127803690464272,
        0.17628457378309947,
        -0.03282354240894242,
        -0.2722368766102433,
        0.10385436398232833,
        0.014463663918151959,
        0.22855050934782822,
        -0.2788709356667609,
        0.2465516791045052,
        -0.18172406730691407,
        0.015583552377592957,
        0.19392674777754693,
        0.04331727637201138,
        0.09364410372103144,
        0.06497959215896326,
        -0.21507243832359896,
        -0.2730339217181703,
        0.2652953654776064,
        -0.27031398526408634,
        -0.26153155142450013,
        -0.16848223556462055,
        0.11959638137512407,
        -0.11375453308770184,
        -0.13005192508152683,
        -0.04436214668071131,
        0.1873669074873675,
        0.03945403760976518,
        0.05758754952439715,
        -0.16281632995653395,
        -0.1489465159791897,
        -0.22899592146898495,
        0.2634365328439195,
        -0.058189497365633835,
        -0.17658114592966323,
        -0.2322340312397358,
        0.28780541113344177,
        0.17664971798558493,
        0.2104067050278176,
        -0.16225386045958198,
        -0.05520574283071397,
        0.0888479458066932,
        0.1531015068926317
      ],
      [
        -0.26336190347479976,
        -0.09253590639026132,
        0.20532156453736394,
        -0.07147829741611328,
        0.19186564109550058,
        0.2861205410759053,
        -0.16213807810970582,
        -0.23580614297102714,
        0.028286966236012512,
        0.09666067223353286,
        -0.1837433011740129,
        0.25242515028301754,
        0.10395839626138315,
        0.1312531839782869,
        0.26201146380180257,
        0.10007676940374294,
        0.1565986799264999,
        0.12329778936889135,
        0.1825035823872323,
        -0.18400365583301065,
        0.012885694277078863,
        0.09877954611574918,
        0.0014102021871814086,
        -0.04514409639798944,
        0.10817885023189872,
        0.1885914004967068,
        0.1905822189203082,
        -0.282462441700831,
        0.26847747321389087,
        0.14684421977081907,
        -0.15653047766606767,
        0.17910185168335802,
        0.23870532059483068,
        -0.060274465024667684,
        0.05984389453408456,
        -0.054687105092243005,
        0.25936002363666305,
        -0.003720854845326804,
        0.1799926040798926,
        0.19371928422828716,
        0.2246897495670513,
        0.06353171896643445,
        -0.15095514503464164,
        -0.10843643707558537,
        -0.13777295657886895,
        0.09856745809607886,
        0.05922472161905046,
        0.07396507312249129,
        -0.09034500300681406,
        -0.04108021629852937
      ],
      [
        -0.052542544469161234,
        0.09539782250367751,
        -0.02142392420800654,
        -0.24479094350316624,
        0.26558104549513856,
        -0.2613957188411996,
        -0.2402657184309657,
        -0.01683417071273613,
        0.16116250640177388,
        -0.2645087634795836,
        -0.11024645175509482,
        0.27810516310063543,
        0.21159310362544054,
        -0.0635075835336916,
        -0.13508874158418785,
        -0.21767966134981787,
        -0.2926594749985513,
        -0.08087242060699107,
        0.0027122111173888963,
        0.15218145101272867,
        0.25869038820242846,
        -0.16244956129052834,
        -0.03005465560673748,
        -0.2628726639656066,
        0.11499765363072112,
        -0.23467600306613692,
        -0.057013541528576156,
        -0.2574521914641686,
        -0.02883381919299527,
        -0.2790694270111868,
        -0.007086523611859741,
        -0.07220127237663332,
        -0.22959016044888259,
        0.08797643545551459,
        -0.15415101915704763,
        0.07658951316232693,
        -0.1126594955183638,
        0.04442718017066405,
        -0.19255910240322813,
        -0.016448744744108235,
        -0.2876937605937075,
        0.10307724449370753,
        0.26398979041731946,
        0.23109734255437525,
        -0.049618214270393785,
        -0.014864844092886353,
        0.15914229303777078,
        -0.2406655936247789,
        0.2743611511286082,
        0.24893893207707768
      ]
    ]
  }
}