{
  "num_class": 10,
  "num_hidden": 50,
  "num_visible": 20,
  "params": {
    "bias_b": [
      0.0,
      0.0,
      0.0,
      0.0,
      0.0,
      0.0,
      0.0,
      0.0,
      0.0,
      0.0
    ],
    "bias_c": [
      0.0,
      0.0,
      0.0,
      0.0,
      0.0,
      0.0,
      0.0,
      0.0,
      0.0,
      0.0,
      0.0,
      0.0,
      0.0,
      0.0,
      0.0,
      0.0,
      0.0,
      0.0,
      0.0,
      0.0,
      0.0,
      0.0,
      0.0,
      0.0,
      0.0,
      0.0,
      0.0,
      0.0,
      0.0,
      0.0,
      0.0,
      0.0,
      0.0,
      0.0,
      0.0,
      0.0,
      0.0,
      0.0,
      0.0,
      0.0,
      0.0,
      0.0,
      0.0,
      0.0,
      0.0,
      0.0,
      0.0,
      0.0,
      0.0,
      0.0
    ],
    "weight_w": [
      [
        -0.12174868657684806,
        -0.19946100849214654,
        0.042051686084043305,
        0.005279293126438267,
        -0.24511514704817788,
        0.09027942247020626,
        0.21581660227728044,
        -0.1857653207909378,
        -0.2754615122071781,
        0.20553647695792193,
        -0.16959000029358,
        -0.15772614628155082,
        0.02335768130584881,
        0.029973343756362014,
        -0.11705393380618387,
        0.10718589042521337,
        -0.03217764214215252,
        0.0741208555165308,
        -0.23278636139599934,
        0.03632443923539047,
        0.21759598018752752,
        -0.013753338908855828,
        -0.01393937574470816,
        -0.19825972467483782,
        -0.18924369924811976,
        0.21253142163023192,
        -0.10262795240440328,
        0.028796036726559393,
        -0.04500164758831998,
        -0.07344901598382123,
        0.06915831349621032,
        0.03839908379158652,
        -0.26684230332781234,
        -0.19732044333882298,
        0.01453836082391996,
        0.2319173967032751,
        -0.07088314305209814,
        0.21788238632752238,
        -0.28566284499600053,
        0.21152509777278333,
        0.0828741855591778,
        -0.05269357895043686,
        0.261144998046238,
        -0.20267834968733223,
        0.03752286002006233,
        0.14475137571531244,
        -0.2795812792654965,
        0.28437222735888074,
        -0.12588962185206531,
        0.25731046504851257
      ],
      [
        -0.19580157451706284,
        0.08666698708262066,
        -0.17710580917103455,
        -0.22060440917044666,
        -0.20261847256317017,
        -0.06260348724847964,
        -0.23986643468825886,
        0.28456196057906274,
        0.19946535455088282,
        -0.16227742234640904,
        0.015099205681999517,
        -0.3043190938453859,
        -0.20510042025247938,
        -0.1428481122165921,
        -0.1184881130848508,
        0.061487353372060294,
        -0.16301121787077652,
        -0.29827281780569165,
        -0.08982923818843955,
        -0.045236734390114774,
        -0.1964329223841216,
        -0.10243693458396314,
        0.05068694636570292,
        -0.14760668449003597,
        -0.3043232353969942,
        0.08821622796800327,
        -0.20966722560648002,
        -0.15874298446356463,
        0.15589352162652287,
        -0.11506047791712454,
        0.25414444201448655,
        0.12622074921261,
        0.22799385023834123,
        -0.01088738908467296,
        -0.038933822984841826,
        -0.2891275398213043,
        -0.2898308155170977,
        0.29059016071977123,
        0.21518079041332522,
        0.19830988285450063,
        -0.010745434654355734,
        -0.19976968614278506,
        0.17974669098286655,
        0.03346566193153,
        -0.0957303761429375,
        -0.218323609080329,
        -0.21947900695027478,
        -0.28156396855062876,
        -0.1099953984984696,
        0.14342619372474957
      ],
      [
        -0.1334164627584946,
        0.25671822738596134,
        -0.169169404207153,
        0.2527377589800432,
        0.22121828200234378,
        -0.16793394801289924,
        0.22996963340353088,
        0.06261986143444859,
        0.06094295288082169,
        -0.1901762358107107,
        -0.08283162469617683,
        -0.23911092311202292,
        -0.24746999392294275,
        0.15077413266088513,
        -0.11200493500034694,
        0.14336121139683217,
        -0.19678521763993218,
        -0.09948209716999143,
        0.27948568773029053,
        0.03513891262201557,
        0.254215150273662,
        -0.09839108797864093,
        0.30676435325531154,
        0.0835826976773783,
        -0.2619314936418684,
        0.21465539531445493,
        0.08162553513760679,
        -0.17937780335673656,
        0.10213934610675579,
        0.25939604230866303,
        -0.3087807184724978,
        -0.1016545952452381,
        0.21958463200444006,
        -0.268848289248387,
        -0.258202165489634,
        -0.04190520849185608,
        -0.21576175323715552,
        0.17257372145760952,
        0.29077704517320696,
        0.2537777052265829,
        0.1343831402913906,
        -0.06719912719264487,
        0.16623919730705017,
        0.30437947888715217,
        0.2610057557768954,
        0.06588857044895619,
        0.3010510346081681,
        0.30764663179005386,
        -0.0053002125361544805,
        -0.1931455885433579
      ],
      [
        -0.10940546137885579,
        0.14305955551695276,
        -0.18213420532695201,
        0.2563070734356296,
        0.17452575824947658,
        0.3082344684415617,
        -0.2731252928097224,
        0.2998331581738764,
        -0.2815608203679219,
        -0.23643103389132533,
        -0.07812861799626988,
        -0.1710566423552612,
        0.17821106014260352,
        -0.05084670555608045,
        -0.2977003736148045,
        0.30375928776612054,
        0.16055716023842642,
        0.14650903692591077,
        0.06857478385423604,
        0.16516911030374326,
        0.21379726760694678,
        -0.29878956271553037,
        0.25455638633393946,
        0.1590957379804635,
        -0.15525757919043173,
        0.2980760977285902,
        0.11686782491284264,
        -0.03173758527982229,
        -0.18904552902942678,
        -0.25743651585602056,
        0.06028346975811166,
        -0.13640763370168568,
        -0.07865999047213632,
        0.05339402888267075,
        -0.2817529324332576,
        -0.06557456197328543,
        -0.11878151793955283,
        -0.1680843496957506,
        0.2147460853060001,
        0.07694904155071308,
        0.09419786556278725,
        -0.2794486228858587,
        0.20222862973094974,
        0.29394684699681434,
        -0.18148630977937624,
        -0.2690279657278723,
        0.05256943525994168,
        -0.0711067652029112,
        -0.15752997225531892,
        -0.0005101818930656199
      ],
      [
        -0.03443924615012528,
        -0.055889948349423846,
        -0.19906746397042482,
        0.11161583360205773,
        0.13725675503614365,
        0.03483926092753348,
        0.029026353707828245,
        -0.14786905464927047,
        0.20448952128786363,
        -0.08013071193172835,
        -0.20960933835252318,
        -0.07076347534372032,
        -0.3127095463881476,
        -0.19610930047326486,
        -0.18789572503400864,
        -0.12905686813528586,
        0.2520594444147543,
        -0.2779756493796923,
        -0.08556437022306038,
        0.3149886816602309,
        0.2818024904604712,
        0.020332498433530688,
        0.07846424950581715,
        0.266149645651556,
        0.09997956739791919,
        0.058921123274499554,
        0.12061114014510177,
        -0.12441544809476177,
        -0.04604920203080093,
        0.28047508423274176,
        -0.15829930206609025,
        0.03091505803707728,
        0.30039275801036874,
        -0.26030108997758117,
        -0.1047239709986082,
        0.1108550618829669,
        0.07228464256323114,
        -0.07230323667307301,
        -0.15752551344956117,
        -0.28845674510850094,
        -0.013496350850558614,
        0.06827918364513019,
        0.11213098149452783,
        0.1740305493156823,
        -0.27228140135467727,
        -0.07789787162482825,
        -0.0622686487010653,
        -0.031597935215860184,
        0.12644592898263046,
        -0.2971528496958343
      ],
      [
        0.1135801966986848,
        0.22603018875768682,
        -0.21251649998717637,
        -0.28607250597809175,
        -0.1809502244820149,
        0.2994668320129695,
        -0.06919589852650385,
        -0.04466012637851807,
        -0.19368946975759832,
        -0.0887638249184712,
        -0.23526776478549322,
        -0.12583166456903352,
        0.16404096164860266,
        0.1824019338589979,
        0.033370041658291605,
        0.07419996628791842,
        0.15475263111077264,
        -0.20387858596395456,
        0.0871975225772339,
        0.27893893192517677,
        -0.22171213103640464,
        0.2205624897837099,
        -0.09925952046978265,
        -0.22032635479538648,
        -0.09104686514952443,
        -0.08193572603091998,
        -0.061899284290972856,
        0.025311545476879804,
        0.20766420959887283,
        -0.042592331565860675,
        0.27181560325827575,
        -0.28457952657409175,
        0.09859623469426465,
        0.044778533865945436,
        -0.17845291225948315,
        0.25898368299915814,
        -0.06375331645473559,
        0.02909919634863395,
        0.051671212536306466,
        0.23499779016872785,
        0.01888600044047095,
        0.11729817247159058,
        0.14708664500543084,
        0.31119403806172513,
        -0.12849635656013247,
        -0.08786924948147753,
        0.1615813157642969,
        -0.033201717950393284,
        -0.03899578345451604,
        0.25155656207286686
      ],
      [
        0.22387447491468865,
        0.1319998611736075,
        0.31552953671433775,
        -0.1392420535841538,
        0.12220554108010201,
        -0.07738455164231026,
        -0.02437130314257757,
        0.10866375466433925,
        -0.12228129432622037,
        0.022365057392573662,
        0.2977871790613084,
        0.03301557142669792,
        -0.28475323611794295,
        0.1087466032607467,
        -0.24183288458200447,
        -0.08629336343990579,
        0.22546071729054468,
        -0.03209449049003649,
        -0.0056009982807277425,
        -0.02135229975425318,
        -0.2603349037608275,
        -0.21559889902616688,
        -0.06383158567360325,
        0.025916303693079346,
        -0.237719925851143,
        -0.08447588147970755,
        -0.09081390431575112,
        -0.24892263575043017,
        -0.1271884986471855,
        -0.0339455854046109,
        0.17148939004268832,
        -0.09656784046568165,
        -0.2498813714879483,
        -0.07305172770212762,
        0.03853401002777135,
        -0.06590849242076358,
        0.15435644559003125,
        -0.02166102286178684,
        0.05052107789948135,
        -0.21753399481552338,
        0.3114006908332992,
        -0.038253760816939764,
        0.05068549791708982,
        0.11667356824185526,
        0.10346676044368658,
        0.07940348902859573,
        0.2695060779988348,
        -0.23162414025917427,
        -0.04053657127089877,
        0.2943117211854129
      ],
      [
        -0.2835046531585956,
        0.19904468158595295,
        0.012013157035093702,
        0.15844914065924603,
        0.019866234538572447,
        0.13108936308788066,
        -0.08345388249255437,
        0.08682544857239999,
        -0.0498847784407046,
        0.29490249339104874,
        0.22553160963696745,
        0.09196654864850567,
        0.08797320259769531,
        -0.1588347646883429,
        -0.26751023124358053,
        -0.18887050085033688,
        -0.010289077670304791,
        0.13610305293986757,
        0.08083748514381012,
        0.16293866448171168,
        -0.10350899583983328,
        0.07213806024481378,
        0.19223525336088526,
        -0.14213314448116285,
        0.19950737689479808,
        0.20605135077247955,
        0.19961547247555816,
        -0.2960737424985788,
        -0.2237700600488067,
        -0.2883945952019672,
        0.20489557101185257,
        0.27432764314019403,
        0.0024202799288716714,
        0.0969774586952058,
        0.23415403587880984,
        0.1502757156566274,
        -0.09747848531525993,
        -0.14492950377234343,
        -0.11090016491475976,
        -0.2919769718901447,
        0.13406725160876115,
        -0.1120528870457031,
        -0.2653174027913325,
        0.23903620323635172,
        -0.30367726870612016,
        -0.02872360087403647,
        0.082256150219017,
        0.21759330900286272,
        -0.012606099453895792,
        0.2775790895111286
      ],
      [
        0.25618992927089485,
        0.13987780077517964,
        0.2850619917788135,
        0.2557987047383163,
        -0.23398305109993484,
        -0.1065225988874905,
        0.09950448599073125,
        0.29080227515671336,
        0.2575588982778632,
        0.2651900749509118,
        -0.2362487262629015,
        0.08293788612578545,
        0.08997267659796504,
        0.31509282978843406,
        0.21857659570244398,
        0.2561536650193073,
        -0.07605223161886376,
        0.12775692563381646,
        0.26027588569629717,
        -0.06857728411955608,
        -0.29792224102019377,
        0.09795702767935904,
        -0.16258552096755188,
        0.26657214187017125,
        0.1438014333090149,
        0.22736010564711734,
        -0.1829631653079261,
        -0.22131938299408954,
        -0.14320055107269677,
        0.28461119622349557,
        0.2171639656831293,
        -0.20651785614845042,
        -0.15873673529005722,
        -0.1768562204246208,
        0.2171892391481693,
        -0.16576814220398345,
        -0.2225036979679725,
        -0.04380724325230295,
        -0.3008883671020088,
        0.03005619745884569,
        -0.10069731245274066,
        -0.06096300081687417,
        -0.2748310491868303,
        0.25461637462279524,
        -0.1223333143939874,
        0.06220742095121812,
        0.25571674549520423,
        0.2510215786846685,
        -0.226890946630644,
        -0.09739306137558121
      ],
      [
        0.26389798454924845,
        0.15024895781399605,
        0.27752830052654215,
        -0.21016311145999617,
        -0.05765937497057849,
        0.25729249236075086,
        0.0335539336904106,
        -0.28966097049889056,
        0.1534042363174457,
        0.28401143141870994,
        -0.21670134252540862,
        -0.03363716053213278,
        0.09535208650473337,
        -0.11478274613848938,
        0.17302863166054838,
        -0.2887359405015859,
        -0.07567078931852339,
        -0.07569040271722885,
        -0.22203662238953376,
        0.2816418285665591,
        0.28326497517957655,
        0.13301801282435766,
        -0.08501899365552504,
        -0.07657468263953882,
        -0.24319044905288206,
        -0.07267242103271662,
        -0.22953961900628436,
        -0.23531468786691323,
        -0.059613309414866145,
        0.03908956257259305,
        0.3098066338143985,
        0.25504577455809535,
        0.2176719556425772,
        0.0054910906247688795,
        0.2837065710323468,
        0.213774603571447,
        -0.12007418015724464,
        -0.01847287617609311,
        -0.01295884100901884,
        0.24674647722617998,
        0.27146333137048534,
        0.14097074235659485,
        0.15007434492906524,
        0.23245903266984907,
        -0.09728188685653202,
        0.029115137490434873,
        -0.252122191943438,
        0.00826700754131865,
        0.2659976718004841,
        0.1554130686533759
      ]
    ],
    "weight_v": [
      [
        0.10471480941246603,
        0.21699517361312032,
        -0.12538051826741417,
        -0.0807621909549664,
        -0.050504581218385275,
        0.032015464875202015,
        0.1372227301253499,
        -0.08457568621140085,
        -0.1812247344514908,
        0.07652190929924013,
        0.04026216361070817,
        -0.23797650524331368,
        -0.11056469277245984,
        0.2398845685819802,
        0.0772261183589989,
        -0.2606552541127717,
        -0.13811370676434875,
        0.15170336972965992,
        0.18979749848842264,
        -0.2773456367650532,
        0.1782965789398524,
        -0.17069776534770745,
        0.08616427301107904,
        0.28136236369815787,
        -0.08540329233084798,
        -0.26542584603210606,
        -0.058111008464028724,
        0.24842736345839983,
        -0.07012766629485859,
        -0.2580888177967711,
        0.23637287993214623,
        0.17738120375043653,
        0.021631408552884812,
        -0.08979170186191376,
        0.27136270849252037,
        -0.061088390117882335,
        -0.1897874950490273,
        0.05370350449906702,
        -0.062255105495839846,
        -0.2638313312522997,
        -0.2905831202131843,
        0.07597182242886119,
        -0.02762095422130456,
        0.24283496527306597,
        -0.014235594938670382,
        0.24147288950590512,
        0.01824650838612113,
        -0.06424943401055333,
        0.003993612605101726,
        -0.08351813965746538
      ],
      [
        0.06666818994258145,
        0.17804398611238942,
        -0.05844935773697027,
        -0.043895490796205694,
        0.13379272890776278,
        0.24990112959237826,
        0.00562257830569074,
        -0.2667024302903393,
        0.10723732720464035,
        -0.24191903400180095,
        -0.16735184275619094,
        0.16658730661638904,
        0.13890691100494923,
        0.16692370644521531,
        0.056836313399083405,
        0.0004601878086274991,
        0.2857242357984843,
        0.10725528526414435,
        0.27864007595646884,
        0.20355712838596673,
        -0.21329927093611997,
        -0.029052509210641175,
        0.27158688122635727,
        0.09829985311973538,
        0.03881739442360993,
        -0.2669769099570343,
        -0.0976594174777112,
        -0.05562927206016555,
        -0.09162727068571214,
        0.11537808550525475,
        0.2849149989320258,
        0.06474989337896248,
        -0.22255365978949307,
        -0.11180847717640977,
        0.26862216796787736,
        -0.2596550796742996,
        -0.22972798263262573,
        0.1972357982846905,
        -0.1508288434659168,
        0.20461123086641436,
        -0.2776370411501895,
        -0.17408936883553042,
        0.04237137450107353,
        0.13514741730331498,
        -0.2904946532401506,
        -0.2243889978391161,
        0.1777446168890881,
        0.15544077782202625,
        0.15546617716823263,
        -0.05688781242548627
      ],
      [
        -0.02998990671317997,
        0.040414977331408475,
        0.24088637490861015,
        0.018490900531504262,
        0.25539594136351446,
        0.09067918695893484,
        -0.15698400994955605,
        0.2783890612015035,
        0.0791450432278416,
        -0.1796392149879193,
        0.10093370818343933,
        0.1470713143927831,
        -0.09892400376127047,
        0.1108421535658945,
        0.03765851588319358,
        0.07556801930796109,
        -0.204374537528841,
        0.11465535122178366,
        -0.07017663545152861,
        0.1876764640986151,
        -0.02386215578047718,
        -0.28090868042843026,
        0.24749137947037253,
        0.06298016286511554,
        -0.12894484306516915,
        -0.2732427113472571,
        -0.2547702356256417,
        0.2783153078830563,
        0.2646302831880332,
        -0.061482349417272375,
        -0.09084871132167269,
        -0.2518577697620541,
        -0.08308488862299149,
        -0.09414713190017024,
        0.03296032966250223,
        0.23913286582050458,
        0.16922741972571592,
        -0.2752047366561322,
        -0.1282048196276246,
        0.25594136606959145,
        0.14045261668248565,
        0.027119812048081227,
        -0.19209746656418425,
        0.18511338515750608,
        0.2512276863144513,
        -0.06335974287957116,
        0.2794563714866995,
        -0.10096156127822284,
        -0.2317624575284861,
        -0.23851149388229861
      ],
      [
        -0.2327281023977476,
        0.10285684941395257,
        0.20801105165822603,
        0.15205492844126695,
        0.2112209623533619,
        -0.004951127026601887,
        -0.27146606033713017,
        -0.09691266782142738,
        0.10983421244008501,
        -0.2766578553564639,
        0.12617067508690105,
        -0.21024448267589485,
        -0.2850558969121574,
        0.1991875248686406,
        -0.11373888791721909,
        0.27960981151862946,
        0.07288058334828079,
        -0.18697844242290754,
        0.16959754543377925,
        -0.11833658552192972,
        0.07593178008149071,
        0.11993392626674709,
        -0.1068535118955217,
        -0.14899190593643416,
        -0.13640584514510717,
        0.10956662575490483,
        0.2826613682966996,
        -0.23912511429842392,
        0.016928124475311723,
        0.17193518584374218,
        0.12090326232964183,
        0.14186821765996338,
        -0.28368601561573736,
        0.207195495747015,
        0.037748361622949644,
        -0.13321455611606295,
        0.24965192815812948,
        0.01566771548826429,
        -0.058385268849442645,
        -0.25356822745916047,
        -0.24729455099682576,
        0.10541858142516003,
        0.07713867898325466,
        -0.25974401871691816,
        0.12254437036375276,
        0.13585377069907112,
        -0.06845872325895908,
        -0.09818466509548296,
        -0.0449255388993568,
        -0.012245956313501283
      ],
      [
        -0.0015551482280857232,
        -0.12807274163425725,
        -0.27657798050233184,
        0.2013900709399679,
        0.19062811581177175,
        -0.04893033494277452,
        -0.2476015849190494,
        -0.07603726432492205,
        0.16663709747711292,
        0.29259365234416573,
        -0.1858488592263915,
        -0.03293577387990976,
        0.024335873603851532,
        -0.023915715990488695,
        0.22568523084166753,
        -0.05421917068762164,
        0.07281247538380631,
        -0.18370462604922405,
        -0.14276218006771693,
        0.03183538367140204,
        -0.20375500916230072,
        -0.006244232539018013,
        0.19263251198413756,
        -0.23122926428038687,
        0.03787286287376079,
        0.18133600502465141,
        0.2275769752885179,
        -0.019490544661695863,
        0.1267179922383042,
        -0.21471218686159987,
        0.11646505898176507,
        0.2516723347144271,
        0.2330231217203526,
        0.14366841030635769,
        -0.2530524117035249,
        -0.1108279747651712,
        -0.2537450773931677,
        0.12723013469864702,
        -0.18473677416213402,
        0.22671375077573724,
        -0.17960394651791442,
        0.14809646858541314,
        -0.0894205912151414,
        0.18262077023352613,
        0.27301342445132387,
        -0.029366092703169866,
        -0.10810903736175764,
        -0.13879931423663808,
        -0.13360499459384104,
        -0.2361409333826771
      ],
      [
        -0.23603908082170658,
        -0.02540613092091948,
        0.28663770499618096,
        -0.013016406982709339,
        0.2536217467193926,
        0.07938829527928043,
        -0.27448098457852105,
        0.25440083590367607,
        -0.27529009603831184,
        -0.05692167065610351,
        -0.26555122776523354,
        0.10453644280355445,
        -0.11416492992611108,
        -0.1304922732874693,
        -0.1986715196327615,
        0.01647118611216436,
        0.05484442612674206,
        -0.27920601045199817,
        -0.013779218001652327,
        0.11660414141001951,
        0.2732507942940991,
        0.26695675649497713,
        0.04477638141344581,
        0.1509674797853109,
        -0.0904574851075689,
        0.27249961928746697,
        -0.052782042203256885,
        -0.14141445955309465,
        0.257774189869829,
        0.17402576804655678,
        -0.24905321625780966,
        -0.28913347223382924,
        0.27213652130836924,
        -0.23633268952560665,
        -0.19663886256287982,
        -0.08587962279749678,
        0.05017611366085656,
        0.09115868616611844,
        0.27261469567201496,
        0.19456744883335797,
        0.005738939791442688,
        -0.016397827320782488,
        0.22899603984694167,
        0.05333504417100604,
        0.0782297465800032,
        -0.2614259160777873,
        -0.1528627107504608,
        0.11594053352288453,
        -0.2609180739673551,
        0.1895534439587458
      ],
      [
        0.15995086841603223,
        0.2657780508741944,
        0.22490976335751384,
        -0.033150406190387505,
        -0.04325566904644859,
        -0.11599923542847096,
        -0.20645503654041442,
        0.1987908092031866,
        0.1652056393227595,
        0.0005199122388295785,
        -0.0656603732372063,
        -0.11594450367087825,
        0.14835614995876872,
        -0.15413783168184708,
        0.2835150258938121,
        -0.08652584200855062,
        -0.11109380929166485,
        0.16909898809507895,
        -0.20371782852273315,
        -0.10334501584762301,
        0.07874522906020337,
        0.1557774604570863,
        0.23843805637649945,
        -0.2120712359456381,
        -0.11822585966752522,
        0.0422821446720858,
        0.03560475658866735,
        0.2597891668670032,
        -0.23725064708758198,
        0.07080014198669449,
        -0.05085982651675383,
        0.06602031619344739,
        -0.04552537668192194,
        -0.26145561790913613,
        -0.050424583892543146,
        0.10681660802534909,
        -0.23900887193396197,
        0.168937834373807,
        0.11795374773496042,
        0.09546901717919559,
        0.25198078905893134,
        0.051840587723231024,
        -0.1970545030181265,
        -0.05699941526591454,
        -0.042949573979739475,
        -0.1849573634791879,
        0.2073263833376912,
        0.16891774441617852,
        -0.15826786380237068,
        -0.09156415313769026
      ],
      [
        0.04767468000325631,
        -0.28613180341025857,
        0.2212431561171741,
        -0.08297058594157716,
        0.10010283159042083,
        -0.04178227898232573,
        -0.09250577729323964,
        -0.1484335906283856,
        0.03512564160833165,
        -0.1473597194571539,
        -0.08375549614603642,
        -0.19403886028173978,
        0.2693380544557928,
        -0.2051515455393348,
        -0.04531932720176837,
        0.23334455714060237,
        0.19075135157493367,
        0.036093913853520565,
        -0.2743171097640133,
        0.19990248923802495,
        -0.15721446389860028,
        -0.19194259284547321,
        0.24477579651560427,
        0.09163791336793059,
        0.1918506068960022,
        -0.22893458071431355,
        0.00033094558039559185,
        -0.25906317052329497,
        0.21374648969636495,
        -0.09678430251515435,
        0.23430772729875576,
        0.28808666383550446,
        -0.23379929333512053,
        0.07194689836852403,
        -0.12451270399572173,
        -0.13777563324848177,
        0.22846403356703165,
        -0.21561131578032805,
        -0.14444389293623244,
        -0.004214493831548427,
        -0.2624556851903914,
        0.24274013649125897,
        -0.09730273405146281,
        -0.04852611952195163,
        -0.15061770334676705,
        -0.2647843107168197,
        -0.006640490309668512,
        0.24982677551857396,
        0.15197092739263596,
        0.011229186360055543
      ],
      [
        -0.1425379878989059,
        -0.11138642522101208,
        -0.24936561709455116,
        -0.1344412411927622,
        0.2124456123435245,
        0.18326667721958317,
        0.22056384504073973,
        0.24595059606787578,
        0.037562485650030286,
        0.1282661712478249,
        -0.25058377057842196,
        -0.23767601949198564,
        0.25257138929125383,
        0.25108115060442887,
        0.24463657947825918,
        -0.12137914699884989,
        -0.06027537963114013,
        0.08527661603888087,
        -0.06538020718279403,
        0.23913684469684166,
        0.10088535991686698,
        0.13858392841221295,
        -0.057565360098159185,
        0.009667921284149339,
        -0.04429227079166323,
        0.13590286247587896,
        0.04467941334418163,
        0.092693461457453,
        -0.1352103225557654,
        -0.1281169687726411,
        -0.14450611920427991,
        -0.14287881102221425,
        0.06967481669280551,
        -0.283556616140896,
        0.2598782852413049,
        -0.16397435874364258,
        0.1957635546590355,
        0.060083103902384916,
        -0.24107601375476354,
        0.11020484603388347,
        -0.17511405680333242,
        -0.2791424520706612,
        0.22494751587107525,
        0.1452952058969032,
        -0.17044617814594604,
        0.2166915475305951,
        -0.09796003359279443,
        0.2772978784129175,
        0.2703324592068583,
        -0.17127566150560047
      ],
      [
        -0.21952756174020271,
        0.2095182130920546,
        -0.28194176162543755,
        -0.023153223483699525,
        0.06063870177631947,
        -0.15209679704977822,
        0.04341626213720895,
        -0.2678447878664556,
        -0.15031450022190976,
        0.13441244275839348,
        0.25725084255198866,
        -0.13757582801311996,
        0.019424437169825726,
        0.07994213802376715,
        0.07080101748615164,
        -0.15311128346066222,
        0.28175035517808583,
        -0.008476757357667342,
        -0.1797439014065586,
        -0.04137585354311163,
        -0.07438922493965908,
        0.22487848347431522,
        -0.18815149952074933,
        -0.012970980104786811,
        0.2369530927376305,
        -0.22335269621317091,
        0.14881340088228867,
        0.1860565436321448,
        0.10301346047620413,
        -0.26971939177510484,
        0.10953158732720891,
        0.18055390006255884,
        0.15029218729871335,
        0.12826745541959095,
        -0.12768743875234762,
        0.03463021075217093,
        0.07798585604101588,
        0.22837401201170576,
        0.27241377099722003,
        0.0913871382790572,
        0.052467745234891616,
        -0.20594834267709755,
        -0.1696528764075836,
        0.20502183889247,
        -0.2277736200005978,
        0.07878502071857113,
        0.29276275207621644,
        -0.12876119280664436,
        -0.09449053885855965,
        -0.21192857822710587
      ],
      [
        -0.22850769655091735,
        -0.18473386003445094,
        -0.26966147341989105,
        0.2865432435237794,
        -0.1278416869793854,
        0.22318106775560437,
        0.04388871423863505,
        0.16834205751024095,
        -0.22617998910704573,
        0.10439758798316351,
        0.2854265478612304,
        0.17654327850631163,
        -0.21482447334793547,
        0.16592984138368033,
        -0.24149773675907438,
        0.07899481645307205,
        -0.20186370426266234,
        0.26814247561166565,
        -0.13545871106025378,
        -0.2694397381145086,
        -0.1979636111487461,
        0.04594335323222942,
        0.055575637060123806,
        0.02216848625375345,
        0.19471883844118398,
        0.04293189589692392,
        0.2132268450316998,
        -0.19334927166881696,
        -0.2619474919410261,
        0.06240152921693387,
        0.20936742980977502,
        -0.28862010927525517,
        -0.278420804571436,
        0.07713856323836493,
        -0.04949738847300303,
        0.06257679593594517,
        -0.170133169886085,
        -0.06458958549306762,
        0.28889367787136916,
        0.2504149616312173,
        -0.03792059350955518,
        0.19109625995567975,
        -0.2624411268519635,
        -0.2575828976214863,
        -0.23064769498825183,
        -0.244698412363976,
        0.21782355755800636,
        -0.019985834340384923,
        -0.030509974521469974,
        0.006806022448045845
      ],
      [
        0.05208557120270074,
        -0.21912006177724938,
        0.17527386789508076,
        0.13087782714208257,
        -0.07598955390916007,
        0.03544291537350491,
        0.03417838127419548,
        0.2741426745718302,
        0.20312674408831993,
        -0.07744538818470775,
        -0.09063851671687004,
        -0.18148098420409148,
        0.11494128005466553,
        -0.20251011837229277,
        -0.2685159064950934,
        0.29024455499839136,
        -0.0974506475124522,
        -0.20354161596990472,
        0.20267499282182272,
        -0.28978419153595625,
        0.02302525400389338,
        0.27562402976155004,
        0.11293985303106208,
        0.18320098075249863,
        0.26610674370996495,
        0.1177880544624989,
        -0.10336754181586388,
        0.2192798082843544,
        0.2599812911452814,
        -0.19593059276812788,
        0.17867480693557825,
        0.007863154328612898,
        -0.12998855920003108,
        -0.030130349202003026,
        -0.058136741707776024,
        0.03664801267112067,
        -0.20092234416880206,
        0.21187221709386533,
        0.2849599816696475,
        -0.008573536335672483,
        -0.2591554732380609,
        0.2847163470488098,
        0.20740676674776864,
        -0.030260006053761335,
        0.0419682297364416,
        0.029035909455330466,
        -0.12801575599957882,
        -0.09504043724650407,
        0.2543354720818674,
        0.13643951262426174
      ],
      [
        0.25608698366220056,
        -0.1514280366926369,
        0.14741329941582465,
        0.2417242177578211,
        0.12531969883387062,
        -0.14721451965213858,
        -0.10024841731954068,
        0.11093717953369836,
        -0.24332462032771573,
        0.15079039448796205,
        -0.14969345797197706,
        -0.21701599101193947,
        0.16654507317602912,
        0.15595282176011116,
        -0.16312447310884615,
        0.10854068889767449,
        0.16198506919338418,
        -0.08006658104202749,
        -0.2442936913747186,
        -0.26272403893152785,
        0.1613982374689254,
        0.22808858124764525,
        -0.05203283321156718,
        -0.2914498153696773,
        -0.015773677820712262,
        0.13418725307186474,
        -0.19333639081496318,
        -0.049439474929462934,
        0.02376180452976412,
        0.19216076477722177,
        -0.056065858076170316,
        0.11673727584683802,
        0.28841890078906024,
        -0.02450475041343303,
        -0.05777317377272029,
        0.0029227718429223892,
        -0.20335146763750686,
        0.04463363696645928,
        0.20405725065116043,
        0.1675640046024064,
        0.05256253096149405,
        -0.0381110376141745,
        0.1393238652126612,
        0.172947620873254,
        -0.2816572016437206,
        0.22923316136848532,
        -0.12078863537101969,
        -0.13694555555268267,
        -0.043585766282706745,
        -0.04832179318112412
      ],
      [
        0.2438501184822675,
        0.027130172427104526,
        -0.16283057996070685,
        -0.12517438959724053,
        0.224350306644642,
        0.13770738952675604,
        0.24599740104055084,
        0.18962611379545768,
        -0.018701321516242875,
        -0.07746345373083488,
        -0.2131511043647219,
        -0.2912782786825233,
        -0.0011378268442983064,
        0.14391279938420898,
        -0.140583846486813,
        0.08463623204206672,
        0.043130064562829085,
        0.16010967140931398,
        0.06833038068952363,
        -0.25285274104339833,
        -0.15587261090217552,
        0.005683650143089525,
        0.024449343420571368,
        -0.26766717432776194,
        0.22369065099827973,
        -0.18310159818822036,
        0.27583529242284915,
        0.1838302785601631,
        0.22893108084300556,
        0.2712983675407529,
        -0.03451714023503921,
        -0.16212263236764374,
        0.18135591676951407,
        0.18200963400696152,
        0.09408693218678466,
        0.21093827354908395,
        -0.22471381014474306,
        -0.06558572288685896,
        0.24992816430705195,
        0.0024507518814744778,
        0.03485742948267034,
        -0.07075522204807727,
        0.24456007506647875,
        -0.14988132669714782,
        0.1005263103255436,
        0.25759646196551383,
        0.19673503491557998,
        0.15959374104257318,
        0.09676424311282811,
        0.1521413110183848
      ],
      [
        -0.11429084301873571,
        0.19143194007911263,
        0.20645829641004032,
        0.26603891807826524,
        0.20057123655304926,
        -0.01831857524090086,
        -0.1856571444788386,
        -0.11669685574579963,
        0.1524139268699079,
        -0.06270059916266246,
        -0.07349759763949626,
        -0.27899678774717557,
        0.1574841103844828,
        0.19321633124397286,
        -0.04983832937880672,
        -0.168149180789668,
        -0.016311567467305277,
        -0.09155616219259333,
        0.007637836221723648,
        0.08825939282528711,
        0.28763667890572603,
        0.1661329815554129,
        -0.13168379189431695,
        -0.1436417499651981,
        0.24221269965461795,
        -0.21174148325442793,
        0.2754171703740749,
        -0.18550963803624984,
        0.03790900835529987,
        0.2661795205763134,
        -0.08864776211991382,
        -0.036865149298879185,
        0.017554950679869008,
        -0.08102421601598161,
        0.15675574915377538,
        0.03192331307356,
        0.07051565823677736,
        0.10619853671097063,
        -0.1320456962755436,
        -0.12704542671699418,
        -0.20262984538588585,
        0.195510685934685,
        0.222490239555925,
        -0.005856546827228193,
        0.10442117697404779,
        -0.21389071270369875,
        -0.0017747191980304056,
        0.09252769923106913,
        -0.1640562972450368,
        0.05501217218136345
      ],
      [
        -0.06156752496338555,
        -0.0019626458341149844,
        -0.12116644074943295,
        -8.07276167859583e-05,
        0.029905999988956433,
        0.12325787618472689,
        0.07878417400152649,
        0.2517127908361643,
        -0.028565136471866426,
        0.19220678531234997,
        -0.16087549505289836,
        0.2926902456601335,
        0.2882236008490607,
        0.2288195925782039,
        0.10980197291718219,
        -0.2512921089547889,
        -0.1645345448340922,
        -0.0640066747892638,
        -0.15826255705773967,
        0.11763143189520187,
        0.07774700192809697,
        -0.0765949230748165,
        0.15965131828771456,
        -0.01637677717164726,
        0.017438137602733328,
        -0.15242145007731298,
        0.07939255399374229,
        -0.0025756414778831394,
        0.16277276727815226,
        -0.1911901720738937,
        -0.07055908936119787,
        -0.2424192795148796,
        0.28268264341132293,
        -0.17536323070168244,
        0.02887336609186536,
        0.04653035581905596,
        0.20121506193657812,
        0.01615234725293585,
        0.28943740764362674,
        0.28958665582743076,
        0.0015620677043103326,
        -0.25520607044508753,
        0.15111146767777556,
        0.07209305790150888,
        0.1330693243883535,
        -0.04776968638334808,
        -0.2667459576839829,
        0.08069249524145916,
        -0.13233732933244813,
        -0.03325280831497346
      ],
      [
        0.24084211022637897,
        -0.17440948324277908,
        -0.08512686212310328,
        0.051630843128366466,
        -0.11659454205053524,
        -0.19242389237421337,
        0.00144335430486503,
        -0.20468270369946084,
        -0.04942019699439559,
        0.012241265362529674,
        -0.20799534344001555,
        0.016647307260711675,
        -0.16940179743123612,
        -0.24908176158592268,
        -0.1155600103416447,
        0.0374219037657591,
        0.2361342677433383,
        -0.23581867041720544,
        0.15432167328814916,
        -0.19339410167613733,
        0.16579957431602643,
        0.1833244445815463,
        -0.17135569612944268,
        0.15934186400318334,
        0.0031360164970335447,
        0.06397067024298347,
        -0.0048302478094117696,
        0.036573858232387124,
        -0.1397265110570361,
        0.022598253882794295,
        0.0382429808832252,
        0.17627471756270569,
        -0.041788367823387795,
        -0.12173788129406363,
        0.18283742371690437,
        -0.17453775039386554,
        0.2292363496091276,
        -0.1910622142087283,
        0.07931006722192269,
        0.27641064223725115,
        -0.21880770256624504,
        0.10618880707283035,
        -0.24746061282228662,
        -0.04804075378472583,
        -0.27243580763356356,
        -0.15658269048097295,
        0.27446519501577066,
        0.08862703712992537,
        -0.21624689602856606,
        -0.14758640439366383
      ],
      [
        0.01317227984896907,
        0.1047833388654052,
        0.25682352452448115,
        0.018186083980688772,
        0.04158167795187595,
        -0.016390558589619575,
        -0.1232221222266737,
        0.13355981386468962,
        -0.004128770369657919,
        -0.25857689155619373,
        -0.2729438435076256,
        0.06685347070299996,
        -0.022636860334147524,
        0.09484268645463578,
        0.07847280641612625,
        -0.15814977909037034,
        -0.27994667081355695,
        -0.06478875012025809,
        0.04503288817126194,
        0.2305891507406495,
        -0.004048746018368132,
        0.05136665096735871,
        -0.1526167980790391,
        0.2189457793623521,
        -0.18770678373597094,
        -0.27128154300590496,
        0.015995262080841233,
        0.11033139505740208,
        -0.05345450500433924,
        0.04429643148070567,
        -0.11419339007734769,
        -0.10698957545713589,
        -0.09359786923158331,
        0.07246041741983278,
        -0.05531121408718606,
        -0.1321341765276544,
        0.11463257011114908,
        -0.2765271133468251,
        0.053559874364637106,
        -0.18046935035151698,
        -0.2577492998891398,
        -0.1254472472264451,
        -0.2527801783330828,
        -0.13769659809695547,
        0.27100673966254313,
        -0.038095012132817185,
        0.09239036420425772,
        -0.052326472087912024,
        -0.1984863953549087,
        -0.1957368104678207
      ],
      [
        -0.1425450186136962,
        0.025859315257516946,
        0.2069602125040893,
        -0.09046084898910753,
        -0.018253689149060393,
        -0.19734436645533554,
        0.05485823368946524,
        -0.0038716806859164787,
        0.024764091014532752,
        0.04114843202866825,
        0.16402590858755373,
        0.10630900765927503,
        0.04406091585305144,
        0.18656233416658502,
        0.11437800666215886,
        -0.25328775477854976,
        -0.059319454939937594,
        0.06304118219413912,
        -0.11679507546418766,
        0.2537976378498779,
        -0.23773896315210888,
        0.11761746827015407,
        -0.0005033166009497103,
        0.182272227281371,
        -0.03557052984487802,
        0.22914457246310455,
        0.003935425120842273,
        -0.21928736850539332,
        0.17045389849392362,
        0.029690056575573,
        -0.20161144991171648,
        0.2640585146021483,
        -0.08055788593048177,
        -0.29202395897711125,
        -0.14089842630640123,
        0.2849132617586732,
        -0.1936020906597612,
        -0.2228758515466238,
        0.09803859173510143,
        -0.28343470446225416,
        -0.04624362376626867,
        -0.1819204168583747,
        0.028386972085918838,
        0.11833247486322729,
        -0.1257779140544615,
        0.23393275148914078,
        -0.18728829748853387,
        0.21885888021435135,
        -0.15863941670904252,
        -0.0026650487021841474
      ],
      [
        0.2819041350767367,
        0.1922852604165614,
        0.18730249843457597,
        -0.035136787552841164,
        0.14160455237686187,
        0.11124397168018868,
        -0.2781896506911892,
        0.10132203365639803,
        -0.0236146623781594,
        -0.2663214883400875,
        0.09228853001292048,
        0.2793350728109348,
        0.056153952486644954,
        0.11835122807447951,
        -0.16901154880363856,
        -0.07128492980724807,
        0.23042814644482473,
        0.1819607052144281,
        0.19454879784491846,
        0.28613536888737273,
        0.146345595655124,
        0.09652293193940431,
        -0.1849055848594644,
        -0.10598817735450827,
        -0.10053432208388893,
        -0.2820895098547738,
        -0.04967889657235067,
        -0.14708432034933588,
        0.006605425304450407,
        0.2042314237848304,
        -0.18889809401035618,
        -0.2481032081844231,
        0.13330426154712777,
        0.03642317478756313,
        0.26917516056777674,
        0.22784620003079042,
        -0.03886308145909273,
        0.13464183091781173,
        -0.1537667280506526,
        0.09266198733509712,
        0.08444644310164368,
        0.2080739288683801,
        -0.08219604992198001,
        -0.03517988444476755,
        -0.11859525638851842,
        0.21470036847996882,
        -0.22746789664063102,
        -0.13618961906572802,
        -0.23501580441866224,
        -0.2211376905665532
      ]
    ]
  }
}