{
  "num_class": 10,
  "num_hidden": 50,
  "num_visible": 20,
  "params": {
    "bias_b": [
      0.0,
      0.0,
      0.0,
      0.0,
      0.0,
      0.0,
      0.0,
      0.0,
      0.0,
      0.0
    ],
    "bias_c": [
      0.0,
      0.0,
      0.0,
      0.0,
      0.0,
      0.0,
      0.0,
      0.0,
      0.0,
      0.0,
      0.0,
      0.0,
      0.0,
      0.0,
      0.0,
      0.0,
      0.0,
      0.0,
      0.0,
      0.0,
      0.0,
      0.0,
      0.0,
      0.0,
      0.0,
      0.0,
      0.0,
      0.0,
      0.0,
      0.0,
      0.0,
      0.0,
      0.0,
      0.0,
      0.0,
      0.0,
      0.0,
      0.0,
      0.0,
      0.0,
      0.0,
      0.0,
      0.0,
      0.0,
      0.0,
      0.0,
      0.0,
      0.0,
      0.0,
      0.0
    ],
    "weight_w": [
      [
        -0.05411608295414139,
        -0.07466269504673786,
        0.1336977374758953,
        -0.24430858013806528,
        0.1930027200974836,
        -0.2759486495551767,
        0.19280699043010202,
        -0.25307083206766984,
        -0.007965205310978274,
        -0.08576691538159859,
        0.04202316857803856,
        -0.15467271623351533,
        0.24737760190772456,
        -0.04444991180451946,
        0.0955387593921555,
        -0.2879054537261074,
        0.1217815380721669,
        0.09332748377568434,
        -0.11936425270901654,
        0.07884189818000809,
        0.08864528525093168,
        -0.12284210375195831,
        0.023359625919247007,
        -0.18625397215008907,
        -0.12252415323260013,
        -0.19480051620498934,
        -0.3155402968408687,
        -0.07245528311773039,
        -0.0855655845546105,
        -0.22902439058656232,
        0.20456184114068682,
        -0.009505692588816839,
        -0.0026922540282027785,
        -0.04258057048647512,
        0.24771258656671918,
        0.22652119437901813,
        -0.05604043138385151,
        0.2701437239760938,
        -0.11154578091667339,
        0.30103829695508816,
        -0.15512634192478078,
        0.009711897611580533,
        0.11001811872008299,
        -0.280777798831939,
        0.13229318899025722,
        0.2884475497154075,
        -0.18650244601737934,
        0.19216408207457708,
        -0.0339356583542435,
        0.13237023723811064
      ],
      [
        0.053966356292764306,
        -0.2923711004753476,
        0.17086355973244016,
        -0.003290829498518888,
        0.06943592368404122,
        0.292923547238881,
        0.04136643684568625,
        0.12495012947878731,
        -0.12789574015032656,
        0.21888412693411713,
        -0.09153103145882197,
        -0.1328885112825331,
        -0.27013485119477193,
        -0.2575293290023252,
        -0.20005666502616976,
        0.10600842402528016,
        -0.2122222454391806,
        0.31118484924100337,
        0.28360075553631,
        -0.14088603370228345,
        -0.1587953750130126,
        0.09837794392988736,
        0.15358422766165686,
        -0.04115117602575463,
        -0.21444518261550977,
        -0.1904418597220932,
        0.24867334879089847,
        -0.3034499228190547,
        -0.07636887342283588,
        0.22589856602740505,
        -0.0032212248973518265,
        -0.018674030200605984,
        0.2923595573044058,
        -0.17271480507162182,
        -0.02423395286750457,
        -0.2504276014386254,
        -0.20790851620491063,
        -0.07887544459892398,
        -5.383947795828403e-05,
        -0.1642399243356933,
        0.20347001704764306,
        -0.04948371540105706,
        0.2510119413292608,
        0.1535313456357832,
        0.19639980849258704,
        -0.012273540613349232,
        0.26169381401905795,
        -0.050899032175589776,
        0.06549157053068855,
        -0.27022219907055195
      ],
      [
        0.05382975048195027,
        -0.16292058691756256,
        0.20790181654207868,
        0.2485841306632411,
        0.29573735020745234,
        -0.07336056596640103,
        -0.04133028796788207,
        0.08861912724472515,
        0.05665753090333148,
        -0.019635317980772338,
        0.12426008305613684,
        -0.29825411421227194,
        -0.254250612726601,
        -0.17715770081830712,
        0.071764767895724,
        -0.10828484175597355,
        -0.10140423949260702,
        0.2963172923795296,
        -0.13178737823875092,
        -0.1564637986976773,
        -0.049656672843496674,
        -0.2335410846668228,
        -0.09332331977631442,
        -0.037705121132434904,
        0.05096561832710911,
        -0.0642273893979437,
        0.19356736534995495,
        0.14072765850158792,
        -0.13316626562376727,
        0.3007918996619859,
        -0.24912521349028643,
        0.13332555868590124,
        0.3044787028030225,
        -0.2856085567085236,
        0.19367484220474845,
        0.1613769465730936,
        0.22414625265963212,
        -0.20356539477395957,
        -0.1330874034999324,
        -0.24013091563169242,
        -0.056386081969744595,
        -0.2501252823842279,
        -0.20954335525217416,
        -0.28354738992119444,
        -0.27939141892157243,
        -0.1441276831078395,
        -0.08715074041743434,
        -0.08805939203656807,
        -0.00047122495286500143,
        -0.04989418499764009
      ],
      [
        0.2949462140767714,
        -0.13158547351822034,
        -0.11930596660692885,
        0.21121758840036137,
        0.021409578297139797,
        -0.0889198417148197,
        -0.2103943744600043,
        -0.2697989896742129,
        -0.20090691490062607,
        -0.09357714526296854,
        -0.3016750694929496,
        -0.11167847620584334,
        -0.24330678720982518,
        0.15048848740568688,
        -0.08813857627747784,
        -0.03425738836112974,
        0.3121777860537383,
        0.29940846762134526,
        0.1434119949096616,
        0.10262385540934105,
        -0.10616892950365911,
        0.23149082038587826,
        0.050745224454993965,
        -0.22964806533745918,
        0.16479099026885652,
        -0.24759240963992218,
        -0.2399861107181378,
        -0.08320956255898668,
        0.2621081536375533,
        0.09314423743266981,
        -0.14024211121616553,
        0.17962889894360196,
        -0.0031120239156078866,
        0.03551440165004982,
        0.0751584038840522,
        0.1919723353639588,
        0.1492445919193286,
        -0.041836902563332334,
        0.0328748794562444,
        -0.056332699756072524,
        0.06519032350830845,
        0.12217165793950496,
        -0.12111920646185262,
        -0.009784736875960265,
        -0.0745899183945056,
        -0.16008613563695026,
        0.30850571917903163,
        0.27789372067269574,
        0.21865941904575575,
        -0.18535105699696322
      ],
      [
        0.26097933598830164,
        0.12176528221048089,
        0.12244752936832448,
        -0.26050110418075967,
        -0.2777737743741685,
        -0.19607326697612515,
        0.12370982706776129,
        0.19852580926519975,
        0.28507775049969913,
        0.10932244194771007,
        0.18203181560864617,
        0.16451147200588973,
        -0.03008447145377624,
        0.04414438922451719,
        0.0015466833617758247,
        -0.27758439762501536,
        -0.01962430100702761,
        -0.15405270481005004,
        -0.012024801903361637,
        0.258430528033685,
        0.0956355698903672,
        -0.07139537236763657,
        0.24680936192691,
        -0.24833402776033686,
        0.043634823962836244,
        0.1341691036790688,
        0.12884436663525234,
        0.2650330470637449,
        0.05082661239048236,
        -0.23798836797689793,
        0.029316341898334597,
        -0.21813956901869452,
        0.0609957407376539,
        0.2116849321566196,
        0.2506959313985974,
        -0.10366879407488527,
        -0.21443216478130828,
        0.1964119239981516,
        0.07468362241018273,
        -0.053879303636975295,
        -0.11913577013373747,
        0.2825604474381263,
        -0.1301279933709737,
        0.059180858896955124,
        0.14584108781303773,
        0.29780120933896365,
        0.021851251702562635,
        -0.25944416818411586,
        0.2277969887627404,
        0.22001891741321683
      ],
      [
        -0.3025664205711356,
        0.19069825157727321,
        0.0617214808054255,
        0.08559552617430854,
        0.2558961152393426,
        -0.2596371876672765,
        0.2658926693623945,
        -0.2622133104843914,
        -0.15059805804957654,
        -0.12503443449029067,
        -0.05457281077766679,
        -0.05967741555515277,
        0.22746031402410966,
        0.2346807358064376,
        -0.22499848573290027,
        -0.24451790939724413,
        0.15308079600745061,
        -0.2769831140953957,
        -0.25645682299951933,
        -0.08315649604095213,
        -0.04974929731246014,
        -0.14252203034891217,
        0.10114291679247106,
        -0.2602217256551146,
        -0.3135112441599239,
        0.2271477974963853,
        0.056405444878364075,
        -0.18482863157175886,
        0.029674979663547374,
        0.2522010574167552,
        -0.009982049540901983,
        0.08341933217808023,
        -0.16818184710803682,
        -0.2543145224475907,
        0.03541771002604538,
        -0.2977941856469863,
        0.30787054141058584,
        -0.27528354461595406,
        0.148034712618568,
        0.18522104423444047,
        0.12065662768799756,
        0.01822640915702306,
        -0.11285503558940721,
        0.18379909865313931,
        0.11908004161896074,
        0.17961022359287193,
        0.3138230557620563,
        -0.05997808888306855,
        0.06432208925265515,
        -0.020566251856423357
      ],
      [
        0.15522896448684864,
        -0.17362695190303398,
        -0.3135831699986407,
        -0.1752734224337725,
        -0.13300632856141334,
        -0.16782382567398552,
        -0.09078644510927875,
        0.23676550659257983,
        0.21599751155908892,
        0.3000041969708292,
        0.12297021069907305,
        -0.14324875188297576,
        -0.013883357888153258,
        -0.022855819812801326,
        0.11347015414875722,
        -0.19300911273697796,
        -0.1954036646873121,
        -0.2487064196711472,
        -0.22470570540969037,
        -0.2083319734840273,
        0.12209784266188389,
        -0.24011655715385816,
        -0.15161875858791757,
        0.04330313751694015,
        0.05095708212946026,
        -0.13492397653888963,
        0.29211836429786303,
        -0.1524826137907235,
        0.007872713733228676,
        -0.0008814685809460654,
        0.19727373358194206,
        0.14215000321563726,
        -0.16314887769090097,
        0.18095607786695922,
        0.2494020344669266,
        0.22223790458095288,
        -0.036284295845026626,
        0.124959303031073,
        0.08915443936799261,
        -0.24728688547141858,
        0.2666278932765089,
        0.20094793081745504,
        0.2811358952842417,
        -0.023054860525977827,
        -0.12851432602998183,
        0.31584667453700027,
        -0.18553050251631614,
        -0.2507895778899227,
        -0.009909112127764574,
        -0.17338677416650033
      ],
      [
        -0.10745693368052237,
        0.29249726981393903,
        0.2552079107539225,
        -0.04248772209426244,
        -0.10608451028623442,
        -0.07843842856053679,
        0.16157468409776826,
        -0.267970493656172,
        0.0453959765818539,
        -0.06904861830676248,
        0.15083320559621544,
        0.06864623978945322,
        -0.015204353147758198,
        0.14717891567223956,
        -0.2946833415948116,
        -0.12261593068092802,
        -0.15048855635915304,
        0.23524131601481918,
        0.2515131078232736,
        -0.2675570038158568,
        -0.2630517796576693,
        0.062340974843570596,
        -0.07923282828701006,
        -0.18215044837278635,
        -0.30105738512891056,
        0.15618676795989145,
        -0.2252018359028105,
        0.19775287575048733,
        -0.1691173451644458,
        0.010811484347967637,
        0.04970714521762548,
        -0.20614845502244367,
        0.16799843978442236,
        0.29154891099203645,
        0.18646824043504612,
        0.13905920752318157,
        -0.2928741600525392,
        -0.15113423573494775,
        0.29080569946811713,
        -0.12148231684074165,
        0.1175890225120334,
        0.2379867550248151,
        -0.08455588441808615,
        0.09051990454500614,
        -0.013534194698908597,
        -0.26284578981093554,
        0.2193174701186293,
        -0.005816370627570511,
        -0.12818797840003024,
        0.29856461579480237
      ],
      [
        0.08274801045518565,
        -0.07857273250155386,
        0.23592872990416686,
        0.04356067176606748,
        -0.29088571051344636,
        0.11614072208230825,
        0.22256826819070635,
        -0.31574439101327323,
        -0.019279991908796534,
        0.28359207004119064,
        0.27152842976580666,
        0.142463949385024,
        0.08170732345455406,
        -0.27543249673251025,
        0.286262563021822,
        -0.25424761222831527,
        0.29744334403014455,
        0.2815331294646915,
        0.29638068787362876,
        0.0032393141396991343,
        0.2798425036028202,
        -0.2669610984008005,
        0.251093699952545,
        -0.1886469661744637,
        0.29277791716820906,
        0.01649698773430236,
        0.2863107139951065,
        0.09948985218417311,
        0.29180367319279227,
        -0.009772766831203483,
        0.30031110370550546,
        0.03857616138169895,
        -0.015091575726960405,
        -0.04558431267810531,
        0.22476136879577907,
        0.13004853001039657,
        -0.23265077253406719,
        0.13834486545722463,
        -0.23519555585818278,
        -0.08609050722554143,
        -0.23373637400390468,
        0.06944782012321854,
        0.27770489583864705,
        -0.2651106400338904,
        0.26011089139303706,
        0.2899239149321298,
        0.007356710158953894,
        0.1724413672179415,
        0.2998843346505104,
        0.03369665520781512
      ],
      [
        -0.06483823804158179,
        -0.09986347198730089,
        -0.05348013749925756,
        0.00269891342698908,
        -0.2593685180647821,
        -0.2534482758732448,
        0.30880479905796726,
        0.19365047346492353,
        0.0060573193922214275,
        -0.10138935672421803,
        -0.1916237865343905,
        -0.16050270493624502,
        0.21515626400819104,
        0.28075283457833106,
        -0.022706576133559142,
        -0.242811330438872,
        0.053126756304039846,
        0.06345691472037268,
        -0.11129751676262575,
        0.14407751256153295,
        0.24899338141263733,
        -0.18211689713795065,
        0.11810746309315623,
        -0.23453943851550255,
        -0.10702288802281351,
        0.05095629837594379,
        0.15252477338496634,
        0.0559446862648294,
        0.21296529302602446,
        -0.2311049088474893,
        -0.2560875503686787,
        -0.18847831897059814,
        -0.11924853459763068,
        0.06522887616533951,
        0.1971073824066622,
        0.0063111653787357724,
        0.23646652542188135,
        -0.07335044125583537,
        -0.13632527810531014,
        0.24331570067858693,
        -0.14960743727857628,
        -0.30296273600293644,
        -0.1863445964830477,
        -0.25087669113070366,
        0.19682108317733743,
        0.1916489008838526,
        0.23167173181115736,
        0.12548115858669073,
        -0.025393860612124675,
        0.28684563830607906
      ]
    ],
    "weight_v": [
      [
        0.07844711537981985,
        -0.18155046792831617,
        0.24805436529485553,
        0.08466784546410105,
        0.26781066312070007,
        -0.2278600831204905,
        0.07158489173509797,
        -0.21651440620339824,
        -0.034485346469838085,
        -0.2852056994702873,
        0.25159122378707793,
        0.030142260765858075,
        0.12368287365192765,
        -0.027522163645909703,
        -0.2578859343477078,
        -0.002948387149926346,
        -0.1082484156417432,
        -0.14222586158252018,
        0.005463141262218141,
        0.18146454089886577,
        0.0841654964219864,
        -0.10833154744109927,
        0.2131215279282898,
        -0.06694770496721222,
        0.029990721355308725,
        -0.10473334923011099,
        0.13098567735374123,
        0.07589530098121144,
        0.09799270326132303,
        -0.2798186694266582,
        0.16099351548670365,
        0.006787541294498378,
        0.051063210130766146,
        -0.09827221284743234,
        -0.19826515621134308,
        -0.28258231638684767,
        0.1133308657892102,
        -0.016282776857415415,
        -0.2708620465239179,
        -0.1925422807435055,
        0.1322411142508933,
        -0.05750620499578274,
        -0.19362133882580004,
        -0.20540999430960796,
        0.015005221729948115,
        0.0158417931300594,
        -0.1254916885945038,
        -0.25969602089239646,
        0.0019384515176659178,
        0.25186290548355167
      ],
      [
        0.1822250675068205,
        0.2699586576130015,
        0.09980490704500194,
        0.029974249736529957,
        0.029270218984439433,
        0.03219810412103574,
        0.2132229166414406,
        -0.2603084295734524,
        0.28261120593352834,
        0.07872305492905524,
        0.09561098447470823,
        0.08528747308481166,
        -0.24102945907537673,
        -0.25564865766742795,
        0.10518321127451763,
        0.1772182088538518,
        -0.15656353433780346,
        -0.0590812923025103,
        -0.22619933602999284,
        0.030279612124825495,
        -0.25209594539750163,
        -0.23720281564331167,
        -0.29158369612819895,
        -0.18568611544331945,
        -0.23173885028271435,
        -0.11608037056106343,
        -0.15035830290795887,
        -0.15055308352584662,
        0.06282232496587842,
        -0.14103338159314172,
        -0.2082533852755359,
        -0.21227327843632265,
        -0.06381136457267775,
        0.10661229768754454,
        0.03086672184968836,
        -0.1448829341861402,
        0.05427347033176694,
        0.1300025999841808,
        0.15979854186612974,
        -0.05604191389661339,
        -0.047371808687198536,
        0.008768996197107415,
        0.16911158342008903,
        -0.1763609993133358,
        0.04560960486526894,
        0.26827073872166424,
        -0.03221120790177329,
        0.1955392830084372,
        -0.2850317695675674,
        0.2908339550976455
      ],
      [
        0.25395830615224385,
        -0.04515865807651959,
        -0.16795483529595567,
        -0.023257133884648284,
        -0.25658675945672804,
        -0.10385929471003386,
        0.05697579839244937,
        -0.06501572535946334,
        -0.2423388891779787,
        0.05806801126683914,
        -0.14323239084153366,
        -0.23252831556202733,
        0.035541007044874284,
        -0.13353693146248363,
        0.0005587489157174441,
        0.2053131846766626,
        0.07960515563285692,
        -0.11954215821793118,
        -0.25620881449915056,
        0.09903696633260961,
        0.03729197956210584,
        0.19687312163578585,
        -0.18102625649263765,
        0.16515151301471132,
        0.17990610978072824,
        0.06333927872092843,
        -0.16874040436486637,
        -0.07543227603961322,
        -0.1904811197853727,
        0.27850745154493534,
        -0.2313649268870983,
        -0.06217984041816496,
        0.06925426487730713,
        0.2101320245092751,
        0.27551483030474794,
        -0.11290176514241604,
        -0.1913213625983417,
        0.06091077952260798,
        0.1519179936893758,
        -0.27880729156480755,
        -0.02491324997427158,
        -0.003094071689193123,
        -0.1092345499864571,
        -0.1635318896324207,
        0.06898417580723548,
        -0.13978620810364772,
        -0.08922082988984495,
        0.20642701775954492,
        -0.03812953026480659,
        0.17015107206229013
      ],
      [
        0.28935093795092376,
        0.21573051488894018,
        0.17761297001930637,
        -0.19449263687444968,
        -0.10278505883326114,
        0.07290687617202418,
        0.11695055921085878,
        -0.13314934239155374,
        -0.016248633103581878,
        -0.0574830733058081,
        -0.1473739111066502,
        -0.22507277895356081,
        -0.05599943320915576,
        0.23665635508898825,
        -0.01635191992307533,
        0.04372755236674003,
        -0.05756639492240517,
        0.008771111036546375,
        -0.0500327264918905,
        0.27216382085447594,
        -0.09496715829112684,
        0.2628376343401702,
        0.141624957379392,
        -0.2005013862477647,
        -0.17417011648328687,
        -0.174441981734137,
        -0.07938625402840543,
        -0.168413762237695,
        0.17256941871777154,
        -0.03330642251515381,
        0.03696563661728358,
        -0.22428134079473006,
        0.08748792089442797,
        0.11472898930742925,
        -0.23772758242999703,
        -0.11648258549279042,
        -0.16404746417700536,
        -0.22328157706169316,
        -0.2723026276084151,
        -0.280648829253272,
        0.22081002744053674,
        0.24508611119776041,
        0.15522471226944484,
        -0.12738736120992133,
        -0.23327986717125,
        0.12128526580408094,
        0.28839690875284346,
        -0.009492951778542924,
        0.09775825458074244,
        0.2737939469274609
      ],
      [
        -0.21927707229602816,
        -0.2134038440388692,
        -0.2120379613865247,
        -0.19461900286066047,
        0.25173380706688603,
        -0.2662385569484078,
        -0.15375262939106565,
        0.16292495289594727,
        0.22132468645359943,
        0.2516855311741765,
        0.20239243143372582,
        0.17036403784205417,
        -0.14756497214030095,
        -0.07059329766716571,
        -0.16645637315103437,
        -0.25099597044585464,
        -0.2513003032051082,
        -0.24481394508629842,
        0.08701636927364503,
        0.09249121662477788,
        0.28837678822628204,
        -0.04972389112156822,
        0.23616629729285815,
        0.28292509785611425,
        0.15904108609309514,
        -0.15556775525677188,
        -0.18344714205889823,
        0.06776599654779386,
        0.1366772222207902,
        -0.1630839524694627,
        0.24058339680548418,
        -0.06512407024323338,
        0.1788042075697211,
        -0.2088572815123833,
        -0.09462204991331588,
        0.13516718467346767,
        -0.28822223595460084,
        0.18243665588161678,
        0.2001975793561877,
        0.048262094389815324,
        -0.10763104845434951,
        0.07783452082256243,
        0.13361033438731373,
        -0.24616006339417282,
        0.13823658019007984,
        -0.11466979774790809,
        -0.1026786388833725,
        0.17516209445702635,
        -0.16708727736285245,
        -0.21762057097160709
      ],
      [
        -0.04789635635989559,
        0.2520636893307641,
        -0.27460100866952714,
        -0.16185315891993426,
        -0.2541780761202344,
        -0.22224277161946632,
        -0.013491740373491101,
        -0.11005710429208726,
        -0.21922308717035555,
        0.08386514539986617,
        -0.0954313888121863,
        0.08186822969360702,
        -0.2324793390305559,
        0.12271933853268974,
        0.16406597654531296,
        -0.2421845141775363,
        -0.10075861608019523,
        0.24193252799613857,
        0.12776007322775546,
        0.2076696246687148,
        -0.22972963443166344,
        -0.009164131367185635,
        0.03447593673071975,
        0.11922430327961553,
        0.25838506561361246,
        0.24953098006096947,
        0.14049665750357088,
        0.11841108990095134,
        -0.14029429815949282,
        -0.23323877020653086,
        -0.012268471830867267,
        0.08766035654431398,
        0.11135680936823616,
        -0.0808628506844282,
        -0.13812394709703532,
        0.06107577448327334,
        0.032946417951324414,
        0.24819232949951936,
        0.22983075608979914,
        0.1688282904483065,
        -0.06452185033180985,
        -0.2574245084494888,
        0.16975579895771442,
        -0.0008128042365678212,
        -0.279083112663988,
        0.18432553079580538,
        0.10802241050772171,
        -0.14963965561868994,
        0.2669480894043726,
        0.17340986548673132
      ],
      [
        0.051456401571297994,
        -0.047740880420104465,
        -0.18170376686544365,
        -0.16409114841964462,
        0.12490240967808769,
        0.26527388299128024,
        -0.07548369353947551,
        -0.25134008969427163,
        0.02296395825483949,
        0.2195979997900403,
        0.0650425064367855,
        -0.2924030408861598,
        0.09022796558858553,
        -0.13106954077155009,
        0.038491209449815655,
        -0.27088611339278956,
        0.008187547001023587,
        -0.042485321387493113,
        0.005105390040923086,
        -0.16168332861141427,
        -0.17913913685407887,
        0.13882654705672515,
        0.16242345771259475,
        -0.12594112780221475,
        0.28764843492466546,
        -0.20121950016906837,
        -0.23649016205907533,
        0.062131241992128605,
        0.2433234303310881,
        0.0654906143416441,
        0.12112677731446242,
        0.06755417679830839,
        -0.12742526984029437,
        -0.022357573001098308,
        -0.22942760020116051,
        0.24966512805256874,
        -0.14741193803859468,
        -0.0014939809149728256,
        -0.1849195338700232,
        -0.18870388083454165,
        0.16958024214921114,
        -0.09826635227713282,
        0.13492883736099598,
        0.13427188857948846,
        0.13519952259701956,
        0.2777448784736481,
        -0.17585381210764323,
        -0.20839215824650517,
        -0.22882738307459968,
        0.23691617280094307
      ],
      [
        0.10456291899680936,
        0.2524795667934862,
        0.20602053032503775,
        -0.24290531988276765,
        -0.150258572090463,
        0.24516358617400996,
        0.26367898643031235,
        0.17358461055076563,
        0.09847748320939409,
        -0.2133515280294327,
        0.2725895363111492,
        0.29144970343411464,
        0.16023086162542832,
        0.09337300879192356,
        -0.1617737638105755,
        0.2504927634282415,
        -0.046618495396675896,
        -0.21163127103725737,
        0.08093884315670091,
        0.25437321271161045,
        0.2871961666732992,
        0.15527435132413475,
        0.20365270171356453,
        0.1267364308552676,
        -0.12394136913937173,
        0.17704685179695068,
        0.1719346949200879,
        -0.14104958392277403,
        -0.08227249007546833,
        -0.12780878714918753,
        -0.23435237102825968,
        0.2417292450230431,
        0.17757837298034113,
        0.06428433540118433,
        -0.27735933135006935,
        -0.1671029322442542,
        0.14420867231367712,
        0.10637389770592726,
        -0.27669663572581843,
        0.26751071726670844,
        -0.06836357654474579,
        -0.1328510258365643,
        -0.18581756740593247,
        -0.09183593592379521,
        0.1814057545360896,
        -0.20870025314925122,
        0.08472268163564362,
        0.1674808019612844,
        0.15364190300167796,
        -0.10693307026314605
      ],
      [
        -0.0631267894194574,
        0.23057161764824702,
        0.15026397695600313,
        0.24922607597900442,
        0.003958995764798856,
        -0.21120427250166257,
        0.2534797236865622,
        0.22044443899323435,
        0.0871508278056316,
        0.12468949417217923,
        -0.18108743268242708,
        -0.16707718722433224,
        0.09770583920605785,
        0.2319455933651176,
        -0.11342106223252679,
        -0.019793512053802587,
        0.16974263333890954,
        0.15527156705539108,
        0.16770885128648505,
        -0.11686833318309875,
        -0.2663597160529075,
        -0.007444587727916063,
        0.280788439896736,
        -0.1563879667792088,
        0.18320344187835014,
        0.06279809992947716,
        -0.06461475613880358,
        0.15819322371395833,
        -0.19736481987408383,
        0.17375405338038213,
        -0.17522628028100648,
        -0.04439705003660416,
        -0.05651549953807897,
        0.2897026604808111,
        -0.12604850672011306,
        -0.1257688619989948,
        -0.13813045731400272,
        0.21649056247835347,
        0.2348939026535906,
        -0.12874450018433706,
        -0.053678046946767505,
        -0.05552855900766063,
        0.010539229506131287,
        0.2744583538018564,
        -0.08229895260693992,
        0.08689419136809895,
        -0.17429094271127232,
        0.015110453636638155,
        -0.24015936510387134,
        0.031589799631928484
      ],
      [
        0.08159275719596093,
        -0.10685107579099348,
        -0.07018729722846603,
        0.2528020589703615,
        -0.18223693478512942,
        -0.0504428416958915,
        0.14234585726309096,
        0.2927478076836613,
        0.056697582290260895,
        -0.15801577165057243,
        0.04134525111230658,
        0.05223579873017653,
        -0.14392094502137057,
        0.02045715551656707,
        0.05724617448333119,
        0.1835914505447096,
        0.0959028435876983,
        -0.2599354195156894,
        0.21268838014150454,
        0.20024454066772918,
        0.1451158029085063,
        0.09205036406057365,
        0.15593515226350652,
        0.2143592092137387,
        -0.08891654548677153,
        0.03378920564940935,
        0.05897744169746966,
        0.10673430857913241,
        -0.21240855089850189,
        0.16317839494001907,
        0.2116141090553187,
        0.2515627709362637,
        0.21129191105676798,
        -0.09608340428437753,
        -0.06352232813960118,
        0.0929629122984037,
        0.15144498858249156,
        0.15795803084354432,
        -0.27523619083906814,
        -0.2356792312087557,
        -0.18967436393637546,
        0.09153315661516209,
        0.07942915156854197,
        -0.04026927593425145,
        0.04511014908319466,
        0.05596002280009543,
        0.04883107677906873,
        -0.007970272236959008,
        -0.016996150717232317,
        -0.1822899690066364
      ],
      [
        0.13990275650279038,
        -0.0914571141533547,
        0.020762309857092764,
        -0.16049499505555814,
        0.2765889375411839,
        0.1706092589280212,
        -0.2507057190390246,
        -0.17032560573427707,
        -0.2769259462250285,
        0.1399144270050205,
        -0.25947648595161044,
        0.06401723469793202,
        0.23458336680127428,
        0.10560849551636803,
        0.06441395995914567,
        0.28990895703197855,
        0.04553108189509919,
        -0.20054960049910245,
        0.275730524539971,
        0.2025219359449283,
        -0.17894871933231143,
        -0.07643830395160525,
        0.07627460336072356,
        -0.07271386692783943,
        -0.13011673513224098,
        -0.08023697753130193,
        0.23295742426453886,
        0.07750592557476405,
        -0.16337909692265243,
        0.22143848413849426,
        0.09405832320843915,
        -0.18100697302839017,
        0.2275774618917455,
        -0.013753238591225181,
        -0.2531350643174954,
        -0.03480900737600445,
        -0.0993037374422322,
        -0.23499076145648867,
        -0.044257799698582234,
        -0.22650765730209943,
        -0.10322808620675311,
        -0.24328825583527017,
        -0.19696457545946683,
        0.17290206340533099,
        -0.1767220814554955,
        0.22330735076796354,
        0.21652479851502465,
        0.1576229910530882,
        -0.058753076662985765,
        -0.2738220049631314
      ],
      [
        -0.247049457208121,
        0.27367396803684446,
        0.2837899651522851,
        0.086385656976945,
        -0.23873354002661917,
        -0.21620738486397512,
        0.023640283345245594,
        0.2610670611442238,
        -0.15125099947118925,
        0.0935800322838028,
        0.01929227616549095,
        -0.11345059471200869,
        -0.2672716098120792,
        0.1493579361938116,
        -0.010578327481435112,
        -0.2388043172011322,
        -0.1686534972238748,
        0.015735969506976477,
        -0.1361047989296555,
        -0.20328987184324404,
        0.090553220533653,
        0.19430973853360078,
        0.1648057140734861,
        0.21792868972786933,
        -0.13334599802298233,
        0.28331157443853144,
        -0.28372379756106636,
        -0.20780853333446736,
        -0.17816784867239538,
        0.09302076631411194,
        0.1477911141671533,
        -0.07398939665448029,
        -0.07021635683936286,
        -0.08834907669673625,
        -0.13510311701679462,
        0.18992105074666954,
        0.19845131110072645,
        0.27517027845855885,
        -0.201307062451395,
        0.21097271617719732,
        -0.13965079853078066,
        0.24954878961229748,
        0.14405394802752397,
        -0.08990046855187259,
        0.14448061461567824,
        -0.07452562321858053,
        0.19108124375316005,
        -0.16408686863343339,
        -0.22155267905641546,
        -0.10306089697678686
      ],
      [
        0.20946742099185217,
        0.17974016674523663,
        -0.12923550247051174,
        0.05520529532614199,
        -0.03040885455527942,
        -0.006161162328293057,
        -0.2517836735891853,
        -0.2831132490441615,
        -0.05255271473304246,
        0.06543169190632697,
        0.2543029724454095,
        0.2306543779039089,
        -0.16929792199116617,
        0.23895988829777265,
        -0.20148108343795004,
        0.04995897650993625,
        -0.11710048680798979,
        0.18499818170659965,
        0.11042525346421228,
        -0.24665070021133736,
        0.24236270942509613,
        -0.21205735085415972,
        -0.10772704436824027,
        0.26923262882542104,
        0.2609709180652409,
        0.08198180845909442,
        0.1127092811344651,
        0.07850386796344394,
        -0.2164145171498978,
        0.025212504810420866,
        0.005104710050130579,
        -0.04471848001420414,
        -0.08100771824395775,
        0.2197650709217402,
        -0.16997444819665586,
        -0.19189621523751343,
        -0.09642464491438885,
        -0.22584381259699632,
        0.11763738770682025,
        -0.08930569523618587,
        0.06080161696276354,
        0.1608614558098625,
        -0.27291581787019614,
        -0.11142391041220734,
        -0.121908660698483,
        -0.14341324113759712,
        0.2432780938678279,
        0.013888134226508753,
        -0.27019227322509004,
        0.2186854534105485
      ],
      [
        0.21894006544218508,
        0.03601662497940317,
        0.20925060918023025,
        -0.11959171156057627,
        0.1383590021768667,
        -0.09653480639314357,
        0.1446471164052313,
        -0.16426120590329837,
        -0.2665275461157284,
        -0.28828631602559074,
        -0.13396146809236334,
        0.10445585222889203,
        0.21966363600696798,
        0.18756876824730373,
        -0.05543574070479043,
        0.0819044317639045,
        0.1521364095821816,
        0.14095591491216852,
        -0.14967941186236616,
        0.21795906516422064,
        0.08515627293617961,
        -0.195134976820522,
        -0.08980993044619151,
        -0.14061137148592392,
        0.12706016137240378,
        0.1480459215189191,
        -0.010569670617571691,
        -0.2703213526771837,
        0.20689355707421786,
        0.13132855681025896,
        0.0905132437641048,
        -0.15530226472168368,
        -0.21510590283185743,
        0.2102443818788065,
        0.21161203133580903,
        -0.13959470746882358,
        -0.10867139854843436,
        0.05101644003571515,
        0.26234762234844494,
        0.03139200810010684,
        0.09496996623186238,
        0.009902102825386783,
        0.012093858693697668,
        -0.03849531025902936,
        0.22084883160715213,
        0.20073480195523835,
        -0.26841360437684525,
        0.2373866341530027,
        0.11845559400000721,
        -0.17849153354002026
      ],
      [
        -0.039885510097165566,
        0.2796417362091503,
        0.1801418730109754,
        0.04009822323388562,
        0.16780144172967265,
        0.223251135547699,
        -0.006878464567378895,
        -0.1799640833230075,
        0.2007830422558991,
        -0.24161713163736848,
        0.2321957430287352,
        0.20561909268190176,
        -0.23900706592705695,
        0.14909181182553938,
        -0.028278760361449773,
        -0.016304940669809587,
        -0.06297389624276778,
        -0.24178375631107035,
        -0.10319191039577177,
        0.001469446447182332,
        -0.1597125667809442,
        0.27907488616267,
        0.1160458490046436,
        -0.13968632791962265,
        -0.003785157829485075,
        -0.1767312243739046,
        -0.10762508895486908,
        0.08430767139898493,
        0.15482663013972092,
        -0.07579865532463015,
        -0.21391263601516175,
        -0.10331941662434474,
        -0.27341580908468505,
        0.27107739461366337,
        -0.16392454751033284,
        0.023670686356972503,
        0.040579492008550544,
        -0.1441970949891789,
        -0.28379796545112335,
        0.23355712322609962,
        -0.22778106188285105,
        0.14952477424381122,
        -0.06641107472363661,
        -0.2571667621360802,
        -0.06512436991360504,
        -0.057909249338613855,
        -0.24962121332855583,
        0.18958478377173593,
        -0.06134583666867305,
        0.2685042594296941
      ],
      [
        0.2134226775569497,
        -0.13742880937868246,
        0.23761673449976078,
        -0.2485138237642926,
        -0.2681498668992923,
        -0.21754148607619478,
        -0.07905483863052484,
        0.21596853762067875,
        0.06903287765034022,
        -0.18425520036145565,
        0.19138921062937392,
        -0.13329960729956197,
        -0.08207224593106813,
        0.16804329840216675,
        0.24782189602738264,
        0.2547689318304816,
        0.12485723617076289,
        0.2683901060140061,
        -0.17657246601010346,
        -0.06434532666623818,
        -0.24268195909050874,
        0.07926318887636286,
        0.06660367510722481,
        -0.2893012055383952,
        -0.20144530880488476,
        0.1602783298006782,
        0.056803179900869305,
        -0.016251745139583273,
        0.1761188872845309,
        0.10782871731785576,
        -0.08269378666784605,
        0.27951355446418463,
        0.24643101521197114,
        -0.06293970784385305,
        -0.25578292160994265,
        -0.2765452144078944,
        -0.2648042840012162,
        0.15793661627576655,
        0.008811828338924355,
        0.13230799229763063,
        0.12021834930868885,
        -0.009764518038446524,
        -0.14909926317279099,
        0.26370003597299735,
        -0.09354625330622204,
        0.15217451406366223,
        -0.08674740240244791,
        -0.0031942133892481905,
        -0.20025225969434227,
        0.16238546965035877
      ],
      [
        -0.28103999519162415,
        -0.21765414557826707,
        -0.04251402661346593,
        -0.14978948483926738,
        -0.23865963337078527,
        0.11387955070293254,
        0.16080009305628223,
        -0.03767089062630452,
        0.21109007848229405,
        0.1361874946231842,
        -0.135747627682916,
        -0.2140913144383756,
        0.18650837878555754,
        -0.08917215322043126,
        -0.25771491150927717,
        0.09118495278145677,
        0.04378824282790711,
        -0.1492423385607468,
        0.003951238865445461,
        0.23119419216091658,
        -0.09299104601391298,
        0.07378777250900659,
        0.20556249583395708,
        -0.19542180876086584,
        -0.1965147962478968,
        -0.2719717555944853,
        -0.15382201435125412,
        -0.2914115060489646,
        0.08184367548731342,
        0.16829757182535993,
        0.09819922867040093,
        -0.18681287751136522,
        -0.2875583050549476,
        0.2415079932490058,
        -0.15970509793734947,
        0.1839194619657336,
        0.10192214252836329,
        0.17749926725241927,
        0.06326352778683253,
        -0.18895724844625889,
        -0.13580429315922637,
        -0.0021631127390387417,
        -0.23803142073009897,
        -0.07701477824049116,
        -0.23496115066635453,
        -0.28884364463601847,
        0.022097073684835267,
        0.2918816765962487,
        0.24229396270272868,
        -0.2907714585759586
      ],
      [
        0.25394363976560935,
        0.2257216345071203,
        0.2135562825611232,
        -0.1784100935991052,
        0.17426733173206643,
        0.22454489647599846,
        -0.19854174313499995,
        -0.1296525780811088,
        -0.07713282307147373,
        0.21840853480256267,
        -0.2677568724221268,
        0.1757156804303474,
        0.04612249500549398,
        -0.16259172948697462,
        -0.1714531812354475,
        0.10817153171223243,
        0.26630163168494864,
        -0.04904249764558602,
        -0.19920548711516367,
        -0.23936764678089256,
        -0.2842547715506048,
        0.14776449955480542,
        0.20447063504485458,
        -0.044480963005585294,
        0.1708506628904679,
        0.1253364942695288,
        -0.1603258261765944,
        0.055710913940205165,
        0.13033021126391708,
        0.24429989003765956,
        0.2135452139899156,
        -0.11348594125347855,
        -0.05170410077197313,
        0.21836776072117298,
        0.20313814398424757,
        -0.15187010648132648,
        0.052939733000070544,
        -0.15325562148829264,
        -0.13274833521607896,
        7.699706093189373e-05,
        0.040004113626870785,
        -0.16533774769544402,
        0.1170088048511444,
        0.19566872910463956,
        0.17087575349028444,
        -0.11919351713373186,
        -0.21176943987978186,
        0.11665380246049928,
        0.01443762537439136,
        0.2354814026709779
      ],
      [
        0.15544584011178253,
        -0.11410414228864343,
        0.08400642036495248,
        -0.2225741949317449,
        -0.009293535250391505,
        -0.22978206263729675,
        0.16993400384794927,
        0.11378689999925018,
        -0.005852016704350149,
        0.14297042580069347,
        0.011162110797055702,
        -0.20685570828097533,
        -0.261797050496963,
        -0.05711412451287451,
        -0.24981160602498628,
        0.16878768207677702,
        -0.17021689517058836,
        0.07598261578013515,
        -0.2553545744135402,
        0.030682319582474915,
        -0.206095043129313,
        -0.12745023528700383,
        0.1916472445887495,
        -0.26405328534102107,
        -0.22719796976290407,
        0.23778154705683724,
        -0.1066257148210775,
        0.19220632307052404,
        0.10690593949678251,
        -0.0456722770122501,
        -0.10746291715407677,
        -0.0009296775882641772,
        0.02458487368633888,
        0.04956180268962557,
        -0.2837601218710694,
        0.24733086855794145,
        -0.28707083671174305,
        0.09860337460890822,
        -0.1872335474205453,
        0.02197647441551548,
        -0.21142551699928824,
        0.08206261962136513,
        -0.04079207781729671,
        0.10662870558787868,
        -0.24058396100056517,
        0.2895122516366559,
        0.1313833736183309,
        0.12733647593279984,
        0.20351781843614086,
        -0.1327472015878936
      ],
      [
        -0.1118248642008495,
        -0.2797344857703407,
        0.25901057878142203,
        -0.2420674696607644,
        -0.23558292917461693,
        0.26845229516670704,
        -0.16642349829165914,
        0.02121162526815512,
        0.2081261738002756,
        -0.16650142892193812,
        -0.270922131686699,
        0.2615909071268803,
        -0.266465830343912,
        -0.23494772087216087,
        0.10045102278765655,
        -0.20994554783592145,
        -0.05074365821230006,
        0.12380252282397608,
        0.13768241696651962,
        0.054052519405439814,
        0.24567808820193587,
        -0.21957589745069586,
        0.029453031937486218,
        -0.07283830147741091,
        -0.038268342840056035,
        -0.26019108150981246,
        -0.10973293005728835,
        0.18295642303617893,
        0.06041772049146793,
        -0.21100796171510786,
        0.2732612437870077,
        0.1990100738888072,
        0.21222866164409665,
        0.14409730733341114,
        0.17494538752699218,
        0.11909710721813022,
        0.13157347218783938,
        0.24201378175139482,
        -0.1179370799576013,
        -0.09302827063385641,
        -0.16435262904054576,
        0.2902159548616276,
        0.2228366864804539,
        -0.21064300141016634,
        -0.07518027235884833,
        -0.1482175774751663,
        0.19504448134364866,
        0.0296483666967442,
        -0.08607052386243261,
        0.17954060514305498
      ]
    ]
  }
}