{
  "num_class": 10,
  "num_hidden": 50,
  "num_visible": 20,
  "params": {
    "bias_b": [
      0.0,
      0.0,
      0.0,
      0.0,
      0.0,
      0.0,
      0.0,
      0.0,
      0.0,
      0.0
    ],
    "bias_c": [
      0.0,
      0.0,
      0.0,
      0.0,
      0.0,
      0.0,
      0.0,
      0.0,
      0.0,
      0.0,
      0.0,
      0.0,
      0.0,
      0.0,
      0.0,
      0.0,
      0.0,
      0.0,
      0.0,
      0.0,
      0.0,
      0.0,
      0.0,
      0.0,
      0.0,
      0.0,
      0.0,
      0.0,
      0.0,
      0.0,
      0.0,
      0.0,
      0.0,
      0.0,
      0.0,
      0.0,
      0.0,
      0.0,
      0.0,
      0.0,
      0.0,
      0.0,
      0.0,
      0.0,
      0.0,
      0.0,
      0.0,
      0.0,
      0.0,
      0.0
    ],
    "weight_w": [
      [
        0.04200013194031699,
        -0.19165705665299432,
        0.19998160058304065,
        0.1312889932853542,
        0.17274221450775057,
        -0.21392272392970965,
        0.29742102922747765,
        0.16770027127363624,
        -0.2625977594243588,
        -0.14155538794641612,
        -0.2500875026620272,
        0.2753187617733654,
        -0.1349469174819581,
        0.20705931175379483,
        -0.04721988169202468,
        -0.12335071236393041,
        -0.3109471350588517,
        -0.24559941476826888,
        -0.25909065935116293,
        -0.15283357998989064,
        -0.17419474884151243,
        -0.2757817882464281,
        -0.273289283617475,
        0.13337247252230966,
        0.019762926747091236,
        0.039967529468570406,
        0.21197302021434167,
        -0.23424940938754912,
        0.06979944831929069,
        -0.28584966300698456,
        -0.2332147477416433,
        0.2043499309536872,
        0.27311078679596684,
        0.2373719142197817,
        -0.027973541372874056,
        -0.2052597403194871,
        0.2315458354865429,
        -0.26910067108705576,
        -0.051257289969969755,
        0.13377257172320112,
        -0.0037978078330901943,
        0.01856142696195273,
        -0.08001747333942599,
        -0.2598468805519355,
        -0.28434249300429004,
        -0.09652603906107901,
        -0.2349158048899886,
        0.06698780037758528,
        0.05048787408184524,
        0.002472820935156772
      ],
      [
        0.028323937491457174,
        0.2335551074670404,
        0.2011865238114237,
        -0.0875774716076606,
        -0.31183931178972535,
        -0.25680841232779994,
        -0.24988441898161912,
        0.13586346855924214,
        -0.22978379381197517,
        -0.2276372378717913,
        0.2458787911946812,
        -0.2234577365739369,
        -0.023669838156646084,
        0.2613964028148363,
        -0.118122073456076,
        -0.29109540057223593,
        0.0725614484528273,
        -0.017273660618308928,
        -0.05937279602951645,
        -0.027904769310274136,
        0.267664884452206,
        -0.0011629469681440074,
        -0.24262798336974714,
        0.2151689977860219,
        0.09876093812668318,
        -0.2099007919961709,
        -0.2561799414279592,
        -0.07902769623815584,
        -0.3117329469519883,
        0.30523668761360395,
        -0.036850197285397124,
        0.26854637725029423,
        0.12033739612233157,
        0.012087856568996413,
        0.06729944710979274,
        -0.2532938953256475,
        -0.22330675221970492,
        0.24381999720564979,
        0.15991713272293562,
        0.30914533037987174,
        0.2879637941466738,
        -0.18689554876731218,
        0.11074993810869654,
        -0.08659683428216197,
        0.07039649371205214,
        -0.26686102919233334,
        0.24282296342265647,
        -0.27818063709000573,
        0.15769710391207298,
        -0.1026831583885037
      ],
      [
        -0.09662089254810449,
        0.000367036342116267,
        -0.2817507438820729,
        -0.25914138790422714,
        -0.20962921064019907,
        -0.041157362593042424,
        -0.0669503539025959,
        -0.04997938319001255,
        0.28678626575488614,
        0.2805494900700411,
        0.22709709098430392,
        -0.060346576040354594,
        0.23441693385994694,
        -0.308942980979785,
        0.26255489203990584,
        0.2559693112174976,
        -0.10373978981286913,
        0.07545685203075259,
        -0.07307540663418144,
        -0.05133377068970618,
        0.1964839628918877,
        -0.1931414374727619,
        -0.030750108715203617,
        0.19793034295910955,
        0.04270253411116448,
        0.21094306854698547,
        -0.28387589886834896,
        0.25416165965119236,
        0.16601604750596732,
        -0.16576959067493316,
        -0.12039450110284361,
        -0.14627822416451633,
        -0.1255745641096492,
        0.23620890425462765,
        0.030672022194304094,
        0.06751727499560212,
        0.021840321400955043,
        0.27541187235951986,
        -0.23181317355474768,
        -0.18253904378517177,
        0.009912205661501139,
        0.22505830425980128,
        -0.23131741693429925,
        -0.2850473403489587,
        -0.2714328224166588,
        0.23097716496196324,
        0.06675855155627214,
        0.07581316502944846,
        -0.2644497061064358,
        0.2138673525155455
      ],
      [
        0.008979736123376825,
        -0.2795135254484058,
        0.24157566918383805,
        -0.016473775811227664,
        0.27255252854495754,
        -0.14237903489430215,
        0.23606766041823063,
        -0.3053163977573509,
        0.07251695786119827,
        0.22901556753821878,
        0.2055992781699844,
        -0.16945869978800263,
        -0.22789482527368227,
        0.04949677217556542,
        -0.16781903292746214,
        -0.29903504653412516,
        0.26702608613340867,
        0.26992792373770363,
        0.16815455449910888,
        0.08777682675280463,
        0.08234093612814375,
        -0.05301910739137278,
        -0.13507098191272907,
        0.18837304940741345,
        -0.23020810742845554,
        0.15888639747263616,
        -0.2960357397039245,
        0.09778450008516582,
        -0.1703892373096391,
        -0.27882393492408114,
        0.1961775215599731,
        0.07727644976917097,
        0.032128744905606466,
        -0.086272021278573,
        0.04357454987020987,
        -0.20067980660952964,
        0.007821736395372203,
        -0.3126604215837243,
        0.12490666338838663,
        0.2964535839308066,
        -0.16120987270542442,
        -0.24927992592639048,
        -0.08762586841957379,
        -0.13393806907936132,
        0.18049639366738257,
        0.05454322865361072,
        -0.2248974479628607,
        0.10827532132745626,
        -0.19322799098864266,
        -0.12488302045895966
      ],
      [
        -0.12642879498359388,
        0.02601986453020566,
        0.23953230172298973,
        -0.27028309199078415,
        0.26739339116383715,
        0.15661844025001143,
        -0.16797209800372867,
        0.14109299212678622,
        -0.09441066463823958,
        -0.2778403256690027,
        0.0021602464195803472,
        0.07333571056241106,
        0.11054959554364596,
        -0.017603761651213967,
        -0.026673180971279686,
        0.3134527006372733,
        -0.1594937662102618,
        -0.13653251670354843,
        -0.019128844643402143,
        -0.2421957379406096,
        -0.12504390996663542,
        -0.17074828902574626,
        -0.0013472723178886148,
        -0.05349749041851298,
        0.11269424993382327,
        -0.2534141191210693,
        -0.19224802997111579,
        0.21214582334319615,
        0.12181767899262402,
        -0.05342140993512595,
        0.26187819158560605,
        -0.10199090091077484,
        0.14861164582938236,
        0.29602359847076504,
        -0.17856548394176774,
        -0.011000583518052165,
        -0.25821039138757385,
        -0.05307508218187984,
        -0.24078736409475993,
        0.1909124027067431,
        0.16159555558720506,
        0.2748396635467522,
        0.2752361259424116,
        0.2242627262537456,
        0.11945827983753782,
        0.24201120580588847,
        -0.029987201274930764,
        0.009897664160345487,
        0.19696594454438127,
        -0.14908278915628698
      ],
      [
        -0.07412684728567498,
        -0.24981543055210048,
        -0.23755191179962934,
        0.10973240783588578,
        0.20843820276344732,
        0.17896570107158588,
        -0.25205385216296916,
        -0.2553160785913036,
        -0.20710740704209746,
        0.24414620185611074,
        0.23365612477931058,
        0.013086630491124185,
        0.2870089892320959,
        -0.022203069801476683,
        0.008569706810550082,
        -0.2897093296252745,
        0.0104936055730121,
        -0.159648805635733,
        -0.3078319716329057,
        -0.16265569511881586,
        -0.1042134162913396,
        0.12753997428648628,
        -0.16080241197043443,
        0.2940006245358027,
        0.2471353003803522,
        -0.20517384457262436,
        0.002820925078721004,
        -0.21123329972586308,
        0.0840888038741669,
        -0.20221301509541023,
        0.16807751174064534,
        0.2478433321219114,
        0.24819798043450064,
        0.10674251701097875,
        -0.22939782305166387,
        -0.2827879815709573,
        0.11038240500728796,
        0.21980196324623408,
        -0.24602873034524525,
        -0.05847720624220182,
        -0.14105475416698438,
        0.004917396203345137,
        0.30029280144353426,
        0.3155987980103859,
        0.0567403396417559,
        -0.21249608583193363,
        0.0030673751255907433,
        -0.012175192739105667,
        0.07621237340819959,
        0.03088691826242551
      ],
      [
        -0.1900683839816568,
        -0.2670187134811147,
        0.08209932274045856,
        0.14339442429667643,
        -0.042645487497772916,
        0.22301353150612174,
        -0.09120295636914924,
        -0.1908861464709584,
        -0.0659046261919094,
        -0.21023013222231732,
        -0.029106160099695078,
        -0.30158043187171385,
        -0.04978048108427352,
        0.21193778846979955,
        -0.10674550451829753,
        -0.06029958274459446,
        0.3025870226261112,
        0.20353839893456988,
        -0.1600070353129691,
        -0.06814396457568819,
        -0.07481076898442521,
        -0.027335790607531107,
        -0.22030320613440602,
        -0.03652240971096177,
        -0.058028739815939645,
        -0.066096026040461,
        0.013277234739027033,
        0.005089613632923429,
        0.050054134533078276,
        0.23738784911882,
        -0.2869523597586604,
        0.08162851339299954,
        0.08182491499638422,
        -0.101934451039974,
        -0.15728189919848662,
        -0.09111012655263903,
        0.21429034610877556,
        0.11471821584084985,
        0.10379940950108574,
        -0.03125665100662217,
        0.11846547399922874,
        0.0735974867838195,
        0.021609658797306863,
        -0.20755582247698484,
        -0.01172724767097405,
        -0.2714388406808036,
        -0.2789969943412506,
        -0.29794066776622236,
        0.27332117288002183,
        -0.21300397207128857
      ],
      [
        -0.14610943906819748,
        -0.25221164512170563,
        -0.1955224164683895,
        -0.17627801371763446,
        -0.041019915940655294,
        0.013867434243686139,
        0.10070211299425197,
        0.1729171923351202,
        0.25601635562925257,
        0.2402755465832948,
        -0.05993740946217918,
        0.06938910664836684,
        -0.2715945139940392,
        -0.31005577468329404,
        -0.16283640975247307,
        0.0017086610281412118,
        -0.0010796463820618718,
        0.04458102863241409,
        -0.24553262107482876,
        0.09581676423507063,
        -0.056855231031770925,
        0.23687623207605518,
        0.2857707696628064,
        0.1562720047666762,
        0.07560355614836506,
        0.14387081834233378,
        -0.3150326933737786,
        -0.19494716710843246,
        -0.3120271323168526,
        -0.008882377335026503,
        0.27474376911335013,
        0.008470932791285524,
        0.16382280655989,
        -0.09111915950850794,
        -0.29605838616901453,
        0.29159311349498135,
        0.24036325839603662,
        -0.018819002196762358,
        -0.029072510097462645,
        -0.2819515858616081,
        -0.2048567100164338,
        0.12684155197243963,
        -0.21853452099428755,
        -0.23081544142937016,
        -0.2893104026768064,
        0.1824629460926641,
        -0.2743191139128528,
        0.17931328317604173,
        -0.03281158385208821,
        -0.23530896278140404
      ],
      [
        0.12742997615116392,
        0.2512395966174282,
        -0.2500200977909505,
        -0.041411734673787004,
        0.05011200824832829,
        -0.17462231373204604,
        0.23434673794890276,
        0.023532998054072607,
        0.2809033012811511,
        -0.2723583097318305,
        0.12751748875864904,
        0.2835816129974887,
        -0.08180869643433314,
        0.10837801876936992,
        0.23948674700229927,
        0.28063759049450226,
        0.07478008959646298,
        0.13187234213940296,
        -0.0216304305799232,
        -0.2516452456563306,
        0.10284501716766908,
        -0.06954702863163625,
        0.2850477756045297,
        -0.08341438798883044,
        -0.3091826618367104,
        -0.050697274751951404,
        -0.008398640387314416,
        0.2595275880675671,
        -0.1738380798675385,
        -0.22190071356765612,
        0.29366127094912414,
        -0.29181236232761054,
        -0.19815204493830404,
        -0.2715530199076055,
        -0.2693970823145334,
        -0.1933674446382216,
        0.22178522661120353,
        -0.11423818104424865,
        0.08474413669550585,
        0.09964750927762328,
        0.23406808506456994,
        -0.1193336487061813,
        -0.07829670892499682,
        0.2844464561035737,
        0.2957273259448145,
        0.0945896719264202,
        -0.23128623356909794,
        0.009825840258701035,
        -0.2599379445864942,
        -0.27157822585170244
      ],
      [
        -0.1395491194897988,
        -0.015493507324171374,
        0.12698996978730342,
        -0.16930199018594025,
        -0.1817161367171431,
        0.030317252072605827,
        -0.2861283952249315,
        0.06099885018723156,
        -0.2847184858707008,
        0.03777933971023928,
        0.24737812939789378,
        -0.2920327078145388,
        -0.28239114036184576,
        0.23304867340054064,
        0.21642719198823185,
        -0.1147029711543529,
        0.24262178676746166,
        0.08855866067271656,
        -0.21510397829862415,
        0.26992785336255903,
        0.10274424146302247,
        -0.09286402817090342,
        0.20707936172199265,
        -0.09689737990952335,
        -0.032913543479155094,
        -0.22539064977318998,
        -0.20521260994961582,
        0.14812437815134838,
        0.2393258042867304,
        0.1393392783422856,
        -0.28092799186440204,
        -0.09612256869429653,
        -0.014452573056314533,
        -0.23426396469882427,
        -0.2630237706625305,
        -0.26544844049731187,
        0.30390691498112704,
        -0.2377768070284038,
        -0.035640088090736766,
        -0.11807966175895335,
        0.07704789858070688,
        -0.19369174770602982,
        -0.27005123741400755,
        -0.15893866047036104,
        0.2686806614151837,
        -0.21631076319545667,
        0.30143762715373784,
        0.2791459758235411,
        -0.04694608733988204,
        -0.11055328054398245
      ]
    ],
    "weight_v": [
      [
        0.07018756439617257,
        -0.012684867209636408,
        -0.1927626580248692,
        -0.1644418039801594,
        0.05962627434454426,
        0.004281990848793826,
        -0.03086791188479393,
        -0.2537322518646688,
        -0.07547887742248849,
        0.17767521261995556,
        0.03149046312389364,
        0.0717303560794581,
        0.017217655506154228,
        -0.002173010085703142,
        0.1473941099062248,
        0.08565334839264155,
        0.1830077877124009,
        -0.21470266941209298,
        -0.10835844684729362,
        0.23562339366944246,
        0.1448704759166755,
        0.11024708761428703,
        -0.19004035728665522,
        -0.06072399500424719,
        0.17328335499394854,
        -0.22734982691841604,
        0.06701229626057836,
        0.1653754761385433,
        0.07511409121932239,
        -0.2500495958641424,
        0.23754469454081933,
        -0.1301739998958233,
        -0.20092888991263397,
        -0.16851404211961443,
        0.1953235326806449,
        0.10631721619963497,
        -0.1459710704840269,
        0.20620078154191868,
        0.1274438207906753,
        0.015117877412445246,
        0.060035375033875515,
        -0.26163868756320413,
        -0.06179359857822336,
        0.20378278609327016,
        0.02213621530250237,
        -0.0644604755729459,
        -0.22065723443457202,
        0.1366255950279039,
        -0.06829436513344006,
        0.16469126793268585
      ],
      [
        -0.2415480961498694,
        -0.1382785474208886,
        0.11844895618412327,
        -0.1772992302065925,
        0.2513912552891007,
        0.06928993416608648,
        -0.05697141521818322,
        -0.20655339799128858,
        -0.26532113225342574,
        -0.020548869205898435,
        -0.030130780068371554,
        0.03922206272897033,
        0.024536411956624093,
        0.06298499569040955,
        0.07202630855703934,
        -0.07289460539018702,
        0.05061661514393684,
        -0.22037756461645586,
        -0.11263957164087823,
        -0.1910351285133799,
        0.032351622186645335,
        0.25698330532416774,
        0.17548242253970103,
        0.10591739091130642,
        0.015541191655324027,
        0.06665309186210705,
        -0.1840181795817061,
        -0.1857652678823601,
        -0.10660034325272089,
        0.056064264546379694,
        -0.20667520504458117,
        0.07279233254169798,
        -0.030605948370657443,
        0.24854807630414838,
        0.11405774513046973,
        -0.21671257544829098,
        0.26513205447434446,
        0.2134323470206147,
        -0.19448188173883146,
        0.1981983212578357,
        -0.12443325093978838,
        0.15633040797542053,
        0.2718791813959445,
        -0.08263397060037561,
        0.18596531435405544,
        -0.012608043961207793,
        -0.19016120002371012,
        -0.014778584719260468,
        0.19642961753988575,
        0.16819873976830468
      ],
      [
        -0.2025851942177699,
        -0.25660072951017365,
        0.05937063544275467,
        -0.04408016550346344,
        -0.23246212364621843,
        0.24955848548905785,
        0.07360302300315302,
        0.1504274258895032,
        -0.2535081255590656,
        -0.12343850720900307,
        0.02561012167961013,
        0.14776068577346713,
        0.028897497129227956,
        0.2068973427110844,
        -0.1919881554332806,
        -0.18544801828909002,
        0.03379065740890236,
        -0.02406577460421555,
        0.27777695192777,
        0.045318755139156564,
        -0.1667988717542034,
        0.24784786663866637,
        0.28887109964914554,
        -0.07051509315834734,
        0.15953454936901096,
        -0.16127405965295769,
        -0.29042081058856045,
        0.029881454631608018,
        0.0675608231093926,
        -0.13113040510321677,
        0.1991377937772475,
        -0.11687615050017017,
        0.23564016128252113,
        -0.028891274607576345,
        0.2499348375988804,
        0.16800269115579491,
        -0.22093467138702966,
        0.09436189175326332,
        -0.18619177706851506,
        -0.17208461753545012,
        0.19540597036188584,
        0.08983384971226127,
        -0.25949880564433664,
        0.18638433856568665,
        -0.08855258688056383,
        0.284244399299359,
        -0.03658992170506703,
        0.13763839944941425,
        -0.16080881632394853,
        0.02409069910218925
      ],
      [
        -0.061684847920259744,
        -0.2302150404829612,
        -0.16792526070827268,
        0.2865052077540969,
        -0.01170692297206205,
        0.2534386882043011,
        -0.24213612975044915,
        0.21768453097196278,
        0.14204193545735994,
        -0.12974989205258386,
        0.12808510725141464,
        0.06588088761415278,
        0.09970103520666329,
        0.27389408128072285,
        0.02881798436839622,
        -0.08595168072684473,
        0.24176913835095287,
        0.18155251523289195,
        -0.0889652246239199,
        -0.2048988813657211,
        0.07972158165695664,
        -0.06957977570577448,
        0.05587746379504899,
        0.2725328543432733,
        -0.251230702007628,
        0.21821361070017137,
        0.25484979221697596,
        0.2132114278456893,
        0.11112889051326852,
        -0.25791727238712975,
        0.056302309146072316,
        -0.06433240892407113,
        -0.25784652932380064,
        0.12975332198842038,
        -0.2552556771921003,
        0.267356925989281,
        -0.09091971613354738,
        -0.2278458892632206,
        -0.2797556091998344,
        -0.18149817078702088,
        -0.12398059740775344,
        -0.14588946835089264,
        -0.2536110823656671,
        -0.24379244683895873,
        0.2768934750002104,
        -0.15295605571095147,
        0.22219670828580435,
        -0.06770023001310438,
        0.1310081581620049,
        0.1928067218958079
      ],
      [
        0.2872975414078461,
        -0.08766550143480142,
        -0.08229766652319617,
        0.11007738221461832,
        -0.17525154397750228,
        0.2283263238079492,
        0.0743512867652773,
        -0.204632960514475,
        0.04546708931618515,
        -0.2910467019677608,
        -0.11126761480288133,
        0.00733889008978289,
        -0.08304895449249722,
        -0.22194474348227072,
        0.01878900747219403,
        0.004958915148942644,
        -0.2787921980702222,
        0.20955334380079355,
        -0.10689955101517729,
        -0.08597362119275359,
        0.07009321563869791,
        -0.277180365017376,
        0.2453197523907708,
        0.17040365004293767,
        -0.0043062415746542015,
        -0.1732462366041599,
        0.07205567196001078,
        0.017828581657267306,
        -0.16087949169612029,
        -0.16044250111512878,
        0.07106765155174655,
        0.28527095756694926,
        0.020884990345657273,
        -0.16310358117658577,
        0.2904928285064576,
        0.06606461775287376,
        -0.22970750975930126,
        0.25752103941479837,
        -0.2803497291729109,
        0.03788264194641283,
        0.2758036009410976,
        0.14867554518751158,
        0.2913784429067911,
        -0.07343278054021246,
        0.04910524263353816,
        0.14318761756843534,
        0.07669288150081016,
        -0.1343728343822268,
        -0.026093375221682036,
        0.10981007574593821
      ],
      [
        0.2491126000914538,
        0.046716902627559675,
        0.08121123272946679,
        0.15599615995058136,
        -0.17627555948956586,
        0.23317840921837502,
        -0.25152733809647326,
        -0.051474675226272554,
        0.12885371052909333,
        -0.05529017790097762,
        0.010547554309873752,
        -0.27477316777321353,
        0.27873278651084593,
        -0.2893773913446623,
        0.1844615339433054,
        -0.15050769338646325,
        0.20512609205925053,
        -0.08194791436462126,
        0.08500604589274324,
        0.07113171716392908,
        -0.177510140125749,
        0.10533262932566456,
        -0.29146836369271334,
        0.25279032655709793,
        -0.0038997176728479133,
        0.07935128789665336,
        -0.2359568777654099,
        -0.218973965339628,
        -0.18374301861529527,
        -0.04909880624752952,
        0.011867306203001526,
        -0.16796142502656292,
        0.28161436481978447,
        -0.022339486832628375,
        -0.10646324003961752,
        0.008599977564976713,
        -0.07946159049131077,
        0.11086216598213544,
        -0.17333939791192943,
        0.004232148069969965,
        -0.29122756899644453,
        -0.18548398834832033,
        0.22519632155667585,
        -0.11739676992701717,
        -0.11727748530506227,
        -0.05969704226010775,
        -0.11450205961679083,
        0.02211934993115322,
        -0.004963473588717793,
        0.2417614574987525
      ],
      [
        0.17022806667276758,
        -0.17239236217565382,
        -0.21212595791192773,
        0.28943386174335234,
        0.018238023314986918,
        0.12476915800586336,
        0.12380244328724604,
        -0.0735589780368209,
        -0.0464266993051308,
        -0.06900727735402581,
        0.11864158482286352,
        -0.11697860060681817,
        -0.21871693854368734,
        -0.0021529278124047813,
        0.23386986358143919,
        0.20245028520716807,
        -0.2365802555163573,
        0.09401226420750886,
        -0.27849988871242176,
        -0.09837297168906953,
        0.2704882125699363,
        0.24781826695692205,
        -0.2530578382685117,
        -0.14348196454929452,
        -0.18069610231437824,
        -0.1619453528469971,
        -0.030291379324269563,
        0.1701048559540868,
        0.00847763569844956,
        -0.03723824106493212,
        0.1526918285692176,
        -0.14640604035000024,
        -0.23438400924833597,
        -0.12372078118929039,
        -0.2711911378687261,
        -0.2803061492835384,
        0.2687038323387099,
        -0.1069773736801487,
        -0.14428165880422186,
        -0.2659515508298436,
        0.24482398397725041,
        0.20533455645041482,
        -0.09182178301312041,
        0.21352780559860834,
        -0.17212877594822934,
        0.0042270925687031835,
        0.27070459370046535,
        -0.2804852802930543,
        -0.012916278170727935,
        -0.28494919603447155
      ],
      [
        0.23860738267283138,
        -0.14108708333789285,
        0.07556740267655898,
        -0.2649163253959209,
        -0.15409593512502026,
        0.13914741857178342,
        -0.1392449450735104,
        -0.26050592261440636,
        -0.27495107636930766,
        -0.02218839597568406,
        -0.07576575115480905,
        0.007999809609288144,
        0.2390676701834052,
        -0.07809274425333121,
        0.13634731421993895,
        -0.1891111685395035,
        -0.024612852016319964,
        0.08396876866372449,
        0.18532522628748294,
        -0.2659745361826106,
        0.2387203172513464,
        -0.027000967235199846,
        0.09751715907703407,
        -0.0054397717821618174,
        -0.1258611065207945,
        -0.12293596386103325,
        0.2842204050454756,
        0.21081151699849082,
        -0.07113247505456466,
        -0.1524292169733517,
        0.0032332385050510837,
        0.2302437238794462,
        -0.14829320013900227,
        -0.07550964938495955,
        0.1630775747010345,
        -0.13625212466335856,
        0.11283390869254872,
        0.23390990415419782,
        0.09782677547522534,
        0.06704643617115313,
        -0.283803454394789,
        -0.10038555676458885,
        0.281064759422284,
        0.1288868546598017,
        0.19071427878226727,
        0.18519784076135076,
        0.2346106861014478,
        -0.21148162585096256,
        -0.11437805853188587,
        0.049428424450619846
      ],
      [
        0.028552593455777875,
        0.03369116672901323,
        -0.2809322214177093,
        0.02390037630039049,
        -0.10508264189018901,
        0.27404513411117,
        0.05414631290905736,
        -0.09998274042151209,
        0.27935041276258404,
        0.15242789494681408,
        0.27897226667511893,
        0.21064087097356293,
        -0.0857834972173421,
        -0.13072829787116383,
        -0.20563572916348122,
        0.2323757609000598,
        -0.15409178788041744,
        0.03218071961933949,
        0.05520224618475261,
        -0.16432765002625255,
        -0.016743895327718472,
        -0.2865037563651593,
        0.288779182730917,
        0.14362811890601207,
        -0.26492697354363554,
        0.08224086535727415,
        0.27074691609385787,
        -0.248621160796762,
        -0.22178106583040708,
        0.28350938544529686,
        0.06741589045328089,
        0.03943346501978107,
        -0.1269384458070085,
        -0.175034244002225,
        0.20674837967267506,
        -0.14527376005098933,
        -0.061498232018786125,
        -0.2018669009883945,
        0.0069876129359418004,
        -0.24483089684075318,
        0.055809720153105036,
        -0.18735965737469729,
        -0.08501953773051552,
        -0.22190053014481048,
        -0.1880330643161207,
        -0.1751017624416646,
        -0.07850628642895882,
        0.24584397846004818,
        0.15986081391423534,
        -0.1702688646000926
      ],
      [
        0.2524967637320555,
        0.2820425539802615,
        -0.2167727853393472,
        -0.03580032039719455,
        -0.03484440001867756,
        -0.002719611780168718,
        0.2713846918486969,
        0.09472844266707814,
        0.084837996201162,
        0.267680279274953,
        -0.1164190063707132,
        -0.016319067015384714,
        -0.2591244809497337,
        -0.10802484751476518,
        -0.2797433503551471,
        0.10459748265933133,
        -0.2291859772494103,
        -0.259886211484286,
        0.28175354228919897,
        -0.2554967264421149,
        -0.2707776344549481,
        -0.2658727563115936,
        -0.15677329682562147,
        0.10853038477225546,
        0.08955784971792546,
        -0.2763778461033468,
        -0.16619594780914548,
        -0.10028399827313283,
        0.22819348255489097,
        -0.09549111456656317,
        -0.0801635394057364,
        0.142178192970065,
        -0.06419951102850963,
        -0.19148482374283954,
        0.15570955769917988,
        -0.09999774777061751,
        -0.02883253713812567,
        0.18262790016428604,
        0.08085321057730072,
        -0.10252307687227458,
        -0.26771229427987403,
        0.19164898021044457,
        0.04130783809271865,
        0.2533812510408739,
        -0.1419240479872622,
        0.17033484832451495,
        0.2684738620884683,
        -0.04613535775224015,
        -0.16873838382739542,
        0.26370240316880805
      ],
      [
        0.013728430433107786,
        0.002196824050389068,
        0.10682318106045735,
        -0.025662076390189303,
        0.04094520223076392,
        0.04298939546527114,
        -0.16902089097041645,
        -0.24747462218810265,
        0.14479874455854191,
        0.27777351269785183,
        -0.1601673637563514,
        0.2708282328532395,
        0.17655374159398968,
        0.20271153623164406,
        -0.07796054209018657,
        0.03157670236238358,
        0.15232526082882164,
        -0.1036410016397396,
        -0.1890084022721235,
        -0.02813827453924206,
        -0.09151672172978553,
        -0.2274792060841145,
        -0.2623472931317652,
        0.005506136334477663,
        0.05725867190964978,
        -0.24755725815755666,
        -0.18739047434159373,
        0.13550484528102075,
        -0.178029708931846,
        0.011987610498846502,
        -0.1416148720177257,
        -0.027295503630065165,
        -0.07984970216968504,
        -0.09464159218117896,
        -0.10495529781725801,
        0.10252626431809536,
        -0.26314706406354305,
        0.08209216468880493,
        -0.13570465665217243,
        0.12523773018690504,
        -0.28230992043508796,
        0.00998034101525569,
        0.11323441317855015,
        0.010289929845384627,
        0.0301079830783631,
        -0.01075417381685223,
        0.21884313287630414,
        -0.10785568110354249,
        -0.14418353617666338,
        0.08110442556063452
      ],
      [
        -0.01064375753990876,
        -0.07769650204364048,
        0.28603833801669026,
        0.18593877845085416,
        0.04861256336413938,
        -0.20490868909895119,
        -0.0531057835297469,
        0.019553651575774433,
        0.1924901976639452,
        0.10729714650685407,
        -0.013343085359491247,
        0.20166866533730715,
        -0.18878079956915017,
        -0.06369353965194463,
        -0.22084342149994493,
        0.1584251712280934,
        0.05270295091461202,
        -0.01877135718990086,
        -0.06973225184663912,
        0.21320084190592942,
        -0.010175983436891023,
        0.18678381234880198,
        0.2453634830776616,
        0.12946638942453215,
        0.01897979386194948,
        -0.03355283883257143,
        -0.06927056878003329,
        -0.006246880165041047,
        -0.10559415347218637,
        -0.26897316559940126,
        -0.28990397482519403,
        -0.04289107732006306,
        -0.15239688620322134,
        0.2388983081035218,
        0.20269003184712459,
        0.08353703035510845,
        -0.16781109355318263,
        -0.04661941942314693,
        0.11744853499427516,
        0.16887322699492802,
        0.16492585994926834,
        -0.09789953916835442,
        -0.22171577355942756,
        -0.08025141918281359,
        -0.16364807382397284,
        -0.25839465537869216,
        -0.10472917376113325,
        0.0209302520680259,
        0.11541368329516005,
        -0.15623717472342966
      ],
      [
        0.18323057800385134,
        0.14766783755682023,
        -0.16075486652644105,
        -0.1451721900507693,
        -0.21161587661928094,
        0.060590798612189634,
        0.0516829511526985,
        -0.18767490112417426,
        -0.02257922316713873,
        0.06500462454050654,
        0.17233544708704313,
        -0.18428718326701743,
        0.02705027747797295,
        -0.12102473807333344,
        0.01854366549250558,
        -0.2013689669872017,
        0.182484573860558,
        0.009876702009749605,
        -0.0014234803684448072,
        0.08207082605274141,
        -0.15002179687118455,
        0.11861104326133565,
        -0.17632491991339533,
        -0.18400600303034867,
        -0.13495427782744943,
        0.274493200588206,
        -0.2526065611143111,
        -0.284651662941958,
        0.16637436457655835,
        0.21141392482049176,
        0.0982277090051345,
        -0.010893572339955415,
        -0.009333741801802409,
        -0.03087712901257006,
        -0.1408225064117501,
        -0.2467880468704694,
        -0.2485473456852911,
        0.14150021684770914,
        -0.2638863887827052,
        0.12892785537110774,
        0.14897655669975501,
        0.00502134523075537,
        -0.2155261807199197,
        0.27166293388246593,
        -0.21767999349799172,
        0.05600460655523998,
        0.23420001087298387,
        0.04734388523078792,
        -0.1180420772328157,
        0.18083555087678438
      ],
      [
        -0.2675354811862334,
        0.15563009685187995,
        -0.2528208053890933,
        0.029402886121004723,
        0.03363664037049141,
        -0.058025005329117224,
        0.12656193832258983,
        0.228800264530777,
        0.12968426194503585,
        0.017667290343894138,
        0.20161858062430882,
        0.24522491618645842,
        0.1767593057746839,
        0.06357650238529289,
        0.06722030627104253,
        -0.20137742965256505,
        0.16759939041691618,
        -0.1787628697674445,
        -0.12370321085263111,
        -0.22280700011790183,
        0.06839187633806904,
        0.017213782406389322,
        -0.06839646810672845,
        -0.25449887548397776,
        -0.10992809254200908,
        -0.03463361582853247,
        -0.2785649952344701,
        0.15936812677810103,
        -0.21390454680226328,
        -0.11333755112009097,
        -0.25359199005427246,
        -0.1110635769123583,
        -0.14265018221680442,
        0.2496458113368521,
        -0.22500619697525093,
        -0.036819235283043095,
        0.18877294917890858,
        0.09539530486220665,
        -0.23442433861522735,
        -0.28692027723449537,
        0.11618190034196091,
        0.11375108737567619,
        0.020382684385624183,
        0.27566267937743866,
        0.06704946580006554,
        -0.03407525121364552,
        0.18047780037557226,
        -0.06054636897367316,
        0.1750209957997073,
        -0.2606080517115059
      ],
      [
        0.2575040738084788,
        0.1794389115672294,
        -0.009222369544435283,
        0.14462323799055343,
        -0.03339226649922489,
        -0.13842723292639625,
        -0.05580542363853186,
        -0.1940425720280465,
        0.2608253326101106,
        -0.20484217586536896,
        -0.19668111778603467,
        0.17237367278908333,
        -0.04585143184331958,
        -0.00411394766873463,
        -0.26475438736803686,
        -0.09397471018214562,
        0.04069293342436853,
        -0.050052751787138944,
        -0.1096145968619888,
        -0.05986072445288773,
        -0.11731929307009797,
        -0.08627047952270411,
        0.07026298013656573,
        -0.26120267322786456,
        -0.02477695554282,
        -0.10789006804577253,
        0.0791175158538695,
        -0.08787143315148727,
        0.10337006480185307,
        0.23826650542697664,
        -0.06909949415850203,
        -0.059636861266010505,
        -0.2570765042870564,
        -0.2567051810344814,
        -0.09168459420052483,
        0.1889272131457595,
        -0.023720490867031818,
        -0.024989587396990365,
        0.08908348146023692,
        0.11590824647177744,
        0.14254573083378524,
        -0.1297380706422657,
        -0.2041979291370923,
        0.23344001037912404,
        0.038438373711143836,
        -0.12265367086291043,
        -0.03199459066965682,
        0.16561740661925084,
        -0.21782037681505406,
        0.1937419039258757
      ],
      [
        0.19364537962787237,
        -0.1997349088465232,
        0.14225292144123203,
        0.0072100095264382436,
        0.10936213613539347,
        0.29203419217590404,
        0.10884538009318573,
        -0.23399766936531546,
        -0.1367623714421472,
        0.26052592680640513,
        0.23596762722273307,
        0.2688089824745707,
        0.17278985751063936,
        0.1685573685803614,
        -0.2751238290512666,
        -0.10765311787551446,
        0.03668006428703946,
        0.17908349825161207,
        0.2779005320317948,
        0.27233713248663666,
        -0.17059477740901735,
        -0.2523376517591654,
        -0.0572816771690767,
        -0.15872988778719968,
        -0.028413371439216073,
        -0.10058392844035266,
        -0.07731722715631797,
        -0.020151479120604998,
        0.16247157160449432,
        0.21018382943084907,
        0.2567756293925875,
        -0.029174187359177206,
        0.21997169871519412,
        0.0797929540334108,
        -0.08030793731788083,
        0.012005024271648346,
        -0.05847468273913026,
        0.2636073479405719,
        0.19513814197757623,
        0.20307064726947605,
        -0.12126583061616411,
        -0.1958743702839309,
        0.12578309822206174,
        0.039105562831122376,
        -0.2235169258656136,
        -0.17544444689378252,
        0.170988384322818,
        -0.08768800476310232,
        -0.14457645648524348,
        -0.1633664113234224
      ],
      [
        -0.028862672812150103,
        -0.005554367347818778,
        -0.1393147684478455,
        -0.11485206904044654,
        0.13739767014214482,
        -0.08792018894033007,
        0.08498755614544967,
        -0.22085163731042184,
        -0.18221405163985577,
        -0.2879093737024485,
        -0.23362297946347801,
        0.11380055573889641,
        0.20091289945844748,
        0.1921320318181302,
        -0.02485204508768235,
        0.1321431911562908,
        0.06940003765234387,
        -0.11737134906341953,
        -0.027933164335028904,
        -0.0334848769512579,
        0.1978924676879627,
        -0.17418797986879078,
        -0.20002347537546,
        -0.23217276177929377,
        -0.12369558198400554,
        -0.21044524333203418,
        -0.19319068227316943,
        0.2046358856350507,
        0.17653728699663107,
        0.2519515589748435,
        0.1980762811696251,
        -0.23404587958517464,
        0.11129617839546435,
        -0.1361176936569962,
        0.2304467335239107,
        -0.12505442528183142,
        -0.11377174151793848,
        0.26507351136609064,
        0.14810000230307646,
        -0.1930603424690216,
        -0.20978798675666177,
        -0.13481603161338362,
        0.1848741920508064,
        0.049334374409001236,
        -0.2048427134292451,
        0.12651045769546476,
        0.06734595450264336,
        -0.19356044725897925,
        -0.23504144153140624,
        0.013210322456651935
      ],
      [
        -0.10668361241717797,
        0.046713165416439606,
        -0.10342093932516774,
        -0.1720158382942072,
        0.12982906536826583,
        -0.07675637009311378,
        -0.046952641135189876,
        0.06008812860510415,
        0.24976335035803726,
        -0.15912988786205642,
        0.0712518331953449,
        0.10826517012710252,
        0.0975273857148547,
        -0.24088650014534618,
        -0.18172909498344247,
        0.27955773795471167,
        -0.19909740844326104,
        -0.15730417936499605,
        -0.2679498641301282,
        -0.15690775585660302,
        -0.23564475190959255,
        0.037761302799006635,
        -0.08108204335743494,
        0.1866035513637921,
        0.004729741788139952,
        0.09966254565063365,
        -0.1468784767751976,
        0.06397890267291384,
        0.168759219323314,
        0.22832417039771086,
        -0.2363774240136592,
        0.22585730148294086,
        -0.2879573393984952,
        -0.14975292898604073,
        -0.1571042688423816,
        -0.23437278877301743,
        -0.14366016892891248,
        0.12087031830898287,
        -0.06673240398400432,
        -0.005661920332536152,
        0.24933334521774392,
        -0.0706041930905153,
        -0.10931937154694807,
        0.005244042982123109,
        -0.023987288111434524,
        0.04565512574677211,
        -0.046220034432734425,
        0.19019262336496695,
        -0.013916958684970115,
        -0.23907742750834407
      ],
      [
        -0.10537927746068285,
        -0.14359676489409173,
        -0.2162952373163795,
        -0.2144433253115816,
        0.256645975941259,
        0.17919322536271887,
        0.18343716675851623,
        0.2749170476248188,
        -0.0011819199517116852,
        0.2115720782071457,
        -0.12791818993586873,
        0.22645754488941078,
        -0.22469967095667442,
        -0.1524382613945906,
        -0.08429504590013037,
        0.1553333763166227,
        0.22930744556408816,
        -0.2821243434031139,
        0.24464788697464285,
        -0.24075263442154246,
        0.20330510253133,
        0.2601535901497484,
        -0.001820055342275806,
        -0.1174700498249927,
        0.28373954551341135,
        -0.0014388196116428276,
        0.2072764930161765,
        0.17156682639983495,
        -0.021210416318019176,
        -0.125684653253083,
        -0.07984418203866403,
        -0.1174279207516929,
        -0.10688351652712891,
        -0.04266124906646174,
        -0.15859016714703078,
        -0.25505115803915407,
        0.04753748191030671,
        0.0887184215854091,
        0.20321658673330883,
        -0.11414288041091009,
        -0.23585315232147047,
        -0.02595495170088885,
        0.020234608266154863,
        -0.09219882901420873,
        0.08914276237508684,
        0.23147104479778818,
        -0.02634277942093205,
        0.02149821701750987,
        -0.28331047352164507,
        0.10872911553714232
      ],
      [
        -0.26297647730962936,
        0.22475612850590193,
        0.10828548898222479,
        -0.27206014984892074,
        0.11234189874447681,
        -0.10707401881562809,
        -0.0950586564272771,
        -0.24607661531753075,
        -0.05797309671446568,
        0.24886980034855372,
        -0.13075194869951406,
        0.06192366999594656,
        -0.1519947375461903,
        -0.0368243052861158,
        0.2377334903462795,
        -0.15523173116827133,
        0.19242995781785566,
        0.2580961485956014,
        -0.24662986053503505,
        0.13114027565920205,
        -0.006718277604861045,
        -0.04819704350711557,
        -0.01453840316230759,
        0.09591662260342798,
        0.2793634845602119,
        -0.05031045264210374,
        -0.04166906701876172,
        0.1863024476602999,
        -0.03699890125003097,
        0.26598183210989795,
        0.24901627559891387,
        -0.18481132411193435,
        -0.15925820301266272,
        0.24146588590463042,
        0.05440705235760912,
        -0.0653602228589748,
        -0.14874274329685142,
        -0.28515424324252925,
        -0.08971723926642125,
        0.0985761132064496,
        -0.09439504795681841,
        0.2811320377563998,
        0.1525202046117381,
        -0.11377197997979671,
        -0.07166312617016668,
        0.11195154903584009,
        0.06460028079295332,
        -0.23393709768313123,
        -0.08929151771638333,
        -0.0576188268620875
      ]
    ]
  }
}