{
  "num_class": 10,
  "num_hidden": 50,
  "num_visible": 20,
  "params": {
    "bias_b": [
      0.0,
      0.0,
      0.0,
      0.0,
      0.0,
      0.0,
      0.0,
      0.0,
      0.0,
      0.0
    ],
    "bias_c": [
      0.0,
      0.0,
      0.0,
      0.0,
      0.0,
      0.0,
      0.0,
      0.0,
      0.0,
      0.0,
      0.0,
      0.0,
      0.0,
      0.0,
      0.0,
      0.0,
      0.0,
      0.0,
      0.0,
      0.0,
      0.0,
      0.0,
      0.0,
      0.0,
      0.0,
      0.0,
      0.0,
      0.0,
      0.0,
      0.0,
      0.0,
      0.0,
      0.0,
      0.0,
      0.0,
      0.0,
      0.0,
      0.0,
      0.0,
      0.0,
      0.0,
      0.0,
      0.0,
      0.0,
      0.0,
      0.0,
      0.0,
      0.0,
      0.0,
      0.0
    ],
    "weight_w": [
      [
        -0.3106792239945323,
        0.10947061532160912,
        -0.12389114552913322,
        0.0008485330786839329,
        -0.06320908784157142,
        -0.03197710958988892,
        0.1405897180776542,
        0.09014730122701348,
        -0.2695708400881693,
        0.1919608902656132,
        -0.2879592344256416,
        -0.24118923006098686,
        0.18592580383299068,
        -0.006588407390144768,
        0.20139295465622659,
        0.2677969468971267,
        0.2747069560769991,
        0.049229313781044226,
        0.1915821965395868,
        -0.10851224979685092,
        0.12689628632429362,
        0.056046902405724075,
        0.21370855448106257,
        0.23749272672704186,
        -0.10683637560153564,
        -0.10256878268041564,
        -0.09034636360293266,
        -0.13028237797318434,
        -0.3040121730223271,
        0.1675734134897322,
        -0.17025441164292385,
        -0.27344952182528487,
        -0.03819865135146522,
        -0.09772163301085979,
        0.22007791137694027,
        -0.28937975684041645,
        -0.09072922502752392,
        -0.06765229132190814,
        0.14841490658831635,
        -0.18270626565960826,
        -0.23580588063061036,
        0.237303010229081,
        0.15689702962623098,
        0.30508506217837866,
        -0.11373332534539671,
        0.070897046097402,
        -0.04740985815379878,
        -0.056681959792147685,
        -0.1642299390514002,
        0.19670874026581991
      ],
      [
        0.2264599644811907,
        0.2003502203049538,
        0.31401264262697076,
        -0.22598696458360218,
        0.2129543128253793,
        -0.28834643155399664,
        -0.14429014591403505,
        -0.22463266706468457,
        0.06821786683179226,
        0.26091891956631014,
        0.09555926041477503,
        -0.21902001483889366,
        0.06867295779851551,
        0.21345793748987435,
        0.0831639314321358,
        -0.19145119479774958,
        -0.23780191698855996,
        -0.2683175064449872,
        0.12249950021126138,
        0.04993312926472543,
        -0.25664342974832993,
        0.050652762676241636,
        -0.11023644871589186,
        -0.26812752181031835,
        -0.23243625410882957,
        0.2874441954903196,
        0.21243248944109255,
        0.12909264633246842,
        0.14629366626653517,
        -0.2641463982018455,
        -0.14585988043234213,
        0.2779099246792836,
        -0.12534856548525306,
        0.09728790879613308,
        0.08494127804437313,
        0.15238214712506903,
        0.05424144884579729,
        0.19362383461915683,
        -0.13047490681370533,
        0.13427581445136666,
        0.28680654120226995,
        -0.23456646038746504,
        -0.13392269702613854,
        -0.2965834503752279,
        0.2775191765608365,
        -0.2007774145632153,
        -0.3001150722074031,
        -0.05849452591136223,
        0.316072171362719,
        -0.044039130394212034
      ],
      [
        0.03818052721805565,
        -0.14851705758527725,
        -0.03571517402529267,
        -0.0796692640857335,
        0.282203047598455,
        -0.1450084657902933,
        0.21540461406651762,
        -0.1362339213670744,
        -0.08531264679187511,
        0.11106093072359374,
        0.20385574940226897,
        -0.03547653802050693,
        -0.04184214752958698,
        -0.19746454067509367,
        -0.007213274695033689,
        0.29369693719901563,
        -0.059237770460718486,
        0.0281583534012233,
        -0.2636492020888834,
        0.17893395352830305,
        -0.0013172931166680057,
        0.17758074389197437,
        -0.2480192461578769,
        -0.1687866205811443,
        -0.09669288956331995,
        -0.31379221195933127,
        0.01292288184663054,
        0.31542694392566967,
        -0.3038431985999658,
        -0.03774098526669961,
        -0.243336576432147,
        -0.30869999452499897,
        0.08325444803277249,
        0.23863853773051497,
        0.12892208128043986,
        -0.1672314843553523,
        -0.024648549254819296,
        -0.19384585659521905,
        -0.1978839660024478,
        0.03950199180791125,
        0.17742376176150304,
        0.096736935207698,
        -0.07018639133800761,
        0.02123282166365953,
        -0.31058982674212793,
        0.02080512430566034,
        -0.2013345214361681,
        0.11141250312295026,
        0.261046819186418,
        0.31307663480232767
      ],
      [
        -0.0632654000619981,
        -0.17580315116784503,
        0.18796219501146488,
        0.28613383267151965,
        -0.09874665436564439,
        -0.17940644901295785,
        -0.18340410399495297,
        0.25933814268934957,
        0.02447158242587516,
        0.3109859386612747,
        -0.06403996245042726,
        -0.2797855851738205,
        0.21377098153433743,
        -0.24646077946503173,
        -0.08351246819630925,
        0.07148307845187157,
        0.1496338250995204,
        -0.12778802143857892,
        -0.22668061201535444,
        0.11319147532340595,
        0.2787555226542882,
        -0.0012005308416588312,
        -0.05527720479780551,
        0.20904177246923022,
        -0.19485759979920672,
        -0.09172197179879535,
        0.10976425940331497,
        -0.04921383983755451,
        0.12704317500151902,
        -0.29713968787285866,
        -0.2413894629530695,
        -0.03975684419077524,
        0.17195790026582453,
        0.286167430931123,
        0.15430863494260805,
        -0.26892872470765533,
        0.18970134848830017,
        0.0036250383449186185,
        -0.03282205510261954,
        0.010175737956118813,
        0.28854812172126404,
        -0.20441913369158138,
        0.25189947063831847,
        -0.025986671933152294,
        -0.06868061978188722,
        0.2632905559889938,
        -0.12227849679293584,
        0.20731874683277812,
        -0.12860265990634584,
        -0.054590987845034744
      ],
      [
        0.21146775489135466,
        0.2362243210972403,
        -0.21909698151251453,
        0.1369850579606518,
        0.21742280083663973,
        0.022105885320765628,
        0.02835877013601168,
        0.09384497649881457,
        -0.20214937068106575,
        -0.2104900290822104,
        0.018021232740079662,
        0.1217506407923713,
        0.25948720009174747,
        0.1957128999038888,
        0.30330647121142534,
        0.2298299269696789,
        0.23325870840108592,
        -0.06933971873551176,
        -0.02805597050570996,
        0.0389274680971895,
        -0.1297631335779439,
        -0.07045722941857716,
        0.24970074943301707,
        -0.21741013873817397,
        -0.25125859107718007,
        0.14378562400209566,
        -0.15825097279037353,
        -0.09801971652358576,
        -0.11048729132333071,
        -0.0752212059674496,
        -0.1570084087190921,
        0.0038068639475640764,
        -0.21278757873112863,
        0.013402848432439385,
        0.11815547151285,
        0.30084093577257226,
        0.09118048433828102,
        -0.23860775840457837,
        0.2574868740367349,
        0.3047529835585396,
        0.15096731494563265,
        0.026997825537496745,
        -0.029614855913740523,
        -0.19964374678598124,
        -0.1073889151319499,
        -0.09508791485985596,
        -0.07841770621481017,
        -0.03459742686981665,
        -0.26691602986174756,
        -0.12972017777963682
      ],
      [
        0.19189533373784057,
        0.21775669570114337,
        0.05128332551783282,
        0.052556158788422236,
        0.27776291718001606,
        0.15865427177596214,
        0.16122871976393433,
        0.2950902925591609,
        -0.31178475338962347,
        -0.17334781218623982,
        -0.2272791957809096,
        0.18166334225856173,
        -0.2879842754015022,
        -0.22689643561120298,
        -0.1113276147878064,
        0.2936010934919308,
        -0.08098836927243067,
        -0.14972711981224532,
        0.018249642977326064,
        -0.2813445355923355,
        -0.22938417566898023,
        -0.0031313978758150673,
        -0.058314951300007245,
        -0.2846652258405304,
        0.13592947753239332,
        -0.1357705102410339,
        -0.037277927246586406,
        0.10744177259397886,
        -0.15423224504530175,
        -0.298834493815896,
        -0.13319045928750434,
        -0.17161767807962003,
        0.030748749286210297,
        -0.21378214495606546,
        0.03820993498168407,
        -0.2728637531200528,
        0.20679499413956187,
        -0.2951065875057544,
        0.24407163542415938,
        0.032420147842255,
        -0.04312758338335759,
        0.2927480911940073,
        -0.26053040593264637,
        0.20565924651130413,
        0.044732517416611106,
        0.00020821048993985292,
        -0.23698650459867035,
        -0.011429329374159636,
        0.20854666882013945,
        0.10525273166802229
      ],
      [
        0.29131364438837964,
        -0.24183955444191796,
        0.020029023192159434,
        0.050502206183239584,
        0.26821850416523724,
        -0.1760978788806319,
        -0.18830330253119945,
        0.19591123275872607,
        -0.13696456682410585,
        -0.05733536441800463,
        0.001699880695213929,
        -0.3155204371564101,
        0.19578282832669308,
        -0.2371356942041408,
        0.10729810700725873,
        0.23733038674823465,
        -0.1103693405868578,
        0.2833280818597778,
        -0.14662701520289087,
        -0.12242144637946772,
        -0.07032846641414281,
        0.2113176685592863,
        -0.2122001253130909,
        -0.2348712959294579,
        -0.20650724408725823,
        -0.07459637293713026,
        0.19269239459525395,
        -0.0564950436480911,
        -0.2566698733509003,
        -0.010022488661769913,
        0.2370248288669256,
        -0.2931121689483821,
        0.14118759582348456,
        0.31434422796457023,
        -0.25273242572512966,
        0.09545066077912895,
        -0.11978294319439386,
        -0.1090805915247327,
        0.19010299232630928,
        0.1633666909865708,
        0.023754208331234095,
        -0.228294466084354,
        0.27197464302750635,
        0.07355895654107053,
        -0.20212915162920678,
        0.27328515260464054,
        0.011080311763187856,
        0.04393835377644456,
        0.04619852836010169,
        -0.06112719019886004
      ],
      [
        -0.08939624662896095,
        0.03264699888165967,
        0.04298622213794179,
        0.03838236478350937,
        -0.27348247445062907,
        0.29947083918677736,
        0.1662997881917,
        0.08318358835295936,
        0.15306926530997939,
        -0.2925642812836645,
        0.2638965282306022,
        -0.278997972951853,
        -0.040069694940200296,
        -0.11116194102390184,
        -0.3084529402973706,
        -0.29506317087685996,
        -0.18366977992313668,
        -0.051191388938144844,
        0.0564446152403536,
        -0.0012001196489480614,
        -0.0023770042178478668,
        -0.16991393941806748,
        0.11071420033764073,
        -0.30690998772144057,
        0.1773060157573636,
        0.06496917633816801,
        -0.016634903953671176,
        0.2641751937236401,
        0.11024224338109778,
        -0.08201571636166669,
        -0.060518233090311846,
        0.12817167567771026,
        -0.07310754716582399,
        0.1061362869563664,
        -0.009519988104750299,
        0.27841173310704365,
        -0.15247813830549273,
        -0.2521946087901309,
        0.27327817379284264,
        0.31315401504417856,
        -0.2731349666076714,
        0.29886267130401084,
        -0.1869365787751469,
        -0.20241335775442582,
        -0.04522918498343864,
        -0.2433548803118588,
        -0.2257287266289097,
        -0.033831273458997224,
        0.24882395920710537,
        -0.253770692094193
      ],
      [
        0.003889640081146617,
        -0.15750703855996764,
        -0.24909851256665005,
        -0.10410132332025684,
        -0.291898500959441,
        -0.2781359320727962,
        -0.27309715450401717,
        0.2544244748535179,
        -0.23789200552994094,
        0.2170542764110706,
        -0.18918185789836747,
        0.017117594873278408,
        -0.16291856429944562,
        0.045632210473515566,
        -0.05835790294618853,
        -0.09493596447197142,
        -0.02584745405102462,
        -0.21958047326912117,
        0.04928186292276454,
        -0.2521157383207098,
        0.046827976275623295,
        -0.1933687348527227,
        -0.20941893901643577,
        -0.11638387412027473,
        0.016734026656037793,
        0.078422818766331,
        -0.25544408119184514,
        0.0013097734144333906,
        0.123937916874089,
        -0.18216913314390398,
        -0.15291082499383943,
        0.06795094760373682,
        -0.24328610769203285,
        0.20231154695398296,
        -0.267972956132104,
        0.21570512559095428,
        0.16835028720827955,
        -0.07974570321356678,
        0.015480003339956971,
        -0.24892558397448566,
        -0.11912502416505127,
        0.12354676418778066,
        0.13698161366474332,
        0.16524697261821003,
        -0.1986147456689607,
        0.021225632199422473,
        0.06424459500072255,
        0.2501204428176033,
        0.05045111871384722,
        -0.20205654830792857
      ],
      [
        0.09082037324298498,
        0.26597659423856973,
        0.10318623639687263,
        0.2857544244267671,
        0.016521447352451202,
        0.28168816323828,
        -0.28049989602947417,
        -0.04679751600660875,
        -0.18964792549881287,
        -0.16894522856633817,
        -0.06725897923256777,
        -0.23899259031775916,
        -0.2877264608391492,
        -0.16558337123922526,
        0.1874925644296171,
        0.12614838261623762,
        -0.1646202802363895,
        0.09457298073303766,
        -0.11476680052058505,
        0.267194719670058,
        -0.20237055805312132,
        0.3080508692136918,
        -0.21133760120965456,
        -0.2724360881908882,
        -0.23351556720065508,
        -0.06878339577133419,
        0.07548564408602965,
        -0.1964560117191381,
        -0.25295495118455685,
        -0.260340909217442,
        0.2397075149269548,
        0.17805704170428582,
        0.012632476733795694,
        0.21383163496068686,
        -0.034530585579534645,
        -0.22748908054955919,
        -0.11924757909283068,
        0.097520139961213,
        0.26798548151493945,
        -0.09933553165571574,
        0.2277354667662586,
        -0.1041396616181113,
        0.1806564411164585,
        0.02701373387716055,
        -0.11139500920757806,
        0.1510163325465274,
        0.06968036172616582,
        0.18151714676225977,
        -0.16859312184610156,
        0.2863308412405579
      ]
    ],
    "weight_v": [
      [
        0.05231135922418795,
        0.24808739217729375,
        -0.04452174763448177,
        -0.19324665649378137,
        0.2517769622313208,
        -0.15349701031456334,
        -0.06715074297691437,
        -0.23413366290228715,
        0.24728426861433211,
        0.22188596745088668,
        0.09945018557241231,
        0.054343885887546184,
        -0.07991947292979631,
        -0.29157685748252615,
        -0.23931419198443343,
        0.28891883906522614,
        0.19114421691903744,
        -0.0949495385522737,
        -0.05019021434768878,
        -0.1899803252571091,
        0.03530144105218358,
        0.18941141104155546,
        -0.11059121123814813,
        -0.11033135204730857,
        -0.07359933454620779,
        0.0723616213305775,
        0.12776523935898498,
        0.10671024003021407,
        -0.22950109995001758,
        0.02970096894644697,
        0.1072390369534787,
        -0.03777809984058228,
        -0.024974577788515195,
        0.1761676498434726,
        0.10125319739657201,
        -0.22020181909638376,
        0.1002924137591037,
        -0.16035576472826682,
        0.24371903969922043,
        0.10277359143210218,
        0.13842262824707352,
        -0.25935901570758557,
        0.2702746625392766,
        0.06520728952557658,
        -0.17840857125084703,
        -0.07854275155086554,
        -0.13445682432278297,
        0.0858187482903961,
        -0.08187857268662549,
        0.12650292257838613
      ],
      [
        -0.2627748267162935,
        -0.07117731487622819,
        -0.06001147467592488,
        -0.1213416328736665,
        0.2465281434283963,
        -0.22418897425087578,
        0.17399209286114237,
        0.19172032399196803,
        -0.18964213426821408,
        -0.234876094766767,
        -0.18842421018600486,
        -0.1844686581363087,
        0.09693870128066939,
        -0.07460960829021915,
        0.11227145668022914,
        -0.18979789484360002,
        -0.11308978564307384,
        0.18227008929899402,
        -0.2799332693700426,
        0.1554141020516192,
        0.05912390977464155,
        -0.22253586148566262,
        0.0232975341271634,
        0.21324685471698207,
        -0.046442206582951784,
        0.2586651186161492,
        -0.015944906654202284,
        -0.20677727769418772,
        0.23147438412066074,
        -0.064289149663396,
        0.10563937681123048,
        -0.12628405119915365,
        0.07674340297679577,
        0.20048457794469854,
        0.2778091916281193,
        -0.10252369133015324,
        0.26096600155586375,
        -0.26554319195456727,
        -0.12051298404396332,
        0.0730747603688362,
        -0.2428170065664648,
        0.20742679509875223,
        0.19460780249842569,
        0.27226918732926336,
        0.0746235129861142,
        -0.14185270570185718,
        0.1458560381075668,
        -0.037188947596155264,
        -0.13677084806129708,
        -0.17920185239793196
      ],
      [
        -0.12522370689377563,
        -0.2573052184297204,
        0.09832119608592305,
        -0.09128626283348731,
        0.10624756232646604,
        -0.059040285884988525,
        -0.1067657564250932,
        -0.14679582566178961,
        -0.1462115706828789,
        0.005898418971051533,
        -0.0834142254003497,
        -0.24115416807549728,
        0.1780136841855378,
        -0.18046998574398623,
        -0.0015416822336147828,
        0.18069608869295073,
        -0.1823423306109694,
        -0.0001622155170768469,
        -0.21241709859966335,
        0.2594652617710312,
        0.1056145802670686,
        -0.03991060264640778,
        -0.09586035936731416,
        0.11291538635233284,
        0.08899670650381258,
        0.2059840262768476,
        -0.014030679393444156,
        -0.13419216769165804,
        -0.22827529644377736,
        0.014034288048915766,
        -0.0385603093783507,
        0.1461638846739114,
        0.12962173075340555,
        0.07654441539134144,
        0.036742451488909034,
        -0.1315396528527391,
        -0.2503606510714219,
        -0.05652232999178752,
        -0.23384866621124634,
        0.043063896377576516,
        0.12432125797050048,
        0.02531281244633382,
        -0.1849504806919234,
        -0.09362495018807124,
        0.14487890639798817,
        -0.24793934195620684,
        -0.06029261873657443,
        -0.21328641958875308,
        0.08716274779590166,
        0.023530556832415617
      ],
      [
        -0.21710017760871547,
        0.11420363421678609,
        0.2601420205852662,
        -0.13310108361276807,
        -0.07689534160390585,
        -0.08629908262990477,
        -0.1535512440559798,
        -0.030744568151760965,
        -0.12012995251147321,
        -0.006503347251372915,
        -0.021864912633328626,
        0.15197857416287225,
        0.05941733979552788,
        -0.19480993032650618,
        -0.12290714263594607,
        0.10359251517673612,
        0.02359754190545399,
        0.28259973533356536,
        0.10169134527017609,
        0.2520124021191324,
        0.1031981230142126,
        -0.10207040613390439,
        -0.23549956277102166,
        0.20601653113091128,
        0.19419318331365876,
        0.25089181132467214,
        0.016232908371686783,
        0.12578574892145422,
        0.0761038603494556,
        0.02083026524083398,
        0.19243046517846135,
        0.16195734644305304,
        -0.07977621862138279,
        -0.1821190647639827,
        -0.27078157386032653,
        -0.1661091205740815,
        0.2413870833971406,
        -0.2206227800194741,
        0.12374292101034012,
        0.1681801187592829,
        -0.1481383695384811,
        0.25828118794485516,
        -0.04295315765069613,
        -0.12036053204727207,
        0.07612860318911613,
        -0.12150669695433136,
        0.008657374613236568,
        0.09788814805375773,
        -0.22651745467625034,
        0.16249115200558162
      ],
      [
        -0.11007004461666772,
        -0.2067113324534121,
        0.007901113914246805,
        0.021675172987498215,
        -0.07937477501726228,
        0.2723951452660453,
        -0.11846813092487898,
        -0.1290064380462928,
        -0.11185637629172226,
        -0.09301931332944893,
        -0.11377972542717546,
        -0.134112820508085,
        -0.2862290197671039,
        0.19490854552465903,
        0.14296355379758185,
        -0.21099979395708743,
        0.24367555903854293,
        -0.12369225759522345,
        0.1769747961090064,
        0.0010165410673166897,
        -0.25758503499630686,
        0.21916419125262404,
        0.2754834166904713,
        0.16795061924855792,
        -0.17431569280874856,
        0.08200433814233932,
        -0.23315944532849486,
        0.07094690367102896,
        0.12763909663517803,
        0.23323249020239295,
        -0.1708863863214563,
        0.02929811651067793,
        -0.2827671365544274,
        0.2769078846252461,
        -0.22713864031227884,
        0.17103020286832654,
        -0.17346051508029053,
        -0.07424599247818231,
        -0.014589575591255677,
        -0.027229855723152174,
        0.11204794506096999,
        -0.1823352043065803,
        0.03667584573819044,
        0.1989424663870351,
        0.06867156666370261,
        0.20586803862139352,
        0.21464327170734793,
        0.13374219483493155,
        -0.05999610704917743,
        0.08249404862065124
      ],
      [
        -0.13720359488474643,
        -0.2194111729180659,
        -0.12267054216092485,
        -0.0029576664841283185,
        0.18274695749237757,
        0.2539851428695811,
        -0.1961481213928164,
        -0.04210529886040043,
        0.2304960026778216,
        0.18109897346970638,
        0.05944384867043451,
        -0.02024155481975426,
        -0.23911332186166895,
        0.18570162135434742,
        -0.02114775635821503,
        -0.18842184907466752,
        -0.08865185399380579,
        -0.1272832893750798,
        0.24496550151693158,
        0.04100113574922337,
        -0.08529219849617517,
        -0.2668148802168733,
        -0.10406833681543287,
        0.1675903254330331,
        0.06594774624024363,
        0.01654547727340777,
        -0.11577728739409252,
        0.07416738353161584,
        0.28628410807239596,
        0.0001369294264456089,
        0.24470585351714286,
        0.2914960712835866,
        -0.13510167543933818,
        -0.15653668749761354,
        -0.23684758770849865,
        0.17106341170151734,
        0.17993694463657872,
        0.0868181369381143,
        0.07682968479580582,
        0.12219211652612261,
        0.044787818417576786,
        -0.21427392842419896,
        0.16306539147619942,
        0.11219496989119981,
        0.2664977854596858,
        0.02084678881097385,
        -0.07768552933449618,
        -0.24622938496571084,
        0.16753880459541204,
        0.26677489412796124
      ],
      [
        -0.22309744964169131,
        0.09778386053007515,
        0.12177068760886617,
        0.2800509408120913,
        0.09343337720335398,
        0.15794651652347186,
        -0.14807064120993105,
        -0.16924375051204288,
        -0.18044362808595266,
        -0.2670938219024726,
        0.2779828519810757,
        -0.2501579386938126,
        -0.15942975702729809,
        -0.014606415603249046,
        0.2017931342072648,
        0.2820693064212924,
        -0.22201681340506296,
        -0.18623082515664194,
        0.24911643811623402,
        -0.22875292889201848,
        -0.10581708637515805,
        0.04885292205259412,
        0.17987994961353532,
        0.026644566461645924,
        0.03352901754771248,
        0.126558333863183,
        0.04484990865237387,
        0.1034626990569062,
        -0.16628294431168658,
        -0.17524155148350073,
        -0.05535668534950991,
        -0.04173671396958212,
        -0.007688746281946879,
        -0.12322242423619473,
        -0.15166237080611114,
        -0.1921833906567546,
        -0.17928516245289997,
        0.08760065555398738,
        0.20524896124845649,
        -0.07426389287254201,
        0.07806605208721579,
        -0.074829213763347,
        0.2603730360459208,
        -0.1673104567289465,
        -0.03018903956354857,
        -0.0640772008746347,
        0.006249337868616256,
        -0.03396081535148743,
        0.2788056755516271,
        -0.21429754631060827
      ],
      [
        0.10160768400390024,
        -0.16489170964725738,
        -0.23145772517252342,
        -0.2666380177315613,
        0.04874911977980462,
        0.10380164702729733,
        -0.1047324735544817,
        0.13402406011003914,
        0.14670083315491694,
        -0.07901485365358021,
        0.10326505082856641,
        0.1439829303749932,
        -0.14596945035257936,
        -0.23080662717574135,
        -0.03899834882690567,
        -0.21907061832872465,
        -0.20678311398440558,
        0.07483532800231102,
        0.23993533309389098,
        -0.05988689772472228,
        -0.18053809279027264,
        0.1897504090666347,
        -0.03647343528717678,
        -0.14020694976972772,
        -0.22228700507937274,
        -0.11392063109121867,
        -0.03424659680725123,
        0.06544178299817954,
        -0.04031042472580626,
        0.0796027732212422,
        -0.025744001909124348,
        -0.11756170142036906,
        -0.02583321437635755,
        -0.27997097715721037,
        -0.16410497286512496,
        -0.16393961193496565,
        0.12782469190834445,
        -0.05175527595144247,
        0.17556584911296275,
        0.2109087685162782,
        -0.010105527977314455,
        -0.12383612497108767,
        0.03636018781389877,
        -0.2599648117879086,
        -0.13420858339355046,
        -0.061608497989226074,
        0.18827847887985555,
        -0.2806925060112187,
        -0.15721255933896386,
        0.2529672400946142
      ],
      [
        0.06474961997467266,
        -0.25933691398925746,
        -0.17086331622425127,
        -0.18052340208630313,
        -0.08179243637879008,
        0.12396333664548259,
        0.21003222915742786,
        0.12066491305292582,
        0.26979689753194597,
        0.07019574202703427,
        0.267813761408727,
        -0.0713405912828938,
        0.10659544102134316,
        -0.22909855936974116,
        0.17374087744988065,
        0.08007579984354185,
        -0.17988983507404605,
        0.1339842635869275,
        -0.2825386458806193,
        0.2446713856645611,
        -0.02234736440478413,
        -0.020706531396064265,
        -0.12148745602989633,
        -0.27287823545218326,
        -0.29272167466145405,
        0.014803674533606925,
        0.14593256270806748,
        -0.22841079851537366,
        0.124888201223468,
        -0.0840951960651771,
        -0.0691928612183349,
        -0.09885509513845722,
        0.19210479658594415,
        -0.1627459763005741,
        0.1706451991091909,
        -0.03632166202475068,
        -0.005280123222156097,
        -0.2680685171336122,
        -0.2203953967799866,
        -0.15753570963257593,
        -0.07288631553859845,
        0.17329605137138676,
        0.06749024206170612,
        -0.19085711648625747,
        0.16582604714410498,
        0.15448880303000828,
        0.07848553270944159,
        -0.13965818525881,
        0.07333991596897893,
        -0.1946131073723379
      ],
      [
        0.24026088000824514,
        -0.26144369127792816,
        0.06995141147273826,
        0.1029626652399136,
        -0.18647531445866378,
        -0.24518281021151336,
        -0.13264858144610484,
        -0.06035055596025235,
        0.1366298020681404,
        -0.22626019556001892,
        -0.2267852362334783,
        -0.20367203344173956,
        0.17594202336320935,
        0.1722091329691786,
        -0.012544206091204546,
        -0.23388032057374705,
        0.25455884326342754,
        0.15659791379309917,
        -0.24129374993072691,
        -0.2369739666941788,
        0.2247704081132576,
        -0.018404154267481987,
        0.09661954714170784,
        -0.03922219063223292,
        0.20626791607901335,
        0.15478163331331957,
        0.1348144132396098,
        -0.08547315360522187,
        0.06426869900570342,
        -0.18613272195560404,
        0.17302208992312068,
        -0.22398865667408063,
        0.14175481077565177,
        0.2882728327084682,
        0.13725055292428406,
        -0.19182937743132827,
        0.07254379015444845,
        -0.24051058481316842,
        0.14130164786827953,
        -0.08433628990122638,
        0.2914911065613534,
        -0.08870865492053653,
        -0.0979478615041387,
        0.27662536885044015,
        -0.2509233717533232,
        -0.22418484332558541,
        -0.18637752834814503,
        0.21415549924348615,
        -0.20874014545383923,
        -0.00878130277058925
      ],
      [
        0.18628281411352743,
        0.15486583839262102,
        0.2672037514146865,
        -0.2759327795284113,
        0.10902533687344446,
        -0.028516694695311096,
        0.09454293123307067,
        -0.06647677123322782,
        0.282371754281378,
        -0.17690641150055972,
        -0.2686770772639505,
        -0.1649375213097608,
        0.006078663324557032,
        -0.25364660721309434,
        -0.22543956583586405,
        -0.10490981810385791,
        -0.11019696238562621,
        -0.055636659704934005,
        0.030454478079818936,
        0.2547947739815987,
        -0.24385484966670884,
        0.20710301286557797,
        -0.22946716575442366,
        -0.16172107668399696,
        0.23463685753436375,
        -0.14307783765526708,
        -0.038607326734200365,
        0.07733579010700248,
        -0.2468787553380222,
        -0.023350966137200946,
        0.12535528992556966,
        0.1024288381155739,
        0.07228837258057402,
        -0.2896576046895148,
        -0.2240103109451217,
        -0.20262452405117443,
        -0.12729962322203875,
        -0.09905911330849704,
        -0.21871328799013695,
        -0.038801686478651065,
        0.016455863293775908,
        0.230661459694449,
        0.27805208144812893,
        0.08494562813925377,
        0.14725222622452094,
        -0.19089489105847324,
        0.08092480012585546,
        0.11690810575504523,
        -0.2895524037517504,
        0.2540801778315676
      ],
      [
        -0.2597152573369218,
        -0.1662041924859898,
        -0.14791374589013404,
        -0.28574920318345826,
        -0.11404331483304314,
        -0.2565329104259429,
        -0.255542932383118,
        -0.20973143429119215,
        0.20444006377970142,
        0.17227120293197407,
        0.1911138374970156,
        0.12327068280310854,
        -0.2798590271718538,
        -0.2514225887408834,
        -0.12963780033194858,
        0.13236980323384745,
        -0.02399624292613417,
        -0.09779665423570133,
        -0.17270103010982718,
        0.19336174532421985,
        0.22686236482305672,
        -0.2553962987988935,
        0.07665155488293707,
        0.04404206461111504,
        -0.1306829740577922,
        -0.08919046126929189,
        0.17333349228949535,
        -0.11642311144254158,
        -0.28132262674875214,
        0.016720016892335265,
        -0.0162638092170177,
        0.025997807926950334,
        0.21661064581634576,
        0.28402360673899757,
        -0.20263774129729062,
        0.03044577592190678,
        -0.157641806603972,
        -0.24131334338150956,
        0.2525904969349699,
        0.00845346472264008,
        0.1626624747864467,
        -0.28612789130440675,
        -0.07238023193366158,
        -0.24239175550054157,
        0.17617278765190103,
        -0.27457002079386295,
        -0.054536530503644265,
        -0.13273026698678989,
        -0.003768498159339273,
        0.24935764276882938
      ],
      [
        -0.0827749853492808,
        -0.23743662364007703,
        0.29235993016164546,
        -0.09410499531921213,
        0.14223500931366012,
        -0.009300424433282495,
        -0.134812754520075,
        -0.09329154523681482,
        0.15302221165729907,
        0.1523299311478169,
        0.13466708565382818,
        -0.017391487293498653,
        -0.03280615535128639,
        -0.07413917640667725,
        -0.19349024028808887,
        -0.23948848481841373,
        0.10176015847745662,
        0.18886287901261134,
        0.2562772502191764,
        -0.06202443594463647,
        -0.24257763025298296,
        -0.24034604511094554,
        0.06368232868807744,
        -0.20190719995861123,
        -0.22459272065022484,
        0.12214874675011322,
        -0.2765876621737662,
        0.12555821070360101,
        -0.2005824434698142,
        -0.19812217848260077,
        -0.05661312436259955,
        -0.21532777269375236,
        0.011777077993004759,
        0.22295034862895063,
        -0.01495689628195851,
        0.2757145927727081,
        -0.12186080052954715,
        -0.2539757957694087,
        -0.0027885720738233255,
        0.14579424401094604,
        -0.20527578849056893,
        0.1750672185212348,
        -0.16284122407342977,
        0.16315259975505886,
        -0.11247962291202862,
        0.015991570246934483,
        0.11641656827852614,
        0.05311819049781091,
        0.25085875562109666,
        0.14568144805492683
      ],
      [
        0.06618227886775596,
        0.14405344397133224,
        0.06636591013152582,
        0.1510791827067049,
        -0.04639366161562633,
        -0.1336782798381812,
        -0.25850180234306164,
        0.05933468151147003,
        0.05623919840605418,
        0.0948005500376834,
        0.24626471664077482,
        -0.1662270457278062,
        0.15589590638043666,
        0.25055874078422863,
        0.2528148220703979,
        -0.19882517307997966,
        -0.0503871832422248,
        -0.028439386249887677,
        0.2802094395109856,
        0.01954736917524641,
        0.2302583597736721,
        0.08815407616744503,
        -0.2304146351102641,
        -0.13416200650488572,
        -0.24804276430280003,
        0.19512723104006813,
        -0.25135878422211966,
        0.14174249214287632,
        0.04552795554949246,
        0.14569717097725565,
        -0.24477048519342762,
        -0.28449094279129256,
        -0.22482561764314968,
        0.2865603619442569,
        -0.1253651325107643,
        -0.10585611960777691,
        -0.1434382365781715,
        -0.07067529227554717,
        0.20264700704907274,
        -0.19065206475013002,
        -0.007396632558321126,
        0.2564202797844816,
        -0.2535890378747149,
        0.2159100908850488,
        0.22206026126064787,
        -0.09801911304483452,
        -0.05727144607056625,
        0.08233156136871533,
        0.22139121673222856,
        0.1662158021066168
      ],
      [
        0.06004073170052604,
        0.13148624727551006,
        -0.01842553952282905,
        0.2217384141306919,
        -0.2057087646704331,
        -0.07544399302395535,
        -0.08579848877803209,
        -0.19648368321254173,
        -0.0395125641791399,
        -0.200055949963782,
        -0.01949473916191896,
        0.0566843572966757,
        0.05865805460224194,
        0.09969272252693151,
        -0.030913821112429907,
        0.20247465306763696,
        0.16483295196151598,
        -0.21168859857121453,
        0.2639748731679245,
        -0.1183152653458458,
        0.15924632768864494,
        -0.2543982623702195,
        -0.07853433543277252,
        0.011975208840161178,
        -0.28740599944991513,
        -0.21116744146544159,
        -0.08690245825173398,
        0.22171245400430567,
        -0.22457038580125582,
        -0.05493538087570815,
        -0.289268157783385,
        -0.009366246325670735,
        0.20944502761536726,
        0.17897642634287614,
        0.2682765976386226,
        0.01575165443099069,
        0.11035456605069771,
        0.2662989116339411,
        0.010310044171333299,
        0.01657571671680308,
        0.21771997767437717,
        0.06600341544804217,
        0.08002487953570459,
        0.15285818473986662,
        0.0015777656189523426,
        0.12555750947041222,
        0.20983902558779793,
        -0.2164514325751301,
        0.1986787235215997,
        0.1369241979217748
      ],
      [
        -0.06469802859726217,
        -0.22632917754390136,
        0.20000802633416093,
        0.07711780680151498,
        0.24564154119626386,
        -0.2579414005519225,
        0.07451307610039498,
        0.285334792269252,
        -0.18281875994771785,
        0.2195191052838648,
        0.054394186837909475,
        0.22264700161042078,
        0.009173137400253772,
        -0.20126614920161365,
        0.18718759969393894,
        0.09733974289920849,
        -0.2193454736908918,
        0.07758841285183493,
        -0.14438799701435792,
        0.018280585390769877,
        -0.08312910965633438,
        0.12371554389772094,
        -0.07297162087250572,
        0.022052212918759917,
        -0.041796938642444714,
        0.06529285712888871,
        0.06428981037957426,
        -0.08161838960196297,
        0.1086782755856961,
        -0.1469133293555359,
        -0.2585219167627117,
        0.1790749076520532,
        -0.04224689674738058,
        0.038012438888778255,
        -0.2552215232080437,
        -0.1600156023896825,
        0.14746260785172283,
        -0.005195631442627191,
        0.20857000109678997,
        -0.017770374612393003,
        -0.1201672052832789,
        0.20296939326251334,
        0.2790694927390395,
        0.22611611048325314,
        -0.16594269006024515,
        -0.11369787319145938,
        -0.017728780762767904,
        -0.09706752956864867,
        0.15364466784307795,
        -0.12157150048480123
      ],
      [
        -0.046177450738267345,
        0.04957521303501744,
        -0.08830866402390478,
        0.1293050447438132,
        -0.0582558544408516,
        -0.23567572190387334,
        0.1021158748898724,
        0.05809354160061819,
        -0.2536437206858172,
        -0.16594218322707363,
        0.00017959844717307938,
        0.2819096477504253,
        -0.14938791607161667,
        0.14011976177748126,
        -0.11306960577021416,
        -0.1259005742957934,
        0.27689148952907033,
        -0.061671028374958636,
        0.2555248795713226,
        -0.08881216816192475,
        0.12809511022774273,
        -0.2583694289830456,
        0.2059261633648231,
        -0.26615653483405405,
        -0.06403353581431481,
        0.12353763912711035,
        0.08485193157428461,
        -0.03558942513951119,
        0.19118986608619493,
        0.27175112901088666,
        0.20059001411258787,
        -0.09437559593246334,
        0.2147313593571249,
        -0.11409394139058149,
        0.1707353688856732,
        -0.0386788760946114,
        0.07214114045010295,
        -0.2457930067364109,
        -0.1628073842775078,
        -0.2504941980874501,
        0.18298802099639683,
        -0.2857127439209943,
        0.050330370396981905,
        -0.07893736208198013,
        0.2122755852636629,
        0.24229896768536058,
        -0.05404028687712348,
        -0.2517843688284411,
        0.014569707743582128,
        0.09769910258387876
      ],
      [
        0.11431856806043916,
        0.055436258581126274,
        -0.07016951391650772,
        -0.021658830502955473,
        -0.2331057984085852,
        -0.15201197872268277,
        -0.048678993771520934,
        0.21534897080762389,
        -0.22919124906798238,
        -0.2566611349224842,
        0.022149371643062465,
        -0.013117043649255478,
        -0.12910173271053588,
        -0.07935531055914272,
        0.07560255426609835,
        -0.06788696417609039,
        0.23359748345575554,
        -0.19358398164440122,
        -0.08001210434723138,
        -0.07301995054167584,
        -0.04072024022182896,
        -0.10997458200275642,
        0.2588297896621385,
        -0.11356106781784098,
        -0.11439115695287522,
        -0.16029728814920116,
        -0.1960649705731436,
        -0.23816163382933933,
        0.2850512488091474,
        -0.07584725898409025,
        0.06664476559481197,
        -0.06379394503068478,
        0.10142481573770373,
        0.25297803351786824,
        -0.20597857195195612,
        0.06171904371224446,
        0.038706155608374704,
        -0.002029711565467829,
        -0.24546164017455596,
        0.1572592068902492,
        -0.26582658571730683,
        -0.07837148040000275,
        0.21923881226909375,
        -0.08132929310117407,
        0.014552719322217633,
        0.14354126892438224,
        0.11864133287238465,
        -0.2763493562674949,
        -0.05102254239589454,
        0.09674736156403135
      ],
      [
        0.04471086381388667,
        -0.20425139514744178,
        -0.074058892682142,
        -0.11734545339386468,
        -0.10534103839651346,
        0.012303078282614122,
        0.25366932034455675,
        0.15347164572285327,
        -0.24564052785505833,
        -0.2114308837610055,
        -0.12304994180611423,
        -0.0318029795069365,
        -0.06712180664870498,
        0.08615080760269267,
        -0.17341886130993298,
        -0.14006068846920094,
        -0.08358572570632467,
        -0.00034090456064173047,
        -0.10499354361213808,
        -0.05009568760620517,
        0.09108230816691715,
        -0.2238493080152302,
        -0.12401365738319758,
        -0.00933952735697241,
        -0.11753404588013283,
        -0.2714910992482175,
        0.17404548312293328,
        -0.006111526066762019,
        0.2573388955583769,
        -0.05327114634182789,
        -0.11588631870820723,
        0.03218571802937259,
        0.1813400600220576,
        -0.20508365456281957,
        0.22072515791734065,
        -0.2341509479276489,
        -0.09197154495731336,
        0.16841220723263334,
        -0.25966287154679796,
        -0.25020201011111853,
        -0.1892222124257636,
        0.24632234219831267,
        0.0800369333126873,
        -0.09166468341405723,
        -0.011886897262039897,
        -0.027885963792053325,
        -0.07648315286588928,
        0.28746734750354425,
        0.02725479598956415,
        -0.10275051310167058
      ],
      [
        -0.022773592920027674,
        -0.004418176096518511,
        -0.25639421683171976,
        -0.22968170224500198,
        0.252874927030805,
        -0.29137268675772343,
        0.04143304155632099,
        0.11461148028862267,
        -0.14408478014143852,
        -0.09086614297730267,
        -0.2762609070899491,
        0.25914115025118584,
        0.23678036817107767,
        0.043865543662961026,
        0.20171534922771184,
        0.0257996150838794,
        0.18671628005128738,
        0.2771399001687211,
        -0.13559458426973323,
        0.26325788634097763,
        -0.11018995308151563,
        0.2319792074412717,
        0.0799615332598379,
        -0.0592390000591867,
        -0.15759794485033102,
        -0.2147902005817921,
        -0.14879708988106977,
        0.19401400939908903,
        0.05646980608832142,
        0.24797645541444718,
        -0.18040492588916646,
        0.03215267465399302,
        -0.25522938701424847,
        0.011216795897479481,
        0.2563776868800168,
        -0.2745224391889448,
        0.27559892064066044,
        -0.12543149723707975,
        0.27583584604169314,
        0.09958964385614028,
        -0.24958193008650026,
        0.12733767794725398,
        -0.2195211911822704,
        0.2915240396191347,
        -0.23768478128165113,
        -0.16098004455812268,
        0.06413138935166879,
        0.17304440690220357,
        0.13667534879343352,
        0.0497918154039913
      ]
    ]
  }
}