{
  "num_class": 10,
  "num_hidden": 50,
  "num_visible": 20,
  "params": {
    "bias_b": [
      0.0,
      0.0,
      0.0,
      0.0,
      0.0,
      0.0,
      0.0,
      0.0,
      0.0,
      0.0
    ],
    "bias_c": [
      0.0,
      0.0,
      0.0,
      0.0,
      0.0,
      0.0,
      0.0,
      0.0,
      0.0,
      0.0,
      0.0,
      0.0,
      0.0,
      0.0,
      0.0,
      0.0,
      0.0,
      0.0,
      0.0,
      0.0,
      0.0,
      0.0,
      0.0,
      0.0,
      0.0,
      0.0,
      0.0,
      0.0,
      0.0,
      0.0,
      0.0,
      0.0,
      0.0,
      0.0,
      0.0,
      0.0,
      0.0,
      0.0,
      0.0,
      0.0,
      0.0,
      0.0,
      0.0,
      0.0,
      0.0,
      0.0,
      0.0,
      0.0,
      0.0,
      0.0
    ],
    "weight_w": [
      [
        0.20495815195155115,
        -0.3079100187065624,
        0.26014518034810746,
        -0.13871445812845187,
        0.038742305812985656,
        -0.22221742028093874,
        -0.16967823120757866,
        -0.03779583444284018,
        0.08241684831323237,
        -0.20111918015685587,
        -0.016851585838256244,
        -0.11458578866433419,
        -0.2760771171927734,
        -0.11333720146239804,
        0.051947354176530625,
        -0.2914304491733108,
        0.289823260651558,
        -0.2912527633169743,
        -0.238569443017384,
        -0.2832472998054458,
        0.08839802722211526,
        -0.05077994388689133,
        0.21679046361956017,
        -0.09134091742941253,
        0.0350752421277471,
        0.033208296769163814,
        -0.009665968511948508,
        0.2568049163808472,
        -0.08902714061329114,
        0.24080284820608006,
        -0.058154839809682335,
        -0.27959409101512317,
        -0.22669606660697897,
        0.24838301440591898,
        0.2251457645047264,
        -0.11783033835966106,
        0.2517226626644313,
        -0.16839306389140338,
        -0.17408246016010817,
        0.19108785560727243,
        -0.11825653442102668,
        0.1686031989176292,
        0.07772272787909112,
        0.11138706140131527,
        0.15600816949448276,
        -0.052715131050489805,
        0.19526332925157458,
        0.22672714544304645,
        0.25225106874556474,
        0.20150564074982574
      ],
      [
        0.09419357479056145,
        -0.15602664380480225,
        -0.028438971294255933,
        0.225208085413873,
        -0.1864817410552034,
        0.02699983805586531,
        0.15320206905957245,
        0.21452515653118903,
        0.09086889584891139,
        -0.2655541811715523,
        0.19908746104618674,
        -0.07279378462800828,
        0.15588620892533422,
        0.3112654755619502,
        -0.03676150197017164,
        0.14984353648570536,
        0.019014830214027112,
        -0.20340642561990346,
        0.019370423999855002,
        -0.16124991073126754,
        -0.31189779758632424,
        -0.02632744730893849,
        -0.26877707035222187,
        -0.264328265032257,
        -0.011283962017930305,
        -0.25943265631013723,
        0.18016708069491483,
        0.2456396995084415,
        0.2556100575764599,
        -0.30295424442880026,
        0.03588321411475626,
        0.16252328564833252,
        0.2611546612574544,
        -0.027289346463368724,
        -0.261663039214335,
        0.18549773061711655,
        0.2674080323789448,
        0.15430528555810652,
        0.0661595551352186,
        -0.28065861313758494,
        -0.01318892469106503,
        0.05026428006850259,
        0.30687063708453405,
        0.14816146860272533,
        0.3054633290359426,
        0.1238646635077792,
        0.1020294200783462,
        0.15869729745255856,
        -0.03783463056552416,
        0.21053555106567873
      ],
      [
        -0.14762966978913744,
        0.1849203878811035,
        0.2563014996170631,
        0.15382970611310876,
        -0.3145926873155519,
        0.12670300613317942,
        0.11500824622790107,
        -0.09696513649004934,
        0.07594441548591174,
        0.08864854830587848,
        -0.24015928299588907,
        0.1910177408212556,
        -0.08072865501841675,
        0.2599140869714935,
        -0.26299961443580994,
        0.10626801787699502,
        -0.19850671968373296,
        0.20005783933877114,
        0.22123252415533362,
        0.16662882280582159,
        0.24661732341267967,
        -0.29752385358077416,
        0.015630610422386115,
        0.01874450492078228,
        -0.26647612041318836,
        0.17905529379782503,
        -0.2977183652724479,
        0.0034410263072761627,
        -0.13779196672333602,
        0.15521500337371358,
        0.06827602176453973,
        0.0021516793212393304,
        0.03579574612582864,
        0.19939341254581816,
        0.09584578856212578,
        0.23184836274328152,
        0.22562180497270884,
        -0.07892286794555975,
        -0.044612297664866185,
        -0.10283130774240817,
        -0.04641429529982999,
        -0.23554824434998156,
        0.08296449621903818,
        -0.29443242709819106,
        -0.236727069352143,
        -0.2192012797817121,
        0.17746337851256755,
        0.010812718790768339,
        -0.0991156896806743,
        0.2125640480860938
      ],
      [
        -0.14247261667318226,
        0.18020610170633533,
        0.25461528420558904,
        -0.24514408230985238,
        -0.10358809967591265,
        0.17266712969318776,
        -0.09041105398516996,
        0.18094561272823023,
        0.18323917752886482,
        0.2676003889920778,
        0.2651099847048706,
        -0.307550284927022,
        -0.2843517222000929,
        0.15211729209566832,
        0.1816636212600335,
        -0.21325849536952088,
        0.19296599618939642,
        -0.21562344461430533,
        -0.11750507577429595,
        -0.30280382822066815,
        0.06929190773420557,
        0.04753845318299765,
        0.14335564794566447,
        0.3117983673597508,
        0.040746884516249415,
        0.12099628804620122,
        -0.15048279228682324,
        -0.25771989731670875,
        -0.052854812695989906,
        -0.0541669545601382,
        0.11563018970331307,
        -0.03821734869488386,
        -0.20484648215270188,
        0.06019339969122678,
        0.006140950942961854,
        0.2454115783637591,
        0.20916476677585277,
        -0.28401268879664937,
        0.026901582644189848,
        0.04244576842423525,
        -0.10208609880611857,
        -0.20125416959052572,
        -0.10812129920437216,
        -0.24674597143696847,
        0.1262922471601835,
        -0.29797908768348197,
        0.2509891075414105,
        0.1923097827097104,
        -0.05849893611706353,
        -0.24707927982284467
      ],
      [
        0.18220149486424275,
        -0.22446538586947165,
        -0.15368534824328528,
        -0.1741077173057301,
        0.2841873927227951,
        -0.029368361290014577,
        0.2942035477936131,
        0.00752157659448649,
        0.016418018202376594,
        0.06091758545694265,
        0.12288844440301755,
        -0.16241825458917755,
        0.009210229199510367,
        0.22242634711702763,
        0.0918618145629615,
        -0.20786411672959715,
        -0.09634789703797084,
        0.31016818585732847,
        -0.2595924744165119,
        -0.19212211626852077,
        0.2360797912654729,
        0.13735403895224468,
        -0.023866521904055915,
        -0.03621579458569435,
        0.010276434595018757,
        0.22088342959294976,
        0.20832541036431612,
        -0.13325515418968392,
        0.20308975379611222,
        0.13320075630645717,
        -0.10005119855808806,
        0.06679353720793124,
        0.3071705213627201,
        -0.21325011743467906,
        0.296785177234059,
        0.11811827743351783,
        -0.14324653584498112,
        0.1608722384173894,
        -0.21959376307491546,
        0.28609073285936687,
        -0.2405949706242046,
        0.07227396707690897,
        0.09988642961611022,
        0.18458612961092075,
        -0.3139505464791258,
        0.2986580749975572,
        0.14100244800336525,
        -0.10946091663066496,
        -0.14612729621229212,
        -0.043917658789164093
      ],
      [
        -0.23573157694145205,
        0.12843312914502375,
        -0.22981501083686184,
        -0.09492553861514735,
        0.22507337789188225,
        -0.27243370447688275,
        0.2876522949033152,
        0.2426976840801645,
        0.28145847288017295,
        0.23214213543067214,
        -0.26715644699468716,
        0.30553115970000816,
        0.03323989945335776,
        0.24387553266638445,
        -0.19086404615449584,
        0.21093346711471767,
        0.24718425412415485,
        0.30877689273268055,
        -0.0940390922636575,
        -0.053737354354226385,
        0.019395286436230674,
        -0.22452764434078135,
        -0.06087471228584784,
        0.28330225059826347,
        -0.27350578211922333,
        0.3078216384766527,
        0.1840632658014531,
        -0.19470801833765508,
        -0.0144524953323929,
        0.176299986392829,
        -0.08126770561822502,
        -0.11530199722140128,
        0.015518995726093887,
        0.19640975212967077,
        -0.18310228840289472,
        0.1263997124468455,
        -0.2023421860840855,
        -0.291966660246177,
        0.11968573458934023,
        -0.2032811937523245,
        -0.1883223678664619,
        0.09960329395358342,
        0.2305819300778969,
        -0.21778706422640998,
        -0.0819650492733329,
        0.1320235502223328,
        0.19774428718139764,
        -0.17503188629155586,
        -0.12918169263271945,
        0.29869173278404143
      ],
      [
        -0.20518348429305222,
        -0.05865774618812014,
        -0.277677300886637,
        0.28202509887135335,
        -0.2588062035455995,
        -0.14446207109055828,
        0.10464527445137467,
        -0.09949911323624025,
        0.10311676167365069,
        -0.05570409333226106,
        -0.15648226686418842,
        -0.20127517493268787,
        0.10099786166233443,
        -0.1628870971344773,
        -0.05438705469847571,
        0.29328476041041457,
        -0.14585441621858056,
        -0.13872482168930952,
        0.20182984988793545,
        -0.07034967548530724,
        -0.18617445298053376,
        0.020551987888220102,
        0.2965896778426476,
        0.3100339725928874,
        -0.2067192688179318,
        0.03415347065847152,
        0.16322501704066866,
        0.31068613015310836,
        -0.02938891451733805,
        0.2844975261565433,
        -0.0418069710492775,
        0.0335375735299715,
        0.08607051511258212,
        -0.07330115649041719,
        -0.08649388606362157,
        -0.21961183626026146,
        0.3137849559533696,
        -0.28886900444736413,
        0.18398197351546236,
        0.0803702511215279,
        -0.004254386852480252,
        -0.2942160378145529,
        0.28063396150882364,
        -0.09640525964035845,
        -0.1908473739300996,
        0.17644464547322464,
        0.07763569770247625,
        -0.12935047403385694,
        -0.06835170266148355,
        0.20946255853933432
      ],
      [
        0.022432789929439034,
        0.05416097647158885,
        0.28474042002362915,
        -0.20665517849807202,
        -0.17703994851109733,
        -0.013400919700151614,
        -0.11525514819228219,
        -0.20591230401706137,
        -0.31003966756634316,
        -0.1546557969213587,
        -0.25152693319086084,
        -0.2508101923349186,
        -0.2802832846939397,
        -0.14705940604388593,
        0.15778077780051925,
        -0.24342737202242865,
        -0.09716006573829783,
        -0.18085528401912887,
        -0.15496112311386268,
        0.3132828110067915,
        -0.03727168182501833,
        0.23262643323911864,
        -0.17462456188145925,
        0.13698470091664433,
        0.010493751431983056,
        0.24332955390191607,
        0.20190926800912828,
        0.1609174837484802,
        0.10737378005638776,
        -0.2458197337803814,
        0.24215628792248683,
        0.25187248612607366,
        0.15217343808691675,
        0.23465072910134838,
        0.10359742638343089,
        0.16227452078350563,
        -0.13422406864219366,
        -0.29215274489510423,
        -0.005812193306636182,
        -0.07831681704817345,
        -0.07884331488329949,
        -0.2588494466939436,
        0.272046566614706,
        -0.23284273698947244,
        0.2744776185132199,
        0.29058611020976527,
        -0.13600087825586846,
        -0.2860056803893117,
        0.03835335653284949,
        -0.25781028188820204
      ],
      [
        -0.282598184625891,
        -0.0841190826055436,
        0.28645609900116303,
        0.12717109520200826,
        -0.045855073909596644,
        0.08319253135525523,
        -0.2737009517080036,
        0.06982428174123717,
        -0.2929198927882828,
        0.2540709083099391,
        -0.11942532345478696,
        0.21235721036546878,
        -0.009840682560999403,
        0.14493331554958988,
        0.1001246479078135,
        -0.22527343140067213,
        0.027350642759204236,
        -0.21771259418641734,
        -0.28110056322500954,
        0.10453833714553301,
        -0.16487303520282434,
        -0.2851044794444994,
        -0.17045447281260712,
        -0.0840764407410037,
        0.27816514694808697,
        0.13509248339179158,
        -0.2912433213308265,
        0.10752350388203658,
        0.23902277408922828,
        0.02869839151987391,
        0.05657883056298385,
        -0.05421518067207487,
        -0.27448253802153916,
        0.13359883067854433,
        0.031364630122314885,
        0.18819313373203722,
        -0.0318396355691799,
        -0.17118068652417162,
        0.1904307652516341,
        0.051643123107946,
        -0.07658314140565231,
        -0.13938174361773584,
        0.2876165637866552,
        -0.3089891282581524,
        0.19858723687453855,
        0.15358782354641892,
        -0.24923079774089346,
        0.16802880155786987,
        -0.2945426400495425,
        0.25254452224508855
      ],
      [
        0.1479478352365301,
        0.2522753209597603,
        0.03144202549672609,
        -0.1741896906721251,
        0.04840762823751016,
        0.16678113628468527,
        -0.07979232778050227,
        -0.24160843349675332,
        0.17950489349159676,
        -0.12185382213328708,
        -0.03037562957497636,
        0.24752379658940088,
        -0.30238022565058115,
        -0.2064538264588858,
        0.30755786554502357,
        -0.0321460200828389,
        -0.023490720767338324,
        0.0018008393920427301,
        0.013019269639780673,
        0.10568239180633504,
        0.27205110728758125,
        0.29666466376002104,
        0.1382796514563453,
        0.06944645849107944,
        0.28022252684628585,
        -0.16363884670252773,
        0.025257295252017253,
        -0.27529592179544987,
        0.05637884872234905,
        0.02671884066825858,
        -0.16961115018146566,
        -0.2106051283425793,
        0.0760572537013936,
        0.14758445184209346,
        -0.11810368223602982,
        -0.2844117271829801,
        0.21556150632986587,
        0.2741282935253723,
        0.17432120520237837,
        0.06123501230162326,
        -0.12936696025210118,
        -0.315039373454868,
        -0.09535309000039083,
        0.2933453438544393,
        0.02306784888936697,
        -0.22359053067947987,
        -0.038522732346356,
        -0.03777767914212621,
        0.27880364029826604,
        -0.30535230072150255
      ]
    ],
    "weight_v": [
      [
        -0.020827878962754065,
        0.28385724872660306,
        -0.11388726250090347,
        -0.013410476631008972,
        -0.0066299346970536965,
        0.11978322727645135,
        -0.17632939847531723,
        -0.18281603954776293,
        -0.1085710048650608,
        0.025397725505078073,
        -0.23739925086103242,
        -0.17691169328071482,
        -0.23073189069367755,
        -0.009416702719543202,
        0.09487607048335411,
        -0.2205646523378866,
        0.2665350329792045,
        0.050637054056631714,
        -0.2029903574671248,
        0.1487339181210368,
        0.22634536484562678,
        -0.1567086261742982,
        0.2922585139415665,
        -0.23232359365760089,
        0.2085211615978197,
        -0.06477102908251028,
        0.1831119747238268,
        0.039675233919830355,
        0.23603422804286983,
        -0.05457922810678864,
        0.1834042760824423,
        0.23563733342367116,
        -0.16007277766626443,
        0.19890272245633833,
        -0.0769713837590133,
        0.1720960263121824,
        -0.1313630358990626,
        0.2469494802226408,
        0.01563854583153762,
        0.27175312367623655,
        0.08957458651360523,
        -0.28570039639991035,
        -0.07614863862598856,
        -0.13586198772245633,
        -0.0910180789518498,
        -0.06849915910170437,
        0.01638123931190477,
        -0.21332628817117189,
        -0.14908588418965837,
        0.16403749754039054
      ],
      [
        0.14908204122392837,
        0.2034661294848239,
        -0.22073091997289135,
        0.05894827283713522,
        -0.10452485727424621,
        -0.2164518525230352,
        0.2718973886494957,
        0.21038414070327044,
        0.12826999850773751,
        -0.1678855625166558,
        0.1230824095872235,
        0.14596552515410466,
        -0.18019958010891832,
        0.07630021791458441,
        -0.0871655822273133,
        0.22740540496365363,
        -0.23668383023446038,
        0.26355384549606226,
        -0.15123499510721922,
        -0.04600289755518147,
        -0.21238765215598526,
        -0.2599125350769108,
        0.032152506610456544,
        0.08084904282428196,
        -0.251318092987171,
        -0.15606948094217574,
        0.22502838798357144,
        -0.21685555947995327,
        0.2870476523784304,
        -0.241917519420668,
        -0.21318428248625193,
        -0.03980816589994418,
        0.25898864045318,
        0.20521079589594077,
        0.20814161180067475,
        -0.005669969555030185,
        -0.2000891364554444,
        -0.1631500743576682,
        0.11556784063442888,
        -0.2496408589294806,
        0.019935938487924132,
        -0.18409169706552275,
        0.11676067668150314,
        0.2715244740469714,
        -0.10047653854752447,
        0.2519737798929171,
        0.2335113683387086,
        0.28477830073059024,
        -0.2264104139158118,
        0.1280506402704199
      ],
      [
        -0.16069517755083007,
        -0.007099621349934859,
        0.1368211692295394,
        0.10645940551304839,
        0.009668269212342873,
        0.2631512879101991,
        0.16547835005971862,
        0.05917862858067974,
        -0.14431920765681464,
        -0.022704044309009797,
        -0.09723191019307462,
        0.2145392227971869,
        -0.2719156210397084,
        -0.0165777424490563,
        0.2036210560187935,
        -0.11145236901671107,
        -0.1915712128711598,
        0.09949262649943807,
        -0.091515950553656,
        0.21381418886603637,
        0.03434074543798632,
        0.29067633668822873,
        0.058809609732654866,
        -0.1914045534482467,
        0.12208162932325872,
        -0.11704169479963678,
        -0.08930025232611447,
        -0.05959714006032951,
        -0.25225442097669876,
        -0.18032577529138374,
        -0.16302978628672973,
        0.11029023470913962,
        -0.16614907159656386,
        0.2364884354483356,
        -0.10253694454705717,
        -0.2769597512396411,
        0.05694212290304612,
        -0.23668459304414335,
        0.17429945861345808,
        0.06627425182765728,
        0.09953179170274745,
        0.0810607014470921,
        -0.2803845681346403,
        -0.06762007003076267,
        0.03745978774674569,
        0.1930561946640133,
        0.10326848107285774,
        -0.036639926706583226,
        0.11927190481232636,
        0.1002130176098327
      ],
      [
        -0.24799117856603242,
        -0.10579938029153407,
        -0.04065216967768287,
        0.07033909212557998,
        0.20196677840680372,
        0.23254069624597712,
        -0.19288687341475041,
        0.26991037915575017,
        -0.0927283694425734,
        0.14492148410478323,
        -0.01926855893957863,
        -0.23390444433462504,
        0.15927704513158397,
        0.05400436596542746,
        -0.2357747382347203,
        0.23174440354424602,
        -0.006057679089518209,
        0.09567163746372864,
        0.1629759770828903,
        0.055724625372702785,
        -0.09409634929360405,
        0.28912066121758623,
        0.08948880496689388,
        -0.1776630664637075,
        0.07954311071345116,
        0.03838682663406584,
        0.10374698855689346,
        -0.22992842246175968,
        -0.19822096326358687,
        -0.2707004001814905,
        0.04032166682057836,
        0.05065451772777596,
        -0.1436667929384873,
        0.19774212831356475,
        0.2741039541235984,
        0.19934258457054993,
        -0.21333412545370692,
        0.04689191062909798,
        -0.19694681723423957,
        -0.264818181633331,
        0.2771620017941469,
        -0.03907450943152302,
        0.01444697233357517,
        0.06169827142081369,
        0.20561974807628997,
        -0.016834693457800587,
        -0.22027185314252537,
        0.035019017138581965,
        0.011526360821790982,
        -0.23099597523669382
      ],
      [
        0.03460502446561131,
        -0.2504825617091631,
        -0.11766562094478614,
        0.18460633253497893,
        -0.131147520110764,
        0.2006963569327322,
        0.14093219429363607,
        0.2568598695924504,
        0.23502883814517966,
        -0.26911467795227717,
        0.06958827421902675,
        -0.20388818442960188,
        -0.17480538771702386,
        -0.007045093841391348,
        0.22006342356456804,
        0.17081919985113309,
        -0.17141483677828975,
        -0.2048965366795993,
        -0.00381580368754042,
        -0.08554356257202886,
        0.16248180474645812,
        0.13316515323466638,
        -0.24566156952897447,
        -0.13697240566168042,
        0.08461099332098393,
        0.2892272202150206,
        -0.29025763231042545,
        0.13327692933813295,
        -0.07271266884315117,
        0.01329796956838114,
        -0.1802588324990359,
        0.15431448500971545,
        0.11393084517517149,
        -0.26891362578878963,
        -0.2506555402420464,
        -0.28665305190443724,
        -0.18333592301133744,
        -0.0789434739421383,
        0.09936407998286767,
        -0.1837968778547505,
        -0.21539334694497392,
        0.05053918076817099,
        0.152384824914641,
        -0.27954329553429713,
        0.03827457145927632,
        -0.02147926182590626,
        0.1911132599905394,
        -0.11144458066592552,
        -0.11998533270756959,
        -0.06633217279595824
      ],
      [
        0.2135883098154066,
        0.19376605299055621,
        0.21145576103302038,
        0.26617692481186345,
        0.29111757082711137,
        -0.2188779286638199,
        0.2782563323271559,
        -0.00963229973489349,
        0.09651278228959964,
        -0.13416166078737105,
        -0.22425821278687913,
        -0.06978645981352641,
        0.06263186587328351,
        -0.15969585216970972,
        0.0898511862748938,
        0.09906567893776164,
        -0.01631200352069334,
        0.006998520493866123,
        -0.03896473166515729,
        -0.03336587594964041,
        0.05729137793507538,
        -0.27153625994387937,
        0.029990609293472636,
        -0.1714073846963312,
        -0.003993014012097784,
        0.01018120681733764,
        0.07072878391135806,
        0.06414729439886319,
        -0.049784158102277626,
        0.14074087318533945,
        0.24018784728030457,
        -0.11701793178324915,
        -0.17825059058976786,
        0.05730193244895032,
        -0.25669641493200385,
        -0.1797743100106412,
        0.15308639229842225,
        0.14725195223250048,
        -0.15316528515583877,
        0.17124879331187404,
        -0.21677218315443134,
        -0.1525046734912497,
        0.009024741415688375,
        0.11374591084267488,
        -0.2019576587703958,
        -0.034716633104217354,
        0.10301929758571915,
        -0.11581253293575941,
        0.007686535048746779,
        -0.23124720003225774
      ],
      [
        0.07068118119543748,
        -0.015123721650418975,
        -0.05095437736769451,
        -0.008021641832138215,
        0.2549382800992119,
        -0.25254988607085815,
        -0.16383323651150028,
        0.18257329921656934,
        -0.19738255405698768,
        0.27052269704259163,
        -0.18413660991813113,
        0.13500140177037817,
        -0.2126923729387889,
        -0.05168552373679644,
        -0.11779561852373022,
        0.16435716759778363,
        -0.05282312083343671,
        -0.1448711373609806,
        -0.15575012091581525,
        -0.1290781235094218,
        -0.028334766894183294,
        0.056944384204080656,
        -0.2006456451801295,
        -0.27258876314540026,
        0.11757765012806298,
        -0.05729793692935431,
        0.0004974631854297584,
        0.162535443842302,
        0.23685187748672437,
        -0.10218760575756192,
        0.1476221187617589,
        0.16062671124054095,
        0.2592028670217003,
        0.17603452473264114,
        0.24597960870799723,
        -0.01865781314369691,
        -0.050942910637961275,
        0.10801502354257475,
        -0.061784967734737406,
        -0.16003165908455202,
        -0.12812387035856426,
        0.20909068337351316,
        0.09630402002428029,
        -0.2863973304474911,
        0.006207632963364962,
        0.0504962850306076,
        0.28014265347628725,
        -0.04183933220879138,
        -0.17982200789420694,
        -0.05799437541349431
      ],
      [
        0.24145913342395958,
        -0.29136917910765153,
        0.27289106446117134,
        -0.24159071915362929,
        0.11122068058217371,
        0.03065169386424349,
        -0.08430978225298005,
        0.10886498600267719,
        -0.17958903395853987,
        -0.06008282863955486,
        -0.27267460707840874,
        0.28510810642061596,
        0.17356049177903088,
        0.2918182680949493,
        -0.2921323378655622,
        0.2640870555454629,
        -0.0026632819828168453,
        0.06342310823690372,
        0.28993165663525483,
        0.030663955326108716,
        -0.17934589215166874,
        -0.19082211000388874,
        0.22097536827810177,
        -0.06622783366675519,
        0.16537690064005267,
        0.14877492097117095,
        -0.196001485728922,
        -0.1732747392135489,
        0.18754234758928656,
        0.14161410894716675,
        -0.2267158915907535,
        -0.21244866792242478,
        -0.03216372728801187,
        -0.07534234455592953,
        0.25253832249280744,
        0.27738889801475314,
        0.2219618656504489,
        0.23427084561161832,
        0.14940065847939565,
        -0.04739369380951136,
        -0.04267808530615119,
        -0.005826369538520337,
        0.1365832100618406,
        0.21379683552741308,
        -0.27919470131436325,
        -0.018204515339418692,
        -0.0011536743063662036,
        0.09118244186073515,
        -0.06204916551797737,
        0.023447517214810754
      ],
      [
        0.2753458504851745,
        0.019905090808006343,
        -0.20378485533118168,
        -0.008521488577165337,
        -0.23861402865350015,
        -0.2787298344473438,
        -0.2923212678099852,
        -0.03040662122900023,
        0.06442132761293978,
        -0.22992215713271277,
        0.02680011652093789,
        -0.008028938830656307,
        -0.20849701300939194,
        -0.06348067799350737,
        -0.24614104211002708,
        -0.2560986322040526,
        0.21397555672494256,
        0.2924786209366111,
        0.17932185955092955,
        0.11813414877693129,
        -0.02853438795155072,
        -0.11677740802650582,
        -0.03496309945011278,
        0.07571472028819154,
        0.04490558581783399,
        -0.02655213358031655,
        0.24267803864753418,
        -0.25874731604819834,
        0.1735915495692612,
        0.033935755788568334,
        0.2579370306258057,
        0.07910532557540756,
        -0.2664789971444594,
        0.2641378381288408,
        0.10089920989017864,
        -0.1309520704978443,
        -0.18190103025993054,
        0.2612758377881132,
        0.08090402379922679,
        0.15150221717946472,
        0.2394055329542341,
        0.20184462512960566,
        -0.02172095047026623,
        0.10103245591552495,
        -0.2730411328117858,
        -0.24630937882698362,
        0.18991490556380886,
        0.07124138636395555,
        -0.2131755560064581,
        -0.11587283276765487
      ],
      [
        -0.06580792785699274,
        -0.07541383446543032,
        0.007766309382572167,
        -0.1530695124390657,
        0.20328481062587933,
        0.17011832200690008,
        0.033910083031167104,
        -0.25776649526725565,
        0.047704843037752576,
        0.04469917589456163,
        -0.12555424308657945,
        0.27514341644116663,
        -0.13077289426101188,
        -0.19309992483476307,
        0.08256518264547036,
        0.17708027863898923,
        -0.16983629471549067,
        -0.06508185358202923,
        0.15263510860954604,
        0.03772304288084932,
        0.0479455012162367,
        0.06322193613123872,
        0.1565537264804222,
        0.11724204263393456,
        0.2805762593799395,
        -0.18738451225062247,
        -0.25771210247144466,
        -0.18980084076123466,
        0.15382612144254276,
        0.1946724911295456,
        0.07572600576760774,
        0.04634945532334178,
        -0.22446244266863657,
        -0.20844779900262062,
        -0.25683119094052065,
        0.07284042490604681,
        -0.1295560721325022,
        0.11193223999634372,
        0.10995030959422475,
        -0.20593364721438365,
        0.08518360235867023,
        0.1314003966133913,
        -0.24355791908003666,
        0.1830123286294585,
        -0.041871964615202095,
        0.09431689608940885,
        -0.06788758943091802,
        0.0020033366324141433,
        -0.07736707556960765,
        0.21605064302763838
      ],
      [
        0.060956262703914355,
        -0.04750622457669104,
        -0.08632824163328875,
        0.06070554007212903,
        0.196910809173723,
        -0.22617245210362405,
        -0.17027204777007143,
        -0.08838463683787287,
        -0.2918441652599516,
        0.07779417392526783,
        0.18404045082509052,
        0.05558871460745646,
        0.23114534367124612,
        -0.10474972130362353,
        -0.19588436201562615,
        -0.18038936010815879,
        -0.25865899410520576,
        -0.10396347618999799,
        0.23558974529989757,
        -0.20878019926654015,
        -0.08045266964331249,
        -0.12961288870573998,
        -0.19711125229341414,
        -0.09910966230162807,
        -0.12748944468210796,
        0.040290104934244786,
        -0.17360121009263452,
        -0.06320485021764413,
        -0.11777755231927894,
        -0.17311770494914552,
        -0.2410229217284241,
        0.12050452802057415,
        0.19449685262989047,
        0.03280603156778489,
        0.2517095602759672,
        -0.28275783533287807,
        0.030889154681271125,
        0.09479396922234262,
        0.044759116529298926,
        -0.024647526008820142,
        -0.2683649499686085,
        0.23685709582890363,
        0.03546068404630642,
        -0.19284992101412143,
        0.14038204653420083,
        -0.14273292636091153,
        0.033138006766768924,
        -0.24446178857896422,
        0.20275554234751753,
        0.11314709509100546
      ],
      [
        -0.01269711451782729,
        -0.21125246733459796,
        -0.0972674059567569,
        0.20272861677109832,
        -0.1201544197526366,
        0.06459197713007508,
        0.026970246009163867,
        -0.0751290147332225,
        -0.05979078372867652,
        0.17666178915654257,
        -0.006755724935332275,
        0.11692957769302498,
        -0.02490643184115582,
        0.0030370144709522817,
        0.029975792343512275,
        0.15088583279916612,
        0.12309795612347219,
        0.13458301474866718,
        0.04113768687676772,
        0.07620572290173189,
        0.268394224092344,
        0.2825174755658531,
        -0.28924057814567383,
        0.07274209477215937,
        -0.2463050556775108,
        -0.28136356041016153,
        -0.1560598994392683,
        0.2889345487744211,
        -0.2012713558705756,
        -0.2610868421433177,
        0.24772008432902798,
        0.03968126228152136,
        -0.21969048235420605,
        -0.18479157292517967,
        -0.05717514534413018,
        -0.0350292615407215,
        -0.07408529021168703,
        0.16385481246968292,
        0.23933751075745086,
        0.11629241639411442,
        0.16261772189540363,
        -0.28309066651039877,
        -0.291516808065842,
        0.17757630739446473,
        -0.1973046439703664,
        -0.27308677849771124,
        0.06533730872346188,
        -0.2891295592491262,
        -0.20136593828329497,
        -0.265968796648132
      ],
      [
        -0.12543521332104626,
        -0.26753265171277457,
        0.22636227866238906,
        0.21651846120053359,
        0.17277933095906556,
        0.2084444883033833,
        0.09564755702025168,
        -0.21038407121687203,
        -0.12320047277609697,
        0.03717560156300703,
        -0.03900743719087729,
        -0.25629920796438843,
        0.21826935713906587,
        0.16975424498356834,
        -0.09434364357392003,
        -0.289580380022925,
        0.05857111347504179,
        0.10126230914975437,
        0.08680797973477938,
        -0.2505533911572051,
        -0.2673892517676999,
        -0.11301044223232229,
        0.0023167173830870302,
        -0.2382190043166022,
        0.2573222444895819,
        0.22579011427392798,
        0.07305710925448305,
        0.02744698991484712,
        0.13615157769254405,
        -0.06692713740948997,
        0.19990625102338616,
        0.24326912457717226,
        0.14113262483747202,
        0.22582065361474396,
        0.12095671151601095,
        -0.27266443392531975,
        -0.21616765044570774,
        0.2559583465980941,
        0.0691789236680248,
        -0.2920878129051211,
        0.28305582736418805,
        -0.0551820375610132,
        0.24492917847283396,
        0.1990128583273087,
        -0.13822386244850682,
        -0.129800253454142,
        0.18595480374124163,
        0.11667069474612851,
        -0.2567039489286587,
        -0.27912537962537415
      ],
      [
        0.2413635879457981,
        0.26092146381917475,
        -0.022040514123028876,
        -0.22360121557715057,
        -0.057474372763378107,
        0.010639028957706687,
        0.1768901513147073,
        0.1359904676335556,
        0.2664435609195936,
        -0.05206142301829342,
        0.20346983329607465,
        0.10597887570856884,
        -0.09968172148026985,
        0.04950369961088358,
        -0.18127521448432604,
        -0.17220387179055185,
        -0.11140682414587724,
        0.03849793542754665,
        -0.188409581379511,
        0.2549658369124224,
        -0.26342974998684776,
        0.07322365168593131,
        -0.24218692487947277,
        0.0006336238711583952,
        -0.01305239093153604,
        -0.16326044711934395,
        -0.22824440847180463,
        -0.10379573140008516,
        0.045483445226603914,
        -0.17962930216616954,
        -0.057147191842244094,
        -0.15423182951416864,
        -0.16385851374099716,
        -0.19407721139384632,
        -0.25291582235638843,
        0.2077619397486558,
        0.05746803515887988,
        -0.21527209095401606,
        -0.09291753710708595,
        -0.02414973966184336,
        -0.13185087432429496,
        0.012093658203874813,
        -0.2288234048983005,
        -0.22732739054088003,
        -0.11019596375897997,
        0.017683213331574577,
        0.01325426562627352,
        -0.23786271075861745,
        -0.025964517265132048,
        -0.019321759756578294
      ],
      [
        -0.21046052499569126,
        -0.02045172255071437,
        -0.08924963646063222,
        -0.22573897037168217,
        0.05160104000015492,
        -0.18978160026515464,
        0.2780398879568495,
        -0.21656470081660564,
        0.21481116812587392,
        0.23067198428835428,
        0.03458934803068359,
        0.07768811169210305,
        -0.00437165544154039,
        -0.007660792487380275,
        0.2510775650762846,
        0.1464190701837642,
        -0.14197501130830947,
        0.11027606646358384,
        -0.19087411427610662,
        -0.132148611849632,
        -0.1753692784917833,
        -0.2068672316825578,
        0.2689970634003556,
        -0.11039648631357396,
        -0.09865070409304733,
        0.1833633485491118,
        -0.21942804028228,
        -0.06930314808593407,
        -0.10477593960075968,
        0.19638692813141972,
        0.07763975151213892,
        -0.2618057630805822,
        0.012248247193636541,
        -0.15439046695751757,
        0.15248370894596874,
        -0.16106533698058104,
        -0.14612290665906522,
        0.24278783739865578,
        0.061853128168588956,
        -0.021467954675215117,
        -0.04242804774103498,
        0.17354348140937448,
        -0.10577334163626453,
        0.081636695687348,
        -0.11222101168210388,
        -0.14085163269928114,
        -0.1445540547736638,
        0.20683387895387195,
        0.09391481824826203,
        0.016141829963994436
      ],
      [
        -0.09931626023177101,
        -0.07274178320175007,
        0.2576276945915554,
        -0.20631749081250012,
        0.224786179750523,
        0.05293834032143446,
        -0.07448052412999376,
        -0.04194937515291658,
        -0.25097358280381254,
        -0.28980698932662347,
        -0.03310816183395887,
        -0.03489901960101166,
        -0.1635603004605834,
        0.10515018758363687,
        -0.1816752735381958,
        0.23583044568617512,
        -0.06591097061561677,
        0.2718028832115636,
        -0.1366275264015438,
        0.2835980997484731,
        0.0018476445645794204,
        -0.2798717449229964,
        -0.17093289984247217,
        0.07060641078850599,
        0.1346878460436743,
        0.20631536372748238,
        -0.057867782677409885,
        0.061679175996336044,
        -0.04791439128952771,
        0.029717675242258712,
        0.18592961402103336,
        0.19647651965673468,
        0.011638649268758516,
        0.09627304569995904,
        -0.08798793010386552,
        0.28626266299418596,
        -0.049240573485919814,
        -0.00901275376136379,
        -0.2316291091876182,
        0.18626431802910348,
        -0.15985490573927044,
        0.0611351361150968,
        0.19285337668715052,
        -0.08544889314539417,
        -0.24825008968775114,
        -0.07116363408812781,
        0.10193607184362308,
        -0.1985178716804314,
        0.10955395803147333,
        -0.05668847797789092
      ],
      [
        0.23069081457958523,
        -0.20014393627114402,
        -0.22918968623627614,
        0.16738784373974835,
        -0.05188973391097837,
        0.08020695109985482,
        -0.2585944461920713,
        -0.06283716393383107,
        -0.013696929343498143,
        -0.045658889066836295,
        -0.2860806282199025,
        0.18520561753252712,
        -0.20485775843262294,
        0.00425480577173315,
        0.0976084996701877,
        0.13133637302265416,
        -0.06927269675087563,
        -0.2139655463572494,
        0.24465521585311784,
        0.014384700405354223,
        -0.07071550685671521,
        -0.07145382682341717,
        0.2852333502427174,
        0.275279350185152,
        -0.03244737736615094,
        -0.2652086417322513,
        -0.08154604610281374,
        0.1540298706788093,
        0.24083923355845355,
        -0.17574046170741453,
        -0.17462868625158584,
        -0.266260893782538,
        -0.04170725828491817,
        -0.09172041057500777,
        0.0019193930153574845,
        0.15729909842602563,
        0.13240510645781273,
        -0.25283964613215315,
        -0.262588529565444,
        -0.24578240445898186,
        -0.0387944517084034,
        0.2306601952922646,
        -0.10913807132757497,
        0.23256114174079306,
        0.13772936156655724,
        -0.21197520128113784,
        -0.0753808431436076,
        0.2096178882307393,
        -0.08677852930873484,
        0.055388832123978216
      ],
      [
        -0.24754099444056843,
        -0.19749105049970078,
        -0.22925392268239358,
        0.04457379224099428,
        -0.14465163940460998,
        0.1806900956444049,
        0.26099684726252786,
        0.019648884371083142,
        -0.025372593250452213,
        -0.24396678721642387,
        -0.09607237334793758,
        0.00679881718030001,
        -0.04238394028725179,
        -0.12921523550133934,
        -0.060997526515651435,
        0.09015620162214982,
        0.13889051573196953,
        0.1626157075753435,
        -0.14521098884645842,
        0.13745181748611912,
        0.28332588683578946,
        0.015876829971421147,
        -0.13189642141566849,
        0.022159335476662656,
        0.21319179362116486,
        -0.23115795127174218,
        -0.1717079003492479,
        0.16919461856201834,
        -0.28329482219364466,
        0.17374678983289282,
        -0.07516828097811609,
        0.2714236983204467,
        0.18613614418342622,
        -0.05999000073646571,
        -0.026317942324424304,
        -0.2061812399376663,
        0.18325811686468396,
        -0.11859701795480584,
        0.26898294283949037,
        -0.14442661782505292,
        -0.17542172562910188,
        -0.04239257114867623,
        0.27727467783317844,
        -0.02123548923641838,
        -0.07620740333504103,
        0.0573236578772533,
        0.21048258682827653,
        -0.2896390686613566,
        0.02255169806456364,
        -0.18098980019318422
      ],
      [
        0.14233794767779517,
        -0.11556281346892217,
        0.1324254244344929,
        0.2911430957626295,
        0.015966474806837938,
        -0.019813896572814182,
        0.2200668946577215,
        -0.2766369603319934,
        -0.23639077111809229,
        -0.06172431076043583,
        0.27302119712034073,
        0.1174193155290198,
        -0.21200477924534042,
        0.0015289451236309426,
        0.24249571216920135,
        0.21373334193885024,
        -0.05211876396266524,
        -0.014061677294713526,
        -0.0718641431818654,
        -0.005104314893933426,
        0.2532322711774692,
        0.07526164192484719,
        0.16118338733477122,
        -0.24957808217554792,
        -0.15104241221620124,
        -0.2865893556086972,
        0.13186282924886505,
        -0.22072544810178424,
        -0.2904104836778208,
        -0.06092958502419912,
        0.14475011466187387,
        -0.03636299361684292,
        -0.14321959528321376,
        -0.26047109350667963,
        0.13717900030184416,
        0.0003302874362766661,
        -0.09857067924511903,
        -0.15529334780303125,
        0.2759069208604222,
        0.28968904904205856,
        -0.06700886348587543,
        0.28190490320301514,
        -0.15734585816530536,
        -0.21766802866972956,
        -0.02813552902984795,
        -0.14202755146712578,
        0.16038964789618043,
        -0.020562042702392258,
        -0.27321066621722767,
        -0.07401964847086842
      ],
      [
        0.057339791595432454,
        -0.027602779740722228,
        -0.11792580810848943,
        -0.21708528490468404,
        -0.03642694592737977,
        0.18199095690727762,
        -0.05448734695871557,
        -0.23985257136663185,
        -0.2746345189533707,
        -0.2540633010845665,
        -0.2569294874968424,
        -0.046762786874363166,
        0.2767629254767266,
        0.20339322613640975,
        -0.27063484731443,
        0.1893802769179193,
        -0.08370293840935145,
        0.19450726509449168,
        -0.04016825835871518,
        -0.00165465022047101,
        -0.07136136669513829,
        0.12587660926547573,
        0.1293412331377542,
        0.27005926145417763,
        -0.21787646286289122,
        -0.2668328538006386,
        0.2441379497425164,
        -0.04207037276608211,
        0.07362550423755171,
        0.1316746520382664,
        0.23998211668951525,
        0.25601090355661177,
        -0.0473382294828909,
        0.10127166090073214,
        -0.14630404238172598,
        -0.2714013684585129,
        0.18893463696999102,
        -0.26362113729027914,
        0.056800963240192404,
        -0.18514561328905055,
        -0.15509744194384473,
        0.25062130339113137,
        -0.25228149547946804,
        0.06928053786822802,
        0.14143085305749659,
        0.1792659018644398,
        0.2845859085955664,
        -0.26764988311501803,
        0.2809049587508043,
        -0.28197955075771103
      ]
    ]
  }
}