{
  "num_class": 10,
  "num_hidden": 50,
  "num_visible": 20,
  "params": {
    "bias_b": [
      0.0,
      0.0,
      0.0,
      0.0,
      0.0,
      0.0,
      0.0,
      0.0,
      0.0,
      0.0
    ],
    "bias_c": [
      0.0,
      0.0,
      0.0,
      0.0,
      0.0,
      0.0,
      0.0,
      0.0,
      0.0,
      0.0,
      0.0,
      0.0,
      0.0,
      0.0,
      0.0,
      0.0,
      0.0,
      0.0,
      0.0,
      0.0,
      0.0,
      0.0,
      0.0,
      0.0,
      0.0,
      0.0,
      0.0,
      0.0,
      0.0,
      0.0,
      0.0,
      0.0,
      0.0,
      0.0,
      0.0,
      0.0,
      0.0,
      0.0,
      0.0,
      0.0,
      0.0,
      0.0,
      0.0,
      0.0,
      0.0,
      0.0,
      0.0,
      0.0,
      0.0,
      0.0
    ],
    "weight_w": [
      [
        0.11997598579843483,
        0.28277926137560466,
        -0.10566935512220094,
        0.06275347225470129,
        0.05270485514889478,
        0.042508805609959566,
        -0.2851409194535881,
        0.24903879994260042,
        0.10751831593018946,
        0.22192062891817882,
        0.22722843886596528,
        0.13932066142282068,
        0.27116524074291876,
        0.015689043506555866,
        0.31025449849867276,
        -0.019804287579211155,
        -0.28927523401835276,
        -0.05125971133116708,
        -0.11037149950532396,
        0.19666088703957524,
        -0.2578872161121172,
        -0.1767774484333766,
        -0.0193547246575016,
        0.12655317528367505,
        0.21526713175749929,
        0.030756092484292785,
        0.21590583392242252,
        -0.05387276106941907,
        -0.04555635914997247,
        0.057247723203630974,
        -0.16344106856640367,
        -0.1937666923354489,
        -0.04050561777263262,
        -0.21236139399221263,
        -0.1880528226491689,
        0.2451934847536988,
        0.26136310770077803,
        0.18405003895582955,
        -0.0735179107766035,
        -0.11220892045467479,
        -0.07361203171674122,
        -0.08321060845373768,
        -0.1884063122208202,
        0.16746872164207444,
        0.06756606837755147,
        -0.06124599806476183,
        -0.14803493848682345,
        -0.13447089303925358,
        -0.06929878218201108,
        0.2637285523991471
      ],
      [
        0.23807683892729975,
        0.28887951321250277,
        0.12408120190917965,
        0.10645150671259995,
        0.17464723769556056,
        -0.0034865309322781868,
        -0.23113058789395957,
        0.1093826648274892,
        -0.06200521885572485,
        -0.00699780788599047,
        0.12264099739988865,
        -0.0503533046903471,
        -0.0998285492319895,
        -0.3002863287212009,
        -0.0006309004095995663,
        -0.09776865916180466,
        -0.06880608655421108,
        0.1576311932373195,
        -0.08842664201285941,
        0.019832529073079475,
        0.08425717045599757,
        0.2779033772653026,
        -0.15135742650359613,
        0.10492651467657227,
        0.30007831720281847,
        0.06430551880226504,
        -0.06259015082624553,
        0.029437287891940778,
        -0.23277477164869742,
        -0.23150065449542787,
        0.04591382103884367,
        -0.1987247578608412,
        0.035169593778585306,
        0.134145679534322,
        -0.29559552808923006,
        0.0748378423000508,
        0.009896567700554026,
        0.18123850830216554,
        0.20796989424777018,
        -0.08299408749334733,
        0.2999775572816799,
        0.0514860006713288,
        0.21671307624555353,
        0.010455728834164568,
        -0.05102946033521777,
        -0.2970500383515661,
        -0.2748323894502168,
        -0.25935145452646646,
        0.20418273200881704,
        0.07604575360346472
      ],
      [
        0.18009240543279348,
        -0.1658140952846846,
        0.09533476576228322,
        -0.09299291337771629,
        0.29017295563324513,
        0.26092278876198877,
        -0.13372521494397144,
        0.2739511536292781,
        0.11580227506596935,
        0.3037786795130735,
        -0.20109161324953542,
        -0.31265082958184137,
        0.02297622917971015,
        0.19838576548559012,
        -0.25293132981879723,
        0.23360087135179114,
        0.006481149467335523,
        -0.09490589158124751,
        0.010518864290947005,
        0.10286895486949577,
        -0.14984007596344712,
        0.16167976521908206,
        0.10118002336546822,
        -0.11376742579626178,
        -0.06812831409506526,
        -0.07585171073477875,
        0.19603765536711854,
        0.25120373306474136,
        -0.09256403833030172,
        -0.13147741676421246,
        0.10566541025075094,
        -0.12477014308104384,
        0.06563505007015924,
        -0.17668107496974156,
        -0.20219255321557306,
        0.2640993444852357,
        0.13883352939225596,
        -0.28985318172439517,
        -0.28816232631370814,
        -0.042958172886007506,
        0.2629637525720326,
        -0.22230284836130126,
        0.20629361974915544,
        -0.10944890747741265,
        -0.0892037547943928,
        0.20703555856163186,
        0.1796988068374823,
        -0.2025562757261244,
        -0.14634112188559859,
        -0.136084360879002
      ],
      [
        0.05013510709078861,
        -0.24362090979221562,
        0.3033014073785834,
        0.09352710891303423,
        -0.13024621014693055,
        -0.09394695773603917,
        -0.025543050279431545,
        0.041439058544780194,
        -0.19467253296469805,
        0.09005227465704996,
        0.08347670413148434,
        0.1806002471778067,
        -0.18296646833638852,
        -0.061967702472081554,
        -0.2588593369037032,
        -0.22138826645006565,
        0.2698160576973319,
        0.0406205074703222,
        0.2677234229338445,
        0.016880997110785168,
        0.09627805579546606,
        0.06869921627265702,
        -0.05680985076646333,
        0.05909075880972037,
        -0.16504575207631647,
        -0.14307789095762152,
        -0.28993422038383865,
        0.0017638953644225075,
        -0.07952244881576834,
        -0.21484530616924907,
        0.07688397652209461,
        -0.20185514146634106,
        -0.26809697205610306,
        0.06214381299699567,
        -0.2623601404705189,
        0.1671878349282745,
        0.1705554657566281,
        0.05210549796618458,
        0.040614104912672644,
        0.20464154295960685,
        0.30514563925772137,
        0.08813502307745646,
        0.2847307628711015,
        0.1747956012714722,
        0.06109880375625609,
        0.21861065940864238,
        -0.16093567838465536,
        -0.050980727620717925,
        0.13164208506452418,
        -0.026423582215557906
      ],
      [
        -0.020929081494068413,
        0.1723148544150595,
        0.2816694581156835,
        -0.02316946464065256,
        0.23253837506584524,
        -0.23563497278793805,
        -0.0010230355582784845,
        0.15275684881984708,
        0.3034126751442608,
        0.2511090706029489,
        0.18358826939086287,
        0.15834848007789998,
        0.25210602849199165,
        0.21468262958390555,
        0.3004030391126021,
        -0.12481739975883047,
        -0.06901304577654957,
        -0.06190488971477659,
        0.15047079489800458,
        0.11246114843246996,
        -0.002986611544537665,
        0.17659915753204602,
        0.21204025411381838,
        -0.08656538037129835,
        -0.12092900276942542,
        0.23164948581211547,
        -0.08439550490187031,
        -0.3111582239640191,
        0.2545419554489908,
        -0.12853775844444548,
        0.22650960781051627,
        0.2746920753310263,
        0.12784431495162102,
        -0.25390466447819104,
        -0.07283663566169499,
        -0.27119185737381374,
        -0.3120784417488611,
        -0.017030435701769264,
        -0.2995739412480321,
        -0.21932960091319786,
        0.08315606652264684,
        0.05380411089678511,
        0.02124252436116958,
        -0.20732211697691902,
        -0.2944123602770482,
        0.09293101288525235,
        0.156216029369657,
        -0.050594223814007744,
        0.1242899178228391,
        0.0009282026518748765
      ],
      [
        -0.1617607961440553,
        -0.08648899920840253,
        -0.23672812459234244,
        0.12650878029188284,
        0.0557072722220337,
        0.13278118617782186,
        0.2601457368081815,
        -0.03802557087777514,
        -0.24349940193968475,
        0.10425938060306855,
        0.05417506337844219,
        0.29601707644461667,
        0.24741707961050868,
        0.2354805041667038,
        0.15553225388932368,
        0.10155155747410816,
        0.12602707998455237,
        -0.08967007108939692,
        0.3025394157266517,
        -0.13350306112318633,
        0.14985543654648625,
        0.2026669915298253,
        -0.26447784035439476,
        -0.0459609986684868,
        0.22215564643936553,
        0.2693642542633629,
        0.15191995717655205,
        0.13111422113475713,
        -0.01544747583251388,
        0.019322770286831492,
        -0.007316144717233519,
        0.1154865693393955,
        -0.17563209910184996,
        0.025869204669988877,
        0.1645064108269867,
        0.02506847058122369,
        -0.12312050012120507,
        0.22793483989259805,
        0.21847927973148956,
        0.1433328648205076,
        -0.29906959137205025,
        0.3117355347109742,
        -0.3102304612786938,
        -0.27486275387407944,
        0.12677554117217826,
        0.2872038158380134,
        0.25959567520021026,
        -0.1080948332955409,
        -0.23372965656470546,
        0.10667424011057841
      ],
      [
        0.301986943725101,
        0.10350488080577103,
        0.024679484282963238,
        0.19244054043179543,
        -0.2775434051141586,
        -0.2252041727844878,
        -0.04065295419753656,
        0.058564914945933244,
        -0.03888650610110539,
        0.15550240216955225,
        0.02950201801057062,
        -0.2152762901711353,
        -0.002477502163943379,
        -0.07682651498314358,
        -0.29026457294077224,
        0.0870569445465752,
        -0.24683959604358002,
        0.1142455124541572,
        0.1972431270912271,
        -0.17791437515790184,
        0.2459698029933704,
        0.03464108378756592,
        0.19939722911163021,
        -0.01857905984584063,
        0.2332200700122537,
        0.12562226332163978,
        -0.2896852114564844,
        -0.1288633961835705,
        -0.2683934440913143,
        -0.14293753881367272,
        -0.12788434611766736,
        -0.1814539587931754,
        -0.04321053642572331,
        -0.3021879686348453,
        0.2612736016432515,
        0.23702722805644677,
        0.30860938913769037,
        -0.2875035641464549,
        0.31050914676033464,
        -0.007584344009862354,
        -0.1982584267862222,
        0.23345097408737397,
        0.22411624734773788,
        -0.20089273766559834,
        0.04302364676106779,
        0.008205045448580084,
        -0.3158437522938874,
        -0.23288254727323082,
        -0.04123511937002938,
        0.2278388466404681
      ],
      [
        0.2035920190418951,
        0.22209810535690705,
        -0.1118866151496746,
        -0.174627897320088,
        -0.23931010788545903,
        -0.1474582764285797,
        0.17298714034368962,
        -0.10479055673050103,
        -0.11411175766041823,
        0.06566950037008418,
        0.24912859213688104,
        0.19848022534763238,
        0.24870620124289372,
        -0.2750431229251831,
        -0.14886252350421667,
        0.010165434275809293,
        0.15547121962261784,
        0.28979158956408585,
        -0.1858435353820634,
        0.2781585726331816,
        0.05768480979576046,
        0.24463656295365815,
        -0.023396333183911155,
        -0.2366696304728311,
        -0.21983385525810825,
        -0.11885812298937184,
        0.1585176684629876,
        -0.17319256781304104,
        0.29103387133999364,
        0.22227001440502875,
        0.15925572503105118,
        0.24565064070672943,
        0.309534237324337,
        0.04453312811805227,
        -0.23405105896506992,
        -0.312932366972806,
        0.25725987238503717,
        0.12177084960816148,
        0.10121731199106832,
        0.14079604792036182,
        -0.004911433379063135,
        -0.29147698064112665,
        0.02568179478721272,
        -0.06462463230011678,
        -0.09802925628365516,
        0.07048807483636677,
        -0.2584008362107552,
        0.29273767744807017,
        -0.1601358812691048,
        0.08957267398020641
      ],
      [
        -0.22854575483103862,
        -0.20420689747758808,
        -0.08350900714181056,
        -0.2913231605508307,
        0.24555576402433282,
        -0.2001577873620745,
        0.23125281917283252,
        0.1367175294472947,
        -0.03958266297035451,
        -0.07085157798709865,
        0.17701048628238447,
        0.23641062296680643,
        0.0599668233809163,
        0.02939397951998235,
        -0.31148666072712605,
        -0.08730120823653348,
        -0.29558345133370856,
        -0.30299361200178243,
        0.21269937855248716,
        -0.29596085617780904,
        -0.07774723445167772,
        -0.28249474338246555,
        -0.13770608340205132,
        0.24450064584593506,
        -0.022129737530579507,
        -0.0978110404182882,
        -0.25201319531839744,
        -0.20534793571489832,
        -0.04112083986220799,
        0.15681184061847186,
        -0.0933820762364593,
        0.1611739094170388,
        0.011349812406759696,
        -0.06221568373545733,
        0.2891803695399638,
        -0.1699402944497677,
        0.17890157771092313,
        -0.12021166577315351,
        -0.10350907805789988,
        0.20107478185378175,
        0.16591083468593187,
        0.008126924635887267,
        -0.09218159815092802,
        0.16442067416208128,
        -0.23268870651793466,
        -0.21995060367183517,
        0.014114998363126796,
        0.3063217331258811,
        -0.1898687926279241,
        0.18294938084808793
      ],
      [
        0.21359160224848456,
        -0.3019981712113923,
        0.3020466255277073,
        -0.07119015932217351,
        -0.026880492353882568,
        -0.19016452639809076,
        -0.005322985458416085,
        0.16696491496090238,
        -0.14019537017831823,
        0.09812847337191483,
        -0.07446515948023444,
        -0.05499619768880648,
        -0.14741448520302944,
        -0.050557145624933186,
        -0.020030924041028242,
        0.21387369086736924,
        -0.28261860074296896,
        0.3015711862222999,
        0.08889850880744848,
        0.26033773599879556,
        -0.10674939409728282,
        -0.18048123384264353,
        -0.270797773285772,
        0.22475700373829083,
        -0.11579039364173166,
        0.23657831559823223,
        -0.23739295443288705,
        -0.13014002222694793,
        0.13671555489454007,
        0.14390707285102372,
        -0.23421814603484312,
        0.057560995819500804,
        -0.25394487228787843,
        -0.14931715691478975,
        0.29742370205572305,
        0.16482046476609374,
        0.17845187997482842,
        -0.289481596025006,
        0.08148012755110828,
        0.13373606049406012,
        -0.26255433260971595,
        0.21531691145084558,
        -0.0003250280216788859,
        -0.23144077309571887,
        0.05995950528334648,
        -0.007999038395930913,
        -0.2980662333096157,
        0.27589078298066955,
        -0.30893365073027346,
        0.18657140988507587
      ]
    ],
    "weight_v": [
      [
        -0.07779558575641016,
        0.1531972187754378,
        -0.11619527421049755,
        0.1599020607151705,
        0.17640744959567528,
        0.08317011485987325,
        -0.1164326171150569,
        0.03573290353927372,
        -0.11851077528180587,
        0.21780042015281859,
        0.20294611301004883,
        0.19063348383096607,
        -0.1332686204308188,
        0.233811925109291,
        0.17213069010355442,
        0.10972171039592382,
        -0.10169929203663369,
        -0.008733333019233624,
        -0.10584660604948357,
        -0.2216423481806038,
        0.2371831968703048,
        0.055437284470652326,
        0.11072337308153679,
        -0.08437269159138397,
        -0.19108944404593264,
        -0.0889267188540028,
        -0.059007406778966764,
        0.11906387274409302,
        -0.03845575294690945,
        -0.06648640912922349,
        0.2702294611572516,
        -0.103041004849523,
        0.10525311325188602,
        0.24958723420176093,
        0.22555856206827546,
        0.090712978016597,
        -0.11454925851491779,
        -0.14545036680833506,
        0.0815564088896325,
        0.12321070697264663,
        0.20274067054013967,
        0.13933156979955208,
        0.21476206359668654,
        0.18631872624375012,
        0.14719646792542362,
        -0.2081651821811217,
        -0.05068244025680679,
        -0.2146943995256772,
        0.0649235389720948,
        0.09293668692622731
      ],
      [
        -0.13994219516202708,
        -0.12322662263611114,
        0.015149682544767173,
        -0.20256796979133102,
        -0.14805491562751372,
        0.18634235787061443,
        0.20850832751432374,
        0.04396482573782601,
        -0.17950406746742975,
        0.23788970164377593,
        0.23991447061228538,
        0.1914926535312843,
        -0.21303385560010546,
        0.08712871454012111,
        -0.17887345564803547,
        0.17428368237057335,
        0.1855786796158458,
        0.23085808079596631,
        -0.11314802739321658,
        0.27601067408054886,
        0.13046889603402823,
        0.09554424433246972,
        0.2169849065399439,
        -0.2827851049697407,
        -0.2749354476922545,
        0.028388562239414383,
        -0.22269412056280904,
        0.008691836052500235,
        -0.22231065327700705,
        0.07511973170304997,
        0.14400629528243963,
        0.08356754175918946,
        -0.011251765496625654,
        0.02410175757545835,
        -0.1310905356099161,
        0.25703721494381176,
        -0.12012584827101652,
        0.08692096826582685,
        0.10994042964238765,
        0.024574992376825144,
        0.17302340997470322,
        0.2692532207421238,
        0.28228996238479215,
        -0.06798311590828068,
        -0.006297282971104823,
        0.011831674543585857,
        -0.1657270865571065,
        -0.17217295891989637,
        0.1890590816699162,
        -0.0024926379532042575
      ],
      [
        -0.22037863465914953,
        0.19170843828637363,
        -0.011991627398327154,
        -0.17585194891470352,
        -0.2875032086509345,
        0.14617637590888838,
        0.28798861707649176,
        0.1620851281891792,
        -0.2270530063249367,
        -0.27846982331493364,
        -0.2197229914800634,
        -0.06578191487529203,
        -0.11355257620231168,
        -0.0683617166761474,
        -0.16778722599277002,
        0.22207947693960145,
        -0.20970463159942426,
        0.11619664230859555,
        -0.11157220056920975,
        0.03897985745887672,
        0.15729829969439707,
        0.19592320370375826,
        0.08149553582077085,
        -0.08714278435195927,
        0.230074728157507,
        -0.28004500687235484,
        0.03947872622083115,
        0.11553794134325046,
        0.26399284862985134,
        -0.09372350318420336,
        -0.07789490050786924,
        0.2502309537090159,
        0.1982892104082561,
        0.01918484102056406,
        -0.045530655345366905,
        0.02656674415778998,
        0.19443821242221448,
        0.2316024548383247,
        -0.15210908600434875,
        0.20733951423096425,
        -0.09866446447556104,
        0.17729668450500435,
        0.0039007148472702813,
        -0.09859785875922947,
        -0.02661889806249046,
        0.23350565228930237,
        -0.05527007498713865,
        -0.018788536091020602,
        0.12544143132001317,
        -0.2599313895468906
      ],
      [
        -0.16097201200226802,
        -0.039936707095081236,
        -0.12942588640038807,
        0.2553338787625706,
        0.03475177991808637,
        -0.23501006337018768,
        -0.1077104799312987,
        0.04884689223594918,
        -0.2523660064063229,
        -0.06343926854796633,
        0.08691925638185832,
        0.20502866694351923,
        -0.18636107887709488,
        -0.10033883613543387,
        -0.2851266365756594,
        -0.04707115981302282,
        -0.10599877040105357,
        -0.05670767324172196,
        -0.027398073178839022,
        -0.09778560232515263,
        -0.23776258941053324,
        0.24077709557254917,
        0.07305139135993938,
        -0.020299800020313563,
        0.27619669733592117,
        0.0875222908269746,
        0.1327508563231249,
        0.15531241979092864,
        0.18592259987933313,
        -0.03503066166209989,
        0.2250164255287112,
        0.10656365303652043,
        0.25020073888818356,
        0.019264132927800215,
        0.18842780084025906,
        -0.07007113811330451,
        -0.17191850250430188,
        0.046779361382077944,
        0.209931999560177,
        -0.09905205846845455,
        -0.14635582753026916,
        -0.06726751755841817,
        -0.148925602531586,
        -0.2809714902420379,
        0.007449297178482417,
        -0.0907481075025098,
        -0.014937095210175,
        -0.13982285295182945,
        -0.044762764853805176,
        -0.1565938011767216
      ],
      [
        -0.016788262680258847,
        -0.029530350244940162,
        0.21804426000611693,
        0.2394139924223923,
        -0.013641515301748675,
        -0.1458949832968084,
        0.22876300485469608,
        0.04977454402802911,
        0.19684896873383279,
        0.08290403498944104,
        0.14764044652227104,
        0.2256506975228459,
        0.26683948002199637,
        0.2526111533423763,
        0.13296467857550787,
        -0.17890375406334558,
        0.08316922991934844,
        0.1419588104312393,
        0.26120803554295274,
        0.028048412810330825,
        -0.0867330509799952,
        -0.2563620007536807,
        0.14320887444078162,
        -0.0011300514387593275,
        0.27692272264789913,
        0.02065354332415148,
        0.16953189171808092,
        0.2330038088092939,
        -0.13448653462477012,
        -0.28891547629764625,
        -0.2495314074459412,
        -0.06160221247173053,
        -0.2906315034776005,
        -0.22112273477430275,
        -0.14762947419639236,
        -0.22775803286970236,
        0.26257705092193656,
        -0.05071107663673577,
        0.28754697720382766,
        0.11231652945194315,
        0.08552533012538993,
        0.09501924811818568,
        -0.27812763995184364,
        -0.11798767836347682,
        -0.09903767828713406,
        0.0672225827446965,
        -0.2442395654726674,
        0.21972470214436107,
        -0.14243893797118132,
        -0.2785494422752331
      ],
      [
        -0.1976406626748187,
        -0.2617648860419464,
        0.1537604972217787,
        0.18835722842251945,
        -0.13890685334396458,
        0.15419130548288557,
        -0.08977540811848145,
        -0.09617056263062357,
        0.1503533438792622,
        0.09913304915594989,
        -0.11864829630539689,
        0.11735854852319383,
        -0.0029777684839962237,
        -0.19989746873590114,
        -0.03460019861108016,
        0.1407630055099664,
        -0.04631337148737996,
        -0.2147097133563992,
        -0.09886394120006331,
        0.036796487735353656,
        0.29175462119373236,
        0.05160922198521328,
        0.11041782874075351,
        -0.17260010062904882,
        0.138208607978828,
        0.14996783257319352,
        -0.1927181394464046,
        -0.2519715162687261,
        -0.052255078300394886,
        0.21045484306391443,
        -0.008592995377935675,
        0.14196809449491588,
        -0.06157861027681136,
        0.11528168590414972,
        -0.0012881556504922287,
        -0.17914968669363793,
        0.06508513984147296,
        0.1855061681912536,
        -0.08701843644744803,
        -0.23421048957472917,
        -0.020904644629249736,
        -0.2501744484866726,
        -0.26144658962628253,
        0.09116798958240713,
        -0.04571939981166101,
        0.058949324213354415,
        0.027715777743497427,
        0.12580107537406926,
        0.1100585198055733,
        -0.10904828200171285
      ],
      [
        0.11815770885879201,
        -0.20553408260157557,
        0.1222781186446481,
        -0.18382526114671044,
        0.27484741078179126,
        0.011037073744163628,
        0.24633364002156416,
        0.06425474636851997,
        0.11599412106450457,
        0.14831004498162698,
        0.2884407727304283,
        -0.10141998361924531,
        -0.15617092813083638,
        0.20843737856624572,
        0.2548418742807294,
        -0.27682459284204314,
        0.2543541829083707,
        -0.05791954884656028,
        0.000773269869184301,
        -0.04278652096165089,
        -0.2691542352090978,
        -0.04005845521426332,
        0.03443710443209097,
        -0.03054009501074173,
        0.1422354508592547,
        0.18580351244304905,
        0.06939676420585444,
        -0.2589011361492636,
        -0.28937292315027296,
        -0.12150569651031212,
        0.1942491912944756,
        0.13403876471701087,
        -0.06336582731859358,
        0.17131265495500891,
        0.19369467016133274,
        0.2344288042786959,
        -0.051386012111531654,
        0.2628063019440419,
        0.028860755055734932,
        -0.009996230505118275,
        -0.25479235767964653,
        0.2200767001493757,
        -0.11839454552907103,
        0.23339234463095132,
        -0.04456016607939123,
        -0.24444955550832798,
        0.046324452352676404,
        -0.1727478036759791,
        -0.004567636172809253,
        -0.011506186101484739
      ],
      [
        0.1950639927421664,
        0.2780289339568482,
        0.23969764552345268,
        0.17323499521184355,
        0.14373614097937804,
        -0.06947105944316423,
        0.10121895972683231,
        0.25646163286282203,
        0.26370260308129795,
        -0.17071752050409444,
        0.06405345862543382,
        -0.1434980277155517,
        0.18266650461174794,
        -0.19495091978904627,
        0.2646891070405993,
        -0.17096124285719258,
        -0.2663236077343731,
        -0.0150054524109684,
        0.07013022862290746,
        0.2699270224068718,
        -0.1474773920694396,
        0.25005705890913393,
        0.2753866036783162,
        -0.14229030099637616,
        -0.07308774621339248,
        -0.07936350894984709,
        0.1584935134925201,
        -0.2107821552796712,
        0.15773265819709337,
        0.2139443911118199,
        0.042449207343281614,
        -0.015947112311098355,
        -0.14304978398925247,
        0.11482277787917661,
        -0.19253435918753792,
        -0.12455006757703135,
        -0.07744238314459498,
        0.2873164580074941,
        0.20989942319031013,
        -0.172821467718986,
        0.16359875009688696,
        0.07607041674485626,
        0.2667693113241814,
        0.1910258083698863,
        0.18000204932605524,
        0.03476517525875994,
        -0.13218710454477903,
        -0.028109174284872473,
        0.15941347588337423,
        -0.26193818744233177
      ],
      [
        0.2229329831226478,
        -0.03238116532582602,
        0.042668774056422665,
        -0.10856452942108524,
        0.12745911069615584,
        -0.26169981487687266,
        0.2655548119979067,
        0.08854832624223458,
        0.03495832744491756,
        0.1506372379488345,
        0.20869938423385753,
        0.060688742438512466,
        0.2827092405157084,
        -0.24541747792918636,
        -0.2701776721915449,
        -0.2689638111141288,
        0.2214627721855144,
        -0.1471899892631374,
        0.056953897124059405,
        -0.23030345997019447,
        -0.2805927973493337,
        -0.2532478282791223,
        0.23567056112069334,
        -0.1792753646857711,
        0.07302183323380668,
        0.12901462226583787,
        -0.04551566420959474,
        0.12346279756909107,
        0.13903986703392957,
        0.23214357614212205,
        -0.10984047792014276,
        -0.23170359762724818,
        0.24459499074509666,
        -0.29045469130881696,
        -0.2587228072184686,
        -0.2306345141436689,
        -0.1316263095375807,
        0.13478837280622613,
        0.16985382514384,
        -0.28453365980120676,
        -0.04559810733455297,
        -0.10508075535866723,
        -0.11918619599529662,
        0.28473400159603507,
        0.04185959611361395,
        -0.04436532486542202,
        -0.20918223508206618,
        -0.02213967753052931,
        -0.2432134044051866,
        0.08179534462138643
      ],
      [
        -0.1910755029191628,
        0.16052138533472493,
        0.02328028031905255,
        -0.0194799670218071,
        0.2600392593623187,
        -0.14882045899772617,
        0.0850298114819058,
        -0.019692299729931084,
        -0.19292633947120894,
        0.1761676299610322,
        -0.23307341725367148,
        -0.045269571221737276,
        -0.24922967135375015,
        0.24328056655926028,
        0.17748260178157788,
        -0.08571839807740828,
        -0.0012701341558321033,
        0.027331693832865878,
        0.20603714020549896,
        -0.2125456506025275,
        -0.19347013258720316,
        0.06159068633237247,
        0.22866303654847636,
        0.07685575246183574,
        -0.19969020578825253,
        0.2361206575844959,
        -0.0089091301650156,
        0.08380342039983496,
        0.23796316459947126,
        -0.19930389236600216,
        -0.012991579912967732,
        -0.20483554679263166,
        0.0024333386547502056,
        0.16747261274189706,
        0.15789908457434892,
        -0.20426389469672868,
        -0.006477912303210265,
        0.1720353173734676,
        0.09312937480941036,
        0.22643669443266295,
        0.22760904565076517,
        -0.06129632046292993,
        -0.1038063225067796,
        0.05986206769151986,
        -0.11122098108217068,
        -0.10292906143804686,
        -0.2867650355333223,
        0.08330375604782408,
        -0.07220316488596754,
        0.1836930741930482
      ],
      [
        -0.24127190455278832,
        0.06456237764035438,
        -0.10403700772080846,
        -0.11958559081151962,
        0.1897842184088619,
        -0.19703668886114645,
        -0.039344645526089295,
        -0.21225030169806808,
        -0.2790277534053092,
        0.11264378453400958,
        0.04688324112315401,
        -0.05089196185594133,
        -0.2422500700109514,
        -0.26813827866330087,
        -0.2666863476903385,
        0.05931007585125808,
        -0.247320815337423,
        -0.023627091837392422,
        0.1258048238191113,
        -0.2309069037850079,
        0.1499955838092405,
        0.2356601028495408,
        -0.2853495335102585,
        0.163361893638798,
        -0.05386092364338163,
        -0.1137483250546916,
        -0.18028807912803352,
        0.02631926866106482,
        -0.14754577006806313,
        -0.07105561042528802,
        -0.20059474442454703,
        -0.18222420134835482,
        0.019436376900631658,
        0.2267204114971581,
        -0.2158300946845081,
        0.2737282270921955,
        0.28587789533354163,
        0.27554051201267177,
        0.025857769683948373,
        -0.22678374276604113,
        -0.011519311597303683,
        -0.1744102882811491,
        0.2888188799572093,
        -0.1263801722452792,
        -0.011126398849855446,
        0.1270329904939242,
        -0.15746857115149887,
        -0.0003109344777227352,
        -0.010238393407184132,
        0.1873144716233432
      ],
      [
        -0.07060771766963606,
        0.0802437073809888,
        -0.16563710367756232,
        0.14045408369000612,
        -0.21934112244166237,
        0.10068194728321817,
        -0.24033167033542693,
        0.14583366747704113,
        0.03498261230677674,
        0.14105474226844994,
        -0.2601438520127183,
        -0.26586008500634906,
        -0.23552095489942815,
        -0.008967543786966181,
        -0.21834775330915024,
        0.2384322415672005,
        -0.13883246540670202,
        -0.2090820622564002,
        0.1223505100638071,
        0.2748217647490922,
        -0.02395090807336525,
        -0.18350740889097222,
        0.11718801706466431,
        0.2886067645255586,
        -0.2301443121483745,
        -0.02793788708959838,
        0.14927133926975183,
        -0.17315097915411587,
        -0.092421335057569,
        -0.16872365850872909,
        0.008899654618584385,
        -0.07969366418300744,
        0.1147897069345788,
        0.025946925070890248,
        -0.16009797907160275,
        0.2835243866477248,
        0.2605531245966098,
        -0.19784053884509128,
        0.2271044540057629,
        -0.0026112685487242326,
        -0.02600761106403454,
        0.2261687658093841,
        -0.25513722969816155,
        0.24832401215326655,
        0.04973306975283315,
        -0.012359652688823941,
        0.10475957582463924,
        0.19705015441313073,
        -0.01877743063002779,
        -0.2647281560182626
      ],
      [
        -0.11705560025986123,
        -0.006197411950819021,
        0.11783442099228364,
        0.20393908055343618,
        -0.21637941395935043,
        0.22272564997271144,
        0.1301895550312379,
        0.027870794170925084,
        -0.06371848636476965,
        -0.13873960298850052,
        -0.2517403269545198,
        -0.11266091456775565,
        -0.1389092525822697,
        0.013162987671698045,
        -0.29010265184921596,
        0.06625130218224551,
        -0.08666436586572909,
        0.0911292640451935,
        0.02774392704690981,
        -0.004981708361349313,
        -0.05608277064405148,
        0.2551453862485597,
        -0.10922953813317443,
        0.1949274558357793,
        -0.13303283841276706,
        0.21189891613415507,
        -0.05532395920525804,
        0.027573192223999177,
        0.1870945411386593,
        0.04500756185995647,
        0.2549397284198091,
        0.2113400892104686,
        -0.12921407614519617,
        -0.2050254625199085,
        0.2706501053066385,
        0.27827514567681594,
        0.005740282486236814,
        -0.16923633546771355,
        0.13483926598126766,
        0.2665973242860928,
        0.25102236297360686,
        -0.09057118714153178,
        0.1245300700890159,
        -0.024503503554291817,
        0.263213569653216,
        0.21234934895357244,
        0.23573841550467217,
        0.09372883072070787,
        -0.2869463136449922,
        -0.2241347466104
      ],
      [
        0.18206222529074484,
        -0.20859527499915187,
        0.0529885750469572,
        -0.1404148011765836,
        -0.2620391982298395,
        -0.2521409872356334,
        0.03595829120212102,
        0.2706814796137808,
        0.10554774029435976,
        0.09278874238187723,
        -0.18646257881288725,
        0.034229666219592336,
        -0.16496271946535862,
        0.003349320180309645,
        -0.15080507241202512,
        0.09058939490264495,
        -0.08566809229645223,
        0.01385300162782932,
        -0.18523094811932292,
        0.28762222621631667,
        -0.17987412142743048,
        0.051753794676379694,
        -0.24219054952990912,
        -0.17436916487438342,
        -0.2623954929747014,
        -0.2086059138994241,
        -0.08111515067289934,
        0.07157305529370955,
        0.22360253423758208,
        0.14554334111266082,
        -0.03179773677098635,
        -0.2826866312207297,
        -0.20229737619205426,
        -0.05977382509109613,
        0.06539874920474492,
        0.2241707220856432,
        -0.24730247412398143,
        0.025453982718270873,
        -0.2876048099096468,
        -0.07029886153194775,
        -0.2785797907562751,
        -0.1674424248146843,
        -0.04434029663712244,
        0.10356213096972172,
        0.24104455578352418,
        -0.18233052393624638,
        -0.08948299069698618,
        0.26897670434411797,
        0.09533843153139954,
        -0.007879543953278834
      ],
      [
        0.03709582844058451,
        0.13258019829184253,
        0.23363595515215313,
        -0.2015953443957964,
        -0.05607599112379247,
        -0.09479093588146567,
        0.1063159772680537,
        -0.24379674628887624,
        0.2207543817239252,
        0.23828540549400706,
        -0.08857892706924222,
        -0.23472487409545734,
        0.03820888115133658,
        0.12598777734505734,
        -0.06837716632102761,
        0.17190897087529888,
        0.20898987776372763,
        0.23461585652343891,
        -0.09162561941924866,
        0.27136680864441715,
        -0.2747545613190074,
        -0.10828998997861389,
        -0.036182520988600475,
        -0.03225141605024101,
        -0.2467369594766799,
        -0.12116020247747464,
        0.018877448861455204,
        -0.18284600968007014,
        -0.06472437837221484,
        -0.16198286733892164,
        -0.1286215024015701,
        0.12371694099311287,
        -0.23678856352070576,
        -0.21789756149876377,
        0.1937021360314678,
        -0.07841340242916775,
        -0.23975363336478278,
        -0.057737227477460795,
        -0.10613774685421892,
        -0.035055111534827155,
        0.16768529311133246,
        -0.08433927000262964,
        0.24931218561639784,
        -0.029499303270918376,
        -0.09165686214345634,
        0.19977656423745072,
        0.10188505442750517,
        0.04206422208608496,
        0.2821185805932798,
        0.1597519296037591
      ],
      [
        0.13620445297890194,
        -0.007585996918921145,
        0.25226397278819007,
        -0.06511320687251038,
        0.10372830990433723,
        -0.21240200873565762,
        0.2356759977479253,
        -0.10402621411636268,
        0.077086399544468,
        0.27976517334883994,
        0.21211802457864787,
        0.06616388739397316,
        -0.13229300368684008,
        -0.11750853108301007,
        0.21892500648161334,
        -0.28601227543478613,
        -0.05131539415931294,
        -0.060377036723454125,
        0.028497462715822985,
        0.13350997562767714,
        0.08114386154503206,
        0.12095211331886058,
        -0.026169888997826518,
        0.26167998018958655,
        0.15235391026418083,
        -0.08431761595414425,
        0.29222740609797165,
        -0.16021212139759522,
        -0.2862130184957305,
        -0.045318622344292486,
        0.28600371848502776,
        0.24625947926859787,
        0.12704437454733308,
        -0.05755357169965386,
        -0.17794428016659514,
        -0.06202948150520729,
        0.05396969015735248,
        0.12567237152041433,
        -0.2671325310135062,
        0.25372932496735184,
        0.2793563112969208,
        -0.007659829610206448,
        -0.2827462578151798,
        0.136280685031348,
        -0.13008759375490767,
        0.23459815702888925,
        0.21206618518593207,
        -0.1067657224080946,
        0.1057645905551266,
        0.08903806519246399
      ],
      [
        0.24602232086902126,
        -0.24308797963464912,
        -0.0007614292214682683,
        -0.29251432581870374,
        0.1298832539282846,
        0.13346733822656942,
        -0.2450380179904341,
        0.09568071259581501,
        -0.01212851337492682,
        -0.26646352120928873,
        -0.14873864982510557,
        0.022091473133106776,
        0.07059968669611077,
        -0.15738086884351754,
        0.26827625555994733,
        0.14825303332367934,
        -0.14437669935889583,
        0.02651878029761673,
        -0.11219607246289234,
        -0.28275617098000666,
        0.08208822717683556,
        0.19470953418771353,
        -0.10446885713788936,
        -0.0870069355413021,
        0.26035094394962305,
        0.12384510685931943,
        -0.22969103664797552,
        0.13846723329948712,
        -0.05145237902064834,
        -0.13074747744861012,
        0.05553355722959419,
        0.13403106533438863,
        -0.11291929059526917,
        0.007425926377316705,
        0.05603397572124308,
        -0.24315254759844812,
        -0.11817706376005885,
        0.09288786656633063,
        0.1958177038571387,
        -0.11538811270802155,
        -0.2062817131632608,
        0.06274033316317029,
        -0.12221987211831706,
        -0.18509513625695823,
        -0.1286832667413296,
        0.22085531723916402,
        0.2601487893004542,
        -0.08587588610016658,
        -0.03382316600670887,
        -0.19806113295947747
      ],
      [
        -0.25431910387604123,
        -0.17850233835278762,
        -0.011702556764854322,
        0.0824382061083519,
        -0.199405717591906,
        0.12752193352406166,
        0.06307790536486885,
        -0.1203451654958399,
        0.19142290000497136,
        -0.001300074172591148,
        -0.06791902601049979,
        -0.10975704294601313,
        0.2728513660911996,
        0.013589153854592861,
        0.15916090605469496,
        -0.2872430476178045,
        0.1593887984005914,
        0.22418004033700495,
        -0.26379419274954385,
        -0.13528622166788237,
        0.14452307719207608,
        0.24627033087425437,
        0.2429177956258805,
        -0.030508157595193264,
        0.18677202541327131,
        -0.015829703618143343,
        -0.0959218946353528,
        -0.10891594507235924,
        -0.15562244238759526,
        0.0725095924601355,
        -0.23783179288719164,
        0.20506293905452788,
        -0.18517239891688053,
        -0.02359883091018894,
        -0.0651791877665833,
        -0.061138789579715774,
        0.16437209734684932,
        -0.2513220953806367,
        -0.07039571117535826,
        0.01366344787796836,
        0.008876444979914022,
        -0.17115439789013154,
        0.2669256527606127,
        -0.12356889810462368,
        0.25961713892853683,
        -0.19626484754863333,
        -0.044185598605526455,
        0.07838003287378459,
        0.23622834773215756,
        0.2074770898123644
      ],
      [
        0.27612354239910614,
        -0.0009741209383806182,
        0.19956982540475787,
        -0.07956018477753193,
        0.22969201698803626,
        -0.28742994791263693,
        0.2866288777073716,
        0.09043056162209834,
        -0.1009555676959604,
        0.14339427175317943,
        0.11263939015838048,
        -0.2109338259923586,
        0.25183685272179085,
        -0.07394318468608743,
        0.09499070235193191,
        -0.24155735436234488,
        0.023775571934496975,
        0.04786265878460394,
        -0.19562937243761175,
        -0.14958554598305224,
        -0.22338200534183705,
        -0.20022210649591798,
        -0.17626297861565304,
        -0.22337888856606647,
        0.1723210074192511,
        -0.10982510003478577,
        -0.15047047207141967,
        -0.145754972682377,
        0.04130701986200075,
        -0.15435112897447556,
        -0.07939053245763764,
        0.027353176396794743,
        -0.1910016637271313,
        -0.030657727930166356,
        -0.22250208700397955,
        -0.04544856955306423,
        -0.22382824088790954,
        -0.2214125663147443,
        -0.1465470576746909,
        0.1822709039745632,
        -0.2742604770103472,
        0.08174428297190539,
        -0.09102326606075328,
        0.20081410014945011,
        0.21693240979101264,
        -0.14503819296693712,
        -0.07820144066580087,
        -0.2490575557894528,
        0.0699891998061028,
        -0.07386642267965413
      ],
      [
        0.012681015865283696,
        -0.08035144053756316,
        0.14777220365440946,
        0.06612373780385072,
        0.09439097790454626,
        -0.15278989321363515,
        0.1022088312565857,
        -0.095114585125958,
        -0.24098259817972473,
        0.07518400328342562,
        0.14930573016175736,
        -0.105461871618092,
        -0.0857149184884809,
        0.07892249327769002,
        -0.27946706166396756,
        0.2805869249722757,
        -0.02437593622771994,
        0.08488097049295357,
        -0.28679551604755615,
        -0.20472577218409488,
        0.1918903481607908,
        -0.2857091133067263,
        0.15759862850921585,
        -0.26750940664201656,
        0.017020387834802142,
        -0.225744204684315,
        -0.14184917903115588,
        0.16918580848811066,
        -0.05208634550630836,
        -0.09069355613517391,
        -0.22951274857577866,
        -0.29252886344567836,
        0.15545890921145072,
        0.23451028212201436,
        0.01346498320091788,
        0.19371321461268998,
        0.2483111783533652,
        -0.0014274527174608087,
        -0.2512779182632562,
        -0.21469859634173444,
        0.2530545471691377,
        0.1170091651489028,
        0.14436295294651968,
        -0.07649682640942018,
        0.1685584222981919,
        0.26214314861385785,
        -0.25243644581701513,
        0.04263681481477932,
        0.24552109794403892,
        -0.1158385563678774
      ]
    ]
  }
}