{
  "num_class": 10,
  "num_hidden": 50,
  "num_visible": 20,
  "params": {
    "bias_b": [
      0.0,
      0.0,
      0.0,
      0.0,
      0.0,
      0.0,
      0.0,
      0.0,
      0.0,
      0.0
    ],
    "bias_c": [
      0.0,
      0.0,
      0.0,
      0.0,
      0.0,
      0.0,
      0.0,
      0.0,
      0.0,
      0.0,
      0.0,
      0.0,
      0.0,
      0.0,
      0.0,
      0.0,
      0.0,
      0.0,
      0.0,
      0.0,
      0.0,
      0.0,
      0.0,
      0.0,
      0.0,
      0.0,
      0.0,
      0.0,
      0.0,
      0.0,
      0.0,
      0.0,
      0.0,
      0.0,
      0.0,
      0.0,
      0.0,
      0.0,
      0.0,
      0.0,
      0.0,
      0.0,
      0.0,
      0.0,
      0.0,
      0.0,
      0.0,
      0.0,
      0.0,
      0.0
    ],
    "weight_w": [
      [
        0.31201353767785983,
        0.10642474995854156,
        -0.24391632163837668,
        -0.3161869133853414,
        0.2062854575834931,
        0.31422701619440746,
        0.028445177678382005,
        0.279004403993472,
        0.1823444635027942,
        0.05495765545171466,
        -0.0646125440080007,
        -0.04743330832968862,
        0.1820759570697269,
        -0.003860675741025388,
        -0.26892244231844065,
        0.11736988400751142,
        -0.030583475365045742,
        -0.1464677060568848,
        -0.13167002664107605,
        -0.13097027220619334,
        -0.14071019798852558,
        0.21686463589464994,
        0.20754816282830696,
        -0.06900093612034208,
        -0.12064080155920248,
        -0.0185145810093148,
        0.3151680765344726,
        0.038521818564471955,
        0.044676197969926335,
        0.29012955857330186,
        0.09484088792495982,
        0.1402106327797848,
        0.1662453520026047,
        -0.24244572405317089,
        0.08655238397201481,
        0.09241305260214833,
        -0.06144607860896423,
        -0.13848708571737536,
        -0.0501934572528126,
        -0.03135636831097022,
        -0.1559093886282119,
        0.1525451361926864,
        0.3013226793149297,
        -0.2435319525014985,
        0.006325661048560027,
        -0.2503951567368743,
        -0.24533850970140605,
        0.22526892407769367,
        0.10215011177463468,
        -0.19658601034297016
      ],
      [
        -0.06341190242449807,
        0.04917647812338033,
        -0.12884473541545832,
        -0.2776201486270219,
        0.03845803660600622,
        0.06404854216145284,
        -0.1805811060498234,
        0.013239607036747703,
        -0.3116529030880403,
        -0.1241727296723579,
        0.09313890015576509,
        -0.10928772597028977,
        0.18150064449101916,
        -0.23376114929747324,
        -0.06557995435766811,
        0.09727295655072227,
        -0.016162141533024754,
        0.18735969303179628,
        0.1769876021774448,
        -0.2703891028264951,
        0.2595482011352757,
        0.0912050066953593,
        -0.137984592503439,
        -0.24025205141843245,
        -0.2535714293126252,
        0.3122293342464318,
        -0.023581741138605894,
        -0.22322949073013953,
        0.20094209994505857,
        -0.1783223823062164,
        0.25396578299219225,
        0.11720749322059626,
        -0.14876356319047185,
        0.20063164448670573,
        -0.20357175898249447,
        -0.26893023591986936,
        -0.07453677756556193,
        -0.2739287695525384,
        -0.31492287538302965,
        -0.03707533958978937,
        0.22630112488969784,
        0.20722262723883106,
        -0.1328266757545784,
        -0.09321325118728657,
        -0.2857787982163436,
        0.27941575094317256,
        0.041201431329921934,
        0.3083572558130437,
        -0.20663323010385687,
        0.27235926335929367
      ],
      [
        0.11598177868564152,
        -0.15865703602805215,
        0.2604018859328275,
        -0.10277083705478135,
        0.20751184249085303,
        -0.16440493964634018,
        0.22330739651272163,
        0.12347802534481506,
        0.04993526824756289,
        0.05908955084750056,
        -0.044874748914839946,
        -0.13311861362325086,
        -0.13759531428335428,
        0.008860439254429808,
        -0.18212073463328912,
        0.16875062384347778,
        -0.24808635152609726,
        0.290706063712105,
        0.2837003806805027,
        -0.11966725210358611,
        0.22756291260921963,
        -0.17440652526393163,
        -0.2995763978207107,
        0.24796186555369798,
        0.19487906702545382,
        -0.1952643501170501,
        0.27924287871960746,
        -0.12182358699556697,
        0.19680769750597443,
        0.1712348709088411,
        0.23119392231426944,
        0.10019551510177038,
        -0.02700878557962305,
        0.030322195820952913,
        -0.05538231635924279,
        0.15283850112239733,
        0.28452313776873533,
        0.2532596760312225,
        0.20622722284348854,
        -0.04037602910440219,
        0.009366279109228215,
        -0.16791262809341675,
        -0.28642184579141294,
        0.2666980816060898,
        0.10309315229250365,
        -0.063239798637511,
        0.1704615174463579,
        -0.1187242290243874,
        -0.017040159795860432,
        -0.31100861294141285
      ],
      [
        0.1761269804847907,
        0.035776026415987594,
        0.07156336170040528,
        0.2019309621265521,
        -0.09746365349285993,
        0.05679040432902782,
        -0.12203468686091667,
        -0.05269428827064354,
        0.17507701217435995,
        0.012222705057504224,
        -0.14953740785545624,
        -0.02320598807512325,
        0.12190216263552156,
        0.17838567948048056,
        0.16149781903238425,
        0.11912757541355468,
        -0.05003052516444645,
        -0.05945614464085547,
        0.010517089111165334,
        -0.24016166619627288,
        0.1481705538815828,
        0.21929253021844825,
        0.09509299860558496,
        0.2761562410379063,
        -0.09150995882473145,
        0.11565117874602421,
        0.02971552530642374,
        0.08770510573448259,
        0.16900689017068043,
        0.18532292661412358,
        -0.09765808824857147,
        -0.05971820552595619,
        -0.11737749214449053,
        0.05226841886192657,
        -0.20990052887138072,
        0.10217860779471244,
        -0.11803702243436881,
        -0.24782771333372408,
        0.1798421252643586,
        0.06541850580200553,
        0.03466668975867809,
        0.19580259962081065,
        -0.2727853718534965,
        -0.2104187884532614,
        0.20022517427457615,
        -0.011176353973647968,
        0.17318596579406648,
        0.31089953739948556,
        -0.1524602946993142,
        0.12585974047916515
      ],
      [
        -0.2446596677052133,
        -0.08080413590832705,
        0.045574766646232,
        0.2148049743760974,
        0.2663579533851796,
        -0.09796794176799667,
        -0.10752858379241889,
        0.054042878026218544,
        0.30405980819099593,
        0.14016139864093907,
        -0.1915162842724947,
        0.21407302017269464,
        -0.05041682553243315,
        0.023041413749846862,
        -0.24364549642343575,
        -0.031105288375285978,
        0.2637309924868098,
        -0.06044775794049695,
        -0.2174650543850501,
        0.04737573271605511,
        -0.22258462728812484,
        0.027416264425764558,
        -0.08179042101375633,
        -0.2593776414860532,
        -0.2738083027839543,
        -0.08778311442371078,
        0.2182753068595577,
        -0.22115478408273168,
        -0.30137616060762024,
        -0.03691389895446251,
        -0.04349210824768168,
        0.15075219733526224,
        0.1039809284385888,
        0.2021594509344699,
        -0.12044912447699538,
        0.3128381564684261,
        -0.30125937937100744,
        -0.033003050021978286,
        -0.1579978558235525,
        -0.008400044244061822,
        -0.10693433283975345,
        0.13897163994448702,
        0.19102942159891995,
        -0.1896061325163802,
        0.09341931954604049,
        -0.04433422977543844,
        0.07754817487779964,
        0.027329949006081322,
        -0.008553056723750563,
        0.07424728373563821
      ],
      [
        0.08444660033227408,
        -0.24688029681012977,
        -0.2485604695232077,
        -0.048582897472828346,
        -0.14465898206949787,
        0.06747136035928591,
        0.1933346524414355,
        -0.045655437478501926,
        0.18164146486338406,
        0.2437898742195142,
        0.021393790002280588,
        0.1289161808937831,
        0.2457821731447561,
        -0.24070901298324215,
        0.21711872188909315,
        0.18273860640160428,
        -0.11264950961980907,
        0.12186456403367052,
        -0.14713844874670692,
        -0.18618470779377966,
        0.2860384417409368,
        0.04123315886632767,
        0.05842893763382301,
        -0.005743162915675781,
        0.09527579813618509,
        -0.22701051556843946,
        0.28910443673324954,
        0.2381533484622,
        0.16617122985499616,
        -0.11996871146392102,
        0.10302722626857352,
        0.17111319003146502,
        -0.07323723530189391,
        -0.09569909276387376,
        -0.2376119994629699,
        0.2439761700254091,
        0.057351630022584144,
        0.13292903234140768,
        -0.2786960118730914,
        -0.22983712947569052,
        0.13923092431343376,
        -0.11886536127507344,
        -0.31390538872261947,
        0.05160052556403333,
        -0.2941409331365256,
        0.1173305384563314,
        -0.18047386768611828,
        -0.1125003056375844,
        -0.18657397033827477,
        -0.1454762508325463
      ],
      [
        -0.04233274356296668,
        0.29229446985708035,
        -0.22685522704213898,
        0.1494015655191761,
        0.254647391613631,
        0.06328380802896744,
        0.2712358367889321,
        0.018758850876087863,
        -0.25857219047598956,
        0.30490419524812945,
        0.06911921505932989,
        0.3124224659820292,
        -0.28287790158431586,
        -0.18424279630205193,
        -0.020014121914403493,
        -0.16286148370608022,
        -0.05394788965463376,
        0.018756068806789927,
        -0.07132138705991034,
        -0.10928567554915705,
        -0.2896215237279377,
        0.07367426202789512,
        0.03997251608298735,
        -0.24720424679023614,
        0.2971619083355354,
        0.2568158505559867,
        0.3027195480988218,
        0.3005392766102876,
        -0.2830557067159033,
        -0.11365416792836891,
        -0.07060402643299232,
        0.291984325750648,
        -0.02798629879703629,
        -0.060981067205044814,
        -0.0185501885796856,
        0.19487718495149936,
        -0.19039392039495232,
        -0.006137213112336504,
        -0.1376503601596002,
        -0.2252256408286178,
        -0.23761619269036766,
        0.25496381822872344,
        -0.3140055641527989,
        0.13331785152921544,
        0.05049791796033898,
        -0.23762597055144585,
        -0.16976840485692887,
        -0.18288523005983787,
        -0.08737001040608897,
        0.08410722618943717
      ],
      [
        -0.07806263391913734,
        -0.004614593051065041,
        0.21576516070295487,
        0.24179492387743856,
        0.20761289002447664,
        -0.17843816161768106,
        0.31276811731834514,
        -0.1015249953152293,
        -0.12584872990118734,
        -0.18264964601648545,
        0.004323139843809165,
        0.10583243251658392,
        -0.11116973299961105,
        -0.014778009660018854,
        0.04268870179659895,
        -0.010768924725469142,
        -0.08531458888085139,
        -0.17386848371751873,
        0.11266601802482484,
        -0.021997895452933125,
        0.03024128550765065,
        -0.22932969791820634,
        -0.27397944403247143,
        0.04523850813525826,
        0.018539447913676954,
        -0.009630813380668624,
        -0.27990932331669865,
        -0.16910838756013108,
        0.0076018519381501615,
        -0.18351456643919933,
        0.2783648811290625,
        -0.18312787220445056,
        0.26402972860095614,
        -0.05997565842096825,
        0.19556534189725955,
        0.0335851415380517,
        0.19144475843952152,
        0.08470175540886316,
        0.08497483389044519,
        0.17403053756065684,
        0.2698257643150381,
        0.2836849064885257,
        0.03239463517464003,
        0.08627152850447128,
        -0.05156736503071491,
        0.3002960613628933,
        0.04169695134608642,
        0.286941541936047,
        -0.0764258115778027,
        -0.1783671724466753
      ],
      [
        0.2544544801580086,
        0.0224785646896678,
        -0.09332492580894092,
        -0.20784403447901462,
        0.2917755212872792,
        0.24914133016355694,
        0.12441831364016998,
        0.11282157368532353,
        0.28102420981653814,
        -0.3008894242305919,
        0.18078299599044928,
        0.2755719845391848,
        -0.08223963611259535,
        0.2106734841690166,
        0.2639057403252448,
        0.00680457176767385,
        0.036250301326561096,
        -0.1830045138292018,
        0.0636456634054407,
        0.28139161502035676,
        -0.05963301450063757,
        0.2719594431304408,
        0.018330820513158208,
        0.1900732123661461,
        -0.22815958671284475,
        0.23084779446435372,
        0.14074401374804324,
        0.29848719373249205,
        0.0051285149606700164,
        0.24122862572338494,
        -0.21305741657630534,
        0.19474575888002138,
        -0.30416811415527184,
        0.2769468758996401,
        0.009819441183420985,
        -0.2360156787509506,
        0.31011602609011385,
        -0.2760457714679109,
        0.17623402551083894,
        -0.038833261801970775,
        -0.16075901009857874,
        -0.28194317266530333,
        0.006277141598645508,
        0.15943102029045086,
        -0.12986714565645235,
        0.052596775684936536,
        -0.16122201587261026,
        -0.06237491359586683,
        -0.23060775087152377,
        0.1333070432056387
      ],
      [
        -0.28553828821616617,
        -0.011354287584011025,
        0.08852016861112699,
        0.09410140883558338,
        -0.2919168304093322,
        -0.2226222174826078,
        -0.2980053973745882,
        -0.03982994912311333,
        0.20463665239294743,
        0.16587500700474217,
        -0.2879509593002323,
        -0.1531743629692604,
        0.09146666504876788,
        0.2076196168602354,
        -0.05158027687072031,
        -0.2652784010868827,
        0.22774694830308367,
        -0.17418389061116318,
        0.02425341203207748,
        0.029787156584498486,
        -0.053520346534865815,
        0.116332962569406,
        -0.30724590956787007,
        0.0007728790713477651,
        -0.30316045834006783,
        0.3161658510131257,
        -0.20446249465526373,
        -0.08999962198693268,
        0.302646382520994,
        -0.03754320688043572,
        0.02667061569015039,
        0.2344872583820417,
        -0.28056198875106575,
        0.09797282185970135,
        -0.2551044558747177,
        -0.240247498917845,
        0.08470446917283392,
        0.2433081820671656,
        0.05351029484136954,
        0.011870376750233835,
        -0.04853358597891011,
        -0.13007971414699496,
        -0.23561906567345753,
        -0.14274285613020177,
        0.18474749275457075,
        0.06937312669750834,
        0.07824727743308985,
        -0.11147360420762545,
        0.279374641565771,
        -0.003031253618898666
      ]
    ],
    "weight_v": [
      [
        -0.028472843428988648,
        -0.2705699134498993,
        0.010589815406802427,
        -0.1454239227341877,
        -0.20162909734839984,
        -0.050516025824334676,
        0.19860196137839314,
        0.007732871724542678,
        -0.2607869803570595,
        0.2692236848741895,
        0.26943418579027784,
        0.04071730006050667,
        0.09628255772213512,
        -0.2450438633286047,
        -0.20633987977241036,
        0.14544331460546417,
        0.12703186490620538,
        -0.19126715119759488,
        -0.1997037106694684,
        0.05702507968675491,
        -0.007005767517340611,
        -0.04689061891501328,
        -0.08610200049650105,
        0.12908397279371042,
        -0.033846397752752,
        -0.28858509359833034,
        -0.03649572513792809,
        0.020403383024828692,
        0.2852183911318951,
        0.07411157804216473,
        0.18651171873019717,
        -0.26361102285853083,
        0.13485514481995026,
        0.06732853307048264,
        0.07938822353777203,
        -0.007979681018335183,
        -0.019811946654923418,
        -0.06681229376366879,
        0.10629836426111938,
        0.23894357288028473,
        -0.05159799050722563,
        0.1864713870098918,
        -0.0422881774738586,
        0.17370462309338064,
        -0.00584109162734836,
        0.044810093847389765,
        0.0042227597826363095,
        0.04182992203308211,
        -0.05081424101945378,
        0.12799429271502355
      ],
      [
        0.1586931071640319,
        0.022036313907254967,
        0.036510422563099054,
        -0.1696992191575895,
        0.17857065553511786,
        -0.0444721320021525,
        0.26313034552064357,
        -0.21238037023616063,
        -0.06617643894505845,
        -0.2663472471888044,
        0.12112554152259447,
        -0.22857690267416075,
        -0.2579078929408871,
        0.11750458722360263,
        0.16455554052113686,
        -0.13586069202704856,
        -0.2864472453997704,
        -0.15667935124945742,
        0.21109369856029753,
        -0.10742502382470032,
        0.020443966295089655,
        0.08754446922000902,
        0.1112696521647561,
        -0.19746001091913934,
        -0.12443576362140762,
        0.0244186927070858,
        0.2123118530187303,
        -0.0410946470926829,
        -0.2744234309290684,
        0.14443573760301015,
        -0.08671897135449022,
        0.2760046249478802,
        -0.0940599290578448,
        -0.0656371968013372,
        0.0038189125166627758,
        0.19645021529964185,
        -0.07988459972168577,
        -0.05241335161966129,
        0.09659535151466764,
        0.022578429493368413,
        0.22511193447914118,
        -0.24592695075373636,
        0.08079657817969815,
        0.2790859458137301,
        0.15291669638466904,
        0.03449036105895359,
        -0.0708261326478758,
        -0.24139685068023847,
        -0.22104628249383484,
        0.09541238095666815
      ],
      [
        -0.03811491671613393,
        0.10616000450656726,
        0.006924557529853992,
        -0.12808962176657082,
        0.012572103530333278,
        0.1864549362066445,
        0.23381803898327608,
        -0.1745934716920755,
        0.20022897909543497,
        -0.01881916860930888,
        -0.11467011640624225,
        -0.21487406679576693,
        0.11613438144817279,
        -0.0027379223022390153,
        0.11508456123763039,
        0.15372548909166817,
        0.11635711102390228,
        -0.2787925339213888,
        -0.28336284724975996,
        0.22129732489696058,
        0.27347284250682397,
        -0.1775162917555115,
        -0.14278223458795697,
        -0.26290820564700923,
        -0.04339201683555552,
        -0.11121001537600309,
        -0.19207723868757726,
        -0.28553719929680543,
        -0.0008847725373232196,
        0.058763751455030544,
        -0.04646877503834354,
        -0.09325178745536117,
        0.14969940411847715,
        -0.038075551201199986,
        0.23937434348770487,
        -0.24641846595445116,
        0.029362362807889175,
        -0.0180374145433147,
        0.02639783671398338,
        0.18471001389812608,
        -0.008140176081221251,
        0.05189232437147795,
        0.1493455618538055,
        -0.049777213906121914,
        0.07904686802169641,
        -0.09160024802713024,
        -0.10636760035969886,
        0.020108709247107448,
        0.13211807777928702,
        -0.1037047190812258
      ],
      [
        -0.06593685804600813,
        0.08655716351506249,
        -0.05391671121436667,
        0.0350734730965267,
        -0.10567707614873662,
        -0.1592854569355834,
        -0.23843318792780846,
        -0.2531583131363967,
        -0.16820582280226162,
        -0.019805298130478377,
        -0.25388599097158365,
        -0.075607624807385,
        0.12887516531970528,
        0.004621295769264566,
        0.2833528475383796,
        0.19762870367094099,
        0.07269088820644576,
        -0.24484569728659192,
        0.15360120803796506,
        0.19749887216791245,
        0.065374891602622,
        0.17890699269814486,
        0.16492982974240672,
        0.12493222192173886,
        -0.08594560323848291,
        0.05383614682302018,
        -0.07511195143362143,
        -0.12198258543410498,
        0.23942947065647208,
        0.032954621189616895,
        -0.07450051883201866,
        0.20118104213091476,
        -0.157811149433495,
        0.06622362576788782,
        -0.09170087952777697,
        -0.25415256539188896,
        0.005040514008414931,
        0.2545339872689932,
        -0.11866614983205387,
        0.13781234080968274,
        -0.2876682202100771,
        0.2621184321247499,
        -0.11520083668640482,
        0.06375997173123754,
        -0.1303405351058474,
        0.1501522801945182,
        0.12093714164479619,
        -0.12262807138578805,
        -0.10481238778362911,
        -0.1208609183149037
      ],
      [
        -0.2013017449427248,
        -0.22619337037666853,
        0.061129790498675174,
        -0.2346282774902848,
        0.29258968834089455,
        -0.22261234702869054,
        0.1328216412044666,
        0.2564759674870591,
        -0.001929114724320058,
        -0.19910375134368674,
        -0.2733233330363526,
        -0.15201124777000202,
        0.17031892568284973,
        -0.2904865318857419,
        -0.1558239365858828,
        -0.2743334973082997,
        -0.23672242895087692,
        0.018099974829421273,
        -0.2703924902362955,
        0.23442125178725853,
        0.1306233495674689,
        0.20789478192734695,
        -0.1135521158736438,
        -0.2630834041456492,
        -0.09689490299654299,
        0.1818946046934744,
        -0.09340637920611433,
        -0.024733654774355684,
        -0.22793557816173277,
        0.23850567521075677,
        -0.19492572525261448,
        -0.13904023776468097,
        0.1455165492353973,
        0.2597825655416875,
        0.028942036165949037,
        0.23142466853642735,
        0.27473005757385754,
        -0.1236870875692696,
        0.015919442105821136,
        0.2761307326364912,
        0.23683352813985664,
        -0.12094135173852102,
        -0.26718222387639556,
        0.059206055960244475,
        -0.07436187745779627,
        0.1664593874067256,
        -0.16940843855922175,
        -0.2807430431338586,
        0.1747746450489721,
        0.0356464645581408
      ],
      [
        -0.16417813140282492,
        -0.21803314546678948,
        -0.2381622126067793,
        -0.07132125907451031,
        -0.034691487984230385,
        0.10946248833367561,
        0.10064436287593365,
        -0.07134443324085898,
        0.10140018446431742,
        -0.06193441893788468,
        -0.009377497535863755,
        -0.2455836949784656,
        0.0695472016235611,
        0.2561251852001077,
        -0.28836156033398935,
        -0.009399225345842088,
        0.27564087702707346,
        0.2610828980382814,
        0.04258644551362989,
        0.056825505317079916,
        0.24777530727514147,
        -0.17221253547874973,
        -0.042080614060547916,
        0.0559994059568063,
        -0.2661409617857872,
        0.1391608424492588,
        -0.05745490489757757,
        0.2284503896913775,
        0.25670144336948836,
        0.1620019916068276,
        0.17305056049372292,
        -0.0997549644544912,
        0.18319750913604071,
        -0.26376838188168156,
        -0.21208903976724602,
        0.24751906546809194,
        -0.08390835343949685,
        0.14579476966106936,
        -0.12555275935737842,
        -0.15650708082332043,
        -0.2757035990092717,
        -0.26132582081686956,
        0.2740870232373774,
        -0.2488533310261904,
        -0.17680536158496435,
        0.09289466892927173,
        0.003529073701816321,
        0.004835785012211213,
        -0.10343054581399508,
        -0.2861727679854039
      ],
      [
        -0.12773504484546705,
        -0.17655050708154485,
        -0.14428134310238755,
        0.152868255416234,
        -0.04118704082523694,
        -0.1210251375668066,
        -0.06714962400912206,
        0.15712111963630832,
        -0.043534430318363404,
        0.050185269771757024,
        0.2182527007658151,
        -0.15635747680315312,
        0.04876158649804513,
        0.013268873043622897,
        -0.2282796533539238,
        -0.2074375417243024,
        0.2684851899636687,
        0.09846213278319277,
        0.0892814684522295,
        0.2683067017097787,
        -0.259151303935408,
        0.12012485185217037,
        -0.01780525000978589,
        0.25159398693123664,
        -0.11909600226571534,
        0.19932585172002099,
        0.2873048532902162,
        -0.25941897249856954,
        -0.263079351585287,
        0.20808235319321505,
        0.21672190002288388,
        -0.24427536752979415,
        0.05655654980678115,
        -0.11503820426083586,
        0.2896670652774829,
        -0.2548585072493117,
        -0.26095329703045456,
        0.19050261061171425,
        0.13412358418535986,
        0.058682883290743226,
        -0.13564325286828907,
        0.11893903124832383,
        0.1158843017413893,
        0.007007420262376052,
        -0.15701669273364782,
        0.14296046550270936,
        -0.16577299904672196,
        0.2876748942859874,
        -0.23640361413013705,
        -0.284718444883614
      ],
      [
        0.04419088312828551,
        -0.042514595875184025,
        -0.07271485177893497,
        0.08441832352697404,
        0.2681230162865656,
        -0.01318314113799346,
        0.24363249558969174,
        -0.030476829730536226,
        -0.15869636736660125,
        0.0949025625715399,
        -0.21000303700029205,
        0.23619625446224463,
        -0.22460617631548724,
        -0.14803643277847844,
        -0.14238483509328104,
        0.17638588454152643,
        -0.261140166729827,
        0.25166337817115486,
        -0.25729658236258374,
        -0.23255178149874198,
        0.011768643018143898,
        0.058218634318809526,
        0.1961538148213991,
        -0.21919912515699283,
        0.13029130855809767,
        -0.23127340487609194,
        -0.22962374292174656,
        -0.1995420206985814,
        -0.01956452586771895,
        -0.028177444871393953,
        0.135157292170976,
        -0.23176042158146032,
        -0.007213792646326711,
        -0.24109091436033445,
        -0.2860083013908987,
        -0.008386990824776841,
        -0.03345114875364702,
        -0.2816530708691924,
        -0.18431657042023106,
        -0.04017250684837276,
        -0.24630419666384062,
        0.09743761410229534,
        -0.0759031373495174,
        -0.24066142669971283,
        -0.19821952698520073,
        -0.14187740735216375,
        -0.22263867584076963,
        0.16165132521288883,
        -0.05221803102574324,
        0.13702406151321556
      ],
      [
        -0.19608710088544803,
        0.2270719623641934,
        -0.1647084186820082,
        -0.28265083638761757,
        -0.14997850629022413,
        -0.2646161392979925,
        -0.21144174834821028,
        0.011151288759947253,
        -0.0005696707644083365,
        -0.11296962747011322,
        0.03566036327530786,
        0.06658910671297658,
        0.11033528917867963,
        -0.1319148916636124,
        -0.27115368215198,
        -0.13116802897882335,
        0.27872374223031143,
        0.19181573067573948,
        -0.1850530832914783,
        -0.13902097411542835,
        -0.20007814557300135,
        -0.09007239785387733,
        -0.24357447190241827,
        0.25109062908108987,
        0.04554258923754079,
        -0.1032312967023283,
        -0.2048261286166406,
        -0.18071571068680692,
        0.22906199080909045,
        0.17460379955855893,
        0.23556815512311496,
        -0.04918666006004416,
        -0.17632148716686102,
        0.06929237165452706,
        -0.11883125772179848,
        0.00935876089100196,
        -0.1218558138413528,
        0.026149318608914784,
        -0.03700384483399133,
        -0.13503598003976333,
        0.14756120056195243,
        0.2017763756511185,
        0.07470620728223515,
        0.2777393508379908,
        0.14085860247703424,
        0.18889592400941857,
        0.2114653213176701,
        -0.057744260592768104,
        -0.2912035933646183,
        -0.10289683822324294
      ],
      [
        -0.18920750726760438,
        0.20891509227551414,
        0.19387548286506712,
        -0.14958246858054464,
        0.2701945128952212,
        0.08316464873867707,
        0.26391448333979656,
        -0.24509865383105414,
        -0.14249598624389753,
        -0.14042112796180492,
        0.22164677916938508,
        0.16648150431084396,
        -0.11147629345436408,
        -0.2557925650771885,
        0.16837423637228116,
        0.0031516450952776554,
        0.03202725775874843,
        0.14208276224257588,
        0.2398038044319401,
        -0.15217023369947238,
        -0.02987642028761278,
        0.2144692270258332,
        -0.22157674396901594,
        -0.2126511223159473,
        0.2915520687690401,
        0.06301871470343268,
        0.2159522645448005,
        -0.0031453714948653233,
        0.031399062488908724,
        0.07633106447845206,
        -0.27425515354265007,
        0.24358569486033627,
        -0.09600790809506643,
        0.0009259728817935797,
        0.07619417874736095,
        0.27611044786464006,
        0.006363663195620262,
        0.2238498531867909,
        -0.277943103369297,
        0.15801214036438438,
        -0.14900415446345283,
        -0.11405867380603082,
        -0.03330339645569136,
        0.24252065582986065,
        0.07058644789764568,
        -0.1104258212586414,
        -0.2903159257255214,
        -0.07698013011739502,
        0.08279408376172626,
        0.05981932091776809
      ],
      [
        -0.2135985297208497,
        0.004046355705653648,
        -0.0015615368404612306,
        0.2487943148356368,
        0.10661253121615272,
        -0.1382661452331043,
        0.15488513636797885,
        -0.03692635781707693,
        -0.13429963144008622,
        0.19895520210889617,
        -0.24636934598008486,
        0.2170481611404485,
        -0.11178827701902885,
        -0.15418402670197687,
        -0.22406498776321448,
        0.14757168372038526,
        0.28947441611182395,
        -0.13493024340955656,
        0.274712371739585,
        -0.12881342493772557,
        0.24372535766330966,
        0.040245978356171774,
        -0.06605999306209709,
        0.13866935318949158,
        -0.14751237255387817,
        -0.04231577712287593,
        -0.11486831053390878,
        0.10693351755107255,
        -0.25486900762682235,
        0.2562309333145342,
        0.18033627675959574,
        -0.05936234145973596,
        -0.21534704672161026,
        0.27126637808985815,
        0.19959345142351337,
        0.14581677241557256,
        0.07684669281026202,
        -0.03721949525529916,
        0.20005187712763894,
        0.1264645316601435,
        0.07241201052090657,
        -0.10546829248645723,
        -0.0027559098109496416,
        -0.036286023629068354,
        0.18715573195418922,
        -0.1023496449081093,
        -0.24676398722833254,
        0.03278221406712123,
        -0.22721882530706683,
        -0.039336726859383164
      ],
      [
        -0.12662452437767965,
        0.13007717791117945,
        -0.16341379853041918,
        -0.1902259176195043,
        0.0507521308665736,
        -0.2087937501997258,
        0.04344406388710398,
        -0.19649059558359688,
        0.2115506356110904,
        0.29222646728584417,
        -0.17376910796635253,
        -0.26502120919717354,
        0.04880036756974526,
        0.04156395262204604,
        -0.12949687639504323,
        -0.2115446377805847,
        -0.1760382513018225,
        -0.013898346856013766,
        -0.16237428599559717,
        0.25429555876048276,
        -0.13170910040642295,
        0.07639556327382557,
        0.04102116659849642,
        0.13992567919236776,
        -0.02506457058507805,
        -0.16623616765414548,
        0.12239316315055326,
        0.17122768174873726,
        0.19828967311778356,
        0.279896001567898,
        0.17582069849630844,
        0.006726906715611158,
        0.2797792453416696,
        -0.1138471315369827,
        -0.06583341280203298,
        0.1723572356965251,
        -0.1451134445339712,
        -0.20400615303866357,
        -0.10597841738205047,
        0.07080416679959461,
        0.21803350752953404,
        0.2738252722748184,
        -0.25440652138894854,
        0.18041809584671376,
        0.2588872111974015,
        0.11826508885905246,
        -0.05789357475056989,
        0.13070859914082172,
        -0.24270919605685282,
        -0.04517361837869022
      ],
      [
        -0.092507862403537,
        0.09434759297745382,
        -0.12396995372902506,
        -0.08866879298508021,
        -0.1158862937367936,
        -0.07943163960242022,
        0.09407019230912822,
        0.09311546594338166,
        -0.28443840917803753,
        0.18059962585891315,
        -0.23364908076575377,
        0.202569052825751,
        0.030031617592656434,
        0.11605698993598723,
        0.2872008306432016,
        0.12290154452687246,
        0.18273492614418824,
        0.04813802331838324,
        0.0981224076778226,
        0.14430501869324247,
        0.2546461813527047,
        0.1917608203683796,
        -0.03515931840011349,
        0.2896120151919113,
        -0.21714997432273644,
        -0.21112473326208778,
        0.10900856957838745,
        -0.029037197429211126,
        0.11769180873143664,
        0.051039856090965396,
        -0.271075811459595,
        0.1338551939703877,
        0.054099981857168244,
        -0.209408838936263,
        -0.038707822026160854,
        -0.26084704372632184,
        0.17234885836470354,
        -0.010488310947491752,
        -0.0966976230492492,
        -0.1683400103152538,
        0.21805206504876978,
        0.27934453715113855,
        -0.06711727603578152,
        0.04252319714961811,
        0.0858007238492835,
        0.08444273125370727,
        -0.0855149204185787,
        -0.006715494437799729,
        0.26591260952904056,
        0.23874011551331803
      ],
      [
        0.09896343978003835,
        -0.10157246482771368,
        0.2815949540673733,
        0.03687926392438634,
        0.27709224642478186,
        0.18101914912210226,
        -0.2356685894937172,
        -0.06000018490147149,
        0.017130965320164393,
        0.1535121060391973,
        0.14173663510170004,
        0.2804229334985667,
        -0.16626274877612446,
        0.09583863964941719,
        0.24793212618048638,
        0.21256329453293726,
        0.0899309541186521,
        -0.08709633277104423,
        -0.13374296012641992,
        -0.22590174773458144,
        0.19348267325868163,
        -0.251903121847697,
        0.1641475325771639,
        0.08355112811036758,
        0.2034949602299881,
        -0.044958955583336346,
        0.2050170493265867,
        -0.20035715009987887,
        -0.09108719100787427,
        -0.1748078300555002,
        0.2750972002053998,
        -0.21845648231306902,
        -0.017047810144737052,
        0.20198663147441775,
        -0.2104711015992231,
        -0.060923635763401096,
        0.276442843700262,
        -0.16018451036000636,
        -0.08908441247048574,
        -0.10335436830003081,
        -0.14684959885681392,
        -0.19536973922804227,
        0.18539180962862328,
        -0.2603203761523277,
        0.13040694093285782,
        0.04714291833504247,
        0.19573838807068933,
        -0.29145772785098845,
        0.15056429387233128,
        -0.18941555664490847
      ],
      [
        0.031815562149322574,
        -0.17169804311682854,
        -0.16361987642815057,
        -0.06552396153477666,
        -0.1985736377042872,
        -0.10519684430952161,
        -0.23080150717328257,
        -0.22369412767500507,
        -0.04604917624529589,
        -0.22619536801118117,
        -0.09646381495008374,
        -0.04601036001131287,
        0.16220525505420952,
        -0.24656000418274646,
        -0.21019170656145675,
        0.10250342844497207,
        0.031312038607271164,
        -0.05436722850537168,
        0.14509086360157203,
        -0.09883994204692337,
        0.09443273635046795,
        -0.07228762274849279,
        -0.06837407751089647,
        0.17464974852630444,
        0.2839949835100844,
        0.189233134375616,
        -0.0022390382903202943,
        0.25953384745886693,
        0.19905570951401452,
        0.21272197065522064,
        0.2670916466053544,
        -0.28381095514425375,
        -0.05928077795792766,
        0.008804052460822165,
        -0.2721309922384366,
        0.018291624858510935,
        0.20775894379912846,
        -0.258452318278639,
        -0.08576901831904349,
        -0.11364421650209228,
        -0.18647002714175442,
        -0.14185257663522632,
        -0.2485102821147334,
        -0.21715095017990113,
        0.17538907911702772,
        -0.19934950787234218,
        -0.0003640933652575007,
        0.06030143252918413,
        -0.24057268964983242,
        -0.21375273226125735
      ],
      [
        -0.051995359136798036,
        -0.2561118601056086,
        -0.09484733155254477,
        -0.15763166202410298,
        0.09705037225963947,
        -0.21074846523488278,
        0.2842408456066083,
        -0.031452774584937726,
        0.2674487347821561,
        0.13278706832656045,
        -0.17918787648602846,
        0.043014712915169895,
        0.234091563433455,
        -0.07143961708158228,
        -0.15510044715096963,
        0.08363109567705929,
        0.03557619925499822,
        -0.10970509622283847,
        0.01630390266988424,
        0.2252116584236809,
        0.05943052352912659,
        0.2213240455600532,
        -0.21925844945467204,
        -0.19020815053692502,
        0.21534232977081608,
        -0.0892614336381741,
        0.11194268890069348,
        -0.2888886080435138,
        0.2061623673985808,
        -0.20932545686520954,
        0.14494629539698956,
        0.27465110166328005,
        0.09602988245083305,
        -0.1353120024338015,
        0.09126900110326547,
        0.2777204370907252,
        -0.11144155694107824,
        0.09469646226780215,
        -0.28289675138818293,
        0.17480198521977725,
        -0.05412138747444345,
        0.09767528705275835,
        -0.06763137537873354,
        0.23477931044216932,
        -0.01623102159479245,
        0.005621881950838736,
        -0.18727639872289092,
        -0.19388256941136073,
        -0.24374671074195162,
        -0.1153486150172971
      ],
      [
        0.1945677241269781,
        -0.2889074443945897,
        0.01592035605361447,
        -0.008307212809716191,
        -0.09564832093148454,
        0.04322518424938554,
        0.2552938085060274,
        -0.22334192815563092,
        -0.2493491805335482,
        0.030774017310590485,
        0.15632661220516814,
        -0.006759889286856058,
        0.2751313020599169,
        0.24892942361408293,
        0.07946134615656841,
        0.2775947946291099,
        -0.1113025133908215,
        0.11701117788009291,
        -0.2226117923854049,
        -0.1341962875015027,
        0.22409107487928898,
        -0.0023597158717295064,
        0.08972663954112087,
        -0.2757986549394073,
        0.04026721686480683,
        0.15356019008979005,
        -0.11810557569877125,
        -0.17367251738436673,
        -0.20211288447368192,
        -0.0475086336861377,
        0.08005092445102097,
        -0.04279828643835387,
        -0.22283376112398007,
        -0.2910889085221672,
        -0.07747731416251105,
        0.07113627355351942,
        -0.23486348430905957,
        -0.20540113258268985,
        -0.18296420681068298,
        0.09186450388654105,
        0.017910600287455558,
        -0.08006832346059042,
        0.10164627280471705,
        -0.19786265199786007,
        -0.048126455373064925,
        0.2911361880799542,
        0.24207716964860132,
        0.2054971405594127,
        0.2624477204345122,
        0.07634224238363391
      ],
      [
        -0.14365452096246825,
        0.2634483152966223,
        0.2197144819969345,
        -0.06775347323568578,
        0.19843994759803602,
        0.2790259992094933,
        -0.06562649378064836,
        0.28332971882929964,
        -0.12789149413205705,
        0.03715857236750936,
        -0.010475168218639141,
        -0.03276472785978707,
        0.187752068487127,
        0.053450840390481424,
        -0.11002430992552273,
        -0.1259973618580908,
        0.11408752948372197,
        -0.12415859301228549,
        0.21628060058283788,
        0.06499318981368979,
        0.24139875236659408,
        0.1587456880449225,
        -0.16390879647561832,
        -0.0031296164499108325,
        -0.110872802550006,
        -0.26223970090608273,
        -0.022274207254854517,
        0.10086235782539754,
        0.28723673503776964,
        -0.27070874000982575,
        0.06505326425089697,
        0.1702766130890565,
        -0.027993705128348034,
        -0.14217370749029962,
        0.16662782859431124,
        -0.05804634540807324,
        0.1176401832741894,
        -0.06541388363243691,
        0.10760916250865904,
        -0.17440979894448716,
        -0.10195879106892644,
        0.10239416379181548,
        -0.13734315314676307,
        0.11896603039098747,
        0.24414041037319995,
        0.030695421967580794,
        0.06743554519692396,
        -0.005609698453248935,
        0.21010065105555215,
        -0.14220589263407907
      ],
      [
        -0.09178097587381806,
        -0.0944807015134099,
        0.11187571395318585,
        0.13021047322373203,
        -0.21247301135728466,
        -0.11663529502415279,
        0.17706037331385854,
        -0.09570747917774161,
        -0.07140189745927811,
        -0.21789742967775066,
        0.2494575142529178,
        -0.031824307342178115,
        0.14083987680269977,
        0.2775419249856958,
        0.03427068459993238,
        -0.12527084656994195,
        0.16641514483100106,
        0.20550703646717405,
        -0.2015835191219173,
        0.016673259986679123,
        -0.2139242641449952,
        0.16283410924258884,
        -0.07399828225914465,
        -0.17500118663208922,
        -0.03502547583064536,
        -0.14015151772657133,
        -0.02525916243214449,
        0.27666524735969006,
        -0.006648982060943109,
        0.010470417326126413,
        0.19211093857729122,
        -0.06228084128272071,
        0.04211314235695862,
        0.28948692549770355,
        0.23913135182296913,
        0.13970855207411925,
        -0.20665050557792997,
        -0.06757372477711085,
        0.21809046426781226,
        0.032100195730853265,
        -0.2251343805515043,
        -0.06567293303063057,
        -0.23941434393771432,
        -0.257660773896935,
        0.2793398286286249,
        -0.15213418643226292,
        -0.15264035935561782,
        0.2411122161058193,
        -0.12758355010583752,
        0.1147539165148081
      ],
      [
        -0.22847622780339427,
        -0.15751310127528004,
        -0.10325461848339676,
        -0.28710117502696547,
        -0.256914392985272,
        0.10279539907176538,
        -0.16966383370439542,
        0.04173455911147428,
        -0.23894217855048283,
        0.23793781545787346,
        0.15922293387687958,
        -0.23449463655324404,
        0.2601321565471149,
        0.2884477916195369,
        0.2299063791175709,
        0.06479712308510405,
        -0.06308791805191985,
        0.12653348882671528,
        -0.1170626514115772,
        -0.06935580808705802,
        0.1475131383733363,
        -0.27969120974182726,
        0.12160446341252551,
        -0.012980021148460252,
        0.2618860923482838,
        0.048387872438562685,
        0.01486092235398151,
        0.14144469913474822,
        0.04763100782838353,
        0.23754912945021595,
        -0.15856863282212708,
        -0.07411512971255968,
        -0.15623005724123362,
        0.2795496835548645,
        0.192729188131103,
        -0.1475973139640594,
        0.12702415355444935,
        0.020770807135887803,
        0.06888601791969956,
        -0.024364705967413858,
        0.13530173210702628,
        0.1570414166197352,
        0.2655836037177269,
        -0.006453205188332256,
        -0.05829818045878987,
        0.026545559103647087,
        -0.11522155777631074,
        0.0646315683479119,
        0.03622346625933226,
        -0.11068335875595492
      ]
    ]
  }
}