{
  "num_class": 10,
  "num_hidden": 1000,
  "num_visible": 20,
  "params": {
    "bias_b": [
      0.0,
      0.0,
      0.0,
      0.0,
      0.0,
      0.0,
      0.0,
      0.0,
      0.0,
      0.0
    ],
    "bias_c": [
      0.0,
      0.0,
      0.0,
      0.0,
      0.0,
      0.0,
      0.0,
      0.0,
      0.0,
      0.0,
      0.0,
      0.0,
      0.0,
      0.0,
      0.0,
      0.0,
      0.0,
      0.0,
      0.0,
      0.0,
      0.0,
      0.0,
      0.0,
      0.0,
      0.0,
      0.0,
      0.0,
      0.0,
      0.0,
      0.0,
      0.0,
      0.0,
      0.0,
      0.0,
      0.0,
      0.0,
      0.0,
      0.0,
      0.0,
      0.0,
      0.0,
      0.0,
      0.0,
      0.0,
      0.0,
      0.0,
      0.0,
      0.0,
      0.0,
      0.0,
      0.0,
      0.0,
      0.0,
      0.0,
      0.0,
      0.0,
      0.0,
      0.0,
      0.0,
      0.0,
      0.0,
      0.0,
      0.0,
      0.0,
      0.0,
      0.0,
      0.0,
      0.0,
      0.0,
      0.0,
      0.0,
      0.0,
      0.0,
      0.0,
      0.0,
      0.0,
      0.0,
      0.0,
      0.0,
      0.0,
      0.0,
      0.0,
      0.0,
      0.0,
      0.0,
      0.0,
      0.0,
      0.0,
      0.0,
      0.0,
      0.0,
      0.0,
      0.0,
      0.0,
      0.0,
      0.0,
      0.0,
      0.0,
      0.0,
      0.0,
      0.0,
      0.0,
      0.0,
      0.0,
      0.0,
      0.0,
      0.0,
      0.0,
      0.0,
      0.0,
      0.0,
      0.0,
      0.0,
      0.0,
      0.0,
      0.0,
      0.0,
      0.0,
      0.0,
      0.0,
      0.0,
      0.0,
      0.0,
      0.0,
      0.0,
      0.0,
      0.0,
      0.0,
      0.0,
      0.0,
      0.0,
      0.0,
      0.0,
      0.0,
      0.0,
      0.0,
      0.0,
      0.0,
      0.0,
      0.0,
      0.0,
      0.0,
      0.0,
      0.0,
      0.0,
      0.0,
      0.0,
      0.0,
      0.0,
      0.0,
      0.0,
      0.0,
      0.0,
      0.0,
      0.0,
      0.0,
      0.0,
      0.0,
      0.0,
      0.0,
      0.0,
      0.0,
      0.0,
      0.0,
      0.0,
      0.0,
      0.0,
      0.0,
      0.0,
      0.0,
      0.0,
      0.0,
      0.0,
      0.0,
      0.0,
      0.0,
      0.0,
      0.0,
      0.0,
      0.0,
      0.0,
      0.0,
      0.0,
      0.0,
      0.0,
      0.0,
      0.0,
      0.0,
      0.0,
      0.0,
      0.0,
      0.0,
      0.0,
      0.0,
      0.0,
      0.0,
      0.0,
      0.0,
      0.0,
      0.0,
      0.0,
      0.0,
      0.0,
      0.0,
      0.0,
      0.0,
      0.0,
      0.0,
      0.0,
      0.0,
      0.0,
      0.0,
      0.0,
      0.0,
      0.0,
      0.0,
      0.0,
      0.0,
      0.0,
      0.0,
      0.0,
      0.0,
      0.0,
      0.0,
      0.0,
      0.0,
      0.0,
      0.0,
      0.0,
      0.0,
      0.0,
      0.0,
      0.0,
      0.0,
      0.0,
      0.0,
      0.0,
      0.0,
      0.0,
      0.0,
      0.0,
      0.0,
      0.0,
      0.0,
      0.0,
      0.0,
      0.0,
      0.0,
      0.0,
      0.0,
      0.0,
      0.0,
      0.0,
      0.0,
      0.0,
      0.0,
      0.0,
      0.0,
      0.0,
      0.0,
      0.0,
      0.0,
      0.0,
      0.0,
      0.0,
      0.0,
      0.0,
      0.0,
      0.0,
      0.0,
      0.0,
      0.0,
      0.0,
      0.0,
      0.0,
      0.0,
      0.0,
      0.0,
      0.0,
      0.0,
      0.0,
      0.0,
      0.0,
      0.0,
      0.0,
      0.0,
      0.0,
      0.0,
      0.0,
      0.0,
      0.0,
      0.0,
      0.0,
      0.0,
      0.0,
      0.0,
      0.0,
      0.0,
      0.0,
      0.0,
      0.0,
      0.0,
      0.0,
      0.0,
      0.0,
      0.0,
      0.0,
      0.0,
      0.0,
      0.0,
      0.0,
      0.0,
      0.0,
      0.0,
      0.0,
      0.0,
      0.0,
      0.0,
      0.0,
      0.0,
      0.0,
      0.0,
      0.0,
      0.0,
      0.0,
      0.0,
      0.0,
      0.0,
      0.0,
      0.0,
      0.0,
      0.0,
      0.0,
      0.0,
      0.0,
      0.0,
      0.0,
      0.0,
      0.0,
      0.0,
      0.0,
      0.0,
      0.0,
      0.0,
      0.0,
      0.0,
      0.0,
      0.0,
      0.0,
      0.0,
      0.0,
      0.0,
      0.0,
      0.0,
      0.0,
      0.0,
      0.0,
      0.0,
      0.0,
      0.0,
      0.0,
      0.0,
      0.0,
      0.0,
      0.0,
      0.0,
      0.0,
      0.0,
      0.0,
      0.0,
      0.0,
      0.0,
      0.0,
      0.0,
      0.0,
      0.0,
      0.0,
      0.0,
      0.0,
      0.0,
      0.0,
      0.0,
      0.0,
      0.0,
      0.0,
      0.0,
      0.0,
      0.0,
      0.0,
      0.0,
      0.0,
      0.0,
      0.0,
      0.0,
      0.0,
      0.0,
      0.0,
      0.0,
      0.0,
      0.0,
      0.0,
      0.0,
      0.0,
      0.0,
      0.0,
      0.0,
      0.0,
      0.0,
      0.0,
      0.0,
      0.0,
      0.0,
      0.0,
      0.0,
      0.0,
      0.0,
      0.0,
      0.0,
      0.0,
      0.0,
      0.0,
      0.0,
      0.0,
      0.0,
      0.0,
      0.0,
      0.0,
      0.0,
      0.0,
      0.0,
      0.0,
      0.0,
      0.0,
      0.0,
      0.0,
      0.0,
      0.0,
      0.0,
      0.0,
      0.0,
      0.0,
      0.0,
      0.0,
      0.0,
      0.0,
      0.0,
      0.0,
      0.0,
      0.0,
      0.0,
      0.0,
      0.0,
      0.0,
      0.0,
      0.0,
      0.0,
      0.0,
      0.0,
      0.0,
      0.0,
      0.0,
      0.0,
      0.0,
      0.0,
      0.0,
      0.0,
      0.0,
      0.0,
      0.0,
      0.0,
      0.0,
      0.0,
      0.0,
      0.0,
      0.0,
      0.0,
      0.0,
      0.0,
      0.0,
      0.0,
      0.0,
      0.0,
      0.0,
      0.0,
      0.0,
      0.0,
      0.0,
      0.0,
      0.0,
      0.0,
      0.0,
      0.0,
      0.0,
      0.0,
      0.0,
      0.0,
      0.0,
      0.0,
      0.0,
      0.0,
      0.0,
      0.0,
      0.0,
      0.0,
      0.0,
      0.0,
      0.0,
      0.0,
      0.0,
      0.0,
      0.0,
      0.0,
      0.0,
      0.0,
      0.0,
      0.0,
      0.0,
      0.0,
      0.0,
      0.0,
      0.0,
      0.0,
      0.0,
      0.0,
      0.0,
      0.0,
      0.0,
      0.0,
      0.0,
      0.0,
      0.0,
      0.0,
      0.0,
      0.0,
      0.0,
      0.0,
      0.0,
      0.0,
      0.0,
      0.0,
      0.0,
      0.0,
      0.0,
      0.0,
      0.0,
      0.0,
      0.0,
      0.0,
      0.0,
      0.0,
      0.0,
      0.0,
      0.0,
      0.0,
      0.0,
      0.0,
      0.0,
      0.0,
      0.0,
      0.0,
      0.0,
      0.0,
      0.0,
      0.0,
      0.0,
      0.0,
      0.0,
      0.0,
      0.0,
      0.0,
      0.0,
      0.0,
      0.0,
      0.0,
      0.0,
      0.0,
      0.0,
      0.0,
      0.0,
      0.0,
      0.0,
      0.0,
      0.0,
      0.0,
      0.0,
      0.0,
      0.0,
      0.0,
      0.0,
      0.0,
      0.0,
      0.0,
      0.0,
      0.0,
      0.0,
      0.0,
      0.0,
      0.0,
      0.0,
      0.0,
      0.0,
      0.0,
      0.0,
      0.0,
      0.0,
      0.0,
      0.0,
      0.0,
      0.0,
      0.0,
      0.0,
      0.0,
      0.0,
      0.0,
      0.0,
      0.0,
      0.0,
      0.0,
      0.0,
      0.0,
      0.0,
      0.0,
      0.0,
      0.0,
      0.0,
      0.0,
      0.0,
      0.0,
      0.0,
      0.0,
      0.0,
      0.0,
      0.0,
      0.0,
      0.0,
      0.0,
      0.0,
      0.0,
      0.0,
      0.0,
      0.0,
      0.0,
      0.0,
      0.0,
      0.0,
      0.0,
      0.0,
      0.0,
      0.0,
      0.0,
      0.0,
      0.0,
      0.0,
      0.0,
      0.0,
      0.0,
      0.0,
      0.0,
      0.0,
      0.0,
      0.0,
      0.0,
      0.0,
      0.0,
      0.0,
      0.0,
      0.0,
      0.0,
      0.0,
      0.0,
      0.0,
      0.0,
      0.0,
      0.0,
      0.0,
      0.0,
      0.0,
      0.0,
      0.0,
      0.0,
      0.0,
      0.0,
      0.0,
      0.0,
      0.0,
      0.0,
      0.0,
      0.0,
      0.0,
      0.0,
      0.0,
      0.0,
      0.0,
      0.0,
      0.0,
      0.0,
      0.0,
      0.0,
      0.0,
      0.0,
      0.0,
      0.0,
      0.0,
      0.0,
      0.0,
      0.0,
      0.0,
      0.0,
      0.0,
      0.0,
      0.0,
      0.0,
      0.0,
      0.0,
      0.0,
      0.0,
      0.0,
      0.0,
      0.0,
      0.0,
      0.0,
      0.0,
      0.0,
      0.0,
      0.0,
      0.0,
      0.0,
      0.0,
      0.0,
      0.0,
      0.0,
      0.0,
      0.0,
      0.0,
      0.0,
      0.0,
      0.0,
      0.0,
      0.0,
      0.0,
      0.0,
      0.0,
      0.0,
      0.0,
      0.0,
      0.0,
      0.0,
      0.0,
      0.0,
      0.0,
      0.0,
      0.0,
      0.0,
      0.0,
      0.0,
      0.0,
      0.0,
      0.0,
      0.0,
      0.0,
      0.0,
      0.0,
      0.0,
      0.0,
      0.0,
      0.0,
      0.0,
      0.0,
      0.0,
      0.0,
      0.0,
      0.0,
      0.0,
      0.0,
      0.0,
      0.0,
      0.0,
      0.0,
      0.0,
      0.0,
      0.0,
      0.0,
      0.0,
      0.0,
      0.0,
      0.0,
      0.0,
      0.0,
      0.0,
      0.0,
      0.0,
      0.0,
      0.0,
      0.0,
      0.0,
      0.0,
      0.0,
      0.0,
      0.0,
      0.0,
      0.0,
      0.0,
      0.0,
      0.0,
      0.0,
      0.0,
      0.0,
      0.0,
      0.0,
      0.0,
      0.0,
      0.0,
      0.0,
      0.0,
      0.0,
      0.0,
      0.0,
      0.0,
      0.0,
      0.0,
      0.0,
      0.0,
      0.0,
      0.0,
      0.0,
      0.0,
      0.0,
      0.0,
      0.0,
      0.0,
      0.0,
      0.0,
      0.0,
      0.0,
      0.0,
      0.0,
      0.0,
      0.0,
      0.0,
      0.0,
      0.0,
      0.0,
      0.0,
      0.0,
      0.0,
      0.0,
      0.0,
      0.0,
      0.0,
      0.0,
      0.0,
      0.0,
      0.0,
      0.0,
      0.0,
      0.0,
      0.0,
      0.0,
      0.0,
      0.0,
      0.0,
      0.0,
      0.0,
      0.0,
      0.0,
      0.0,
      0.0,
      0.0,
      0.0,
      0.0,
      0.0,
      0.0,
      0.0,
      0.0,
      0.0,
      0.0,
      0.0,
      0.0,
      0.0,
      0.0,
      0.0,
      0.0,
      0.0,
      0.0,
      0.0,
      0.0,
      0.0,
      0.0,
      0.0,
      0.0,
      0.0,
      0.0,
      0.0,
      0.0,
      0.0,
      0.0,
      0.0,
      0.0,
      0.0,
      0.0,
      0.0,
      0.0,
      0.0,
      0.0,
      0.0,
      0.0,
      0.0,
      0.0,
      0.0,
      0.0,
      0.0,
      0.0,
      0.0,
      0.0,
      0.0,
      0.0,
      0.0,
      0.0,
      0.0,
      0.0,
      0.0,
      0.0,
      0.0,
      0.0,
      0.0,
      0.0,
      0.0,
      0.0,
      0.0,
      0.0,
      0.0,
      0.0,
      0.0,
      0.0,
      0.0,
      0.0,
      0.0,
      0.0,
      0.0,
      0.0,
      0.0,
      0.0,
      0.0,
      0.0,
      0.0,
      0.0,
      0.0,
      0.0,
      0.0,
      0.0,
      0.0,
      0.0,
      0.0,
      0.0,
      0.0,
      0.0,
      0.0,
      0.0,
      0.0,
      0.0,
      0.0,
      0.0,
      0.0,
      0.0,
      0.0,
      0.0,
      0.0,
      0.0,
      0.0,
      0.0,
      0.0,
      0.0,
      0.0,
      0.0,
      0.0,
      0.0,
      0.0,
      0.0,
      0.0,
      0.0,
      0.0,
      0.0,
      0.0,
      0.0,
      0.0,
      0.0,
      0.0,
      0.0,
      0.0,
      0.0,
      0.0,
      0.0,
      0.0,
      0.0,
      0.0,
      0.0,
      0.0,
      0.0,
      0.0,
      0.0
    ],
    "weight_w": [
      [
        -0.031599006619499666,
        0.04837997494209531,
        -0.06618141508170033,
        -0.017790010307199025,
        0.037616526664222605,
        0.048278389601719346,
        -0.009784950903051925,
        -0.03548074200409785,
        -0.048822651025546115,
        0.006705415227965389,
        -0.02173132915833032,
        0.02312250241892938,
        -0.04511778195267815,
        0.0015970022167574316,
        -0.03391541707578946,
        0.03456881253604557,
        -0.06073868567417458,
        -0.006484865658223968,
        0.016005016435139532,
        -0.021301896799546624,
        0.03909433978593181,
        -0.0711992089638849,
        -0.059189126938537014,
        -0.02856225328871874,
        -0.0688005369826585,
        0.006510811012668594,
        -0.037454077191295614,
        0.04132944127142697,
        0.020339879523448276,
        -0.006525761435722546,
        -0.06249077421961704,
        -0.0443721450567517,
        -0.03398794006319751,
        0.05391481628541461,
        0.06794779461222622,
        0.012763499981307172,
        0.03320044984196405,
        0.03318109604456049,
        0.0035797263145904007,
        -0.06723245936231928,
        -0.050171737923963594,
        0.07412670678053071,
        0.038373841249999624,
        -0.03065928785983986,
        0.004088195903151279,
        -0.01532460340491116,
        0.05380428644688315,
        0.06436744394908747,
        -0.03274933891306145,
        -0.02939248903628918,
        0.05123044459721643,
        -0.002680085220830075,
        0.06811592545073297,
        -0.052620962305341974,
        -0.024180431474385325,
        -0.021416964426205068,
        0.05866033567623069,
        -0.009562708321794011,
        0.010390959297432362,
        0.012821673432860017,
        -0.059198670736879344,
        -0.048257029841183435,
        0.03277639715731298,
        -0.06698789273391062,
        0.0027011054747589636,
        -0.04786589243733765,
        -0.03126755171465116,
        0.03450106314513786,
        -0.03433400863945255,
        0.013289426151115669,
        -0.056046814052266344,
        0.07588239582302767,
        -0.04441376581223714,
        -0.059478367365380244,
        0.0008527624332830414,
        0.005368990570683338,
        0.03737172858388978,
        0.03135610212728224,
        -0.002614325001725523,
        0.06848541030750366,
        -0.021442508033228704,
        -0.014791163042879238,
        -0.005862327725301916,
        0.06817766590621294,
        0.007402711914134483,
        0.049565056237691724,
        0.06264553773749268,
        -0.00839252002367194,
        0.05624532799547588,
        -0.05713756219799602,
        0.018495743890748775,
        0.008764411580711895,
        0.061611020007936834,
        0.07642662029438846,
        -0.01213707063566101,
        0.024847836982927612,
        0.03540704036187635,
        0.033588060907021974,
        0.07241151744920044,
        -0.07482122191928173,
        -0.004671816817044289,
        -0.009727275875064653,
        0.0311645790368269,
        -0.05194370418068737,
        0.05620430881531169,
        -0.020675302616084322,
        0.004256071873059167,
        0.0432151913622746,
        -0.017371232822616503,
        0.04769773500290739,
        -0.049360683308151285,
        -0.028395956262756775,
        0.05250099381136397,
        -0.0616821137480655,
        0.03336973416275485,
        -0.027725935872197585,
        0.0525105952185701,
        0.007430680516458149,
        -0.029429557820474926,
        -0.0005044688682645654,
        -0.038594066130329945,
        -0.04860607095244314,
        0.025989078738028887,
        -0.0596402814699592,
        0.019088855346618763,
        -0.03749859787605464,
        -0.05577424517468624,
        -0.03812527055838613,
        -0.06055808007467911,
        -0.0447469142601377,
        -0.0018656071359851728,
        0.020262247514297713,
        0.0699813361687465,
        0.037001235999742185,
        0.03193549174024719,
        0.0521600238942683,
        -0.023711344141886158,
        -0.043712007224590274,
        -0.04749498071358748,
        0.020073114922168594,
        0.0457407556766377,
        0.051162508057912975,
        0.00872182684783189,
        -0.010511215625555875,
        -0.020721759683366488,
        -0.04580319269624139,
        0.00045504320738926074,
        -0.05180693809862341,
        -0.008161020756054155,
        0.0767433877381456,
        -0.0006453879098845122,
        -0.04071199649027002,
        0.05512215290690661,
        -0.01743294547544938,
        -0.027891316857834733,
        0.04515268109804749,
        0.04552653300163763,
        -0.03136141317706116,
        -0.07105046332077718,
        -0.03615302613009462,
        -0.05867819332758718,
        -0.021028217727381907,
        -0.03495411311384078,
        0.004489959250366257,
        -0.058275892904364544,
        -0.023546892795945344,
        -0.054554329614766556,
        -0.04340180706015686,
        -0.042882744012923066,
        0.06854355746566834,
        -0.017797777634018706,
        0.03130963637062202,
        -0.07088313501757212,
        0.0005098325720811758,
        -0.013964733177452018,
        -0.07549924248599021,
        0.03374957262830433,
        -0.025649017190190068,
        0.023448584898636576,
        -0.0057618126351217935,
        0.012097569074020348,
        -0.05452354422196704,
        -0.006540275792933523,
        0.010439889321730303,
        0.07468154979218414,
        0.07460369459502672,
        0.04509838006880397,
        -0.009425524410207331,
        0.03825999848101834,
        0.011122545711520618,
        -0.0466886677781849,
        0.03643411788895258,
        0.054163931831986395,
        -0.03989446443134918,
        -0.03375136571676567,
        -0.05646630807380491,
        0.013997492732267025,
        0.06290873602647029,
        -0.03960777765758491,
        0.04230925407969491,
        0.014844682059423589,
        0.043139840176220315,
        0.05003367988477056,
        0.026529140985773025,
        -0.012492524910227829,
        0.02594844628718225,
        -0.05803885983988626,
        0.006143892376008167,
        0.05572452648064036,
        0.02985613257888413,
        -0.005639697658876758,
        -0.0022138893548856453,
        0.03627430523866691,
        -0.04559404024570973,
        -0.01037529042906872,
        -0.018083427276867584,
        0.021520356526536166,
        0.03833767146052963,
        0.0518786676022184,
        0.006660645514025218,
        -0.01035418952477378,
        -0.06510754863970888,
        -0.03323438198269437,
        -0.04425096978114372,
        -0.0013510339370697427,
        0.06101472768250468,
        0.0521547157569264,
        0.05263429350243154,
        0.04124942906711507,
        -0.03459523595389264,
        0.004416754366759076,
        0.055009024330265,
        -0.01672398329555843,
        -0.05749015076654457,
        0.07591231749890229,
        0.01995774292521124,
        -0.07261336143303602,
        0.006603965166298034,
        -0.04945462488285267,
        0.003864197756758392,
        -0.06412922011518254,
        -0.043258328159993684,
        0.004594257776146762,
        -0.05838499620357655,
        0.07154807583300171,
        0.025756417431316084,
        -0.05591843991616931,
        -0.07478423213380979,
        0.008110499465239993,
        -0.06388923620229929,
        0.0035095883944164935,
        -0.061844123580451806,
        -0.06564864399731093,
        -0.03736233640805929,
        0.0708141376594695,
        -0.07402552894253704,
        0.05153261011093491,
        -0.06391850116940297,
        -0.0043901533916234775,
        -0.062394519390110585,
        -0.07433691586116704,
        0.04261731935250025,
        -0.0646413902825733,
        -0.03393377588821261,
        0.04235031327939509,
        -0.04395444088748274,
        -0.01991475537811748,
        0.012159262593983908,
        0.066495979941433,
        -0.032618849062493384,
        -0.0432238385136184,
        0.04755338184331147,
        0.028443235726683364,
        -0.06363900886420908,
        0.05593592694738328,
        0.06027837764242258,
        -0.016946149868236705,
        -0.04869376312189916,
        -0.05344994658285239,
        0.055142317669047064,
        0.049756589818353986,
        -0.034540918970497506,
        -0.03164038287424753,
        -0.007485955529568836,
        -0.005938446896526034,
        0.011424292923557428,
        -0.014750992990244474,
        0.000891660155850918,
        0.04003375626837785,
        0.06875259345257453,
        0.0008047817351943543,
        -0.028059630597378822,
        -0.04470321931867339,
        0.03961755446624078,
        0.01942172939828217,
        0.042626409976943586,
        -0.034268925560214235,
        -0.03432315855031975,
        0.026267495987313233,
        -0.034161848386075507,
        0.011051835611297009,
        0.0012759923958879371,
        0.06131110393611436,
        -0.0038812039188984016,
        -0.021889870614692566,
        -0.006583683451839656,
        0.07659738317646794,
        -0.044664901244262756,
        -0.04647195990322327,
        -0.056138499350448165,
        -0.011841249682541383,
        0.0465483480225361,
        -0.0736616375328282,
        -0.019949486562049604,
        -0.05656458166552076,
        0.07402041198824214,
        0.02234088673241902,
        0.0023211695576054042,
        0.012930565076353207,
        -0.03851121712909853,
        0.06662501250022998,
        -0.03878676767038328,
        0.06749071603373807,
        -0.06521812824357859,
        0.07004944630277096,
        0.06902374037251668,
        -0.046693817969269955,
        0.03629525298864077,
        -0.06489560835936832,
        -0.020316929844664176,
        -0.011765658415793967,
        0.003280304250361965,
        -0.004859211444457959,
        -0.00867537338630428,
        0.05052630758296309,
        -0.054666841361181856,
        0.009445442946814639,
        -0.0647544685936214,
        0.06035198874637973,
        0.02263330278461856,
        0.02572650338482621,
        -0.061901483824649245,
        -0.06645707248991703,
        -0.030828689757083742,
        0.03301963631938694,
        -0.0007404452607627787,
        0.022901147300486036,
        -0.007659053813142691,
        -0.00815767716099064,
        -0.05333849281098608,
        0.058651026706656506,
        -0.055601514185835935,
        -0.07472608768411125,
        -0.04139596622879474,
        0.056512927377737665,
        0.030433731342291173,
        0.05554236635124524,
        -0.05156537777761606,
        -0.021851263999634885,
        -0.06274667836288625,
        -0.02441234530671124,
        -0.009638286729978088,
        -0.0385544990251952,
        -0.03974922731442409,
        -0.046514244749842365,
        0.07093878900828277,
        0.013335076628554043,
        0.0015419984915873292,
        -0.058476133061525104,
        0.010868850280182515,
        -0.053342055844524894,
        -0.055215111247855275,
        0.033810998489974195,
        0.01548675252636289,
        -0.03552158635681423,
        -0.06826900020559618,
        -0.052357056056923125,
        -0.0048730314334975156,
        -0.017808885615069492,
        0.05240146458136,
        0.05788404246832604,
        -0.07576103973006959,
        0.06259344100894684,
        0.05655247301953542,
        -1.9620287672245107e-05,
        0.03376215444310354,
        -0.06886229958339359,
        0.06335834316313682,
        0.0006607686039361155,
        0.053398157426115644,
        -0.007268394518312377,
        -0.013204689386217022,
        0.06074180735141699,
        -0.0004642001947041813,
        -0.03521952838544427,
        -0.0644658705084988,
        0.05378267494812569,
        0.04158776412232604,
        0.012783382850816927,
        0.007246061283617072,
        0.04961397850182464,
        0.010819977710823755,
        -0.041468837830409014,
        0.022069253287893623,
        -0.044072595692034325,
        0.0664514231411508,
        -0.06383222923240824,
        -0.0733814375410681,
        -0.055918040440361,
        0.020999547642580413,
        0.06289270672066799,
        0.023885838137661555,
        0.02750027150866434,
        0.013886229936110647,
        -0.06041082000302708,
        0.07310656471363775,
        -0.058268221521659155,
        0.06496348663832163,
        0.007108506887398863,
        -0.04142303862926292,
        0.0013409940762323658,
        0.04977632459009257,
        0.0288180880199016,
        -0.00793074602139425,
        0.05313812504997409,
        0.0710847915354211,
        0.004512683809003493,
        0.05570814804442634,
        0.05079328057625784,
        0.07212885897177188,
        0.006759734745660759,
        -0.03494087614776449,
        0.01582433246386758,
        -0.05103753313507643,
        0.027475263965190733,
        -0.04988391495198237,
        -0.007981521296170288,
        -0.034079319491992936,
        -0.05140548143258565,
        0.008151540336545943,
        0.025303516624216704,
        0.07501849952578968,
        0.028779114850570345,
        0.008975572261958192,
        -0.026649678348659306,
        -0.06253800401352234,
        0.05905073213446882,
        0.035026350251804186,
        -0.06026644889183255,
        -0.05559821694457104,
        0.07288503349695463,
        0.03129310348826583,
        0.026877846572563396,
        0.05239330326509378,
        0.008552723201621981,
        -0.0316114952249128,
        0.0018794150909926255,
        -0.017771203900900902,
        0.02737200260504695,
        0.053527820887948024,
        0.016908372891155696,
        -0.004459334712666629,
        -0.009307085582002356,
        -0.07211060672851134,
        -0.0547004333659862,
        -0.0011734277514721947,
        -0.06434608196758398,
        -0.0011797836539801654,
        -0.05743828049592209,
        -0.03907544030547282,
        -0.05163482090582034,
        0.00023968083360456638,
        -0.02839324630362324,
        0.06573093114966214,
        0.06325906781969154,
        0.0014050543368206159,
        0.06796652143025098,
        0.06286474042385434,
        0.014314446226189242,
        -0.04217607550080919,
        0.045656756801326,
        0.034774910609429874,
        -0.021864356117252286,
        0.022168814285294547,
        0.02621905063661356,
        0.018026395363968675,
        -0.05006205518096426,
        -0.005691486905079118,
        -0.033879925725667136,
        0.043423010705907664,
        -0.03873956906843652,
        0.05051496742574563,
        -0.06028871415972126,
        -0.019586738443949876,
        -0.06932748594736154,
        0.06010466137764131,
        -0.0019400529720467602,
        -0.059017592994329474,
        0.009136217787285225,
        0.004514239718571386,
        -0.021700946113824823,
        0.01623772450774516,
        -0.04186544113539833,
        0.07118828221035428,
        -0.06814265911774946,
        -0.030949014683008286,
        -0.04357540276684296,
        -0.05711494761630505,
        -0.05502782731502044,
        0.06258328853970602,
        -0.03499275037650619,
        -0.01256961421972097,
        0.01599136248174418,
        0.02806144252389202,
        0.006283537957920082,
        -0.01892345502351142,
        -0.06450295178668483,
        0.009255871156062537,
        -0.005211436589957069,
        -0.05043142825999718,
        -0.0648451588260635,
        0.020448706351798185,
        0.07486408910008074,
        -0.05907619805899003,
        0.07057382305676399,
        0.021254371067702976,
        0.00586319795774061,
        -0.029176391937006996,
        0.02903639783873506,
        -0.04216013005492387,
        -0.07448318934008963,
        -0.018082497945565136,
        0.01753863762876734,
        0.0060631303452909485,
        -0.0084163277502141,
        -0.044283678508526804,
        -0.04624133118963993,
        0.0160200817950506,
        0.05926618025800123,
        0.036886295502252184,
        -0.026697027371460083,
        0.05330534977666382,
        -0.03959079384130707,
        -0.039985217982692674,
        0.03781778293872601,
        -0.03651224374940325,
        -0.03241517504012029,
        -0.0021062531821789826,
        -0.0602155708182116,
        -0.06498575242343668,
        0.0037829556880132204,
        0.062038068466031326,
        -0.04390231132488799,
        0.024095249188399864,
        -0.07415148618130439,
        0.007848509715026125,
        -0.013921187058078877,
        -0.03263979478749074,
        -0.03503491819046829,
        -0.04190398303269323,
        -0.055307691506158614,
        -0.023135497767065992,
        -0.019916441934813095,
        0.0008654281437185246,
        -0.05733312561191839,
        0.008190401990460602,
        -0.053465791957758704,
        0.039674190246014304,
        0.04090071926748112,
        0.03264384917470124,
        0.00810578755362916,
        0.024717829978185196,
        -0.07207462797883356,
        -0.055757767925928764,
        0.025570525446157136,
        0.07187629030014392,
        -0.0012368617145573496,
        0.028666008198739587,
        0.031804653040473196,
        -0.01646538535413939,
        -0.009795077966006996,
        -0.02366775740929354,
        0.03923441910114557,
        -0.04589486941334123,
        -0.0020957735510121894,
        -0.06053571918256421,
        0.03321412375410465,
        0.02242118469656862,
        -0.03867145451317176,
        -0.06409389274854532,
        0.0428763915559411,
        0.027333364668602325,
        -0.063174463127166,
        0.008827928267672577,
        -0.028987314722977796,
        0.01948874691322386,
        0.07373663936152663,
        0.050075555159120794,
        0.02501584782061171,
        0.04935687412266543,
        -0.05821812303532989,
        -0.06339963727022176,
        0.0013005157207812562,
        0.013119031443169421,
        -0.02444626864632249,
        0.05207110693130901,
        0.011457076099418012,
        0.07599437880439863,
        -0.062342410918617044,
        0.02395645223645379,
        -0.0633548692031908,
        0.012791469983578607,
        0.07506008056058142,
        0.0069688224865050025,
        0.0704264009662699,
        0.051682809139698166,
        -0.0034686396682484383,
        -0.06562693642794293,
        -0.058754452957946776,
        0.07522643964467546,
        -0.045968626962920735,
        0.0530510311485336,
        -0.018889919220893156,
        -0.06104706503362001,
        0.014940156782102268,
        0.03389886119106429,
        -0.07615237438782564,
        0.02096240477148363,
        -0.0207703338516783,
        0.07022768251693609,
        -0.057795019210965096,
        -0.06864100102552506,
        0.05334484293354275,
        -0.06353407820238019,
        -0.07217111691487484,
        -0.01800145870626655,
        -0.048679257096105474,
        -0.02282639865947881,
        -0.0052190861637260305,
        -0.05972947956356269,
        0.03131060097866782,
        0.0581813194362881,
        -0.0023258991036803484,
        -0.0640248844534618,
        0.0069271021002121624,
        -0.06252541774320729,
        0.004747331732523299,
        0.026002249045534012,
        -0.02936783708648206,
        -0.00947269241604122,
        0.045719513690256106,
        -0.07498027897177696,
        -0.07074107417586306,
        -0.025827354730929293,
        -0.04431269932450027,
        0.033022387024453495,
        0.02634405335411477,
        -0.013092619724761154,
        -0.04463813891704125,
        0.036101142903992064,
        -0.009138309570532507,
        -0.03616045560180539,
        0.06491375210984215,
        -0.01569739237394084,
        -0.01635568740087006,
        0.00654012252462742,
        0.03420403977527836,
        0.038254302200602844,
        -0.040487358578865325,
        0.05877978169663625,
        0.06189256648619443,
        -0.02741340515158401,
        -0.06588177807756482,
        -0.06420810143144651,
        -0.002716947423657551,
        0.015187928164814055,
        0.04198179762396556,
        -0.07431191852588193,
        -0.06922012439660849,
        0.06933346098397411,
        0.01762515959178447,
        -0.000982046695300734,
        -0.07552437136625947,
        -0.053914926514570326,
        -0.01183172112538887,
        0.015298816941305526,
        -0.013813200425028732,
        0.013787707067293445,
        0.07035703930898177,
        -0.018643098888034164,
        0.03935023524322291,
        0.0038760093492139075,
        -0.024690398772454526,
        0.07325487764035857,
        -0.06743602517983081,
        0.027740862142053235,
        -0.021244614930419348,
        0.027898505241756175,
        -0.07488729890562801,
        -0.040072235593746244,
        0.0760078281517389,
        0.0235727626356705,
        0.06151701940550863,
        -0.07057284265866025,
        0.05098669937688238,
        -0.03226696307457871,
        -0.024273235441628356,
        -0.0312427746980632,
        -0.007077177905463569,
        -0.04518478861075506,
        0.025059899745176084,
        0.019761855210532767,
        0.06328473862871278,
        -0.0017642521720627746,
        0.0285020208937507,
        -0.07091967437955507,
        -0.04236379821496281,
        0.0608336720451752,
        -0.061173873318607644,
        0.05622009747365417,
        0.05564921820250532,
        -0.06466594893741084,
        0.07005142557486962,
        0.07630413366822567,
        -0.02794534322019239,
        -0.019906041073969316,
        -0.01555221893567222,
        -0.0544820745610458,
        -0.03276441235677498,
        -0.04211075119931296,
        0.0309808114136393,
        0.029553445720277363,
        0.012600545103765043,
        0.07678342564389701,
        -0.05225299185645321,
        0.052305712060572856,
        -0.05499983825430878,
        -0.04669674544534769,
        -0.05526220271097916,
        0.050427662470273554,
        -0.044979620163077216,
        0.04722979757893635,
        0.042930903699555614,
        -0.04524277011191843,
        0.05316235340815795,
        -0.020852465635040375,
        -0.01417484036609265,
        -0.01720458386359819,
        0.013999925159477788,
        -0.06460853764163417,
        0.011878526333838221,
        0.05775461400401313,
        -0.06272868944825194,
        -0.04382769851290644,
        -0.07210803642991076,
        0.06352112221051764,
        0.07021379199541156,
        0.036658926984799264,
        0.06200306064980926,
        -0.039505855525926684,
        -0.06803512635519784,
        0.06818197691474101,
        0.05931376920365525,
        -0.013891061056825263,
        0.06478069072749504,
        -0.009547641999860038,
        0.05843911665682,
        -0.042540532814183095,
        -0.0759413908764019,
        0.03115177935342618,
        0.043357817865606565,
        -0.01979857548294745,
        -0.04718481589932161,
        -0.055232427851411324,
        -0.052406573386303223,
        0.0207814805637528,
        -0.01356490776002342,
        -0.03872534200696299,
        -0.0015185586516984484,
        0.04486674469855979,
        0.022176329753293478,
        -0.034942331444958744,
        -0.023548760922686013,
        -0.06353034420473906,
        -0.0689932958923398,
        -0.058521891904808415,
        0.07408113056674084,
        -0.020628812550620976,
        0.0632655824509478,
        0.002897698088522277,
        0.002448487434035293,
        0.03578894377025052,
        0.034659984098538904,
        0.023661009688621656,
        -0.054422189651035735,
        0.05978047899946495,
        0.06236422915415529,
        -0.023755866156963054,
        -0.05399480073350034,
        -0.028342942549880817,
        0.002720208549092759,
        0.05669439178830765,
        -0.004399089344487808,
        -0.051054045184835736,
        -0.0581017577805268,
        0.04855924863442579,
        -0.01214041214540966,
        -0.017850720552637193,
        0.013304890329965041,
        0.07244651544223649,
        -0.04428630846409812,
        0.006447724362728682,
        -0.03056533660039385,
        -0.05221047912064114,
        0.00863592566414155,
        0.06316102551990321,
        -0.02105780432142402,
        0.00018967818689438753,
        0.06479750227595854,
        0.07634386624246439,
        -0.04648130191184796,
        -0.07610327543407754,
        -0.04757233985233979,
        -0.021698173848456563,
        0.006616896640393499,
        -0.051708156186963034,
        0.032379817948236564,
        0.04727678846953648,
        -0.06658024186067044,
        0.01386636601000453,
        -0.03669562010867094,
        -0.06932324584597076,
        -0.06455395314511757,
        0.03674567299413968,
        -0.0634693914205311,
        0.008453047277515433,
        0.0068752665681907355,
        -0.054198040917709286,
        -0.07167082905940587,
        -0.05151573334552796,
        -0.03743709256678306,
        -0.03189212660386975,
        0.032515517498476074,
        0.03846303172331092,
        0.06532016331088905,
        -0.03084950556178301,
        0.02990337509517943,
        0.047056683490049295,
        -0.0542032434009823,
        -0.016908240024042058,
        0.047187370513162796,
        -0.002705678775454523,
        0.00029998415152542035,
        -0.01008687779491435,
        -0.06593890740013844,
        0.04560319831101528,
        0.045257803097284555,
        -0.02841059940916938,
        -0.0385407906178825,
        -0.044754564300921354,
        0.040562179528080486,
        0.04542588448740886,
        0.0019517962115457171,
        0.042898709696198425,
        -0.04274204357411215,
        -0.026076774787234393,
        -0.04212666351131079,
        0.004379455375254471,
        0.005693199516574779,
        0.004101958516011139,
        -0.03094825917247853,
        0.018004597900199204,
        -0.0137736491275713,
        -0.06755092098836014,
        0.004348348326170648,
        0.0034733733252087645,
        0.07046888547336877,
        0.06349747413924975,
        0.008685850350564614,
        0.04391205481559994,
        0.06230557930837402,
        -0.03661474380390473,
        -0.027806475226325574,
        0.053657583961975786,
        0.058404467261391174,
        0.059818718195728954,
        -0.06306463326115364,
        -0.053982801750288495,
        -0.06329590638359196,
        -0.060716505048595194,
        0.022749266576243696,
        0.047317788544504455,
        0.07166163531913014,
        0.039220130164371036,
        -0.016670005617567117,
        0.002352447966241941,
        -0.0744692272607233,
        0.032920902795533974,
        0.0279097994572384,
        -0.012080421579005268,
        -0.015631998559126746,
        0.008911289847722825,
        0.026169520579387637,
        0.0728724467527124,
        0.03752085097197588,
        0.04258950491433883,
        0.06438639782704636,
        -0.05501784775157438,
        0.06882801736812971,
        0.04246691049314852,
        -0.07521475913227729,
        0.060070710990703186,
        0.07285380223492052,
        -0.0226971046921405,
        -0.009233591276533823,
        0.01482766123953548,
        0.0255765051159096,
        -0.04619443978411585,
        0.034903570263326744,
        -0.0028387129950354917,
        -0.03942248304787518,
        -0.06310563179414087,
        0.024021975492774003,
        -0.06812088922624548,
        -0.013628374912292296,
        0.057358646863920754,
        -0.012847508930981771,
        0.007650988928906172,
        0.034041393125178454,
        0.00019393787470137203,
        0.04598418066455663,
        -0.01770546001211768,
        0.05724449190908143,
        0.008698027007493989,
        0.05171857430312218,
        0.011405133105593268,
        0.0652159287661909,
        -0.07203042007109028,
        0.011320517032850128,
        0.04600066860216749,
        -0.03745784708783936,
        0.06218018374366688,
        -0.05671819228520859,
        -0.06560791081326428,
        -0.07635868156154473,
        -0.05650744275768964,
        -0.015852742665353255,
        -0.0698782943733709,
        0.0515917898246441,
        -0.0038529888486765473,
        0.05787250058220675,
        -0.07006779307740366,
        0.055603436469276735,
        0.029202711384049077,
        -0.07691553820807512,
        0.06602386908046712,
        0.02159840280441415,
        0.06898732168045951,
        0.014154797681249137,
        -0.06321855111508626,
        0.0020084624116099153,
        -0.0265915835662041,
        -0.02198257496068564,
        -0.001029941880911392,
        0.05936379155323801,
        0.04570008688510181,
        0.011507722326209599,
        -0.03354931809037878,
        0.06843806736545618,
        0.05497858951590068,
        0.031539521725156644,
        -0.044177918421184986,
        0.05252865236152113,
        0.036310332204546034,
        0.014122782520714888,
        0.0024621606742125796,
        -0.02443802162785047,
        0.06162425821434206,
        -0.042938556087880185,
        -0.033637242016039855,
        -0.053801539454510314,
        0.0527892917909458,
        -0.012303311099615466,
        0.0016328094635241763,
        -0.04019793086980124,
        0.010114464614681712,
        -0.05827578199594713,
        -0.07443049944961506,
        0.013562768204140124,
        -0.0025662771231346887,
        -0.03667148029201226,
        -0.0735893943535752,
        -0.07600890147402682,
        -0.04016335374482039,
        0.013444291046831841,
        -0.03530580879524912,
        0.011948707431714903,
        -0.06243906206575696,
        0.07261168150511269,
        0.0062541761955037245
      ],
      [
        -0.03518518368137906,
        -0.028713819635116843,
        0.057190378906729955,
        -0.02271225584194514,
        0.021094973173622522,
        -0.011118808542572717,
        -0.011182675159471522,
        -0.002646656673767442,
        0.05573657446672464,
        0.06951757761091629,
        0.023127380141312534,
        0.05555936824539809,
        0.0685641389618615,
        0.027897619493300316,
        0.04132010482846753,
        0.06303075265243757,
        0.025750795267107968,
        -0.07400514498116467,
        -0.0018048848530008987,
        -0.012336921062010064,
        0.05341073576731442,
        0.03910277167322343,
        -0.01094375813062394,
        0.02024352637000476,
        0.015657441050417165,
        -0.0013751370974884464,
        -0.049889659985003186,
        -0.04813174567681171,
        0.05430675664023146,
        0.0013034990524366241,
        0.05134643481694981,
        -0.040749570209460455,
        0.06861839069807091,
        -0.000601511873366864,
        -0.0019055418620812503,
        0.01363546541648275,
        0.012877451538160098,
        0.035908441576922606,
        0.050652392772146004,
        0.005932973227599239,
        -0.019669414902715454,
        -0.019584047296285476,
        -0.055892941395285466,
        -0.05406359193610198,
        -0.0643023207690266,
        -0.019387619457833974,
        0.03476426354571234,
        0.05163944727796116,
        -0.033063789978558834,
        0.017263329814242043,
        0.008168911061636641,
        -0.017215724657072218,
        -0.026035363165823534,
        -0.07353145624580504,
        -0.06520789799195015,
        0.009790171660797917,
        0.003820738999010684,
        -0.0023759465404548374,
        0.07148836755823665,
        -0.01754181288556285,
        -0.047663160204031586,
        0.06045874416131963,
        -0.056993110029329816,
        0.04901552873911452,
        -0.06963903266771561,
        0.0512557035887993,
        -0.032403023004075396,
        -0.005958178444891257,
        0.013298944116011069,
        0.007145822114682718,
        0.025557338313850125,
        0.024739093670938295,
        0.04223537216953188,
        0.028316644911163424,
        0.0345880687197012,
        0.028197096883481293,
        -0.02655953825075539,
        -0.002122793324399519,
        -0.05794458721548613,
        -0.05729626178058511,
        -0.014132725442798741,
        0.05842309554117159,
        0.043647240194296666,
        -0.004028664089125278,
        -0.06873403629856678,
        0.024720538560117536,
        0.026780175766174516,
        0.04681058229083106,
        0.05273573029284817,
        -0.06947125256843988,
        0.0026708795283488934,
        0.0004125018640794148,
        0.0557555104052746,
        0.010916631823936276,
        -0.041500429533648124,
        0.06988070659034942,
        0.03778904541821752,
        0.030094566804770614,
        -0.04533559096903268,
        0.01834571043141217,
        -0.07647952092789954,
        -0.0456136226940479,
        0.035107345769951115,
        -0.056721360105393345,
        -0.024099701232594105,
        -0.031680694775749293,
        0.0606255904828836,
        0.0767687470723816,
        -0.038966116837540865,
        0.031925465060911734,
        -0.06671165885304928,
        0.003295903530526445,
        0.0705077868828794,
        -0.03788190620874692,
        -0.06339798496751586,
        0.041498242376949865,
        -0.028408744625242996,
        -0.017651272536866047,
        -0.06578814393065426,
        -0.06444924311790125,
        -0.048420549710961505,
        0.07111643848426105,
        -0.07037683028629829,
        0.002091022323221184,
        0.029670666792374734,
        -0.076944558875531,
        -0.01854939097513375,
        0.05740822609943094,
        -0.07179424226933814,
        0.0388077064478045,
        0.04775996638523711,
        -0.010799128216521667,
        -0.006320879395068327,
        -0.03368614999807534,
        -0.0663904746690435,
        -0.03768872166129913,
        -0.020218684177204717,
        0.0505471898598627,
        0.0026974946198883992,
        -0.047927113196075566,
        0.026734776295782595,
        -0.05040723033031207,
        -0.03339391871065277,
        0.027292853075787687,
        -0.04449472571670116,
        -0.019460826087217706,
        -0.06512048836003156,
        0.06933140238513955,
        0.07077437306525633,
        -0.049233780929105596,
        -0.06597897691301838,
        -0.0545250766571715,
        0.04425762298713727,
        0.028172708871954194,
        0.029646082140439914,
        0.05273516582944582,
        0.04325730441121774,
        0.04907457280412075,
        -0.04340039807506733,
        -0.018976948583195832,
        -0.0496858831057298,
        0.030530230946440542,
        0.020700424143317797,
        -0.048521764114214966,
        0.0750727174671802,
        -0.022406049642208048,
        -0.0018150825534738874,
        0.0049954416738416385,
        -0.011400091986382449,
        -0.06257704881193055,
        0.04781244419152954,
        0.03594009809885412,
        -0.05574479364222843,
        0.010708641733503721,
        -0.0666341255074086,
        -0.01999844612579616,
        -0.00692817958991869,
        0.051465171896935114,
        0.043323453064611744,
        0.04113621422708896,
        0.004356435397073727,
        -0.046715709514651725,
        -0.01772636924646205,
        0.025287179582800218,
        0.07515043579020048,
        0.04818598475526892,
        -0.029434953776437817,
        0.04799911475440427,
        -0.03428063201259479,
        -0.05908466423461434,
        0.009977447323819694,
        -0.0232489656560418,
        -0.07420297019452798,
        -0.0648239451779815,
        -0.0165543059654763,
        0.001840757292325676,
        -0.020627599810169095,
        -0.04949172283510731,
        0.020442742230088892,
        -0.07530857991832864,
        0.012153847836198911,
        0.019371253606591005,
        0.03627456630908761,
        -0.014845257553393089,
        -0.009352454136738936,
        0.03923863730005847,
        -0.05416039764759177,
        -0.03697741218464377,
        0.07297916217738454,
        0.025628498055826204,
        -0.049638373154660895,
        0.013590266633035947,
        -0.043401197403600066,
        0.06304460462709999,
        -0.04077611245131748,
        -0.023955469093763712,
        0.06364403365816781,
        -0.06154647587081554,
        0.022730394441752552,
        0.03390452217480937,
        -0.029550407849902753,
        -0.06387435637824024,
        -0.0353350613332541,
        -0.05588501659815158,
        -0.015303159330334076,
        -0.053253695415849574,
        -0.04479664957317316,
        -0.002849215330821331,
        -0.07248510485723658,
        0.005088271818371695,
        0.059410449245063945,
        -0.04164077061000099,
        0.023570669002134517,
        -0.00904458336114361,
        -0.07173164524159349,
        -0.01591723695606021,
        0.07193835888025793,
        -0.03130817188201041,
        0.01711779709819944,
        -0.04833926946772679,
        0.013252590957653423,
        -0.0636221862950492,
        -0.05286277446412198,
        0.01720647549093718,
        0.01202911166958738,
        0.058935608266401596,
        -0.033900871120453514,
        -0.04551086679192141,
        0.03902433853138629,
        0.04925570079746486,
        0.024603812359369565,
        0.05513394023092247,
        0.006430296371995714,
        -0.02109546900857203,
        0.04420192223760783,
        0.06858252447342575,
        -0.008568994204485064,
        0.01408230380354629,
        0.020298522954309214,
        -0.04952844857117486,
        -0.05280934309001327,
        -0.05290209674296909,
        0.045583755477674515,
        -0.039585524440318126,
        -0.034541840248628775,
        -0.048879037125152486,
        0.017879386646882447,
        -0.041021691028706404,
        -0.0529437698395731,
        -0.07221211166903632,
        0.008712071798111537,
        0.07580781770898684,
        -0.020121391865277456,
        0.016390011887206124,
        -0.024827038510084026,
        0.07252186970860197,
        -0.07287864235037513,
        0.07119734194448488,
        0.03039543444334024,
        0.02190071775727849,
        0.07170600122808257,
        0.036198930281673425,
        -0.07087665487089063,
        0.0034932612217066783,
        -0.03713903292669596,
        0.06928182924382079,
        -0.0623404959470602,
        -0.007220437223893053,
        0.034018007787625995,
        -0.008401532139320364,
        -0.05413047257003949,
        -0.06280787782980103,
        0.027319469765699184,
        0.06578592126883864,
        0.03591281390152713,
        0.07170537445709327,
        0.06204782502493955,
        -0.04813128733596725,
        -0.024807275222442637,
        0.06986025225707174,
        -0.04132110307110086,
        0.006153016930017269,
        0.012941333846329298,
        -0.02496176325175692,
        0.056840631987161216,
        0.05833198437275955,
        0.05178578784991819,
        0.07637557815297394,
        0.05850558643428638,
        0.024184444859788518,
        0.05935688848053264,
        -0.017567517329560786,
        0.07300141496595536,
        -0.02888315243574735,
        0.028721736424434638,
        0.07126656220214961,
        0.044753813107951776,
        -7.65630459678146e-05,
        -0.050695010744841805,
        -0.011140062908078896,
        -0.00036282884146864036,
        -0.013931962639457063,
        0.013231262512864925,
        -0.0591757482786079,
        -0.018859150005254448,
        -0.048076611224864084,
        -0.006370420269065202,
        -0.0658221038148688,
        -0.0427220766779111,
        -0.04045871559353985,
        0.05196114927728071,
        -0.0601640336622362,
        -0.07471145492544592,
        -0.04242052463488907,
        0.06564637993220049,
        -0.03740673551288035,
        -0.02204099562715662,
        0.01699879717958762,
        -0.07460101931259223,
        0.009942493445532996,
        -0.0708647711057427,
        0.014135707022484373,
        0.05356612160110513,
        -0.05031995294517831,
        -0.028916093591350674,
        -0.04971426757629218,
        0.01944206453642716,
        -0.028049265325952734,
        -0.0344159154081059,
        -0.07603259288814064,
        0.02959048400003679,
        -0.05318991914814378,
        0.03929977168920151,
        -0.06484572473446579,
        0.021297913583241512,
        -0.05752318049607957,
        -0.010119926928467249,
        -0.0600553018015824,
        0.019732687546119704,
        -0.07029952616004906,
        -0.06320101386178949,
        0.07297620766193488,
        -0.06682384523303458,
        -0.019020893995133563,
        0.06149371248491314,
        -0.005573748688991784,
        0.05435595692502079,
        -0.07407200859236437,
        -0.023166710159267974,
        0.019980578862884513,
        0.07324876508522257,
        -0.0041283438269982126,
        0.010676755322178988,
        -0.02523642861600678,
        0.052542818973382505,
        -0.07638543057903165,
        0.04667221104457461,
        -0.04864212008921533,
        -0.030596444910602177,
        -0.040039284096428616,
        0.019966728970276418,
        0.04535902925077462,
        0.01780982895787328,
        -0.07256940589827955,
        0.0675407443003444,
        0.010806350488299338,
        0.040883800291538194,
        0.04451636065798077,
        -0.04857148197940941,
        0.004121579374444559,
        0.0361005221050331,
        0.02840195213290972,
        -0.020413105167978868,
        -0.0030289001541185523,
        0.008433024720413018,
        0.03167836971468961,
        0.005195892125140614,
        -0.01504549934867832,
        0.011977593515061669,
        -0.018323805402256553,
        0.002633004058856067,
        -0.06137420360995323,
        0.05927670324511583,
        0.04672523769169197,
        0.00888580784301811,
        0.019839693638980874,
        0.01442787400301955,
        -0.04994124198411705,
        -0.03894329749274213,
        0.031517973449333714,
        -0.02701344204143652,
        -0.004245326629302784,
        -0.051190012969534356,
        0.0372395785448343,
        -0.04692241001878548,
        -0.06417709778460165,
        -0.017277108320912234,
        0.02489785210460231,
        -0.05687059733433611,
        0.012418547459739512,
        0.026595526537505507,
        0.062233040374321424,
        0.0750195905433109,
        0.06009365292824487,
        -0.029931896052047782,
        0.015408846166267628,
        0.002332389574835378,
        0.022431893227661745,
        0.01864076311332867,
        0.06544400155340321,
        0.0688054732929767,
        -0.05532298434415049,
        -0.028705640144146054,
        -0.038738430174805875,
        0.04147165125885073,
        0.06402560818916181,
        -0.004145749397980333,
        -0.07637989258337617,
        -0.00010833466915440015,
        0.04878231118092374,
        -0.009299418435546256,
        -0.039619936256640745,
        -0.006041399350592905,
        0.05062051736245052,
        0.006247920967852358,
        0.03422324665305898,
        0.02962138606976107,
        -0.052448033781327966,
        0.01754962529450413,
        0.026010459905942,
        0.025699837888651864,
        0.049724943759061335,
        -0.019970828077350462,
        -0.028025217741470168,
        0.022714065169175165,
        0.07431506456367068,
        0.06580479864458541,
        0.004617567072389084,
        -0.05619337283793131,
        -0.06228164236380804,
        -0.013125353730243317,
        0.031014512666875438,
        -0.018330965682619174,
        -0.013825746927471932,
        0.03418249555318463,
        -0.04552229967164669,
        -0.004044151355835884,
        0.07194978869665108,
        0.010307117738256766,
        -0.06550086774631647,
        -0.06895034493857984,
        0.03186850748700876,
        0.03172633499655449,
        -0.04823901601382966,
        0.0660958114299095,
        0.04814996151839898,
        0.010891301813279214,
        0.023046607961708432,
        0.013762317782185285,
        0.035016134856223013,
        0.0587098712854571,
        -0.03557639322992084,
        -0.053749254679057314,
        0.04879877001364008,
        -0.028197483461530115,
        0.046370173329940687,
        0.05813899755184915,
        0.03982692317568018,
        0.020612172382206098,
        -0.0019347092676964411,
        0.07013680017251625,
        -0.048402343187343586,
        0.0640423761969704,
        0.010711578161179153,
        -0.06747235964670859,
        0.05839185165498181,
        -0.048143745803579836,
        0.047846331311421395,
        0.03782043533856497,
        0.05140681831044472,
        0.01225466189628134,
        -0.025404287407372605,
        0.029891713352909258,
        0.024813970092672735,
        0.006431035346819852,
        -0.058013867819279544,
        -0.02293332767417878,
        0.04612861245796199,
        -0.025595774205896406,
        0.011722148978302094,
        -0.07670499753407033,
        -0.010229216592979415,
        0.04408938630092722,
        0.020241217720945975,
        0.011686332990899995,
        0.05109588293874415,
        0.05507158481648594,
        0.056796979642616735,
        -0.040404861306318776,
        0.0709269184119749,
        -0.021089291529173236,
        -0.06732837213381024,
        0.07676074789224052,
        0.042719660127311,
        0.0037423560419359014,
        -0.013449839168012928,
        0.016641714276430603,
        -0.027230360566374505,
        -0.013642054447555702,
        -0.0630575457171368,
        0.05603381304152391,
        0.0040881295849029275,
        0.04396293630876094,
        -0.0019739520284516726,
        -0.0033657427251763683,
        -0.058616090423687414,
        0.019685329311295727,
        -0.06083467428694146,
        -0.017013971400576956,
        -0.004430755454999463,
        -0.03045407657504646,
        -0.0036595428145320685,
        -0.04603206796136047,
        0.03265876859484493,
        -0.017658423821414873,
        -0.00802455977653492,
        0.056116325385534904,
        -0.002891682868003953,
        -0.057175920467890294,
        -0.028996170997572762,
        -0.04497977833107913,
        0.06833068647299609,
        0.03695390008470309,
        0.06470583992249707,
        -0.034672784055895675,
        0.07165514076950164,
        -0.04214701762384713,
        -0.039819597839327446,
        0.05963149569101325,
        -0.04244648396981145,
        0.036896292620521534,
        -0.016213086679913863,
        -0.016393483678016685,
        0.05301479277523269,
        -0.011934532078519286,
        0.007941875767104492,
        -0.023270379246593684,
        0.04560760583948674,
        -0.011072564041828728,
        0.04464110873165514,
        -0.04942926808782023,
        0.03678373460140333,
        -0.049669377589814226,
        0.057007633995422025,
        -0.0434986166138504,
        -0.020674696914110953,
        0.05756996035083245,
        0.025280401147302844,
        0.014989465621013776,
        0.05033373156767887,
        0.039814178930835345,
        -0.0008117644055677109,
        0.057053756997020005,
        -0.053269991765006956,
        0.032106196722896635,
        -0.0034752919591226894,
        0.005618874710125676,
        -0.01620428019536927,
        0.0376921750685696,
        0.06760530407868515,
        0.07069326512488655,
        -0.05878535275368518,
        -0.07281981304243205,
        -0.04208504957565733,
        -0.02313486585046915,
        -0.051543051328972356,
        -0.03397991133676924,
        -0.07207746177564536,
        -0.06383109780937378,
        -0.05307027092273255,
        -0.032384027608545245,
        -0.034403876496158815,
        -0.01821244635145436,
        0.01334306398769719,
        0.06645881514860882,
        -0.03630896971843996,
        0.049497974648574916,
        -0.07590014516361762,
        -0.06834594300350971,
        -0.054547447961845574,
        -0.034029329526593384,
        0.0004819787059746339,
        -0.06710332257955468,
        0.06762878765488325,
        0.03728665541560547,
        -0.04925761182107108,
        -0.008545857794469536,
        0.0063737758219188645,
        -0.005202430872381314,
        -0.04552598788789108,
        0.05358315051964546,
        -0.04027697070381791,
        -0.044211340991446954,
        -0.07587560113572964,
        0.07070860363311374,
        -0.03416712737179159,
        0.034631866005532946,
        -0.010638744276251735,
        0.017013538674239437,
        -0.00842166501948663,
        0.012247344010620567,
        -0.06780173852012526,
        0.07486565497346964,
        -0.01594863622810975,
        0.04137987544591727,
        0.0706444747702345,
        0.049529574812408106,
        -0.043576408587335545,
        -0.07431036829579211,
        -0.030598406562819973,
        -0.06895076862751157,
        0.03320614726891563,
        -0.03471217014127429,
        -0.012873296382097055,
        -0.029459272750329057,
        0.021280790859230972,
        0.0038645730816437296,
        0.03941683936304123,
        0.011980069830389253,
        0.03427251931159292,
        0.00552979728882215,
        0.07421857630481757,
        -0.00847222723550091,
        0.0680164622361299,
        -0.012316786126922372,
        0.04361201278620133,
        0.02216611574001777,
        0.02099130923520917,
        0.05077208988373319,
        0.03674915164933551,
        -0.01827815435658965,
        0.024950454039650127,
        0.0032673887425629516,
        0.029231812769878338,
        -0.05348842389077402,
        -0.04496005399137603,
        -0.03137175952309839,
        0.059936916348464375,
        -0.07586029129073103,
        -0.05343457074230885,
        -0.04546578258341394,
        -0.03629545666725339,
        -0.0373727358189679,
        -0.018241363740770927,
        0.06409634028507577,
        0.059059556660897156,
        0.02435852253251486,
        -0.029781793467728947,
        0.031084621925086584,
        0.04613312005574058,
        -0.06775327039941365,
        -0.03206688178934508,
        0.05400859367200461,
        0.05378894637503817,
        -0.0655092960979275,
        0.046002770754433084,
        0.03518981610167973,
        9.210230069425784e-05,
        -0.06637592755034852,
        -0.045877198463909724,
        0.038915354520840356,
        -0.028108330383673642,
        -0.07502433797750403,
        -0.053253847083894995,
        -0.05592238590626149,
        -0.05412982270069607,
        0.05762660981782855,
        -0.037566033184477106,
        0.007235490830614921,
        -0.006786411256123545,
        0.01872153543368736,
        0.07071779059333697,
        0.012341001778126567,
        -0.07154296445856077,
        0.05087956205127034,
        -0.021900037458292436,
        0.051057737650814505,
        -0.023423444966710137,
        -0.06406297235173296,
        -0.056352431430165266,
        0.004864204404386438,
        0.04372228466717107,
        0.04876377512904309,
        -0.054011925178280504,
        0.0038738983810678723,
        0.025065693458688823,
        0.01969358076035936,
        -0.012360535251217677,
        -0.02151274609302254,
        0.038328491643731824,
        0.02292096811222566,
        -0.006853600149576589,
        0.06369580540473493,
        0.060905872713188036,
        -0.019223877997694615,
        0.0001820286213851663,
        -0.01593753963804962,
        -0.014555016153826678,
        -0.031860806072625175,
        0.0713270499164112,
        -0.07414104402143679,
        0.03589478267139018,
        -0.03376356619423765,
        -0.059059955546973436,
        0.03552218530797534,
        0.049778957814157754,
        -0.05108787856696258,
        0.04624443775797811,
        0.000963319203932278,
        0.07040984594805877,
        -0.011549817814239013,
        -0.03722497874832817,
        -0.043669780384829396,
        0.020455102972442907,
        0.05542653156490793,
        0.047213403469935133,
        -0.057414800928632624,
        0.055504147094262574,
        0.03534951169513996,
        0.019325763534334767,
        0.007301765519956899,
        -0.07064281551731169,
        0.04765681084777884,
        0.0708990038829965,
        0.0007350416505371438,
        0.024864488692692907,
        -0.025891954598066654,
        0.06370036153460634,
        0.03268991452332924,
        -0.060341008747095526,
        0.0069189334239847244,
        0.028033020629914515,
        -0.041268384041649744,
        0.06366512724703749,
        -0.017465996849621468,
        -0.01830076368269963,
        0.04035625642796156,
        -0.0487120580013643,
        -0.02016452547713022,
        -0.042160966384971875,
        0.013404497736092327,
        -0.01860152501199446,
        0.03516441707077855,
        0.001079049281051514,
        0.030763511831333606,
        0.017130737654412642,
        -0.06216851550763827,
        -0.03464591337130374,
        0.01964454763622764,
        -0.06219521810505971,
        -0.06228142243849717,
        0.05867213709646818,
        -0.006083049632021567,
        0.03586741135663195,
        0.050397748188037605,
        0.07521846886082048,
        0.02319364140893307,
        -0.017062784345506753,
        -0.05855726993308368,
        -0.0014889800209988285,
        -0.010425241353669318,
        0.011614325984739285,
        0.012893928731018023,
        -0.0362599582946672,
        -0.005739010683528903,
        -0.015815077807342218,
        -0.034426393597779145,
        -0.04616653855556688,
        -0.06745530995016562,
        0.07398129630706196,
        -0.0453411138063971,
        -0.04163078193986867,
        -0.05753010283107915,
        0.017748031965678715,
        0.028686438984618354,
        0.06927208098639065,
        -0.03740718889447461,
        0.07282733167349809,
        0.005971288510808179,
        0.054573388378937965,
        0.03596684793627537,
        -0.05540850818771814,
        -0.038777602649841356,
        0.07707513317662551,
        0.030171838756556088,
        -0.0014460158228615655,
        0.07420161399212158,
        -0.03219680530171975,
        0.022756738392903625,
        0.06520296439597459,
        -0.017167949018891508,
        0.017476952520358094,
        0.0030694581178325187,
        0.021503021253408527,
        0.018271783200846173,
        0.015246364443536137,
        -0.04500078059852554,
        0.07626840305500665,
        0.06701468511346004,
        -0.017839718089573235,
        -0.021090929103365554,
        0.07371594781514185,
        0.02677156312290123,
        -0.007217076839875297,
        0.039211614646283116,
        -0.03032222386521794,
        0.0725069820714409,
        -0.040379404339263424,
        -0.020106256813406227,
        0.0688372287967039,
        -0.06888401388686233,
        0.028115441416163095,
        -0.0356212345112381,
        -0.01363736261485883,
        -0.004607277769503329,
        0.02499963217266349,
        -0.07072063999947485,
        -0.018835070269592337,
        0.07372407450843008,
        0.0075932061314569615,
        -0.021983430733170023,
        -0.0015866450543344929,
        0.05163609721637222,
        0.02366499344438676,
        0.0043340542230502765,
        -0.03079043091566304,
        0.015679638632446757,
        -0.01583685639035058,
        -0.038070964339276994,
        -0.014190779977851814,
        0.05547084356812909,
        0.034333510290141186,
        -0.018344159772945408,
        -0.004477853528580308,
        0.07583916411820077,
        0.04408491280936855,
        -0.01098804941174611,
        0.05402180286139502,
        0.040186037745046976,
        -0.033946752605821695,
        0.0025254406099819438,
        0.011173909047503497,
        -0.014061392263499256,
        0.03404442654323529,
        -0.00580448489979124,
        -0.07639318919749516,
        0.0440355089573619,
        0.037745524851859766,
        0.05189201961906201,
        -0.0428026963324108,
        0.04758242299109594,
        -0.03900576738317909,
        -0.020192225575110863,
        0.04495512443240422,
        -0.009029967316942458,
        0.019853420592625057,
        -0.03632243791330085,
        0.032006739258234926,
        0.0341470314982765,
        -0.054167908787856656,
        0.06749812198025634,
        -0.06722788219058934,
        -0.051771441041984084,
        -0.025827224276164892,
        -0.060663867711498634,
        -0.06440854287498267,
        -0.0009074738750441402,
        0.03301775416262741,
        -0.026161387916071775,
        0.0625557059298179,
        -0.04573751253067405,
        0.07256806943867655,
        0.05911775545071604,
        0.041677905331588896,
        -0.034085542032344644,
        0.0496454843708132,
        0.005624897787887537,
        0.028872452371926205,
        0.06261174507915104,
        -0.048635560627139265,
        -0.029859724115371016,
        -0.02152746357538865,
        0.07411350664080682,
        0.011124191718411336,
        0.05493633978288115,
        0.06824643906315192,
        0.005154986800420813,
        -0.060717320983653615,
        0.04012437965349368,
        -0.04272639246677055,
        -0.05205118948617585,
        -0.041557340748867154,
        0.022660123551167366,
        -0.07227669063166565,
        -0.046752720276600324,
        0.028620703507985706,
        0.008882978558887311,
        0.00487627875495783,
        -0.0007126433957008876,
        -0.024261119946082745,
        0.02280143410190831,
        -0.07518010839041114,
        0.05217960025283461,
        -0.026001856881363805,
        -0.037199262015164006,
        0.06638347470540712,
        0.02184375544753485,
        -0.017539583632308828,
        0.060106207520962796,
        -0.03726797881106653,
        -0.02630139958758361,
        -0.0496543954124114,
        0.024738125322887897,
        0.06296854928411547,
        -0.04616231286026823,
        -0.008616476040477342,
        0.004037969339562811,
        -0.00988648948216199,
        -0.05583002982073418,
        -0.044161353626308034,
        0.0384463241589324,
        -0.06409599063325917,
        -0.028687300825718312,
        0.01751666559419998,
        0.06353171375995673,
        0.07411164838365394,
        0.024820863897713458,
        -0.023810469244907186,
        -0.01775945747189924,
        -0.03392217046007049,
        -0.026729276487841347,
        -0.02638288333771452,
        -0.033922147609186146,
        0.035329768146701135,
        0.029423806069772976,
        -0.06362120905069885,
        -0.01515187538014421,
        0.0006067360233059788,
        -0.04335926060520981,
        -0.015028643864643261,
        -0.07199761052370625,
        -0.033879518235974224,
        -0.005356179936912564,
        0.0677058686118944,
        0.051795143435548335,
        0.06882514759677935,
        0.000568474564603641,
        -0.04410431729481995,
        0.05784362551593547,
        0.07553301619665923,
        0.006941933035789077,
        -0.03649981554427655,
        0.005672464881260442,
        -0.06447885570392956,
        -0.04702786094394919,
        -0.008489283383435214,
        -0.07553705534749205,
        -0.0645086054536671,
        0.004140062312164267,
        -0.02403774413549032,
        0.019110443650246986,
        0.006728772815222037,
        -0.03445315288774605,
        -0.007689040063167313,
        0.02771647000930648,
        -0.030008429654652904,
        0.04855901910199453,
        0.04740727161918648,
        0.01763847021584282,
        0.07377609099563878
      ],
      [
        -0.022565569465836224,
        -0.07694155141424618,
        0.062154118484697235,
        0.005483439942411378,
        -0.024097125018163107,
        0.039108256983544656,
        0.01402456218329226,
        0.06588500107068013,
        -0.0027762529511611705,
        0.025035576030864343,
        -0.026082933878708962,
        -0.01997844750107989,
        0.02667419910520992,
        -0.029863355505429318,
        0.05953113608973348,
        -0.04579717996765079,
        -0.062032151530312496,
        -0.05206749138847851,
        0.04652682141837143,
        0.020796267342387084,
        0.017864166004396886,
        -0.009487234149064452,
        0.04827554131667011,
        0.06333728981216422,
        -0.01932342359062464,
        0.03712963957966452,
        -0.0012169422602506669,
        0.011055385774239368,
        -0.012834359046585933,
        0.07604732859781382,
        -0.07537962296504133,
        -0.060841868537368296,
        0.05497193322514679,
        -0.06403776715138654,
        -0.04975231369219396,
        -0.03231060030799144,
        -0.009323888871373753,
        0.04324917457153635,
        -0.062395343427314454,
        0.013472889697053,
        0.015164866111317551,
        0.017529189500277098,
        -0.04865179306305849,
        -0.04031339039400467,
        -0.02608727023883109,
        0.005200841248062277,
        0.033586005489453744,
        0.010437619977964982,
        0.05558376208563784,
        -0.043827107609979814,
        -0.012946712726699866,
        -0.019652206125720176,
        0.06437351842752026,
        -0.06856957286914192,
        0.055845974001962784,
        -0.042209865360024725,
        -0.03968749526675545,
        -0.03327747842504226,
        -0.04591237170919375,
        -0.07272551259396094,
        -0.03582080817275947,
        0.07479402026466433,
        0.010277410619865424,
        0.05954529104797024,
        -0.010280531248096275,
        -0.04854047635832284,
        -0.02668127603101504,
        -0.06811905403129387,
        -0.04675418127200119,
        0.0012885275074860508,
        0.016040663126642096,
        0.005629300347804067,
        -0.07077482676676095,
        0.07061733169646894,
        -0.06611544433589388,
        -0.008082548393187436,
        0.05873659098486625,
        0.0023307167356537706,
        0.05467564355508578,
        0.004907552659620881,
        0.06450132589469962,
        -0.05348599010103418,
        0.05716961276105767,
        -0.04784603175459429,
        -0.07457750954993099,
        0.04312817531655752,
        -0.07630442706208719,
        -0.042519355506188905,
        0.0010567844836021634,
        0.017116009890158615,
        -0.0013413527764960381,
        0.031237965004827214,
        -0.011476903786909382,
        -0.0727958667234136,
        -0.07005371512097722,
        0.01182729390692136,
        0.0197524523564062,
        0.07472457119837458,
        -0.04440210191566967,
        0.07490078487644125,
        0.03915143348517407,
        -0.05915608360050599,
        0.06214296088222884,
        0.0266137877467508,
        0.03022048000329311,
        -0.017624379386177634,
        -0.02418311213563521,
        0.01543556616575599,
        0.010018356436272982,
        -0.05831525311386296,
        -0.057297414285912535,
        -0.0743943997120518,
        -0.060895400305315026,
        0.0691531395118663,
        -0.013968826401224071,
        -0.07702948478975537,
        0.04696594106012107,
        -0.03673699508891049,
        -0.04702388508566742,
        0.02064508431976321,
        0.06153672661096127,
        0.0689769327241884,
        0.06711469609997892,
        -0.06303813087149417,
        -0.06221076823103717,
        0.04435998570049564,
        0.04568956710021964,
        0.012208683478305574,
        -0.022495248484239345,
        0.01974667356353156,
        -0.05503048399865354,
        -0.05689186629467255,
        -0.06375526968675627,
        -0.07130294524855128,
        0.0382633085176181,
        0.03765706395053381,
        -0.05428117940067617,
        0.004183786146224194,
        0.05410822310126498,
        -0.0266154535483267,
        0.07492231792116713,
        -0.053478069906523325,
        0.014241415145117467,
        0.061088336911906876,
        0.05336791345899328,
        0.07469690945206545,
        0.04644312150792981,
        -0.07282116771567788,
        -0.06692861443889608,
        0.0747903959732755,
        -0.059079453440714566,
        0.04946362796809975,
        -0.02021738296676437,
        -0.02841065218894432,
        -0.06568968214730586,
        0.014644046843583558,
        -0.0037928450446230305,
        -0.04195147483083055,
        0.03429302685233286,
        -0.008389818935251758,
        0.034648881793408484,
        0.04139997768782662,
        -0.036894384127558806,
        0.03413762658494038,
        0.042915196831725996,
        0.015409535306680891,
        0.05089055089836339,
        -0.06673165169850581,
        0.0719163142776312,
        -0.07160055471390875,
        -0.0038266019051700073,
        -0.04856316885203843,
        0.06750022102950004,
        -0.04816081130184839,
        0.018684820613322606,
        -0.04928130947417032,
        -0.03258767201702997,
        0.022465352066499134,
        -0.05974878535885604,
        0.009297409617578037,
        0.06891091289300513,
        0.05644849494112078,
        -0.03166785306070974,
        0.06796235436813874,
        -0.0758841111878881,
        -0.019071272730360495,
        -0.0013563822875433534,
        0.017225007124657882,
        0.06620336788850059,
        -0.06044409099357208,
        -0.025832530668567964,
        0.020193623880061656,
        0.07519583252291431,
        0.007878435948953877,
        -0.06663977924977067,
        -0.00015875797990298757,
        0.00915057782636533,
        -0.01802900819917238,
        0.04757493556206803,
        0.0038903688463659686,
        0.02395326319615443,
        -0.021412587566819116,
        -0.05409665232796828,
        0.01171561899989082,
        -0.032267493299504665,
        0.05748203810594785,
        -0.055479868101194735,
        0.05574059967968345,
        0.0687693426815097,
        -0.05832376574959455,
        -0.021888753804600126,
        0.05785272500924349,
        0.05738839304947285,
        -0.05685008205266691,
        0.008452701426760453,
        -0.07191885433435684,
        -0.07124274512064552,
        0.03679701486031149,
        0.014302431521840117,
        -0.03328215472444105,
        -0.06573927577069409,
        0.02876863301618998,
        0.07041209174695595,
        0.05732922061436732,
        -0.06379861197354435,
        -0.0052531507658470505,
        -0.06749050184378844,
        -0.07509959586162104,
        -0.039277344348438464,
        -0.02377444551026673,
        -0.021181758865041832,
        -0.023299156324270327,
        0.06843973535725387,
        -0.004022400223240671,
        0.06271335194747751,
        0.06246379144390063,
        -0.02346275921222498,
        -0.06111635720528224,
        -0.02210006290946564,
        -0.03828933777557185,
        0.015085653473599067,
        0.054041538501186204,
        0.032909830113598104,
        -0.04378085504880853,
        0.031543533043963984,
        -0.058500721611043596,
        0.05812385682739041,
        -0.05686997312029099,
        -0.0294829242950646,
        0.03389567687730609,
        -0.06688214741196608,
        0.040538074994328224,
        0.06410166662065975,
        0.062498718241715434,
        0.05527372390901206,
        0.027815450494368177,
        -0.002443354037777651,
        -0.0723587812246184,
        0.0747740919973715,
        0.008750918706951868,
        -0.07537828381609958,
        -0.02531933532630693,
        -0.01510039885533325,
        -0.00016214416467658088,
        0.008096287814128938,
        -0.006351815357024337,
        0.008106474280531947,
        -0.04441946884514219,
        0.06116568281455764,
        -0.03701544403575112,
        0.058472827493135954,
        0.05857645480328311,
        -0.048708113622671384,
        -0.019965608670624906,
        -0.06740876060763952,
        -0.003467828985065216,
        0.06083162403908807,
        0.04752245794113068,
        -0.06746964391264448,
        -0.032760844798669,
        0.03376354857578753,
        0.010778865471423912,
        -0.07684065820826412,
        -0.045402658106003226,
        -0.06891213654052963,
        -0.0740477365043731,
        0.05725621237272066,
        0.059455339976668575,
        0.005753572406487134,
        0.07582556624760428,
        0.03331808344276807,
        -0.032425004393817784,
        0.06606621332074478,
        -0.06000253894602328,
        -0.062205195018018654,
        -0.008064168805282185,
        0.0590576390314034,
        -0.0009946424738387638,
        -0.038239833656107294,
        -0.06301720268869279,
        0.07509800771943967,
        0.005190805212519786,
        -0.03816276847424809,
        0.04748027455694355,
        0.07302501555067517,
        -0.07567333554377305,
        0.07505423458514032,
        -0.06806426453522868,
        -0.005103710786203253,
        0.016368463002047376,
        0.006995843199107954,
        0.05058392277413945,
        -0.043854765225810825,
        -0.042329115387652425,
        -0.020063729084931668,
        0.031418219976871054,
        -0.03337034621394241,
        -0.06441652008812912,
        0.035788056470568125,
        0.05694608291208106,
        -0.011933407798826193,
        0.07225824351859353,
        -0.061791869635344346,
        -0.0013791049706301378,
        0.014477364545544033,
        -0.025429318312692913,
        0.04959645238686575,
        -0.04834405621737452,
        0.011888036199255714,
        0.02404911003798149,
        0.006451585860157025,
        -0.044049394731519545,
        -0.003103505388952696,
        -0.011564725098415496,
        -0.00914302286572051,
        0.041046886478702485,
        0.01929729230195705,
        0.04242259866822483,
        -0.036784415196970156,
        0.047298579925747694,
        0.00341867548312301,
        0.03804346111638647,
        0.05173696682804563,
        -0.04510906032548916,
        0.06545678750701348,
        0.006251938179590674,
        -0.05844906749683646,
        -0.04878632626436849,
        -0.04542710942774374,
        0.04669905247118124,
        0.06757246129286015,
        -0.032422280207972304,
        0.06024752803201733,
        0.06556342782247881,
        -0.041826291040870274,
        0.003124477799448605,
        -0.0029446528130464417,
        -0.018339227796077107,
        0.06958178774151391,
        0.07662272317861601,
        0.017061237090160122,
        -0.0620627129932546,
        -0.028220405989984154,
        0.03162808217516401,
        -0.03980526221844751,
        0.01636086311042817,
        0.053462305818705036,
        0.009187408639924705,
        0.00019718014390121552,
        -0.05475047088749936,
        -0.012992942654363723,
        -0.006693920841832207,
        -0.04688319541967609,
        0.04911381804774684,
        0.06594922389567001,
        -0.04116285703342612,
        -0.042666275368562,
        0.0516807825868805,
        0.0378640686667594,
        -0.04332095756881376,
        0.0647209043254694,
        -0.04852225061055215,
        -0.03252620618883059,
        -0.02313863424937585,
        0.044785769947235474,
        0.057440073065318814,
        0.06307339686460933,
        -0.06374142111448672,
        -0.050851303283680885,
        0.0018733441873243079,
        -0.03988718730950985,
        0.03864296158690454,
        -0.05824676554041513,
        0.06971040437736103,
        -0.026062578113586338,
        0.009684447315042685,
        0.07404116558896215,
        0.005920353179297733,
        -0.037080102619612636,
        -0.032417116904044606,
        0.045143342970226305,
        0.033217679729505456,
        0.05307337363665529,
        -0.058474298965555865,
        0.05152884976065222,
        0.001007215481668905,
        0.01651742266245272,
        0.03940366016127325,
        0.019916451876776764,
        -0.026025691569797026,
        -0.011923715536325902,
        0.04479316528828614,
        0.03230321138210253,
        0.05759313945692651,
        0.03169201555959804,
        0.06726990635655328,
        -0.0641017359322991,
        0.015275727964312105,
        -0.024689689550970458,
        -0.03787914390076314,
        -0.06028928855731108,
        -0.0703664802806594,
        0.06699866619225961,
        -0.057137580826199866,
        -0.019325972175345103,
        -0.05378765882096133,
        0.0699139215536857,
        0.009767864447656732,
        0.022768883949804544,
        0.02670370614107731,
        0.05363785257493747,
        -0.027331967879193057,
        -0.027466838897836784,
        0.05328913015767914,
        0.062149571565783185,
        -0.07697209428321239,
        -0.023144249898134954,
        -0.059465998084535995,
        0.026252303374352512,
        -0.01975047223230178,
        0.013149723212995817,
        0.058488422089124165,
        0.04624592473360423,
        0.018329932111546987,
        0.028125215898268663,
        -0.057022439191041954,
        0.03130722354361137,
        0.05114867981044641,
        0.0302386278044305,
        -0.05745346811234128,
        -0.0027059688003057553,
        -0.007700807118526318,
        0.035769632826146314,
        -0.020841366197718023,
        0.04273424842141782,
        0.04058304623995834,
        0.020656987366502913,
        -0.032969826893277515,
        -0.07672905352070244,
        0.03680718344863887,
        0.05473098923509315,
        0.06778490102316631,
        0.0449818165255806,
        0.06229438769305912,
        0.009882971699636978,
        0.030934302264088318,
        -0.026885511857272837,
        -0.026405972138449862,
        0.03212506889181123,
        0.0043229296295964476,
        0.024851868012584932,
        0.06952439646248593,
        -0.013855907023706149,
        -0.03854601998492334,
        -0.02478060453214121,
        0.04638622309651283,
        -0.06492433556500832,
        0.021247248244523773,
        0.03206009475207683,
        -0.011982640653507196,
        -0.015210571951699753,
        0.044866444075444725,
        -0.06676378585336439,
        0.03731399314663057,
        0.05386100878571895,
        0.0706390811769585,
        0.060310640081671446,
        -0.03597754889846815,
        0.07498850348093078,
        -0.04212094090874995,
        -0.05789725265569888,
        0.012154684894026532,
        -0.030991358865739727,
        -0.0450021049105672,
        0.03951290528326058,
        -0.03722690761232483,
        0.013227824752547926,
        0.07206346348553253,
        0.0003843087743416185,
        -0.030362475270104307,
        -0.006272400536769765,
        0.05887537323296724,
        -0.023172112489956487,
        -0.038857378415456854,
        0.017753899964868702,
        -0.07548493517512089,
        -0.07033163900410083,
        -0.02247419199063761,
        0.07391630682606312,
        -0.014237394920277563,
        -0.0356411680135514,
        0.017817585476188766,
        -0.012696781603966811,
        -0.0004917516207811473,
        0.03786547187391577,
        0.018432381882848556,
        0.01769891433620896,
        0.03396614950921836,
        -0.01308738140197735,
        -0.06171811980283023,
        0.02509792542847722,
        -0.07381502287884603,
        0.05165909239221897,
        0.03304650308661097,
        0.036525792686172356,
        -0.00048318492025266335,
        -0.05677932544465922,
        -0.048016214923649325,
        -0.03998155009179189,
        0.01884064065624111,
        -0.012169672372413065,
        -0.037314301863991636,
        -0.06658602691042258,
        0.026195323977370275,
        0.020021852022399034,
        0.0286814964325897,
        -0.027101865449424188,
        -0.03723992612918225,
        0.05346819806211392,
        -0.06099860667269656,
        0.01722995617579169,
        -0.04647640304733375,
        -0.04974358454893764,
        -0.05883917363018562,
        -0.07172807788586301,
        -0.04770625762547048,
        -0.047637832609284864,
        0.04763025191131055,
        -0.047174124922801916,
        0.0009426785287679207,
        -0.0410332827538253,
        -0.0006218978979894152,
        -0.016386240230171822,
        -0.050364119067774896,
        -0.05667682376601285,
        0.016035121785213366,
        0.015453053245789022,
        0.032898283536409306,
        -0.008568569013040789,
        -0.06131541943746591,
        -0.026912579338300387,
        0.05814367681741764,
        0.06291442562423871,
        1.5379131035456184e-05,
        0.06151603475338421,
        0.07379208289065506,
        -0.0380633663173448,
        0.06178618946996506,
        -0.0026438658212072502,
        -0.05552579737613791,
        -0.04916093350202991,
        0.048915244622786624,
        -0.0314211620984289,
        -0.05402859391927739,
        0.06412232615312971,
        0.036721504430098306,
        0.05359385084228488,
        0.07321057003777093,
        0.0018987785188417372,
        0.04345202687296004,
        0.013672627482813893,
        0.054321827807112755,
        -0.059227803462878814,
        -0.029137693190394588,
        0.07568848470261103,
        -0.03730610658981699,
        0.04742368014982708,
        -0.0752039916449379,
        -0.07467518524101499,
        0.042116315107467855,
        0.06690750700971271,
        0.045369822260598075,
        -0.013333359423610622,
        -0.028249282369268672,
        0.06639862227392801,
        0.02580585313090747,
        -0.034239387508125586,
        -0.06579521116525806,
        0.028035761852692215,
        -0.04825294020634793,
        0.04028557535927822,
        0.04559437766798033,
        -0.06909676263884305,
        0.020539811377431355,
        0.061179186815521786,
        0.015464228030998048,
        0.05646533976918333,
        -0.02314725161452935,
        0.029840574821714844,
        0.02156308906433875,
        0.07024995006225587,
        -0.03152361142557457,
        -0.04071588364133918,
        -0.031106613919301335,
        0.05447647548557866,
        0.0610190672324718,
        0.020202579166165094,
        0.047698203172379106,
        0.0018389915119412098,
        0.07019481411799053,
        -0.07428815908209199,
        -0.010684569763139362,
        0.0025182053155778372,
        0.008624768682028189,
        0.025501651151397298,
        0.03293542738880194,
        -0.004284291828162312,
        -0.06711802331904772,
        -0.04521586641471705,
        0.029504270284284206,
        0.0018107869467264143,
        0.07410824785102163,
        -0.057220222803048705,
        0.032213914184209116,
        0.046895972843157135,
        0.0537198321008415,
        0.057727214348274686,
        -0.002081070681302588,
        -0.02768480607038208,
        0.06449746958136071,
        -0.021935402128667243,
        0.0007722156771995115,
        -0.06649605167566602,
        0.05247668291584781,
        -0.026432855215852216,
        -0.039354218292754706,
        0.051518752291642184,
        0.042715587007824685,
        -0.07515727431020336,
        0.006360702763810566,
        0.07028378734099563,
        -0.0049669424698220305,
        0.01253535437798034,
        0.05288929430532488,
        -0.032704427070199445,
        -0.017189865335286207,
        -0.04939229708550524,
        0.01816861714137659,
        0.02316779538273535,
        0.021676992464975203,
        0.058962340791067075,
        -0.036988528603676823,
        0.03323086803039052,
        0.01592192170004035,
        -0.02364865555284395,
        0.02179895423649314,
        0.034712694724132034,
        0.015977599558285552,
        -0.05143784510238415,
        0.015091482644854423,
        -0.03747109369756785,
        -0.01541055624976264,
        -0.01867757085403155,
        0.03648289878823492,
        -0.053477478816994745,
        0.02281416911772574,
        -0.06924080979560218,
        -0.039947805040142205,
        -0.0335911975153886,
        -0.04354411177932735,
        -0.07280812923070212,
        0.0051879351143641755,
        0.048171121974861536,
        0.05340903876822495,
        0.06511966480737921,
        0.07489681027810063,
        -0.042377593658950746,
        0.05984737927357944,
        -0.03292787709297555,
        0.015500833147117157,
        -0.0677905156361641,
        -0.03346073946451323,
        0.021144424639046797,
        0.06535515908909584,
        -0.01614639346298611,
        0.02755452351709438,
        -0.07273444903029715,
        0.022046278802932376,
        0.00794886967861455,
        -0.014121634676887693,
        0.06334202921353377,
        0.028557918935751395,
        -0.036071451544907804,
        0.026502357479601307,
        -0.06676858882175901,
        -0.05830062007647602,
        0.03356090345652263,
        0.035756240721741675,
        -0.002002957064798014,
        -0.028325184426391863,
        0.04076415771279783,
        -0.030668435167871953,
        0.06077747428097008,
        -0.019389396882665708,
        -0.010522136438396501,
        0.0674590032291085,
        -0.048365908547976094,
        0.0370316801599965,
        0.06508632431173247,
        0.008796871672491116,
        0.04426608306749891,
        -0.030335896295308633,
        0.03675343240676272,
        -0.05543370876804444,
        -0.030193608112075027,
        -0.022552616194672567,
        -0.05787705674149096,
        0.03101353296655915,
        0.07340523831862142,
        -0.0008675609051653072,
        0.03542665041004567,
        0.010478673499400959,
        0.03313788766485121,
        -0.0015750224560302784,
        -0.0036531239108823083,
        -0.004632799424738515,
        -0.07423747365241089,
        0.02164239697958084,
        0.04640910205643571,
        0.062321798108008475,
        -0.01367459472628571,
        0.07038905367436904,
        -0.038604039569839696,
        -0.0517394988540788,
        0.01011225368519969,
        -0.07128613510953537,
        0.03726681274654474,
        -0.044132429058439386,
        0.0031668977289205924,
        -0.03305264665038144,
        0.03123992142293118,
        0.06685919018635941,
        0.04317544720001823,
        0.06039033265745461,
        0.0646046058276123,
        -0.0019043867709519074,
        0.014293264915763479,
        0.04583640052279779,
        0.07280280399439548,
        -0.04381742753156903,
        -0.013599337141316281,
        -0.04507783693706909,
        -0.011107546748802224,
        0.00047455518302923216,
        0.03706815294619706,
        -0.025534987893496314,
        0.027849781075661398,
        -0.029440852038865137,
        -0.028818314038251754,
        0.028636452509120294,
        -0.07112421938925438,
        -0.043692557606508794,
        0.007844074356758643,
        -0.039075852302116416,
        -0.001963424406438319,
        -0.012664807042437484,
        0.05434427930053279,
        -0.049231923453851655,
        -0.040286147933843205,
        -0.07066013909864158,
        -0.04457740693736501,
        -0.01298697847045907,
        -0.0008571067489481221,
        -0.05224885360669196,
        -0.06343890727936809,
        -0.00203449078714249,
        -0.030893328927581905,
        0.013425965847314425,
        0.058656102871468024,
        -0.04407872744923457,
        0.027606898605801428,
        -0.04458296100937022,
        -0.001187999837628781,
        -0.07117617210531478,
        0.06608084773417686,
        -0.021729396185961675,
        0.009590895162033125,
        0.05468718915998544,
        0.05672358182022788,
        0.0016642034432128305,
        0.006503355578398387,
        -0.07041156800370377,
        0.07322674301884119,
        -0.022963289329564422,
        0.01554897001671765,
        0.03103232771151307,
        -0.023189590265027822,
        0.020739088657461324,
        -0.003148143981582918,
        0.004623349909375532,
        0.04133892383471939,
        0.06901932487533996,
        -0.004076445251008393,
        -0.05359858780770381,
        0.06426122712899088,
        0.03307731658230416,
        0.06496694108511267,
        0.03497704121275945,
        0.03495186464930314,
        -0.030367476111793246,
        -0.0007027017344588826,
        6.567869834017692e-05,
        0.01678436937275582,
        0.023105946541260344,
        -0.020895266619290392,
        0.04186287558683213,
        0.042330568329822196,
        -0.04247169146155341,
        0.0049658017825141565,
        0.06773555502514736,
        0.04346756135653325,
        0.0326768564234685,
        0.04139667935691571,
        -0.02660016215655993,
        -0.07083990715150325,
        -0.028600498207477384,
        0.06593789902376804,
        -0.008953390956904464,
        0.03846966976608643,
        0.054051618819101366,
        0.04070842084846017,
        0.009787830775136175,
        0.029479020012654372,
        0.06114681422654886,
        -0.006567179081491278,
        -0.04098802373025233,
        -0.049874618748427704,
        0.06257544268255294,
        0.01573012660377203,
        0.05560278044738348,
        -0.012971882064347795,
        -0.0545116539470443,
        0.03136439732368103,
        0.02030159135763071,
        0.04864929210830077,
        -0.030686262123402003,
        0.014326214533389406,
        0.02030515612201854,
        -0.03758917701903481,
        -0.04376523619221686,
        -0.05920235656311343,
        0.0031352130650539878,
        -0.0016057342626086268,
        -0.03393549355531151,
        0.049667009505313,
        -0.025536765431122113,
        -0.029121478898116615,
        0.030699093537345568,
        0.06767015215549393,
        -0.003319867552230113,
        -0.011440280122054239,
        -0.020838492532975428,
        -0.04962124242656743,
        0.02974635909516536,
        -0.02946887090989292,
        -0.06832890938389155,
        0.01847560344119971,
        0.065657059775905,
        0.03381003651391211,
        -0.01889154292278615,
        -0.010684252284769116,
        0.012898421394142198,
        -0.0050670920163172345,
        -0.061520602273221446,
        -0.07131997693252334,
        0.004535282772344676,
        0.04202732426496035,
        0.0151207627479433,
        -0.04865978568805609,
        0.03937271134378158,
        0.030678657627709535,
        0.07088626053431224,
        0.061256337089060614,
        8.143662832078846e-05,
        0.06410203086109736,
        -0.07139873779879619,
        -0.011853064569990301,
        -0.027146612469803072,
        0.027494934123051887,
        0.0016586797977550527,
        -0.07122379893406094,
        -0.04018040182031129,
        -0.060677066026594347,
        -0.001306951543382756,
        -0.03795356254544021,
        0.04833485550386618,
        0.07162055625292141,
        0.06484187405590908,
        0.05546666675159698,
        0.005864083190102579,
        0.06541311865735991,
        -0.010435256769030593,
        0.0335008922580448,
        -0.02212606417642761,
        -0.05499935339050839,
        0.05573123475030278,
        0.05934671485765419,
        0.025696693015912056,
        -0.0662844959474701,
        -0.01423523507266422,
        -0.016452124576792723,
        0.040891421615267445,
        0.013601834721414546,
        -0.017577878706672947,
        -0.06191657661090797,
        0.026406752474686684,
        0.012393481527568168,
        0.019222326510823867,
        -0.006862334986163163,
        -0.024304157076861857,
        0.04898508241832672,
        0.027846480880255292,
        0.022935057662976308,
        0.03333041515849451,
        -0.03860181927217711,
        0.035798685273900274,
        0.017370800935629094,
        0.041690728401238775,
        0.006855906739915471,
        -0.0034638467100971404,
        -0.02590219298070711,
        0.0744336796319634,
        0.04835352384302982,
        0.04880137244353433,
        -0.00815989353255095,
        -0.03715055456166483,
        0.06691712891327498,
        -0.02870927306941648,
        0.03224137185652633,
        0.02552437238495542,
        -0.03654461777033041,
        0.04216237037469579,
        0.04208605022668005,
        -0.019636788322644733,
        -0.029494326210410697,
        0.04879836692486067,
        0.06031647016401745,
        0.07185998984467348,
        0.020879522071823114,
        0.04219137451831223,
        0.03508516166756985,
        -0.00761769662139751,
        -0.06139147417412112,
        0.029560821411640528,
