{
  "num_class": 10,
  "num_hidden": 1000,
  "num_visible": 20,
  "params": {
    "bias_b": [
      0.0,
      0.0,
      0.0,
      0.0,
      0.0,
      0.0,
      0.0,
      0.0,
      0.0,
      0.0
    ],
    "bias_c": [
      0.0,
      0.0,
      0.0,
      0.0,
      0.0,
      0.0,
      0.0,
      0.0,
      0.0,
      0.0,
      0.0,
      0.0,
      0.0,
      0.0,
      0.0,
      0.0,
      0.0,
      0.0,
      0.0,
      0.0,
      0.0,
      0.0,
      0.0,
      0.0,
      0.0,
      0.0,
      0.0,
      0.0,
      0.0,
      0.0,
      0.0,
      0.0,
      0.0,
      0.0,
      0.0,
      0.0,
      0.0,
      0.0,
      0.0,
      0.0,
      0.0,
      0.0,
      0.0,
      0.0,
      0.0,
      0.0,
      0.0,
      0.0,
      0.0,
      0.0,
      0.0,
      0.0,
      0.0,
      0.0,
      0.0,
      0.0,
      0.0,
      0.0,
      0.0,
      0.0,
      0.0,
      0.0,
      0.0,
      0.0,
      0.0,
      0.0,
      0.0,
      0.0,
      0.0,
      0.0,
      0.0,
      0.0,
      0.0,
      0.0,
      0.0,
      0.0,
      0.0,
      0.0,
      0.0,
      0.0,
      0.0,
      0.0,
      0.0,
      0.0,
      0.0,
      0.0,
      0.0,
      0.0,
      0.0,
      0.0,
      0.0,
      0.0,
      0.0,
      0.0,
      0.0,
      0.0,
      0.0,
      0.0,
      0.0,
      0.0,
      0.0,
      0.0,
      0.0,
      0.0,
      0.0,
      0.0,
      0.0,
      0.0,
      0.0,
      0.0,
      0.0,
      0.0,
      0.0,
      0.0,
      0.0,
      0.0,
      0.0,
      0.0,
      0.0,
      0.0,
      0.0,
      0.0,
      0.0,
      0.0,
      0.0,
      0.0,
      0.0,
      0.0,
      0.0,
      0.0,
      0.0,
      0.0,
      0.0,
      0.0,
      0.0,
      0.0,
      0.0,
      0.0,
      0.0,
      0.0,
      0.0,
      0.0,
      0.0,
      0.0,
      0.0,
      0.0,
      0.0,
      0.0,
      0.0,
      0.0,
      0.0,
      0.0,
      0.0,
      0.0,
      0.0,
      0.0,
      0.0,
      0.0,
      0.0,
      0.0,
      0.0,
      0.0,
      0.0,
      0.0,
      0.0,
      0.0,
      0.0,
      0.0,
      0.0,
      0.0,
      0.0,
      0.0,
      0.0,
      0.0,
      0.0,
      0.0,
      0.0,
      0.0,
      0.0,
      0.0,
      0.0,
      0.0,
      0.0,
      0.0,
      0.0,
      0.0,
      0.0,
      0.0,
      0.0,
      0.0,
      0.0,
      0.0,
      0.0,
      0.0,
      0.0,
      0.0,
      0.0,
      0.0,
      0.0,
      0.0,
      0.0,
      0.0,
      0.0,
      0.0,
      0.0,
      0.0,
      0.0,
      0.0,
      0.0,
      0.0,
      0.0,
      0.0,
      0.0,
      0.0,
      0.0,
      0.0,
      0.0,
      0.0,
      0.0,
      0.0,
      0.0,
      0.0,
      0.0,
      0.0,
      0.0,
      0.0,
      0.0,
      0.0,
      0.0,
      0.0,
      0.0,
      0.0,
      0.0,
      0.0,
      0.0,
      0.0,
      0.0,
      0.0,
      0.0,
      0.0,
      0.0,
      0.0,
      0.0,
      0.0,
      0.0,
      0.0,
      0.0,
      0.0,
      0.0,
      0.0,
      0.0,
      0.0,
      0.0,
      0.0,
      0.0,
      0.0,
      0.0,
      0.0,
      0.0,
      0.0,
      0.0,
      0.0,
      0.0,
      0.0,
      0.0,
      0.0,
      0.0,
      0.0,
      0.0,
      0.0,
      0.0,
      0.0,
      0.0,
      0.0,
      0.0,
      0.0,
      0.0,
      0.0,
      0.0,
      0.0,
      0.0,
      0.0,
      0.0,
      0.0,
      0.0,
      0.0,
      0.0,
      0.0,
      0.0,
      0.0,
      0.0,
      0.0,
      0.0,
      0.0,
      0.0,
      0.0,
      0.0,
      0.0,
      0.0,
      0.0,
      0.0,
      0.0,
      0.0,
      0.0,
      0.0,
      0.0,
      0.0,
      0.0,
      0.0,
      0.0,
      0.0,
      0.0,
      0.0,
      0.0,
      0.0,
      0.0,
      0.0,
      0.0,
      0.0,
      0.0,
      0.0,
      0.0,
      0.0,
      0.0,
      0.0,
      0.0,
      0.0,
      0.0,
      0.0,
      0.0,
      0.0,
      0.0,
      0.0,
      0.0,
      0.0,
      0.0,
      0.0,
      0.0,
      0.0,
      0.0,
      0.0,
      0.0,
      0.0,
      0.0,
      0.0,
      0.0,
      0.0,
      0.0,
      0.0,
      0.0,
      0.0,
      0.0,
      0.0,
      0.0,
      0.0,
      0.0,
      0.0,
      0.0,
      0.0,
      0.0,
      0.0,
      0.0,
      0.0,
      0.0,
      0.0,
      0.0,
      0.0,
      0.0,
      0.0,
      0.0,
      0.0,
      0.0,
      0.0,
      0.0,
      0.0,
      0.0,
      0.0,
      0.0,
      0.0,
      0.0,
      0.0,
      0.0,
      0.0,
      0.0,
      0.0,
      0.0,
      0.0,
      0.0,
      0.0,
      0.0,
      0.0,
      0.0,
      0.0,
      0.0,
      0.0,
      0.0,
      0.0,
      0.0,
      0.0,
      0.0,
      0.0,
      0.0,
      0.0,
      0.0,
      0.0,
      0.0,
      0.0,
      0.0,
      0.0,
      0.0,
      0.0,
      0.0,
      0.0,
      0.0,
      0.0,
      0.0,
      0.0,
      0.0,
      0.0,
      0.0,
      0.0,
      0.0,
      0.0,
      0.0,
      0.0,
      0.0,
      0.0,
      0.0,
      0.0,
      0.0,
      0.0,
      0.0,
      0.0,
      0.0,
      0.0,
      0.0,
      0.0,
      0.0,
      0.0,
      0.0,
      0.0,
      0.0,
      0.0,
      0.0,
      0.0,
      0.0,
      0.0,
      0.0,
      0.0,
      0.0,
      0.0,
      0.0,
      0.0,
      0.0,
      0.0,
      0.0,
      0.0,
      0.0,
      0.0,
      0.0,
      0.0,
      0.0,
      0.0,
      0.0,
      0.0,
      0.0,
      0.0,
      0.0,
      0.0,
      0.0,
      0.0,
      0.0,
      0.0,
      0.0,
      0.0,
      0.0,
      0.0,
      0.0,
      0.0,
      0.0,
      0.0,
      0.0,
      0.0,
      0.0,
      0.0,
      0.0,
      0.0,
      0.0,
      0.0,
      0.0,
      0.0,
      0.0,
      0.0,
      0.0,
      0.0,
      0.0,
      0.0,
      0.0,
      0.0,
      0.0,
      0.0,
      0.0,
      0.0,
      0.0,
      0.0,
      0.0,
      0.0,
      0.0,
      0.0,
      0.0,
      0.0,
      0.0,
      0.0,
      0.0,
      0.0,
      0.0,
      0.0,
      0.0,
      0.0,
      0.0,
      0.0,
      0.0,
      0.0,
      0.0,
      0.0,
      0.0,
      0.0,
      0.0,
      0.0,
      0.0,
      0.0,
      0.0,
      0.0,
      0.0,
      0.0,
      0.0,
      0.0,
      0.0,
      0.0,
      0.0,
      0.0,
      0.0,
      0.0,
      0.0,
      0.0,
      0.0,
      0.0,
      0.0,
      0.0,
      0.0,
      0.0,
      0.0,
      0.0,
      0.0,
      0.0,
      0.0,
      0.0,
      0.0,
      0.0,
      0.0,
      0.0,
      0.0,
      0.0,
      0.0,
      0.0,
      0.0,
      0.0,
      0.0,
      0.0,
      0.0,
      0.0,
      0.0,
      0.0,
      0.0,
      0.0,
      0.0,
      0.0,
      0.0,
      0.0,
      0.0,
      0.0,
      0.0,
      0.0,
      0.0,
      0.0,
      0.0,
      0.0,
      0.0,
      0.0,
      0.0,
      0.0,
      0.0,
      0.0,
      0.0,
      0.0,
      0.0,
      0.0,
      0.0,
      0.0,
      0.0,
      0.0,
      0.0,
      0.0,
      0.0,
      0.0,
      0.0,
      0.0,
      0.0,
      0.0,
      0.0,
      0.0,
      0.0,
      0.0,
      0.0,
      0.0,
      0.0,
      0.0,
      0.0,
      0.0,
      0.0,
      0.0,
      0.0,
      0.0,
      0.0,
      0.0,
      0.0,
      0.0,
      0.0,
      0.0,
      0.0,
      0.0,
      0.0,
      0.0,
      0.0,
      0.0,
      0.0,
      0.0,
      0.0,
      0.0,
      0.0,
      0.0,
      0.0,
      0.0,
      0.0,
      0.0,
      0.0,
      0.0,
      0.0,
      0.0,
      0.0,
      0.0,
      0.0,
      0.0,
      0.0,
      0.0,
      0.0,
      0.0,
      0.0,
      0.0,
      0.0,
      0.0,
      0.0,
      0.0,
      0.0,
      0.0,
      0.0,
      0.0,
      0.0,
      0.0,
      0.0,
      0.0,
      0.0,
      0.0,
      0.0,
      0.0,
      0.0,
      0.0,
      0.0,
      0.0,
      0.0,
      0.0,
      0.0,
      0.0,
      0.0,
      0.0,
      0.0,
      0.0,
      0.0,
      0.0,
      0.0,
      0.0,
      0.0,
      0.0,
      0.0,
      0.0,
      0.0,
      0.0,
      0.0,
      0.0,
      0.0,
      0.0,
      0.0,
      0.0,
      0.0,
      0.0,
      0.0,
      0.0,
      0.0,
      0.0,
      0.0,
      0.0,
      0.0,
      0.0,
      0.0,
      0.0,
      0.0,
      0.0,
      0.0,
      0.0,
      0.0,
      0.0,
      0.0,
      0.0,
      0.0,
      0.0,
      0.0,
      0.0,
      0.0,
      0.0,
      0.0,
      0.0,
      0.0,
      0.0,
      0.0,
      0.0,
      0.0,
      0.0,
      0.0,
      0.0,
      0.0,
      0.0,
      0.0,
      0.0,
      0.0,
      0.0,
      0.0,
      0.0,
      0.0,
      0.0,
      0.0,
      0.0,
      0.0,
      0.0,
      0.0,
      0.0,
      0.0,
      0.0,
      0.0,
      0.0,
      0.0,
      0.0,
      0.0,
      0.0,
      0.0,
      0.0,
      0.0,
      0.0,
      0.0,
      0.0,
      0.0,
      0.0,
      0.0,
      0.0,
      0.0,
      0.0,
      0.0,
      0.0,
      0.0,
      0.0,
      0.0,
      0.0,
      0.0,
      0.0,
      0.0,
      0.0,
      0.0,
      0.0,
      0.0,
      0.0,
      0.0,
      0.0,
      0.0,
      0.0,
      0.0,
      0.0,
      0.0,
      0.0,
      0.0,
      0.0,
      0.0,
      0.0,
      0.0,
      0.0,
      0.0,
      0.0,
      0.0,
      0.0,
      0.0,
      0.0,
      0.0,
      0.0,
      0.0,
      0.0,
      0.0,
      0.0,
      0.0,
      0.0,
      0.0,
      0.0,
      0.0,
      0.0,
      0.0,
      0.0,
      0.0,
      0.0,
      0.0,
      0.0,
      0.0,
      0.0,
      0.0,
      0.0,
      0.0,
      0.0,
      0.0,
      0.0,
      0.0,
      0.0,
      0.0,
      0.0,
      0.0,
      0.0,
      0.0,
      0.0,
      0.0,
      0.0,
      0.0,
      0.0,
      0.0,
      0.0,
      0.0,
      0.0,
      0.0,
      0.0,
      0.0,
      0.0,
      0.0,
      0.0,
      0.0,
      0.0,
      0.0,
      0.0,
      0.0,
      0.0,
      0.0,
      0.0,
      0.0,
      0.0,
      0.0,
      0.0,
      0.0,
      0.0,
      0.0,
      0.0,
      0.0,
      0.0,
      0.0,
      0.0,
      0.0,
      0.0,
      0.0,
      0.0,
      0.0,
      0.0,
      0.0,
      0.0,
      0.0,
      0.0,
      0.0,
      0.0,
      0.0,
      0.0,
      0.0,
      0.0,
      0.0,
      0.0,
      0.0,
      0.0,
      0.0,
      0.0,
      0.0,
      0.0,
      0.0,
      0.0,
      0.0,
      0.0,
      0.0,
      0.0,
      0.0,
      0.0,
      0.0,
      0.0,
      0.0,
      0.0,
      0.0,
      0.0,
      0.0,
      0.0,
      0.0,
      0.0,
      0.0,
      0.0,
      0.0,
      0.0,
      0.0,
      0.0,
      0.0,
      0.0,
      0.0,
      0.0,
      0.0,
      0.0,
      0.0,
      0.0,
      0.0,
      0.0,
      0.0,
      0.0,
      0.0,
      0.0,
      0.0,
      0.0,
      0.0,
      0.0,
      0.0,
      0.0,
      0.0,
      0.0,
      0.0,
      0.0,
      0.0,
      0.0,
      0.0,
      0.0,
      0.0,
      0.0,
      0.0,
      0.0,
      0.0,
      0.0,
      0.0,
      0.0,
      0.0,
      0.0,
      0.0,
      0.0,
      0.0,
      0.0,
      0.0,
      0.0,
      0.0,
      0.0,
      0.0,
      0.0,
      0.0,
      0.0,
      0.0,
      0.0,
      0.0,
      0.0,
      0.0,
      0.0,
      0.0,
      0.0,
      0.0,
      0.0,
      0.0,
      0.0,
      0.0,
      0.0,
      0.0,
      0.0,
      0.0,
      0.0,
      0.0,
      0.0,
      0.0,
      0.0,
      0.0,
      0.0,
      0.0
    ],
    "weight_w": [
      [
        -0.013307130806977346,
        -0.009499613063382942,
        0.03706846690176871,
        0.017119979280367625,
        0.04847019743604439,
        0.030004955710383974,
        -0.05404557221790732,
        0.004256249595266368,
        -0.049418232824415265,
        -0.03824874700092904,
        -0.03679938908650474,
        -0.07440454556479897,
        -0.024420839851096873,
        0.05272913401059162,
        -0.05334571423499532,
        0.03252797824651216,
        0.046127142820309844,
        -0.031228237680441105,
        0.010356694531014635,
        -0.0298020073013123,
        -0.02246477328527443,
        -0.01787885722335445,
        -0.03845116302823497,
        0.007650108605976522,
        -0.06203132633163331,
        -0.025639849974964067,
        0.06173271621377488,
        0.056590245712809656,
        0.02996435605807496,
        -0.022406576835684297,
        0.0015005178211141973,
        0.05099538110432203,
        -0.010161772981051032,
        -0.012569897273886299,
        0.06449463557413068,
        0.06045973027772819,
        -0.027754971798504238,
        -0.03455694699542571,
        0.07373613349866787,
        0.06758604286664369,
        -0.04075020701396053,
        0.02423520890846642,
        -0.03424710366119474,
        -0.01063235460233003,
        -0.04335178494515798,
        0.03334783749493829,
        -0.04756099532921106,
        0.060279910530766784,
        0.02606996373483167,
        -0.07618758546026388,
        -0.06290763216518395,
        -0.07072143620974909,
        -0.06634850018630765,
        0.0649155213157574,
        -0.04797486249725519,
        -0.04340361965269144,
        0.030784298470432625,
        0.051799228695238925,
        -0.0009887770940179563,
        -0.013100941736176139,
        0.00571302044935855,
        0.029730999035312372,
        -0.07404690095175792,
        0.07004257753840518,
        0.0037398521850713212,
        0.0008394075578740945,
        0.008001210764082473,
        0.01273031187345905,
        -0.03199824037330439,
        0.04162046744535139,
        0.0727880618876017,
        -0.04021395062616969,
        -0.04011172441740859,
        -0.07394618432187183,
        0.01827003565497838,
        -0.039425970997333235,
        -0.04661270907829766,
        -0.04086354626997739,
        -0.012172870198138369,
        0.07267419127504265,
        -0.04667093419017808,
        -0.06705458025062702,
        0.01819155028849792,
        -0.01573699124459106,
        0.015091193411539541,
        0.03874722058528507,
        0.038156985691996465,
        0.020907998257601645,
        -0.027736483069889913,
        0.046453281464370666,
        0.010338185977542921,
        0.019968976456477286,
        -0.0427415432567495,
        0.034651097410760764,
        -0.06268899817452511,
        -0.06308467872232487,
        -0.029441436727177132,
        0.07105894284552366,
        -0.032233668462654984,
        0.05288515659126691,
        0.009270017064695782,
        0.05935736872310418,
        0.061931507952519865,
        -0.05297769397849167,
        -0.0004916317602750297,
        0.03705888395425512,
        -0.022784843163494627,
        0.07664800366112534,
        0.06534359677185389,
        0.05810885518102335,
        -0.03239235217155893,
        -0.06407574121577429,
        -0.02108414234878679,
        -0.049989994600380165,
        0.044972685430667764,
        -0.029381131167202153,
        0.018040602846234946,
        -0.03742466600619499,
        0.017346992459125618,
        -0.05923969497479621,
        -0.056918697690657535,
        -0.06941094376346577,
        -0.022893140653329876,
        0.012198406203970114,
        -0.007361815503624455,
        -0.0755338316810273,
        0.005372551308855625,
        -0.07629674311281266,
        0.07146888184154757,
        0.009689614485566156,
        -0.06368736670534976,
        -0.021154964404734813,
        0.06112090687970054,
        0.06557475714141328,
        -0.009737066694451457,
        0.01627723264811408,
        -0.05455962907222116,
        0.044170784191957135,
        0.033600305874737474,
        -0.03619006478836637,
        -0.012470182282038403,
        -0.04095392185694477,
        -0.004895500683421747,
        0.06158578872472664,
        0.02998889390326337,
        0.053158794042640095,
        -0.05653390737736039,
        0.0038433130989110054,
        -0.03247123727828816,
        0.001288540450077369,
        -0.053221870260123524,
        -0.04742363431098367,
        0.009277367257751551,
        -0.03142992042066163,
        0.05067989371345538,
        -0.029324804988612424,
        0.027121229006718414,
        -0.005473976855076473,
        0.03071205069000356,
        -0.0028899224900107295,
        -0.04794485198269051,
        0.05946096160046371,
        0.06946321573594649,
        0.010713882478843709,
        -0.018356560939247743,
        0.04602669400195811,
        -0.05765279605542455,
        0.05385852668565222,
        0.06105498614117322,
        -0.026270249511568443,
        -0.003989238670530804,
        -0.012513709576319018,
        0.06537621006649544,
        0.015385741307946954,
        -0.040354153195083675,
        -0.047817598574317735,
        -0.06410970713913705,
        0.04491049299210373,
        0.025967279397125037,
        0.004470284314077158,
        -0.06877699404084411,
        -0.010536098653115736,
        -0.07531704297860871,
        0.04812063616297732,
        -0.03474555772459871,
        0.025164970778465884,
        -0.025683106252762558,
        0.05172394541962158,
        -0.014509978696408868,
        -0.01806634083151664,
        0.07117525580369985,
        -0.06862965302438333,
        -0.06522572807325616,
        -0.058554956203006686,
        -0.012406882475228864,
        -0.041440874202928815,
        0.03446863543115804,
        -0.035040552484834925,
        -0.04880926394543429,
        0.05832963985834205,
        -0.03909120134079333,
        0.0258354762896313,
        0.07187733593356557,
        -0.03990942532229269,
        0.0748220916298756,
        -0.07639386267296217,
        -0.04010166337055181,
        -0.05707816111816075,
        -0.004718625121402656,
        -0.048831720018765866,
        -0.06100865058738864,
        -0.031234629769055194,
        -0.012648138985581231,
        0.0655708204605785,
        0.01343150543265706,
        0.07444011582000329,
        0.052817971209151326,
        -0.05706225855577774,
        0.010776076665354184,
        -0.013896514706951385,
        -0.049471323191995424,
        -0.03397397502168699,
        -0.03803852690373081,
        -0.06372707088609035,
        -0.06771729163028653,
        0.06312256821587803,
        0.061318767439530436,
        0.056896020596380964,
        0.052670376085992676,
        -0.05598344966811604,
        0.050307791367325466,
        -0.07329784420221422,
        0.043215949340009246,
        0.004493710085437558,
        0.034752814520874156,
        0.003991306357003732,
        0.07201109726374655,
        0.015629351643991984,
        -0.03268733175282687,
        -0.05227773401943532,
        0.058160064728712296,
        0.0427777680540411,
        -0.01285101802164862,
        -0.008369656486548083,
        0.008113257028464563,
        0.029890797532249408,
        -0.021028988468375538,
        -0.042300878664406766,
        0.027178128147243463,
        -0.04100535706898146,
        -0.0335556066810273,
        0.005772621640576181,
        -0.052216853836547464,
        0.07218100772729341,
        0.07562380454722017,
        0.042676025686699065,
        0.04354400136780598,
        -0.05750480692858008,
        -0.021485223347122648,
        -0.021088205148906726,
        -0.051497700746761285,
        0.0034924682967504284,
        -0.000676171760133043,
        -0.05239969976520755,
        -0.04765459473273981,
        -0.015773978929759194,
        -0.06033346407675945,
        -0.034868425060073656,
        -0.05904998824469618,
        -0.0670231375584969,
        0.07558806413447922,
        -0.020520447553688474,
        0.06232876916122926,
        -0.07258198267667727,
        0.06165611928693368,
        0.007665362975317613,
        0.01744733849885302,
        0.00025803522922282496,
        0.0420060902691828,
        0.04161004189945211,
        0.028033323568031843,
        -0.057332757554867414,
        0.02366559064939419,
        0.04390752242563334,
        0.0690108040605786,
        0.07096328458778842,
        0.049966026796875285,
        0.012078508226013612,
        0.01910867740015186,
        0.07317031212497274,
        -0.05375619455698357,
        -0.02402644352837152,
        0.0645733318513165,
        0.05879949874005022,
        -0.007613734741113223,
        0.02190864490151423,
        -0.004472833977588006,
        -0.029509408375710276,
        -0.01245517754502927,
        -0.0010695848622583604,
        -0.018603871778595578,
        0.016856806652075132,
        -0.043215502024519334,
        -0.0633910183936071,
        -0.008231783037273024,
        0.043073582591594245,
        0.06005309730947536,
        0.06296548024758825,
        0.06864480446874827,
        0.03384822037864335,
        0.019568722194587884,
        -0.02460767518173973,
        0.03368777746499618,
        -0.0026687450888504133,
        -0.021176722856599217,
        0.03958950718523466,
        -0.03829534205218984,
        0.07205350657576115,
        -0.008313547889466949,
        0.06230942553185781,
        -0.06345195916857742,
        0.02884879348865646,
        -0.0639140624573225,
        0.04959170783925432,
        -0.0703725094898801,
        -0.06705134015550764,
        0.008444275314187122,
        0.07309845920675906,
        0.05892782265009919,
        -0.049522480808384076,
        -0.002190986387008792,
        0.0694948121023744,
        0.06080372207571555,
        -0.029495076681950103,
        -0.04814050712785811,
        -0.007898725498854384,
        0.008034868845172807,
        0.011434728944546058,
        -0.04473274149769624,
        0.024277014706439018,
        -0.07498802603391558,
        0.020160494141365656,
        -0.06146729457388077,
        -0.03707519276213703,
        -0.05007742295414283,
        -0.0249569140231167,
        -0.033142967468916845,
        -0.023861849479329247,
        -0.03112924769652132,
        -0.012184827960138728,
        -0.023242062457737994,
        0.02551373449116784,
        -0.06640180489307325,
        -0.06990059197289421,
        0.020236423770752104,
        -0.05082521548914575,
        0.03533503719115555,
        0.057503464093825285,
        0.061112466024365625,
        0.03140140205727353,
        0.022052305534048494,
        -0.007867969555983081,
        -0.019639715725903152,
        -0.04744476243937733,
        -0.021205819938957447,
        0.05442066798529269,
        0.047164525526783074,
        0.06724508203714946,
        0.019057863262684077,
        0.032980413162620306,
        0.005931701171822998,
        -0.07655849522485009,
        0.06034404653806835,
        -0.05101181462165576,
        0.07695409037213444,
        0.01932998945223771,
        0.030237756786574074,
        0.032216147475680273,
        -0.009512931885125572,
        0.04818084247853027,
        -0.037087169581636506,
        -0.05215153094034034,
        -0.06742987317831202,
        0.00726182625737945,
        -0.009292684604806728,
        0.07198329610675297,
        0.008994153456202511,
        -0.04717956034437984,
        0.04792910682547,
        -0.014044594924416787,
        0.048468806197376646,
        -0.019903578521016985,
        0.03919529670407183,
        -0.0021534413173184275,
        0.030840704423900106,
        -0.05817903390599541,
        0.008798085966897337,
        -0.0018430650287806355,
        0.051943909091201196,
        -0.06719024635811707,
        0.04292195103815037,
        0.0639078025777679,
        0.011491759558483833,
        -0.05549363448502283,
        0.040750840111068914,
        -0.01895963747080183,
        0.025081905197052667,
        -0.06669435612929625,
        -0.004544566312369089,
        0.05482832430471188,
        0.030107116395857683,
        0.06071678229863711,
        -0.02071688794131145,
        0.03661867245806326,
        0.05823698025925089,
        -0.06629512486799906,
        -0.05606165758728421,
        0.046940055149578636,
        -0.016934766324877386,
        0.029782449057285887,
        0.025397810106749588,
        -0.03822088644653394,
        0.07018664182743001,
        0.06934954654891107,
        -0.027036604434896826,
        0.051312594490883545,
        0.050982428491048754,
        0.06750862305668467,
        0.06659076795332217,
        0.009197234625679993,
        -0.024302414655862824,
        0.05129176889244133,
        -0.02740506665091745,
        -0.02633157796109635,
        -0.057837316440103495,
        -0.04776808060236945,
        0.04391755725227135,
        0.009561052705481368,
        -0.06854512836373094,
        0.0062752956171003155,
        -0.03149002232597405,
        -0.002165807508271861,
        0.07695632103971387,
        -0.031482566659917166,
        -0.002254468223721204,
        -0.0036973674709607357,
        -0.0010507257043117363,
        -0.06985711127813257,
        0.015701071033135422,
        -0.06656266139319797,
        -0.012478108302669128,
        -0.003370946061499333,
        0.020267026352870574,
        -0.006171878567618944,
        0.06995354035561507,
        -0.04973063847732387,
        0.03637124435030825,
        -0.028054316542246945,
        -0.06524285239306846,
        -0.07074536131114523,
        -0.06322703330501087,
        -0.02430401515962685,
        -0.02862086212105524,
        -0.022674834744177114,
        -0.029116139895873965,
        -0.07357180663093855,
        0.030082652962718906,
        0.07257619636981952,
        0.07121651817741464,
        -0.06033573245472203,
        0.020416221304460233,
        -0.03586580573067479,
        0.05941906359255639,
        -0.026693135846678574,
        0.06914006717602703,
        -0.07233349855513471,
        0.005083991597569254,
        -0.02944615517216382,
        -0.008926226689226685,
        0.030718854960318356,
        -0.021247253845229852,
        0.011473202089443815,
        0.043091876273765525,
        0.07021199028430392,
        0.05399160298458586,
        0.07283399411437119,
        -0.05191923295295507,
        -0.06412168439360355,
        -0.04825972717912619,
        -0.020253948047803644,
        0.03752060781428819,
        0.007915816742084067,
        0.055721746216211204,
        0.05558231415162834,
        0.06830162660305364,
        -0.013784326066116778,
        0.05778955248144027,
        0.05791331639431624,
        -0.04407504084218881,
        -0.03220411903820159,
        -0.049009982472847796,
        -0.013250134536816394,
        0.06469152287313915,
        0.034702152151492874,
        0.04685360648219755,
        -0.0479411175369983,
        -0.002873941292988902,
        -0.02756043869187432,
        0.07486399954091474,
        -0.010065492413285998,
        0.06192375114006282,
        0.032660336349724456,
        -0.07078852941521604,
        0.06959273239363878,
        0.016380744384842508,
        0.06340429850537638,
        -0.06155375771567099,
        0.04243215218870358,
        -0.06233876215583548,
        -0.07009486985789937,
        -0.027559033624295688,
        0.02342218670800965,
        -0.04490831100052127,
        0.07175522883875754,
        -0.032746743871450774,
        -0.062171093849986155,
        -0.024416137913746853,
        0.023773445333520868,
        0.02101488980183945,
        -0.07101276788582377,
        0.03867595144390276,
        -0.056890783503362796,
        -0.012952968327455669,
        0.01250436168088949,
        0.011118417895818078,
        -0.030973948431455088,
        -0.061515033324357565,
        0.031311428227711824,
        -0.015053558200270996,
        0.006241845450897593,
        -0.032267672895185597,
        -0.011803074307108141,
        0.0404380717255514,
        -0.014428270158415468,
        0.02507568929308003,
        0.037670473320368325,
        0.037293586509828766,
        0.0035973462478982726,
        0.016156159434712117,
        -0.0027837258945200283,
        0.029076372358323263,
        0.0027108247730021073,
        0.028147765435614244,
        0.06913756263227394,
        0.0036852438268669824,
        0.03617552320300131,
        0.009249060245929877,
        -0.03949222742699376,
        0.016100183857113093,
        0.018908311953672513,
        0.024468870033710247,
        0.07558522100467285,
        0.05297819475463292,
        -0.010794917179552582,
        0.0052699804383005144,
        0.0516342851111278,
        0.05213183471680771,
        -0.06266346788743195,
        -0.0681891725831361,
        -0.04902613603687296,
        0.04017100702939255,
        -0.010721401979866138,
        0.05448202893429557,
        -0.06600850152478668,
        0.028159480880878288,
        -0.052202904354699695,
        -0.05478565165798667,
        0.060117926955252976,
        0.0019036802389018337,
        -0.05163806840647622,
        -0.010780803299794098,
        0.036957311389397035,
        0.019319934991347987,
        0.04569355274303638,
        0.05184279167788916,
        -0.011454368685219929,
        0.05246930154548657,
        -0.04407429605214911,
        0.029240867619322902,
        -0.05626107635056035,
        0.05046437139880869,
        -0.0671625060729508,
        -0.06812595897437174,
        -0.0017055249867589523,
        -0.07362996482967388,
        0.004688623716173915,
        0.0160395195916216,
        0.011548462136124607,
        0.025607652136953887,
        0.028582589788506516,
        0.00959816573629274,
        0.042370556659482375,
        0.02572357138182378,
        0.05189652246400209,
        -0.05606786185079721,
        -0.009511929311041972,
        0.06609199178391442,
        0.07052909353138118,
        0.0035938174677099116,
        0.04852133877446815,
        0.00018392653708314277,
        0.06164129503727378,
        -0.058556311364792724,
        0.05102738471050791,
        -0.037498751757432544,
        0.0662308129710091,
        -0.05462788157313281,
        0.049267691134263575,
        -0.009018543752780675,
        -0.04760720574742126,
        -0.0014536148371867147,
        -0.05414474948903525,
        -0.053661453507174606,
        -0.0248430355752604,
        -0.04274446626528616,
        0.00019070105988279462,
        -0.032305497952750784,
        -0.017731267387932535,
        0.06925589863462797,
        -0.007733490546853641,
        0.0684813252044468,
        0.07572903355416116,
        -0.0663799161251202,
        0.06104024277108072,
        0.043465824558044444,
        0.0723808303950931,
        -0.042826560806147176,
        0.05081602476542968,
        0.03401698667807321,
        0.03074684260878821,
        0.0346926696823847,
        0.06604677241111082,
        0.044447448025924124,
        -0.04523594109149417,
        -0.0013949502711353978,
        -0.05932368575676027,
        0.02463997258506974,
        -0.027339098216526025,
        0.02859121143405513,
        -0.0494241374583959,
        0.015330986287361043,
        0.04459724218191212,
        -0.046086659851032066,
        -0.07183697921218891,
        0.05480239585109814,
        0.028687977582112875,
        -0.003109784781871114,
        -0.06398802127516239,
        0.057931315986652354,
        0.006255139621612435,
        -0.02020963804086378,
        0.05676380621563468,
        -0.04700408445020462,
        -0.04020802162102601,
        -0.07675081807095704,
        0.035557908257264556,
        0.0026369937424833567,
        -0.02869166824316094,
        -0.042078611634078666,
        -0.00779707395970522,
        -0.01240203613213077,
        -0.01198397595264103,
        -0.07152940507684512,
        -0.017939196964817723,
        -0.0009898881093160367,
        0.06532264112417438,
        -0.005698458785394822,
        0.06298485141735427,
        -0.028353235203578284,
        -0.0312996683644437,
        -0.022533534702126025,
        -0.05480545568947204,
        0.05964443539562597,
        -0.07544014229091024,
        0.050924354573528646,
        0.030135175759859953,
        0.02857030827728331,
        0.07049319767474263,
        -0.06813851522351153,
        -0.06318021330828749,
        0.07115431203008227,
        -0.048738476898519276,
        -0.027265471479944785,
        -0.03692683860276241,
        0.03884245857581525,
        -0.009975024534842974,
        0.07678672469462602,
        -0.0429140318579605,
        0.011203944245081365,
        -0.025400654847637344,
        -0.03789359586860066,
        0.06874990214107105,
        -0.07534050357537722,
        0.07255961109672845,
        0.004442729842972504,
        -0.052716788359598615,
        0.05422600755936985,
        0.006450755563995075,
        0.02905846350422424,
        0.02513560155274265,
        0.01488153234279406,
        -0.01060984569310619,
        -0.03164708653953385,
        0.034556316171496154,
        -0.07482316540977721,
        0.024839028029155483,
        -0.06976218580462884,
        -0.049644154508510306,
        -0.01689286753732036,
        -0.05147547036671124,
        -0.061381604847487885,
        0.06658852804570675,
        0.059490489705906896,
        0.04231001250920588,
        0.04319284270258189,
        0.06862367480292009,
        -0.03312210438709697,
        -0.037055277776271836,
        0.013085924703525778,
        -0.039204385410544364,
        0.05256909464443918,
        0.01632322962358719,
        -0.030620821102312873,
        0.0184230267229855,
        0.01574487887049121,
        -0.07561392756548506,
        -0.015998853471641296,
        -0.059071466913009324,
        0.02697613066473392,
        -0.051122398163881,
        -0.070300527170415,
        -0.036343316526279895,
        0.0652746493114201,
        -0.06912716438334696,
        0.01293300513456179,
        -0.06417708063996315,
        0.0012061250625614722,
        0.02827765565180307,
        -0.07153198475279358,
        -0.03148582987954697,
        0.06607203345270976,
        0.02287898195616507,
        0.031083107146908262,
        -0.03510517231642354,
        -0.02370866980715696,
        0.0020317801475604885,
        0.03247998144595339,
        -0.047843974412384735,
        0.00415444387794342,
        0.07541961148536067,
        0.060980878833140906,
        0.016167156701075477,
        -0.06983670822603552,
        -0.03912479137750211,
        0.05765527202159543,
        0.03091163687330882,
        0.012833929576735487,
        -0.054399696910542514,
        -0.0049128555829891785,
        -0.04083677250397314,
        0.07574192707374941,
        0.06020062444684823,
        0.001628608600880127,
        -0.04590044367685632,
        0.020726852063416804,
        -0.023267245002177438,
        -0.011496818797663039,
        -0.056804124065932604,
        -0.026393002273221812,
        -0.012470177132617305,
        -0.007751304960167044,
        0.04365198461129212,
        0.03743388915467627,
        0.02802021343154358,
        -0.06744578219590741,
        0.07094501034085934,
        0.04107581074311488,
        0.04469727016986279,
        -0.007100265315560697,
        -0.048329856554598385,
        0.0094023378714755,
        0.03709195303553864,
        -0.025469063263914835,
        -0.0072996505249742355,
        0.030763827086348797,
        0.010858109548868067,
        0.05710802164065723,
        -0.07247572470566047,
        0.047066627076854106,
        -0.05380822994324669,
        -0.04799743671812558,
        -0.05781797284529114,
        -0.07617455398492923,
        -0.01708436513587118,
        0.06553702659063976,
        0.0594201124024408,
        -0.02335235605401658,
        0.027454773455657555,
        -0.021452893530363427,
        -0.006473693345078982,
        -0.02471252813629976,
        -0.05819946843875101,
        -0.062060887185456146,
        -0.031073749061161247,
        -0.016827458369254332,
        0.01819620459440144,
        0.06586112924272697,
        -0.023181274175572607,
        0.01774717521620471,
        -0.005823468588241079,
        -0.05839077584170243,
        0.02945441924016172,
        0.04085336611296449,
        -0.010949661030897645,
        0.011943785132832993,
        -0.0687489457057917,
        -0.05137882001812733,
        0.0649741947861775,
        -0.03159524715950585,
        0.04608311717724223,
        -0.04064053210918222,
        0.07635073480993601,
        0.011098718413153325,
        0.055350729545795174,
        0.03329712097051246,
        0.003328461088237533,
        0.05562066857668013,
        -0.056648344703055784,
        -0.02366081911408808,
        -0.03794040011262243,
        0.04087488441015756,
        0.05698287130665905,
        0.06981576906121265,
        -0.054449461978515044,
        0.02570312439410327,
        -0.03542333053417641,
        0.04334932614055348,
        0.03360324534029546,
        -0.03862655569824234,
        0.028022929068835828,
        -0.024397442997891115,
        0.04420284725718318,
        -0.015654178487698435,
        0.026481644074790173,
        -0.0158716993138025,
        -0.022599644399893627,
        -0.057797811701147186,
        0.042933677600559716,
        0.06073866192983826,
        0.00970947010849274,
        0.03447641329726671,
        0.009444232767269994,
        -0.059837858010885384,
        0.02826498310894794,
        0.06030533374746869,
        0.06505823837936353,
        -0.057433025188857206,
        -0.025888609328483372,
        0.052638083100411986,
        -0.05321180618760259,
        -0.015509406150704654,
        -0.07291308600816675,
        -0.005048028284579162,
        -0.04510083957084719,
        0.028229934973319187,
        -0.05571036112346213,
        -0.056278207869548125,
        0.027402315846577888,
        -0.03299277890405523,
        -0.07596008600899798,
        -0.045118913675063904,
        -0.013741186364332594,
        -0.037205680674345945,
        -0.0754983656825794,
        0.02427122500750624,
        -0.030887056658083556,
        0.07277544487193785,
        -0.018603855701063564,
        0.04029779825290647,
        0.020229187590966743,
        0.05016269022890529,
        -0.03161366781142831,
        0.04212828382896548,
        0.008357623319752094,
        0.07635134688960216,
        -0.06437140718418527,
        0.059188915894841626,
        -0.03056501731173305,
        0.003794062063029943,
        -0.03620028365459083,
        0.021671692655798935,
        0.008555213182020294,
        0.019256265945604617,
        -0.00821288433286986,
        -0.05677859339909874,
        0.046165468547095856,
        -0.04041632231697744,
        -0.04335930377746601,
        0.06395639135590478,
        0.027986002577223723,
        0.00928584984776018,
        0.042816204774435554,
        -0.009269087871359688,
        0.07005490126700917,
        0.07582953102753615,
        0.011632934188298166,
        -0.04470731500529973,
        -0.023611019360868707,
        0.05888909819473004,
        -0.04255909512400748,
        -0.050150092613838265,
        -0.022712098326272558,
        0.009963894225914427,
        -0.049455543475106944,
        -0.05734994862678244,
        0.03692955184501867,
        -0.002838019352358931,
        0.0689001402957782,
        0.006680922760203059,
        -0.0526609045660935,
        -0.07519207209881082,
        0.0004949851511679287,
        -0.06685137155013825,
        0.002183940063015935,
        -0.034771795513809434,
        0.029252543742361442,
        0.03576612777231927,
        -0.050160156968244565,
        0.0013424367219967565,
        0.020582584802725803,
        -0.01980336637816029,
        0.023279075302641034,
        -0.042076850268479626,
        -0.022122013426210105,
        0.07389032734489986,
        0.0004956875712327502,
        -0.057870792297891716,
        -0.04768889157752397,
        0.06775382665742671,
        0.06255641775556953,
        0.014347118601917216,
        -0.050211611486737,
        0.03863453941106408,
        -0.034722612978332734,
        -0.013250972081971943,
        0.020774559033235718,
        -0.04745331182799899,
        -0.03107297287841152,
        0.05700166041819585,
        -0.05550312874907986,
        -0.042632569602485425,
        0.06160057344256223,
        -0.03973113994855702,
        0.061501946126086365,
        0.056132926536377054,
        0.02987467310609511,
        0.04885044530169047,
        0.07305698967386948,
        0.012436907222689753,
        0.031976669696629476,
        0.01924637229449444,
        0.043194484014980744,
        0.021443514318798595,
        0.019167966005977533,
        -0.0695912731530452,
        -0.0185735318125781,
        -0.07151766043892496,
        -0.03195600825857906,
        0.07093202312939184,
        -0.06986893486993567,
        0.006410698399371695,
        -0.056450963689128886,
        -0.004666798924888513,
        -0.07292932505463182,
        -0.058845438864799815,
        -0.00015148727909782,
        0.017362085708493707,
        0.07180771681278153,
        0.0624801213278236,
        0.06751008805920028,
        0.05342380804281141,
        -0.018857028306099546,
        0.018856882169973083,
        -0.02302799597434165,
        -0.06298144180265516,
        0.002566875212715633,
        -0.041854223465330895,
        -0.014411936128198383,
        -0.03018595093202979,
        0.04589385280167313
      ],
      [
        0.04301868422649961,
        0.058839655625191084,
        -0.024443644425242175,
        0.0353374533359095,
        0.008587946778504343,
        0.020809332661362284,
        0.001504340947790228,
        -0.01897920686880812,
        0.04616643306083962,
        0.07567022882464086,
        -0.024988652115274824,
        0.07092191944304649,
        -0.0009079886601784659,
        -0.016034106978540907,
        -0.06061641873658295,
        -0.020067004130649983,
        -0.0036123187091879755,
        -0.05054392684463438,
        0.014738232730153913,
        -0.05429575811714983,
        -0.04435781207492891,
        -0.06200131761677157,
        -0.047942758664195353,
        0.07629294278451595,
        -0.061490487419315065,
        -0.008446278937720389,
        0.04129468933640239,
        -0.0002521035266633831,
        0.04750973123552307,
        0.07015365644059313,
        -0.02563394085703035,
        -0.0416000559693266,
        -0.06918666662644009,
        -0.04174583704077171,
        0.015767366653178086,
        -0.008353339447671387,
        -0.03042897533679103,
        -0.05165348364994868,
        0.015200298865946163,
        -0.007721752790124367,
        -0.013684831115112928,
        0.00709191934956048,
        0.04411357051003874,
        0.031398869291254614,
        -0.05786098648746961,
        0.03190284217795883,
        -0.02623766608740425,
        -0.004842736896959646,
        0.06904329127556949,
        -0.07287706415872268,
        -0.04562766717667688,
        -0.04110785415096948,
        -0.07315747359249977,
        -0.00033922291047490394,
        -0.06601150047726481,
        -0.01234354933933246,
        0.06908316576056961,
        -0.014761486482379786,
        -0.0026362725379009966,
        -0.058896294583555914,
        -0.013298079086896217,
        -0.0656177190295544,
        0.051117448586154274,
        -0.055374823622338226,
        -0.006429522885163727,
        -0.05540826212482405,
        0.056703964536166884,
        0.054571115761949174,
        -0.06642947186505808,
        0.04718759446934932,
        0.07579612711960404,
        -0.046388192172904186,
        0.04506059846934095,
        -0.06621460010214174,
        -0.0567047186611457,
        0.02099028419831811,
        0.022973470885511188,
        0.008479885661519942,
        0.03748106070785055,
        0.026498441928099303,
        0.07463501484789936,
        -0.060834031384170886,
        -0.06425135361423417,
        -0.006813089467159347,
        0.03625001340518856,
        0.06952607765276941,
        -0.06446199006272402,
        0.06231530064608207,
        0.02433632530302189,
        -0.03366857248812674,
        -0.039560523162458,
        0.028319071993892372,
        -0.008963960533847251,
        0.05476817438561174,
        -0.04769366360270623,
        -0.008446275870042305,
        0.036863111182326325,
        0.04827362448359038,
        -0.03003816263658054,
        0.05668658620492337,
        -0.06499118308168113,
        -0.06425454774550343,
        -0.0473175858421936,
        -0.008191675291182018,
        0.012233039178732738,
        -0.020719424564676743,
        0.061125781918348665,
        0.04684060679508599,
        0.014728787437211593,
        0.04858096188835176,
        0.05862157806675472,
        0.019429441280893744,
        0.017049387875490415,
        0.023156461287642344,
        -0.0375921833010536,
        -0.02798868407771215,
        -0.0262142192040209,
        -0.01846846076331432,
        0.012242654352149149,
        0.01859537904362235,
        0.04545030249771727,
        -0.020940743341321018,
        -0.07354335551055077,
        0.050498077601478564,
        0.020672230757374593,
        0.07194772655044104,
        0.04219059096967427,
        0.07179291987720812,
        -0.0501981360217261,
        -0.012838391548978964,
        0.05768367966548005,
        0.0030222852585981286,
        -0.044014305551330804,
        -0.04269836829252851,
        -0.07328865199774441,
        0.06753352305717777,
        -0.03636283782307618,
        0.06466130002475612,
        0.0028123485449390306,
        0.03834436949712011,
        0.0056709015890591685,
        0.041084267979446226,
        0.02682182300049414,
        0.03693179991660393,
        0.006587062322536016,
        0.04099651447218762,
        0.06589756224292595,
        -0.019174782836687464,
        0.0012428797693079113,
        -0.009306649727261043,
        0.003503260627645763,
        0.050566516478086215,
        0.027467897627148574,
        -0.031071022419433547,
        -0.0554811321092889,
        -0.0009740040799199878,
        0.041763415858191474,
        0.053343821893220955,
        -0.006183321395572927,
        0.021735596033535795,
        -0.003876955566410503,
        0.05660480291601416,
        0.010593309830449538,
        0.0363848200536894,
        0.05289605358240976,
        0.028713530529298856,
        0.04373577873630882,
        -0.05369172984472985,
        0.0186717625918911,
        -0.06347684593424449,
        -0.04094464876700436,
        -0.06477880798142757,
        -0.03385176801966788,
        -0.03946491532517742,
        -0.017085639947847904,
        -0.007166809377866554,
        -0.07309984326347087,
        -0.011563570428224437,
        0.07184579256160137,
        -0.04470189776469444,
        0.014650441885864979,
        -0.006166461254457356,
        -0.0027169105109631636,
        -0.06577200434303493,
        -0.05901805142207672,
        0.056851571072912305,
        -0.07086300222616836,
        -0.03134589492686516,
        -0.02086221322564235,
        0.0012660284828824586,
        -0.030878662102227748,
        -0.028414507588021283,
        0.04143290007976942,
        -0.07539385168051495,
        0.03696823818645846,
        0.0623425657753095,
        0.04487500021111694,
        0.022650039380053402,
        0.06389344622753071,
        0.039452127440602044,
        -0.06915990631281843,
        0.07372268336764135,
        0.0009594631836837841,
        0.015090836499853474,
        -0.015033211911484358,
        0.032340017008292254,
        -0.05829479838104154,
        0.057598544595862666,
        -0.05927872774551171,
        0.020350132932807824,
        -0.010974327727721583,
        0.07375179292839748,
        0.05877223562506295,
        0.0033192832172823095,
        -0.005695279654216859,
        0.03110330916558529,
        -0.012748194966727938,
        -0.0009300016001726336,
        0.07586251727878751,
        -0.025211095007087223,
        0.03153542801646865,
        0.04644354389492025,
        -0.0671737374819364,
        -0.007489761056569913,
        0.04900888589192881,
        -0.014531215391753047,
        0.06754248291577619,
        0.030130119919182866,
        0.06015357236107394,
        -0.06885017983156848,
        -0.04551491950215599,
        0.05655920940340564,
        0.02281416124415067,
        0.04395888667384351,
        -0.023722914292279774,
        -0.048226783105059304,
        0.04463807345601885,
        0.01034618934561922,
        -0.06824244077652428,
        -0.02211631678458941,
        -0.03980061965883766,
        0.06263681820884734,
        0.025930387273046,
        0.0004646234385057013,
        0.044452352492602806,
        0.05274596782334676,
        -0.06521730376242818,
        0.02259693580253526,
        0.02134378306128408,
        -0.05477333095497237,
        -0.0003463673459934563,
        0.040119125322596205,
        0.0645003618433092,
        0.036473462078797425,
        0.0344002493848283,
        0.006566380809514771,
        -0.04071855036007611,
        0.07099976759303986,
        -0.04409804219624538,
        -0.05655817486014944,
        -0.05617109824583806,
        0.045433869755492254,
        -0.018758216087683667,
        0.06996326682362508,
        -0.030014182754327143,
        0.012213480233361287,
        0.031145463416295177,
        0.05598799633120505,
        -0.037429049375949604,
        0.020712976243691228,
        -0.05271863451101662,
        0.040276204985727745,
        -0.06419890279322076,
        0.04648670382257834,
        0.010513012876991093,
        0.003365081518042795,
        -0.03165613654578697,
        -0.057054054040039576,
        -0.000669180047147,
        -0.03442566734194267,
        0.036894339454373315,
        0.02402960792153984,
        -0.0055893723685498525,
        -0.010763209700626428,
        0.06503660620467647,
        0.03287704694410834,
        -0.049373688603545005,
        0.04742388766413749,
        0.014371381115877851,
        -0.0169929716200981,
        -0.00900127849758893,
        -0.06477360949389958,
        -0.05821790540713905,
        0.03034637783430856,
        -0.04195966671939254,
        0.026857788775967784,
        0.04853882411126728,
        -0.03334684373882573,
        0.005016709495257676,
        0.07013788424099376,
        -0.02227435097797146,
        0.0343265947445643,
        0.026755192588579876,
        0.036623164028308855,
        0.0645378537965563,
        0.058397640061827266,
        0.05991213814975785,
        -0.04709716500132152,
        -0.051308325318274214,
        -0.0557273456380126,
        0.03309292461159051,
        0.05887643233953299,
        0.04434876025942816,
        0.0470229157741434,
        0.007568575518905177,
        -0.010535722004580611,
        -0.006163371250339014,
        -0.0007450650459915192,
        0.02167784070074323,
        -0.054246374441037165,
        0.008585587046183313,
        -0.05499775566144534,
        0.022557144208066607,
        -0.059649053432818414,
        0.05258241098035982,
        0.06373203579973821,
        0.04202639549209834,
        -0.011809456779960925,
        0.041066482322068845,
        0.057891758471008165,
        0.03247308996733547,
        -0.027739098481185546,
        0.013018548697939364,
        0.0064563406674372215,
        -0.0207805644025088,
        0.041204979498308564,
        -0.0648382307187934,
        -0.06750865280163652,
        0.049643489788681994,
        0.034384816734180215,
        -0.020713660176324547,
        0.030745680302093098,
        0.07612755602768187,
        0.010059627165924567,
        -0.06963503158892576,
        0.06052860404270663,
        0.07126212098995754,
        0.00714262440162898,
        -0.03973123668834791,
        0.03584616106492927,
        -0.03463925521059575,
        0.05398111424212018,
        0.07166117593092358,
        -0.0050549823257524246,
        -0.04069313192893986,
        0.061476614941761626,
        -0.018075056251781817,
        0.06810996903315447,
        -0.06659866716180995,
        0.07309670343969954,
        -0.04395318325624283,
        0.06991767236628232,
        0.04121932101399471,
        -0.023406096069347973,
        0.03993221267481639,
        -0.04822787780298618,
        0.034100946261846884,
        -0.04360051349861029,
        -0.042040827286952895,
        -0.023002591727475756,
        0.06272675801807048,
        -0.039308033375701185,
        0.07483934664152436,
        -0.019260461873334474,
        -0.016286135158249934,
        -0.03730163958235061,
        0.001810913648658985,
        -0.014268581291252039,
        0.04169796587644539,
        0.04942680787144646,
        -0.02304279169064853,
        0.0027660326286880754,
        -0.036272550507813535,
        0.05461358694162005,
        -0.06373590271582627,
        -0.06186099602531542,
        -0.07600901895892394,
        0.0056733270417575615,
        0.025562723172644256,
        -0.05758463789140182,
        -0.009714557133074966,
        0.00947423956959799,
        0.010951546968795356,
        0.022973846968308537,
        -0.04665512605674177,
        0.0605088363170867,
        -0.016975093252623245,
        0.06136624830239426,
        -0.049413523748126416,
        0.07618849784400825,
        -0.055852219561108155,
        0.03343426416888738,
        0.009641821116877738,
        -0.07342530766993367,
        -0.0719468514136673,
        -0.01989176510007932,
        0.05085719622138002,
        0.007890697922534134,
        -0.06708349683280711,
        -0.035898630086224716,
        -0.026772612942495333,
        -0.0013425371628938282,
        -0.014866705981393544,
        -0.06213437718281822,
        -0.06261642149194946,
        -0.05054057778966374,
        -0.04938425014497941,
        0.050860009257795935,
        -3.440174879626445e-05,
        0.02319389453393636,
        0.04230196693264093,
        -0.031501233764300966,
        0.021133795265199748,
        0.06653252946528865,
        0.05453126860194127,
        0.004323166517640004,
        -0.03311059356278187,
        -0.03678512287832664,
        0.011621346235976798,
        -0.01097052149555465,
        -0.00952584682482649,
        -0.04818044463859037,
        -0.019378932987523106,
        -0.056347370572479,
        0.033963650352843294,
        -0.03645172521576621,
        -0.017802044100644995,
        0.040818842314742754,
        -0.03996922614116305,
        -0.008202666985945337,
        -0.05688642073665231,
        0.006237326429460385,
        -0.011338788859755228,
        0.052410455509348086,
        0.0014012598840586477,
        0.015869414524438366,
        -0.0501717619733794,
        -0.05758212059481764,
        -0.02084374369289136,
        0.0698513572318232,
        0.03390371575437259,
        -0.059862068285069056,
        0.014978998739023627,
        0.05908202770870846,
        0.023005137187393346,
        -0.05690194606195312,
        0.06383114415798119,
        -0.05609195971273321,
        -0.03630224491245014,
        0.06187479251639577,
        -0.04461876679582125,
        0.00010376185187475906,
        -0.02441039420936058,
        -0.03136638352391799,
        0.036926137312037824,
        -0.0021097612142956107,
        0.04455404795461963,
        -0.043952326903996905,
        0.03666958328926906,
        -0.053560095380392345,
        -0.06118675406258421,
        -0.047606540908207956,
        -0.07465308230851175,
        -0.031728876083416714,
        -0.0304152124455518,
        0.052778784278783214,
        -0.06260481563956644,
        0.03444032320236416,
        -0.03761605840929228,
        0.07398996297763494,
        0.06205233884959327,
        -0.02570838961780198,
        0.04099825427724649,
        -0.07259831784650368,
        0.037915540379199364,
        0.0005627487221065985,
        -0.06305852869811401,
        -0.06097395535408985,
        0.027811771128374407,
        -0.07585005618051094,
        -0.020531373385946197,
        -0.0017863287920395349,
        0.024633999947374974,
        0.06241556250139349,
        -0.008624911742204838,
        0.0029572435668956953,
        -0.02740493324215819,
        -0.02653175079164214,
        0.06655563467156703,
        -0.06056571890618313,
        0.04176677296679086,
        0.05662829694548091,
        0.024088142165928403,
        0.06233052485164012,
        -0.03820938307145755,
        -0.0009737731269353345,
        0.07029840669920598,
        0.0084198412503209,
        0.019344450390581566,
        -0.03528747175750999,
        -0.042336962155693283,
        0.03986193024262079,
        0.02836273941147939,
        -0.043989674043766885,
        -0.06280081940030313,
        0.0628637461420486,
        -0.0012364813186031554,
        0.05570968578676652,
        0.03954479127006119,
        -0.03016647165374607,
        0.062202632036807065,
        0.0021416654078015573,
        -0.001892944895167878,
        -0.0640238232602391,
        -0.06637765848036692,
        0.07578494549744452,
        0.06912895210860923,
        -0.05673778868659751,
        -0.06519701734759131,
        0.0156402554930187,
        0.003533618044793435,
        0.06768054745933846,
        0.06530347393714114,
        0.058104024164736506,
        -0.016314680523498472,
        0.021862221853067007,
        0.045294226478930805,
        -0.019434036626383967,
        0.01609481051404424,
        -0.003322880751512783,
        0.07509029195304778,
        0.016966595513664667,
        0.062057342190517256,
        0.034552198548412294,
        0.06596745042795901,
        0.03140390712599617,
        0.07215370915541638,
        0.03050461655302157,
        -0.040693756613074714,
        -0.03692311895690105,
        0.05229348316352492,
        0.06876517695064369,
        0.004206500318479758,
        0.006449035272273654,
        -0.020230147584880162,
        0.048039205553181474,
        -0.012379388970469862,
        -0.02969153448904438,
        0.012869169055059457,
        0.03292373034948391,
        -0.05997328912370627,
        -0.06174473640856794,
        -0.05936330270356603,
        -0.055049070110507387,
        -0.006545928762714634,
        -0.001009864816419681,
        0.06775911983803487,
        0.009905433217189605,
        -0.03163639811126876,
        0.025299606537008967,
        0.010614138649042093,
        -0.01985818867062418,
        0.0005700290119552004,
        -0.056168734939016,
        -0.054832742565729224,
        0.005604438283798335,
        -0.034952026656431254,
        0.005714273030277689,
        0.011400693796881259,
        0.04189070954095367,
        0.040322244027344856,
        0.03586090944072706,
        -0.0536456937907033,
        -0.06898091219267212,
        0.01230341184485137,
        -0.04854042134225818,
        0.05113292947934703,
        -0.06650771106191652,
        0.07160013764188841,
        0.030090640549239614,
        -0.0364297421369036,
        0.06732530533254419,
        0.055815045572144006,
        -0.03765626662851086,
        0.01307411903699758,
        -0.046630148687214254,
        0.0347145612447526,
        -0.047962993061699336,
        0.006124930111467988,
        0.07334181411705595,
        0.02563588987574067,
        0.027983921225780528,
        -0.02829806567135084,
        -0.06457512183730836,
        0.06403360180227627,
        0.07500704405110264,
        0.015296736019782861,
        -0.017909027211078274,
        0.025284711533893098,
        -0.06651174673260692,
        -0.03832518176144058,
        0.062378849076910825,
        -0.0748696765952096,
        0.031165490045961447,
        0.06744826437087878,
        -0.015324838258264521,
        0.009142993967540966,
        0.012531655758334509,
        0.04922803441767304,
        0.07498194110313441,
        -0.005213128411016149,
        -0.021604801935143587,
        0.05207936890235604,
        0.028525381880692147,
        0.0664127586966678,
        -0.045050613228936075,
        0.025209201010426105,
        0.06192182517664582,
        0.02272632924267602,
        -0.0444550685327312,
        -0.02447179681997748,
        -0.06012654483857504,
        -0.05125502045468302,
        0.06573860599673145,
        -0.03593859547026134,
        -0.02617562363380195,
        0.02302639455558067,
        0.04043144986338851,
        -0.009264300245225482,
        -0.05025832204935876,
        -0.055269897918099456,
        -0.05178325935794627,
        0.05860734941426507,
        0.04822133415468627,
        0.06966994682976008,
        -0.006656968132511987,
        -0.013915818954303855,
        -0.014016158377873095,
        0.012959313696970731,
        -0.013896312928637189,
        0.025233809389285974,
        -0.051223568208354234,
        0.029728662670655506,
        0.02218164872780015,
        -0.013525431280681816,
        0.0006164871138131384,
        0.05121232687104035,
        0.04414528952108991,
        0.03403186707842612,
        -0.05083883848807451,
        0.055355646945192516,
        0.04539994863902541,
        0.003036959763542832,
        -0.036139159867737455,
        -0.05081241941303645,
        -0.07630625210953586,
        -0.03135955146340268,
        0.037010785341294386,
        -0.0768761765618081,
        0.04031652712396233,
        0.03868438744723218,
        0.0050976043152828054,
        -0.02728834073747209,
        -0.016308271378585808,
        0.014973514636534346,
        -0.032207378060181514,
        0.04541283801502803,
        0.034249834126197545,
        -0.06028300472944959,
        -0.024890771587285497,
        -0.02528212344944085,
        -0.05204830359582044,
        -0.010398276579029406,
        -0.027667429917718186,
        0.017540797917352288,
        -0.04803141314448249,
        -0.03404353867139757,
        0.01232442683987467,
        0.07642955801304366,
        -0.010302830932022694,
        0.0406270580557377,
        0.04075173002340256,
        0.07212611364800747,
        -0.024940041019613682,
        0.05823884936105861,
        0.04282502355987705,
        -0.045280484971948406,
        -0.05636073503587818,
        -0.010724393177788838,
        0.028775469484982122,
        -0.0673192649583812,
        0.001999131520027564,
        -0.042419206287270944,
        0.06426159169780288,
        -0.04800772244973016,
        -0.016916249320285535,
        -0.029388637503088094,
        -0.05838397773387732,
        -0.03450564525354664,
        0.00602696573268012,
        -0.06915467591548723,
        -0.05176435251417758,
        0.018439478451523036,
        -0.017318124017921883,
        -0.005507068352480798,
        0.05718891186097816,
        -0.05522932750724599,
        -0.07030525735046322,
        0.07613845078141276,
        -0.050363525955094975,
        0.07495972468539469,
        0.00676447978062901,
        -0.025724099768703573,
        0.0435309198999073,
        0.022945763881151673,
        -0.004019088079413577,
        -0.054848893462368126,
        0.025449971611535685,
        0.04844397099426817,
        -0.06433296546580047,
        -0.04354430548223907,
        0.06897451871477378,
        -0.04258181397330783,
        -0.059029482726358155,
        0.05267222350595638,
        -0.013477671747247733,
        -0.04805457358541076,
        -0.07322351723474456,
        0.03608248448106155,
        0.023596515481910135,
        -0.017757419078618802,
        0.012260553390863307,
        -0.053825187933179724,
        -0.04270991775524055,
        -0.006711368984586921,
        0.007062950744125565,
        -0.049348472388935624,
        -0.045764602712873644,
        0.04557014884495539,
        -0.011677474149835304,
        -0.017251535645307348,
        0.043670890666369144,
        -0.00014782525739279184,
        -0.04963101784718989,
        -0.05104950283856057,
        0.03468984578689385,
        -0.021421124165101148,
        -0.07666004670797405,
        -0.06115816667866136,
        0.011778242266172453,
        -0.07269757834110398,
        0.06450237255868649,
        -0.05803046776731701,
        -0.04975612216292043,
        -0.009863982305251845,
        0.011661615278124246,
        -0.0026031179704839036,
        0.05949296583078062,
        0.025532521816031606,
        -0.06213859431368447,
        0.0057702965472402196,
        -0.006194644960712051,
        -0.05511372835726919,
        -0.06756369580658765,
        0.0015076650789277168,
        -0.01423350054795508,
        0.0706386222088537,
        -0.03983142320981305,
        -0.03930002017453424,
        0.007548225959141702,
        -0.0028202097698056677,
        -0.00077202651082936,
        -0.04097612719304781,
        -0.0219448535297639,
        0.01943404605245984,
        -0.009059440794183818,
        -0.06999753819206629,
        -0.022922656793405292,
        0.03010406957081141,
        -0.018401463014665012,
        -0.004394827785199146,
        -0.016483054700269797,
        -0.007942206429762982,
        -0.02091936890668445,
        -0.05094596912873335,
        -0.03284046418496564,
        0.04497665412987793,
        -0.0374323505065358,
        0.015024404828378912,
        0.043755314701504136,
        0.0010096895077307544,
        0.06174207229207432,
        -0.05358581661068312,
        0.04326694166201882,
        0.0049764417365953245,
        -0.02659286923058262,
        0.05920724742791467,
        -0.03523289373992545,
        -0.0025299289097601707,
        -0.035216443870774244,
        -0.04678370259761978,
        0.06440153769213156,
        0.04189830926140982,
        0.05067789600455322,
        -0.06720972699407586,
        0.034308190384143206,
        -0.005809572275029082,
        0.047001627369397544,
        -0.020564949165209366,
        -0.05248078488876804,
        0.009938777716995598,
        -0.016453056874056744,
        -0.02526646486348074,
        -0.035407809383896045,
        0.041881371165797626,
        0.02270297202946979,
        0.022127557131727052,
        0.038163111028770735,
        -0.029197558183380365,
        -0.06593250416805385,
        -0.018054787749231423,
        -0.05485739421939458,
        0.005599512350587504,
        0.0006393434323941072,
        -0.0025396247632767793,
        0.030978190809467787,
        0.05772963244154383,
        0.050662633016613556,
        0.0652307492004029,
        -0.03114311171086507,
        -0.04396211610479352,
        -0.061238535961571645,
        -0.07358726968840532,
        -0.008940167998797696,
        -0.05411219274631944,
        0.053435602697067874,
        0.01061677565969564,
        0.02217586445472322,
        5.5650348496083524e-05,
        0.026235179799067074,
        -0.07522504169489437,
        0.052556716181280966,
        -0.04550074434438018,
        -0.03942533235558019,
        -0.02962769342395062,
        0.004294328173540959,
        -0.06540501866982315,
        0.0758853503886085,
        0.028045316533286097,
        -0.0613084863057866,
        0.06194074530603713,
        0.04056930925429665,
        -0.033069285841534596,
        -0.04277230367137852,
        -0.03353535758342032,
        0.07449819132013605,
        -0.021819951381223432,
        0.00911086054183928,
        0.07286831653885137,
        -0.03570986268300603,
        -0.01048847340318608,
        -0.012678077374923089,
        0.025629138710334343,
        0.07606388250616106,
        0.012507816885494141,
        -0.01247805306629679,
        -0.01518884911697152,
        0.0019049627160484806,
        0.037716066797279874,
        -0.036167302605029726,
        -0.05439484028468587,
        0.06988706188745006,
        -0.01626511212516054,
        -0.04525371649690819,
        0.01204579184343385,
        -0.021558574794737898,
        -0.06025923733989448,
        -0.03495974998746752,
        0.027780565485829717,
        -0.05032753593400742,
        -0.018837177847612456,
        -0.04022023005842816,
        -0.02219311003268965,
        -0.07607393437797857,
        0.043626821692184486,
        -0.03810780997897566,
        0.07097166450344522,
        0.030455229626820624,
        0.039617355788034075,
        0.05045127142278655,
        -0.04368327871588937,
        0.019994740986076606,
        -0.05257974332937787,
        0.03974458498342667,
        -0.03722761619693994,
        0.05780311278842709,
        -0.03616000499727701,
        -0.039934578226541326,
        0.03263180536778815,
        0.01992572441791572,
        -0.021186879146674997,
        -0.06684686721019835,
        -0.002954432299334661,
        0.029896452785946354,
        0.012644826614174418,
        -0.07619309298996325,
        -0.060836014525346156,
        0.03414635529802677,
        -0.029274886403645513,
        -0.03125489021485487,
        0.009192701768765646,
        -0.03948832001159353,
        0.017299339999837154,
        -0.0031847297442207934,
        -0.055047670171620613,
        0.06966607439335931,
        -0.03976995004194407,
        0.04096190815315105,
        -0.027143145179843564,
        0.06895846178328202,
        0.03720310696686212,
        -0.04182964960051705,
        -0.04943331563746597,
        0.012776437693387835,
        -0.04269146714815869,
        0.03189374881333745,
        -0.039874871856140144,
        0.07288894812332433,
        0.04932094676496962,
        -0.0017160145331837906,
        -0.03783652413978705,
        0.04827973622319959,
        -0.020163977009055145,
        0.06865281385907407,
        0.013841363479504556,
        0.035088706795988384,
        0.046280993641199294,
        -0.025184476463592696,
        -0.028551216784455012,
        -0.008847929093422066,
        -0.07260936967689191,
        -0.015682752113057273,
        -0.03913262267738671,
        0.06153393773692897,
        -0.02232628581929319,
        -0.012473331858148681,
        -0.004321666464577489,
        0.05844237758984214,
        -0.055905527158667964,
        0.0303182707402508,
        0.020789429107674978,
        -0.023975680112972374,
        -0.027258997425489033,
        -0.030458910419842597,
        0.04662891139946029,
        -0.04733202228791824,
        0.05626403453901252,
        -0.01781690202524968,
        0.04065545870740345,
        -0.04842020472312258,
        0.06643580178742367,
        -0.05335652512293079,
        0.024397579839927713,
        -0.03995700098167963,
        -0.008299791054637448,
        0.014670547272870996,
        -0.05611279128722817,
        -0.06232290566248459,
        -0.04372439988939707,
        -0.03283699295028085,
        0.0017049552735584478,
        -0.0585035176183298,
        0.024640568827429793,
        0.013871714211147676,
        -0.031191055024459458,
        0.06155388494753897,
        0.019602756708833338,
        0.058065655338518485,
        0.05990981982647539,
        -0.0412637796887065,
        -0.003058995194788569,
        0.025095660798599456,
        -0.02419710185826269,
        -0.0034171510738106314,
        -0.011733780998787219,
        0.03207548004251176,
        0.053955307678149766,
        0.07618419762704154,
        -0.024196234770792455,
        0.0770154963750937
      ],
      [
        -0.04626930909734771,
        0.0037799529055429493,
        -0.03216062576699108,
        -0.06283926805777523,
        -0.032524749734511076,
        0.002355829225539549,
        -0.018531749863548982,
        0.0441584819880578,
        0.007263932351901314,
        0.0064383207676828175,
        0.017712455178588105,
        -0.038895892523336806,
        0.0454249173828393,
        0.048152680189325364,
        0.035714566122703684,
        0.014560906779383112,
        0.03939980713700372,
        -0.06655780408167415,
        0.06863601902772046,
        0.005742856190632653,
        0.04931910673932277,
        0.06844288452694339,
        -0.014264526402388011,
        -0.03988110995593017,
        0.034294416343266354,
        0.031104475944482082,
        0.06437696574522217,
        -0.07239527405008007,
        -0.07039041730656852,
        0.002281695392566438,
        -0.0700618710456943,
        0.047216474682557796,
        0.05481386621058376,
        0.03690498299164402,
        -0.00023345575299814347,
        -0.07338639525349909,
        -0.039320498738709464,
        0.03298079305383503,
        -0.055884235782657804,
        0.012800326679665242,
        -0.04779139964674009,
        -0.0704986276788228,
        -0.05669217851663943,
        -0.03054546654446922,
        0.030166853276041086,
        0.06716957199358803,
        -0.06785820985111463,
        -0.06555400579359488,
        -0.05509288116305769,
        0.02356917156543771,
        -0.054888907617082164,
        -0.06964334149036283,
        -0.05732464083630165,
        -0.024508765642506092,
        0.04993443149998658,
        -0.04360864340547672,
        0.04257192560786134,
        -0.01907142715529145,
        -0.017676656776221294,
        -0.03534899464992052,
        -0.00787238203068888,
        0.05947169648685893,
        -0.004765104700143963,
        -0.05192280838231231,
        0.012453940209347217,
        0.028081008221565673,
        0.00732867539262011,
        -0.054880488701697344,
        0.054528266351117266,
        -0.01679551910346369,
        0.047745167451650125,
        0.029218894301605,
        0.054575622943910496,
        -0.04995681142002732,
        -0.054722648028432325,
        0.05078216291657214,
        -0.0506423518991722,
        -0.07487517636409742,
        0.014556593510864024,
        -0.047903355975873876,
        0.05179270437794767,
        0.03210464628946853,
        -0.024487086731752643,
        -0.00753763078711682,
        -0.04729183461272725,
        -0.00994730121326319,
        -0.003827996048432661,
        -0.04611284577334279,
        0.06650666988184004,
        -0.01570148144553933,
        0.040042291514209946,
        0.008106606392823346,
        0.03874441601433212,
        -0.04859115563815229,
        -0.04020463842485989,
        -0.01799173790845715,
        0.052154207811191206,
        -0.07699140027837377,
        -0.04589284442257202,
        0.03519056496377029,
        0.02986719004315562,
        -0.04188520907357403,
        0.040198053077966686,
        -0.07371097551250622,
        0.06986588913986355,
        -0.06420582415076904,
        0.026095530796745106,
        -0.03728498171765596,
        -0.010770320735052519,
        0.02870300331387926,
        0.0497474613947102,
        -0.03586233160374988,
        0.004526408642113303,
        0.029632597677660133,
        -0.019647560813228625,
        -0.0003370083269260554,
        0.06767901892742667,
        -0.051126843264416647,
        -0.06744616558842097,
        -0.053830315664661454,
        -0.07510418717907706,
        0.021124933406138705,
        -0.023848338692037924,
        0.07133299595476916,
        0.007783459215661148,
        0.009260815123856916,
        -0.07281733568773294,
        -0.026350058623469508,
        0.011980296379401498,
        -0.07151789176904114,
        0.026795221697685223,
        -0.025385030077602955,
        0.02253583573479455,
        -0.01570143612618182,
        -0.0286818921206332,
        0.059858466654401726,
        -0.016022445984126228,
        -0.0022953863458551604,
        -0.055964447184326645,
        -0.052207206361409964,
        0.041933906355039255,
        0.020749736684278056,
        0.07156777355524083,
        -0.0375816636381907,
        0.03108873750709798,
        -0.03939343054579465,
        -0.009649409678178983,
        0.05346015776168006,
        -0.05204766817343586,
        0.0029803701505200786,
        0.07026388060767938,
        -0.03145769390758654,
        -0.028026078997955027,
        0.037923565581262975,
        -0.03332292816230563,
        0.02461755007742729,
        -0.00884238781820472,
        -0.018959709002922327,
        0.07232834294970386,
        0.03719762370908357,
        0.016787738812064412,
        -0.06806370372236817,
        0.05514438258276497,
        0.0421623054901368,
        0.05382713021261595,
        0.049142137452888424,
        0.024977479459601368,
        0.036809467297455475,
        -0.014269929093306752,
        0.012222087380292485,
        0.00338399960944169,
        0.053339795887690555,
        0.0595070132482817,
        0.03365764467686978,
        0.023776954219879978,
        -0.07324778833488176,
        -0.007434687830239803,
        0.06195094159087747,
        -4.5883752924649746e-05,
        0.05993716683592795,
        0.028854636573926548,
        0.04359889171286788,
        -0.001457459847341691,
        0.01565452687975276,
        0.009302108060486272,
        -0.0723781515956186,
        0.0019642154168362513,
        -0.07603967987288204,
        -0.0015358300879071834,
        -0.061121062504533696,
        -0.02265212890800597,
        -0.05938409553967893,
        -0.013523810408604828,
        -0.04909795128738453,
        -0.031037041115091993,
        -0.003940288310761694,
        -0.019936260174041064,
        0.07619532650951549,
        -0.02372443784331566,
        -0.01135128201801433,
        0.012336285868561447,
        -0.000872428649356341,
        0.0377082896498306,
        0.03326235621312426,
        0.05800139956173381,
        0.019473831913417436,
        -0.027969770764357117,
        0.06601996069772562,
        -0.04332971724873077,
        0.0008749089701367424,
        -0.02268778971409082,
        -0.07696172336725551,
        -0.008120829381521075,
        0.02192606117111659,
        -0.05810695073585107,
        0.05092910291599381,
        -0.04901854518166819,
        0.0480285809145988,
        -0.04218197845902815,
        0.06646182946975229,
        -0.07363455583066693,
        0.03913330496442473,
        0.01582552380724371,
        0.030685230940790537,
        0.006743983457357425,
        -0.04504604667853404,
        -0.07492905026343834,
        -0.01978420260050265,
        -0.04578919733943947,
        -0.005684606587762736,
        0.00991288600050623,
        0.030236449175390936,
        -0.07698740057690397,
        0.03615704818706619,
        0.04622102142354807,
        0.06844700475660825,
        0.038685981851780626,
        0.01474583807003374,
        -0.04945378677172162,
        0.01062066442155056,
        0.035654227584345013,
        0.03898021877991989,
        -0.052256288523780135,
        -0.013469907288320565,
        0.06884261533987504,
        -0.05579198331356734,
        0.007443506230554037,
        0.05578491541186764,
        0.032886279543381775,
        0.06666485216555126,
        0.07621228573244829,
        0.020836421961456283,
        0.0001224403314365602,
        -0.04697795142708441,
        0.009483822405097792,
        0.026677216895064484,
        0.0312813605837028,
        0.0740791586192569,
        0.03152214205017598,
        0.0022181648411254695,
        -0.06991822988136837,
        0.0011132328717677609,
        -0.004179040730406175,
        -0.018747477074885284,
        0.01807094367716948,
        -0.01416689785209227,
        -0.06912760101575231,
        -0.033961602823366015,
        -0.0696561155965387,
        -0.027887634847732726,
        -0.0060006892442595605,
        0.035110717295085206,
        -0.035139330608450633,
        -0.0063857437540387335,
        0.014201478619759067,
        -0.060354740693150874,
        -0.025832714094195568,
        -0.05532102784308758,
        0.04620733625172918,
        -0.05455310040263544,
        -0.05756826715160211,
        0.03570998287161402,
        -0.003185814428695255,
        0.019060563737169245,
        -0.033028547324512006,
        -0.050011115150941504,
        -0.01987762703306433,
        0.03311513446853158,
        -0.06807303897952283,
        0.03580321386698783,
        -0.007494455108300185,
        -0.009468199244436162,
        -0.010425809290169855,
        -0.0699740018358317,
        -0.028678188425674822,
        0.06035303738894002,
        -0.029599643594085345,
        -0.07550867252761732,
        0.06888661123670886,
        0.06656408455944823,
        -0.0060744758693503376,
        -0.019993064013877813,
        0.07112372200446762,
        -0.015989867088685855,
        -0.0344070879535109,
        0.019025353896218136,
        0.004636379607710059,
        -0.033363570036594424,
        0.032309617826694295,
        0.010158651726274004,
        -0.04542056043182985,
        0.05530202499665668,
        0.00813183703619104,
        0.034808134492137,
        -0.0750932665646933,
        0.008530369765367793,
        0.07262428388534331,
        -0.03385119918811503,
        0.04771594315098528,
        -0.03783876131558334,
        -0.014872796093359314,
        -0.0493464961947733,
        0.059554386085414024,
        0.03848322741368186,
        -0.057022506574556805,
        -0.05753579360313735,
        -0.07043533023703641,
        -0.007805950653826943,
        -5.10507310930719e-05,
        0.046102317343454574,
        0.018528898734802735,
        -0.002124875797688719,
        -0.07597013330268369,
        -0.05605552786520866,
        0.046118257348458216,
        -0.01712987000615359,
        0.0012906596017100702,
        -0.014080348099798926,
        -0.052994775761902195,
        -0.016216876339274003,
        -0.06413737589710455,
        0.015465137949771987,
        0.05853995232117315,
        0.050700302889682025,
        0.038454229143393776,
        -0.07161102198216432,
        -0.01498600086998094,
        -0.003910707947142503,
        -0.03094199020147375,
        0.028652650229057552,
        -0.0143806338720439,
        0.044495551340632045,
        0.04959911478775669,
        0.054398334512784724,
        -0.009882259210249239,
        -0.01898710685415453,
        0.0012151546402296154,
        -0.03089261882753349,
        -0.04268921567184879,
        0.015367852118383707,
        -0.02849083323202623,
        -0.01564816217684907,
        -0.07271099482936805,
        -0.0563303000423095,
        0.012721606562704463,
        0.007678720704355435,
        -0.015625500758986166,
        0.04449504324617891,
        -0.02508267205607352,
        -0.06792878402020311,
        0.04828055582848645,
        -0.005945731018947714,
        0.005150730621670582,
        0.05585716023012621,
        0.029716216588341657,
        0.03650635040248573,
        0.03216547731593733,
        0.06211574478769419,
        -0.0005529314078865505,
        -0.049806767825438636,
        -0.005989308000807769,
        0.05868263348928823,
        -0.0697604266129409,
        -0.04654628121031411,
        0.049977689679219534,
        -0.02760370286843461,
        0.025791677487952885,
        -0.008100615828593283,
        -0.03216614449244946,
        0.014193941897687343,
        -0.009566871633766669,
        -0.03161722391664825,
        0.059670436140534466,
        -0.02656332904898498,
        -0.05717745892231803,
        0.035265737871206154,
        0.005414900788812391,
        -0.07566000132241207,
        -0.0014152285418172483,
        -0.03635311001611396,
        0.008229954791954028,
        0.0036346436783552816,
        0.03136258740753785,
        0.026822294073606534,
        -0.06929468516346386,
        0.016238179930128424,
        -0.0742710360874717,
        -0.022316648189122414,
        0.06092484897324427,
        -0.00973297123886506,
        0.0361119843607591,
        -0.059003360130592784,
        0.06624871854411865,
        -0.003656173397384707,
        -0.056564869775606194,
        0.0760541827895892,
        0.0011419378560032362,
        0.07245352495796448,
        0.0430337251199967,
        0.06802802515855527,
        0.006763858540306075,
        0.0488495089023287,
        0.0400599809125123,
        0.039184073737576666,
        -0.018704865602444304,
        0.045328552153923146,
        -0.04229948998555695,
        0.053163991535904204,
        -0.03180335118143319,
        0.0182458605782453,
        -0.04767276839879636,
        -0.0544873213478943,
        -0.07424449745318873,
        0.008830376481134758,
        0.048159236530217836,
        -0.04459139825294207,
        0.04296064954473533,
        -0.06820772249526288,
        -0.031091360619705154,
        0.05670468473677978,
        -0.06069416415395813,
        0.07655284244945254,
        0.053328951739841035,
        0.033646781759899186,
        -0.04283107970505488,
        0.005992124132153331,
        -0.04238212422937812,
        0.05647935313011773,
        -0.04879876198362178,
        0.029666171908269437,
        -0.04665011044020305,
        -0.010043774217929707,
        0.04352250468171477,
        -0.024521360525249246,
        0.00494938046618873,
        0.006776814067486495,
        -0.0005633375391804474,
        -0.0041591394580541285,
        0.012832764993473467,
        0.07230273629094772,
        0.015892443603303608,
        0.035419400634062334,
        -0.04407612569193216,
        -0.03314406893248978,
        0.03214209985261776,
        -0.025194162784416288,
        0.0545064332534424,
        0.07177830307285829,
        0.05714163014812518,
        0.05061597257314562,
        0.003935286197828347,
        0.03055166506740399,
        0.05478146426155883,
        0.04409388547800745,
        -0.05580430606440943,
        0.02871608211213003,
        0.013013159913579528,
        -0.025721737358409068,
        0.02552150679731713,
        -0.07011676759831907,
        0.03398880324586419,
        -0.053085010124965984,
        0.009485588387538671,
        -0.01735869927382991,
        0.019069646400685397,
        0.015825531154104427,
        0.05669723715269301,
        -0.003742391036950593,
        0.034849017808861696,
        0.06983334833396235,
        -0.06771908224064827,
        -0.07509622330940209,
        -0.05611742663957987,
        -0.06557480373007277,
        -0.05791074507058694,
        -0.056376331408811764,
        -0.05353433464684692,
        -0.02865704213523565,
        0.06761906363874298,
        -0.015294880244592121,
        -0.027835875940985653,
        0.05674578799341551,
        0.03257905584466324,
        0.006757796392628482,
        -0.036515915138893164,
        0.04647249120237455,
        -0.0403869343051599,
        0.03754195773368918,
        0.02599944614712038,
        -0.013058417005670772,
        -0.015317130104324256,
        -0.0663747107306308,
        0.03211080455860732,
        0.0555629029224351,
        0.024363071476979636,
        -0.029139506895314755,
        -0.0019088571401109644,
        0.010994670019756278,
        0.07699912997384606,
        0.006245968158249515,
        0.04918701904354958,
        0.06206881398648029,
        0.011063259123089059,
        -0.03440324781789291,
        -0.039215229916907055,
        0.06826574972737848,
        0.0013343136300412867,
        0.05090508354283241,
        0.058011730616987056,
        0.037970590371305415,
        0.025586569782988774,
        0.0750382586889575,
        0.02612472987546982,
        0.06428186524764193,
        0.01542640888033614,
        0.030178097117899802,
        -0.06925115189226881,
        0.030301218218961562,
        0.07576178069154352,
        -0.02142344368968424,
        0.04553336935942276,
        0.04241137973583299,
        -0.04831080076551531,
        0.008620547418115895,
        0.009196141140923611,
        -0.06628060583674991,
        -0.0635333048112204,
        -0.047363946503687734,
        0.03939287463932112,
        0.0007408004066694063,
        0.055411845799101606,
        -0.06130578569240305,
        0.01925870998036848,
        0.06119869213264595,
        0.0642229032959519,
        -0.00766465597527069,
        -0.025427070484916242,
        -0.06834986151442674,
        -0.04549049318865284,
        0.047113513773069354,
        -0.031065723273806682,
        0.01918017612473434,
        -0.03868440640995885,
        -0.04284899892944696,
        -0.014402935183025461,
        -0.0265759688293161,
        0.021461530866601436,
        0.04866278565925369,
        -0.060249412718291484,
        0.03943383148969923,
        -0.015525641742203306,
        -0.02259459640651941,
        -0.06588125755861121,
        -0.027431474460320293,
        0.06913235841336474,
        0.03963089897313178,
        -0.06724811910458033,
        -0.004683270247397203,
        0.02034597328132444,
        0.012904757072548512,
        0.01931317202891153,
        -0.001999595251001629,
        0.032377530753827724,
        -0.061039026635035756,
        0.07562312771182297,
        0.01465823954296333,
        -0.07619258252136574,
        0.008724342567469442,
        0.06095391255465554,
        -0.025529205559757448,
        -0.025060950341040708,
        -0.019420059084459637,
        -0.0297589759749503,
        -0.007557359809708147,
        -0.04840934231764876,
        -0.06638000225305758,
        0.005981124826398551,
        0.0061900713058152396,
        0.05471762620741666,
        0.037533484388488164,
        0.026949073762179074,
        0.024744304623224828,
        0.07655789811650654,
        0.012677131501446032,
        -0.024355734516856742,
        0.057462828018519346,
        0.04706328855435257,
        0.06665173497216895,
        0.07166124351920969,
        -0.02988956973417365,
        -0.021618672307322784,
        0.04037283943828271,
        0.07243652428839509,
        -0.02853429072554614,
        0.0054303469459405646,
        -0.05151634357186118,
        0.021559000064128184,
        0.03939333658348816,
        -0.027792186901995385,
        0.06898571218090185,
        -0.007412692099282761,
        0.046360329636526657,
        0.02354913933635419,
        -0.0197848762362033,
        -0.0023152582240867636,
        -0.02120509341180827,
        0.06620901157506182,
        0.06951112894579053,
        -0.020876029853797023,
        0.055286378465732255,
        -0.026570831585013666,
        -0.0005255031603826205,
        0.0704005012621319,
        -0.025486902485330337,
        0.0421238889992932,
        0.046203548619414156,
        0.011096888377552322,
        0.02089688544593711,
        -0.0165045875372994,
        -0.0306120832592216,
        -0.03873629523874376,
        0.0528790935635636,
        -0.009571048265973617,
        0.054868239621917086,
        0.0023735869726383974,
        -0.04901545692150655,
        0.019377151388705216,
        0.03471840350941788,
        0.0764969692415487,
        -0.05057747584123302,
        0.04245023816783902,
        0.06895601428293935,
        0.03630099873165751,
        0.030597704469099526,
        -0.04221457650453561,
        -0.013758422599275594,
        -0.02781217641893969,
        -0.05790951494768484,
        -0.059167682621631114,
        -0.013430301294791627,
        0.023879754564700928,
        -0.025672544778432803,
        -0.022938372856801698,
        0.039984268761439304,
        -0.04673092603564353,
        0.045194116504088555,
        0.04803618690600636,
        -0.041982806656415864,
        -0.07368721187529065,
        -0.04724262210612376,
        -0.06372017339578327,
        0.03838985568806534,
        -0.06019213780457812,
        -0.017781559898752124,
        0.04343053554368076,
        0.019989887422291325,
        0.022056310694805167,
        0.06412580886084818,
        0.04712495418134165,
        -0.07071975549054187,
        0.042508024119108936,
        0.05084761331055518,
        0.02878073254778253,
        -0.041677569721250966,
        0.06453362980630059,
        0.052214955287628206,
        -0.010084822902790058,
        0.06765135013046822,
        -0.06277792952918516,
        -0.009448171319739032,
        0.021741756934729684,
        -0.007123433449651453,
        0.018219119261394967,
        0.02833196172569881,
        -0.05826637402858685,
        0.039439164965911544,
        0.037281281316216025,
        0.02727402491799376,
        0.007185731501340095,
        0.017798252787309315,
        -0.028670283156018384,
        0.009269148649663467,
        -0.03187676204742908,
        -0.0026746965129693517,
        0.0063294533193732905,
        -0.035994553238435485,
        -0.032775843915988916,
        -0.05972715532051051,
        -0.014961481141635612,
        -0.046886598279600074,
        -0.03486702134730761,
        -0.061301648738470924,
        -0.016302131047932857,
        0.008988367981906373,
        0.02614853775064245,
        -0.05181001334360055,
        0.002418643421425573,
        0.030061345285733357,
        0.06066553413433498,
        -0.06075019928829627,
        0.05705974234588723,
        0.01905002413845225,
        -0.055379295204593046,
        -0.06256738232316167,
        -0.0502042195305024,
        0.026019369442764118,
        0.016144637731863448,
        -0.0512529921607244,
        0.05704921594784651,
        -0.02699446984120652,
        -0.04885621364265777,
        0.06767695667584064,
        0.00624100370329525,
        -0.025770848480851483,
        -0.010924533512957232,
        0.025372401867370067,
        0.050780481469751004,
        -0.051856136325607094,
        0.021495209862141276,
        -0.01614687223766588,
        0.0656815403658903,
        -0.007051579287976048,
        -0.009750055208787425,
        -0.04536589323412027,
        0.043463737803103156,
        0.0753302989166493,
        -0.07294340179755247,
        -0.04551496223415301,
        0.04951338632788446,
        0.018983540397970386,
        -0.029636151033448674,
        -0.02078212229096596,
        0.07250529935681513,
        -0.02980924840356841,
        -0.017974718345370004,
        -0.020873284476102656,
        0.029381418135021528,
        -0.05171938805850187,
        -0.017950203230627286,
        0.0030935164744377436,
        -0.03740135800596387,
        -0.07588895732555878,
        -0.057833177092915994,
        0.04717787592888163,
        -0.04148227752233229,
        0.0020931749143441175,
        -0.05384863417448739,
        0.05483027107484964,
        -0.013247029831169488,
        -0.005549395566966764,
        -0.07276881026450906,
        0.06129859876763566,
        -0.05111018660456786,
        -0.0666079606929011,
        -0.03788041965439479,
        0.07584447832465877,
        0.019814692450400698,
        -0.05025274307859142,
        -0.0014273871376191405,
        -0.050936641655933285,
        0.06416422761342866,
        -0.006286295746711024,
        0.05975077484730998,
        -0.04218685620632249,
        -0.011763001644951643,
        -0.013387190956398079,
        -0.058291328398120776,
        -0.06461009300036118,
        0.03367867434952028,
        0.006006990319712233,
        0.06278461078637076,
        0.06992305245503039,
        -0.06823822871222694,
        0.038849904674765456,
        0.06595486755847424,
        0.07154534415041316,
        0.028422942441053714,
        -0.03521927410637843,
        -0.07075318603257527,
        0.06834515998239438,
        0.06299238925039138,
        -0.026958878937816115,
        0.003555026701003536,
        -0.06949372599874304,
        -0.034243173278101086,
        0.033248084919979895,
        -0.016908436889315384,
        -0.0015792949616312418,
        0.027561778163401926,
        -0.05939668263471976,
        0.0706459237872851,
        0.004918903912455377,
        0.06203791787815949,
        0.02478488314256104,
        -0.038934555331947875,
        -0.07039160447437995,
        -0.010702504651535064,
        0.009477084742421218,
        0.020018961981098413,
        0.005760542421070547,
        0.012427872431424555,
        -0.007512404174668613,
        -0.06391476227484283,
        -0.025245395915379533,
        -0.0010570345026079814,
        0.05391734341721105,
        -0.045701725209086885,
        -0.00017650709767752515,
        0.030161263306861072,
        0.05465321115119151,
        0.06207203780189596,
        -0.057375458420335514,
        -0.0769295315029765,
        -0.04183389137255105,
        -0.06777571202203063,
        0.06028455162266888,
        0.030617146484832422,
        0.0017488439966106412,
        -0.006821129675137219,
        0.07337213172154061,
        0.0076202067957779895,
        -0.05725442971976711,
        -0.07326705024148189,
        0.04188613309008646,
        0.05211432555342996,
        0.05191118071557224,
        -0.017753226698639227,
        4.6783491428697976e-05,
        0.04959837016876206,
        -0.0444957731646671,
        -0.06288325515804187,
        0.02761965124617434,
        0.022599774765009822,
        0.04709666182992513,
        0.016682288507534337,
        -0.06568737988225257,
        -0.02538780407616125,
        -0.05161267098893022,
        0.025276945921452562,
        0.025344058754801918,
        0.04924873772077493,
        -0.07666419178562436,
        0.04909550354467465,
        0.00027947355521290573,
        -0.07611022876583855,
        -0.07107649404019013,
        -0.05020809197808597,
        0.050961343162102546,
        0.01563472567520746,
        0.0036108586067983284,
        -0.053817165749871054,
        -0.030502236029349684,
        -0.021294190417977234,
        0.04965634790691245,
        0.07397178546745786,
        -0.01825025639136068,
        0.01432762038861024,
        -0.03288259073194328,
        -0.014149451610562372,
        0.02588667278474971,
        0.053660538341745,
        0.07342517828707623,
        0.011436291694867207,
        -0.029812420775733157,
        -0.0011602676818328606,
        -0.024193978651094773,
        -0.035769508226798405,
        0.03268894419280774,
        -0.06718812059057212,
        -0.06362845870854925,
        0.07016714719471792,
        -0.0034037671656492324,
        -0.011190592481641809,
        0.0679996022034112,
        0.016784349184863046,
        -0.0499853093816056,
        -0.037881582875253395,
        0.02012682785548607,
        -0.03067858920377299,
        -0.012788864155718893,
        0.0010645378656902044,
        0.004286894256078214,
        -0.02776953137345828,
        0.07233406528444433,
        -0.039343250271891964,
        0.06540542904385777,
        -0.0632370155889554,
        0.057316897826130864,
        -0.06450131127320338,
        -0.07133889503153762,
        0.027588570734313547,
        -0.07156499337493871,
        0.01936193037506763,
        0.03292916684342671,
        0.02214165395307674,
        0.0510385863053765,
        -0.022821760687257463,
        0.05229983904053323,
        0.0410097595068631,
        -0.04481850560931664,
        -0.053761700027819256,
        0.04675122042056444,
        0.02034337767865904,
        0.07448634233797871,
        -0.06564341219993682,
        0.07300212832067973,
        -0.07067872801713505,
        -0.0181847659797314,
        -0.032275460369131384,
        -0.034023668810925584,
        0.06208926153170105,
        0.012198788523965942,
        -0.01831415482893052,
        -0.07694557030224923,
        -0.01770229949057569,
        -0.0679084467797601,
        0.013762009392735322,
        0.03368404033676191,
        0.0474159932852503,
        0.05921666163108852,
        -0.03031231167635428,
        -0.06724344093634196,
        0.04095435406142091,
        0.06331688880867775,
        0.036298317914032,
        -0.07382580900130764,
        0.059676895317094275,
        0.016633438697307143,
        0.018797053381574225,
        0.020125473898801163,
        -0.03733818375796565,
        -0.0672083940521765,
        0.012377316418635306,
        0.061834764380910845,
        -0.05591584146949409,
        0.05849549650715721,
        -0.00231067038853984,
        0.02640822037175676,
        -0.055261146328213606,
        0.021014680855814594,
        -0.05849654299556928,
        -0.022863507345110064,
        0.028347080193798974,
