{
  "num_class": 10,
  "num_hidden": 1000,
  "num_visible": 20,
  "params": {
    "bias_b": [
      0.0,
      0.0,
      0.0,
      0.0,
      0.0,
      0.0,
      0.0,
      0.0,
      0.0,
      0.0
    ],
    "bias_c": [
      0.0,
      0.0,
      0.0,
      0.0,
      0.0,
      0.0,
      0.0,
      0.0,
      0.0,
      0.0,
      0.0,
      0.0,
      0.0,
      0.0,
      0.0,
      0.0,
      0.0,
      0.0,
      0.0,
      0.0,
      0.0,
      0.0,
      0.0,
      0.0,
      0.0,
      0.0,
      0.0,
      0.0,
      0.0,
      0.0,
      0.0,
      0.0,
      0.0,
      0.0,
      0.0,
      0.0,
      0.0,
      0.0,
      0.0,
      0.0,
      0.0,
      0.0,
      0.0,
      0.0,
      0.0,
      0.0,
      0.0,
      0.0,
      0.0,
      0.0,
      0.0,
      0.0,
      0.0,
      0.0,
      0.0,
      0.0,
      0.0,
      0.0,
      0.0,
      0.0,
      0.0,
      0.0,
      0.0,
      0.0,
      0.0,
      0.0,
      0.0,
      0.0,
      0.0,
      0.0,
      0.0,
      0.0,
      0.0,
      0.0,
      0.0,
      0.0,
      0.0,
      0.0,
      0.0,
      0.0,
      0.0,
      0.0,
      0.0,
      0.0,
      0.0,
      0.0,
      0.0,
      0.0,
      0.0,
      0.0,
      0.0,
      0.0,
      0.0,
      0.0,
      0.0,
      0.0,
      0.0,
      0.0,
      0.0,
      0.0,
      0.0,
      0.0,
      0.0,
      0.0,
      0.0,
      0.0,
      0.0,
      0.0,
      0.0,
      0.0,
      0.0,
      0.0,
      0.0,
      0.0,
      0.0,
      0.0,
      0.0,
      0.0,
      0.0,
      0.0,
      0.0,
      0.0,
      0.0,
      0.0,
      0.0,
      0.0,
      0.0,
      0.0,
      0.0,
      0.0,
      0.0,
      0.0,
      0.0,
      0.0,
      0.0,
      0.0,
      0.0,
      0.0,
      0.0,
      0.0,
      0.0,
      0.0,
      0.0,
      0.0,
      0.0,
      0.0,
      0.0,
      0.0,
      0.0,
      0.0,
      0.0,
      0.0,
      0.0,
      0.0,
      0.0,
      0.0,
      0.0,
      0.0,
      0.0,
      0.0,
      0.0,
      0.0,
      0.0,
      0.0,
      0.0,
      0.0,
      0.0,
      0.0,
      0.0,
      0.0,
      0.0,
      0.0,
      0.0,
      0.0,
      0.0,
      0.0,
      0.0,
      0.0,
      0.0,
      0.0,
      0.0,
      0.0,
      0.0,
      0.0,
      0.0,
      0.0,
      0.0,
      0.0,
      0.0,
      0.0,
      0.0,
      0.0,
      0.0,
      0.0,
      0.0,
      0.0,
      0.0,
      0.0,
      0.0,
      0.0,
      0.0,
      0.0,
      0.0,
      0.0,
      0.0,
      0.0,
      0.0,
      0.0,
      0.0,
      0.0,
      0.0,
      0.0,
      0.0,
      0.0,
      0.0,
      0.0,
      0.0,
      0.0,
      0.0,
      0.0,
      0.0,
      0.0,
      0.0,
      0.0,
      0.0,
      0.0,
      0.0,
      0.0,
      0.0,
      0.0,
      0.0,
      0.0,
      0.0,
      0.0,
      0.0,
      0.0,
      0.0,
      0.0,
      0.0,
      0.0,
      0.0,
      0.0,
      0.0,
      0.0,
      0.0,
      0.0,
      0.0,
      0.0,
      0.0,
      0.0,
      0.0,
      0.0,
      0.0,
      0.0,
      0.0,
      0.0,
      0.0,
      0.0,
      0.0,
      0.0,
      0.0,
      0.0,
      0.0,
      0.0,
      0.0,
      0.0,
      0.0,
      0.0,
      0.0,
      0.0,
      0.0,
      0.0,
      0.0,
      0.0,
      0.0,
      0.0,
      0.0,
      0.0,
      0.0,
      0.0,
      0.0,
      0.0,
      0.0,
      0.0,
      0.0,
      0.0,
      0.0,
      0.0,
      0.0,
      0.0,
      0.0,
      0.0,
      0.0,
      0.0,
      0.0,
      0.0,
      0.0,
      0.0,
      0.0,
      0.0,
      0.0,
      0.0,
      0.0,
      0.0,
      0.0,
      0.0,
      0.0,
      0.0,
      0.0,
      0.0,
      0.0,
      0.0,
      0.0,
      0.0,
      0.0,
      0.0,
      0.0,
      0.0,
      0.0,
      0.0,
      0.0,
      0.0,
      0.0,
      0.0,
      0.0,
      0.0,
      0.0,
      0.0,
      0.0,
      0.0,
      0.0,
      0.0,
      0.0,
      0.0,
      0.0,
      0.0,
      0.0,
      0.0,
      0.0,
      0.0,
      0.0,
      0.0,
      0.0,
      0.0,
      0.0,
      0.0,
      0.0,
      0.0,
      0.0,
      0.0,
      0.0,
      0.0,
      0.0,
      0.0,
      0.0,
      0.0,
      0.0,
      0.0,
      0.0,
      0.0,
      0.0,
      0.0,
      0.0,
      0.0,
      0.0,
      0.0,
      0.0,
      0.0,
      0.0,
      0.0,
      0.0,
      0.0,
      0.0,
      0.0,
      0.0,
      0.0,
      0.0,
      0.0,
      0.0,
      0.0,
      0.0,
      0.0,
      0.0,
      0.0,
      0.0,
      0.0,
      0.0,
      0.0,
      0.0,
      0.0,
      0.0,
      0.0,
      0.0,
      0.0,
      0.0,
      0.0,
      0.0,
      0.0,
      0.0,
      0.0,
      0.0,
      0.0,
      0.0,
      0.0,
      0.0,
      0.0,
      0.0,
      0.0,
      0.0,
      0.0,
      0.0,
      0.0,
      0.0,
      0.0,
      0.0,
      0.0,
      0.0,
      0.0,
      0.0,
      0.0,
      0.0,
      0.0,
      0.0,
      0.0,
      0.0,
      0.0,
      0.0,
      0.0,
      0.0,
      0.0,
      0.0,
      0.0,
      0.0,
      0.0,
      0.0,
      0.0,
      0.0,
      0.0,
      0.0,
      0.0,
      0.0,
      0.0,
      0.0,
      0.0,
      0.0,
      0.0,
      0.0,
      0.0,
      0.0,
      0.0,
      0.0,
      0.0,
      0.0,
      0.0,
      0.0,
      0.0,
      0.0,
      0.0,
      0.0,
      0.0,
      0.0,
      0.0,
      0.0,
      0.0,
      0.0,
      0.0,
      0.0,
      0.0,
      0.0,
      0.0,
      0.0,
      0.0,
      0.0,
      0.0,
      0.0,
      0.0,
      0.0,
      0.0,
      0.0,
      0.0,
      0.0,
      0.0,
      0.0,
      0.0,
      0.0,
      0.0,
      0.0,
      0.0,
      0.0,
      0.0,
      0.0,
      0.0,
      0.0,
      0.0,
      0.0,
      0.0,
      0.0,
      0.0,
      0.0,
      0.0,
      0.0,
      0.0,
      0.0,
      0.0,
      0.0,
      0.0,
      0.0,
      0.0,
      0.0,
      0.0,
      0.0,
      0.0,
      0.0,
      0.0,
      0.0,
      0.0,
      0.0,
      0.0,
      0.0,
      0.0,
      0.0,
      0.0,
      0.0,
      0.0,
      0.0,
      0.0,
      0.0,
      0.0,
      0.0,
      0.0,
      0.0,
      0.0,
      0.0,
      0.0,
      0.0,
      0.0,
      0.0,
      0.0,
      0.0,
      0.0,
      0.0,
      0.0,
      0.0,
      0.0,
      0.0,
      0.0,
      0.0,
      0.0,
      0.0,
      0.0,
      0.0,
      0.0,
      0.0,
      0.0,
      0.0,
      0.0,
      0.0,
      0.0,
      0.0,
      0.0,
      0.0,
      0.0,
      0.0,
      0.0,
      0.0,
      0.0,
      0.0,
      0.0,
      0.0,
      0.0,
      0.0,
      0.0,
      0.0,
      0.0,
      0.0,
      0.0,
      0.0,
      0.0,
      0.0,
      0.0,
      0.0,
      0.0,
      0.0,
      0.0,
      0.0,
      0.0,
      0.0,
      0.0,
      0.0,
      0.0,
      0.0,
      0.0,
      0.0,
      0.0,
      0.0,
      0.0,
      0.0,
      0.0,
      0.0,
      0.0,
      0.0,
      0.0,
      0.0,
      0.0,
      0.0,
      0.0,
      0.0,
      0.0,
      0.0,
      0.0,
      0.0,
      0.0,
      0.0,
      0.0,
      0.0,
      0.0,
      0.0,
      0.0,
      0.0,
      0.0,
      0.0,
      0.0,
      0.0,
      0.0,
      0.0,
      0.0,
      0.0,
      0.0,
      0.0,
      0.0,
      0.0,
      0.0,
      0.0,
      0.0,
      0.0,
      0.0,
      0.0,
      0.0,
      0.0,
      0.0,
      0.0,
      0.0,
      0.0,
      0.0,
      0.0,
      0.0,
      0.0,
      0.0,
      0.0,
      0.0,
      0.0,
      0.0,
      0.0,
      0.0,
      0.0,
      0.0,
      0.0,
      0.0,
      0.0,
      0.0,
      0.0,
      0.0,
      0.0,
      0.0,
      0.0,
      0.0,
      0.0,
      0.0,
      0.0,
      0.0,
      0.0,
      0.0,
      0.0,
      0.0,
      0.0,
      0.0,
      0.0,
      0.0,
      0.0,
      0.0,
      0.0,
      0.0,
      0.0,
      0.0,
      0.0,
      0.0,
      0.0,
      0.0,
      0.0,
      0.0,
      0.0,
      0.0,
      0.0,
      0.0,
      0.0,
      0.0,
      0.0,
      0.0,
      0.0,
      0.0,
      0.0,
      0.0,
      0.0,
      0.0,
      0.0,
      0.0,
      0.0,
      0.0,
      0.0,
      0.0,
      0.0,
      0.0,
      0.0,
      0.0,
      0.0,
      0.0,
      0.0,
      0.0,
      0.0,
      0.0,
      0.0,
      0.0,
      0.0,
      0.0,
      0.0,
      0.0,
      0.0,
      0.0,
      0.0,
      0.0,
      0.0,
      0.0,
      0.0,
      0.0,
      0.0,
      0.0,
      0.0,
      0.0,
      0.0,
      0.0,
      0.0,
      0.0,
      0.0,
      0.0,
      0.0,
      0.0,
      0.0,
      0.0,
      0.0,
      0.0,
      0.0,
      0.0,
      0.0,
      0.0,
      0.0,
      0.0,
      0.0,
      0.0,
      0.0,
      0.0,
      0.0,
      0.0,
      0.0,
      0.0,
      0.0,
      0.0,
      0.0,
      0.0,
      0.0,
      0.0,
      0.0,
      0.0,
      0.0,
      0.0,
      0.0,
      0.0,
      0.0,
      0.0,
      0.0,
      0.0,
      0.0,
      0.0,
      0.0,
      0.0,
      0.0,
      0.0,
      0.0,
      0.0,
      0.0,
      0.0,
      0.0,
      0.0,
      0.0,
      0.0,
      0.0,
      0.0,
      0.0,
      0.0,
      0.0,
      0.0,
      0.0,
      0.0,
      0.0,
      0.0,
      0.0,
      0.0,
      0.0,
      0.0,
      0.0,
      0.0,
      0.0,
      0.0,
      0.0,
      0.0,
      0.0,
      0.0,
      0.0,
      0.0,
      0.0,
      0.0,
      0.0,
      0.0,
      0.0,
      0.0,
      0.0,
      0.0,
      0.0,
      0.0,
      0.0,
      0.0,
      0.0,
      0.0,
      0.0,
      0.0,
      0.0,
      0.0,
      0.0,
      0.0,
      0.0,
      0.0,
      0.0,
      0.0,
      0.0,
      0.0,
      0.0,
      0.0,
      0.0,
      0.0,
      0.0,
      0.0,
      0.0,
      0.0,
      0.0,
      0.0,
      0.0,
      0.0,
      0.0,
      0.0,
      0.0,
      0.0,
      0.0,
      0.0,
      0.0,
      0.0,
      0.0,
      0.0,
      0.0,
      0.0,
      0.0,
      0.0,
      0.0,
      0.0,
      0.0,
      0.0,
      0.0,
      0.0,
      0.0,
      0.0,
      0.0,
      0.0,
      0.0,
      0.0,
      0.0,
      0.0,
      0.0,
      0.0,
      0.0,
      0.0,
      0.0,
      0.0,
      0.0,
      0.0,
      0.0,
      0.0,
      0.0,
      0.0,
      0.0,
      0.0,
      0.0,
      0.0,
      0.0,
      0.0,
      0.0,
      0.0,
      0.0,
      0.0,
      0.0,
      0.0,
      0.0,
      0.0,
      0.0,
      0.0,
      0.0,
      0.0,
      0.0,
      0.0,
      0.0,
      0.0,
      0.0,
      0.0,
      0.0,
      0.0,
      0.0,
      0.0,
      0.0,
      0.0,
      0.0,
      0.0,
      0.0,
      0.0,
      0.0,
      0.0,
      0.0,
      0.0,
      0.0,
      0.0,
      0.0,
      0.0,
      0.0,
      0.0,
      0.0,
      0.0,
      0.0,
      0.0,
      0.0,
      0.0,
      0.0,
      0.0,
      0.0,
      0.0,
      0.0,
      0.0,
      0.0,
      0.0,
      0.0,
      0.0,
      0.0,
      0.0,
      0.0,
      0.0,
      0.0,
      0.0,
      0.0,
      0.0,
      0.0,
      0.0,
      0.0,
      0.0,
      0.0,
      0.0,
      0.0,
      0.0,
      0.0,
      0.0,
      0.0,
      0.0,
      0.0,
      0.0,
      0.0,
      0.0,
      0.0,
      0.0,
      0.0,
      0.0,
      0.0,
      0.0,
      0.0,
      0.0,
      0.0,
      0.0,
      0.0,
      0.0,
      0.0,
      0.0,
      0.0,
      0.0,
      0.0,
      0.0,
      0.0,
      0.0
    ],
    "weight_w": [
      [
        0.04206726335258133,
        0.008508529614742744,
        -0.07061776836374045,
        0.05263609413272766,
        0.014405413197117745,
        -0.024747773278126745,
        -0.01643270851961151,
        -0.04799342438558493,
        -0.06274959051935265,
        -0.0022496767355503905,
        -0.07626151356430587,
        -0.02312593983205377,
        0.07051061835120606,
        0.017366449959823074,
        0.010066227058463731,
        -0.03702898550767719,
        -0.014231459746643652,
        0.020814419478581647,
        0.030029657705113857,
        -0.02208592926729778,
        0.020196446451061986,
        0.06408146445469579,
        -0.06863149846481566,
        -0.02616281535119447,
        -0.06316020156261114,
        0.0020357355249360776,
        -0.022683791377467066,
        -0.013696140326845394,
        0.052010512672407166,
        0.029926911514255555,
        0.007483642990373171,
        -0.0533017596420741,
        0.05488553707406518,
        -0.009644405879258022,
        -0.006147284434116357,
        0.021159261167482665,
        -0.001220066370756459,
        -0.021888204134084897,
        -0.03864981265902394,
        -0.06967981279329769,
        0.039112622348895565,
        0.06841447785159824,
        -0.07214784996833429,
        0.07278952957484505,
        -0.025499955017377833,
        0.022334962339726164,
        -0.06383928798304178,
        -0.04062745984890665,
        0.058991909640393664,
        -0.05944049917211769,
        0.03826361976769953,
        0.041307960375444625,
        -0.063658031256456,
        0.01773387610922575,
        -0.05215279395179942,
        -0.0725990090828898,
        0.06824406625809024,
        0.02997731224536515,
        0.03937106578494824,
        -0.03643791883815218,
        -0.059150369353822625,
        -0.03115316524002673,
        -0.04074516995936699,
        -0.014494000309579924,
        0.003706840212851073,
        0.046889870721417315,
        -0.0061293862705807806,
        -0.05015528008965563,
        0.056176532757450354,
        -0.0064108385032130705,
        0.0611539940836541,
        0.050721971578052666,
        0.028766924540052488,
        0.008745418717779965,
        0.04728614041164671,
        0.07378600890591247,
        0.0720446490296194,
        0.007085975020794624,
        -0.054246432719591314,
        -0.06409952911376969,
        -0.0011484667998509362,
        0.057972934585085706,
        -0.011351152325213026,
        -0.002564621579103518,
        -0.03226360156107348,
        -0.0353649519500156,
        -0.07325720689338008,
        0.01959013913717368,
        -0.013899890188042371,
        0.07707054849660958,
        -0.025681662818489312,
        0.05393789480225891,
        0.043889492073137235,
        -0.01251816770826128,
        0.02004978065665286,
        0.03472482916546843,
        -0.01529464698498146,
        -0.007448301196117557,
        0.05767868067533258,
        0.023942925755665936,
        -0.05810382956278373,
        0.028296029210605034,
        -0.053945854801746594,
        0.034445068551330935,
        0.061018139204438354,
        -0.0639387854908008,
        0.054355240368945346,
        0.06944538354330654,
        0.06167736252221087,
        0.008947787344560837,
        0.013533004840153282,
        -0.04204742305693115,
        0.04574087261078846,
        -0.026047140451502283,
        0.032828531659814836,
        0.07360383266865503,
        -0.013659274647815259,
        0.027355470872096735,
        0.021920241046858205,
        0.04365068473227776,
        0.018999425235824513,
        -0.04724614953367556,
        0.047093144158711533,
        0.031648859075228006,
        0.06370462601209115,
        -0.0292120912420474,
        -0.034901316542620624,
        -0.05243956461837078,
        0.011564787002162707,
        0.03935882156623452,
        0.026274299955461183,
        0.027173423527215343,
        -0.044072829082996916,
        -0.0626330969999235,
        -0.022011818363537508,
        0.03375139061738841,
        0.025793234065332876,
        -0.016845777377519217,
        0.03129877155440457,
        0.01769137152375415,
        -0.06260697421555639,
        0.05954577868283281,
        -0.07160278912948055,
        0.07450287049200963,
        0.07649087402400276,
        -0.0534673402806312,
        0.05101517862492683,
        0.018990287667170452,
        0.008558275912763508,
        0.04567336934183917,
        -0.07015784310973858,
        -0.03258663718195324,
        0.03693063871042715,
        -0.0721957188687358,
        -0.005692708681988165,
        -0.041915163710212616,
        -0.07395361685567405,
        0.057116891803875525,
        -0.059378474738970496,
        -0.011344807234743001,
        -0.022683243093271452,
        0.041417874200349744,
        -0.032943059475202235,
        0.013109495522540468,
        0.02245639466014246,
        0.058626951330271626,
        0.05341665673113846,
        -0.015611757741871277,
        0.019981082845058673,
        -0.0733338747321855,
        0.045560230987035086,
        -0.05631046493569904,
        0.06717200333015033,
        0.06510570382250963,
        -0.0026464165299349,
        -0.057207252190515895,
        -0.025373428982602926,
        -0.011428764776683517,
        -0.015881065864996803,
        -0.015124708529672404,
        0.059413107047284364,
        0.06631995636934687,
        -0.007964321073118855,
        0.0019214209902936041,
        -0.03407125666610451,
        -0.06782305205324435,
        0.0634885414524741,
        -0.05155696732473714,
        0.011761569614621062,
        0.019489812538390786,
        0.03868754234533514,
        -0.02387778064081559,
        0.01575031991009042,
        -0.07203495863832587,
        -0.002842882276282016,
        -0.021928369401514082,
        0.013795053679192773,
        -0.0549700536460758,
        0.04351365457003489,
        0.06521748273238451,
        -0.029025131560605724,
        -0.06939193145008285,
        -0.06095274079956044,
        -0.034293565935229496,
        0.044465650497078346,
        0.011166122009803936,
        0.052584471419180684,
        0.03550606300224379,
        0.02238227915407001,
        0.01826987309350174,
        0.058294948367669325,
        -0.05033929644330767,
        0.053900060156219176,
        0.059425664792000565,
        -0.05937418688287649,
        -0.05181761614492092,
        -0.03245250360121572,
        0.01258263129664794,
        -0.06577238291456604,
        -0.0021534935905681007,
        -0.07099421737715578,
        -0.009379399415550355,
        -0.028574872144695146,
        -0.06468711195503796,
        -0.004514875069896063,
        0.030306548699989944,
        -0.004219630795323517,
        0.050170142254310685,
        0.07572887544462872,
        0.06694404441950708,
        -0.025208124034066602,
        0.05057992530217509,
        -0.020529161128511636,
        -0.06612978244472799,
        -0.043723364945455014,
        -0.014434532285070148,
        0.0709526933742419,
        0.06668168538659144,
        0.026376564289773974,
        0.06614502224244032,
        0.04414014786129454,
        -0.03656648609954986,
        -0.013113762664962975,
        -0.014730338814829831,
        -0.0058159820259461315,
        0.07106500580924602,
        -0.008886818835443164,
        -0.060027316020181354,
        0.025837308285591665,
        0.05543325049531589,
        -0.019973686893453087,
        -0.008382402653535945,
        0.06454914523529329,
        0.05845925105539221,
        0.06429414416212245,
        -0.03836716756608165,
        -0.04555331931172806,
        0.005668564218358166,
        0.02319463074898581,
        -0.029260851032318756,
        -0.07133311684321796,
        -0.0007623252984967216,
        0.04602811350408094,
        0.06999864077533277,
        0.003546694079082771,
        0.06387897611934121,
        -0.010922335650911039,
        0.0234427080124031,
        -0.001955857065850275,
        -0.03621655094910443,
        0.03896326667800272,
        0.04301997226334124,
        -0.07140895570362339,
        -0.041408420699227476,
        0.0690406129215308,
        0.03337165158710556,
        0.053786203303372415,
        -0.03795079647084042,
        -0.06781678666029259,
        -0.025132274394308853,
        -0.022998858162017674,
        -0.030340497880926222,
        -0.06398957075415512,
        -0.061381032375690536,
        0.05588256133307029,
        -0.011321876414721946,
        0.06642024091819487,
        -0.0412533039709102,
        0.062473805416545014,
        -0.0053098086024186975,
        -0.034252455688485034,
        0.058870541666863424,
        0.03706004192140967,
        -0.011169897403116691,
        -0.061810018543452534,
        0.01869461814937466,
        -0.03921906444598046,
        -0.07138639000689355,
        0.03780542724579364,
        0.012036265099976379,
        0.06939077677622996,
        -0.038112524844591426,
        -0.07641651563103037,
        -0.022390597716939797,
        0.022437603601193165,
        -0.009250855330098728,
        0.0167251918139298,
        -0.06165037898053174,
        -0.032688174301962684,
        -0.07437420740876875,
        0.04130044566434471,
        -0.06624415145489602,
        -0.014541678411087722,
        0.02806941638728437,
        0.03533833924203979,
        0.0037327414859590208,
        -0.041487021042040426,
        -0.05885372821582881,
        0.03883346852819121,
        0.05845391976180214,
        0.04484421493131312,
        -0.008788904567900296,
        0.04085103720163996,
        -0.03158594142767625,
        0.020344169508553375,
        0.00853890998797148,
        0.05535597633709577,
        -0.028815486300658368,
        -0.07512979542259289,
        0.04860803292938831,
        -0.07279415206151031,
        0.05012419102490159,
        0.05574717481431812,
        -0.06902358487529694,
        -0.03355013876427938,
        -0.06128786646885638,
        -0.07246609422270124,
        -0.06532674940312858,
        0.007423417948303035,
        0.054615752145433294,
        0.042761263438986535,
        -0.020457793476567947,
        0.0454366539936541,
        -0.06607524983313143,
        0.05601790599162906,
        0.03361382350534149,
        -0.06821244642489528,
        0.03318944940952723,
        0.01208407005664168,
        -0.03864594608112928,
        0.0036275896426756077,
        0.048023010206616895,
        0.059697134179400535,
        0.0013812270562206658,
        0.06083038398942306,
        -0.028270765847848704,
        0.027636171428097267,
        -0.00857751826022686,
        0.0006875928708120899,
        0.0028022023747855535,
        -0.06326084562052063,
        -0.06792519595311389,
        -0.054249289396260614,
        0.007413154355399992,
        -0.0104924874745978,
        0.02345056821071463,
        0.016680476256309015,
        -0.05002526646349108,
        0.04409783282212969,
        0.06954429635720327,
        0.06863350086611372,
        -0.012905913376178108,
        -0.04568819876279103,
        -0.05889214661755677,
        0.054914695521417645,
        -0.031805396647383945,
        0.0014257407888652734,
        -0.03310054022696261,
        -0.03075543471496142,
        0.013598444482318076,
        0.03414383036926617,
        -0.07629691113120743,
        0.0010710159830744914,
        -0.008193495002547069,
        -0.010352845916883444,
        -0.030139425291590596,
        -0.03451059745528002,
        0.03125202889471797,
        -0.04668701555617529,
        0.0755147413296188,
        0.0034885515614142826,
        -0.00757473346746157,
        -0.017482952212716438,
        0.022266473170312495,
        0.07184890945511652,
        -0.051954983877222534,
        -0.0639614008928269,
        -0.06466107662808311,
        -0.019262218493443853,
        0.012595462503798754,
        -0.040855475856054084,
        -0.0674223097243008,
        -0.07416895396652798,
        0.04336559853025383,
        -0.03091657468352038,
        -0.05825902486259061,
        0.0037604423036068924,
        0.0071876884765052634,
        -0.030876249484894695,
        -0.06677058742971283,
        0.05190634292866858,
        0.05206447681578569,
        0.005939000643582465,
        -0.047945913493601035,
        -0.029822955476639636,
        -0.03686169078897828,
        0.015294569241899092,
        0.024824341726070467,
        -0.026377698778138385,
        0.02116864658217378,
        -0.056666266084749645,
        -0.06920314149346592,
        -0.07094222849420233,
        -0.057772804460875855,
        -0.06884938453279467,
        -0.06224572969917612,
        0.04263019085509524,
        -0.06527391572077831,
        -0.01939717510041812,
        0.04995037897262153,
        0.06318289567215526,
        0.031494780649576004,
        0.005253321574582151,
        0.04010854549492662,
        0.04303630802954973,
        0.027591964114604572,
        -0.022754259385412888,
        -0.012689334138673194,
        0.07356600126433199,
        -0.07626737536680228,
        0.046065091795189556,
        -0.03868693509597593,
        0.047964662908554,
        -0.03741953810250574,
        -0.017737196610847335,
        0.03279979349506261,
        0.05104413912924061,
        -0.05538176404325931,
        -0.053671418445427346,
        0.04571964834672326,
        0.02413630964114262,
        -0.006226045318226833,
        -0.03252752033250136,
        0.0061306668769599,
        0.047845363662775184,
        -0.03394731540740816,
        -0.046749567112919235,
        0.050191854294852734,
        0.054331760810551494,
        0.05060061976587907,
        0.028512735933591604,
        -0.05125858488310235,
        -0.05796998245189655,
        0.05564253583705725,
        -0.031194243809966958,
        -0.026341768397970075,
        0.03501275357990194,
        -0.07383658462275912,
        -0.0728645250604413,
        0.009559124389461757,
        0.01435702538298371,
        0.02416721102752492,
        -0.01680639679056046,
        0.038366754276372886,
        0.04006067845055075,
        0.010727605181148583,
        -0.07644258269397816,
        -0.031899719552878514,
        0.0013836339755492338,
        -0.0231188427474014,
        0.013765912658105547,
        -0.07296307697756003,
        0.06136904808915475,
        -0.05480036492175372,
        0.005574909122900817,
        0.034047992727963314,
        0.02977570166763531,
        0.0679445825006689,
        0.03759939836883529,
        -0.06322394816274467,
        -0.07360033142899634,
        0.039190511148126356,
        -0.000993232588706483,
        -0.03232187266964369,
        -0.0171009272406831,
        0.045390261303318205,
        0.004558768831629839,
        0.02866100464852099,
        -0.017568759356914612,
        -0.040451893520745026,
        0.057328964077424854,
        0.027822895740661893,
        -0.0032685759766585276,
        -0.0050267318676270045,
        0.04212503228624723,
        0.05677984793570823,
        0.034771452032259884,
        0.03320589660680727,
        -0.058396955532362224,
        -0.019228324948455076,
        0.012368842000246488,
        0.029227309214118216,
        0.06449795920069815,
        -0.008145793036062957,
        0.011366496442637514,
        -0.066975783200454,
        -0.047021424634805076,
        0.007554179910830017,
        -0.00518979184471037,
        0.03209031982626767,
        -0.07158001302304491,
        0.04281158829117962,
        0.02959118352606238,
        -0.006820035596831572,
        0.05536811519031121,
        -0.049645435474833945,
        0.061740505539678886,
        -0.07008635601640102,
        -0.007662038804670548,
        -0.023778219187727906,
        -0.07361548813234604,
        0.05034972577695496,
        -0.06692642991458662,
        0.05398922635634215,
        0.05375706876236527,
        0.06848986354711872,
        -0.023762041791589188,
        -0.02124563796641086,
        0.03183390356786041,
        0.04228338995917781,
        -0.07318258328058776,
        0.006745053156163555,
        0.018033326999676663,
        -0.046440923072118494,
        0.0064094387243623235,
        -0.02013999405881338,
        0.03352418882577958,
        0.019205965776557782,
        0.04727574606507824,
        0.07661237385421607,
        -0.04324975051773915,
        0.043544411167746724,
        -0.010781444414596913,
        0.02337157207917595,
        0.0022547196977208556,
        0.07353905578635891,
        0.06386815209940411,
        0.05536138960147405,
        -0.05301308191146768,
        -0.06696169533123636,
        -0.07288631817757603,
        0.03173723389589965,
        0.028038848982963133,
        0.061324150343431305,
        0.0746199912542117,
        0.005614609195792056,
        0.045534834138608205,
        0.05748140414973488,
        -0.024301854863885447,
        -0.05597955762797608,
        -0.06416674945187341,
        -0.05260123640127353,
        0.03149242174479197,
        -0.059925601345867975,
        0.014703265621995379,
        -0.05669549839085772,
        0.06642556868736918,
        0.029217559971907406,
        0.003474078917869397,
        0.04508538967885638,
        -0.023392150100765202,
        0.0241500082685058,
        0.03826300006452224,
        -0.056657273427922754,
        0.07060257617172236,
        0.036798814615908254,
        0.06935891473176137,
        0.03932173701425214,
        0.0035457786880430803,
        -0.05076554785425316,
        0.06418117778519003,
        -0.04124807238596245,
        -0.01324344016938328,
        0.006256135691644793,
        0.02940984820929396,
        -0.026345711899668674,
        0.020210271633260113,
        0.04700338292276873,
        -0.027041963158824706,
        0.07372510888553582,
        -0.07421975568943076,
        -0.07106945988611933,
        -0.07644261273860103,
        0.0013566257785144475,
        -0.022428119016767903,
        -0.012729570146099961,
        0.07549052504644668,
        0.07653371965307276,
        -0.04807907678696041,
        -0.05058676974548611,
        0.010927763226710185,
        -0.04959569778737204,
        -0.026845781419094196,
        0.022747840952791712,
        0.056703824233172884,
        -0.029439672481340648,
        0.016665261744306326,
        0.039723100094794864,
        0.008929231815896915,
        -0.02139374871203118,
        -0.045329245543398906,
        -0.011917592448871722,
        0.07118378546861087,
        0.04277155699910708,
        0.03943071106838192,
        -0.02341191495385335,
        0.007114589800253285,
        0.06146626010717965,
        0.053804226469337135,
        0.052621884701502364,
        0.02913890103558288,
        -0.006710449023147894,
        0.05870036192413389,
        -0.0618359531581531,
        0.03756628357741135,
        -0.022190830010829922,
        0.04427575774441486,
        0.04358107375104604,
        -0.06700164850590253,
        0.014210569778565274,
        -0.0678145264993463,
        0.009927241598419137,
        0.0004126537982855477,
        0.05016007633912997,
        -0.006111517988288712,
        -0.010154660161479478,
        -0.03102364059576821,
        -0.050759946491530886,
        -0.07706986060441148,
        0.04837672396480441,
        -0.058826470398057745,
        0.06661582272639863,
        0.06350891580860263,
        -0.04685732572095934,
        -0.06487682293724335,
        0.03236344912413994,
        -0.015258301336137148,
        0.03336266571765435,
        -0.07587976885063061,
        -0.053596443969034416,
        0.02440358247643716,
        -0.04387785914827452,
        -0.06367513419318502,
        0.06190392421676119,
        -0.054313814810731095,
        0.021296728820111965,
        -0.01942453533602547,
        -0.07014007208077484,
        0.00326067910516023,
        -0.06765964299037314,
        -0.008705009890799392,
        0.05610321642679869,
        0.06601276998285185,
        0.06153264447589801,
        0.07661367731647076,
        -0.005347661929617414,
        0.018910471591240458,
        -0.050925822632092735,
        0.06582540620636274,
        0.05831989885325731,
        -0.05933562257525443,
        0.03892002487185353,
        0.004820357468958925,
        0.03584233985382275,
        0.02719661434911652,
        -0.006323396945935367,
        0.023375267255331483,
        0.01928000167756949,
        0.05576561015797968,
        -0.007306043481711308,
        0.03647159876478322,
        0.04878028307753576,
        -0.013920077930282826,
        0.04809311541069938,
        0.07024193581098825,
        0.011827947365011929,
        -0.0019039074204205003,
        0.07410101183002932,
        -0.05455142866606601,
        0.014643565324034644,
        -0.014334523448162773,
        0.003305704384802946,
        0.044866051545882454,
        0.040012255618234974,
        -0.07381174504334297,
        -0.001351174117930093,
        -0.061944872928438525,
        -0.025851049853189555,
        -0.07201776129032447,
        0.05538577240971748,
        -0.027084665760231823,
        -0.026006183738767924,
        0.03798569428437655,
        0.01904445668510424,
        -0.04158992204024584,
        -0.0032667915751072862,
        -0.03689700032134953,
        0.020909758131601605,
        -0.07351079658467002,
        0.04466176195507,
        -0.02627856265756911,
        0.051405948296643494,
        -0.045070350542235044,
        -0.04796870658685794,
        -0.025839372157980302,
        0.06349920944921142,
        0.05148333810708469,
        0.006263385933873544,
        0.06993493651375363,
        0.005869779534239394,
        -0.01687637422884762,
        0.07320976855142153,
        0.030540314922262488,
        0.048186930314330356,
        0.012235040844520637,
        -0.04810150572502056,
        -0.06795501356274032,
        0.07515406965363366,
        -0.024392450402294402,
        0.06088926914023343,
        0.045295502868752904,
        -0.07505215150486387,
        0.0340714320311417,
        0.030873964327452985,
        0.0408296119685735,
        -0.07269643514665805,
        0.042496154383447435,
        0.011772130839916115,
        -0.004641102658056201,
        0.05373019358075437,
        0.04660216540625792,
        -0.03856743034093004,
        -0.06968636115290969,
        0.03904243466170579,
        -0.050337470333534466,
        0.01824039872663273,
        -0.0037537334172090403,
        -0.033634892636674935,
        0.07018058225644255,
        -0.07449354889496747,
        0.017382355411574388,
        0.06022620466986445,
        0.07468468306966095,
        -0.022997126448016554,
        -0.03203914693538236,
        -0.07468390216401444,
        -0.06314152380217752,
        0.053962316057681425,
        5.044376003113249e-05,
        0.051950954641785396,
        0.030456126446253118,
        0.00919310762413883,
        -0.047578317557824136,
        -0.06858134937615168,
        0.01953356681986186,
        0.057095038707198814,
        0.06681039297702526,
        -0.02630819602960839,
        0.0037571668252374124,
        0.020486564927643447,
        -0.05309661552995211,
        0.018066166590305188,
        0.03640654500337888,
        -0.02421148177007,
        0.0420332522931834,
        0.05026946970461607,
        0.008547928439096353,
        0.048852659562581086,
        -0.006172025004881107,
        -0.0700004243605048,
        -0.023962360739167264,
        0.013482135606273732,
        0.036489838159365184,
        0.0014475113274519391,
        -0.07341844380356281,
        -0.04897810255272984,
        -0.07642333362998895,
        -0.06864217131832256,
        -0.07465225461568448,
        -0.038438638840580026,
        0.03272241150844979,
        0.0660829808267187,
        0.04941172773523975,
        0.05959653498702547,
        0.024689071799903636,
        -0.024793367552763443,
        -0.03662501863570302,
        -0.0073355900879147895,
        -0.01252003557391454,
        -0.04784767977171629,
        0.04873895174900397,
        0.017358786850905333,
        -0.05550359328917619,
        0.07230354109150486,
        0.032021336742256046,
        -0.035870793741526324,
        -0.0635678031159914,
        -0.03183161714849333,
        -0.01670346706629,
        0.005887352576195104,
        0.050733235549985156,
        -0.03546515523640474,
        0.046276421941351537,
        -0.03457206318693794,
        -0.0492083874173508,
        0.06512212323197436,
        0.05705474590392917,
        0.05267956293282605,
        0.004748723374829886,
        0.05612848869248896,
        0.012323060862004895,
        0.014942697232318863,
        -0.005408163914788974,
        0.04858820039823811,
        -0.05558305047498944,
        0.053565961583545596,
        -0.021128947778723595,
        0.05626763041342853,
        -0.06418151511193328,
        -0.005940425779231276,
        0.03740458683101312,
        -0.06571293052050717,
        0.05385257344994146,
        0.020222816934350005,
        0.0289341276552139,
        0.05462071406214916,
        0.0045492871703845805,
        0.06820724660365798,
        -0.06414506376918543,
        0.04908417398027351,
        0.0435620171229812,
        -0.046183301244326735,
        -0.03211288802146182,
        0.04746137461424796,
        -0.05846392519454703,
        0.07448900223495286,
        -0.03149488242878514,
        -0.0103847049232553,
        -0.05613813846850309,
        0.006316958610059417,
        0.012664565548414816,
        -0.013358998750147594,
        0.05679157683844041,
        -0.038498147120389806,
        0.07317359607430349,
        0.003772622973580289,
        -0.04597737849751219,
        0.05537870331961614,
        0.017590557530330703,
        0.015366723231321294,
        0.0529205845273826,
        0.033675464647571346,
        0.045850384418285095,
        -0.04149517949556315,
        0.03607016844000256,
        0.048737351707634574,
        -0.03519403011464596,
        -0.014256291094397272,
        0.07094428670418351,
        -0.06145936941805609,
        0.05598997881004675,
        0.014602465898766487,
        -0.05632859094086293,
        -0.012751492984428861,
        0.034653242429423525,
        -0.07133375305324198,
        -0.006361376820407466,
        0.009271298408452394,
        -0.056934889948653485,
        0.05919909079503777,
        0.04576918249054929,
        -0.0625110481363865,
        -0.07133251666334872,
        0.03669824468357208,
        0.07186498993992063,
        0.06051765967305106,
        0.03915799357469668,
        0.0186180245048876,
        -0.04110690424654507,
        0.03203432323062495,
        -0.0243887565711558,
        -0.047267863996736784,
        -0.07356472832046664,
        -0.05071273715268493,
        0.05488125727995993,
        -0.0366228303131712,
        0.01779780920978556,
        -0.041178177561763125,
        0.0631874996280446,
        -0.030191068189501576,
        0.0007591784488133052,
        0.02123494699335439,
        0.03855329321256719,
        0.033560936969309896,
        0.05330215869286975,
        0.06749818706059246,
        0.03365988622393208,
        -0.023568783961763963,
        0.06267467351424194,
        0.06104895009146985,
        0.06517764188755543,
        0.028409099330815882,
        -0.0584405973591687,
        0.025595391392607456,
        -0.06361249409442302,
        0.053634101648686816,
        0.0019002879230504005,
        -0.05370108761201056,
        -0.0077331390929226695,
        -0.00252634495341178,
        0.07537527251354964,
        0.026471993563934676,
        -0.03668164232604306,
        -0.0026867922527500643,
        -0.023546420032228094,
        0.011612442784625102,
        0.06333560419299275,
        -0.07567958356077575,
        -0.04954428339370459,
        -0.07249582600338036,
        -0.062314214555546636,
        0.05384080285121853,
        -0.055797739573749144,
        -0.02592966652124641,
        0.050812175049793296,
        0.010556405379868211,
        -0.04031580079179335,
        -0.03512577992534548,
        -0.01196631695642314,
        -0.014033073196642848,
        0.000726312898607348,
        -0.032719510312312225,
        0.03466186431883832,
        -0.06778559400704309,
        0.015836927036360096,
        0.05411510369096165,
        -0.04392345806232868,
        0.030932208056794447,
        -0.010552805323390063,
        0.023859980641775427,
        0.010486963171783284,
        -0.03218317323645697,
        -0.016114931438949424,
        0.027049706874708243,
        -0.052988065428141065,
        -0.0705257232185402,
        0.00465568085993584,
        0.02374252122094521,
        -0.07508727203139104,
        0.06805318430350871,
        -0.004997971090150419,
        -0.07630533873217757,
        0.011651078174233387,
        0.04381050228060174,
        -0.0009831439785590868,
        -0.0718073000409007,
        -0.02140987500496124,
        -0.07053979127634316,
        0.016996186833830626,
        0.021111659149934764,
        0.04156437974352924,
        -0.00240823191903157,
        -0.0185262615398388,
        0.005905859178603867,
        0.014787225302925242,
        0.06930339868317142,
        -0.042979233090020046,
        0.03449839178533547,
        -0.03934919384682178,
        0.026454892379509903,
        0.05667339870477903,
        0.06780394878323029,
        0.026337126350555837,
        0.01703815136480623,
        -0.05973682520310253,
        0.03012244983018955,
        0.0002501091779817527,
        0.06612097577476056,
        -0.06229834655828321,
        0.022035538684949757
      ],
      [
        -0.025789075075305062,
        -0.05700585235935908,
        0.0674673669399107,
        -0.007785390001415801,
        -0.06434208013292352,
        0.05618470957582619,
        0.02658410956411164,
        0.0541747296951918,
        0.07193801981100317,
        0.01919049138903052,
        0.06505671672847035,
        -0.04830298601410869,
        0.017233771461154943,
        -0.023294020492277287,
        -0.07378922693750394,
        -0.049492660271050454,
        -0.05563067988436374,
        0.035231425010253614,
        -0.03833590573615243,
        0.04263188249201136,
        0.06402515465841624,
        0.005917296840140626,
        -0.05928200761662463,
        0.03647402970989011,
        -0.009201813453102836,
        -0.025344087126337997,
        0.055514409448361585,
        0.028765614342966372,
        0.04245819853947311,
        0.03836353518770992,
        -0.0407821472675651,
        0.023008679974957286,
        -0.0770013165823467,
        0.019091694621737626,
        -0.024544175402072203,
        0.007053826874757516,
        -0.046595180200749625,
        -0.04668421509444676,
        0.03755228290554623,
        0.04124666877902926,
        -0.030320294521008033,
        0.0638926544077067,
        -0.038320713484615083,
        0.04360371203365991,
        -0.06073276401876218,
        -0.054609290139158495,
        -0.01631033206197425,
        0.05964970663975788,
        0.03727743560435537,
        -0.07692169981447598,
        -0.008206064543498245,
        -0.02447775928662009,
        -0.022424108561185055,
        0.03632971203048535,
        -0.05702652359895559,
        0.0067375496030436105,
        -0.056649399343936965,
        -0.011107928706382567,
        -0.029856999753536104,
        -0.0718104934740389,
        0.022144823390167268,
        0.003240621920112624,
        0.02510919599875394,
        -0.014429957585584727,
        0.057750430983555257,
        -0.011320825146007171,
        0.048269679958002826,
        -0.015313855102145092,
        0.022602670773275324,
        0.05525865265759583,
        -0.053952321392064836,
        -0.03873959607127876,
        0.008092631744751805,
        -0.049600547685761706,
        -0.0246376732180597,
        -0.0466031584024106,
        0.066144242524588,
        -0.019502417800049528,
        -0.03797812964187958,
        -0.009404889974953062,
        -0.003250612621960483,
        -0.043754508513937876,
        -0.051050803783676865,
        -0.06559016450748101,
        0.0744986302453774,
        -0.028663159979422544,
        0.04150981384121044,
        -0.011292395628573579,
        -0.03125485487237255,
        -0.011131658586487667,
        -0.015078544253318886,
        0.008294831687627471,
        0.016475190248218224,
        0.0036905998359012537,
        0.06423888302508515,
        -0.05080282413860457,
        0.06522053860033095,
        0.045814405300901306,
        0.02348631149763783,
        -0.014299007803547897,
        0.02611696993060919,
        0.0034380267144008547,
        0.04944347857015938,
        0.051943518009508,
        0.023955276286919666,
        0.008876538796908515,
        0.014258953846345332,
        -0.06274749615035131,
        -0.05755766454208177,
        -0.051487558403241714,
        -0.06012555792485479,
        -0.011293337866465358,
        -0.02710143449058037,
        0.033835658629962476,
        0.029634216729764032,
        -0.05889399118539191,
        -0.0696051465314023,
        0.04926010727882754,
        -0.008143443927830063,
        0.04821695229531778,
        0.04033020461445745,
        0.031330637298449995,
        0.049059798473208516,
        -0.061886771383305485,
        -0.05171081110402276,
        -0.06679069395925291,
        0.07143077110866039,
        -0.07287418548392516,
        -0.016543689045660406,
        0.039157259968320174,
        0.044537915984345436,
        0.06917109801465585,
        0.02875307036490625,
        0.03600827385648406,
        -0.019866239210488662,
        0.0572419479708893,
        -0.03857739368789773,
        -0.03401458777778916,
        -0.07136377649637236,
        0.04759565188569416,
        -0.07006138331993274,
        -0.008104727071580886,
        -0.05756537872263388,
        -0.0015156647907251797,
        -0.02864683942765911,
        0.020690618796334798,
        -0.04146180526952631,
        -0.07534351353971888,
        0.011548060682505246,
        -0.04358156726183113,
        0.02385134789151863,
        0.023726304206156054,
        -0.07668270908621153,
        -0.023811591618508238,
        0.02582024668188153,
        0.06837526647378611,
        -0.02036393755674342,
        -0.028628816676976844,
        0.03032922123581859,
        -0.012311198114533545,
        0.04866338836142442,
        0.031197618136716274,
        0.07321155666398407,
        -0.055558417460303294,
        0.050098473096917756,
        -0.02421899551221733,
        0.044630087532596244,
        0.048667970478985495,
        0.04487658419127706,
        0.003267018140595865,
        0.007010010874661202,
        -0.02594259759102656,
        -0.006481681197466782,
        -0.053205157233936026,
        -0.012901075738341303,
        0.050133582388396825,
        0.001267328686340441,
        0.07027274519772753,
        0.04301388502666258,
        0.04980907603095519,
        0.048211381863595804,
        0.019877634944906533,
        0.039970116553419324,
        -0.028134117219626692,
        -0.0157768369802297,
        0.06536279508044557,
        0.07299667418010458,
        0.022645701682444744,
        0.02862366420128988,
        0.03442208743315214,
        0.048922004855074946,
        -0.01741191085324812,
        0.012063938485488146,
        0.018218422687058297,
        0.0630141136817591,
        0.03981422036453729,
        0.07246397089781068,
        -0.02338683461286891,
        -0.022044741554042485,
        0.033078423675548765,
        -0.0402208123720532,
        -0.05083136305870532,
        0.05634499565512466,
        -0.02095520064080745,
        -0.06825226387575287,
        0.027430362057563537,
        -0.0695433308285537,
        0.07393349011772563,
        -0.06569137056379099,
        0.01235670685415384,
        0.02940682853104319,
        0.029408153912555843,
        -0.055764947240207946,
        0.014138331039346322,
        -0.019037986155429544,
        0.04590901322724758,
        -0.04466671508667625,
        0.07003889836632499,
        0.013822515137405164,
        0.07625686867406206,
        -0.05235686771282158,
        -0.050853351016337506,
        -0.03405603532291958,
        0.04649777994170433,
        -0.07155252207448773,
        0.06596789307262868,
        -0.015214829309192372,
        0.035440766681069324,
        -0.018281373584493422,
        -0.011959166386153394,
        -0.0010657785130443742,
        0.07423244826955747,
        0.03573768408955462,
        -0.0021501687666689306,
        -0.028702675189865356,
        0.033642953900194894,
        0.023147897965108646,
        0.07127242795079575,
        -0.01140400620393589,
        0.004746079936555209,
        -0.06970354914548844,
        -0.028006347224430198,
        0.05816186859356276,
        -0.011462692915173225,
        -0.009391370711423777,
        -0.02527796511221194,
        0.04328229262149112,
        -0.07652481397788152,
        0.038373731316932405,
        0.07401092865328857,
        0.055655469380781364,
        -0.04309680948158955,
        -0.06614804683643426,
        0.02942138942728298,
        -0.03557129200397036,
        0.06601847022547369,
        -0.026112646435770784,
        0.013113737487942742,
        -0.06444422983938185,
        -0.002854633960616429,
        0.0036185382601798682,
        -0.06483809182615273,
        -0.029918911544592558,
        0.001844179894028991,
        -0.06902021897579258,
        0.0057675296139690635,
        -0.029322355626588213,
        -0.037550395732728725,
        0.0055115425740902,
        -0.0017723034701940393,
        0.01101252794105341,
        0.00259822886893106,
        0.00032244440879528047,
        -0.015565789175780984,
        -0.07203161362708291,
        0.032978108194311545,
        0.010751958507341342,
        0.0031266883627079634,
        0.000936264977141596,
        0.029591573690474438,
        -0.058224489620635186,
        -0.016466766905600033,
        0.057229023494538844,
        0.03106572101667844,
        0.0020329611688917476,
        -0.0041074779146740015,
        0.07484232156091142,
        0.05787885374135565,
        0.044261571274350556,
        0.03376296203611387,
        0.015601473828207299,
        -0.014050404163227295,
        -0.03609786342824584,
        -0.04332146443043085,
        0.05753177601720269,
        -0.041994444479989054,
        -0.002737452998907444,
        0.07156502453435892,
        0.010614173222553175,
        -0.00017463018358900018,
        -0.029914691033847925,
        0.017518904463246776,
        -0.019972279135914282,
        0.030183678435253866,
        -0.018331809258541838,
        0.01358407522657526,
        0.0023767821324131855,
        0.06655499313183777,
        0.04948642390657837,
        -0.017925756382213373,
        0.03096870007652054,
        0.055244591803739945,
        0.06108374641843095,
        -0.013084376421205288,
        -0.011143409543443991,
        -0.016283846802352953,
        -0.07200815376926471,
        0.03925131816447823,
        -0.05354979009366109,
        0.028964773077343298,
        -0.054896690996941916,
        0.028519306490112653,
        -0.006573110501980617,
        0.045267683134851064,
        0.012950127548481086,
        0.04968809292102214,
        0.013745832353541765,
        0.05740113552076709,
        -0.02951087843582094,
        0.04942981875071936,
        0.0020658627776373034,
        -0.049034549154088204,
        0.027964106372252495,
        0.015786648722364474,
        -0.044618553878557926,
        -0.07215088776316549,
        0.06576709504780578,
        0.07473178675387626,
        0.02955902237519059,
        0.018697779892091676,
        0.011583947527707666,
        -0.05145639374989239,
        -0.05118330754107059,
        -0.0030103537219330068,
        -0.023792393274542543,
        0.0011567291311999767,
        0.07292079709340116,
        0.0727888863036801,
        0.04062525359363614,
        -0.07401993140578274,
        -0.024751788378678218,
        0.010307646594154105,
        0.032965604772883406,
        -0.06482667349169956,
        0.03830485193680151,
        0.0051375144280684515,
        0.07159749740409682,
        -0.0401989654789226,
        -0.04746861952458946,
        0.022855132874973746,
        0.02393837148624023,
        0.05482243180518287,
        -0.046096177979897374,
        -0.037056693326642805,
        -0.06827830071403361,
        0.014460538620552604,
        -0.002219380971538301,
        0.028019619609430862,
        0.040300245013994665,
        -0.004080900454469558,
        0.0372537599335782,
        -0.06983336709943318,
        -0.06816148314663789,
        0.025322789642499358,
        0.04464148150339736,
        0.03997449223878062,
        -0.009833359116610693,
        0.023717168432862007,
        0.0054772996638191435,
        0.023016046835804993,
        -0.02161930438627127,
        -0.039678828132174535,
        -0.024428619420643977,
        0.03425476134753068,
        -0.037086093838997004,
        0.015804404000955022,
        0.015385709502338113,
        -0.003743520924113994,
        0.06395694266849769,
        0.04179557717977858,
        -0.00027206764109863335,
        -0.05101286104389941,
        0.030884077003917043,
        -0.011338837318834394,
        -0.028540045549342863,
        0.05813078762911403,
        0.04385325736351664,
        -0.04483581539054432,
        0.026639249927871353,
        0.039703187354810654,
        -0.03836788266724625,
        0.0763028401916617,
        0.014787470523229235,
        0.057727317870812866,
        -0.039643179185725665,
        0.0680332968854516,
        -0.07379998603185492,
        0.011516081492957936,
        0.021078045749296254,
        0.027761978898766734,
        -0.06658662696935028,
        -0.008378130579669657,
        0.05965749882739893,
        0.017142464766781412,
        0.004349822654798954,
        0.07629074752257944,
        -0.05338868125540022,
        -0.07671520200311728,
        0.014664741364585301,
        0.005323279271239642,
        -0.03676441278503819,
        -0.045324947273707825,
        -0.004111507014038521,
        -0.02628220550593567,
        0.017074950520392193,
        0.014547213297052178,
        0.036754356967709303,
        0.016654664823692558,
        0.023894975641051516,
        -0.06195782740105129,
        -0.055958175765422793,
        0.059332234596003536,
        -0.009955357226128489,
        -0.01666440643803673,
        0.0050757523105687125,
        -0.006553409691001044,
        0.06678713460055549,
        -0.046791105500978855,
        0.05775067907633,
        0.00871934732494771,
        -0.05541912428493686,
        0.02233517365651627,
        -0.051862202070703155,
        -0.0032785149221138676,
        0.023623939977549774,
        0.06481435591618415,
        0.028690836635576575,
        -0.008421100547225988,
        0.06121349655029054,
        0.027853433689890322,
        -0.0665997392887289,
        -0.006415416464844989,
        0.04101010090147267,
        0.02399888590673202,
        0.06935033368892671,
        0.007910312015823429,
        -0.016268377680945675,
        -0.007026554903650187,
        -0.001878040743156506,
        -0.06792784914103354,
        0.055703122026780405,
        0.020671304565055074,
        -0.00592806477723716,
        0.04415922783417198,
        0.04759309332506635,
        -0.0606340009187967,
        0.05807508235591599,
        0.0740061881593454,
        0.05437886368405992,
        0.04174445882050863,
        -0.07610891875915346,
        -1.997468616971032e-05,
        0.030045269468902458,
        -0.01760985533768386,
        0.019418016493328596,
        0.06628320538819257,
        -0.07169367180020524,
        0.047799320896017336,
        -0.07465319782085429,
        -0.057894483234204944,
        -0.031768845909349745,
        -0.03936002031771545,
        0.03420187834599908,
        0.019099479100354574,
        -0.003519425196826284,
        0.05699654747080796,
        0.0699995544285053,
        -0.061555537974623695,
        0.05671003117623066,
        0.022118679092471352,
        -0.06625888377702265,
        0.06871402015650593,
        -0.023727391355689145,
        0.013166371212595201,
        0.06900499285055495,
        0.05633306481621053,
        0.04902948405546684,
        -0.03720760817633421,
        0.044510573191484076,
        0.029379527110555206,
        0.051240923143189177,
        0.011623591979542672,
        0.007588264926555843,
        0.028977720089610054,
        0.06011810790573663,
        0.04965754124290697,
        -0.001201447087362001,
        0.07704554200549721,
        -0.010462417383668432,
        0.03526610559322117,
        0.003670297241083628,
        0.04509344819521091,
        0.07631444766053236,
        -0.05801101780608248,
        -0.06302738570420026,
        -0.06429128693497685,
        -0.04071655240684223,
        0.0311671354260441,
        0.0010868955252594237,
        -0.014101588301319787,
        0.01963247603054459,
        0.0005405187239276993,
        -0.024148812757125153,
        -0.030065410606406856,
        0.07082986853258044,
        -0.048880659068261625,
        -0.010651737218279028,
        0.01843635925400927,
        0.05574718190129521,
        -0.03422598112511215,
        0.06967229984678242,
        -0.05890612511734272,
        -0.053510212419722966,
        -0.06033500246993333,
        -0.021463577275779328,
        -0.05552169924409472,
        -0.021864111222880282,
        0.04662981390275921,
        0.06438199963637542,
        -0.02776949772838303,
        0.010678922839359395,
        0.016504218950583432,
        0.029690172980095145,
        -0.033985397630705044,
        0.037580569666463545,
        -0.056328849866558256,
        0.0728256069874359,
        0.023243450493258877,
        -0.04726317718500795,
        -0.01664599443711258,
        -0.03870261153393624,
        0.04486647239390146,
        -0.07235438286152988,
        0.004604099680862922,
        -0.05853721227024252,
        -0.042711072601810555,
        -0.005041367335217109,
        -0.006143432160320997,
        -0.04392875553377576,
        -0.02089850552253044,
        0.0006857086253509309,
        -0.03904791768227026,
        -0.03548060718056122,
        0.034215142541040536,
        -0.07600487678998254,
        0.05046283352044831,
        -0.03191206979358042,
        -0.06123963549026536,
        0.03840976737402524,
        -0.0010517060550688934,
        -0.06254775737906416,
        -0.0700623811055761,
        0.00451414482551836,
        -0.015777465269291267,
        0.005585774963323131,
        0.06435039872479847,
        -0.03083096068367667,
        0.006086519038352348,
        0.032133494547056635,
        -0.0592448804680186,
        -0.028292105150848713,
        -0.013150277675389094,
        -0.04505722522211486,
        0.009865333132998741,
        0.012422685126853447,
        0.05289837777548778,
        -0.007673437454941687,
        -0.055711077499727805,
        0.014073786114951747,
        -0.02142552599988644,
        -0.018889719543979826,
        -0.0753842994189201,
        0.029749643012906918,
        0.06982539073145863,
        -0.07552813655829287,
        -0.05957481845322128,
        -0.014518240514680286,
        -0.0714723810650602,
        -0.04859076580592597,
        0.06596098444459983,
        0.01667138666234312,
        -0.05893524871498164,
        0.0529775918463562,
        0.04002947542859933,
        -0.005962092540595945,
        0.06631963291113965,
        -0.028836127424216915,
        -0.012885420308127421,
        0.0730921040764538,
        0.05457590928154629,
        -0.02421841496482808,
        -0.004997974428904053,
        0.02449206032998967,
        0.04666762317800269,
        -0.05931656760373338,
        0.006187415809732394,
        0.04800026542303956,
        -0.03525678453325751,
        -0.054187351240485515,
        -0.05133892521692216,
        0.029898238565251506,
        0.020018037489510393,
        -0.057927929921489596,
        0.051646381077864234,
        0.060571182012982144,
        -0.03441889875307977,
        -0.02271357433519232,
        0.055914922126683086,
        0.005637356784916711,
        -0.05955542702359702,
        -0.05305341473142313,
        0.06734006908640122,
        -0.014926321161990871,
        0.06882691848388547,
        0.07160444277241809,
        -0.075790433118575,
        0.05327258947407151,
        -0.008188630991443388,
        0.04700794068687143,
        -0.048275354950637644,
        -0.048752984345786024,
        0.06552066804808956,
        0.010553094127804044,
        0.009097895160759817,
        0.06617383333507673,
        -0.0334556026087857,
        0.0413027219522175,
        0.01631394412734241,
        -0.025551635926173356,
        -0.03180128144595638,
        -0.061958303104183265,
        0.005937783114525669,
        0.07593356710323337,
        -0.0013735105079429044,
        -0.04036229478946123,
        -0.046964362923677304,
        -0.06745284142104759,
        0.0728869774495513,
        -0.021261337802022988,
        0.06356258301358417,
        0.005163418351292984,
        -0.07564440617388225,
        -0.05449992087791322,
        -0.02682140854881792,
        -0.05389859167380613,
        0.04062288963684825,
        -0.03729574668399628,
        0.048767532760196075,
        0.07495513750725136,
        -0.016635928441867835,
        0.009604213257485256,
        0.00914880169279915,
        0.05716077778267811,
        -0.013407719466589016,
        -0.046269650115235844,
        -0.02676637432965833,
        -0.03946539668503094,
        -0.04547592077840234,
        -0.05520941529648493,
        -0.0008558503963659314,
        -0.05865509884321285,
        -0.021385747061179024,
        0.004045385547862143,
        0.016540409715247742,
        -0.03644462309869831,
        0.016707419683415825,
        -0.04921191695383187,
        0.031610818771987945,
        0.02504285566771909,
        0.029915698527794535,
        -0.018239480093420066,
        0.01631763941575065,
        -0.06392648052954047,
        0.0010063403194010417,
        -0.03732656971554301,
        -0.018477307445401957,
        0.04462836445528104,
        -0.02187946689170084,
        -0.012565275362997827,
        0.012766850219702613,
        -0.07690308100308646,
        0.05830226870684668,
        -0.004851806581022494,
        -0.03116541471962371,
        -0.03207067177365624,
        0.05831401796075017,
        0.03730049203058837,
        -0.05359432157124617,
        0.013828071521929816,
        -0.004345146703958913,
        -0.043389713767581925,
        0.04227660281413337,
        0.058577899849140164,
        -0.004381117244250235,
        -0.039812339927793594,
        0.05368675578097887,
        0.015372514040649973,
        0.00015531886327825595,
        -0.016839429012753294,
        -0.0008964163324194085,
        -0.057459810126356134,
        -0.042455616610446785,
        0.007365750840047272,
        -0.037287605433633124,
        0.061244646417927734,
        0.053457307682162836,
        -0.07182814175512951,
        -0.0699340590536662,
        0.02928801090237078,
        -0.05718373367087197,
        -0.045994413318428316,
        0.06405133842005442,
        -0.07086172345880513,
        -0.058305737035248495,
        0.07602307836926278,
        -0.04388055140095692,
        0.07481735109186416,
        0.0330701001669836,
        -0.0023729977450359374,
        0.020555982956327337,
        0.028174060940096654,
        0.0629919417675891,
        0.005295575682712272,
        0.020146234772054586,
        0.05108842249250292,
        -0.017428310888514126,
        -0.03042368628278031,
        -0.022616411279589806,
        -0.07298854269128138,
        0.056467444546683676,
        -0.007197710343322741,
        0.05222293486034024,
        -0.024450143134990936,
        0.0733879977417207,
        -0.008906942030198955,
        -0.007770491124645104,
        0.0336330406157271,
        -0.02316135417766458,
        -0.018365809793639574,
        0.02840383848858881,
        0.04494243140317969,
        -0.02190753223355557,
        0.06821655413268585,
        -0.03962006143164132,
        0.07272688323463347,
        -0.024832251693210107,
        -0.03934589975422205,
        0.03331459777422928,
        -0.020581649408844577,
        -0.034133536540419056,
        0.05255858848523695,
        0.07692642991916404,
        -0.045454581764979685,
        0.05594184821339593,
        0.03541515261148946,
        -0.07277429788935628,
        0.06260668318194271,
        -0.05615512803847314,
        -0.032520208096219236,
        0.05050286430177753,
        -0.016371160347542574,
        0.0003074423645852836,
        -0.016183785316620063,
        -0.03176963777618457,
        0.018776707886488345,
        -0.06340342603132529,
        0.0469468603150907,
        0.048143440289753786,
        -0.05912706364321728,
        0.06459668540820873,
        0.004548439217304884,
        0.027527807203458793,
        -0.06820542906347363,
        0.0716211184860222,
        0.0283245561190303,
        -0.06872956973298656,
        0.06001442765612522,
        -0.025740151171960712,
        0.07506293753031626,
        0.019062645118955196,
        -0.04294757825102195,
        0.02235431827871799,
        0.00713085634391443,
        0.05382813688321619,
        0.007386471527194641,
        0.0014171904077331654,
        0.009527970625933316,
        0.014538704891043572,
        -0.03808193094415743,
        0.025591414609518554,
        0.0543499897050356,
        0.02438990195945577,
        -0.07039773471893071,
        0.06198063883406435,
        0.06196202033258616,
        0.026530896290506173,
        0.07648645171220464,
        0.02762600896103122,
        0.06306853013185662,
        0.05117799559397579,
        -0.07354895281224393,
        -0.0709514155919796,
        -0.03583050805349896,
        0.023103097914230555,
        -0.011453747012171375,
        -0.026814491725140985,
        0.014541012799427405,
        0.004824012611342271,
        -0.008637800036830387,
        0.07050002814706055,
        0.012812565322094571,
        0.03957390176767028,
        -0.03348238847999049,
        0.05225162115838136,
        -0.004654326855454416,
        0.027694634931247547,
        0.037581234044814046,
        -0.059425897620943524,
        0.006039062594461311,
        -0.02356618225254941,
        0.06696885694857468,
        0.04613434463959615,
        0.06256737992652814,
        0.03613853327306289,
        0.07106078070409907,
        -0.030949220082208025,
        0.06676326915284328,
        0.04794597726777364,
        0.07692102960286976,
        0.07373470770040752,
        -0.041145589391006626,
        0.04999758657191575,
        0.04425159665189898,
        0.04930271269635883,
        0.007545723686659095,
        0.007378699641607034,
        -0.0731671278370598,
        0.0407482769797141,
        0.06511022710454953,
        0.01768707695519682,
        0.057065385675214464,
        0.054578855831237644,
        0.03408355811540266,
        -0.039460841242174687,
        -0.02691593413142205,
        -0.07334305842774938,
        -0.015747896386325684,
        0.029826766764793344,
        0.041676277659546804,
        -0.05347915185618843,
        0.047841395616148474,
        -0.06560445966759028,
        0.002530725711062304,
        0.07399206124630234,
        -0.006567584523748671,
        -0.04934332270789851,
        -0.03791450696834624,
        0.055773430576623845,
        -0.04906557842815587,
        -0.029992956203015744,
        0.003873929817310523,
        0.05046152763869516,
        -0.0368259979115947,
        0.0430893282284837,
        0.03781265035351904,
        0.06274540417504659,
        0.04038802554948344,
        0.034590235636289435,
        -0.04678994941080211,
        -0.06088064836707555,
        -0.028693364001845648,
        -0.018025141970242242,
        -0.010478075365762063,
        0.011219730808564504,
        -0.018228845885562117,
        -0.047536709992683474,
        0.022072524382274153,
        -0.021678359407978652,
        0.02508357892480796,
        -0.0686916635893,
        -0.01887657754558606,
        0.00041392242505797205,
        0.03138527755859487,
        -0.0011495416103892292,
        0.024033954866856458,
        0.02036575163255093,
        0.014936387909500234,
        -0.043870608125419694,
        -0.030672084864671205,
        -0.005329209104596028,
        0.005200415693948357,
        0.0715756646988121,
        -0.029497867209652445,
        -0.009691960717242404,
        0.004855998932269373,
        -0.01768311307303736,
        0.00859231510044546,
        0.011654028822847884,
        -0.05525158137362833,
        -0.04186807877549061,
        -0.021579968318130763,
        0.029593851361096726,
        -0.053128736950621584,
        -0.050015205792952606,
        0.014426650566390989,
        0.0031242222516829066,
        -0.04044258962980191,
        0.03106662032636101,
        0.07612997184756404,
        0.0628509530928203,
        0.06833718151668078,
        -0.03703219946793537,
        -0.019361068051467263,
        -0.026657637808583594,
        0.0088201280056424,
        -0.016246747958039272,
        0.0640463595785209,
        -0.03982309740870786,
        -0.022070890381903387,
        0.0005580069903626389,
        -0.047862179523696674,
        -0.026930408309400022,
        0.03386182515040767,
        0.026766565815561486,
        -0.050186999179947754,
        0.016786588180030648,
        0.013968927615560497,
        -0.04943947555187907,
        0.012354854441943272,
        -0.023281104731116657,
        -0.011782992411845453,
        -0.016663901320903923,
        -0.017993556329002347,
        -0.07232609033602141,
        0.06393305155286536,
        0.015455688062113684,
        -0.06621761804307709,
        0.03981958916890101,
        0.04768401370540812,
        0.009564642829523032,
        0.035893665124847804,
        -0.047173199538072134,
        0.022306679684723593,
        0.02695909290127682,
        0.058552976715902094,
        0.01765739399740794,
        -0.0006690701294685408,
        -0.04727621803033784,
        -0.01885874089734007,
        -0.023197622440390496,
        -0.018180068864784682,
        -0.005152620711220357,
        -0.03879374652390121,
        0.045506706142000614,
        0.011759362182121383,
        -0.019538788126625614,
        0.030709076158099494,
        0.04661857077886458,
        -0.03420373075346479,
        -0.006777861794991263,
        -0.05538491832866818,
        0.007223347573448988,
        -0.06933412069361877,
        0.013276826175351489,
        0.07117773592266569,
        0.04963133111306814,
        -0.07051821994804212,
        0.012644057531340014,
        -0.06696628673646858,
        -0.009349918606709987,
        0.0018680505521672663,
        -0.0010498863258484453,
        0.03485083310718702,
        -0.0629204757340932,
        -0.06552115273818615,
        -0.03367413700915564,
        -0.008563144035694178,
        -0.03453296344856649,
        0.05549572881919734,
        0.04780376557697183
      ],
      [
        0.06142361303905913,
        0.042481590728349325,
        0.03188608699536637,
        0.03266002522559905,
        0.04998576198062807,
        0.024460385588309652,
        -0.034663369636855006,
        -0.005775985201681669,
        -0.029602211427097347,
        -0.011041314462874693,
        0.006709237890703351,
        0.0736515664929864,
        0.07446388208767202,
        0.012169820108266019,
        0.06251671720362778,
        0.013809441853732562,
        -0.020577876435984646,
        -0.011456505351918556,
        0.01619798662848372,
        0.05992099385738728,
        0.038942138690638756,
        0.07547742993286147,
        -0.05294655364832718,
        -0.000762409712594142,
        0.024621858345562034,
        0.05406659197322225,
        -0.040111825733982406,
        0.032375953138436095,
        -0.0767387563252549,
        0.06196430586353513,
        0.07147912874798665,
        0.07705706946960822,
        0.07146417549159129,
        -0.07682391961756647,
        0.02132822886717506,
        0.025172663771805548,
        0.037439636602131274,
        -0.02126875442221638,
        -0.06911313858759319,
        -0.06520184078687735,
        -0.07054079414996892,
        0.050376787965304703,
        0.0433552434507085,
        -0.06325655951152008,
        -0.048142748968218275,
        0.04889680836173474,
        -0.019787810448916324,
        0.04161335380597708,
        -0.005119002361463093,
        0.07463169098203398,
        -0.05991074024275269,
        -0.03875601796506158,
        0.0035173886294182916,
        -0.05128365475249506,
        0.04832505364428161,
        0.038180567848013894,
        -0.022533703706121483,
        -0.013932459554665155,
        0.01019768354407298,
        0.03549401440157314,
        -0.05109918230367366,
        0.07386224281875589,
        -0.07210828340690284,
        0.024017976117124515,
        0.06954929502427995,
        0.0029565351325155365,
        0.07279824657443501,
        0.0208944545885123,
        -0.03000621730793613,
        -0.0008665308754764872,
        0.055768233370326936,
        -0.06237349472275622,
        -0.06700195202829193,
        0.020133954678280996,
        -0.0011673033840236408,
        -0.039461227113317905,
        0.032358452218150424,
        -0.0006067537775680393,
        -0.04537782625208165,
        -0.05773330320864628,
        0.01884969771445205,
        -0.029070056086660072,
        0.0012440693035856154,
        -0.07613147506827965,
        0.051824989463259086,
        -0.020421463390803613,
        -0.010347616296517537,
        -0.022243140530098703,
        -0.07005220796228422,
        -0.006281379350491098,
        -0.030165093226061875,
        0.06235703146009611,
        -0.01921427263775715,
        -0.016963614914843425,
        0.03434636447707108,
        0.011315182942099017,
        0.022710147372600215,
        0.06270520590329437,
        -0.029554649811322303,
        0.05610428113138899,
        -0.0472137356256345,
        -0.030828625212572437,
        -0.05062726817914792,
        0.037471315494683244,
        -0.028232670866382724,
        0.07174906282005475,
        -0.023408700174011393,
        -0.023839856801602693,
        0.023884770063599556,
        0.013497728720442706,
        -0.02906979679801021,
        0.02726544938986411,
        0.012310869206273986,
        0.05034665555417381,
        -0.009190038892764096,
        -0.0037991523825555706,
        -0.006475000168981629,
        0.009469628443876554,
        0.027939824105960534,
        -0.014812895429664075,
        0.06591754977073672,
        0.058830409443960646,
        0.04049167095521064,
        -0.012531299281996491,
        0.026244712308144125,
        0.0025500238052422186,
        -0.06321433047978549,
        0.03831725911208175,
        0.002861630657256975,
        0.0030240716289331587,
        -0.04541293541415356,
        -0.036281265497965495,
        0.04218602667837902,
        -0.047295355835108244,
        -0.027366807293255448,
        0.00010347414096777141,
        0.018027926151780935,
        0.014467404879834125,
        0.01165415030362621,
        0.019581945288733485,
        0.056490882872280795,
        0.04483601229278633,
        0.031730378839101195,
        -0.07538364074350697,
        0.0029238093251598013,
        0.0007974739369543543,
        -0.06480241868163171,
        -0.043629210108647294,
        0.07228834185932922,
        0.023302421181711386,
        -0.008275530203240636,
        0.025327375807263644,
        -0.01612274781480927,
        -0.012094939341856972,
        0.008906461438703439,
        0.03968429448278639,
        0.0716520192343667,
        -0.05617628358283444,
        -0.009049793256220642,
        -0.05620294242719984,
        0.04206198971576784,
        -0.014236930225021524,
        0.0020634395225762325,
        -0.020200942380201613,
        -0.03522389160435099,
        -0.060558378397530255,
        -0.05114081790443567,
        0.07402280199109351,
        -0.03973569809215603,
        -0.03068026952299306,
        0.0031351577173228395,
        0.06015094104294952,
        0.06835686484999137,
        0.07129754926552168,
        -0.06295273059826717,
        -0.037152489323244664,
        -0.03407748262051265,
        -0.07581149883475594,
        -0.03452125533638575,
        0.05096435747314826,
        -0.06467280474236797,
        0.031043720956162688,
        0.02948225071278887,
        0.07244817714613261,
        0.022344514069297272,
        0.011249604005523509,
        -0.0019637245687379734,
        0.038628715864846175,
        0.012901269694076414,
        -0.05904348700984118,
        -0.04525157418451974,
        -0.0028837695314713058,
        -0.018605627502672965,
        0.02536732898614201,
        0.04241684697848104,
        0.049916104155688396,
        0.025173347681518507,
        0.005565932419930142,
        0.03300093077068904,
        0.045159318210627616,
        -0.04386166550994826,
        -0.01862717962050437,
        -0.06954274126709625,
        0.07519542545500205,
        -0.0051748926843287885,
        0.06367489704986945,
        -0.005444052824638751,
        0.049910902284583364,
        0.06112928311565749,
        0.06452604430495934,
        -0.05176881951757655,
        0.008836379977158748,
        0.044677852313779715,
        -0.04978914644711395,
        0.06101174559817449,
        -0.06260953344909569,
        0.04857233997055907,
        0.06331132919749224,
        -0.02262712123111387,
        -0.06439581521913254,
        0.049838403667099934,
        -0.07290832583503154,
        0.025230270491832074,
        -0.0322436058294433,
        0.019447978814436634,
        0.0561864411704949,
        -0.03905248739218478,
        -0.058320491487996944,
        -0.025682897408535632,
        0.029499613450718512,
        -0.009235165788824468,
        -0.00680121623734295,
        -0.04970277023841976,
        -0.07267756449481763,
        -0.03145017682912825,
        -0.01119216601632915,
        0.00686336445346844,
        0.010426097312372706,
        -0.039989021414935697,
        -0.028304896264527785,
        0.054964041988718515,
        0.010335158373533729,
        0.010581881413445945,
        0.04646969563291764,
        0.062315022980563184,
        -0.011811282437050638,
        -0.02268471503462547,
        0.025542476332828787,
        0.047477858843629456,
        -0.05599704835633621,
        -0.00855260989060419,
        0.05375231350944498,
        0.04745533080297719,
        -0.03253481171673652,
        0.050020769702972895,
        0.022203685468139375,
        0.07293957382975139,
        0.04470396206592947,
        0.062423316086737984,
        -0.05886241193038098,
        -0.033829915457677696,
        0.0064455835584556476,
        -0.049484242861103325,
        0.02253704232562713,
        -0.007896074556571903,
        0.0759846588857318,
        -0.017038214815375013,
        -0.04534881563864212,
        0.07300295756448819,
        0.011507492642388747,
        -0.04509295107216319,
        -0.04095251064363487,
        0.05291011838095766,
        0.06063618928995479,
        -0.040839927410514114,
        0.046946871726113365,
        -0.035408030981345644,
        0.027597120962811417,
        0.05849212937866302,
        -0.07013896882769147,
        0.05943629406097592,
        -0.028119190967290417,
        0.021699048992025016,
        -0.05637583247383088,
        0.07106449284038835,
        -0.0490700232980145,
        0.03649154712663201,
        -0.01542341860988991,
        -0.014426822371858258,
        0.01760988096209637,
        -0.011475220382122592,
        0.0408464549784697,
        -0.023907008697635027,
        0.01979429544500387,
        0.02957655606167496,
        0.06087150421575463,
        -0.030716241518288924,
        -0.061009579438491335,
        -0.05648803410502691,
        -0.0016037063837377602,
        -0.07477322056353548,
        0.05636890556137983,
        0.02816794514850779,
        -0.006101387662980948,
        0.024222919288184666,
        0.04870574654135995,
        0.07544096404620046,
        -0.044417367734521165,
        0.038853911268094635,
        -0.03356992717199358,
        -0.02722697141392346,
        -0.06673518406511773,
        0.009191147812660866,
        -0.035164706877399574,
        -0.01133155178058634,
        -0.03144109465151069,
        -0.05307573720864474,
        -0.051619166131484776,
        0.04624688740330023,
        0.06269893052392947,
        0.036312488828044734,
        -0.06038072755055109,
        -0.017979771301224877,
        -0.05001675943897049,
        -0.049694618725844034,
        -0.005564949630439284,
        0.03646542768413301,
        0.06270891592549574,
        -0.06754350471438025,
        0.021456947144140454,
        -0.039705555777497445,
        0.017949863851925,
        0.012913677543814783,
        -0.07225876788418356,
        -0.0028993442499085503,
        -0.07154711680676742,
        0.03971585313659559,
        0.0692351194161979,
        -0.025002422187775694,
        -0.031060912797164296,
        0.020003536766118907,
        0.028442739101200626,
        0.027731502499216687,
        -0.07182356255305457,
        -0.07393794555149776,
        -0.06838861630813615,
        0.00039459843050200505,
        -0.027473189970581298,
        -0.017766339281427776,
        0.06519639913360681,
        0.07146733417325574,
        0.04639669943328545,
        0.010112913404658308,
        0.006803273124605519,
        -0.006138458454104795,
        0.07353520533578634,
        0.06605493424548095,
        -0.035437566131046594,
        0.07205735483017997,
        0.0009581133209287107,
        -0.03383554403099201,
        0.00883355586656294,
        0.012933290043667986,
        0.00022097398316682504,
        -0.06510301614910072,
        -0.06544141471294643,
        0.018627831260622563,
        0.06351301031793807,
        -0.036739804284148025,
        -0.004272129294777896,
        -0.04491054048796515,
        0.06788676974580943,
        0.01726157777785417,
        0.027869364179480147,
        0.0393796901515638,
        0.015980500167204315,
        0.058143633011756735,
        0.018298683904766452,
        0.06227552323606156,
        -0.04284388766481339,
        0.05758077794526975,
        -0.0709806875691929,
        -0.0055276459724337285,
        -0.03433769029026926,
        -0.0038102331539630746,
        0.013652135507039947,
        -0.01088845410344827,
        -0.06726763985618019,
        -0.0629670777503534,
        -0.06134312450537202,
        -0.020604536956248122,
        0.015101467355197337,
        -0.07417382432457595,
        -0.020347302745451074,
        -0.00025503202683604953,
        -0.07010412266120611,
        -0.03091205395046929,
        0.05491817562422774,
        0.015624878097182784,
        0.05457133331107855,
        -0.06944015995602767,
        0.051378594898325136,
        -0.050371169794920685,
        0.00968482856529132,
        0.04533426155839221,
        -0.03973975541471471,
        -0.0010118834215490091,
        -0.06750749111772603,
        -0.06675833806073192,
        0.05761349868516624,
        -0.07524030003413476,
        0.06475577772944405,
        -0.07634970422558168,
        0.0715921811944347,
        -0.038825080641155967,
        0.07518122389846552,
        0.050792246346773734,
        0.06865362451877527,
        0.0408769730034992,
        -0.02647279540781651,
        -0.01501580902398364,
        -0.010769781841925063,
        0.014253380581688832,
        -0.0473158702375478,
        -0.07355673673440839,
        -0.04385048331971651,
        -0.045533713088698156,
        -0.07181633926283534,
        0.0717820021749746,
        0.06056936192742374,
        0.0641457224977052,
        -0.04493486991330257,
        -0.06300679557143687,
        -0.012870365829436348,
        0.06460322283171849,
        -0.0767642781889853,
        0.0010834754225816923,
        0.018643337845738614,
        0.053720721786300496,
        -0.05250139019882198,
        -0.05392135867522192,
        -0.06284061252779118,
        -0.03749080219908449,
        0.03916898128813047,
        0.017257634969885513,
        -0.06722905480871559,
        -0.003754516060515148,
        0.014461109044247744,
        -0.046567743006715,
        -0.029876905749734804,
        -0.04604359795440616,
        -0.02463889579524136,
        0.030712519067841892,
        0.053996401327346316,
        0.03803244076662961,
        0.061790747309144606,
        0.013816566006719502,
        0.028305250310900115,
        -0.00803070432708164,
        -0.05152740917910205,
        -0.04581369315574531,
        -0.01075757558247914,
        0.026950545724205868,
        -0.0012328791094172453,
        -0.07460239359296944,
        -0.008079642074746402,
        -0.03511929548632222,
        -0.06606527508930055,
        -0.061196962130523724,
        -0.05006767482882837,
        -0.027882797830902244,
        0.0348438568238338,
        -0.008402652633592148,
        0.07004290289802712,
        -0.016938872222448137,
        0.05962924425955329,
        -0.0014574819035996084,
        0.0024245834670706123,
        0.07103940942776676,
        0.035755001444551154,
        0.04960710900753096,
        -0.05694492760735082,
        -0.07466683527514044,
        -0.01978712259678625,
        0.04172752814597988,
        0.005883990823592811,
        0.044510442037022674,
        -0.005590461564572796,
        0.007600717090075801,
        -0.01529556396392931,
        0.012246500263046287,
        -0.031858645373245384,
        -0.06579256413492943,
        -0.064746341800317,
        -0.02861586382916366,
        -0.0047531875182527245,
        -0.07532703920880826,
        -0.010334376704356732,
        0.019556178282627304,
        0.04434664429837813,
        0.01620979519969447,
        -0.006773155517342394,
        -0.04230356497318178,
        -0.07005123589965505,
        -0.04253541204068642,
        -0.06417934683835408,
        -0.05145699315984953,
        0.0619599890726151,
        0.059968774591332596,
        -0.03581764823739615,
        0.07081371716853238,
        0.05450810493365302,
        0.008285552788739728,
        -0.0602370430199276,
        0.013447958130190465,
        0.03856278242653545,
        0.020255751312133377,
        -0.034424594682725164,
        0.028198253360389502,
        -0.022282565839868616,
        -0.041380368561363956,
        0.038203820055986576,
        0.0018664506233365408,
        0.012018634626901517,
        0.021414404574236975,
        0.05171020892674075,
        -0.0354617389079814,
        -0.05546987850709698,
        -0.019564782475159095,
        -0.027196699187184363,
        0.026237331211934875,
        -0.07159375189373754,
        -0.02240282765917704,
        -0.07281612095042854,
        0.07662264757007237,
        0.006243046785895795,
        -0.05882591901982862,
        -0.043496751950241705,
        0.0675118982250161,
        -0.007338629125948501,
        0.03880862865704622,
        -0.04545607343229577,
        -0.00864401651273071,
        0.03442550926747262,
        0.04589920042516012,
        -0.053494791942709057,
        -0.06167773380130189,
        0.05607873367833349,
        0.010162859176277336,
        0.014838935367187528,
        0.05718581122672095,
        -0.06876421016306974,
        -0.007994564495513765,
        0.00616911994507624,
        -0.012547066608382756,
        0.03761678506842861,
        0.0050997969891586475,
        0.04381332182802343,
        -0.025634618805550458,
        0.0024293996362668574,
        -0.03595980021146448,
        0.047362339010278684,
        0.033007732538429244,
        0.014501765234944147,
        0.04712876608173769,
        -0.056420536746949204,
        -0.02616293273690027,
        -0.05223658088601224,
        0.04238532450758291,
        0.06339904609693892,
        0.04419007616923974,
        -0.06431035901941262,
        0.01014588858066226,
        -0.05310192640254206,
        -0.04679723627655098,
        0.02326259747304213,
        -0.013319198251119505,
        -0.04395804100434575,
        -0.0020318142166047964,
        -0.03579147923717083,
        -0.022032247769212657,
        0.04826224148281971,
        -0.050526423997335375,
        -0.03318273897211297,
        -0.03636055806936456,
        -0.047137739384357655,
        -0.03574387628234525,
        0.05092264751869638,
        0.04743558174481596,
        -0.06919750469224804,
        -0.07531783659417343,
        -0.06311197334556488,
        0.037289259283187146,
        -0.035364093966706124,
        -0.05344508905026188,
        -0.04716648477279135,
        -0.04912993985079795,
        -0.05872003385836508,
        -0.07482605359511633,
        0.034760662719381566,
        -0.015301351394891798,
        -0.054686477581915756,
        -0.06306920696118468,
        0.06027940698619649,
        0.06294929155268036,
        0.009174602355308856,
        -0.07540387576166352,
        -0.019649230816856073,
        -0.009547783141643895,
        -0.017562786334719548,
        0.04008900095827546,
        -0.07346958231443788,
        0.015533529233988708,
        0.01792791364191694,
        -0.0244958290229663,
        0.006776251505515002,
        0.024465136344692662,
        -0.07444987788442446,
        0.05204245619682191,
        -0.0688291291224999,
        0.045659922001109896,
        -0.013648938820943174,
        0.040061380776146696,
        -0.013787068305502415,
        0.06674635003685919,
        0.00921993360747006,
        -0.04625869701100172,
        0.026293335929324438,
        -0.01776082466527542,
        0.018890041550018055,
        0.02706122990158609,
        0.0692401327001341,
        -0.05993080127980925,
        -0.016901162654383392,
        0.031179645500810593,
        0.05684027108240422,
        0.016817476477436658,
        0.038179075914914054,
        -0.03325648426275546,
        0.03801093297339793,
        -0.025692489424948027,
        0.02589761001412892,
        -0.06223829002027095,
        0.01500634084225537,
        0.006197882074390024,
        0.02235139378488045,
        -0.0501726487805598,
        -0.06411167426554681,
        0.03482643791994504,
        0.001052167178038993,
        0.023298305246237896,
        -0.04333526507044234,
        0.016741555244322026,
        0.034644005042717696,
        -0.04198045902690012,
        -0.05537154390249765,
        0.02226785040525514,
        -0.029584508216627135,
        0.02330579821675001,
        0.06964991074755911,
        0.022942486125322598,
        0.06390932857481685,
        0.022376466337796164,
        -0.06569716609653212,
        0.007274067659830491,
        -0.015805260332428767,
        0.04824301283052715,
        0.03664240925054131,
        0.04111538679889061,
        -0.0061117999080461255,
        0.028664479408213497,
        -0.06864641581033606,
        -0.007751486041555414,
        -0.02696191434093667,
        0.043710813018294756,
        0.009473270729859623,
        -0.017133577320554386,
        -0.04778338020023637,
        -0.022896589566366664,
        -0.009796406431460833,
        0.04681314419133138,
        -0.007635393219372996,
        -0.02161075922428505,
        0.043473413551805465,
        -0.07314608918583727,
        -0.01676090677165705,
        -0.008948382319906134,
        0.07604800474990137,
        -0.05915889487503628,
        0.07238021301583483,
        0.041827037262292574,
        0.018154372350645334,
        0.0048869045012608775,
        -0.015168351866638716,
        0.03215320691665212,
        0.011152952404100275,
        -0.06295723078262358,
        0.028060242271818386,
        0.04129043772376176,
        -0.06438454226815035,
        0.05697707293979409,
        0.020864450196127676,
        0.06815808883395943,
        0.024287128336329455,
        0.0746533583354036,
        0.07071975838928898,
        0.05645728619377324,
        -0.0354194403256452,
        0.007653398762231811,
        -0.0594775060718543,
        -0.0003469882322069545,
        0.04422113587594978,
        0.036202950582362114,
        -0.06125111794263947,
        0.06255331473126169,
        0.012869133961446316,
        -0.04535479013918178,
        -0.06792381070027004,
        0.03005932073488045,
        0.03330215693199935,
        -0.04520790666202423,
        0.023392892507202667,
        -0.02812008917417049,
        -0.0008121629496251476,
        0.03966669340558335,
        -0.05806679390307862,
        -0.054315398702704326,
        -0.0336420047820748,
        0.059309853384287875,
        -0.06718497351506157,
        0.029626354406807942,
        0.014351463305942211,
        0.0072949866937351004,
        0.06286534454631243,
        0.05193111820070595,
        -0.04327945103661925,
        0.00530810322178378,
        -0.0008593320592644588,
        0.032911997680285146,
        -0.05179199404074711,
        0.0019021241808266365,
        0.05325583052292071,
        -0.0006578283202895718,
        0.07519550291315785,
        0.045199121884262936,
        -0.015116556825723194,
        0.06468893563354744,
        -0.051491935513670636,
        -0.06849840609844772,
        -0.02173951213487802,
        -0.07070306862502079,
        -0.035911627694435753,
        0.01085191790218612,
        -0.023666439261215318,
        0.03080135699250873,
        -0.010650610944037672,
        0.01945243615634902,
        -0.03543929867408688,
        0.07682287144958702,
        -0.06868317052780348,
        0.018830602892991363,
        0.011524878310090886,
        0.06262923591209452,
        -0.008837280472378348,
        0.03385835718938954,
        0.05636814692665654,
        -0.012544930680621721,
        0.037349141038501135,
        -0.057323275806294524,
        -0.04385115317127894,
        -0.024976008167373977,
        -0.027021692536175493,
        -0.028712910185001002,
        0.03933259402773316,
        -8.069729413073823e-05,
        0.034626102635739314,
        -0.01942056073428649,
        0.058051074086597876,
        -0.07500032175868637,
        0.032906186630029186,
        0.02345472496672328,
        -0.005024151426773246,
        -0.04388621363710768,
        0.009181378929143794,
        -0.06644515664371847,
        -0.026986033295478523,
        0.032231396858946174,
        -0.006537705844326863,
        0.02418269056083451,
        0.06304215018346959,
        -0.07217103898915482,
        -0.009719964608128281,
        -0.05917427904157126,
        -0.0708340459282663,
        0.01329902425020553,
        -0.06021214713843166,
        0.05961960999997834,
        -0.024618832789450734,
        -0.035687802776123184,
        0.037033272882757345,
        -0.03256524098126944,
        0.0023343233275341657,
        0.04051381470656197,
        0.03623579404636458,
        0.027142480851920933,
        -0.05271122262286628,
        -0.0642055587708628,
        -0.0343143321222546,
        0.06411134927222781,
        -0.017317674750111867,
        0.04614995538623404,
        -0.029863161269126505,
        -0.05854234333805768,
        0.0025224314045213247,
        0.05113895901951593,
        -0.0049542519008054925,
        -0.021521970583509402,
        -0.012200141893896677,
        -0.07289563485859299,
        0.004940744913635775,
        0.026384944830818186,
        -0.018636739746798532,
        0.04306837283937223,
        -0.030292907390080802,
        -0.00013954623727333026,
        0.05004340161915696,
        0.0032065462961186064,
        0.03512220323105977,
        0.05184943136437925,
        -0.07094376913334753,
        -0.0528900545805349,
        -0.03224583757158021,
        0.05974915930944322,
        -0.031063172815882098,
        0.015044533412678487,
        -0.04089253906571221,
        -0.038386891247687724,
        -0.07523158916127311,
        0.017093991224948216,
        0.03719199022813664,
        0.02282686767289123,
        -0.05123152826389121,
        -0.06496300312487657,
        -0.0650531190652474,
        0.031131679009931204,
        0.005756847116592509,
        -0.009542887584517087,
        -0.049820783547114555,
        0.05006389222352667,
        0.006570218228379332,
        0.005866088109308776,
        0.05036772765406708,
        -0.012380990760242655,
        -0.06323333575982622,
        -0.049862858263519154,
        -0.04511414155336161,
        0.009310634724860961,
        0.07107959430357111,
        0.032689621898447416,
        -0.05507700540848362,
        -0.008705531408507342,
        0.042891362501671235,
        0.03972821639299,
        0.02411580915456113,
        -0.02232343425387648,
        0.06930178203274343,
        -0.0030026099107652443,
        -0.022742612266831233,
        0.03408342600229415,
        0.010451207604565985,
        -0.011466426953200895,
        -0.02112654476486265,
        -0.03731528857064901,
        0.005762520706367583,
        -0.00212902114149556,
        -0.07262904841233676,
        -0.029341502254883273,
        -0.06921723909536785,
        0.004872610519350562,
        -0.0025842029596417904,
        0.06078486895631999,
        -0.006672578351291647,
        0.04445929068265714,
        0.04280292258123174,
        0.021086378261658045,
        -0.05264057239371425,
        0.0076914511345100856,
        -0.047475272403277514,
        -0.004875081355613958,
        -0.008458694993510263,
        -0.027412511923408794,
        0.07236677956027476,
        0.06695606454993486,
        0.004621680825893551,
        -0.057380307415082044,
        -0.00402494157106871,
        0.04087976540543861,
        0.03508413694475904,
        -0.06282384954641057,
        0.019680543434565073,
        0.05158035948292916,
        -0.03849104162126376,
        -0.028880503165150867,
        -0.06467069367345055,
        0.05828655845950237,
        -0.04601041474554103,
        -0.00411922084491069,
        -0.018387882231396285,
        -0.03104632476040991,
        -0.011640594319470732,
        0.04398992153665393,
        0.04805013602075495,
        0.061801307397478855,
        -0.04113635087103952,
        -0.01704163526538917,
        -0.042576593442418556,
        -0.06603108405196485,
        0.06883019511534338,
        0.019728540136607936,
        0.01504770268668057,
        0.04491462688289531,
        -0.0036595008071062946,
        -0.008312120242136761,
        0.062451791037501925,
        0.0436545400133959,
        -0.022583049468066538,
        -0.07465649023666336,
        0.0135246740999206,
        0.05657952092375823,
        0.06681210414648264,
        0.07118611379282608,
        0.01547542433361404,
        -0.07409502951847419,
        -0.02144634391011354,
        -0.03432087120952961,
        -0.02215712112722927,
        0.024577732174745515,
        -0.009546860605950655,
        0.028736378521025535,
        0.002327284835068416,
        -0.06524734910583223,
        0.0064642557151554925,
        -0.04923869432689733,
        -0.04832249427293499,
        -0.048651866737752354,
        0.02659576745674766,
        -0.03522756594793871,
        0.062451317981847665,
        0.03451450750147307,
        -0.00992262570439957,
        0.028132462404797484,
        0.052846573855980294,
        -0.019145869664449554,
        0.005817558469461373,
        0.03637127126994065,
        0.01224696936328741,
        -0.06515114569016882,
        -0.024362107433824845,
        -0.055208292917484,
        0.024210700991776232,
        0.03559786013227639,
        0.01862077716916541,
        -0.07402238423498232,
        0.012774885524383772,
