{
  "num_class": 10,
  "num_hidden": 200,
  "num_visible": 20,
  "params": {
    "bias_b": [
      0.0,
      0.0,
      0.0,
      0.0,
      0.0,
      0.0,
      0.0,
      0.0,
      0.0,
      0.0
    ],
    "bias_c": [
      0.0,
      0.0,
      0.0,
      0.0,
      0.0,
      0.0,
      0.0,
      0.0,
      0.0,
      0.0,
      0.0,
      0.0,
      0.0,
      0.0,
      0.0,
      0.0,
      0.0,
      0.0,
      0.0,
      0.0,
      0.0,
      0.0,
      0.0,
      0.0,
      0.0,
      0.0,
      0.0,
      0.0,
      0.0,
      0.0,
      0.0,
      0.0,
      0.0,
      0.0,
      0.0,
      0.0,
      0.0,
      0.0,
      0.0,
      0.0,
      0.0,
      0.0,
      0.0,
      0.0,
      0.0,
      0.0,
      0.0,
      0.0,
      0.0,
      0.0,
      0.0,
      0.0,
      0.0,
      0.0,
      0.0,
      0.0,
      0.0,
      0.0,
      0.0,
      0.0,
      0.0,
      0.0,
      0.0,
      0.0,
      0.0,
      0.0,
      0.0,
      0.0,
      0.0,
      0.0,
      0.0,
      0.0,
      0.0,
      0.0,
      0.0,
      0.0,
      0.0,
      0.0,
      0.0,
      0.0,
      0.0,
      0.0,
      0.0,
      0.0,
      0.0,
      0.0,
      0.0,
      0.0,
      0.0,
      0.0,
      0.0,
      0.0,
      0.0,
      0.0,
      0.0,
      0.0,
      0.0,
      0.0,
      0.0,
      0.0,
      0.0,
      0.0,
      0.0,
      0.0,
      0.0,
      0.0,
      0.0,
      0.0,
      0.0,
      0.0,
      0.0,
      0.0,
      0.0,
      0.0,
      0.0,
      0.0,
      0.0,
      0.0,
      0.0,
      0.0,
      0.0,
      0.0,
      0.0,
      0.0,
      0.0,
      0.0,
      0.0,
      0.0,
      0.0,
      0.0,
      0.0,
      0.0,
      0.0,
      0.0,
      0.0,
      0.0,
      0.0,
      0.0,
      0.0,
      0.0,
      0.0,
      0.0,
      0.0,
      0.0,
      0.0,
      0.0,
      0.0,
      0.0,
      0.0,
      0.0,
      0.0,
      0.0,
      0.0,
      0.0,
      0.0,
      0.0,
      0.0,
      0.0,
      0.0,
      0.0,
      0.0,
      0.0,
      0.0,
      0.0,
      0.0,
      0.0,
      0.0,
      0.0,
      0.0,
      0.0,
      0.0,
      0.0,
      0.0,
      0.0,
      0.0,
      0.0,
      0.0,
      0.0,
      0.0,
      0.0,
      0.0,
      0.0,
      0.0,
      0.0,
      0.0,
      0.0,
      0.0,
      0.0,
      0.0,
      0.0,
      0.0,
      0.0,
      0.0,
      0.0,
      0.0,
      0.0,
      0.0,
      0.0,
      0.0,
      0.0
    ],
    "weight_w": [
      [
        0.15808386332814567,
        0.0734236412093118,
        -0.028456452126310122,
        0.10332391222604992,
        -0.09683324619035769,
        -0.14458285512865685,
        0.06740430396902616,
        -0.16272578243221933,
        -0.02964297723716236,
        -0.08725657843247445,
        -0.0066264019383646955,
        -0.07572815633956015,
        0.08253013068713405,
        0.028809307554118063,
        -0.11682515950309566,
        0.1367367412032071,
        0.04091176148346706,
        0.16195207408525525,
        0.12065208263285643,
        0.1451375971326468,
        0.1584293749151826,
        -0.0470766092666272,
        0.0259925106694453,
        0.10419378602628049,
        -0.007560325247616323,
        -0.05060564751019693,
        -0.04623689963345337,
        0.09245903057421223,
        -0.10131341431160372,
        0.10904651589516812,
        0.1148477364616537,
        -0.1031853406630316,
        -0.0904926548246514,
        -0.1056287964206267,
        0.06694112476339523,
        -0.15927617994468435,
        -0.03224818589604275,
        0.05518035010844999,
        0.11753767678778693,
        0.0881867208165073,
        -0.08563555097560992,
        -0.14474264761581768,
        -0.060116044710135444,
        0.15656817591394379,
        0.08934332036369852,
        -0.08861822531617239,
        0.14788813552626784,
        -0.16627836231700582,
        0.0829666533718959,
        0.12802664870723668,
        0.1457219519958073,
        -0.13908856420212057,
        0.02685767925048041,
        0.12413482226415778,
        0.060342289450439235,
        -0.04607644071019916,
        -0.06260232388576677,
        -0.05723697243780729,
        -0.02659199332764603,
        0.03055842170707032,
        -0.06610463301589388,
        0.005535422808739282,
        0.007890451425925149,
        0.01158700494928297,
        -0.02623338525068669,
        -0.09935446117569917,
        0.01935955413740109,
        -0.07590067976027802,
        0.04826040069699486,
        -0.1494099926356431,
        -0.0737927143700725,
        0.041398590000505886,
        0.10919112322775526,
        -0.08330833010339062,
        0.06407076306246848,
        -0.1568976541600849,
        0.11769031143026659,
        0.11485442558271464,
        -0.035986914384282004,
        -0.03822285151205376,
        0.12244010199281424,
        0.12479016260952763,
        0.009350911344470192,
        -0.06850710989949167,
        -0.004338090019391283,
        0.071707424610813,
        0.04977720875496841,
        -0.16458493698271062,
        0.13928852916840895,
        -0.1347322599253399,
        -0.1475490589102589,
        -0.10390213158876575,
        0.1542198189044412,
        -0.12438038703695221,
        0.14353555530825046,
        0.02175649874305685,
        -0.04557368231430617,
        -0.1467220307027305,
        -0.02451890837713419,
        0.10484100652515393,
        0.0744810883630801,
        -0.1546526625463448,
        -0.11093485400643456,
        -0.05294140783493609,
        0.0447917450014193,
        0.12178930785871028,
        0.07392361658719965,
        0.10388555808123778,
        0.12249488650146512,
        0.1285628187424359,
        0.10295104582708825,
        0.031464723226782204,
        -0.1134067214569309,
        0.16194325663964115,
        0.0861430305811669,
        0.12815255657570418,
        0.09690915115041454,
        0.12086872060662524,
        0.16008806071328885,
        -0.10133695635564749,
        -0.16692409466491556,
        0.060139446988043965,
        0.06179352523481818,
        0.06602680670362254,
        -0.12076863215843166,
        0.01833643078339392,
        0.04631856987769334,
        0.15652222489810308,
        0.12873614674630318,
        0.1343169331801205,
        -0.05004346735520922,
        -0.06522664231012669,
        0.004558684227563614,
        0.1172168199896449,
        -0.056287914188926105,
        -0.1460300559095864,
        -0.14679502956593202,
        0.12084768549558345,
        -0.012203398426567869,
        0.15649107205086427,
        -0.05575200390971899,
        0.152005807332529,
        -0.1207042831889101,
        0.04394409277201758,
        0.1495551902767681,
        -0.02424684609034186,
        0.1577820041810647,
        0.14229420419266275,
        0.09435656712300922,
        0.06798613628867287,
        0.054479428706631194,
        0.07250044262189564,
        -0.14638422009787305,
        0.11210930607598246,
        -0.04817991014718749,
        -0.12501814020600377,
        0.0360333204492789,
        0.05040373635209755,
        0.11036364177865055,
        -0.13347778889986261,
        0.08710965906346929,
        0.13684298074499818,
        0.017899159786632424,
        -0.04585570900598275,
        -0.11192090230410119,
        -0.0069026911288919135,
        -0.007689279744438421,
        0.0645100746050046,
        -0.03284683133734431,
        -0.0666665661392646,
        -0.056603121447477284,
        -0.16302805427962602,
        -0.1642547897489078,
        -0.06088125607185452,
        -0.04956790046052416,
        0.084915829118202,
        -0.09404280527592884,
        0.15952051920898852,
        -0.05203088709052006,
        -0.004982010593069353,
        -0.10227650107926944,
        -0.008583753137155897,
        -0.035815421532679775,
        0.0765210538086456,
        0.11689118571331397,
        0.0657688209406001,
        0.11345836142290805,
        0.004388441417109312,
        0.15958606598249292,
        0.05665480882371246,
        0.15622150717007438,
        0.07558054938689124,
        0.05081962088899439,
        -0.09796142980881224,
        0.04536695490775383,
        0.08510887611163853,
        -0.0948212008502712,
        -0.06784202335457108,
        0.13869929691414123,
        -0.09200121456986243
      ],
      [
        -0.04015048517809036,
        -0.08176295508343089,
        -0.12439715562769901,
        -0.15453309230985932,
        -0.020253303399169836,
        -0.017118841833830722,
        -0.003272750335822361,
        -0.10235089086289069,
        0.15383751067779666,
        0.03154501226707304,
        0.053250470562238,
        -0.08896384142013725,
        -0.04223558012257789,
        -0.11956671133913631,
        -0.01401188707928977,
        0.03813274311048884,
        0.06488670099470012,
        0.0021885646390022995,
        -0.14544805776227623,
        -0.13195325606769975,
        0.03537333274701726,
        0.13183487239273894,
        0.14409855550896283,
        -0.07370990910357644,
        0.06287653083008779,
        0.13980847232278815,
        -0.11111754331967987,
        -0.1581865327695821,
        -0.11310540621942738,
        -0.014311397791886171,
        -0.1547123429074175,
        -0.09266893117576189,
        0.12228524559966397,
        -0.003748111746092686,
        -0.0007906464863840501,
        -0.06346762289687116,
        -0.055019834522981384,
        -0.01046449531757887,
        -0.044940139977289364,
        -0.15036155687429067,
        0.010787871599791082,
        -0.03318835251996885,
        0.041209841987694285,
        0.09492128515597631,
        -0.019829869325638433,
        -0.07210133284475578,
        0.08341241948490496,
        0.08580818901262988,
        -0.08916324112081132,
        -0.0360335309803847,
        0.0370175753252488,
        -0.08094845443312551,
        -0.08416154581769944,
        -0.16673443361751153,
        -0.07878785531405255,
        0.10038986375166076,
        -0.07403398930932802,
        -0.1350428466913863,
        0.10464421959579856,
        0.09623534324870991,
        -0.059369418228007786,
        -0.017264572838281866,
        -0.10278402499505705,
        0.13558384643384624,
        -0.040102163321568574,
        -0.07622265187277752,
        -0.16175453771686313,
        -0.16396383108535562,
        -0.13483710717396993,
        0.03886281270747219,
        -0.029550676414095145,
        0.10795774169645639,
        -0.08977663659452387,
        0.021810676488450448,
        0.10587100662615384,
        -0.05167023599293609,
        0.14044900053227233,
        -0.05412657018377234,
        0.06683914732054533,
        -0.16826788213006696,
        -0.13288579671765183,
        -0.05733818436818225,
        0.036180685527582385,
        0.06983801936243064,
        -0.1298202971238066,
        0.03576134549065613,
        -0.10668626969649128,
        -0.09149553912558352,
        -0.07280072369283812,
        -0.004057421753859092,
        0.12106268680926102,
        0.11624052790612183,
        -0.07683349262744316,
        0.016645648682828612,
        -0.13885172580427063,
        -0.12763234364856235,
        -0.14002852242510952,
        0.12277766476426305,
        0.0031891617776208525,
        -0.06804782910391356,
        0.0011700769301941083,
        0.16517864469206506,
        -0.05955260509132265,
        -0.03123094184329872,
        -0.12409722170544768,
        -0.11158626963586371,
        -0.032185575757068374,
        -0.10240218493964393,
        -0.12649315165585484,
        -0.13705750470836603,
        -0.002562958309398178,
        0.11322552756310411,
        -0.04110336482536858,
        0.117065069417145,
        0.14683837686480766,
        0.09476280544950771,
        0.1007322472091492,
        0.06622607360219118,
        -0.030535078294621154,
        0.037696120729311555,
        0.06316644379127745,
        0.1287430743568413,
        0.024442805434848003,
        -0.05103202671435898,
        -0.09435659101870998,
        0.014643365028294997,
        0.13050902796446812,
        0.06315369656863098,
        -0.07362511984030577,
        0.07592647073415051,
        -0.15604540254710503,
        -0.01473028545023955,
        0.03910052007362952,
        -0.08414131799608077,
        0.1463275200194284,
        0.11993958304890323,
        0.015375367786610639,
        0.13295535934548602,
        0.1466141048865351,
        -0.11129214531876154,
        -0.07036207701888333,
        0.12150182937414616,
        -0.13555204749956332,
        0.010242716420446663,
        -0.12600571433535146,
        0.018664647433739162,
        0.16366070237075014,
        0.13517358450595007,
        -0.03667665441856513,
        0.08364036941830172,
        0.0459517355909497,
        0.15593172067991812,
        0.07274246161405176,
        0.10237634890141023,
        -0.125253001392265,
        0.07760609336392033,
        -0.12569362945586376,
        0.16411388681991662,
        -0.11755986723719,
        0.03244116644630668,
        0.06615188308992667,
        0.07525982734334816,
        0.0973511497093758,
        -0.08890957367127043,
        0.07555559084530247,
        -0.14789459813523007,
        0.07488975940314449,
        0.07939559394190057,
        0.10072186645958803,
        0.05328155883453187,
        0.05689433226303264,
        -0.001450233066103701,
        0.057480349234116795,
        0.09664395778717688,
        -0.14954188202408186,
        -0.13225887220074684,
        0.1033254659161077,
        -0.15087305910168047,
        0.0238529572430356,
        -0.09726868251189714,
        0.03569838648750073,
        -0.011204981656579321,
        0.028274680096115695,
        -0.09930771539110571,
        0.019515368520583082,
        0.06902665617337508,
        0.13129578196935926,
        -0.0633447175103022,
        -0.054017090375352905,
        0.07260862737641918,
        -0.013728428550351585,
        0.002211996979152503,
        0.09800792686953896,
        -0.14593697044211407,
        -0.003036805271983245,
        0.14742200682094297,
        -0.016273459104707233,
        0.04014162025006432,
        -0.021864610247214644,
        0.00560553725453683
      ],
      [
        -0.06412996424671498,
        -0.15650166804684829,
        0.10542219791489366,
        -0.09277579501571913,
        -0.14499579497363704,
        -0.11377018870624919,
        0.10444152640723209,
        -0.0745615224228222,
        -0.1084411237654812,
        0.1561846741399101,
        -0.07212288269107126,
        -0.021000638993666387,
        0.1660621434301937,
        0.12336736747245519,
        0.09121666511793353,
        -0.047225886102013476,
        0.09510222392058315,
        0.06769162693083935,
        -0.01330179736500367,
        -0.11596751406850178,
        -0.08738676515025809,
        -0.15814926680168384,
        -0.03630459940324046,
        0.14378433498804333,
        0.040988981196272395,
        -0.15764322767333672,
        -0.11954517348929346,
        0.1451512854087238,
        -0.015519074800354582,
        -0.11743234533356806,
        -0.14212537249379664,
        0.09689968906945756,
        -0.05638827193823448,
        -0.057834258798464114,
        -0.12253662184664871,
        -0.12429812565250101,
        0.020353914053945932,
        -0.05434717545895733,
        -0.08612880215854182,
        -0.08468504846600661,
        -0.09987180952847685,
        0.0920306083098481,
        0.045888849120657965,
        -0.01349614960930981,
        -0.05585227646382776,
        0.12763748194521501,
        -0.1295758233617015,
        0.10360077725674222,
        -0.01630876286520805,
        -0.04557617002596091,
        0.1522278077756291,
        0.07129428666637758,
        0.05911439355986506,
        0.12839970743564005,
        -0.11088277000221325,
        0.021595106692097354,
        0.0916805225088343,
        0.12867780464637657,
        0.011978206983333628,
        -0.09827503460031087,
        -0.15669134915342528,
        -0.09737008131108314,
        0.12295262261092288,
        0.055963674642481503,
        0.12676038902420184,
        0.06975939826458563,
        0.06890904357326122,
        0.004341959399920936,
        0.021118187262016308,
        0.16065509983990178,
        0.09385170260694015,
        0.14295485132184715,
        -0.04823601590392068,
        -0.14048136487586455,
        0.055713569363410875,
        0.013707598775327012,
        -0.13100348260031675,
        0.1124394361460821,
        0.025393636302349948,
        0.061621999002658495,
        -0.0894063699208003,
        -0.03665355605505011,
        -0.0675427787712719,
        0.09028425551859082,
        -0.09223326358902215,
        -0.0676011394751803,
        0.0003558918696205948,
        -0.11111948751837164,
        0.1578563784670492,
        -0.04641121493462175,
        -0.16821598198053744,
        0.15439535646104985,
        0.12700381147606427,
        0.03805266100780566,
        -0.08576857441249078,
        0.07016822046525975,
        0.03057355483821922,
        0.09029625226967047,
        -0.15157826870390362,
        0.03722204096703599,
        0.05107799277826808,
        0.12742015391957606,
        -0.06070488971940703,
        -0.08781553311717276,
        -0.15347841952412647,
        0.07655329207948325,
        -0.09589515697307434,
        -0.15997056369628074,
        0.01047421139725288,
        0.0014949954344447847,
        -0.04474880744222523,
        0.0657821435562029,
        0.06083122095242974,
        0.12656674640666565,
        0.020968477847554373,
        0.055975424901375775,
        -0.027466123780598456,
        0.032969179532281984,
        -0.03626976965157336,
        0.06396781363479856,
        -0.0769420893371844,
        -0.14879163429080283,
        0.09307569258273846,
        -0.010106394007491748,
        -0.057802770750404464,
        -0.16820543294231063,
        0.118107975603997,
        0.14423535161548712,
        -0.012726156399685273,
        0.057158086259373714,
        -0.012293091092779762,
        -0.09837412153647548,
        0.009482982198033812,
        0.13325606129042944,
        0.12485138801417223,
        -0.1182101670042641,
        0.07232505365791791,
        0.16200578935943227,
        0.08483163182339526,
        0.10528156413330347,
        0.09432338961914655,
        0.07786873534218663,
        0.10847273132248869,
        -0.09002717696587277,
        0.1370812547110674,
        -0.08040334427045384,
        -0.12912694185710963,
        0.033067740042847626,
        -0.07429572531952157,
        0.04829746999412804,
        -0.10203687828795183,
        0.019053813934960778,
        -0.08494237652839637,
        0.1254631673957306,
        0.13659525120024546,
        0.1619043252457617,
        -0.13590691022920767,
        -0.05577761898879294,
        0.014179058368655378,
        -0.06876364936423462,
        0.06115678981862002,
        -0.12737235687551707,
        -0.08107876368037926,
        -0.04752650304962815,
        -0.15549888566551576,
        -0.03148924219048013,
        0.011344705149504558,
        -0.041932326390581254,
        0.0008353568363491937,
        0.15902344560521575,
        -0.15524717036765756,
        -0.16188061304993345,
        0.042502391329857836,
        0.14197441815432688,
        0.07213686486317686,
        -0.07299116595266066,
        0.0629054689701356,
        -0.14629497570565742,
        0.0230731915299435,
        0.000731870277771024,
        0.16884872108504528,
        -0.13021728750506487,
        -0.05102113047593282,
        0.086215167746161,
        -0.040457207067547185,
        -0.14271019840819027,
        -0.15725067608650786,
        -0.1454402299053234,
        0.08720382929552567,
        0.12431602157982197,
        -0.09330667847787162,
        0.05900678862013631,
        0.10969257360721985,
        -0.09175808869690925,
        0.01739099678745032,
        -0.15535529675022244,
        0.03609973132161448,
        -0.040385989313489884,
        -0.11436781159383909,
        -0.1311561078618441
      ],
      [
        0.12494851309904231,
        -0.07918863284191238,
        -0.15369195290768073,
        0.09859803023714164,
        0.11058668517037051,
        -0.0042154978276008614,
        -0.1602041108048361,
        0.04573352639313205,
        -0.029635934462072022,
        0.13223967613948678,
        0.11377753594292733,
        0.050455691675991426,
        0.059331470746207954,
        0.0697363631072973,
        -0.10327797755510458,
        0.0006139440381800199,
        -0.091805745624633,
        -0.07643304406787954,
        0.07855494333894122,
        -0.04100736090490939,
        -0.15903252265064366,
        -0.11367030638369632,
        0.054334778412118756,
        0.11304439660124782,
        -0.0402123468006583,
        -0.02488265874313275,
        0.15983819691727635,
        -0.0348095986618043,
        -0.036635544533081155,
        -0.02919830710386187,
        -0.07280503680790001,
        0.13274021700568672,
        -0.15115566279423734,
        0.15727800755631083,
        -0.04710700269408456,
        0.022184959588541164,
        0.08537975643448159,
        0.03184315723997505,
        0.10426854170870936,
        0.006896578939048825,
        -0.09428632523326866,
        0.15400351893535885,
        0.04215328642976743,
        -0.06851397602383329,
        0.08247593593820013,
        0.035275918364958525,
        0.039790896738033266,
        -0.065458777878012,
        0.10719914024556682,
        -0.11064075686500374,
        0.08807297879610049,
        -0.11112201755101606,
        -0.11913015695435508,
        0.15066613399027795,
        0.010720463696402782,
        -0.03920775739819521,
        0.16468833944873879,
        0.08756732909703985,
        0.16176820372534578,
        0.07696389651152363,
        -0.05188695874102223,
        -0.0333521255191645,
        -0.053655299390451494,
        -0.16819111709327358,
        -0.051299978772898644,
        -0.042094410535703036,
        -0.14494060048932472,
        0.13663663747033084,
        0.022506323626893865,
        -0.04332387707317012,
        0.031061161771287205,
        0.09751611984964015,
        0.15525812280646312,
        -0.1376242196915522,
        0.0682323332156532,
        -0.16400115310758118,
        0.1415476469901304,
        0.12551412648099647,
        -0.11121212428406788,
        -0.019020632713082575,
        0.10787306265982999,
        -0.16224964572672473,
        -0.14400669560895046,
        0.15338714846327478,
        0.143624343364937,
        -0.08451515967614137,
        -0.10023246284150761,
        -0.11625872205526433,
        0.13016168081631724,
        -0.027452355997551053,
        0.02734484422360073,
        -0.05349904293997655,
        -0.13182467817729773,
        -0.0005101739891502644,
        0.06156949460798869,
        0.002682528465374062,
        -0.005731109809086088,
        0.16498963181682624,
        -0.10154297349594918,
        0.14041011213118565,
        0.07551079333066227,
        -0.10626836756005408,
        -0.06669713066554414,
        0.009240420463401205,
        0.12165148639275764,
        0.08678742495517933,
        -0.0773166384437764,
        -0.010718696926028864,
        -0.10546276981201545,
        -0.08008600717973313,
        -0.02600719871963439,
        0.05889823754406534,
        -0.005863973293215918,
        0.04543773519762831,
        0.023401570131062754,
        -0.04783826477283841,
        0.0712949488909344,
        -0.05773679656777023,
        0.11159556263418574,
        -0.031256093086308834,
        -0.07591754935231523,
        0.06968643952559467,
        0.09410473010691989,
        0.09794821104787654,
        -0.05924380782464006,
        0.16826031453327228,
        0.13972032975349225,
        -0.07358951725428547,
        0.06496766934898443,
        -0.09473950235328013,
        0.14966255646349136,
        -0.08404212154387947,
        -0.03912658725295745,
        0.03041878638675441,
        -0.16691950763528934,
        0.15996555249066435,
        -0.029377601386369884,
        0.12377405895468246,
        0.004843497595461099,
        0.13074301164332325,
        -0.13340914167641008,
        -0.029588554715671622,
        -0.10670977173491877,
        -0.05858164588930523,
        -0.0561268596238073,
        0.16442517059506873,
        0.167960522095358,
        -0.028426007857301455,
        0.09803223474647371,
        0.011344256576279715,
        0.07042748707484328,
        -0.14703393636616685,
        0.10141394740248999,
        -0.04837215287574205,
        0.04023267746884496,
        -0.07139749060144893,
        -0.08407373175848154,
        0.037804786020109477,
        -0.06392796387619609,
        -0.15143615640626953,
        0.11511411343992844,
        -0.04788549281241755,
        0.14831321382800194,
        -0.09651304536756287,
        -0.14212367793037553,
        0.07734548766388188,
        -0.14849811833864376,
        -0.0732654296473596,
        -0.11973370782155054,
        0.16277154615753753,
        -0.07693433114423892,
        -0.1645170954793768,
        -0.0499011772045021,
        -0.1158438094388782,
        -0.006772193924438813,
        0.1338548707200201,
        0.1371149510222162,
        0.15935252390057286,
        0.025943597533237772,
        -0.0915350024372759,
        0.14977597843091278,
        -0.11317022155122188,
        -0.14688315258814774,
        -0.0423381703542878,
        -0.10940471892478996,
        -0.08487810137932393,
        -0.05211231316911587,
        0.030105779187021647,
        0.1404266016068369,
        -0.009434739019249294,
        0.13776497439470275,
        -0.0646888702594294,
        0.11154750421065746,
        0.1665034996155561,
        -0.003913961700149404,
        0.07620816095371469,
        0.07207354729191592,
        0.026769852931479182,
        0.08132616704487855,
        0.053200648693486924
      ],
      [
        0.15619132939047603,
        0.029068231377574943,
        0.13336513799420263,
        0.00630641108395108,
        0.020796664391735498,
        -0.1083632558993111,
        0.15728479057925288,
        0.0011589426412775272,
        0.0010615404857892974,
        0.032279803015621444,
        -0.1515368455551074,
        0.09815239899309575,
        -0.03815666262851358,
        0.14996110867296553,
        0.1682029005510487,
        0.064363064393502,
        -0.08901719879708228,
        -0.09424138121099151,
        0.1466586029021994,
        0.0005241166688529919,
        0.010804622441885015,
        -0.11967168285618568,
        0.06419662231206755,
        0.1567580949338372,
        -0.12324760692807146,
        0.1135950609567255,
        -0.16464549638529116,
        0.0357125418664859,
        -0.1430276386246483,
        -0.0558025540148384,
        0.015677023970640136,
        0.13675457460697804,
        0.1685949617520477,
        -0.11537454422120208,
        -0.06652029490991547,
        -0.027483741979517112,
        -0.018368983070991496,
        -0.1461564605289544,
        0.09353325443876936,
        -0.10598257369393119,
        0.023114353851780567,
        0.1060137579297677,
        -0.05514302040045371,
        -0.10895269588587309,
        -0.15144141924536225,
        -0.08808727874403577,
        0.09970692315551288,
        -0.08430230509709369,
        -0.11798921856253763,
        -0.012491699076243923,
        -0.027857315226342577,
        0.0909082392746482,
        0.16088613408929836,
        0.1316650639262324,
        0.14581442426486946,
        -0.036236249016884076,
        0.12828507622144458,
        -0.11088602232018063,
        0.03611406029531722,
        0.04733120107875918,
        0.09100888946219426,
        -0.03478443905336287,
        0.10115483009368992,
        -0.018602807462839488,
        -0.02524442277425959,
        -0.11347973001194234,
        -0.03732304672309322,
        0.05381542002589995,
        0.012227945389127526,
        -0.06852455645871997,
        -0.0006723786598036019,
        0.12167056269868931,
        -0.013069941975216187,
        -0.152800294534674,
        0.12721743502493604,
        0.03722890171097326,
        0.009417305440910767,
        -0.09957479695326012,
        -0.045120411014116124,
        0.02813122647578964,
        -0.06109219658406115,
        0.07005618414702972,
        0.0973748515576563,
        0.10066536539869314,
        -0.09189394921042826,
        0.16056847902525245,
        0.12379174989841008,
        -0.14319159496616013,
        0.16590296419985062,
        0.1547884659909753,
        0.030437210427720407,
        0.09878496673189396,
        0.08440646723594031,
        0.024802904493566674,
        0.05465487924222123,
        0.06146941584731708,
        -0.08987737485729658,
        -0.07000141882227075,
        0.07771967562402696,
        0.13174259633233493,
        0.11893396763297015,
        -0.09924982491527747,
        0.0021694217112988023,
        0.16004686637343835,
        0.05322479373440944,
        0.1153780596088847,
        0.03511067789789654,
        -0.04697005399450614,
        0.13637945033783,
        -0.06154249379765822,
        0.08530059910003829,
        0.1621718565465763,
        -0.06370341015915722,
        0.024848176888036894,
        -0.1334969332182025,
        -0.08762925607119355,
        -0.14408578097880997,
        0.14135609567960156,
        0.16226910670137867,
        -0.10125992922644574,
        0.12607534363028838,
        0.11698991935237418,
        0.13015241534835914,
        0.07240585539652036,
        -0.06761518576838359,
        0.0008234576895751189,
        0.11819888294656111,
        -0.02333443369055535,
        0.020467227175502783,
        -0.16315651387319374,
        0.11901207903439825,
        -0.08808882680589379,
        -0.07159564014580835,
        -0.08881981128461283,
        -0.10249131093425828,
        0.07860594395467135,
        -0.09772794154506716,
        0.101499613511147,
        -0.02681511798733252,
        -0.022919681074628023,
        -0.05113082657336916,
        0.15171617499525264,
        0.040985857093170014,
        0.13291328348266424,
        -0.0806212546263488,
        -0.09899708941947173,
        -0.09150320997799946,
        -0.09027167587898488,
        -0.10134555231773093,
        0.022449251311666085,
        -0.03312729935827677,
        0.01464671027239331,
        -0.019068208324981323,
        0.029204018452232305,
        -0.13242799467990451,
        -0.13105581156184906,
        -0.021039602440129535,
        -0.12143894170057362,
        0.01194777944434347,
        0.14777663854650108,
        0.08480163868887841,
        -0.06040882829393529,
        0.10803040390166818,
        0.06715854437807386,
        0.020938625914172393,
        0.07904083749485666,
        0.15220881915541745,
        0.08390599131522203,
        0.1299811420212188,
        -0.056348576296126066,
        0.1048202345863119,
        0.13542290071531632,
        0.05789791580519263,
        0.07910615064550994,
        -0.06910721060603575,
        -0.00906966993754399,
        0.04903830639667833,
        -0.1339155444121722,
        0.13678721653637954,
        -0.046456326209933035,
        0.04147979365114424,
        0.0864519100255251,
        0.015758127683526163,
        0.16518054033066942,
        -0.08070066921781327,
        -0.00039974706803688753,
        0.10456740971975415,
        0.09108741360532963,
        0.14926249773909095,
        0.01571806745813442,
        -0.03947892622064464,
        -0.11411783385360122,
        0.08745062583131791,
        -0.08520060836646451,
        0.03202044915630667,
        -0.15059642565820203,
        0.04782625029013429,
        0.11874468663792687,
        0.12029051988537992,
        0.08395919790714013
      ],
      [
        -0.10725246999911557,
        -0.08068317233017089,
        0.09721393264113554,
        0.013771797618391146,
        0.01366201845277254,
        0.13032028899769244,
        -0.07018554401819849,
        -0.09604192737190499,
        0.13225730199201713,
        0.0793033327745507,
        0.00980263694202177,
        0.1161889991885095,
        -0.14545121656041163,
        -0.11414153902722023,
        0.03012307227262323,
        0.09565867327214755,
        0.041081074681015406,
        -0.02175102103554627,
        0.08852654369296126,
        -0.05771335669342566,
        -0.15139517991303494,
        -0.1468524765942059,
        -0.04656434250604084,
        -0.1074186169256471,
        -0.1568219934607644,
        0.1362276575276991,
        0.06407422219116585,
        -0.07819892711483944,
        -0.05431629863767326,
        -0.008533494478580733,
        0.07971902148553178,
        -0.10206530759621442,
        -0.10453720229598094,
        0.1222099493657336,
        -0.048304856347016104,
        0.055970399818371736,
        0.08297958914962433,
        0.11829481881871512,
        0.14178844091447296,
        -0.01937064305335684,
        -0.05899679273737182,
        0.04614058885937822,
        -0.07281958030299072,
        0.07646568856056618,
        0.0917535131980558,
        -0.1655345218417998,
        -0.13102841320528896,
        0.1462698620533216,
        0.14624463337953708,
        0.13908943978480104,
        0.05206990476929496,
        -0.04703165713979798,
        -0.01073017039291374,
        0.13971648184776864,
        0.021420576837034216,
        0.1265082886728484,
        -0.06063625668257512,
        -0.15065822397201134,
        0.0609456553871085,
        -0.10270800451991564,
        0.12685620262371777,
        -0.13437871968936316,
        -0.07598159441457847,
        0.04853907300646093,
        -0.0030558222181204797,
        -0.15802700513771878,
        -0.04483299280320066,
        -0.03926253433021287,
        -0.03242468180960714,
        -0.04702843911043038,
        0.16192240159874582,
        0.025054221550307343,
        0.05878277642285992,
        0.11865521341398072,
        0.05798586615759063,
        -0.0111101341045092,
        -0.0826057182466273,
        0.1463920536770748,
        0.052786653217769625,
        -0.04058822207897678,
        0.11109932245063392,
        -0.1659274133424854,
        -0.09664157555031096,
        -0.16253439297351635,
        -0.0426636972558434,
        -0.11609194715264741,
        -0.07574763767748573,
        -0.1487280494607395,
        -0.1554485166790207,
        0.11858811055998691,
        0.10414687083936369,
        0.15048069431757594,
        -0.03162306900499687,
        0.04373872892388514,
        -0.10865790405604855,
        0.10335598642076993,
        -0.0670498050812523,
        0.11677329030551742,
        0.09226784505279867,
        0.022547651035289412,
        -0.05635571508902179,
        0.1059319014521996,
        0.023756442260693345,
        0.045860513669976316,
        -0.06891063103715185,
        0.13829011455834156,
        -0.1188355776391148,
        0.12843864061171528,
        -0.15139440162286477,
        -0.1504028672883071,
        -0.08989503360932406,
        0.15054721877526966,
        0.13288556283982117,
        -0.16353408431913977,
        0.14342417774013555,
        -0.06854017044713974,
        0.1646144566089221,
        0.06385681689399542,
        0.16159199800700041,
        0.10236920395424581,
        0.08864629329906903,
        0.1579589318485381,
        -0.13120781053339134,
        -0.1390542984379943,
        -0.07827248729686766,
        -0.10763107279652331,
        -0.09257467428070566,
        0.07082477548739727,
        -0.08021973196768094,
        -0.09739321556495091,
        -0.1083248726674371,
        -0.14101902537873712,
        0.138701307459285,
        0.08265048884246223,
        0.03730351071763907,
        -0.03862744997346748,
        -0.13311390670419018,
        0.04387264821845205,
        0.0984795017088354,
        -0.12715553606634106,
        -0.07261300996952923,
        -0.11290904229380899,
        -0.10978951574826312,
        -0.14608058182667671,
        0.12738028465964657,
        0.1304972714105227,
        -0.12342865586702492,
        -0.07104789758337002,
        -0.14062347308096834,
        0.005499133747671081,
        -0.15522386200812952,
        0.030598201739155756,
        0.1573576328685602,
        -0.04157012749809702,
        0.10875916473650521,
        0.15286179038306652,
        -0.12438658102655653,
        -0.16836394417827275,
        -0.07525731573977255,
        0.1130833421718071,
        0.1397048425261091,
        -0.025426241500231705,
        0.1225473814603305,
        -0.14198805354784347,
        0.14835525720681242,
        -0.11669362933980318,
        -0.06375544856083218,
        0.03805060217933498,
        -0.12277219659697275,
        -0.11584042566714992,
        0.054937118337909596,
        0.03638419252270311,
        -0.12468310374479324,
        0.050431898263651936,
        -0.03352116095094304,
        -0.04784897619848155,
        0.02885477317922744,
        -0.12723941866209462,
        0.1633073854307715,
        -0.14738377602125333,
        -0.1417981529347165,
        -0.10588057054087556,
        -0.022550580313826313,
        -0.028777867910835725,
        0.04054921447964355,
        -0.0408002651625643,
        0.0034399909202370293,
        -0.022717417478863133,
        -0.08078105808863656,
        -0.14755695949673717,
        -0.03074510425463886,
        0.03261730752632161,
        -0.006080616508690406,
        -0.05331676610539193,
        0.08341172516175172,
        0.008557574210839552,
        0.09460165529755299,
        0.004323209101680242,
        -0.07575266202308985,
        -0.1648036426513249
      ],
      [
        0.04782944832477609,
        -0.08160013903285603,
        -0.07308495805471817,
        -0.16099841660992306,
        0.05291374249102995,
        -0.1319977302948156,
        -0.06252899970486303,
        -0.12078371881487862,
        -0.010346228769145288,
        0.010803000876430602,
        0.001011214584164144,
        0.022495694291604668,
        0.10653582575954201,
        0.07136560886063698,
        -0.039381622195227284,
        -0.14924840931512767,
        0.1316193611247018,
        0.03321001871781107,
        -0.026611779449014716,
        -0.12056529397338847,
        -0.014730527538713817,
        0.06646266623481362,
        -0.04922961519156349,
        0.004572990823170919,
        0.05333265096345194,
        -0.014323285740448194,
        -0.046760911212507736,
        -0.1659762486398639,
        0.06647222865584718,
        0.10044792913511474,
        0.03826722783831771,
        -0.049019314930611346,
        -0.0373482373723516,
        -0.14405118987014276,
        0.06764267764945503,
        0.12938381817566746,
        0.06409182103192829,
        0.12198691515169302,
        -0.14146900791909414,
        0.03122438082390333,
        -0.060999419105476585,
        -0.08442754299935538,
        -0.14170122530252136,
        0.07381386123298755,
        0.02414419198599338,
        -0.002636207604114982,
        0.10112593418587662,
        0.00376488719771767,
        0.11875243188394996,
        0.027533441369119366,
        -0.06182657438292656,
        0.1444836676752695,
        0.030307833835970965,
        0.1438915949724412,
        0.012598397931284283,
        0.10807358547214774,
        0.059906660412423735,
        0.06133098134091766,
        -0.04565849156822234,
        0.0674811750337361,
        0.12123040350408754,
        -0.13413563150951632,
        0.009729471137540552,
        0.08532774249947972,
        0.029378969182731585,
        0.07705471323438068,
        0.04519665300405418,
        -0.11573897233296655,
        0.0678321022401307,
        -0.0827879663004375,
        -0.1496841448278631,
        -0.06329710241251377,
        -0.13917493742330211,
        -0.15284900598842796,
        0.043614412332515895,
        -0.09971985779955422,
        -0.06649836906162492,
        0.12866609891844266,
        0.0916321445738395,
        -0.1337769555562113,
        -0.12597938251042595,
        -0.022167090743217543,
        -0.12125694999987276,
        -0.04028075126282857,
        0.07459102036798451,
        0.1379146275413447,
        0.11004409405135723,
        -0.1320169511281987,
        0.015067067146353419,
        0.039478371492355,
        -0.033588619284686316,
        0.003133598370539309,
        0.02415199355792766,
        0.0034529905464747435,
        -0.15012399207086216,
        -0.1627175579113178,
        0.13049809865717937,
        -0.06353298772515252,
        -0.08873721007226325,
        -0.06576093450709414,
        0.12977402010129419,
        0.1512635898475907,
        -0.15798097796949132,
        -0.15296251645498624,
        -0.12476371224660807,
        -0.07580734606702266,
        -0.09421241028715147,
        0.052839894501028356,
        -0.009075266842118845,
        0.06100359795022006,
        0.14817342725840194,
        0.03190122152708158,
        -0.058932348863491454,
        0.09900431006419169,
        -0.1465610200731889,
        -0.14115026988497575,
        -0.045253495192891624,
        0.15827953543407824,
        0.16696304264777734,
        0.133379944530579,
        -0.12392172723256065,
        -0.0982594500896073,
        -0.14421138567190261,
        0.15311583107064036,
        -0.16802461207824312,
        -0.16644053637917872,
        -0.007260681949223219,
        0.11305357776965225,
        -0.13887151280865837,
        0.04066258806835854,
        0.0861801950307794,
        0.09318498559456795,
        -0.03004436460746196,
        0.14697188041791193,
        -0.06960226480374261,
        0.16557888367274515,
        0.0257346662645207,
        -0.024197320072225748,
        -0.09978585955684394,
        -0.13694510402836058,
        -0.08067825840360937,
        -0.029547857545354217,
        0.040636553674690185,
        -0.08144201973927313,
        -0.11492782768506904,
        -0.09332263538687086,
        0.01865935970004451,
        -0.00892039632442923,
        0.06805957111630159,
        0.16650710472918423,
        -0.0753016262174819,
        0.1325965085551702,
        0.10303689148272499,
        0.09248918022756852,
        -0.0662241281434035,
        0.0734548530359651,
        0.1366234156075289,
        0.0651106393659718,
        -0.09218630487581693,
        0.12391529265705431,
        -0.06038363131740995,
        0.023805703111347415,
        0.12881338706650314,
        -0.10998017283971387,
        0.0023696443824413604,
        0.006205889097035594,
        0.0034843567493777206,
        0.16476377160160577,
        -0.03701059256775793,
        -0.032533588868594726,
        -0.0032355182710568364,
        -0.04215819084741712,
        -0.13710745219263137,
        -0.13264247503741478,
        0.11684146200246553,
        -0.08234395494747382,
        -0.06639613310383359,
        0.000737166183208654,
        -0.103451462853555,
        0.07641518252500853,
        0.06215937900583787,
        0.029804287591562728,
        0.08799408325396968,
        -0.0865605179920081,
        0.016997895865750873,
        0.04489796576815183,
        -0.13583051408620403,
        0.06546762418801319,
        -0.10776569112499373,
        -0.02143121386879851,
        0.09708235683327321,
        -0.11897060377454244,
        0.07614548010054811,
        0.011486396802545012,
        -0.11379575692585124,
        0.07218146634368028,
        0.02813865894463982,
        -0.07577847754643027,
        -0.11340576270145199,
        -0.14943353514454566
      ],
      [
        0.017475706111011763,
        -0.047849513240504835,
        0.12427740418179178,
        0.021522915746062077,
        0.12659726738145877,
        -0.12512905716902376,
        -0.1407733861920032,
        0.09836141908754342,
        0.1480566983673814,
        0.10055132090437369,
        -0.0735256692421678,
        0.06353195337101344,
        -0.02450030181303256,
        -0.15650841242748126,
        0.030136035250617282,
        -0.009886281070807384,
        -0.04796451521268029,
        -0.018072450575890214,
        0.029197098972185254,
        -0.06593899165106176,
        -0.03706383359167151,
        0.1401229566479409,
        -0.0003786800238220478,
        0.09221261609570808,
        0.024131655013250264,
        0.1185477619185713,
        -0.09679184817713654,
        0.09305566422137423,
        0.06885674040269085,
        -0.16784288811719691,
        -0.06685252721002037,
        0.13010622888894996,
        0.16531254910444176,
        -0.15751217043310914,
        -0.14190692136750774,
        -0.059697805816688265,
        -0.013810198051540518,
        -0.04370010802059435,
        -0.11892927368855932,
        -0.024879461135529662,
        -0.05471396628729165,
        -0.16331022721166366,
        -0.12489887291399539,
        0.06919237636376799,
        0.15325106265937738,
        -0.0368734758212699,
        -0.12488887567956443,
        0.16103596883274934,
        -0.10175899631424508,
        0.1535661421613198,
        0.11488741535773389,
        0.07130870417376248,
        0.10162445660773795,
        0.05310938603046908,
        0.01826831797582576,
        0.03211610540983126,
        -0.12635022106740443,
        0.12654883379349519,
        0.010983876884444133,
        0.05755813153146741,
        0.14847656107456136,
        -0.004438934958327451,
        -0.01858577551966123,
        -0.10830239021917859,
        -0.14197288249967527,
        -0.08290424138564288,
        0.08878992115017237,
        0.020118046515499338,
        0.15682140494718338,
        0.13563800400138748,
        0.10382799829476785,
        0.07778343741251734,
        0.09834180453313096,
        0.10991751913343262,
        -0.11757451008213193,
        -0.055597540118377184,
        -0.12878915751576037,
        0.09692283260455298,
        -0.16303864289582487,
        -0.09719588787948134,
        0.1494852204143408,
        -0.006404562565259175,
        0.10795823973925467,
        -0.1589440932541254,
        -0.0301352111571499,
        0.06092950066023459,
        0.12527685972605784,
        -0.01779110991817398,
        0.11475828881538674,
        0.055264839776123176,
        0.07606468698239516,
        0.05076180320162843,
        0.059179169866202225,
        -0.07054042157258616,
        0.14798111730546126,
        0.006353020340854693,
        0.152699755664285,
        -0.09750815812623562,
        0.1314864431015368,
        0.15197764561125032,
        -0.07297218384571103,
        0.023329114875732304,
        -0.046048333390966006,
        0.034547671447892975,
        0.1223875090686084,
        -0.035598712812646205,
        -0.11017471992628142,
        -0.11177755059891387,
        -0.1398635563860086,
        0.11883131994640744,
        -0.12872585374575912,
        0.013072489922212993,
        0.14553390322356863,
        -0.058309302960534215,
        -0.04044586760256891,
        0.09349981303354565,
        0.09657050700237563,
        -0.058247142315321784,
        -0.08399281962641875,
        -0.15663454394826734,
        0.02640502489620808,
        0.15465502568033573,
        0.07879013192549181,
        0.12119838178686243,
        -0.07574244455313134,
        0.029468854702157682,
        0.019683430119033285,
        -0.0593382231105474,
        0.059064059447715395,
        0.16355727610812354,
        -0.07391748772081952,
        -0.08660316507239801,
        0.02789331544721893,
        0.1286975554927947,
        0.0318424561085163,
        0.032594603134899786,
        0.139628081278851,
        -0.09926070779817553,
        0.06119597631912893,
        -0.022113607643335392,
        0.05210807205349921,
        0.07694466069270595,
        -0.1683006930942495,
        -0.055265566375889044,
        0.1038612579664463,
        0.13536151208222452,
        -0.026901626730702427,
        -0.08690749040869074,
        -0.09627666278529853,
        0.07623171958614733,
        0.043424716447163,
        0.15737168849922673,
        0.15759050298423183,
        0.028376588038256573,
        -0.158779829894861,
        -0.16216749939159614,
        -0.1516119036593504,
        -0.07700433051260919,
        -0.02727581459101669,
        -0.13169920016025177,
        0.1199100423344086,
        0.13360553532223496,
        0.009302568190039828,
        -0.043723793617871404,
        0.030547323257028774,
        0.010250152288374753,
        -0.14637227256649832,
        0.1350581601029872,
        -0.05994301506849618,
        -0.11751762962059817,
        -0.038571760165625135,
        -0.16589907357800024,
        -0.016002123179512495,
        0.05154821202447746,
        0.026941196515878646,
        0.14203399296736974,
        -0.08100682667009869,
        -0.08763715386304932,
        -0.017937593833802223,
        0.006832722134120117,
        -0.09487125423794704,
        -0.1587373262588978,
        0.06411089996212818,
        -0.10827649347986465,
        0.03462942109344394,
        -0.12908764355448993,
        -0.0460242445208609,
        -0.11783899200217257,
        0.15184211712840973,
        -0.14663917340619928,
        -0.10341526811126044,
        0.061583341213949455,
        0.04287936458764688,
        0.049924012722361244,
        0.08619140157312971,
        -0.07474121551528372,
        0.13173651808245707,
        0.1469270028309716,
        -0.03647542520988503,
        -0.02201432288047439
      ],
      [
        -0.09773932751809661,
        -0.12705621227882985,
        0.02266485071040511,
        0.15975195849117063,
        0.14156847219842078,
        -0.16007998023675066,
        -0.09240690737491096,
        -0.02023714159696699,
        0.11632588069620581,
        -0.1184735475786057,
        0.03494428929898963,
        -0.03046188378334705,
        0.12186653768839051,
        0.06657778011469448,
        -0.16517492545585957,
        0.036656025562043615,
        0.10752876451947196,
        0.1100968601213192,
        0.08380128506862994,
        0.1487473069491757,
        -0.03510563361949043,
        0.07985861014181445,
        -0.11119052163690565,
        -0.11185596108738935,
        -0.028203136321579114,
        0.014512370108373612,
        0.11718664440331816,
        -0.11012867341322774,
        0.15970691237956675,
        -0.009651639261155781,
        -0.0017548969469530773,
        -0.01621255029179755,
        -0.06784811261167316,
        -0.11898274054784691,
        -0.12695853272116303,
        -0.070458501573079,
        0.07232654609123038,
        0.0760388320844215,
        0.03952195220736776,
        -0.0857134413097842,
        0.11351432985508159,
        0.12050430606415069,
        -0.12886181679735753,
        -0.1226567051808769,
        -0.16199452719478052,
        -0.08404871087995093,
        -0.06535325940525594,
        0.08782181835412889,
        -0.08956179743600884,
        -0.09790760123723619,
        -0.15964536882818006,
        -0.07706211347373768,
        0.10768084304550407,
        -0.0858366830625448,
        -0.16898816761701632,
        0.1472947475660728,
        -0.01994974595212118,
        -0.0627290030149344,
        -0.07891702742803942,
        -0.14795814399987542,
        0.07805486342442927,
        0.11202772733527433,
        -0.022408430618455627,
        0.10094683450899528,
        0.014483459109460584,
        0.06502414046604943,
        0.1194678954646487,
        0.11402109337815475,
        -0.035349038964543666,
        -0.08788590161756274,
        -0.02320839162368643,
        -0.12886753964607867,
        0.05691556869133857,
        -0.08940687484763098,
        0.09431806425477879,
        0.14206078294627222,
        -0.13885949082894125,
        -0.14609776562280682,
        0.060001090826349496,
        -0.1497635613570295,
        0.03442745569978767,
        -0.12937854201182314,
        0.07207931763392089,
        0.040858566032744736,
        0.11100352030867755,
        0.09920034775876413,
        0.05680687529561171,
        0.0668494880553499,
        0.13335439884720468,
        0.13724836532136525,
        0.032243546483845476,
        0.04807127039623685,
        0.029198842676984665,
        0.024623734500767713,
        0.07737949352531379,
        -0.10855303377040867,
        -0.15329394345113298,
        0.06701629887617264,
        0.019080876960344134,
        0.014612764072456513,
        -0.08214091688439415,
        0.08574611399505266,
        0.0031258944107843967,
        -0.03840766752966346,
        0.12644903050038853,
        -0.07796969422636413,
        -0.04805558374527556,
        0.05798821165875942,
        -0.14880724450082136,
        0.06300335183172001,
        -0.15418589481386422,
        0.011092658534769345,
        0.08648932624193567,
        0.026285253623130694,
        -0.15113809512670984,
        0.14936814229341638,
        0.15278465132043967,
        -0.1398763488835647,
        -0.06463125093034723,
        -0.032517006847697816,
        0.031957942916415294,
        0.07287751302856504,
        0.011222484404439625,
        0.13278611878018537,
        0.1009424542513187,
        0.10771884781095059,
        -0.017657272518795453,
        -0.1054365728172494,
        -0.09219482294518476,
        0.0613924174943592,
        -0.06874068280784217,
        -0.1380373779288365,
        0.12607587301930473,
        0.1266370605839821,
        0.10791033837439368,
        0.05606968086262326,
        0.08297052263782445,
        0.1450671436741377,
        -0.023062461178398636,
        -0.02984050917531167,
        0.08536645438077722,
        0.08153850224502629,
        -0.010678694918760806,
        -0.07040374956323366,
        -0.013242081148707535,
        0.049053472710922,
        -0.057647508446203505,
        0.029528482060889344,
        0.1310823236246929,
        -0.0755668662043274,
        -0.015828088534455942,
        0.06774409005564247,
        0.13454161322218677,
        0.13011512275008486,
        -0.13614688476842776,
        -0.11658697215184505,
        0.004399902011781254,
        0.15082137921874877,
        0.12374940243264448,
        -0.07325529530238814,
        -0.04974298705238993,
        -0.08882873726198914,
        -0.12089914222465267,
        -0.023278966642130805,
        -0.0870280777793824,
        -0.05499688453286816,
        0.03271040671901618,
        0.09883592979608846,
        0.001672096478776891,
        -0.08142284388704396,
        0.12011764654404017,
        -0.014241175975493015,
        -0.07556404436163672,
        0.025565890222944365,
        0.0999946883070773,
        0.03383831996239739,
        -0.04094949765688172,
        0.046742218842794336,
        -0.10645558633609237,
        0.13159762448591034,
        -0.02716983173083848,
        -0.048054330766805584,
        -0.0854989432151374,
        0.13434470575970647,
        -0.0019991703289528318,
        -0.03360484650009116,
        0.06693891892543163,
        -0.033619575812251556,
        -0.12950266637491453,
        0.0199405610275869,
        -0.0355435355826573,
        -0.05452410196738597,
        0.02653775505679648,
        -0.12202340279220321,
        -0.10408032597318452,
        0.020064438298436654,
        -0.1223448599989424,
        -0.024540474964432263,
        0.012421440753575735,
        0.03873639392677569
      ],
      [
        0.08653601834686431,
        -0.11150612934096682,
        0.1245085043360829,
        -0.14091254454283447,
        -0.010863118595754007,
        0.05034406062418359,
        -0.12103611020608296,
        -0.06386704535169126,
        -0.01535865234703343,
        -0.054426645570211304,
        -0.0359737138393397,
        -0.15452459365381777,
        -0.054886104121969356,
        0.07470342015684842,
        0.09362286689346849,
        -0.08765327220044586,
        -0.0779430719280287,
        -0.005613544434464435,
        -0.04455733918080157,
        -0.052590161213710324,
        0.010704520640613502,
        0.05809920853134723,
        -0.07739662178278586,
        0.08023129556384667,
        0.11791432493780896,
        0.15457696376996743,
        0.16307102315607513,
        -0.14128450984835816,
        -0.14064368048477258,
        -0.1197706362099377,
        -0.12188793788150365,
        0.003444257264121564,
        -0.1359091551556592,
        -0.052153114090545544,
        -0.09771726053653765,
        0.03920790477059516,
        -0.03115124006920486,
        0.050953675688880956,
        -0.07130055117292596,
        -0.10779192375068,
        0.11506086240679653,
        0.050158558005455794,
        0.13130621897524747,
        0.03207301850200614,
        0.16869772461713284,
        -0.09033817496025229,
        -0.11248642979351126,
        -0.0748433465395838,
        -0.12265922131592652,
        -0.06866490034118666,
        -0.09041256531820241,
        -0.12457294403056965,
        0.14783582124553335,
        -0.05340793300275022,
        -0.0443082143947786,
        0.09545794331903767,
        0.05053667969417605,
        -0.1474965539504114,
        0.03108032438578942,
        -0.12614943834437167,
        0.1650512350926971,
        -0.028127479033607183,
        -0.10985958492062127,
        -0.0030304264360369038,
        -0.1265445360024491,
        0.09422851841743846,
        -0.018193659499817494,
        -0.08562623992493165,
        0.11746668717057956,
        -0.03242448459221706,
        0.06733447834187356,
        0.00871460389407433,
        0.052998692866560504,
        -0.10057486591311626,
        -0.040001828290037345,
        0.1547784159460629,
        0.04055935296084584,
        0.16246038427835158,
        -0.029906905424995606,
        0.12616855280214884,
        -0.14253250270655587,
        0.14590079484048007,
        0.16763145242119298,
        -0.04057321969709604,
        -0.0985952878595472,
        -0.038030332234933406,
        0.13106819010625553,
        0.08103908259934145,
        0.13777758992550349,
        0.013507196028889279,
        0.10729289074946924,
        -0.048474890043685256,
        -0.09089945018853382,
        0.11945414220622436,
        -0.03467828390828903,
        -0.12232810650451555,
        0.00995608627747746,
        -0.1273324772673178,
        0.13491600020270939,
        -0.091308758278895,
        0.1387902638491118,
        -0.03675476789779422,
        0.08688293136766256,
        0.051078230006992326,
        0.06637747446141068,
        -0.06774529290574441,
        0.12906845299293618,
        0.1145131727495231,
        0.032023170610539275,
        -0.10436820811802545,
        -0.14569862695610922,
        -0.13891747752814446,
        -0.03194887205681321,
        -0.006792424017827814,
        0.04131557518467993,
        -0.15527642224232363,
        -0.0015458130313502072,
        -0.0758092584547632,
        -0.038079279205681604,
        0.1429054592700006,
        0.09520583876850192,
        -0.006380187661211706,
        -0.1561185556819737,
        0.14939746187194197,
        0.0745988198228911,
        0.0587348261506252,
        -0.016933227593899203,
        -0.08976563655310828,
        0.08917528515243306,
        0.07349159413836445,
        0.1221807893662798,
        -0.012505868436325451,
        -0.003682166973745432,
        -0.04715491260017597,
        0.009999446032119774,
        -0.15457408561481184,
        -0.05155378608771988,
        -0.14911188008760737,
        -0.06513936180480305,
        0.10416343554896912,
        -0.15132573572126765,
        -0.024144278567122868,
        -0.05364244907717816,
        0.022789481316746935,
        0.031041361960474884,
        0.0499671129461097,
        0.14887205977198503,
        0.014668441140989641,
        0.03214070817298659,
        -0.08292699455215816,
        0.15121994794837756,
        0.007924522258160982,
        0.09024311120771711,
        0.017111580880623534,
        -0.007268455432779569,
        0.14409521375668255,
        -0.03259360894631669,
        -0.11512135071303745,
        0.030439142941698527,
        -0.0286211168159147,
        0.14928703930737502,
        -0.10267285051075789,
        0.1523694107807259,
        -0.025003908327527108,
        -0.0817869306061946,
        -0.0015780823271070166,
        -0.06781239470897199,
        0.12841288069510387,
        0.08305097482065588,
        0.007013658847443038,
        -0.11032766819451267,
        0.01382424988028455,
        -0.1125494301929591,
        -0.14383668879886988,
        0.1597337292346847,
        0.1376517960209302,
        0.06820114945104896,
        0.019588238979684758,
        -0.13105249686314074,
        -0.08440995339642277,
        -0.128721783181461,
        -0.05857552436760753,
        0.0971054312592966,
        -0.00226703060632244,
        0.03147331193421188,
        -0.1576408469586761,
        0.038953379259304616,
        -0.035607456790660186,
        0.1589506738016449,
        -0.09920684376793117,
        -0.08697965557674399,
        0.018522995103311513,
        0.09119211727579485,
        -0.0422992315914586,
        0.08629734226856167,
        -0.14374951949681888,
        0.094342071155605,
        0.0590466057377827,
        -0.015750701878070622,
        0.03266218871864682
      ]
    ],
    "weight_v": [
      [
        0.0435268827701526,
        -0.04722644864400399,
        -0.13177954850466422,
        0.06362733265140824,
        0.1431704087055504,
        0.02984007644024461,
        0.15440425442169,
        0.13166649137363748,
        0.11572254756050057,
        0.043819169724339996,
        -0.14831668761970898,
        0.1182309955042494,
        0.08391345688072957,
        -0.023776214923959843,
        -0.005414840734571685,
        0.126330839915103,
        -0.023581486051879236,
        0.04543296460901039,
        0.14294358748284344,
        -0.12415835191340743,
        0.05151126215010943,
        0.15612908493138558,
        0.001025795656127232,
        -0.08558058780894434,
        -0.09177654941397145,
        0.08263029315483192,
        -0.045995150325818926,
        -0.10268176292401404,
        -0.1093055570984536,
        0.07355526586931482,
        -0.07452676349457414,
        -0.031768091295614836,
        -0.14788940083639587,
        0.11183372480199125,
        -0.0611729087967319,
        0.09000048295755772,
        -0.04356627968778336,
        0.04729054942941971,
        -0.04095134882184988,
        0.11327143285183974,
        -0.007150431846875527,
        -0.10063108482404624,
        -0.07087115730886655,
        0.007641040838872903,
        0.0915399848234377,
        0.0012057330803159072,
        0.1442365795844376,
        0.028267977041571885,
        0.08829496043533255,
        -0.03174044351013325,
        0.08170889122885597,
        0.06628740393829113,
        0.08383186095092812,
        -0.12679888156790162,
        0.0038717622140110874,
        0.021908955720773754,
        -0.03119502216645445,
        -0.08975265217001978,
        0.08951907280209973,
        0.04670381548278124,
        0.0098685190842627,
        -0.08540048697342506,
        0.14458441196737845,
        -0.08055186730244587,
        0.077445893102776,
        -0.0546107808245329,
        0.022294052124345015,
        0.10723789164360412,
        0.05942935941240618,
        0.06181426928768469,
        0.1447970816375306,
        -0.07347856201016201,
        0.1116756053511582,
        0.07075505302849514,
        -0.05353400224854042,
        -0.11452015090492351,
        0.002558602600489901,
        -0.05824514222186693,
        0.08219774964881113,
        0.07583551659994897,
        -0.08401806540380127,
        -0.06015901656719394,
        -0.1290170561847963,
        0.051823484919026164,
        -0.10833262888909963,
        0.09268202669846012,
        -0.06191699848038655,
        0.004613916929725265,
        0.10507286229648069,
        0.07632058096154698,
        -0.03324034740112464,
        -0.0577046176025308,
        -0.02910523298387732,
        -0.0907221854361068,
        -0.00921094614956286,
        0.031186849452953413,
        0.16205178827147929,
        -0.05141643101439301,
        0.034126045987429326,
        -0.06979610845946806,
        0.1319557384255475,
        -0.01954653620251387,
        0.10937392433311346,
        -0.10689445644014,
        -0.07082789255400512,
        -0.09038735023611143,
        0.07467914537363621,
        0.08646896854575917,
        -0.09687401211188619,
        -0.05955458897058383,
        -0.008779874082907368,
        -0.04890776793857572,
        -0.0694945727220402,
        0.09774378858644925,
        -0.15678772211527833,
        0.03419261727957082,
        0.024747628194848964,
        0.10080371608773622,
        -0.07992069543190405,
        -0.142299665231815,
        -0.10648267931935745,
        -0.04826207223784401,
        -0.014193863306183718,
        -0.08731879767126405,
        -0.1068341922266142,
        0.09185734284375305,
        0.051214076657815744,
        0.09049453771109398,
        -0.011143100555943253,
        0.01525968523896426,
        -0.07498302297483288,
        0.05251263745600959,
        0.039244201327535644,
        -0.016037739213398572,
        0.0029376798358993206,
        -0.07606283150391553,
        -0.007514311036748267,
        0.1487769324449065,
        -0.07526135902251853,
        -0.10524554861264808,
        0.07881357064553138,
        -0.014979719473383696,
        0.019057359089740294,
        0.10393322644672173,
        0.09869026371235909,
        0.14921229938805255,
        0.0030611879260168118,
        -0.06672815725818737,
        0.04237291617443778,
        0.09688521384856993,
        0.03305898448016825,
        -0.11658169811929317,
        0.1395645712052185,
        0.10842953586906642,
        0.03522458323826411,
        0.14008559170175042,
        0.01767971441795449,
        0.15651940176314674,
        -0.11690951477234846,
        -0.09830369101057909,
        -0.12354525204591174,
        0.08827063039730262,
        0.1294174664749155,
        -0.05288096422010391,
        -0.14423419340504512,
        0.1028145581067755,
        -0.08153657996708435,
        0.09174030526626673,
        0.003610411338024866,
        -0.018047603245512495,
        0.04594690098575718,
        -0.08071851799923313,
        0.1365568201779979,
        -0.14479815737347843,
        -0.0988327602268056,
        -0.06663792121636501,
        0.04535156517194611,
        0.14794103346324225,
        -0.12086861883301367,
        -0.04940254138385031,
        0.10597565674395062,
        -0.1070852379638948,
        0.05381952340667265,
        0.028958986889801835,
        -0.11556693539561658,
        0.11651030284557104,
        -0.04961058903098356,
        0.16012887101257442,
        0.05436991248454337,
        0.12904406392578135,
        0.03715071723190125,
        -0.12534383662947843,
        -0.07617094185728122,
        0.007852592782134848,
        0.09895090469182646,
        0.14917311063530028,
        0.11181108382287794,
        0.1521155875743316,
        0.05893569631892581,
        -0.01907856128746857
      ],
      [
        0.14642808397023524,
        -0.04706129012140564,
        -0.14353058835186217,
        0.024721412237716234,
        0.15754906369333868,
        0.03548178337756461,
        -0.003010227016947864,
        -0.15242797932308272,
        0.14170899912740345,
        0.023962325834569254,
        0.04085580948540177,
        0.03778424520048282,
        -0.023424011244034204,
        -0.10153051113414012,
        0.1235093589970683,
        -0.11988783477076881,
        -0.060769083811542376,
        -0.04653033217270036,
        -0.004488326999543407,
        -0.04613509955411703,
        0.036011051603211,
        -0.061263901217176814,
        -0.14402107351165702,
        -0.15649039155979447,
        0.06916893672547136,
        -0.15635803668843667,
        0.07546644559349186,
        0.13788654457018898,
        -0.1580772119009991,
        -0.14060518863595212,
        0.08723864369563697,
        0.014770469276291803,
        -0.022734415022147236,
        -0.1633029580885151,
        -0.09266942960441048,
        -0.05820933762861917,
        0.15795405185202002,
        -0.07109457778734035,
        -0.060427211756729826,
        -0.06045823029288361,
        0.002698559600185335,
        -0.1544106882038588,
        -0.08209683247540878,
        0.13028171049702372,
        0.08793886017406352,
        -0.03439102587136783,
        -0.06933413889747032,
        0.12698769172864852,
        -0.15190227308914933,
        0.06268557502770611,
        -0.12878290883467947,
        0.08049077618198974,
        0.006314930530795626,
        -0.07150596346359615,
        -0.09697893408951978,
        -0.004045021533116672,
        -0.024962743630128015,
        0.0632394799896994,
        0.03910172135114154,
        0.03186540708340485,
        0.15323244323664506,
        0.02579628617685545,
        0.1598573104211257,
        0.03958802751673954,
        -0.11615307982808741,
        -0.0888450806431632,
        -0.03966541378413521,
        0.02669257432289035,
        -0.09320368735005484,
        0.0011588640690349816,
        -0.11826256969982979,
        0.07906592257309628,
        -0.033216172229557,
        -0.13340443465112262,
        0.14174698454832005,
        0.09878052622983866,
        0.017828072910592213,
        0.13756483061388194,
        -0.11707493082365096,
        0.06943105413124781,
        -0.049409049116682785,
        -0.09943230276956427,
        0.05973899565960428,
        0.012305458853206996,
        0.056827629303053045,
        0.002646881129822476,
        0.05667727723003893,
        -0.022054830070286358,
        -0.13848705723740845,
        0.059436787241179484,
        -0.08260525104679405,
        0.03833569839439577,
        -0.13946442392402658,
        0.003011204818423041,
        0.011457881749127208,
        0.08078598039803558,
        0.13383520238001748,
        -0.06579804322322648,
        -0.15595417887614985,
        -0.08580086424222998,
        -0.10967861753906984,
        -0.09326795923799963,
        0.12732268840318864,
        0.16035455988998684,
        0.006767588624366855,
        -0.16360248286603526,
        -0.13737284316780185,
        0.1184361117970962,
        0.05619953220353521,
        0.0014118714305245972,
        0.11980444554729522,
        -0.045743272320231315,
        -0.1373894970223088,
        -0.1269182908081222,
        -0.003555670081415052,
        0.15116943871039065,
        -0.06409169755951151,
        0.09691360637151128,
        0.082023076128388,
        0.12364695172855425,
        0.16377526873083428,
        0.07044919760671287,
        -0.10204994815145588,
        -0.158814837401679,
        0.13344639448728549,
        -0.03244949649540391,
        0.011881478092897052,
        0.09936592407677616,
        -0.018774542548535916,
        0.14054816269732404,
        0.02056562170292761,
        0.08454229963203128,
        0.07567651064051939,
        0.027920705137344792,
        -0.06617237634056036,
        -0.10358560649572952,
        -0.10086236356490007,
        0.012354461404414402,
        -0.043208426204353306,
        -0.03860906576047496,
        0.026176713149091674,
        0.13323518690835948,
        0.06050498102936666,
        -0.07806237216280021,
        -0.025717690835497964,
        -0.09547821295205856,
        -0.15653603493021065,
        -0.02488276702878575,
        -0.15277477725844976,
        -0.014522014431224972,
        -0.13741142630724087,
        -0.13333901186612745,
        0.09525797654479631,
        0.08371245994289597,
        0.14721085908889384,
        0.06503223264532643,
        -0.05452178310014301,
        -0.1072808442582891,
        -0.12586450240247357,
        0.023881444958890635,
        -0.03765088230714306,
        0.14390561436671281,
        -0.04684784599114121,
        0.1007299568761175,
        0.0682692200747515,
        0.01589067867093988,
        0.07979091696095139,
        -0.04241893191560378,
        0.06177287900054382,
        0.0846251257277797,
        -0.09808653605662798,
        0.12528336475930965,
        -0.009364399970602344,
        0.12099031492306936,
        0.16461365107205475,
        0.04653557761389904,
        -0.1634226810522539,
        -0.07204772590605553,
        -0.05225527372539171,
        -0.09709102635337326,
        0.05304980471122689,
        -0.09283385573609694,
        -0.08228861405280302,
        -0.15686061498624526,
        0.10144815608457816,
        0.07190125230987846,
        0.08639527156292612,
        0.05141292755033869,
        0.0358684072291168,
        0.07729112092967333,
        -0.07123608660885536,
        0.02614783798009071,
        0.015257813674594445,
        0.12436595494650579,
        -0.0077012124862286535,
        -0.004646783624432244,
        0.05412049740771538,
        -0.04679794708089832,
        -0.09653362947459788,
        -0.04586628755726774
      ],
      [
        0.07845104196200531,
        -0.045124652093171555,
        -0.046775549460301935,
        0.15688503600019812,
        0.049853810911197644,
        0.05747728289474771,
        -0.020527796945012278,
        -0.09552545215250571,
        -0.07138119499117399,
        -0.05093870071053169,
        -0.021867420423106715,
        0.14507729052980142,
        0.09856764326614229,
        -0.03642608117603352,
        -0.1540336432428033,
        0.0427901454426603,
        -0.14520206675694275,
        -0.1268079825158528,
        -0.05855562159904258,
        0.011796465498676051,
        -0.10764886236664867,
        -0.11480456886789023,
        0.021528253773808376,
        -0.07328665023405447,
        -0.04398614626256395,
        -0.1584815634480924,
        -0.09957854067904232,
        0.12539357753715893,
        0.008831782387203474,
        -0.020340530322121603,
        -0.09824330135353426,
        -0.018324686446365923,
        -0.036584945868030044,
        0.07050278459295717,
        0.06689963567395305,
        -0.05298554699604302,
        -0.08991842370783665,
        0.12225129992400832,
        -0.026168074308160844,
        -0.10055666374735969,
        -0.008931697271813088,
        -0.13656159516368935,
        -0.02639647827455477,
        0.013341987707126662,
        0.06862795202831165,
        0.08049899510563771,
        -0.048273844450664447,
        -0.05229573466513665,
        0.11038648373266893,
        -0.08217971415771397,
        -0.01717507899987772,
        0.10500115285806697,
        0.058884040041514374,
        0.023530064579010884,
        -0.076308991236639,
        0.00791692057893259,
        0.07350460741602532,
        -0.05982941967918627,
        0.07489318524453958,
        -0.0039576500838662265,
        -0.06516300215804365,
        -0.005109848128967309,
        0.0800037795555526,
        0.03025059672728081,
        -0.13211201304580666,
        -0.15161989866630188,
        0.004855109204930624,
        -0.04800253370593477,
        -0.026441441897252588,
        -0.12874625235774703,
        -0.135246935044875,
        -0.0857277702620462,
        0.12025913989669615,
        0.13178510370577087,
        0.11662569324034786,
        -0.10881724848857856,
        0.05893084669588036,
        -0.1428958835957849,
        0.09054476125094682,
        -0.1375180628337225,
        -0.017527884916166192,
        0.06491047050834439,
        0.1548902553738177,
        0.15900485134073147,
        -0.023807858776119656,
        -0.15529282131441804,
        0.12557432295841545,
        -0.10640601769076902,
        -0.09367094341516771,
        0.08276139161443571,
        -0.062046482052850876,
        0.0821516403055769,
        0.1091560460583886,
        0.1570096132157114,
        0.11128526658545393,
        -0.025096492942920934,
        0.14551310854330637,
        0.030932092829125596,
        0.12161140049734345,
        -0.1509405176748845,
        -0.09790017107128388,
        -0.05748958900350737,
        0.0667454549724523,
        -0.1607296631025931,
        0.040457567074803635,
        0.0602313363782169,
        0.05400155460248851,
        -0.0981499401401971,
        -0.1350633314941022,
        -0.12871041348148926,
        -0.10095696109169218,
        -0.07783086698870761,
        -0.01886125566705002,
        -0.10977138107777962,
        0.0995347570667027,
        -0.07830359612436551,
        0.055369396740054894,
        -0.13527454745015827,
        0.008966354357111933,
        0.09144862666386835,
        0.04241534196734589,
        0.0033367630779979063,
        -0.029381874745020214,
        -0.02417815983055474,
        0.13758275082095958,
        -0.15842055091463902,
        -0.139906108345072,
        -0.001953043875553867,
        -0.018423307557194762,
        0.0729613530140042,
        -0.13576480737642976,
        0.07644999724192106,
        0.13718114303576115,
        -0.08626058689385624,
        -0.09156441207084713,
        0.036721767681233725,
        -0.10622632808119656,
        -0.020227848584483843,
        -0.12009543568359969,
        0.1127252763926799,
        -0.12823214093978116,
        -0.11440933600347902,
        0.024108424016104774,
        -0.08864419666547979,
        0.07660672119668413,
        0.05994306807519406,
        -0.1578890574639237,
        -0.1153960457787198,
        0.12481850903563294,
        0.04231064045917893,
        -0.16350125372712304,
        -0.011078127974338214,
        -0.06358967077051275,
        -0.05585891297666214,
        -0.047969007961918525,
        0.0789605530628085,
        0.05803796785669024,
        0.159798991424596,
        0.008260825555486129,
        0.06666665499651875,
        0.01729725978501334,
        -0.042200017737614226,
        0.01966559634551765,
        -0.046567505065736994,
        0.03388048684699427,
        -0.13251775333582855,
        -0.10261715363466119,
        -0.020634884707738416,
        0.15503319118206813,
        0.031219846111386396,
        -0.01994670733143164,
        -0.01612805129081582,
        -0.06969742699695404,
        0.037430010755803406,
        -0.03156362592421044,
        -0.13509883299817704,
        0.05996767656522081,
        -0.06498834887487548,
        0.09380180704382965,
        0.10961968082553489,
        -0.15765962368071298,
        0.10311083326615164,
        -0.1509760213634456,
        0.0014466008593725377,
        -0.14662327306481457,
        0.0882564063460902,
        -0.06123480667007876,
        -0.010416364918756499,
        -0.126705126927867,
        0.11986981579607278,
        -0.1275361791753824,
        -0.07840233867706166,
        -0.10201025339707194,
        -0.07433715660647885,
        0.09486613746035336,
        -0.1154545060809022,
        0.08508971303951504,
        0.11222005462247145,
        -0.022355773938702223,
        -0.0769943300809378
      ],
      [
        0.09325865985469342,
        0.13342388441062916,
        -0.05290978016291503,
        0.09229495492980708,
        0.04080004434495102,
        0.15430690401248467,
        0.05343373754709868,
        0.05529201089489175,
        -0.16024516692984508,
        0.1486251540052407,
        -0.0010870162430092756,
        -0.15624837266506394,
        0.10211819641827755,
        -0.06393489668808468,
        0.13156986514839122,
        0.13982026682223772,
        -0.15913355388033845,
        -0.08808473769739697,
        0.015770817642433405,
        0.1389036140586932,
        0.05397369331167062,
        -0.06700170155794422,
        0.015989617613201834,
        0.006713869203721967,
        -0.033857311062292145,
        -0.012341130452231008,
        -0.13381521426144846,
        0.08548980697244737,
        -0.08639937090698117,
        0.1216082929988134,
        -0.10590257536249661,
        0.15067072195724165,
        -0.03673453326935244,
        0.03697500407150631,
        0.008333168374364153,
        0.15747892766189495,
        0.117211389576898,
        0.02086906439532038,
        0.004741806073535498,
        -0.008745290342755535,
        -0.14610842097940585,
        0.10818574554323854,
        0.1087774889404696,
        -0.11808979855022722,
        0.0023955638463147855,
        0.07791250272404268,
        -0.13506764425707599,
        -0.14004056101595416,
        0.021977280821052214,
        0.15672959184243365,
        -0.1084083584797256,
        -0.1375642739372667,
        -0.12118906780520283,
        -0.02655849764381829,
        -0.14364792386974973,
        0.042401525101711496,
        -0.12447014779685261,
        -0.04934203769445222,
        -0.07147350520379506,
        0.10423259363572904,
        -0.10572382895252269,
        -0.15964224283208087,
        -0.03283159741705316,
        0.0341351747037377,
        0.04824563952477745,
        0.006681520213859704,
        -0.06649351967157958,
        0.13049694946093257,
        0.11342984377526863,
        0.14023664512139813,
        -0.08761963406924907,
        -0.06960083510404828,
        -0.04875025887824244,
        -0.10132651384981169,
        -0.15556089669911458,
        -0.07464504496224232,
        -0.02984027578299739,
        0.16278582647843146,
        -0.04277564152977675,
        0.13868860727703977,
        0.015592468053957309,
        0.15171211186893815,
        0.15077641723670207,
        0.12039113721008801,
        0.1169962491422005,
        0.09081254581023432,
        0.10241501001048794,
        0.07872212072387538,
        -0.014516669428322748,
        0.062027353251778605,
        0.11889986402212913,
        0.015882162990777965,
        -0.1096004287723624,
        0.04769767448447387,
        0.01582601995864219,
        0.02464089741602743,
        -0.0859278486386896,
        0.14345958739743922,
        -0.016736884149892356,
        0.019637517845732144,
        0.14288570591712327,
        0.043297399728352254,
        -0.10957598548236809,
        0.06795465086394997,
        -0.15056514103535146,
        0.018499748197264215,
        0.13870315874425296,
        0.0532360118970599,
        0.05928532859603591,
        0.0710855559234696,
        -0.07546551272459846,
        0.1478510732895408,
        0.12210709821705737,
        0.12854986493765916,
        0.14640930173185127,
        -0.15153210155059874,
        -0.046725295571094214,
        -0.031430940183647504,
        -0.10557796527491459,
        -0.163506976221445,
        -0.000710046127630426,
        0.04631788860232752,
        0.14356026093139276,
        0.10928358130153756,
        0.06904745859992664,
        -0.102270948879323,
        -0.00485967682251337,
        -0.13619354919675836,
        0.05849119542031553,
        0.1362061886338984,
        -0.15750273747560592,
        -0.07741843160654428,
        0.0069159879338603625,
        -0.16032950238102878,
        0.06713191936834953,
        -0.058598630414267966,
        0.15256721595477976,
        0.004681857494977876,
        0.035240910166043166,
        0.012367071008813235,
        -0.08571869841119469,
        0.049115065689881277,
        0.1031695282258179,
        0.09754071009556967,
        -0.09850848540636861,
        0.02410665291375219,
        0.15396367469344172,
        0.04515292627971135,
        0.13728748678938765,
        0.05248093543443344,
        0.04169210427489736,
        0.055599580735477605,
        0.13076896199417962,
        0.11150872277546689,
        -0.10395059833552969,
        -0.04707673005526716,
        0.10077654977855768,
        0.030029760351646118,
        -0.07999448965728102,
        0.07828805368408132,
        -0.058965013102798836,
        -0.04510033053071541,
        0.05341507600950851,
        -0.09737895785974109,
        0.06124714004216272,
        0.06585288264078742,
        0.12621779575053568,
        -0.06666173057886138,
        0.06188122663335585,
        0.0500444179351516,
        0.02917164713647538,
        -0.02454707500892017,
        -0.018007453705148224,
        0.01857287075405012,
        0.026411394750791267,
        -0.10550852409844727,
        -0.0076350552296826635,
        0.03916275190629687,
        -0.13224196686714668,
        -0.1277327279069457,
        -0.02681666026892135,
        0.008647724579939953,
        -0.1560212364259752,
        -0.001553042622011891,
        -0.023073207696661907,
        -0.14623164858352897,
        -0.15257316298487594,
        0.01677283446010505,
        0.01099312961750748,
        -0.036748676563081284,
        0.08689235589546365,
        -0.11531485812185746,
        0.0794425791507535,
        -0.1455269921252317,
        -0.014649803249572046,
        -0.01915941205019661,
        -0.1539081691605547,
        -0.051774968212788444,
        -0.08625285297118973,
        0.1403797805556807
      ],
      [
        -0.1004577529732765,
        0.1252850286251366,
        0.09832253628122198,
        0.023715566693583656,
        -0.07332023181328635,
        -0.03856364520241534,
        -0.13941876450658694,
        -0.013102400967606898,
        0.15320116547716436,
        -0.16071294243746134,
        0.1062804294849655,
        0.05058738778178673,
        -0.011797893458848824,
        0.11182331860493719,
        0.1378590561486401,
        -0.0891534047044318,
        -0.10231986851266892,
        0.10018295884328868,
        0.16379351633078817,
        0.14362250635819593,
        -0.003861814499591526,
        0.06426694043066089,
        0.04400593556506632,
        0.057559852966893144,
        0.1557095305547341,
        0.12134589716191677,
        -0.0675584436637522,
        0.09917506285504077,
        -0.07466468562529413,
        -0.1251746453019819,
        -0.11559640221953825,
        -0.0030399543458810574,
        0.10708590973003332,
        0.0033135115115307534,
        -0.1296721070516036,
        0.15821513461713452,
        0.10648472551303942,
        0.13255614374949917,
        -0.14700225291590424,
        -0.06497857824560616,
        0.1124325411160392,
        -0.029999938102378748,
        0.14676095630527505,
        0.08989792922105597,
        -0.07067386829646893,
        0.02345743653117352,
        0.13709933743526662,
        0.06415453484727957,
        -0.14823678686508235,
        0.10841750482658233,
        0.1059871559234821,
        0.03508796174401266,
        0.05268308236837588,
        0.12707785216558784,
        -0.1490681545566655,
        -0.16024491811215197,
        0.09138238833100762,
        -0.10418694355842002,
        0.1586574810087388,
        0.0806816962722878,
        0.1481404298943785,
        -0.11692828706553166,
        -0.10511794010835718,
        -0.07883401045623654,
        0.12743518717262334,
        0.1373487821527636,
        -0.16375614629500015,
        -0.0008050315031536415,
        0.11722165568694229,
        -0.08030827173467706,
        0.12439564156100794,
        0.07958593103559944,
        -0.0802899957760249,
        0.027610734078387683,
        -0.062295545657484144,
        -0.13370100794061848,
        -0.14531510363154843,
        -0.029607299115806368,
        0.1544869873299133,
        0.06025688259874626,
        0.05446031259842382,
        -0.16187281214798524,
        -0.09308098994096263,
        0.05782636066214167,
        0.007244078274546262,
        0.05042190007877115,
        -0.018821323803970474,
        0.06552177504637677,
        -0.08334832044526654,
        -0.1632320929280511,
        0.08075968654321367,
        -0.15567531174961502,
        -0.1567016857073527,
        -0.16328705963069992,
        0.12394142822481277,
        -0.08269350515517807,
        -0.04552193217075923,
        -0.13201656592418126,
        -0.09308982543181678,
        0.08504694897673717,
        0.08073153634245153,
        -0.1398513767295907,
        0.11026043595646393,
        -0.09979580602211882,
        0.058536524736784334,
        -0.053104793384390614,
        0.07054339344840199,
        -0.12879072249042628,
        0.16454058913639033,
        0.054341395480971305,
        -0.1231123445059642,
        -0.05291406953912077,
        -0.10848581153415848,
        -0.07180090550977275,
        0.08365331948634627,
        0.14177811557834155,
        0.1043411918040579,
        -0.01548874773954742,
        0.1262900874017436,
        0.15096028316280655,
        0.10101118487228519,
        0.023013111599669706,
        0.16056689647735792,
        -0.13325463219423417,
        0.023304794934778383,
        -0.04591217403572688,
        0.0581259536766352,
        0.03301513472386536,
        0.07708351030448468,
        -0.15372709179827138,
        0.04264455497061945,
        -0.03362909838481784,
        0.12457225549006642,
        0.0059097103629184855,
        0.053720386282143456,
        -0.06275015799872696,
        0.08132083018263367,
        0.11077190632951853,
        -0.07770937173411682,
        -0.12917010711610769,
        0.03402281857861583,
        -0.11462427783365639,
        -0.03924130313097457,
        0.1592918801081186,
        -0.15748115460644407,
        0.019433909176074182,
        -0.03902434527895823,
        -0.10594021482274436,
        0.04576637733816799,
        -0.12279419755493508,
        -0.13586502917899046,
        -0.0007838038514997592,
        -0.06534615599225857,
        0.06792389738859272,
        -0.04542877882477499,
        0.0984434000897518,
        -0.12716206358100593,
        -0.10452656838498478,
        -0.041294873894630504,
        -0.023292579777357658,
        -0.14477120737707178,
        0.03496354516006753,
        0.11399278955480249,
        0.08297442691173257,
        -0.05125775936396934,
        -0.035712483654492894,
        -0.13050757396004084,
        0.1471589777969294,
        0.007002444394118373,
        0.027288973683897155,
        -0.046097593251309216,
        0.05065298425140535,
        0.009820459192785014,
        -0.07696984663033506,
        -0.0005686965029974012,
        0.15184581302672803,
        -0.12111721246650757,
        0.16512400755694714,
        0.10225615955324333,
        0.07473174301232868,
        0.12113227125649981,
        -0.10417553618407983,
        0.08084408191147477,
        0.011779478183590514,
        -0.1342425719875987,
        -0.13666130260356776,
        0.05839163380673168,
        -0.07360467909594653,
        -0.07861128431888555,
        -0.04565220302288951,
        0.1488905461282151,
        0.036804656897695465,
        -0.0814084041445609,
        0.15883510404983978,
        -0.1429693717206286,
        0.14065288245448646,
        -0.1314981720843882,
        -0.09800299256942173,
        0.039865328825526625,
        0.029689087846152262
      ],
      [
        0.14620577237001162,
        0.09596047962053586,
        0.012005374416355824,
        0.15104007059620037,
        0.05154891694335487,
        0.08176826713184132,
        -0.08853966501879046,
        0.14613295174291233,
        -0.13038287462507392,
        0.1338196821410095,
        0.025656172715227216,
        0.1534041008739184,
        0.1318240196673063,
        0.16075379225120565,
        -0.0652875441639011,
        -0.06814119072717918,
        0.04641084707260387,
        -0.1412547715093082,
        0.09575505864001008,
        0.11425095090771017,
        -0.1498356666535518,
        0.16454185133007895,
        -0.019120225354350123,
        0.041570760736390655,
        -0.09171435432192056,
        0.02508005989720158,
        0.01640671733868665,
        -0.028528506807256132,
        0.16189584980778057,
        -0.02350998977738239,
        0.13614951540157214,
        0.0432657927752024,
        0.03760908154963455,
        0.1441256870417322,
        0.1309560760315219,
        0.009291522428803156,
        -0.1259523546022963,
        0.12858851437282734,
        0.12696199677379308,
        -0.1347018873505501,
        0.13004374288021073,
        0.14985306155709818,
        0.1372565623389028,
        -0.06551392113615877,
        0.13477515235277057,
        0.10089251028597265,
        -0.14159482436726595,
        -0.12246773573520736,
        -0.09862184062373437,
        -0.02062981570457198,
        0.14462439857679046,
        -0.01437095177441891,
        -0.1282211625518181,
        0.12254066021364987,
        0.018942321083326358,
        0.15090480260081776,
        0.1382378186008448,
        -0.14114567734766295,
        -0.03843235320222843,
        -0.02716396047767697,
        0.11651284709160412,
        -0.104495168220571,
        0.0660227783513134,
        -0.07370271613745902,
        -0.0692797981981458,
        -0.034499718129994444,
        -0.06166886776836647,
        0.14748705368396556,
        -0.04609223540399482,
        0.04699182976738153,
        0.11817512309335024,
        0.00490097129815964,
        -0.13605382064209104,
        0.12315713923882801,
        0.08948094264989456,
        0.1300793306419004,
        0.13788684082202848,
        -0.06453761670582642,
        0.024720288950679487,
        -0.08228682881419713,
        0.09425575111686482,
        -0.020228896587377643,
        -0.09709788172945655,
        0.09343445042452866,
        -0.08396204598470769,
        0.0129163240702653,
        -0.138282788934967,
        -0.008672555008395172,
        -0.03146265047209107,
        0.11919934807522539,
        0.13817061028036018,
        -0.057454925941338886,
        0.03930327372406567,
        0.07858582852804055,
        -0.10169251597043041,
        0.14254382018860431,
        0.1094672062722831,
        0.0060262197899495495,
        -0.002637972846768838,
        0.10847437530659101,
        0.12486087643343421,
        0.030071770785127516,
        0.0413130331580677,
        -0.06965343778386861,
        -0.09224904032571042,
        -0.0847183465820139,
        0.05180941100651951,
        0.005134904639508886,
        -0.017216731137775998,
        0.15964838950161434,
        -0.13485829382386846,
        0.038372732585982616,
        -0.03583609923679107,
        0.07932253035639103,
        0.022203980462816936,
        -0.014716490525746806,
        -0.06312932455113654,
        0.044075017962998286,
        0.16270404614098774,
        -0.05469268415402695,
        -0.011975881248738607,
        0.14756435030760598,
        -0.1385950447650153,
        0.09777800778986026,
        0.014686023834139472,
        0.09348106855562313,
        0.11021365478422349,
        0.11804210929512035,
        -0.13116758612447488,
        -0.061559008186601885,
        -0.06065393276119249,
        -0.15734010546780364,
        -0.10960458351307817,
        -0.043949455898343356,
        -0.09291573087482817,
        -0.08154957848392932,
        -0.004165049666119275,
        0.1532978298464263,
        -0.030142322802193755,
        0.1279460361822898,
        0.12694324650688174,
        0.027982002734448758,
        -0.09662155749467835,
        -0.16396969500737946,
        -0.0435381389024196,
        -0.03378263077360133,
        0.14851532323491565,
        -0.08795338143863868,
        -0.005612265299235086,
        0.07611556853670673,
        -0.027246149695457467,
        -0.08698315372210405,
        -0.1430441335607987,
        0.10216187463830509,
        0.13300702734795963,
        0.05967256904409893,
        -0.006738330688183913,
        -0.12801998918259386,
        -0.09179504857527772,
        -0.004964489819792056,
        -0.003422232210280901,
        -0.10075606306937168,
        -0.12152652390304008,
        -0.06654650695051852,
        -0.13247522755803598,
        0.12891701269148184,
        -0.011442587481745481,
        0.05442021892963331,
        -0.044622411658009245,
        -0.03182218994264702,
        -0.14476561621325007,
        0.1576924171674902,
        0.0798322346163732,
        0.03594220483958191,
        -0.013632724622567288,
        0.15090267153422296,
        0.15394622968158342,
        0.16119178987412117,
        0.04388810201657728,
        0.13398130034911462,
        -0.10180122313877188,
        -0.0915706337945062,
        -0.1060182934204747,
        -0.08208117990749753,
        0.029055058967831837,
        -0.13915517972215263,
        -0.06344362959768023,
        -0.15869691353953852,
        -0.09927842315853197,
        -0.09291833788146073,
        0.019392852509495934,
        -0.031058621319574348,
        -0.034717539249349616,
        0.06628141345569002,
        -0.02035144147868867,
        0.011209811701215294,
        -0.1368591010318102,
        0.10061931286308148,
        0.012688984071554055,
        0.0869479585549687
      ],
      [
        0.051428126687998815,
        0.07291367207814417,
        -0.027682271553235382,
        -0.06514118762246564,
        0.13070853398711305,
        0.010876668402809903,
        0.010851016716237338,
        0.09517786353734384,
        0.10611777578811613,
        0.03180495294256688,
        -0.11659769801620906,
        -0.04529619034335655,
        0.1624655129053799,
        0.12509958930542722,
        -0.022834882719947686,
        0.022165520199329436,
        0.13048003852616133,
        0.005676023657571749,
        0.10110824491222317,
        -0.047786122071333606,
        -0.06419927926752059,
        -0.11476479324126405,
        -0.031502297603149154,
        0.04894662123329327,
        -0.16418395634522917,
        0.1433796850602038,
        -0.09555828705949501,
        -0.017261706804889088,
        -0.16091032250721013,
        -0.05864242865007899,
        0.15199039962401886,
        -0.015393382090356095,
        -0.11087320071170403,
        -0.1336386193020213,
        -0.12760747584484194,
        0.006506621483549996,
        -0.049986181331608884,
        -0.05841961746190559,
        -0.03566246602580486,
        -0.13038321430273442,
        0.14311078518838907,
        -0.05710269247107827,
        0.12190058507870336,
        -0.00423235585399781,
        0.08694554749501207,
        0.0636194349578266,
        -0.008016921603898636,
        0.1384194398156169,
        0.02581851740631111,
        -0.10877706323439625,
        0.1026143891074667,
        0.04877214427847684,
        -0.10369697417951511,
        0.10511422774908316,
        -0.052726064263377365,
        -0.07203855896852722,
        0.0189279803321607,
        -0.07986255223732854,
        0.0004837388747799265,
        -0.11598218034394198,
        0.13911305781293296,
        0.1179969105403155,
        -0.10289259642999109,
        0.09988894598520057,
        0.12651706480604005,
        0.038383078970590206,
        -0.14501121071331835,
        -0.07449523150476085,
        -0.08783693721984256,
        -0.14177246085266515,
        -0.1482161933717811,
        0.1263324673616338,
        -0.09341476960685609,
        0.04693012314386,
        0.03386922340231524,
        -0.1434150651869348,
        -0.09269896226119086,
        0.07296888948975966,
        0.013201686100501847,
        -0.09816946256882107,
        0.122376334906066,
        0.09599855388247033,
        0.07327194720338681,
        0.10105907860341731,
        0.0958383525655089,
        0.15393049441812443,
        0.1147663041096991,
        0.03160123413755275,
        -0.07538809774455496,
        -0.06779144868662645,
        0.030028645562341333,
        -0.04962412170291711,
        -0.08331094549376697,
