{
  "num_class": 10,
  "num_hidden": 200,
  "num_visible": 20,
  "params": {
    "bias_b": [
      0.0,
      0.0,
      0.0,
      0.0,
      0.0,
      0.0,
      0.0,
      0.0,
      0.0,
      0.0
    ],
    "bias_c": [
      0.0,
      0.0,
      0.0,
      0.0,
      0.0,
      0.0,
      0.0,
      0.0,
      0.0,
      0.0,
      0.0,
      0.0,
      0.0,
      0.0,
      0.0,
      0.0,
      0.0,
      0.0,
      0.0,
      0.0,
      0.0,
      0.0,
      0.0,
      0.0,
      0.0,
      0.0,
      0.0,
      0.0,
      0.0,
      0.0,
      0.0,
      0.0,
      0.0,
      0.0,
      0.0,
      0.0,
      0.0,
      0.0,
      0.0,
      0.0,
      0.0,
      0.0,
      0.0,
      0.0,
      0.0,
      0.0,
      0.0,
      0.0,
      0.0,
      0.0,
      0.0,
      0.0,
      0.0,
      0.0,
      0.0,
      0.0,
      0.0,
      0.0,
      0.0,
      0.0,
      0.0,
      0.0,
      0.0,
      0.0,
      0.0,
      0.0,
      0.0,
      0.0,
      0.0,
      0.0,
      0.0,
      0.0,
      0.0,
      0.0,
      0.0,
      0.0,
      0.0,
      0.0,
      0.0,
      0.0,
      0.0,
      0.0,
      0.0,
      0.0,
      0.0,
      0.0,
      0.0,
      0.0,
      0.0,
      0.0,
      0.0,
      0.0,
      0.0,
      0.0,
      0.0,
      0.0,
      0.0,
      0.0,
      0.0,
      0.0,
      0.0,
      0.0,
      0.0,
      0.0,
      0.0,
      0.0,
      0.0,
      0.0,
      0.0,
      0.0,
      0.0,
      0.0,
      0.0,
      0.0,
      0.0,
      0.0,
      0.0,
      0.0,
      0.0,
      0.0,
      0.0,
      0.0,
      0.0,
      0.0,
      0.0,
      0.0,
      0.0,
      0.0,
      0.0,
      0.0,
      0.0,
      0.0,
      0.0,
      0.0,
      0.0,
      0.0,
      0.0,
      0.0,
      0.0,
      0.0,
      0.0,
      0.0,
      0.0,
      0.0,
      0.0,
      0.0,
      0.0,
      0.0,
      0.0,
      0.0,
      0.0,
      0.0,
      0.0,
      0.0,
      0.0,
      0.0,
      0.0,
      0.0,
      0.0,
      0.0,
      0.0,
      0.0,
      0.0,
      0.0,
      0.0,
      0.0,
      0.0,
      0.0,
      0.0,
      0.0,
      0.0,
      0.0,
      0.0,
      0.0,
      0.0,
      0.0,
      0.0,
      0.0,
      0.0,
      0.0,
      0.0,
      0.0,
      0.0,
      0.0,
      0.0,
      0.0,
      0.0,
      0.0,
      0.0,
      0.0,
      0.0,
      0.0,
      0.0,
      0.0,
      0.0,
      0.0,
      0.0,
      0.0,
      0.0,
      0.0
    ],
    "weight_w": [
      [
        0.12334310844567892,
        0.03233286987555101,
        0.0484442297045872,
        0.0755402781963605,
        -0.12537164727865835,
        -0.16825860936025394,
        -0.09713381474937677,
        -0.09019932686541933,
        0.10413115018643437,
        -0.1627043794644848,
        0.16210362176220516,
        -0.0040091468865463,
        0.028802214621699518,
        -0.12362427738389695,
        0.13294986641093676,
        -0.07982688805494396,
        0.14506439164421125,
        -0.03482719683851662,
        -0.014035810655035036,
        0.07850688833783023,
        -0.14459585450884516,
        0.0012010549334584841,
        -0.06886916536120696,
        -0.15023203809419414,
        -0.05831847825451349,
        0.054676905400057596,
        -0.15931820530871735,
        0.07915533456577034,
        -0.16039078181776834,
        0.07546321266850375,
        0.05005679651298181,
        -0.03439845036181799,
        0.1209893677108202,
        -0.164476170619448,
        0.05030199690936571,
        -0.027134472562996004,
        0.11901655882049628,
        0.11407533979452378,
        0.08322970774973465,
        -0.12544247632096522,
        -0.02818969450180664,
        0.0033663883843133013,
        0.022829123841031418,
        0.1464789701061896,
        -0.039244397746683285,
        -0.1685089404158705,
        0.13106637341940985,
        -0.16085501546558478,
        -0.11564317463530394,
        -0.16066738644051967,
        -0.06797522524400168,
        -0.12657317102820825,
        -0.12320160179083797,
        0.07031648452029629,
        -0.14334905158124414,
        -0.06865831324046692,
        0.12296778137690756,
        0.13308739976183398,
        -0.054650176704167566,
        -0.07092266079072987,
        -0.02378478864625211,
        0.06570593416496598,
        -0.1090169911200466,
        -0.016189667103990446,
        0.09720554607562415,
        0.03813910133568452,
        0.07128415851195904,
        0.1073578688309218,
        -0.09433181480507714,
        0.08842528209687384,
        -0.11627034303392295,
        -0.15073946380903985,
        -0.020847903781526428,
        -0.1031359539820731,
        0.044120973674440706,
        -0.04565300993675657,
        -0.1216286137816949,
        -0.048530829912437276,
        0.12339494973862214,
        0.13847646920368467,
        -0.13968473705991974,
        -0.09253532013041937,
        -0.11278252538132302,
        0.022973746152524954,
        0.04853813781675659,
        0.13408932857493938,
        0.15294732047202503,
        -0.023342149843540272,
        -0.09593242910675676,
        0.14525619048495547,
        0.08957326804725557,
        -0.03913409943938995,
        -0.15559124217957945,
        0.11739408403126883,
        -0.11853920285702038,
        -0.1467009500345852,
        0.11935872689687227,
        0.022953954575875513,
        0.10668094688005841,
        -0.14959141246559163,
        -0.04964278751400024,
        0.04260828050682686,
        0.12045208689276404,
        -0.15884151603967725,
        -0.016422449822175056,
        0.08902508785655305,
        0.13563539367207095,
        0.042053532900973106,
        0.04383085462091532,
        0.10690432136058814,
        0.10506697919184665,
        -0.038730354285217344,
        0.006477740743385113,
        0.0028135617114914413,
        -0.14453902852976996,
        0.06034569448814617,
        -0.13818708022018975,
        -0.155238057334862,
        -0.015394559123661194,
        0.0020025573490835002,
        0.05497372950654514,
        0.13345846849575865,
        0.05303641077406018,
        0.13381076145876303,
        0.09427953191098404,
        0.007742655636737122,
        -0.07858183586742962,
        -0.0915520780466135,
        -0.024440372907744756,
        0.13156211602484053,
        -0.15588740566925352,
        -0.054767490145386066,
        0.035110673009045884,
        0.0019431851227975638,
        0.03726766037104562,
        -0.16343784072803944,
        0.1599470265029559,
        -0.08668773803927746,
        -0.038107481320605485,
        -0.09138873254020217,
        0.08465829005033365,
        -0.0768182611726946,
        -0.040679958726867055,
        0.14073806825803148,
        0.13255075599895305,
        0.05916740849899954,
        -0.15374767276842227,
        0.00636893790280238,
        0.09706495571066637,
        0.0393468245211179,
        -0.13752505320887404,
        0.12898682851042742,
        0.032072061293220516,
        0.10276365208930682,
        -0.06776652897995233,
        -0.10558246494745469,
        0.07261528392929331,
        0.08985616941017088,
        -0.0466617472699376,
        -0.06361698923523307,
        0.11149070504938396,
        0.14538441676752484,
        -0.15496522704641763,
        0.1561472221822121,
        0.03387800318881651,
        0.10070575595914044,
        0.11528173642475992,
        -0.10471802146731177,
        0.09176655775378306,
        0.010273507966666928,
        0.14010779852114846,
        -0.011331787380274821,
        -0.08579706388341796,
        0.09073026347145335,
        -0.1427531256725149,
        0.16769558883543884,
        0.01440139035929025,
        0.03483837845940943,
        -0.0771567640656256,
        -0.13942567414788098,
        -0.08820853416133816,
        -0.1251909656487114,
        0.12664068074676021,
        -0.14302892343242066,
        -0.11307797861538794,
        -0.1317367580742867,
        -0.07948409906077386,
        -0.028444493172082863,
        0.12131993928364809,
        -0.022100452331201004,
        -0.09557494118730059,
        -0.012692527587489899,
        0.10245436032636018,
        -0.06776264966901636,
        -0.16411642589216016,
        0.03894977088284102,
        -0.03369512764741803,
        -0.12452714002811602,
        0.073277264497883,
        -0.13038197441058944
      ],
      [
        0.012740591652344285,
        0.013660696578829151,
        0.03941596095660557,
        -0.05648659515223249,
        0.08630845761138733,
        -0.04140262016450971,
        0.017948230407759697,
        0.09868945938942869,
        0.1666067001450668,
        0.16700242531099163,
        0.0814461452693892,
        -0.06199151825084491,
        0.04711703921764859,
        -0.12593236489828302,
        0.11048654822920556,
        -0.09542034723426197,
        0.10454599962419758,
        -0.06657163674104796,
        -0.12747081500436486,
        -0.06884217810192038,
        -0.08261340961558446,
        -0.13381754734462117,
        -0.03932830733252124,
        0.11679882397459107,
        -0.013159010468762139,
        -0.043224428117228486,
        0.11331616086620683,
        0.030680304191220475,
        -0.02542603001679572,
        0.13657308971773102,
        0.095712514531898,
        -0.07184184132976114,
        -0.046568523346677104,
        0.1342804253803735,
        0.034138458031462926,
        0.14823938314350393,
        0.0663439367208983,
        0.013367875120758876,
        0.1309878475523682,
        0.13682093375494747,
        0.11551526103630283,
        0.11588024783204398,
        0.008091507838923984,
        -0.010919602442129667,
        0.05712872254158988,
        -0.04959627541770133,
        0.07303929011313545,
        0.1306030217969225,
        -0.09311220904350635,
        0.048779046133691134,
        0.04243397301296803,
        0.07562089658856452,
        -0.16406320500197102,
        -0.15239908088297519,
        -0.10343202679165148,
        -0.1291474170878697,
        0.16083033131955182,
        -0.0757903599894048,
        0.09129145163120284,
        -0.16332715176630108,
        0.10259044536242218,
        0.12355773869144665,
        0.049683854741821215,
        0.11766440787492866,
        0.13339913413603738,
        -0.050045574766800535,
        -0.06682832621924815,
        0.05616456232163444,
        -0.15354264387090424,
        -0.12928423229616753,
        0.05155331687574749,
        0.06747012802829305,
        0.04873680842413711,
        -0.15279598923121562,
        0.11913753357917861,
        0.13155075995014087,
        -0.04828899583666216,
        0.1546195195971639,
        0.07849408704047786,
        -0.10106262648297429,
        0.12513549341320834,
        0.11889051134434647,
        -0.16866500472479815,
        -0.12080741806043502,
        0.12039709834977919,
        0.09011853096285893,
        -0.1590847497700963,
        0.008122268444592073,
        0.02945672274947772,
        -0.0025782810532136713,
        -0.15988560517907838,
        -0.1444169887258729,
        -0.014056666817104019,
        -0.10805562209394995,
        0.07487909174320964,
        -0.026310661181280698,
        -0.09061162779056695,
        -0.00011720590193983749,
        0.1418773510542793,
        -0.060736058476583324,
        -0.11898809099651561,
        -0.05384395034788082,
        -0.03993616188069293,
        -0.014937486860200383,
        0.07136869703092025,
        -0.04223298146472021,
        -0.00917716054703921,
        0.0959398146724254,
        -0.03216234915105659,
        0.030733463412034145,
        -0.08721090480437267,
        -0.028002722447352274,
        0.1091763630132282,
        0.04288291121106519,
        0.016638101259470683,
        -0.02800103107669949,
        -0.08005900263376711,
        -0.05840168281057309,
        0.06849531536964062,
        0.13775483714800618,
        0.08251241728722908,
        -0.03358313862506307,
        0.035727116801076486,
        -0.11874708988208962,
        -0.0944782083493933,
        0.08294871214224842,
        0.04941032948874949,
        -0.1632236544985473,
        0.09997144292116922,
        -0.07006756775890531,
        -0.14805076571424555,
        0.014671531511633112,
        -0.06149759144333042,
        0.10699827893222746,
        -0.1641951174148947,
        -0.16900602396635434,
        -0.07078240628642124,
        0.12796464827776288,
        -0.10229335414635053,
        -0.12662438127702752,
        -0.12299604377899845,
        -0.13778859217201708,
        0.09275766470746455,
        0.03582857557853375,
        0.1670909451461403,
        -0.09387187773079832,
        0.04320133861992964,
        -0.04594730130629948,
        0.08827703152464933,
        0.13685705152624972,
        0.055298866353393594,
        -0.1529447355971221,
        -0.09828383908471106,
        0.10993219305631707,
        -0.07274932321518456,
        -0.02609240256761433,
        -0.058181401144963465,
        -0.07173924776709345,
        0.10677936995762999,
        0.16423888628878375,
        0.002237364318283558,
        0.00971298961313033,
        -0.13238093769682838,
        0.11789920000003773,
        0.1338249057909357,
        -0.06718413962650957,
        0.020821047380910784,
        0.04475730041925763,
        -0.07319366614202406,
        0.017130007700529526,
        -0.14639453604991115,
        -0.007550636437592351,
        0.1307231245115043,
        0.033770598548538255,
        -0.1133553195721719,
        -0.14340950142529968,
        -0.11973014321292716,
        0.07771113430257212,
        -0.13652372177580502,
        0.03047931347592972,
        -0.11183369456938697,
        -0.053599718272359806,
        -0.030613959518394684,
        -0.05955111545800812,
        0.11091364379620461,
        -0.11620441933854062,
        0.030851239556383248,
        -0.10149568437019553,
        0.12737480678827012,
        0.09416115828590038,
        -0.1674838415663086,
        -0.011187717559214022,
        0.09896721863730695,
        0.08703915250045419,
        -0.02997992470716268,
        0.01605428395353478,
        0.03175987836871649,
        0.026026810001370165,
        0.000461749342688611,
        0.12167705784410904
      ],
      [
        0.1476334326141146,
        0.03661644762505725,
        0.14674890552360598,
        0.10731424314949933,
        0.0035508303892205495,
        -0.04033714617011322,
        0.10487169377591321,
        0.04087235901700592,
        0.08602747609611194,
        -0.09841975872644548,
        -0.052384923702176706,
        -0.06320679959334297,
        -0.06456918862020744,
        0.12791895612746684,
        -0.0687332006737203,
        0.06433518711197828,
        0.10136076733212696,
        0.10892237558694401,
        -0.07221664854529675,
        -0.07112141840571243,
        0.06357219709412254,
        0.12664691125536714,
        0.13221471473288504,
        -0.10189447686667163,
        -0.11370101712504949,
        -0.1307194857925431,
        -0.12512658110334632,
        -0.07689440437206317,
        0.03392809241444511,
        -0.0746081828630048,
        0.1510697957230514,
        -0.14810076995397997,
        0.1148915463419316,
        -0.0077737488038434055,
        0.13292397405556355,
        -0.16295546538184766,
        0.004955133590853145,
        -0.12310709529224706,
        0.03277906544773759,
        0.1624326786804841,
        0.046624444114948455,
        0.028581623762006486,
        0.1146068925221137,
        -0.11378974180737292,
        -0.10453958208555059,
        0.11828446865088493,
        -0.100619549802276,
        -0.15285968876415865,
        0.10026618251691316,
        -0.13007169177198927,
        0.12224481415037763,
        0.16152126676039957,
        0.15596381008944155,
        -0.0018506646934370041,
        0.10896940474866063,
        0.06772806380748855,
        0.027400305114277046,
        0.0757454727696488,
        0.05155551709394701,
        -0.16345264249616245,
        0.06515460730901443,
        0.1451009345929452,
        0.0014647778892868668,
        0.0024069619322559244,
        0.1003321291858551,
        0.16692190965932957,
        0.060343891986502946,
        0.03721674083716764,
        -0.15054417878163578,
        0.08122109208329759,
        0.15946617697411064,
        -0.15834216978831972,
        0.009929375800235202,
        -0.09477849745234514,
        -0.0030770167124581083,
        0.03496159085209788,
        0.12970908900611522,
        1.589511672206445e-05,
        -0.01635962953957837,
        0.16042967724729246,
        0.03719839484884485,
        -0.1661654080376106,
        0.1297082580450971,
        0.017914271780198582,
        0.04278875496918261,
        -0.16676108315116558,
        0.03224266043992127,
        -0.10472375141536745,
        0.03159674212853639,
        0.09398934877981707,
        0.0345436917530525,
        -0.06928964671172544,
        0.024266636786637125,
        0.15911516495420958,
        -0.11472661210021945,
        0.023609076636490256,
        -0.16833523784093168,
        0.059863852678641555,
        -0.011376357476936938,
        0.011390821664233969,
        0.08201904268715704,
        -0.136904667869083,
        0.007611398231270883,
        -0.1349966567843004,
        0.04243193590641167,
        0.05013311757687164,
        -0.008057353225634944,
        0.11821447528999646,
        0.15513764614812525,
        0.10191701298270905,
        0.06283884665971765,
        0.02876846121488738,
        -0.02428215320035279,
        0.14278867731577255,
        0.14923085452175894,
        -0.04830370715924111,
        0.15339185304067482,
        -0.1421521965009625,
        0.11641935550381943,
        -0.11086417455544163,
        -0.08057789049547781,
        0.050210258367074295,
        -0.08238433043218181,
        -0.13827835959151058,
        0.1637137680362235,
        -0.09739550101903585,
        0.05835260707135548,
        -0.1188727849953049,
        -0.02512959686594604,
        0.08597176929718664,
        0.02702834768496415,
        0.027780855785238562,
        0.03735875634415456,
        0.12292745809315497,
        -0.07796653858603593,
        0.10896245992655218,
        0.09571238079911143,
        -0.10228732022071327,
        -0.11745552171509925,
        -0.10139778274368069,
        0.10649301856550814,
        -0.16684945526080266,
        0.11893695310741986,
        -0.11153411267611055,
        0.15760888478004204,
        0.1558342755280428,
        -0.1028605124402445,
        -0.014487319707250673,
        0.015434510422954933,
        0.12460668794333996,
        -0.14254751699597284,
        -0.12147949236610882,
        0.029287586130332083,
        0.14052041636668633,
        0.14427175741402892,
        -0.1678619923505559,
        0.06394886168548805,
        0.12805067477292548,
        0.04285068966535385,
        -0.00994596058452582,
        0.09095089980069587,
        3.409399850237693e-05,
        -0.013137582339677989,
        -0.16759769392702267,
        0.029623533776254762,
        -0.10268990491952233,
        0.061355973117568546,
        0.029898442375562634,
        0.1558047981189698,
        0.1558400061186957,
        -0.13996692572987982,
        -0.019728892385621255,
        0.07837209190002942,
        -0.022010514809001597,
        -0.05869807572124437,
        -0.04679000515849853,
        -0.11664190826709875,
        -0.12079681968035035,
        0.014798447470075665,
        -0.05567299672155822,
        0.07665343711760611,
        -0.0779057496357284,
        0.1641264155179527,
        -0.16780252760995124,
        0.05236162519800894,
        0.1591654538366653,
        0.14725826328648778,
        -0.14325046087274831,
        0.08816117404209173,
        0.05846711398043358,
        0.11019011806419904,
        0.07053932821582384,
        -0.10239548627048896,
        -0.006607304967050115,
        -0.1075179046412516,
        -0.05499253473285469,
        -0.08179838944335352,
        -0.06609384053272024,
        0.10294852991607656,
        -0.1575102336525182
      ],
      [
        0.12809492854944254,
        0.07705649238160925,
        -0.050153276708608904,
        -0.12693295809538196,
        -0.0651442670863195,
        0.14791238943174395,
        -0.11629857626430143,
        0.037830227814610845,
        0.1670410054105958,
        0.05536380009957756,
        0.1592990607003289,
        -0.13419917049235466,
        0.1102583517697322,
        -0.10522671564632431,
        0.04110843175320217,
        0.11116495901696583,
        -0.05456910893813005,
        0.09382855439359095,
        0.11346983373695169,
        0.12319364560899343,
        -0.07128201352263058,
        0.01699509106120825,
        0.12507709700435093,
        0.0985730918335056,
        -0.12433534821162259,
        0.017114854575236427,
        -0.15335501001966786,
        -0.048546181225489676,
        -0.021368869639458582,
        -0.10884680031906384,
        -0.05768479105940366,
        0.013212723856609154,
        0.06727562090263273,
        0.03293383344608716,
        0.027392623650711656,
        0.1461697994206505,
        0.023618935673222458,
        0.10103350026780777,
        0.07640910757227656,
        -0.14121248782980875,
        -0.15751074795052697,
        0.11809396400206379,
        0.12377809844749033,
        -0.12497410825908012,
        -0.04581739957548965,
        0.07982910085556302,
        0.09484451068483274,
        0.06576544162271608,
        -0.019573505280752607,
        -0.010207426480295656,
        -0.028950089137819823,
        0.16591468905067175,
        0.09870675563268977,
        -0.056389883823254536,
        0.11299464190153796,
        0.11608297092748243,
        -0.014360018904476163,
        0.14659881530823549,
        -0.10120517859574839,
        0.11729280795995078,
        0.04496390254987817,
        0.062110076229198286,
        0.16120857809580624,
        -0.11268227549533584,
        0.14126788367080517,
        -0.11979559050908098,
        -0.029584684731995298,
        0.03800349483873755,
        0.01843767272873384,
        -0.042005600971311396,
        7.571227548819337e-05,
        0.11732796820358188,
        -0.1635445448713425,
        0.16521823492770404,
        0.07358724256099192,
        -0.11046033317169443,
        0.08396570563200029,
        0.11358615019930746,
        0.034471079751686645,
        0.16309538121931155,
        0.1464514888603176,
        -0.06887604289901142,
        0.141406948294234,
        -0.04246829788095058,
        -0.05563205252728576,
        0.026190112825133338,
        -0.11081171819652644,
        0.09022661398064225,
        -0.08709774485247354,
        0.14155921829350887,
        0.031172660169165173,
        -0.03371536352053495,
        -0.00357234927442035,
        -0.07339608858245524,
        0.15001817147357976,
        -0.03290011580713151,
        -0.15714907018954818,
        0.018110192755740495,
        -0.12276532604458365,
        0.1511296446120467,
        -0.011540445149131495,
        0.1121973654320737,
        -0.08206350745291216,
        0.15914754944962378,
        -0.160470967384651,
        -0.12032205992815856,
        -0.12277382449319771,
        0.04298543443400882,
        -0.0762636873884019,
        0.05554921666142926,
        0.08307072275789557,
        0.07614890277968878,
        0.15975827336922505,
        -0.1608144004884731,
        0.03398834793393066,
        0.019892169928117626,
        -0.15816434321145978,
        -0.03825771913469597,
        0.11437076110266164,
        -0.09929364535207551,
        0.06151600979973046,
        -0.08703300434955699,
        0.1348710654205436,
        -0.15040600818967112,
        -0.16183834611996858,
        -0.029243173204879652,
        -0.14679904510339148,
        0.0746398283050268,
        -0.15698241350169034,
        0.13171526569515252,
        -0.15740761047128546,
        -0.1411623132866073,
        -0.07430669827979657,
        -0.07626809892059942,
        0.1676891727487248,
        -0.16560193189435676,
        0.13971387843095529,
        -0.1312708049372579,
        -0.015879463499013785,
        0.05291768042194875,
        -0.07567817139521094,
        -0.1330389390055151,
        -0.027011220671753267,
        -0.06879709862345668,
        -0.15368623100566828,
        -0.08607656296127501,
        -0.08750680841198427,
        0.10432925114470648,
        0.04788955074633108,
        -0.15464455443722872,
        0.0014706449215753925,
        0.022941657912610408,
        0.14973788840346508,
        0.02558968564132888,
        0.12919555103015973,
        0.08998625117079956,
        0.13632135047822963,
        -0.042348374253414534,
        0.1648721609577563,
        0.09516268593347604,
        -0.04112448943512512,
        0.042194725653268594,
        0.00014147129960209726,
        -0.10637362761090628,
        0.11000389131078703,
        0.11085336888049052,
        0.041596770289324625,
        0.05851189149679478,
        0.14068306560417498,
        -0.13246722496694496,
        -0.14300247676842992,
        0.12200376554979747,
        -0.039053309780861106,
        0.15492228049351464,
        0.13726750715388303,
        -0.004200598143351497,
        -0.07559247046070648,
        -0.12471032607642697,
        -0.0077540490574399545,
        0.09038307671716411,
        -0.07610496005224866,
        0.07910027664601973,
        0.08038438887438937,
        0.038220532142242164,
        -0.05804669271475052,
        -0.09862284365407799,
        -0.10025538845295968,
        -0.07093148909581551,
        -0.08265523542546652,
        -0.09748945509850623,
        0.145715046931289,
        -0.12619900532524755,
        -0.0032868005795176347,
        -0.04144039966394225,
        0.08172730985571175,
        0.08087216448075324,
        -0.13993708003857902,
        -0.08938090259741224,
        0.06043366671383854,
        -0.0915303237570296
      ],
      [
        0.07819140616602926,
        -0.12892873309575553,
        -0.15189004389832994,
        -0.03884514181962531,
        -0.052643303936171254,
        0.13140410952542514,
        0.014037678173427576,
        -0.02812902303266221,
        -0.10311678322260465,
        -0.15214456794257153,
        -0.061132413638830374,
        -0.07152048895346441,
        0.04959150579235519,
        -0.11460926417715464,
        -0.10537483712022351,
        -0.13256800107516367,
        0.09227342515006182,
        -0.06842909100751417,
        -0.14589110719478393,
        -0.12191530540480316,
        0.12150860716890372,
        0.06297371279390962,
        -0.06945120780640457,
        0.03905520408488744,
        0.001036891042450111,
        -0.08196395526092659,
        0.0513484285639397,
        0.15441588729643768,
        -0.04704074307382082,
        -0.07221917811275316,
        0.004618696812683232,
        -0.13079230590071506,
        -0.14727461049325435,
        0.14741331903206983,
        0.07549579577127985,
        0.09040149907366607,
        -0.1650297797212767,
        0.08527126140248908,
        -0.024811347434713305,
        0.1459776287977062,
        0.13677637788670516,
        0.09454628344062227,
        0.081828694665805,
        0.14825819683281027,
        -0.16057067400167696,
        -0.11271884690620293,
        -0.032243283108684156,
        0.160225937152766,
        -0.006146788110232226,
        0.09167522067385614,
        -0.036483505418378775,
        -0.037304639681586704,
        -0.08814012319182171,
        -0.031395188152766124,
        0.008151538835926175,
        -0.16336742107364038,
        -0.0020857293807513,
        -0.07223965869686463,
        0.008785621476749217,
        -0.03463560757975587,
        0.0763606282823939,
        -0.16407161250445107,
        -0.12466863235860232,
        -0.12677229596648282,
        -0.15299588135740816,
        0.07490099011166182,
        0.08365379006265428,
        -0.07078777340564721,
        -0.01625904391345709,
        -0.13414004964196946,
        -0.11575585357547802,
        -0.09233950150733661,
        0.1518111830956766,
        -0.12083016545183622,
        -0.10940525486155417,
        -0.09666293941886041,
        0.0511405339616611,
        0.012942810062104043,
        -0.07025938539969012,
        -0.08861909557969991,
        0.16587986547652228,
        -0.006069483695356759,
        0.07379313093951909,
        -0.08902845332264109,
        -0.13386326705809548,
        0.10282921838310904,
        -0.16878827024666235,
        -0.060307877589325404,
        0.1623162306435859,
        -0.07504710715746127,
        -0.1189937735520821,
        0.08416776812914967,
        -0.08864896966007493,
        0.016060393351106206,
        0.03159500066293064,
        0.1380468786690156,
        0.006882022685816308,
        0.07673693209575072,
        0.034744299699800724,
        -0.14288993794490554,
        0.16578595316822758,
        0.07574007015138565,
        0.014432631641852434,
        -0.14424779754025288,
        -0.09046902094777011,
        0.07642242525836362,
        -0.15473426382558658,
        -0.12153292629149395,
        -0.1171301456458414,
        -0.125770662320003,
        -0.08083603747304934,
        0.06812400270375696,
        0.15258280499685106,
        0.05987241190344486,
        0.12437584967138265,
        -0.04645936975003205,
        -0.07663355404903968,
        -0.1407829384212838,
        0.16307492707184823,
        -0.018652160180099298,
        -0.07952015049380155,
        -0.0842910071357543,
        -0.12222385553241863,
        0.14132299061190812,
        -0.15506023225066332,
        -0.1524430970369752,
        -0.04529957446545749,
        0.03240369019596395,
        -0.012819472781878616,
        0.0949294263518985,
        0.1451545303146748,
        0.07953685011442668,
        0.00783698962000684,
        -0.0016493156129504527,
        0.07023959770026658,
        -0.11513821231850171,
        -0.07496671207423412,
        -0.03470178833430168,
        -0.00545464354858452,
        -0.004334887462768083,
        -0.004085089842099321,
        -0.11085643942813961,
        -0.06910022993792127,
        -0.10518829473762645,
        0.11502169178744615,
        -0.02174405331242585,
        -0.10890205032632935,
        -0.03439004209599278,
        0.09994337003691889,
        0.12055532406816416,
        -0.034609299642720304,
        0.15230934591718615,
        0.11949034321476698,
        0.134458766653119,
        0.05335236719269676,
        0.06708657986765434,
        0.023741927781009586,
        0.06583527640104767,
        0.1631621951231489,
        -0.031307241465879404,
        0.05760203387412463,
        0.010759396198785659,
        -0.08071586317963327,
        -0.030208724249077668,
        0.059716513733160975,
        -0.11740238124466064,
        -0.03987913715959571,
        0.10231523601537912,
        -0.16603103046185716,
        0.16638158154978278,
        -0.12873786394325273,
        0.01527407314323917,
        -0.062127097704477524,
        0.15529522338834995,
        0.037002679532572,
        -0.1306722532071565,
        0.0353959784188215,
        -0.1242023869644632,
        0.044579428867012355,
        -0.11049899625732643,
        -0.008619499337660597,
        -0.02490105070726714,
        -0.04603555526819403,
        0.1066053248359789,
        -0.02552855293838971,
        -0.07586679251970121,
        -0.10129536763259805,
        0.142559668362166,
        -0.07687134386124111,
        0.03733596952713347,
        -0.12380747880788284,
        0.10033149787444956,
        -0.028871471885992345,
        -0.039379529092357785,
        0.033978831196084136,
        0.007949819414129838,
        -0.07851098027410551,
        -0.12495591744017137,
        -0.061468076753828746,
        -0.07746941196128954
      ],
      [
        0.06973423472326593,
        0.03018327040208721,
        0.04523654663445387,
        -0.13966611766586282,
        0.024608552552663754,
        -0.1620332756844391,
        -0.09371288568058901,
        -0.020495194070305145,
        0.10902354001229603,
        0.02841021688704301,
        -0.10938848342974125,
        0.03870466979379247,
        0.07025368672370066,
        0.12649143566081433,
        -0.05191108576990057,
        -0.11813859865988051,
        0.14277246989441406,
        0.1358265280861332,
        0.08684172839137044,
        0.04613708121410545,
        -0.015747146799075185,
        -0.12413533721676304,
        -0.028914877294004326,
        0.16230721719643487,
        0.15042159430353852,
        0.0813125280349642,
        0.14277501824728628,
        -0.11244700489598072,
        -0.11789116001357303,
        0.11198142140930689,
        -0.12335531149882653,
        -0.1534357870190503,
        -0.0499496705264007,
        -0.08825207539827934,
        -0.1575117840656444,
        -0.09318118742951219,
        0.020265925663211226,
        0.06549702624439235,
        -0.04868066821934379,
        0.09116499125291233,
        0.04888604183492734,
        0.056814793597706775,
        1.3010515549055635e-05,
        0.0505128065518744,
        0.026231600757910617,
        0.11675815969360542,
        -0.1451662533655622,
        0.13668090909939862,
        -0.01870491165437088,
        0.010866028683560292,
        -0.0931763160375038,
        -0.06973285324955035,
        -0.03893375781242844,
        0.13988844492398433,
        -0.09070088483104001,
        0.12090849731412356,
        0.04855474914484684,
        -0.08969346266109851,
        0.12909620390499837,
        -0.05846953731875694,
        0.1518814798340975,
        0.11548766740872002,
        -0.131124160011383,
        -0.0736089730284931,
        0.1390536319808487,
        0.07789936339404785,
        0.15649101951727312,
        0.053134032112321844,
        -0.02619635153125846,
        0.1589807117672014,
        -0.005620862653980957,
        0.027238859749019628,
        -0.08945355188172792,
        -0.10499228898507572,
        -0.09607468101466365,
        -0.16047014358923728,
        0.01591999716956169,
        0.12337968078077521,
        0.04801152943044845,
        0.08373170793796869,
        0.007044238407219794,
        -0.10142020609240603,
        0.10783465076242821,
        -0.07119463886893883,
        0.011027672329305627,
        0.1565335741988988,
        -0.03138780149380446,
        0.11735844719229871,
        0.1384982898493214,
        0.05155231963368706,
        -0.08865068473409657,
        -0.037829217690963785,
        -0.01535383534319204,
        0.0325457439260268,
        -0.015101548149054317,
        0.11518635912426828,
        -0.10460042948186433,
        0.13221749879283168,
        -0.020621586262063396,
        -0.08669516551932352,
        0.05941960850406133,
        -0.01024069757541049,
        0.10706038856621714,
        -0.09532509273190218,
        0.09940667387143182,
        0.08821129296896191,
        0.15483068600429734,
        -0.15215286523994345,
        0.037822034788137254,
        -0.15703763058053705,
        -0.04369944249471169,
        0.15824405479680625,
        0.16073295123661901,
        -0.10698688727339128,
        0.021265882494161698,
        0.1516370233731107,
        -0.11905273012971435,
        -0.09468852850019333,
        0.013331753299377247,
        0.16649287902304988,
        -0.16224440717144464,
        -0.1381724102989306,
        0.15986094502013598,
        0.14796499887047676,
        -0.12092732324645086,
        -0.12499272116674848,
        -0.0009038940490006808,
        -0.035270843666436735,
        -0.07030380447057064,
        0.012349976274405705,
        0.05776253519429597,
        0.08679479399206547,
        0.13225943446637767,
        -0.03375028154436649,
        -0.08777302788991857,
        -0.005401486586248089,
        0.009519975172807393,
        -0.14732331293286324,
        0.07841725976261216,
        -0.10106607192368941,
        -0.05818789993045094,
        -0.09241904570390391,
        0.01981125172836609,
        0.10488867384799455,
        -0.06226464746345618,
        0.058747363205444686,
        0.08897867205046006,
        -0.026181467956780363,
        0.021222447429562835,
        0.03563362883977522,
        -0.16420468751911022,
        -0.15119900165816816,
        0.07156791832576448,
        0.10233838002117152,
        0.054021844158637505,
        -0.10864594873679405,
        -0.03511987223854579,
        -0.131991209282602,
        0.13378384317012226,
        0.1614022069705358,
        -0.16125842451305747,
        0.12223923482242782,
        0.05380425905667449,
        0.04383367542747757,
        0.12155302697716885,
        0.15754187981284662,
        0.0486183771700876,
        -0.13162474342435615,
        0.10313784246732383,
        -0.15907666486355843,
        -0.1428809582033624,
        0.03798880943731789,
        0.05764404309319393,
        -0.16048636552747547,
        -0.01593477244446198,
        -0.10643319842020431,
        -0.05690841588319043,
        0.002300718747375724,
        0.009197546584816613,
        -0.013600875948097835,
        -0.045799344628706135,
        -0.12011970899708999,
        -0.051262761683058225,
        -0.1649658826739375,
        0.08576688674654709,
        -0.035776343256786275,
        -0.11918818945065213,
        0.04075361392684079,
        0.06607894004070453,
        -0.1672200129966742,
        0.04262111797363197,
        0.09450888394022133,
        -0.09458490076516636,
        -0.06603617120014903,
        -0.13100669511555307,
        0.0033993228580729284,
        0.007060362193497566,
        0.13851277670922152,
        0.0718506168002121,
        -0.035954664663662234
      ],
      [
        0.04138628190307539,
        -0.07305561537220019,
        0.06465910917156689,
        -0.10563352513535942,
        -0.017841414330938554,
        0.09334964328107381,
        -0.009982547933383767,
        0.0614292722053979,
        -0.07443702018878864,
        0.12697874478370053,
        -0.1477444703596808,
        0.08007026861852212,
        0.038491792469435376,
        0.021673767235835556,
        0.004434563274484771,
        0.08581073843460729,
        0.11783576428868914,
        0.1150875280589142,
        -0.017604441098244966,
        -0.07649800222036146,
        -0.12493595684608966,
        -0.07754027115923433,
        -0.16023531834879712,
        0.145158599919663,
        0.11415003799547152,
        -0.100773788644249,
        -0.06352493857792264,
        -0.06771093227168556,
        -0.15076549391893204,
        -0.12086964253282978,
        -0.12035483172516612,
        -0.10985503406530897,
        0.09780103395358741,
        -0.06254495123589499,
        -0.11753693667670291,
        -0.0798721861650425,
        0.14801155775163577,
        -0.14981749619635962,
        0.16478269467783074,
        -0.10924592624442966,
        -0.125308848445186,
        -0.03845961420657279,
        -0.05345159555648457,
        -0.050757487747037616,
        -0.15314618181646134,
        0.011016673697762741,
        -0.05077455146737994,
        0.14793479170110407,
        -0.16045432932632372,
        0.15254976392212388,
        -0.14849099820262032,
        -0.08679386007481402,
        -0.021440196415655116,
        -0.12558967917970687,
        0.06705177620894462,
        0.08364780931923316,
        -0.06288784865937051,
        -0.09241245549734718,
        -0.1111668020536474,
        -0.12789139468772465,
        -0.1578946310963534,
        0.0958112681247057,
        -0.06622794007979062,
        -0.03416870192957058,
        -0.16474487198820958,
        -0.11938823476616489,
        -0.10010910006576382,
        -0.15370272011210645,
        -0.008793599506453115,
        -0.10931856014260444,
        0.14985743491501585,
        0.041882770069250924,
        -0.16270046122905,
        -0.13760083131886663,
        -0.0262091357402901,
        -0.027496115485304007,
        0.146851778328149,
        0.1471726495670807,
        0.10250659772959098,
        0.14414676030538343,
        0.018962874621012427,
        0.12470432231759626,
        0.07597753985577343,
        -0.06629094521962203,
        0.09727837457916244,
        0.09693414914278548,
        -0.03727922257051297,
        -0.0925664553837506,
        -0.11728460419466635,
        -0.15773799221239465,
        -0.053349251793846725,
        0.10235313782293742,
        -0.11018383814506784,
        -0.10846546139733526,
        -0.021090421108263147,
        -0.03978618944420076,
        0.05509459554319207,
        -0.12735547997140392,
        0.09661390914577817,
        -0.026587818322542006,
        -0.016221691646596648,
        0.052098990863627265,
        -0.04010382309886454,
        -0.15572005945684966,
        0.06618508653843866,
        -0.03740884992243376,
        -0.005941412532312229,
        -0.10909530822437277,
        -0.0865837752005777,
        0.025708602272179637,
        0.06284437857071842,
        0.1072515310917892,
        0.14643323469084768,
        0.11232087308583105,
        -0.12025264803051774,
        -0.13556216514214792,
        0.12899587385987216,
        0.12628894219414627,
        -0.03245566324362992,
        0.16462143843253424,
        -0.16876841962176722,
        0.0900231997101163,
        0.113280940876478,
        -0.08440109473700513,
        -0.04846013939364674,
        -0.06741471531243153,
        -0.11843218483795229,
        0.013819128282600013,
        -0.10168454798912127,
        0.03829360350788605,
        -0.007656779324009183,
        0.0389999196764875,
        0.09624483469608408,
        0.004496077646383434,
        -0.11949775691336732,
        0.04936347830342078,
        -0.1514014649281568,
        0.07276214691186833,
        0.0651746452879389,
        0.14142206288589554,
        0.0002695710359611192,
        -0.010738167103038654,
        -0.1653507570939579,
        -0.04821852111948968,
        0.1656600401004385,
        0.013595422323013612,
        0.10524095625688829,
        0.1502554491671726,
        0.13861365136473575,
        -0.09091551359097065,
        -0.15475894692129483,
        -0.06657362215912335,
        0.16071446703393555,
        0.12764057292064102,
        -0.026780758185108333,
        -0.1336683976257212,
        -0.06472527638933029,
        0.1631490622180547,
        -0.035407082433453446,
        -0.12739581990165513,
        0.10236368619111369,
        0.01147442453307937,
        0.016773735673988932,
        0.12150056792396835,
        0.0067345032065967425,
        -0.10663814672012481,
        -0.15526916768100776,
        0.04492722375005695,
        0.06643256166208311,
        -0.056375171933048085,
        -0.0823916749332566,
        0.04457062157750949,
        0.148122630859171,
        -0.025503118101934702,
        0.10240459889696324,
        -0.042822745068303775,
        0.03874822533897762,
        -0.16061651241212024,
        -0.09418236695793876,
        0.09445256522751416,
        0.025798780455959902,
        -0.11230717595765922,
        0.11307842907978799,
        0.1609862299835857,
        0.15097062728270033,
        -0.15474513447563162,
        0.10251452975234149,
        0.1678200780892981,
        -0.13668974275595813,
        0.007477445207309558,
        -0.08164910407432055,
        -0.08621756576594237,
        0.06821753706378636,
        0.03164649231308447,
        0.046767510141778434,
        -0.12237862005794051,
        -0.14170020088534982,
        -0.1353460433753772,
        -0.07455760567242388,
        -0.02507480190504882
      ],
      [
        0.009753016593190833,
        -0.1659613917623003,
        0.010345871099762954,
        -0.06440247721878302,
        -0.0671966794539983,
        -0.164702180003435,
        0.1354428669271981,
        -0.08570080955371705,
        0.11302551952632506,
        0.06659267464129648,
        0.08494178955729215,
        -0.08290286789747943,
        -0.10317336330019307,
        -0.12589002746424507,
        -0.14311622380515143,
        -0.12085827981495942,
        -0.07837662992767883,
        -0.029369908427269914,
        0.12862846308073372,
        0.13227204758549266,
        -0.013769131276852226,
        -0.14023053332916333,
        0.08416443587372535,
        -0.16088936307053617,
        0.14952711833821142,
        -0.05709787298165661,
        -0.14230752025021062,
        0.15158466578031032,
        -0.008985229480983375,
        -0.16131725367579125,
        -0.05010379985889063,
        -0.1504132064737925,
        -0.02238733199452947,
        0.056104709484400106,
        -0.1369598616940455,
        -0.07123517676716778,
        0.11938128783438551,
        -0.08737057228881168,
        0.09994520891337799,
        0.01051041043657791,
        0.03958141611776747,
        -0.13219205033866852,
        -0.156856844283585,
        -0.15990264792224962,
        -0.012600914724986034,
        -0.042833330338837544,
        0.15461494693972666,
        0.051896279182259225,
        -0.12677681837294008,
        -0.044851904135333256,
        -0.07555697152101558,
        -0.03203556400479046,
        0.03259447965648482,
        0.003745311356532527,
        0.013664142591878536,
        0.06523534141481566,
        -0.059580119074833515,
        -0.03845738156090714,
        -0.0035941351247730513,
        -0.10607598259062755,
        -0.07642527352891863,
        0.0032005035820805716,
        0.040301089254223155,
        0.036433311863575985,
        0.16195322261969852,
        -0.16654027607592778,
        -0.017326464525848906,
        -0.045497895457716056,
        -0.08942936729473765,
        -0.016707422947958656,
        -0.09237490639818648,
        -0.09102915697931054,
        -0.026158903929542593,
        -0.001022732140224747,
        0.13824443958400495,
        0.16517011426274475,
        -0.11859007170134697,
        0.10337019455272684,
        -0.08710129130069569,
        0.14144235226000523,
        -0.012476487735833791,
        0.08736291730454027,
        -0.06436633418041077,
        0.043065190433220074,
        0.09124428009409641,
        -0.08897064713502705,
        0.1410761604456241,
        0.10470434521203037,
        -0.09668088713803609,
        -0.11108487005898818,
        -0.16174160140895225,
        0.027435767987473964,
        0.07462725847056148,
        0.09211774520802773,
        -0.005402401115206817,
        -0.04845744674369233,
        -0.045711462272473094,
        -0.1594165661616222,
        -0.037049453264208054,
        0.16809265613405827,
        -0.09803346007724952,
        -0.03638679506449685,
        -0.06604216585184465,
        0.09823759342206717,
        0.10192913816375654,
        -0.06958645687486262,
        0.10895005985898254,
        -0.06319157636077226,
        0.026717528683098513,
        -0.028010696883307123,
        -0.14017457294311977,
        0.012510052677281724,
        0.11775678781969456,
        0.1667451672745175,
        0.03576174880998556,
        -0.014081021879362166,
        -0.09369793162400697,
        -0.03901335512031304,
        0.06868559251729986,
        -0.017183050526945465,
        -0.03912388748055334,
        0.08567282737372706,
        -0.025405370154419932,
        -0.15068050281839335,
        0.11511302648715765,
        -0.06063474485991188,
        0.0642524637248186,
        -0.09445625059036546,
        0.003678122999677902,
        0.12603853310451452,
        -0.033867455717366685,
        0.0010269560223938323,
        -0.16792234048227897,
        -0.15415065464136568,
        -0.15875277339634686,
        0.009763128733303483,
        -0.1334051981653995,
        0.07905095065452838,
        -0.15460961833728154,
        -0.0962669712576126,
        -0.1518727589781066,
        -0.03055033700845583,
        -0.06535334557353353,
        0.04705864640235449,
        -0.05667208742236213,
        -0.04516312989603927,
        0.14111932421166568,
        -0.05388329043851357,
        -0.1066879958729828,
        -0.15534943454202588,
        -0.04271533454366805,
        -0.05938669567875897,
        -0.08381137593274048,
        0.029222467131816254,
        0.10589492820129975,
        -0.1228514802374172,
        -0.13699457188586572,
        0.10889529512706175,
        -0.006983476457440796,
        -0.00472030232304374,
        0.000823857864951677,
        -0.15412043042945778,
        0.10451912169830013,
        -0.08577237047029859,
        -0.1475549667888126,
        0.12724600758244126,
        -0.02208496079828759,
        0.1485101461593354,
        -0.04991845822574195,
        -0.13363306470853883,
        0.012767540122930882,
        0.14327297910120473,
        0.1582380354386037,
        -0.05242466429249701,
        0.05064007364696879,
        -0.0021995878687416093,
        -0.04382111859794749,
        0.08233922529972076,
        -0.08144022993954911,
        0.12637691341377272,
        0.12668550144254453,
        0.15746642145639678,
        -0.09399546142058063,
        -0.009869034092415713,
        -0.0991184273234897,
        -0.0398592777044022,
        -0.07641701721442466,
        -0.13521303426285103,
        0.1316726490821088,
        0.13697093140412314,
        0.1400386680939968,
        -0.14664696210967043,
        -0.1012474328718254,
        -0.14696278555843392,
        -0.09603578556605555,
        -0.1546914289741811,
        0.11640215112913099,
        -0.1292188051423936,
        0.10567360533581172,
        -0.13913901061233738
      ],
      [
        -0.16723776631425802,
        0.07251776690312126,
        0.15899980570037692,
        -0.1430112641343233,
        -0.01447262331839369,
        0.027328868510985288,
        0.12080183262357358,
        -0.09423133900262386,
        0.08674025235356347,
        0.05127283355414447,
        -0.13655284668376919,
        0.12315994389985252,
        0.06254032102154386,
        -0.11364333854580416,
        0.054227022692310556,
        -0.14399933074297977,
        -0.08055993517649458,
        0.1572236343575048,
        -0.05510284306578325,
        0.06182550266654105,
        0.15187260313630252,
        -0.02610500419709283,
        0.012439473800085615,
        -0.08035282353987301,
        0.04499240572055724,
        0.03749174186074433,
        -0.11586093220483662,
        -0.00037074218622051847,
        -0.08525955517561754,
        0.02427838868557805,
        0.0935479912820601,
        -0.07137205781967644,
        -0.12589713362473165,
        0.0015499494556575621,
        -0.016505866986062434,
        0.07870796938695701,
        0.03911882943926276,
        -0.10251221191221169,
        0.10663996463843556,
        0.028796103339715134,
        -0.030317312681926695,
        -0.16859038387959083,
        -0.09201746896279861,
        -0.024567627367342637,
        -0.13175114635220703,
        -0.08122345378799306,
        0.12304200999867165,
        0.15237950537210182,
        0.09159191777067954,
        0.15608177068201995,
        -0.025521076144629923,
        0.03975845556570479,
        -0.02938749071147395,
        -0.08550588003287614,
        0.1440738399191131,
        -0.03041393835368661,
        0.051355915654152234,
        -0.06998429563737041,
        0.14870162103954204,
        0.039142179698009066,
        0.12595447303119817,
        0.023554077809339657,
        -0.14527165948438694,
        0.16882952573727378,
        -0.04418792102477287,
        0.009887767345278908,
        -0.1484119923207118,
        0.16158569209574192,
        0.10137902562855328,
        0.11652183323239224,
        -9.560639786884706e-05,
        -0.1452318721728195,
        -0.03277036426770277,
        -0.027150387751679966,
        0.1310965499622303,
        0.168887537172696,
        -0.02410667667430605,
        -0.006255293992660893,
        0.021575437787903107,
        -0.12412087958635834,
        -0.12573808130772654,
        0.1477854035582103,
        0.15292965577865186,
        -0.06293811872556046,
        -0.07917805077468061,
        0.12502564254862997,
        -0.11587545772319843,
        -0.04819772042754593,
        0.035240479595905205,
        0.036775550663200096,
        0.03144666202313123,
        -0.07719738757782171,
        0.15051867814853437,
        0.14616441679131809,
        -0.15795513357025875,
        0.12505895401836564,
        -0.08081877263995367,
        -0.16092468241059812,
        0.002034113326385756,
        -0.0005370903946107786,
        -0.09347844752823399,
        0.14507300148761376,
        0.1331388848498013,
        0.1317060786996862,
        0.1575395680490692,
        -0.07435329945954326,
        0.1055625239399372,
        0.06659394825810247,
        -0.08773983390427718,
        0.11440192442012698,
        -0.10809946505397415,
        -0.12296175974320112,
        -0.12510612586746828,
        -0.16575677643950326,
        -0.15175676683156047,
        -0.1440021626268837,
        -0.08642261695044857,
        0.10573564912131878,
        -0.12776498216956328,
        -0.06540613601147298,
        0.037191071063186476,
        0.03780003196491177,
        0.10378651136303424,
        0.07771131771200374,
        0.06848591160539899,
        0.0012457484087433635,
        0.16664163164942697,
        0.018272026459544982,
        0.14197179058356635,
        -0.021402745945067386,
        0.16693023030593307,
        -0.06796627056382103,
        -0.13643024553553057,
        0.05559847720277908,
        0.16333116103810125,
        0.15005122929810055,
        0.019417093344848868,
        -0.07447335792897727,
        0.1053307144325823,
        0.10094358697620198,
        -0.16701279831634722,
        -0.14809741357675937,
        0.0020042210028263785,
        -0.15598240468945737,
        -0.16525125042672156,
        0.1658022740606238,
        -0.0028776713294729195,
        0.0302744249625084,
        -0.006197180367533112,
        0.029735219206175417,
        0.07299925501433349,
        -0.14304055922791412,
        -0.054478333874023344,
        0.02665966138387002,
        0.13942275829266015,
        -0.12669001569477348,
        0.055663582412024654,
        -0.049723196618814275,
        0.012719353049833099,
        0.06213772714523544,
        0.1026981783421132,
        -0.09450308103507171,
        0.12003903666618215,
        -0.05377794932411541,
        -0.027832697381164867,
        0.03539031945948287,
        0.05881664067399889,
        0.052059004378952556,
        -0.09505716630458907,
        0.05537081913321226,
        0.14854730926237558,
        -0.11942688516778424,
        0.004380117248821397,
        0.024791264042779704,
        -0.028869095458112837,
        0.055165888226245186,
        0.16699176459824255,
        0.009480476219475648,
        -0.08389824145157414,
        0.10536514622355025,
        -0.023298439498073864,
        0.13639933827726863,
        -0.10829207396822119,
        0.02371166876866143,
        -0.1065622636147267,
        0.05176620427538617,
        0.10275892123937391,
        -0.08941154510386384,
        -0.07589741052501292,
        0.006647867452049733,
        -0.05258550496759026,
        0.07252038819370768,
        -0.1438039895377398,
        0.12017867751235661,
        0.16118058397781343,
        0.13268314592285063,
        -0.12039648929868918,
        0.06522548353898155,
        0.06125186888305076,
        0.03385266523948363
      ],
      [
        -0.034861251353951406,
        -0.1379071354794743,
        -0.08628861592370628,
        0.11682134557362395,
        -0.025419584401383838,
        0.14543931531813636,
        0.07458246401136942,
        0.1073849920715052,
        -0.025971046853225266,
        0.03224561947879276,
        -0.10290901597566875,
        -0.0008839131113936027,
        -0.01273384341547562,
        0.07045143724320457,
        -0.1301295572051489,
        -0.0937912059448572,
        -0.0014515935396507418,
        0.1628355171025217,
        0.09024565797789558,
        0.012081264347125836,
        -0.0983416213828047,
        -0.02065387305637137,
        0.029508920714696713,
        0.09192458486264993,
        -0.06975153264148215,
        -0.07947984855396255,
        0.07483386938235304,
        -0.04060004626102415,
        -0.1278440130824537,
        0.013155659132665781,
        0.09366796521389081,
        -0.1292625704762977,
        -0.04890845505349556,
        -0.1545373156880811,
        0.03396175132858545,
        0.11828465122239173,
        0.058815124500317284,
        -0.00022619691364497707,
        0.12304270088432367,
        -0.15834125543895186,
        0.09801371741225645,
        0.006534452949439384,
        -0.12319913840823939,
        0.09750790564293726,
        0.11426164185223786,
        -0.09376415264554012,
        0.09111052175548262,
        0.06627170039007563,
        0.14933837756710755,
        -0.07107130612177849,
        -0.12607128991673955,
        0.0568639137670609,
        0.12396068729981768,
        -0.10828695226884757,
        0.09514762427713552,
        0.11618931007950584,
        -0.14976343351240134,
        0.15274162612252856,
        -0.028615124386115715,
        -0.057651624434225515,
        -0.03515207524068842,
        0.03863021781223322,
        0.11201634767056368,
        0.07395048414407637,
        -0.01764350763778874,
        -0.0848930973668616,
        -0.1011244462890396,
        -0.05613029113085094,
        -0.036504309787031675,
        0.0451385523774073,
        -0.1516017485362401,
        -0.031070346950654082,
        0.09149647130199579,
        -0.14414702401845642,
        -0.04063316836386449,
        -0.12375492097193035,
        0.0032095679098778085,
        0.13470705164279884,
        0.07327567472930246,
        0.0369740757617511,
        -0.06898370924755319,
        0.057649881863332975,
        -0.026791041101027174,
        -0.14788004446627834,
        -0.0045830279685858955,
        0.07495229412779625,
        0.06937705236417138,
        -0.05781539329361393,
        -0.06839554057594621,
        -0.06393648647260713,
        0.05340966428298069,
        -0.06377854335657546,
        0.1489423207102265,
        -0.12580863331456474,
        -0.05307302018509101,
        0.1385208322368523,
        0.007112668309827652,
        0.05360519637982353,
        -0.15196845743394083,
        -0.0877425121061399,
        0.024516542240942296,
        -0.16535863371858447,
        -0.09885548401323653,
        -0.031390411826103914,
        0.15981563880568278,
        0.11562914239174316,
        -0.13328801059941478,
        -0.1147272359391672,
        0.07042717617521199,
        0.05881827216179422,
        -0.1297521547531792,
        0.1446475966575077,
        0.05386902695658907,
        0.14692840079774744,
        0.16464428680751203,
        -0.13403768524536513,
        0.09892785826859579,
        0.16355487941350194,
        -0.005934783300227425,
        0.022512324425669417,
        -0.16547147651728933,
        -0.13151188443709474,
        -0.1642891979089786,
        -0.1065540677455056,
        -0.020304390606104727,
        0.14202268503969073,
        -0.020225233185601432,
        0.05501414892865614,
        -0.1334661688383647,
        -0.04464507561311573,
        -0.0382800673261616,
        0.03439689170238133,
        -0.14183229933177272,
        0.09194147307142136,
        0.1553901952134059,
        0.14689879387235982,
        -0.0649244605687323,
        0.1344469557386082,
        -0.12096036999444587,
        0.11518699196012183,
        0.07433928149852911,
        0.138902052755136,
        -0.03774648746651921,
        0.15004324759308135,
        0.16827036600036738,
        -0.07684263042321733,
        0.007110124755828395,
        0.1586657738016945,
        -0.12574079742709737,
        -0.12872756297568103,
        -0.08702637362032097,
        -0.008320240180642757,
        -0.1217144387131496,
        0.03190584872121971,
        -0.0011587628779033132,
        0.007065006665723461,
        0.03846354126869994,
        -0.15719377421958544,
        -0.08657602992513345,
        0.08596602301637096,
        0.011792395614487722,
        0.15077601685710246,
        0.09839039987365672,
        -0.15700122121502766,
        0.005635691442793911,
        -0.16888622863149896,
        -0.14025174734884546,
        0.015721206849909686,
        0.13766162120366665,
        -0.14024268073497478,
        0.116095026471358,
        -0.1558551655075645,
        -0.06040766595726914,
        0.07032421859560847,
        -0.001730039170440456,
        -0.15582617253719092,
        0.07276068210242889,
        -0.13185142124109037,
        -0.07751700539134644,
        0.11468746153630544,
        -0.11259971692935333,
        -0.06279969330829473,
        0.15808926679625646,
        -0.0060900910362552685,
        0.08234717128976793,
        0.03152082566054612,
        0.014422143995940162,
        -0.15725128238348623,
        -0.16135999487568592,
        -0.10073584433109462,
        -0.1195858775775705,
        0.0821921946445574,
        -0.04682150669998951,
        0.14384042164164496,
        -0.07386876932411184,
        0.07304037205627795,
        0.02564026828461738,
        0.10156094606975347,
        0.015203249271338648,
        -0.013389501875483545
      ]
    ],
    "weight_v": [
      [
        -0.04034834022170093,
        -0.11067392193364602,
        0.017975090754821288,
        0.09665660243270416,
        0.061519499597820965,
        0.15813664601895014,
        -0.14141594189177917,
        -0.14523763218364494,
        0.09121643840993646,
        -0.010382479508488363,
        -0.1502575558986756,
        -0.16339111797151132,
        -0.05419687975291024,
        0.1540676042243115,
        -0.06655768710038243,
        -0.01065748271381306,
        0.046781699237642055,
        0.0061790887085987345,
        0.14370152783643633,
        -0.11047503673955325,
        0.043372329603056675,
        0.15489990325424122,
        -0.013974806264617695,
        -0.14650238337673815,
        -0.15364447593310557,
        -0.04955638628011998,
        0.09717346465690455,
        0.12113600587942971,
        0.15641543150930812,
        -0.06208759193853279,
        -0.036584690059769664,
        -0.04428056133052628,
        -3.933698438585154e-05,
        0.06615926467879746,
        -0.03490617795633455,
        0.0751393200383215,
        -0.007822459200217596,
        0.05671463656894285,
        0.02817483598372489,
        -0.07097036894210536,
        -0.026444456080079726,
        0.09695176647869583,
        -0.1353183100766361,
        -0.062017095017244575,
        0.046954577135667724,
        0.14191405335934135,
        -0.05897919049515339,
        0.12350006376301995,
        0.11852314552762974,
        -0.10555601246395752,
        0.10031433991433594,
        -0.027926118771189806,
        -0.07879810901696008,
        -0.07972672406755649,
        0.13831509833026914,
        0.024312202187542126,
        -0.0830033869005622,
        0.06462241801602497,
        -0.15157126949087554,
        -0.04854436760591753,
        0.04753354477341773,
        0.10557521400985412,
        -0.007418428689953405,
        -0.06665356047291118,
        0.06331831166606872,
        -0.15711485667768832,
        0.022402831352839853,
        0.001549975433760259,
        0.11818034394865154,
        -0.08838743142310963,
        0.05858535511196575,
        -0.15110356053885363,
        -0.1015849971267112,
        0.025575558753136524,
        0.11830996578715772,
        -0.02533470489514994,
        -0.16018922903119848,
        0.0880789802315782,
        0.1109176298309891,
        0.0393022927604007,
        -0.05084723311170379,
        0.04462590711705827,
        0.03970258354903991,
        0.09136568336494752,
        0.02803312515531023,
        0.12181412922776788,
        -0.13360170655567258,
        -0.09382955181680688,
        -0.0499670513283422,
        0.0682740886763239,
        -0.14242761626158237,
        0.10852142432493514,
        -0.06924032103812267,
        0.05055502660728314,
        -0.11516584878582005,
        -0.1224519417398236,
        0.05350524827898301,
        -0.06237191957245922,
        -0.008454383836922347,
        -0.15758546698049536,
        -0.13267619301716138,
        0.1399580117456579,
        0.15877304544522539,
        0.022899870057536936,
        0.03119431624541011,
        0.121373868053084,
        0.04166113147662498,
        0.11307128151946252,
        0.11177141395312926,
        -0.14467514972327056,
        -0.01723368544445858,
        -0.15916568990922822,
        0.13143706025068427,
        0.0785111103966975,
        0.0584318932608828,
        -0.0996032427836785,
        -0.0730331410792693,
        -0.0002623616511407967,
        -0.05007304742779793,
        0.007255414289531414,
        -0.09607958405601395,
        -0.16273390009363473,
        0.13847591496854453,
        -0.015824314869871153,
        -0.13612795998023564,
        -0.12801417517792754,
        0.024654435853267737,
        0.038671967217175696,
        -0.1177000693056833,
        -0.12408360800895084,
        0.058857764257826184,
        0.09679085304054943,
        0.11884928604390746,
        -0.012127370012271543,
        0.10702276109563388,
        0.004078566124237376,
        0.07227196577685849,
        -0.04511110653583161,
        -0.16035438486919704,
        0.05639672305244084,
        0.02273412710623951,
        0.07669364805784895,
        0.09152687696334735,
        0.1004622956752255,
        0.1457263186498959,
        -0.06992774411601639,
        0.0372265852132303,
        -0.0040338635233903575,
        -0.052864493378001934,
        -0.025288980175683345,
        0.03748752856772858,
        0.1358159925548054,
        -0.07629783900424643,
        0.0652017091938133,
        -0.05238118468669076,
        0.09403368542606941,
        0.09539557620643704,
        0.07761747930107102,
        0.023894727281104394,
        -0.14999806941031238,
        -0.12528245476154437,
        0.15917659231632617,
        0.026084751953580343,
        0.03766869518502616,
        0.10111905936586865,
        0.10170784745349346,
        0.0005113424604477057,
        0.0849490199680619,
        -0.027623301354086166,
        -0.10027518987777878,
        0.03218445162142236,
        0.029883009688338125,
        0.10932448024122418,
        0.06979636140752671,
        -0.0034397410414447327,
        -0.10594349993258484,
        0.1517902551065949,
        -0.13187861534488723,
        0.1430471195187946,
        -0.01259961335334861,
        -0.054592813940621196,
        0.09971256683792193,
        -0.15725608155510482,
        0.05132995882249894,
        -0.093289602927144,
        0.050563422857175355,
        -0.11882370998733116,
        0.016381746225757554,
        0.04154688171869719,
        -0.1620523836454314,
        0.06582441332816513,
        -0.06530781478059332,
        -0.12386886859922497,
        0.049021398869688565,
        -0.06878083945675331,
        0.0733217857109241,
        -0.09808579438073206,
        0.147679314975979,
        0.0862893304460445,
        0.06313614348509497
      ],
      [
        0.13578017656433447,
        0.12370184192264663,
        -0.13334181915030222,
        -0.10803532108484154,
        -0.13509844526588055,
        -0.07408552062654941,
        -0.016528442961232015,
        0.0641147674037465,
        0.14310419585340414,
        -0.09021273324110018,
        -0.09446943798908232,
        -0.15706325691919437,
        -0.1199921260714627,
        -0.15408040192234568,
        -0.017127246502892213,
        -0.0706103559519277,
        -0.04531124744257435,
        -0.11214839321341255,
        -0.07471448837312762,
        -0.15928063443402138,
        -0.07592730756055924,
        -0.011772811539435685,
        -0.1057487035827993,
        -0.1311809693146407,
        0.05927668170938144,
        -0.030120293613803112,
        -0.08347169341289627,
        -0.07053198563450112,
        0.04496212348041198,
        0.13980589890324882,
        0.061314617331870214,
        -0.14671945031199093,
        -0.11323356305989232,
        0.07000645690381313,
        0.01683186181133517,
        0.04187115556674051,
        -0.055826072906478535,
        -0.12583234717650704,
        -0.006544208823952402,
        0.14495392861846343,
        -0.11218521054667241,
        -0.10548701973046139,
        0.04696424104400121,
        -0.13364194653645864,
        0.11020251552889407,
        0.0676768081106088,
        0.16328303367203292,
        -0.11323087253035471,
        -0.1184014871757127,
        -0.13974067073933297,
        0.08001538173708728,
        -0.037929729247653615,
        0.05981998577603567,
        -0.15454547580638045,
        0.01053011743283025,
        0.03548905404706584,
        -0.09585028906159673,
        0.136738682603994,
        -0.08058100176424932,
        -0.019158490744764917,
        -0.0845309541987809,
        0.0672169678125902,
        -0.14467347849334883,
        -0.1232618139492001,
        -0.0032361080004779386,
        0.00031102434752239283,
        -0.026523632353039478,
        -0.1511544840327884,
        -0.010385905356896707,
        0.08346684766225546,
        0.04814055127728856,
        -0.0852206873179244,
        0.09465129953984283,
        0.10378002774357906,
        -0.0297854162970059,
        0.056340295660489426,
        -0.013873311700590946,
        0.009869659311154688,
        0.06592346932281595,
        0.054896337471596,
        0.007689993942606277,
        0.09311878146235733,
        -0.04136358365748405,
        0.1270497910429785,
        0.05744577820155991,
        0.09291271889574201,
        0.10596525904422313,
        0.0037070411337860043,
        0.08557414436257252,
        -0.08884975443894794,
        -0.16357821153561067,
        -0.12471106376259199,
        0.06964415287950454,
        -0.026208614052468715,
        -0.0668847250763669,
        -0.013505084325172001,
        0.07345862443718992,
        -0.05477265122163784,
        -0.1401667527133651,
        -0.11202116671536008,
        0.04047084284388544,
        0.075553844134671,
        -0.09781137881346469,
        0.1161580072135612,
        0.1354733809235096,
        0.11677222600875878,
        0.1131930674307218,
        -0.12177637543612851,
        -0.03954096517038097,
        0.07415591186006698,
        0.1523268602448574,
        -0.137269448124888,
        0.04396795052879729,
        0.006873494662264917,
        -0.10808507426536107,
        -0.0762337903033963,
        0.13366252739089188,
        0.13325380079272744,
        0.08508634726560874,
        -0.09536435972136417,
        0.1036313939450387,
        -0.071027355829307,
        -0.060558949325339034,
        -0.046853075218024634,
        -0.01112900003234829,
        -0.14486624086284333,
        -0.00912452565073893,
        0.022142398794279483,
        0.11880601237624158,
        0.07310364439582986,
        0.1309862448151071,
        -0.11807141888444322,
        -0.07221341855105687,
        0.07172561040939918,
        0.04923691064220459,
        0.10686629264204642,
        0.12700780554271954,
        0.15190025008995198,
        0.0961948326410367,
        -0.12055859302855479,
        -0.011888432360452478,
        -0.007743220418136937,
        0.020937352432530615,
        0.03296986163252699,
        -0.06719598044422467,
        -0.15122303543774313,
        -0.0651907145009706,
        0.1161321928574541,
        0.12789193994015483,
        -0.0877534626591959,
        0.10263514301663454,
        0.010681042434539434,
        0.1347142422590716,
        -0.164557129370652,
        0.1505453563161349,
        -0.016061901239484422,
        0.01963863783257816,
        -0.06547395634095092,
        0.02234566418570355,
        0.08623103292594606,
        0.08230005276994265,
        0.07469568343171157,
        -0.019916719221947127,
        -0.10475516613255366,
        0.08784846518296938,
        -0.004411385308723981,
        0.12765753886607775,
        0.10789173708451485,
        -0.09631714233595992,
        -0.1000569467146011,
        0.05208262064233901,
        -0.04068559118200393,
        -0.11268716799198247,
        -0.03734429288706245,
        -0.09343819884535577,
        -0.03066787491437009,
        0.13651853283696055,
        -0.07615810182563014,
        -0.029506986653340422,
        -0.12015257226179235,
        -0.14478028192196568,
        -0.13312835260274697,
        0.10503175173678617,
        -0.03637847613292794,
        -0.15783641745827715,
        0.0012485207681492416,
        0.13954419950228178,
        0.12990637157339394,
        0.002826158855875477,
        -0.040345071488291154,
        -0.041168978124495326,
        -0.016081083063583662,
        0.14396361981483388,
        -0.0248347424450866,
        -0.13135586236972,
        -0.05667335985711952,
        0.0657048937874857,
        0.047984972361595046,
        0.012084300538054926,
        -0.07460442530677522
      ],
      [
        -0.12167071402367113,
        -0.03143199525366783,
        -0.05455779885155991,
        -0.017168139704829916,
        -0.08882933212425387,
        -0.04660820744390158,
        0.12421445405058543,
        0.13542971405578388,
        -0.13716269240536022,
        0.1469299918052334,
        0.1553943874836177,
        0.013485251843249169,
        0.026155124812505537,
        0.020086399524704368,
        0.04981486183298919,
        0.11541508819708982,
        0.031473604171345676,
        -0.16106602232497813,
        0.10975820503424258,
        -0.06549279691552429,
        0.014226597130003737,
        -0.08476728696146865,
        -0.06753243262595743,
        0.15099184761363146,
        -0.021356884622774824,
        -0.1524928177056867,
        -0.09735342715368651,
        -0.020562765333496602,
        0.11995228140987782,
        0.0669440517818925,
        0.0634776009519876,
        -0.022853496421389063,
        -0.14157343317011253,
        0.0063271429376610955,
        -0.04919822658641852,
        -0.15542482037611163,
        0.11194745371393702,
        -0.007951616920636506,
        -0.12263123771350536,
        0.04138658712379248,
        0.07877628951258339,
        -0.04470586582609436,
        0.08502089623084216,
        0.10328148426271858,
        0.06806591254642816,
        0.06637107994665059,
        -0.12461432997770563,
        -0.010821585313922383,
        -0.1449348115082391,
        -0.16022512820208332,
        -0.018550895210151214,
        -0.07036735454663716,
        0.017661967467989037,
        0.04312793816585478,
        0.12825916761320008,
        -0.1614451390185658,
        0.0519933032642764,
        0.004329565468657426,
        0.12647640343616426,
        0.12639602239754524,
        0.06986084533842968,
        0.11557230191487014,
        0.10676274960832485,
        0.03220693561731805,
        -0.01055453106868709,
        0.1616751254564431,
        0.026464135549841644,
        0.12498275236733733,
        -0.02047622317928538,
        -0.0031906270792125824,
        0.07865983239339017,
        -0.000442038229611752,
        0.024782339564156458,
        -0.08358785260310944,
        0.008832806977014773,
        -0.11612962976962748,
        0.16195207157475563,
        0.06737979941201541,
        -0.07862279899912036,
        -0.06716982908460567,
        0.07592109969447294,
        0.07615225332151612,
        0.08096495913045926,
        -0.07531980892106534,
        0.03681132813824298,
        0.032767433742701996,
        -0.13260444160993912,
        0.09333441047053673,
        0.11460602373665804,
        0.06861733619397162,
        -0.022507293130901912,
        0.021903456961338053,
        0.028009234290197332,
        0.000664039668190286,
        0.048988178537908766,
        0.1502557903001748,
        0.07829223662582041,
        0.1641844187974371,
        -0.08396824884469259,
        -0.12254719213845952,
        0.05527360703317838,
        0.11419521177197398,
        -0.0144553162874059,
        -0.09069419017558833,
        -0.039407608880642625,
        -0.0712836980830859,
        -0.06511021993884339,
        0.007502690455429145,
        0.031048729359159977,
        0.1479207065763559,
        -0.08367048866018176,
        -0.08680034279325385,
        0.08668877447991771,
        -0.05506582242105941,
        0.12332865920738881,
        0.1092750059994507,
        -0.07491233070824925,
        0.11832630917010481,
        -0.03994474528260414,
        0.005841310518295978,
        0.0917697485116066,
        0.03244964625419433,
        -0.1534305605402256,
        -0.15764080048478424,
        0.029533935692018926,
        0.04116670336298289,
        -0.022433002492257353,
        -0.12604142268523755,
        -0.13494913397204755,
        -0.08658944176078368,
        0.13421585814610246,
        -0.0981272372010805,
        -0.12555058509850528,
        0.03516359349105644,
        0.09817372878788863,
        0.12528484248142438,
        0.08651201879457329,
        0.10065533107010652,
        0.05607042862639808,
        -0.1133175279165082,
        -0.15892979220091055,
        -0.05333818897906059,
        -0.032790033047018136,
        -0.15358339044429078,
        -0.002823253498337064,
        0.1229666885147446,
        0.021787084093064846,
        0.14056180805654858,
        -0.14409975695505986,
        -0.14962004390180134,
        -0.0003342258694715994,
        0.07497098648094139,
        -0.002696135810704131,
        0.12682208812626336,
        -0.0630272947070545,
        -0.007819105096188855,
        -0.031169518346186503,
        0.03708795534646539,
        -0.029786251624251525,
        0.04005139029291849,
        -0.03888040231730666,
        -0.10449547201637907,
        0.11854759450300342,
        -0.04837163595436092,
        0.1244598857272721,
        -0.06377369143923346,
        -0.1122337616700934,
        0.0026834581520092937,
        0.04428772540517706,
        0.023180109141422434,
        0.09270599229670476,
        -0.16257321705615915,
        -0.03151818502028386,
        -0.0802075733329525,
        0.1526065693216149,
        -0.12088888213408927,
        -0.07164855238708155,
        -0.04226115219967992,
        -0.034139766628564855,
        -0.030132114642571234,
        0.1195727312441395,
        -0.1466425277805168,
        -0.010268208693332948,
        0.13560555088104112,
        0.08900251960074121,
        -0.0735173939791485,
        -0.053472038487173246,
        -0.05298192583652028,
        -0.020271351428129775,
        0.014912282457748921,
        0.15522808940550778,
        -0.11483318015651539,
        0.045807990129564935,
        0.10846601223505623,
        0.011712849929016333,
        0.05709811769516851,
        0.13126618215297078,
        -0.09941345582578885,
        0.019316935686013115,
        -0.020928256527940003
      ],
      [
        -0.07055768680013377,
        -0.15684958279835776,
        -0.14319857244799777,
        0.029082323459097476,
        -0.15003429225730394,
        0.1085385945271389,
        -0.14538837923447634,
        -0.09902433195419526,
        -0.08771386185299493,
        0.022912079394336482,
        0.04023109461326563,
        -0.0749522861286953,
        0.009415168670771634,
        -0.05517947722914025,
        -0.11851154285912816,
        0.006760084750241702,
        0.14620203081425084,
        0.0785809437502051,
        -0.10974428455743432,
        -0.08953625648952347,
        -0.13072296161004723,
        0.06899296034102476,
        0.07305467161545803,
        -0.12765088169009503,
        0.0741253985499131,
        -0.11717029084341038,
        0.12731298921584852,
        -0.01110700426242428,
        0.10182805398291464,
        0.027070713768115956,
        0.043645753796081405,
        -0.030405448317541717,
        0.14243507248718937,
        -0.10709231805954224,
        -0.03751443883379682,
        -0.10560074054384147,
        0.04007283103636003,
        -0.15494894998950592,
        0.011315469225946645,
        -0.051045537058951304,
        0.08743226162847126,
        0.07265910876882273,
        0.0013713722204763412,
        0.00261342211664109,
        0.06334636208083547,
        0.15544879186754998,
        -0.02280602592531783,
        -0.13892058320380674,
        -0.1167851591088539,
        0.09890182739391531,
        0.10873624337652302,
        0.1094765109580049,
        0.07377717264385769,
        0.14015642276026555,
        0.03959348045299804,
        -0.009761957123578857,
        0.11538828509052004,
        -0.13866093213008296,
        -0.0037678845586034404,
        -0.1206652923110319,
        0.15170067383680738,
        -0.11127994343249975,
        -0.05319887514237086,
        -0.1379014788346548,
        -0.083120791294607,
        0.13454319398866046,
        -0.03550832327700451,
        -0.13540297928110911,
        -0.11725578992754937,
        0.09975585150633601,
        0.11015112703011734,
        0.09977558099917863,
        0.07414690608921265,
        -0.014853174694822363,
        0.08731388911605156,
        0.01872314118312035,
        0.13744218919040388,
        0.025214770706567358,
        -0.0031260276994986846,
        0.05297592566504,
        0.020376961025211526,
        -0.06045973863241719,
        -0.00303294486903799,
        0.033662128639921435,
        0.017651047169411904,
        -0.09619680402003755,
        0.1281748553881479,
        0.11281366059550837,
        -0.06663692786289309,
        -0.045918228520175325,
        0.11342215266643987,
        0.05780535381213786,
        0.10551518968501325,
        -0.12133427656993415,
        -0.05698828088423172,
        -0.11919021756121992,
        0.04036352194057713,
        -0.12985820127330028,
        -0.12063107907854959,
        0.05920426477110202,
        -0.07574191618803218,
        0.06557690835042182,
        0.12262815771792915,
        -0.033260896491037056,
        -0.0439431274595644,
        -0.0694182850070059,
        -0.013193805069178749,
        -0.040792628799116756,
        0.13710371324876033,
        -0.10179898786429692,
        -0.021614415786076424,
        -0.1408311191378344,
        0.050171398684849544,
        -0.09832279745412927,
        -0.017546245846296826,
        0.03003567736773674,
        -0.16304810312038454,
        -0.07821065154481578,
        0.05641747129804542,
        0.13130077157720413,
        0.03427720348492422,
        0.1192708060052057,
        0.15026553078324226,
        -0.09295945549900317,
        -0.020824270689075774,
        -0.09543538259594384,
        0.15275860778225228,
        -0.07235836531512525,
        0.05876341193469012,
        0.025784822048777384,
        0.11816436990768844,
        -0.1464340576177906,
        0.13675362008117728,
        -0.01895462397387604,
        0.13107607281346126,
        0.05291201364729764,
        -0.0017535061063261026,
        0.06027300548943926,
        -0.034221979165466765,
        0.1432134783301859,
        0.1434625500658884,
        -0.04015644510642974,
        0.06182061257308258,
        -0.05759206954556351,
        -0.013987065055419717,
        -0.15459169138787088,
        0.011678866226458251,
        -0.14584807421394977,
        0.10815128836100754,
        0.0439411779948361,
        0.10526926959995744,
        0.1460993402359194,
        -0.12033451283923366,
        0.07025288471982002,
        -0.08835162356310515,
        -0.11213485900169683,
        0.09033555892893405,
        0.08798789828261847,
        0.01631099489378915,
        -0.028540508615065935,
        -0.022850387592213584,
        -0.06079988962418292,
        0.01515117824425019,
        0.040896978631975084,
        0.11082002122696447,
        -0.013305443718771792,
        -0.05861969508671795,
        0.12489080789568538,
        0.09878268354036626,
        0.01601939015790299,
        0.06053015784025223,
        -0.10572932598439103,
        0.11883172686691154,
        0.05238962232413005,
        -0.15842736047887002,
        0.12743121740600752,
        0.13257258761731303,
        -0.12364278860937883,
        0.14677601733182458,
        -0.021708570118978587,
        -0.15464773526248154,
        -0.10379360884344568,
        -0.07624693936598383,
        -0.11585474863058483,
        -0.016775431875546504,
        -0.0483058214182589,
        -0.05861321367480836,
        -0.03373774266999646,
        0.1169977917515945,
        0.10193998547831365,
        0.08590411120946553,
        0.12407983684133575,
        -0.14926735336823485,
        0.010143825586835242,
        0.1283210881323155,
        -0.09696244646438917,
        0.09135856791037347,
        -0.12795324727100205,
        0.09997711700005948,
        0.13524649695894117
      ],
      [
        0.057432131047953694,
        0.02004789831664311,
        0.11155444555152552,
        -0.052352943125207746,
        -0.041985650193135646,
        -0.12074813683626787,
        -0.15815750527699243,
        -0.010077100409396522,
        -0.04083970254152543,
        -0.08372672971936881,
        0.05594616021175855,
        0.15948508524752628,
        -0.11429647495031747,
        0.10275101123803862,
        0.011089424606438941,
        -0.14287799577183452,
        -0.02604345667008834,
        0.10583785759231265,
        0.041107640215454155,
        0.12636953434427825,
        -0.02587396068495859,
        0.01692445935301165,
        -0.10200950509040807,
        0.13786522334433696,
        0.06066807473614169,
        -0.006128913372606126,
        0.09215142038980698,
        -0.047341213164458995,
        -0.06043725418202933,
        0.056042333604619965,
        0.1556415110315292,
        -0.028050263378228274,
        -0.1387664892888439,
        0.08286674254617932,
        -0.15724404023415728,
        0.0960796167262358,
        0.04308262342698327,
        -0.10709524626459155,
        0.13496151027414657,
        -0.10204950051666158,
        0.16253901563852033,
        0.003873448496849563,
        0.012614312543980433,
        0.005775398611374383,
        -0.1269231485043238,
        0.13972192649459123,
        -0.06939091770443713,
        0.13079563765638993,
        -0.11832841957729678,
        0.06752432600954719,
        0.027718909224824062,
        -0.15972415080967464,
        0.0947230025751172,
        -0.028172221285891974,
        -0.017692039266469006,
        -0.03962145697473843,
        -0.003914197590397878,
        0.12590756588336158,
        0.10317423443678161,
        0.05277475121996614,
        0.06684437780437136,
        0.13171574171579678,
        0.15131224343637598,
        0.12189055818314451,
        0.07439991980362642,
        -0.1074588810472511,
        -0.09662360757942352,
        0.07846151675974322,
        0.15055977788556743,
        0.019461165341204983,
        -0.12933150695352552,
        -0.04665913258836417,
        0.039004378949309054,
        -0.11757891357297062,
        0.10327712419765309,
        -0.10935645445855503,
        -0.1473645347477727,
        0.05103808067023463,
        0.0374958469320294,
        -0.09333106920090825,
        0.15820431385429715,
        -0.08143445577664371,
        0.0221402872545311,
        0.04248089532112409,
        -0.15013735445198695,
        -0.09738544703481936,
        -0.018150870318784484,
        -0.07511133380598572,
        -0.15387332033295467,
        -0.0707752704209857,
        0.13470452993782142,
        0.0064121385519397,
        -0.0297804817009861,
        0.09258053128228691,
        -0.09667160903551537,
        0.10753232755220685,
        0.08030610253850345,
        -0.11627909922041602,
        -0.1282945347886088,
        0.06868586412192201,
        -0.061845523383217776,
        0.0676878676747315,
        0.07996140272280591,
        0.0005768368726276618,
        -0.12382157930005713,
        0.09196362191808219,
        -0.1144510136540779,
        -0.07286881439728299,
        -0.0648402229489309,
        -0.03179104579404676,
        0.06677405691405516,
        -0.08160678635999732,
        0.016402062714529292,
        -0.10686183482407557,
        0.06152269659229914,
        0.016524166451159755,
        -0.12987546645019482,
        0.1584960787922889,
        0.09400351268906845,
        0.03890226014198439,
        -0.11650264581637865,
        -0.07104300615455704,
        0.041340702451013234,
        0.137301887098327,
        -0.15822705380951174,
        0.0012296895930886953,
        -0.16163352788268126,
        0.018599557101036668,
        -0.1642058512535627,
        -0.048353643735895235,
        0.021622021373762845,
        -0.1180598880762295,
        0.025284655933727362,
        0.04222509286266621,
        -0.02619927177004555,
        0.021006767268570703,
        0.14749144639925496,
        -0.07619990180938971,
        -0.10167227819451034,
        0.11597550977443341,
        -0.056615890043879666,
        -0.08515483272267398,
        -0.08182538248806923,
        -0.08197971907893375,
        0.09302581704688687,
        -0.08361666853587035,
        0.05071171441579628,
        -0.16502059842861191,
        -0.12329671247524562,
        -0.14454729450625511,
        -0.15570759606232001,
        0.08458371485885974,
        0.15712306798259953,
        -0.057302233053590584,
        0.06781593658295604,
        0.0421800145375113,
        0.06744060547070937,
        0.07793087972927598,
        0.03842971796890263,
        0.05486510863037217,
        -0.015868897936270443,
        0.09887006719282485,
        -0.1313109053428288,
        0.1087209587588315,
        0.0574692745534211,
        -0.0926822452115066,
        -0.14179404081985048,
        -0.07610082075473576,
        -0.1436523338869987,
        0.10720873049447352,
        -0.1297782158941384,
        0.030910914627130526,
        0.06372175346663086,
        -0.13077529954402128,
        0.10875403250399615,
        -0.1371995086746168,
        -0.10647953480013682,
        -0.09149428599840367,
        0.13545090404369178,
        0.08022356810774645,
        0.13043878175683685,
        0.15760548297518387,
        -0.13135221424700874,
        0.08317354987633341,
        0.1465112660126663,
        -0.011534688469793442,
        0.002960939100935478,
        0.14227193603336605,
        -0.14032279546807555,
        0.02109625777290111,
        -0.06825108535118439,
        -0.05679746261322513,
        -0.16097860815735426,
        -0.1322614265933389,
        0.0781062148357812,
        0.008384033776419553,
        0.13294667683935604,
        0.15948741638135375,
        -0.15067901553584223,
        0.01661423502813833
      ],
      [
        0.12405266327677247,
        0.10667998159729322,
        -0.06801730213720249,
        0.049862119440078984,
        -0.04241798678421961,
        0.12152935788730215,
        -0.10201471763456833,
        0.03217392055397547,
        -0.055071846226968424,
        0.0715261128303894,
        -0.025848616875626784,
        0.10784294561453553,
        0.07559581506005014,
        -0.04617524520006262,
        -0.06613314895234629,
        -0.026850294138748898,
        0.0877380646102203,
        0.0524833956473596,
        -0.015308750026324508,
        -0.15310945613977278,
        0.14368350093487173,
        -0.05199465638067402,
        -0.06270356881696054,
        0.15920464758334127,
        -0.006218606547354316,
        -0.155765542492798,
        -0.08894684660218125,
        -0.1412704469721332,
        -0.1355072909383893,
        0.005234370454783227,
        0.03888606216659499,
        -0.04421182395413194,
        0.12577091644294106,
        0.022058673956576597,
        -0.0427389683185847,
        0.10882856989587478,
        0.12184701693331809,
        -0.008507299827093029,
        -0.1359348029879619,
        0.01879902242597628,
        0.007209830775081166,
        -0.13621534256548729,
        0.08586700879235873,
        0.15377463698390295,
        -0.015060552236686953,
        0.15787121207803353,
        -0.030867089430735517,
        0.14180616748838334,
        -0.10729967938494578,
        0.15843016050895029,
        -0.025566121872854092,
        -0.1127089658448395,
        0.12511345675292104,
        -0.15713090280769515,
        -0.013008980556390687,
        0.08887617673011641,
        -0.14494474231808246,
        0.0764588655113288,
        0.10310856156678319,
        -0.13500491893171185,
        0.06125214850924676,
        0.05234699196863582,
        -0.05523165617646063,
        0.14326855280743653,
        0.14428026443994194,
        0.12039181525223044,
        0.10171311281754494,
        -0.0782694912311931,
        -0.0322637172231188,
        -0.013136119091767179,
        0.11722271513376206,
        -0.0913517267326664,
        0.10865407010883124,
        -0.06368211461951845,
        0.1368592420242675,
        0.14651477226829154,
        -0.001994367365687033,
        -0.023932310160909076,
        0.05404636711014768,
        -0.07643780662962123,
        0.11811505017641358,
        0.1304639396900755,
        0.12997454960332241,
        0.12523190679252152,
        0.15442985297804598,
        -0.030227386179074334,
        -0.13515841088651698,
        0.014097176842609749,
        -0.05739197573235652,
        0.10190847188856336,
        0.14626327606849557,
        0.10408428746189666,
        -0.002991069709601779,
        0.13590932853400614,
        0.05635075314925381,
        0.007348558827321855,
        -0.09220664563526249,
        -0.0091400022165819,
        0.11269994798285696,
        -0.1484661768806431,
        0.09965596970764992,
        -0.13357839814960093,
        0.1541973235839144,
        -0.011405652016604068,
        -0.1086629182878554,
        -0.13369820458646867,
        -0.015428369209390003,
        0.15263907236075427,
        0.049588449460112344,
        0.1450569480793444,
        -0.009526786653732355,
        0.09485940522217709,
        0.005637716193690218,
        -0.1650562081043176,
        0.007157001247834055,
        -0.08795442274485747,
        -0.0929255960368819,
        -0.16331812218595337,
        -0.12304171770094816,
        -0.048443925296958776,
        0.0060908996564453255,
        -0.05670467771560579,
        0.09337532874958657,
        0.019420231269892008,
        -0.02107643822541888,
        0.16152359643440498,
        -0.07332642326294374,
        -0.036759647644788174,
        -0.009452379939651395,
        0.07167423935604447,
        -0.10179445815680127,
        0.005167589582096566,
        -0.11088286425630484,
        -0.15217152536646572,
        -0.15903241385249284,
        -0.06555112645090713,
        -0.04156230694396343,
        -0.1627190020076773,
        -0.13300661169180575,
        0.06031201906372796,
        -0.06314768049875784,
        0.08257385206177836,
        -0.04689761848256087,
        -0.004870263755900273,
        0.00893507885148176,
        -0.004719626519936626,
        0.049112261316807626,
        0.12430258571181005,
        -0.07616312231201695,
        -0.06739947252588274,
        0.12868321107209477,
        0.04671218535308502,
        0.05220416189328425,
        0.08217589506274348,
        0.12875676572925424,
        0.10915340877145444,
        0.1302381733230402,
        -0.15723125980309627,
        -0.004203059804661596,
        -0.14626975538266523,
        -0.0966701758821628,
        -0.041904600786716734,
        -0.008973448935681777,
        -0.14982022851389798,
        0.06362496922845418,
        0.05257508413063841,
        -0.026857938853261792,
        -0.13215161003467193,
        -0.0373876444508624,
        -0.16295177475906214,
        -0.0702333203763534,
        -0.026203796838848242,
        0.023456464374397773,
        0.014568925703037416,
        -0.14428528685643874,
        0.11218037134980027,
        -0.11858863417481019,
        -0.14751419674877078,
        -0.022666499150583025,
        -0.0294191243224686,
        0.1456020456549025,
        -0.025222419494804055,
        -0.08244434372033184,
        0.03954016968956092,
        -0.1605917327624669,
        -0.04627290999358816,
        0.035193467325965566,
        0.12095161292377052,
        0.050951351871500045,
        0.014689989439026857,
        0.07413037810553869,
        -0.07464964431616403,
        -0.07457681986060763,
        -0.1219579054506274,
        0.09786556755010814,
        -0.02000302089527478,
        0.1052556375462256,
        0.021501419737620847,
        -0.1385022085641226,
        0.11865923798319464
      ],
      [
        0.12623769657645809,
        0.13073290328152257,
        0.15304874705759366,
        -0.05917919955643716,
        -0.12029179135487225,
        -0.019869941883477793,
        -0.059828958903374446,
        -0.08198899023604227,
        -0.11842884681093445,
        -0.06044840196746222,
        -0.061818429292415294,
        0.011798019736826565,
        0.06983679861722902,
        -0.11471036815534222,
        -0.09718769872916702,
        0.0052027706189611556,
        0.05104384481820612,
        0.15562900134608246,
        -0.11932182286304002,
        0.09037188120345777,
        -0.09360091703994819,
        -0.09424691010280005,
        0.006149995168793332,
        -0.14450773049512486,
        0.12971047001628364,
        0.017890325016764075,
        -0.054555847975921945,
        -0.060440121753407,
        -0.03477703812827257,
        -0.04055776637723672,
        -0.08179547523104529,
        0.11968913853832583,
        0.07509824374608073,
        0.042909770684247145,
        0.06995806639717642,
        0.1401801650828647,
        -0.14605245161580405,
        -0.11857931714756198,
        -0.1640906927223115,
        -0.05523605985222624,
        0.03117156090287651,
        -0.09698868189186498,
        -0.020735924844913073,
        0.14683918029008522,
        -0.16075096061173152,
        0.04832635226027235,
        -0.15112062157667794,
        0.11489949028894211,
        -0.15996633328607943,
        0.15576143100977805,
        0.06795523422465255,
        -0.10001305092349849,
        0.055607382773529584,
        -0.019772937031740018,
        -0.07423530112681656,
        -0.07676454151441335,
        -0.006700278406182841,
        0.15100436182203816,
        -0.10021396065458467,
        0.06362827335666699,
        -0.15381749683027562,
        0.06358035181982827,
        0.08039323709260707,
        0.09766137333277033,
        -0.1438392231692405,
        0.029205372007950148,
        0.14872950876688548,
        -0.13160384218295648,
        -0.1597359128131831,
        0.033261755899125084,
        0.004878030607190359,
        -0.036555356775756026,
        0.1491927534696684,
        0.01606148479762981,
        0.04718001000830546,
        -0.061631225874403936,
        0.14104682763885915,
        0.07715484554889698,
        -0.04892589092732745,
        -0.15379893692744748,
        -0.08799141622552428,
        0.07990228293591259,
        -0.016045021313568886,
        -0.1510001149927725,
        -0.0058139283725584245,
        -0.159361435327549,
        -0.1593906958578262,
        0.025917135181700107,
        0.0705971696133042,
